-1.881128102540969849e-01
-5.798472166061401367e-01
9.561172872781753540e-02
-5.235273241996765137e-01
2.091516256332397461e-01
-3.317753970623016357e-01
-7.100137323141098022e-02
-2.855030000209808350e-01
-9.403901547193527222e-02
9.658984094858169556e-02
-9.888866543769836426e-02
4.115238487720489502e-01
-1.375622600317001343e-01
-2.716206014156341553e-01
-4.062646031379699707e-01
1.061864420771598816e-01
-3.204801082611083984e-01
3.388823568820953369e-01
-1.471190601587295532e-01
-3.953993320465087891e-01
-5.815262719988822937e-02
5.521159246563911438e-02
-2.019480466842651367e-01
2.022664994001388550e-01
-1.045251786708831787e-01
-9.800602681934833527e-03
-3.122646510601043701e-01
-2.321929782629013062e-01
-8.049115538597106934e-02
1.199696511030197144e-01
-2.057575881481170654e-01
-2.195515111088752747e-02
-5.561722517013549805e-01
1.181267276406288147e-01
-5.930904299020767212e-02
-2.127508521080017090e-01
-9.591577947139739990e-02
5.308907479047775269e-02
-5.098192095756530762e-01
5.557444691658020020e-02
-1.198355779051780701e-01
-7.070048898458480835e-02
-3.300916254520416260e-01
-3.974959254264831543e-01
-8.099453151226043701e-02
-4.027662575244903564e-01
-1.091647818684577942e-01
-1.126653864048421383e-03
6.914772838354110718e-02
-1.193345561623573303e-01
