5.275923013687133789e-01
-1.002231463789939880e-01
4.902536869049072266e-01
-9.671713411808013916e-02
-1.382888257503509521e-01
-2.591848671436309814e-01
1.542743444442749023e-01
8.476360142230987549e-02
-3.112895786762237549e-01
1.672273874282836914e-01
8.385383337736129761e-02
-1.486236304044723511e-01
2.499213963747024536e-01
-4.383130967617034912e-01
-1.146184578537940979e-01
-3.886390328407287598e-01
-1.874784529209136963e-01
6.863259524106979370e-02
1.373129189014434814e-01
1.228787153959274292e-01
-8.253931254148483276e-02
-2.429395914077758789e-01
-1.691707521677017212e-01
-5.623880028724670410e-02
7.712438236922025681e-03
-1.620781123638153076e-01
1.360810250043869019e-01
1.804834902286529541e-01
-1.046560555696487427e-01
-1.379548013210296631e-01
-6.805436313152313232e-02
-9.651415795087814331e-02
-1.937722787261009216e-02
-2.785370945930480957e-01
-1.411002278327941895e-01
6.979585438966751099e-02
3.543403744697570801e-02
-6.748251616954803467e-02
-1.714613884687423706e-01
-4.675597697496414185e-02
-5.190660357475280762e-01
-2.003184705972671509e-01
1.335405856370925903e-01
-5.408682227134704590e-01
1.966227889060974121e-01
-3.855464458465576172e-01
-6.457656621932983398e-02
-7.380022406578063965e-01
-3.922358751296997070e-01
-1.992841660976409912e-01
