-1.116019934415817261e-01,-2.878777384757995605e-01,-4.057862460613250732e-01,-9.748647920787334442e-03,-1.872034966945648193e-01,8.739250898361206055e-02,-3.285810118541121483e-03,4.307316988706588745e-02,-9.133581817150115967e-02,3.636113926768302917e-02,-1.074451953172683716e-01,9.781094640493392944e-02,-4.519671667367219925e-03,-1.733307391405105591e-01,1.376745849847793579e-01,9.911121428012847900e-02,-1.878786981105804443e-01,-1.780432909727096558e-01,-1.433465480804443359e-01,-1.808414310216903687e-01,-1.730176955461502075e-01,-2.980903387069702148e-01,2.267965972423553467e-01,7.472935318946838379e-02,-3.222586512565612793e-01,1.687672287225723267e-01,-1.305049657821655273e-01,9.754187613725662231e-02,6.868755817413330078e-02,4.203375279903411865e-01,1.888922601938247681e-01,-2.250436544418334961e-01,-1.158304139971733093e-01,-2.096123248338699341e-01,1.746995151042938232e-01,2.230117470026016235e-01,1.573853045701980591e-01,1.327424049377441406e-01,-3.435616195201873779e-02,-1.798152774572372437e-01,-2.308555506169795990e-02,9.538903832435607910e-03,-1.838738285005092621e-02,-1.118136569857597351e-01,-6.159196794033050537e-02,-2.014889270067214966e-01,-6.157516315579414368e-02,5.585052073001861572e-03,6.764958798885345459e-02,-9.977242350578308105e-02
2.051951549947261810e-02,-1.673402041196823120e-01,6.455062329769134521e-02,2.261263579130172729e-01,-2.099717967212200165e-02,-8.377182483673095703e-02,-1.174433454871177673e-01,-1.234776750206947327e-01,-2.063235193490982056e-01,2.892054319381713867e-01,-1.375014483928680420e-01,-1.475215610116720200e-02,6.971465051174163818e-02,-2.513767778873443604e-01,-1.618359088897705078e-01,9.991757571697235107e-02,-2.583368122577667236e-01,9.659623354673385620e-02,-2.221052795648574829e-01,4.044207930564880371e-02,-2.316832691431045532e-01,-1.511870473623275757e-01,1.861055344343185425e-01,-1.911666542291641235e-01,9.369937330484390259e-02,-1.694783270359039307e-01,-1.484753005206584930e-02,-1.109828799962997437e-01,3.777593374252319336e-02,-1.415434181690216064e-01,-1.692105978727340698e-01,-9.166108816862106323e-02,-1.028776839375495911e-01,2.469305396080017090e-01,-6.743650138378143311e-02,1.524969339370727539e-01,-1.127357855439186096e-01,2.794634997844696045e-01,2.718833982944488525e-01,2.191867530345916748e-01,-8.443634212017059326e-02,3.562581539154052734e-02,3.911964595317840576e-01,1.172587722539901733e-01,1.665978282690048218e-01,-2.865268886089324951e-01,-2.882376015186309814e-01,-2.260209992527961731e-02,-1.841133385896682739e-01,7.626035809516906738e-02
1.002772673964500427e-01,-2.692878544330596924e-01,-1.669336259365081787e-01,3.873120620846748352e-02,1.202245056629180908e-01,-2.743797898292541504e-01,-2.830515205860137939e-01,5.309099331498146057e-02,-6.360145658254623413e-02,-2.075238823890686035e-01,1.430515403626486659e-04,6.391364336013793945e-02,-2.543665170669555664e-01,2.419334650039672852e-01,-4.548580944538116455e-02,-2.878448963165283203e-01,2.333916872739791870e-01,-2.384626865386962891e-02,2.125468254089355469e-01,1.027252227067947388e-01,-3.676960989832878113e-02,1.763116568326950073e-01,-9.214083850383758545e-02,2.007034271955490112e-01,2.577620446681976318e-01,1.910811513662338257e-01,-2.374593317508697510e-01,3.870300650596618652e-01,2.274235486984252930e-01,-2.327634543180465698e-01,7.807971443980932236e-03,2.479108870029449463e-01,3.064209818840026855e-01,1.448673307895660400e-01,-2.962152361869812012e-01,-1.595273017883300781e-01,-2.507767081260681152e-01,1.276719421148300171e-01,1.219306290149688721e-01,8.176798373460769653e-02,2.379118502140045166e-01,-1.074396818876266479e-01,-2.541508972644805908e-01,-6.443450599908828735e-02,1.057390794157981873e-01,-3.192399069666862488e-02,1.827494949102401733e-01,-1.199975684285163879e-01,-4.076898097991943359e-02,1.989015787839889526e-01
-2.411185950040817261e-01,-5.684654787182807922e-02,-4.364572167396545410e-01,-2.309961430728435516e-02,1.668563336133956909e-01,-1.587315090000629425e-02,4.368966445326805115e-02,-1.487833410501480103e-01,-1.142695248126983643e-01,1.781560853123664856e-02,2.279237061738967896e-01,-1.575767844915390015e-01,-6.284885853528976440e-02,-5.891549959778785706e-02,4.295569658279418945e-02,-1.634742319583892822e-01,-1.315218489617109299e-02,-1.907610706984996796e-02,-2.425892204046249390e-01,-3.145542740821838379e-02,-1.858296543359756470e-01,3.217847272753715515e-02,-1.027096733450889587e-01,-9.984193369746208191e-03,-2.535554021596908569e-02,8.576653152704238892e-02,-2.984976172447204590e-01,-1.642800718545913696e-01,-5.978700518608093262e-02,1.271656304597854614e-01,-3.494900465011596680e-02,-3.136925697326660156e-01,4.070253968238830566e-01,-8.155830949544906616e-02,1.344961076974868774e-01,-2.656093835830688477e-01,-2.120940685272216797e-01,-1.066081225872039795e-01,-3.957008197903633118e-02,1.993355900049209595e-01,4.637909308075904846e-02,-6.995341181755065918e-02,2.162939012050628662e-01,-8.916370570659637451e-02,-2.009449750185012817e-01,1.053298115730285645e-01,1.411387324333190918e-01,-1.626697331666946411e-01,2.560108006000518799e-01,5.787908285856246948e-02
1.039692014455795288e-01,-3.573543205857276917e-02,-6.801656633615493774e-02,3.003610074520111084e-01,-1.915539056062698364e-01,-2.618521638214588165e-02,-3.316368460655212402e-01,-3.139013890177011490e-03,-4.057808220386505127e-02,1.184710636734962463e-01,2.352728247642517090e-01,1.832221262156963348e-02,2.256171852350234985e-01,-2.262196689844131470e-01,-2.091889977455139160e-01,2.053324580192565918e-01,-1.578839719295501709e-01,1.110815256834030151e-02,-1.295610666275024414e-01,-2.036438286304473877e-01,-8.745179325342178345e-02,2.566011808812618256e-02,1.021520271897315979e-01,3.645302727818489075e-02,2.215315550565719604e-01,-1.988085061311721802e-01,-2.055803686380386353e-01,-2.470133127644658089e-03,-5.923389270901679993e-02,-1.024128124117851257e-01,-3.209455311298370361e-02,-2.716152667999267578e-01,1.202878132462501526e-01,-1.311753392219543457e-01,1.080162078142166138e-01,-1.125944629311561584e-01,8.079603314399719238e-02,4.197305813431739807e-02,-5.962687730789184570e-02,1.776645183563232422e-01,-1.680447608232498169e-01,3.658272027969360352e-01,1.404041945934295654e-01,-2.744164466857910156e-01,1.137375924736261368e-02,-3.086219131946563721e-01,-9.971425682306289673e-02,3.500678762793540955e-02,-1.974662244319915771e-01,1.947379559278488159e-01
-1.118503138422966003e-01,-5.099117755889892578e-02,-3.362505137920379639e-02,4.467942193150520325e-02,8.168324828147888184e-02,8.906227536499500275e-03,2.851216793060302734e-01,-1.879264116287231445e-01,4.085917957127094269e-03,1.712841093540191650e-01,1.562091428786516190e-02,-5.126615613698959351e-02,-1.362860649824142456e-01,9.234983474016189575e-02,3.417294844985008240e-02,-5.281021445989608765e-02,-8.774618059396743774e-02,3.688679635524749756e-02,5.415613576769828796e-02,-2.243456058204174042e-02,1.055531501770019531e-01,-9.893092513084411621e-02,-1.713187247514724731e-01,9.350318461656570435e-03,-6.736263632774353027e-02,4.449077323079109192e-02,-1.856173127889633179e-01,9.342646598815917969e-02,7.166187465190887451e-02,1.974793821573257446e-01,-1.402318775653839111e-01,1.590794026851654053e-01,-6.737620569765567780e-04,-1.200786232948303223e-01,8.936114609241485596e-03,-1.831030845642089844e-01,1.658847332000732422e-01,-1.096266657114028931e-01,8.564741164445877075e-02,-1.339976191520690918e-01,-1.283616852015256882e-02,-1.681394316256046295e-02,-6.022508814930915833e-02,-1.697998940944671631e-01,-1.453993618488311768e-01,-2.079197950661182404e-02,4.601464793086051941e-02,3.644151240587234497e-02,4.546539857983589172e-02,-1.304861456155776978e-01
-6.085877418518066406e-01,-1.068997681140899658e-01,2.302113622426986694e-01,2.940125465393066406e-01,-2.680325806140899658e-01,-3.155006468296051025e-01,2.358423769474029541e-01,8.699288219213485718e-02,4.006569683551788330e-01,-1.151268035173416138e-01,-3.948524966835975647e-02,-3.515706360340118408e-01,-1.683051139116287231e-01,2.336073964834213257e-01,6.788632273674011230e-02,-2.191373556852340698e-01,-3.938064575195312500e-01,-7.485075294971466064e-02,-2.711912989616394043e-01,7.043931633234024048e-02,-9.042286872863769531e-02,-3.277907669544219971e-01,-4.404668509960174561e-02,-4.200226068496704102e-01,7.068083435297012329e-02,-6.550061702728271484e-02,9.554682672023773193e-02,7.180295884609222412e-02,-3.420479893684387207e-01,-2.295992970466613770e-01,1.144304499030113220e-01,-3.452817797660827637e-01,1.989424824714660645e-01,3.869082033634185791e-02,-2.926190197467803955e-01,-1.157628446817398071e-01,-2.083623856306076050e-01,1.617031544446945190e-01,-1.025298386812210083e-01,3.467111885547637939e-01,-1.835146248340606689e-01,-1.730419248342514038e-01,-3.538088640198111534e-03,-2.014781236648559570e-01,-4.142237007617950439e-01,-2.726256251335144043e-01,1.331713795661926270e-01,-2.012614756822586060e-01,-2.342106774449348450e-02,-2.550243139266967773e-01
1.145723611116409302e-01,4.461762961000204086e-03,-1.093839108943939209e-01,-4.854627698659896851e-02,-2.184909731149673462e-01,8.159064687788486481e-03,2.470542490482330322e-01,-1.793770641088485718e-01,1.403861772269010544e-02,5.568483471870422363e-02,8.130385726690292358e-02,-9.647882729768753052e-02,-1.316076666116714478e-01,-1.642908751964569092e-01,1.754742562770843506e-01,-2.983139157295227051e-01,2.409450709819793701e-01,-2.325271517038345337e-01,-4.550163447856903076e-02,-1.070567145943641663e-01,1.319327801465988159e-01,-2.115819305181503296e-01,5.753171443939208984e-02,2.556021558120846748e-03,-8.719360828399658203e-02,1.878529936075210571e-01,-2.207299768924713135e-01,-1.640607267618179321e-01,1.429228037595748901e-01,-3.310140967369079590e-02,5.057174712419509888e-02,-8.545279502868652344e-02,4.951542243361473083e-02,-9.031362086534500122e-02,3.053434938192367554e-02,7.497108727693557739e-02,-8.444378525018692017e-02,-8.545880019664764404e-02,-2.184236496686935425e-01,2.211936861276626587e-01,-7.584425155073404312e-03,2.813280373811721802e-02,2.020378410816192627e-01,-1.146693900227546692e-01,-3.025965206325054169e-02,-7.233670353889465332e-02,-5.775687843561172485e-02,3.095368482172489166e-02,-8.507569134235382080e-02,-4.068398177623748779e-01
2.580350339412689209e-01,2.804702334105968475e-02,-1.527446806430816650e-01,-4.883031919598579407e-02,-1.444025933742523193e-01,2.184261828660964966e-01,-2.764064371585845947e-01,-2.383217215538024902e-01,6.086178123950958252e-02,-2.650833427906036377e-01,1.396347433328628540e-01,4.753536731004714966e-02,2.609721384942531586e-02,6.580805033445358276e-02,-1.240445375442504883e-01,-6.898836046457290649e-02,-1.577337384223937988e-01,9.099868685007095337e-02,-2.136733531951904297e-01,-1.899203062057495117e-01,3.584689274430274963e-02,2.064030170440673828e-01,4.082275927066802979e-02,-8.759602904319763184e-02,-1.824602931737899780e-01,1.388311833143234253e-01,-1.190129071474075317e-01,8.794511854648590088e-02,-1.885018646717071533e-01,-1.091391518712043762e-01,1.487702224403619766e-02,-2.881627157330513000e-02,1.731630563735961914e-01,-1.650894805788993835e-02,-6.885363906621932983e-02,6.593592464923858643e-02,-6.946434080600738525e-02,1.333076655864715576e-01,1.932509392499923706e-01,-1.229373887181282043e-01,-1.591279357671737671e-01,1.119009554386138916e-01,-6.610056012868881226e-02,-2.114362120628356934e-01,-2.254588454961776733e-01,-2.860880792140960693e-01,2.090708315372467041e-01,-5.255566909909248352e-02,1.065322458744049072e-01,1.578823328018188477e-01
1.044438481330871582e-01,-2.170403897762298584e-01,-2.191390693187713623e-01,1.819551140069961548e-01,-2.064648121595382690e-01,-3.342936336994171143e-01,7.993855327367782593e-02,1.328420192003250122e-01,2.701415121555328369e-01,-4.046706855297088623e-01,1.749695837497711182e-01,7.922299206256866455e-03,1.449116468429565430e-01,1.022022217512130737e-01,-2.994503676891326904e-01,-1.634145379066467285e-01,2.554571032524108887e-01,2.628383338451385498e-01,3.650356829166412354e-02,1.837741881608963013e-01,-2.062032371759414673e-01,2.642926275730133057e-01,-3.952033519744873047e-01,-1.909313648939132690e-01,-1.253521740436553955e-01,1.681727468967437744e-01,-3.874152898788452148e-01,1.007686406373977661e-01,2.062107473611831665e-01,7.770977169275283813e-02,1.581643670797348022e-01,-2.413576003164052963e-03,3.353096246719360352e-01,1.589290797710418701e-02,1.045594364404678345e-01,-3.470591306686401367e-01,-2.171039134263992310e-01,3.478685617446899414e-01,-9.782538563013076782e-02,2.813467010855674744e-02,-2.918988764286041260e-01,3.179591298103332520e-01,-2.782434225082397461e-01,-1.216743513941764832e-01,1.001302525401115417e-01,1.528918296098709106e-01,-1.182799413800239563e-02,-3.585091233253479004e-01,-8.996890485286712646e-02,-1.715381443500518799e-02
1.522801518440246582e-01,9.694800525903701782e-02,-5.448602139949798584e-02,1.363970786333084106e-01,3.134340345859527588e-01,3.225409090518951416e-01,-2.544761896133422852e-01,1.401177644729614258e-01,2.868363857269287109e-01,-4.152092635631561279e-01,-2.781218886375427246e-01,-3.658979833126068115e-01,-1.952706575393676758e-01,-8.092299103736877441e-02,-4.201938807964324951e-01,-3.308806121349334717e-01,3.054440617561340332e-01,1.149892881512641907e-01,2.203537337481975555e-02,3.122365176677703857e-01,-6.313925236463546753e-02,6.679442524909973145e-02,6.126657500863075256e-02,1.726632714271545410e-01,6.351463496685028076e-02,6.036117672920227051e-02,2.320475131273269653e-01,-8.560003340244293213e-02,2.166807204484939575e-01,9.053812362253665924e-03,-2.438250035047531128e-01,1.884801872074604034e-02,2.247756347060203552e-03,2.357701510190963745e-01,2.667376101016998291e-01,-1.722494661808013916e-01,-4.071119725704193115e-01,-6.641691923141479492e-02,3.105395138263702393e-01,-6.345988810062408447e-02,-7.125654071569442749e-02,-3.921313583850860596e-02,-3.555467128753662109e-01,4.719647392630577087e-02,2.173152416944503784e-01,-2.325298264622688293e-02,-9.945338964462280273e-02,-2.212268710136413574e-01,2.538269758224487305e-01,2.841276228427886963e-01
-3.688196092844009399e-02,-1.893618106842041016e-01,1.695064604282379150e-01,-3.152868449687957764e-01,-1.656693220138549805e-01,-3.608775436878204346e-01,-2.114186882972717285e-01,-1.126885935664176941e-01,1.752717941999435425e-01,2.500808238983154297e-01,1.850674450397491455e-01,2.071654945611953735e-01,2.628605067729949951e-01,8.502259850502014160e-02,3.669207990169525146e-01,-9.039895236492156982e-02,-2.517295479774475098e-01,4.071671143174171448e-02,-5.002489313483238220e-03,1.641517318785190582e-02,2.788658440113067627e-01,-2.238711565732955933e-01,2.728959321975708008e-01,1.420365869998931885e-01,2.767966985702514648e-01,2.034922987222671509e-01,1.578048169612884521e-01,-2.505182325839996338e-01,-4.550601914525032043e-02,-3.214578330516815186e-02,1.760838627815246582e-01,8.377823978662490845e-02,4.507152363657951355e-02,-1.268436610698699951e-01,1.262061595916748047e-01,7.199362665414810181e-02,-3.115119338035583496e-01,-3.095384240150451660e-01,-1.689973026514053345e-01,-6.869282573461532593e-02,2.128468304872512817e-01,-1.487349271774291992e-01,-1.548945158720016479e-01,-1.253044903278350830e-01,-2.855738252401351929e-02,-1.029885187745094299e-02,2.920690774917602539e-01,6.189455837011337280e-02,3.715407103300094604e-02,2.268159836530685425e-01
-1.326549053192138672e-01,6.184724718332290649e-02,-3.442495763301849365e-01,1.504284590482711792e-01,-2.136595547199249268e-01,-1.711365133523941040e-01,-4.112699627876281738e-02,7.998864352703094482e-02,2.349974364042282104e-01,-2.876296043395996094e-01,8.054527454078197479e-03,-1.908882260322570801e-01,-2.781634684652090073e-03,4.158066585659980774e-02,-7.493251562118530273e-02,-1.020632386207580566e-01,-1.688409745693206787e-01,1.695764437317848206e-02,-6.328337639570236206e-02,7.281801849603652954e-02,-3.205468952655792236e-01,-6.907814741134643555e-02,-1.778457611799240112e-01,-2.626418769359588623e-01,-1.177961975336074829e-01,5.428271740674972534e-02,-1.970662772655487061e-01,2.531395256519317627e-01,-2.389750815927982330e-02,-9.481672197580337524e-02,-1.427905559539794922e-01,-1.495881527662277222e-01,-5.138847231864929199e-02,2.319282107055187225e-02,-1.617149263620376587e-01,-1.001822277903556824e-01,1.732905022799968719e-02,5.769151821732521057e-02,8.363640308380126953e-02,-1.337760835886001587e-01,7.824522256851196289e-02,2.451467514038085938e-01,3.984359651803970337e-02,-1.422260552644729614e-01,-9.668228030204772949e-02,-1.007177159190177917e-01,-6.320395320653915405e-02,-2.332721799612045288e-01,5.671655014157295227e-02,-2.453473508358001709e-01
2.188723683357238770e-01,3.675003349781036377e-01,-5.093737319111824036e-02,7.161919772624969482e-02,-1.894460022449493408e-01,3.986626863479614258e-01,-7.857262156903743744e-03,1.987504214048385620e-01,-2.220738083124160767e-01,-2.106807082891464233e-01,-3.959809616208076477e-02,-1.812966912984848022e-01,3.022563755512237549e-01,-2.238944321870803833e-01,-9.207759052515029907e-02,3.766657412052154541e-02,2.298733592033386230e-01,-4.386442527174949646e-02,-1.772316694259643555e-01,-3.167724311351776123e-01,-2.404441237449645996e-01,1.603204905986785889e-01,-1.193041503429412842e-01,-3.838859200477600098e-01,8.900383859872817993e-02,-8.689040690660476685e-02,1.574007272720336914e-01,-3.942929208278656006e-01,-4.420102238655090332e-01,9.042352437973022461e-02,1.942642778158187866e-01,-3.086753748357295990e-02,-3.462019562721252441e-02,8.014431223273277283e-03,4.322865307331085205e-01,1.064151152968406677e-01,-2.623343840241432190e-02,-2.393139302730560303e-01,-2.149900048971176147e-01,5.722352862358093262e-01,1.047218516469001770e-01,7.230313960462808609e-03,2.443747818470001221e-01,-4.134619832038879395e-01,-2.648266851902008057e-01,-1.576877757906913757e-02,-1.904645115137100220e-01,-1.207041665911674500e-01,1.249755099415779114e-01,-6.048322096467018127e-02
-2.364966273307800293e-01,2.799061536788940430e-01,1.097148880362510681e-01,1.619813144207000732e-01,8.773818612098693848e-02,1.693499237298965454e-01,-2.616987563669681549e-03,-1.315217614173889160e-01,1.452135294675827026e-01,1.592760086059570312e-01,1.447466909885406494e-01,-1.928227990865707397e-01,3.049417138099670410e-01,-3.393245935440063477e-01,1.382605582475662231e-01,-1.620904207229614258e-01,1.977156400680541992e-01,8.645435422658920288e-02,-2.661928534507751465e-01,6.338685052469372749e-04,-3.737604990601539612e-02,1.468734443187713623e-01,-6.384185701608657837e-02,-3.399564921855926514e-01,-3.137688636779785156e-01,2.565929591655731201e-01,1.668897867202758789e-01,-1.222538053989410400e-01,3.868142068386077881e-01,7.781833410263061523e-02,6.487039476633071899e-02,-1.845544427633285522e-01,-1.479244790971279144e-02,7.533857226371765137e-02,-1.496807634830474854e-01,2.944113612174987793e-01,-1.092739999294281006e-01,-3.281879797577857971e-02,3.830458223819732666e-02,3.714433610439300537e-01,1.354086995124816895e-01,-1.282400637865066528e-01,2.620778679847717285e-01,-6.173758208751678467e-02,-3.084542751312255859e-01,-1.583445072174072266e-01,-2.233018279075622559e-01,-3.336344361305236816e-01,-7.164536416530609131e-02,3.273462131619453430e-02
3.658423572778701782e-02,2.989932596683502197e-01,-9.779811650514602661e-02,-1.478420011699199677e-02,-2.113185077905654907e-01,-8.123217523097991943e-02,2.216815203428268433e-02,7.246590405702590942e-02,-6.439261604100465775e-03,-1.088098213076591492e-01,-2.884862571954727173e-02,2.141703106462955475e-02,9.024639427661895752e-02,-2.598094940185546875e-01,4.722183197736740112e-02,-1.297107338905334473e-01,3.363961353898048401e-02,1.745949685573577881e-01,-2.527582943439483643e-01,-1.509089618921279907e-01,-2.229950577020645142e-01,-3.636357560753822327e-02,-2.046617269515991211e-01,1.445383727550506592e-01,2.773614525794982910e-01,1.967777498066425323e-02,1.258282363414764404e-01,-1.102176681160926819e-01,4.117175936698913574e-02,3.854190707206726074e-01,-1.117643155157566071e-02,-5.790940672159194946e-02,1.280176490545272827e-01,6.951803714036941528e-02,8.653908967971801758e-02,1.538967154920101166e-02,2.310200333595275879e-01,2.655011229217052460e-02,-2.150141298770904541e-01,-4.347201809287071228e-02,2.155506424605846405e-02,1.207815408706665039e-01,1.274688988924026489e-01,8.275807648897171021e-02,-6.679423898458480835e-02,8.913646638393402100e-02,-3.206532597541809082e-01,-1.695592701435089111e-01,-2.332579195499420166e-01,-8.722540736198425293e-02
1.398631781339645386e-01,-1.254536211490631104e-01,-4.671030044555664062e-01,4.154038727283477783e-01,-1.327147334814071655e-01,2.487846463918685913e-01,3.022152185440063477e-01,1.297784000635147095e-01,3.418725430965423584e-01,-2.268928885459899902e-01,-7.099240086972713470e-03,-7.903524488210678101e-02,1.193115604110062122e-03,1.812128573656082153e-01,-2.163397371768951416e-01,-1.305184066295623779e-01,4.187905043363571167e-02,5.213068053126335144e-02,2.249187603592872620e-02,1.602682023076340556e-04,1.582261770963668823e-01,-1.549015790224075317e-01,-3.059042394161224365e-01,2.170119201764464378e-03,-1.905548870563507080e-01,-2.298128604888916016e-01,-3.547564893960952759e-02,9.678343683481216431e-02,-2.033752501010894775e-01,8.243980258703231812e-02,1.941996812820434570e-01,-2.029774524271488190e-02,1.716126948595046997e-01,-4.120243713259696960e-03,6.163186952471733093e-02,-4.962960630655288696e-02,-2.269490063190460205e-01,1.634198427200317383e-01,1.746134310960769653e-01,2.854937613010406494e-01,-5.193031430244445801e-01,1.063580741174519062e-03,1.088704466819763184e-01,9.003330022096633911e-02,-7.674130797386169434e-02,9.591094404458999634e-02,1.583798825740814209e-01,3.657940775156021118e-02,1.893907636404037476e-01,-1.807787120342254639e-01
-1.685518771409988403e-01,-3.044813573360443115e-01,-3.998683393001556396e-01,1.768746525049209595e-01,2.658686973154544830e-02,-1.441460400819778442e-01,-1.419212520122528076e-01,2.312182635068893433e-01,-1.325262039899826050e-01,-1.544728130102157593e-01,-1.851458847522735596e-01,-1.161486003547906876e-02,-1.548923105001449585e-01,-2.018810212612152100e-01,7.424786686897277832e-02,-2.503606975078582764e-01,1.447016373276710510e-02,3.746206313371658325e-02,1.656863838434219360e-01,2.490646988153457642e-01,-2.306836098432540894e-02,-1.118031293153762817e-01,1.029255427420139313e-02,7.678919285535812378e-02,9.117212146520614624e-02,1.314752995967864990e-01,-2.848280966281890869e-01,1.807379303500056267e-03,2.157792448997497559e-01,-4.976344481110572815e-02,6.693786382675170898e-02,2.510782480239868164e-01,2.308076322078704834e-01,1.165345385670661926e-01,3.295957148075103760e-01,1.280143707990646362e-01,-2.353688031435012817e-01,5.534620955586433411e-02,2.115416675806045532e-01,5.925392732024192810e-02,-8.333770185708999634e-02,-3.378035500645637512e-02,4.829480126500129700e-02,1.565542221069335938e-01,1.129775214940309525e-02,1.895064860582351685e-01,-3.165514767169952393e-01,-6.701242178678512573e-02,-1.265786290168762207e-01,1.234398633241653442e-01
-2.925003692507743835e-02,3.841215372085571289e-02,2.008185908198356628e-02,3.309189677238464355e-01,1.233071759343147278e-01,-1.524761617183685303e-01,9.855531901121139526e-02,-1.804334074258804321e-01,-6.613297760486602783e-02,4.535022377967834473e-01,1.041986495256423950e-01,-2.420790120959281921e-02,3.082171780988574028e-03,1.486377567052841187e-01,-5.640869215130805969e-02,2.039972841739654541e-01,-3.893301486968994141e-01,1.904235631227493286e-01,1.489488184452056885e-01,1.773200780153274536e-01,-1.249571912921965122e-03,2.512604556977748871e-02,-1.933228522539138794e-01,-4.855058789253234863e-01,2.473400533199310303e-02,4.536031186580657959e-02,6.474387645721435547e-02,2.112272083759307861e-01,-4.428905844688415527e-01,1.638119667768478394e-01,2.256542444229125977e-01,-3.523423373699188232e-01,-1.338920593261718750e-01,-1.477094143629074097e-01,-1.831586062908172607e-01,-2.127286493778228760e-01,-3.081412613391876221e-01,1.754604727029800415e-01,-2.086014151573181152e-01,1.613590121269226074e-01,1.933654695749282837e-01,2.345970124006271362e-01,-1.581936329603195190e-02,-1.967805325984954834e-01,-3.923162519931793213e-01,-2.224218249320983887e-01,-2.293063700199127197e-02,6.227781251072883606e-02,1.088347211480140686e-01,-6.092615798115730286e-02
-1.944581121206283569e-01,9.705092757940292358e-02,1.200300920754671097e-02,-1.589456498622894287e-01,3.468926995992660522e-02,-4.310640972107648849e-03,2.454752177000045776e-01,8.387182652950286865e-02,-8.366985619068145752e-02,-7.408174872398376465e-02,-2.108528017997741699e-01,5.754411965608596802e-02,5.618034675717353821e-02,1.765563189983367920e-01,-2.144072055816650391e-01,1.740830391645431519e-01,1.827692836523056030e-01,7.347256690263748169e-02,1.559689193964004517e-01,2.271340936422348022e-01,-4.356426373124122620e-02,-1.418151706457138062e-01,1.457673758268356323e-01,1.305666118860244751e-01,-5.307892709970474243e-02,-2.544842958450317383e-01,-2.844253480434417725e-01,2.030486799776554108e-02,-2.702460251748561859e-02,1.326515376567840576e-01,1.782434061169624329e-02,7.658999413251876831e-02,3.377680182456970215e-01,-1.841910928487777710e-01,-1.491556465625762939e-01,4.795896634459495544e-02,-5.611419305205345154e-02,6.955832988023757935e-02,-5.722142383456230164e-02,2.267976701259613037e-01,-1.486410852521657944e-02,5.717619881033897400e-02,-1.623545736074447632e-01,-2.751908004283905029e-01,-1.717537492513656616e-01,1.402030587196350098e-01,-2.559798955917358398e-01,-1.301939040422439575e-02,-2.239414751529693604e-01,-3.101350665092468262e-01
-1.142928451299667358e-01,-5.726688355207443237e-02,-2.798734009265899658e-01,1.379403471946716309e-01,-2.192329317331314087e-01,7.694959640502929688e-02,-3.830004855990409851e-02,-8.113867044448852539e-02,-2.621451616287231445e-01,2.050380557775497437e-01,2.201422750949859619e-01,-1.043645888566970825e-01,3.231957852840423584e-01,-1.118087172508239746e-01,-2.437350451946258545e-01,-1.418011933565139771e-01,-2.184454053640365601e-01,4.664924144744873047e-01,-1.777250766754150391e-01,1.345263123512268066e-01,1.995933055877685547e-01,-2.139485329389572144e-01,1.261682510375976562e-01,-2.663729786872863770e-01,-7.072110474109649658e-02,7.411579042673110962e-02,-2.728683352470397949e-01,-1.185768470168113708e-01,-2.163461223244667053e-02,2.033533751964569092e-01,-3.557474166154861450e-02,-1.155034005641937256e-01,1.636162698268890381e-01,-2.172125689685344696e-02,-5.436906963586807251e-02,-1.925264857709407806e-02,-6.470590829849243164e-02,-2.305344641208648682e-01,-2.339568436145782471e-01,-6.839796155691146851e-02,6.044167280197143555e-02,2.663471102714538574e-01,2.835001051425933838e-02,1.097456663846969604e-01,1.204242557287216187e-01,7.129316776990890503e-02,-6.239467114210128784e-02,5.370900407433509827e-02,-2.916757389903068542e-02,-1.978883743286132812e-01
4.906815662980079651e-02,3.608018755912780762e-01,-2.836780250072479248e-01,-1.700907796621322632e-01,-7.087696343660354614e-02,-1.236608996987342834e-02,1.794457249343395233e-02,-2.048761546611785889e-01,2.457556426525115967e-01,-1.269248276948928833e-01,-5.381612107157707214e-02,-1.860674619674682617e-01,4.291450083255767822e-01,-2.144944369792938232e-01,3.470358205959200859e-04,1.467666774988174438e-01,-8.783344179391860962e-03,-1.022064965218305588e-02,-2.013074606657028198e-01,7.514162361621856689e-02,1.529459804296493530e-01,3.030769154429435730e-02,9.718980640172958374e-03,5.617650970816612244e-02,2.587688863277435303e-01,-1.623895466327667236e-01,-7.198876887559890747e-02,-1.893795281648635864e-01,5.677100270986557007e-03,3.471406102180480957e-01,1.948605291545391083e-02,1.245851814746856689e-01,2.388906627893447876e-01,2.635008469223976135e-02,3.199260532855987549e-01,-3.499812213703989983e-03,-7.843873649835586548e-02,-8.685304224491119385e-02,-2.241525650024414062e-01,-1.676758825778961182e-01,-1.411418430507183075e-02,4.679457470774650574e-02,7.214461453258991241e-03,-5.684044957160949707e-02,-1.718028485774993896e-01,4.475608095526695251e-02,8.783155120909214020e-03,-1.007266715168952942e-01,-1.342611014842987061e-01,-1.868468336760997772e-02
-4.596850872039794922e-01,-3.310886397957801819e-02,-1.703844517469406128e-01,-1.113550737500190735e-01,1.578634679317474365e-01,-1.578514426946640015e-01,-2.232461124658584595e-01,1.543734688311815262e-02,-1.603498309850692749e-01,-5.108094215393066406e-01,-8.974762633442878723e-03,-4.170708954334259033e-01,-1.479389816522598267e-01,-6.686919927597045898e-02,-4.829194769263267517e-02,-2.540214061737060547e-01,-1.776939928531646729e-01,2.119776606559753418e-01,1.188617199659347534e-01,-1.733840405941009521e-01,-2.294817417860031128e-01,2.471970319747924805e-01,-6.750526279211044312e-02,1.207413896918296814e-02,-2.981346845626831055e-01,1.917050182819366455e-01,-8.026499301195144653e-02,-3.453058004379272461e-01,2.698091864585876465e-01,-1.772206276655197144e-01,2.328597456216812134e-01,-2.452840805053710938e-01,5.374591052532196045e-02,2.448526583611965179e-02,9.085503965616226196e-02,-3.652467429637908936e-01,1.951979473233222961e-02,-3.756268322467803955e-01,2.297328263521194458e-01,-6.130909919738769531e-02,-3.053497970104217529e-01,-2.565447390079498291e-01,-1.053577065467834473e-01,7.174137979745864868e-03,-1.526201665401458740e-01,-2.776649892330169678e-01,-2.754515223205089569e-02,-1.556789577007293701e-01,1.624126732349395752e-01,-2.125492319464683533e-02
1.014703605324029922e-02,-9.178879857063293457e-02,-2.365708947181701660e-01,-2.703300677239894867e-02,-1.249281968921422958e-02,1.875741779804229736e-01,1.657049953937530518e-01,1.680123060941696167e-01,-3.623119294643402100e-01,4.645319283008575439e-01,1.074865460395812988e-01,3.654793202877044678e-01,-1.616579294204711914e-01,-2.508156001567840576e-01,-6.532803177833557129e-02,2.111953198909759521e-01,-2.339055836200714111e-01,3.618040382862091064e-01,1.266932785511016846e-01,1.194587349891662598e-01,2.926735281944274902e-01,-1.943383216857910156e-01,3.281074762344360352e-01,-6.787296384572982788e-02,-4.810107871890068054e-02,1.639006286859512329e-01,-8.558297902345657349e-02,-2.966798841953277588e-01,-3.209299221634864807e-02,2.821483910083770752e-01,-4.975195974111557007e-02,2.013598829507827759e-01,-1.717192381620407104e-01,1.676124334335327148e-01,1.849281601607799530e-02,-4.716710001230239868e-02,-3.430856764316558838e-01,-6.139829754829406738e-02,7.452864199876785278e-02,-1.045489981770515442e-01,-6.225748360157012939e-02,-3.379266262054443359e-01,1.975110732018947601e-02,2.009877562522888184e-01,-7.406988181173801422e-03,-1.476658135652542114e-01,-9.549699723720550537e-02,2.071182876825332642e-01,-1.769922822713851929e-01,-1.441362649202346802e-01
-2.380441278219223022e-01,2.625885903835296631e-01,-2.589333951473236084e-01,-1.481297016143798828e-01,-1.834710501134395599e-02,-7.650609314441680908e-02,2.333217114210128784e-01,-2.373586744070053101e-01,-2.783624231815338135e-01,5.119956657290458679e-02,-1.361524164676666260e-01,9.183152765035629272e-02,4.618798941373825073e-02,9.998370707035064697e-02,3.432054072618484497e-02,7.919394969940185547e-02,2.314503192901611328e-01,6.578277796506881714e-02,5.315352976322174072e-02,-1.232456043362617493e-01,1.966598480939865112e-01,2.497680485248565674e-01,-2.210051566362380981e-01,-3.575999580789357424e-04,-2.224725931882858276e-01,2.372890561819076538e-01,-2.313674539327621460e-01,9.612439572811126709e-02,-6.140954419970512390e-02,-1.394654959440231323e-01,3.475465998053550720e-02,-2.001947760581970215e-01,3.736898303031921387e-01,-2.905525565147399902e-01,3.855308890342712402e-01,-1.685580164194107056e-01,-1.988241970539093018e-01,-2.771133482456207275e-01,-8.109701797366142273e-03,1.209108605980873108e-01,-1.926341652870178223e-01,-3.728313371539115906e-02,-1.077459976077079773e-01,-2.378042191267013550e-01,-2.631981372833251953e-01,-2.191852778196334839e-01,-2.349184900522232056e-01,3.085218369960784912e-02,1.817982345819473267e-01,2.335261739790439606e-02
5.960135161876678467e-02,-3.550980240106582642e-02,-5.983082577586174011e-02,8.717261999845504761e-02,-5.228196084499359131e-02,-2.319451272487640381e-01,2.118116058409214020e-02,-7.943207770586013794e-02,-1.491785347461700439e-01,-1.904256790876388550e-01,9.852603077888488770e-02,9.622907638549804688e-02,3.068496584892272949e-01,-1.132304295897483826e-01,6.282354891300201416e-02,3.800261765718460083e-02,1.550766378641128540e-01,-1.022845692932605743e-02,-1.994436830282211304e-01,-6.046102941036224365e-02,-1.411086767911911011e-01,9.148467332124710083e-02,3.628307953476905823e-02,-1.094042509794235229e-01,2.795383930206298828e-01,-1.182109415531158447e-01,2.004540860652923584e-01,-1.126540154218673706e-01,1.388751808553934097e-02,5.232945829629898071e-02,-1.400684118270874023e-01,1.440337896347045898e-01,-1.795501559972763062e-01,-4.194901324808597565e-03,2.731979079544544220e-02,1.045463308691978455e-01,-4.570035636425018311e-02,6.571267545223236084e-02,-1.339651495218276978e-01,8.482973277568817139e-02,-8.015242405235767365e-03,1.726446151733398438e-01,-4.372065886855125427e-02,-3.642546478658914566e-03,-2.277321219444274902e-01,-1.565967202186584473e-01,-4.942261427640914917e-02,-1.863668323494493961e-03,-2.828319966793060303e-01,-8.350870758295059204e-02
-1.798332035541534424e-01,-2.028278410434722900e-01,-2.087303847074508667e-01,-2.292232401669025421e-02,-9.915704280138015747e-02,1.433855295181274414e-01,1.061493605375289917e-01,1.437367051839828491e-01,-1.169698387384414673e-01,1.513463109731674194e-01,-8.685775101184844971e-02,1.808670759201049805e-01,1.390138566493988037e-01,-3.216033801436424255e-02,5.300128366798162460e-03,-1.694241017103195190e-01,-2.703886926174163818e-01,1.539399027824401855e-01,-7.070372998714447021e-02,-1.306961476802825928e-01,6.365504860877990723e-02,-2.915658354759216309e-01,1.513580232858657837e-01,-2.796069681644439697e-01,-1.484027877449989319e-02,3.230698779225349426e-02,1.260478794574737549e-01,1.663252413272857666e-01,-1.024765074253082275e-01,2.996165454387664795e-01,-7.080197334289550781e-02,2.494618855416774750e-02,2.398392558097839355e-01,-9.749392420053482056e-02,-9.955843538045883179e-02,1.099727675318717957e-01,-2.715267539024353027e-01,3.147124052047729492e-01,1.035245228558778763e-02,5.104237422347068787e-02,-1.376374959945678711e-01,-7.579714059829711914e-03,4.660889506340026855e-02,-2.166050672531127930e-01,4.636998474597930908e-02,-3.596024811267852783e-01,-1.395475119352340698e-01,1.928241848945617676e-01,-9.868832305073738098e-03,3.557418286800384521e-02
2.524038963019847870e-02,2.381956204771995544e-02,8.927581459283828735e-02,-5.402154102921485901e-02,1.167203858494758606e-02,-6.306747347116470337e-02,4.746853932738304138e-02,-4.922234639525413513e-02,2.028085440397262573e-01,1.982552558183670044e-01,-1.670509725809097290e-01,-1.076704859733581543e-01,1.228060126304626465e-01,-2.578180432319641113e-01,-1.574707627296447754e-01,2.500782907009124756e-01,-2.673723101615905762e-01,8.115052431821823120e-02,-8.838147670030593872e-02,8.923820406198501587e-02,1.034352928400039673e-01,-4.735503811389207840e-03,1.718573123216629028e-01,-1.063126921653747559e-01,8.417199552059173584e-02,-4.560781270265579224e-02,1.274912524968385696e-02,1.582894176244735718e-01,4.244440421462059021e-02,1.120166555047035217e-01,1.000747084617614746e-01,-2.399462163448333740e-01,-1.034725178033113480e-02,-1.230072900652885437e-01,-1.935276985168457031e-01,-1.160896569490432739e-01,-1.511010825634002686e-01,3.964652493596076965e-02,2.177547812461853027e-01,2.381134629249572754e-01,-1.762025058269500732e-01,1.611859202384948730e-01,1.243392750620841980e-01,-2.583278715610504150e-02,-2.355677783489227295e-01,-3.011742234230041504e-01,-1.304406672716140747e-01,9.830730268731713295e-04,-8.455213904380798340e-02,1.540615223348140717e-02
3.679970502853393555e-01,3.339821696281433105e-01,1.402237173169851303e-02,1.115337163209915161e-01,1.977457664906978607e-02,-9.664308279752731323e-02,-3.768090531229972839e-02,-1.937776505947113037e-01,2.440055459737777710e-02,-2.282965332269668579e-01,-9.333501011133193970e-02,-2.114031910896301270e-01,4.157125055789947510e-01,1.350391935557126999e-02,3.302124440670013428e-01,-1.324122864753007889e-02,6.855788826942443848e-02,3.763667345046997070e-01,-1.418066024780273438e-01,1.987840048968791962e-02,-2.333825230598449707e-01,6.112043559551239014e-02,-1.166629716753959656e-01,6.298005580902099609e-02,7.456951737403869629e-01,7.808932662010192871e-02,-5.431536212563514709e-02,-4.108434915542602539e-01,-1.787143200635910034e-01,3.072647154331207275e-01,1.171270310878753662e-01,-2.000601142644882202e-01,-3.092904686927795410e-01,-3.304606303572654724e-02,-1.168582737445831299e-01,2.774603664875030518e-01,5.452841520309448242e-01,-9.578743577003479004e-02,-3.657678663730621338e-01,-1.077634096145629883e-01,-3.557548820972442627e-01,-3.112815916538238525e-01,1.267599612474441528e-01,1.122479587793350220e-01,8.317578583955764771e-02,-1.775861978530883789e-01,-4.316872656345367432e-01,2.636492811143398285e-02,-2.271664440631866455e-01,1.387772411108016968e-01
8.900050073862075806e-02,-1.396459490060806274e-01,-6.231000274419784546e-02,1.358652412891387939e-01,-1.460723727941513062e-01,-1.625446677207946777e-01,4.681720584630966187e-02,9.378488361835479736e-02,8.647903800010681152e-02,4.788987338542938232e-02,-1.480430364608764648e-01,1.657336950302124023e-01,1.964201927185058594e-01,-3.887319192290306091e-02,-1.022215411067008972e-01,5.404391139745712280e-02,2.693767845630645752e-01,1.225457489490509033e-01,-1.762503683567047119e-01,-9.586060047149658203e-02,1.147517934441566467e-01,-1.075512841343879700e-01,-2.790013328194618225e-02,-3.595596551895141602e-02,3.135074675083160400e-01,-1.807767450809478760e-01,1.950052529573440552e-01,-4.111143574118614197e-02,-2.912774682044982910e-02,-6.701406836509704590e-02,2.549767792224884033e-01,-1.144391521811485291e-01,-1.871705353260040283e-01,-2.436216771602630615e-01,3.313188627362251282e-02,2.270154953002929688e-01,-7.696215063333511353e-02,-1.616557501256465912e-02,-8.992616832256317139e-02,1.861835829913616180e-02,-8.325237780809402466e-02,1.258328855037689209e-01,-1.281009614467620850e-01,1.099750697612762451e-01,-1.840467453002929688e-01,5.263692513108253479e-02,-5.651568621397018433e-02,-1.147403195500373840e-02,-1.260948330163955688e-01,8.683694154024124146e-02
6.337846070528030396e-02,-1.489673275500535965e-02,-4.179311543703079224e-02,1.956011801958084106e-01,-5.416128784418106079e-02,-1.488056182861328125e-01,-8.722896128892898560e-02,-1.036582281813025475e-03,-1.109945103526115417e-01,1.093529537320137024e-01,-1.600483059883117676e-01,1.994621604681015015e-01,1.548975557088851929e-01,-5.044905841350555420e-02,-2.175684273242950439e-01,2.673116624355316162e-01,-1.533334106206893921e-01,6.959433853626251221e-02,-2.377717792987823486e-01,-2.554332017898559570e-01,8.704045414924621582e-02,-1.099482104182243347e-01,2.396161258220672607e-01,-9.039963036775588989e-02,6.312329322099685669e-02,-1.498192101716995239e-01,1.655177026987075806e-01,1.232045143842697144e-01,-4.936282057315111160e-03,2.349451035261154175e-01,-1.796787381172180176e-01,-3.709492385387420654e-01,1.185157299041748047e-01,1.002687513828277588e-01,3.270083665847778320e-02,-6.781712919473648071e-02,-3.109312355518341064e-01,1.016074642539024353e-01,2.149198651313781738e-01,1.325010955333709717e-01,-1.141341924667358398e-01,1.372958868741989136e-01,1.149856075644493103e-01,1.327930092811584473e-01,2.116116957040503621e-05,9.686694294214248657e-02,1.183517202734947205e-01,2.017962187528610229e-01,4.379402846097946167e-02,-1.167882531881332397e-01
1.036425605416297913e-01,1.793034970760345459e-01,-2.100342959165573120e-01,2.873769402503967285e-01,-2.694664895534515381e-02,-1.995411962270736694e-01,-1.133249104022979736e-01,1.291386187076568604e-01,-2.006088793277740479e-01,8.655762672424316406e-02,-1.660539358854293823e-01,-2.546337665989995003e-03,1.918061673641204834e-01,2.073050141334533691e-01,1.289441529661417007e-02,-1.160913892090320587e-02,1.821781843900680542e-01,-1.383301466703414917e-01,-6.410521268844604492e-02,-2.956515848636627197e-01,9.044896811246871948e-02,-2.506885826587677002e-01,1.040625944733619690e-01,-1.556200832128524780e-01,-1.575366705656051636e-01,1.735905557870864868e-01,1.954113319516181946e-02,8.168350905179977417e-02,-1.636201702058315277e-02,2.116657942533493042e-01,2.944707572460174561e-01,-5.925737693905830383e-02,2.081202268600463867e-01,1.735476553440093994e-01,1.950178742408752441e-01,1.426875591278076172e-02,4.397675767540931702e-02,-8.004312403500080109e-03,6.349597591906785965e-03,1.661275029182434082e-01,9.707879275083541870e-02,2.912359833717346191e-01,2.280541062355041504e-01,1.880448013544082642e-01,-1.419610083103179932e-01,1.366298049688339233e-01,-2.369642257690429688e-01,-8.095832169055938721e-02,-4.396855086088180542e-02,-1.557169556617736816e-01
1.024874486029148102e-02,-6.177280098199844360e-02,-3.309722840785980225e-01,-6.383677572011947632e-02,-5.851550027728080750e-02,-2.277478426694869995e-01,2.129073590040206909e-01,-3.705956041812896729e-02,1.137484908103942871e-01,-3.367744684219360352e-01,-1.538394987583160400e-01,1.174360737204551697e-01,2.334615141153335571e-01,4.760247655212879181e-03,2.797589600086212158e-01,1.686228066682815552e-02,2.122656852006912231e-01,1.358822435140609741e-01,1.568710058927536011e-01,1.270147264003753662e-01,1.523699909448623657e-01,1.751885712146759033e-01,1.800212077796459198e-02,-1.837840527296066284e-01,-1.077236682176589966e-01,2.753185629844665527e-01,-5.875810980796813965e-02,-3.413909673690795898e-02,1.827259808778762817e-01,2.318748831748962402e-01,2.370210736989974976e-01,-3.589307665824890137e-01,2.670179605484008789e-01,4.993940517306327820e-02,1.923638582229614258e-01,-1.678229868412017822e-01,1.583805307745933533e-02,-2.564866840839385986e-01,-1.722409278154373169e-01,1.402299106121063232e-01,-2.432973533868789673e-01,1.096815466880798340e-01,2.493310123682022095e-01,-5.216280743479728699e-02,-1.169414594769477844e-01,-8.962488174438476562e-02,-2.208622358739376068e-02,2.191778570413589478e-01,-4.673563688993453979e-02,2.245290279388427734e-01
1.010550558567047119e-01,8.934064954519271851e-02,-3.046030411496758461e-03,-2.844915986061096191e-01,1.839746385812759399e-01,-8.055408298969268799e-02,2.178432233631610870e-02,5.057474225759506226e-02,8.845493942499160767e-02,-2.973181195557117462e-02,1.349443942308425903e-01,-3.534220755100250244e-01,1.734834462404251099e-01,2.148049511015415192e-02,1.161153614521026611e-01,2.213184386491775513e-01,-1.091743633151054382e-01,2.842700183391571045e-01,8.646082878112792969e-02,-1.115566119551658630e-02,-3.320555686950683594e-01,1.681985110044479370e-01,1.101478189229965210e-01,-5.964010208845138550e-02,1.305854171514511108e-01,-6.123607233166694641e-02,-8.291679620742797852e-02,-3.052179813385009766e-01,-2.466220222413539886e-02,-6.954503804445266724e-02,6.183162704110145569e-02,-9.427712112665176392e-02,-1.307657510042190552e-01,1.510810554027557373e-01,-9.873560070991516113e-02,3.426916003227233887e-01,5.319954827427864075e-02,-2.453892976045608521e-01,3.124820590019226074e-01,-9.446454048156738281e-02,-2.142021656036376953e-01,1.407015770673751831e-01,3.883629739284515381e-01,-1.406736522912979126e-01,-1.500146985054016113e-01,2.797845005989074707e-01,-2.968943417072296143e-01,-1.296091377735137939e-01,-1.475424021482467651e-01,-2.068538367748260498e-01
1.924418210983276367e-01,-1.478105634450912476e-01,5.239153280854225159e-02,3.614816367626190186e-01,-2.001496963202953339e-02,-4.780024662613868713e-02,-2.115879952907562256e-02,-3.372365832328796387e-01,-2.351128011941909790e-01,1.095735058188438416e-01,2.059796601533889771e-01,1.030978262424468994e-01,1.941705942153930664e-01,1.863172650337219238e-01,-2.079978883266448975e-01,1.641190201044082642e-01,-1.274071335792541504e-01,1.784039288759231567e-01,-6.958196405321359634e-03,1.259431540966033936e-01,-1.526277065277099609e-01,2.087043672800064087e-01,5.714538320899009705e-02,-9.114407747983932495e-02,2.103153169155120850e-01,-1.368888169527053833e-01,1.367936581373214722e-01,1.360287815332412720e-01,-3.448617085814476013e-02,-1.213444024324417114e-01,5.298755690455436707e-02,-1.431140452623367310e-01,-1.549272984266281128e-01,-9.858176857233047485e-02,2.257094532251358032e-01,-9.736029803752899170e-02,9.297957271337509155e-02,1.118077859282493591e-01,2.273965626955032349e-01,1.735567152500152588e-01,-2.477674633264541626e-01,-1.410768777132034302e-01,2.737897336483001709e-01,1.092977076768875122e-01,-1.060053110122680664e-01,1.960575580596923828e-02,-3.318436741828918457e-01,-9.891946800053119659e-03,-1.779661327600479126e-01,-3.083146875724196434e-03
1.072301343083381653e-02,1.609899252653121948e-01,1.909220963716506958e-01,-4.222831875085830688e-02,-1.842604130506515503e-01,-1.498938202857971191e-01,-5.571004003286361694e-03,-2.093588411808013916e-01,1.417641788721084595e-01,-1.731577962636947632e-01,-2.199552208185195923e-01,1.408930271863937378e-01,-2.299038171768188477e-01,9.043245762586593628e-02,1.487138308584690094e-02,1.534223407506942749e-01,-1.169394180178642273e-01,-1.032635942101478577e-01,-2.104426324367523193e-01,-5.710541456937789917e-02,-1.376561373472213745e-01,-1.864628046751022339e-01,1.020708307623863220e-01,6.666151341050863266e-03,1.261799186468124390e-01,-1.540766954421997070e-01,-2.578582167625427246e-01,2.468965202569961548e-01,-2.423336505889892578e-01,2.428763657808303833e-01,-1.318250149488449097e-01,-2.956870496273040771e-01,-1.567040681838989258e-01,2.635561227798461914e-01,-3.002059161663055420e-01,-3.245048224925994873e-01,1.170889511704444885e-01,1.558345705270767212e-01,6.919635832309722900e-02,-1.135057806968688965e-01,-3.015032112598419189e-01,-1.798584163188934326e-01,3.317175060510635376e-02,7.189925014972686768e-02,-2.021554112434387207e-01,-4.901177287101745605e-01,2.242071926593780518e-02,-2.273599244654178619e-02,9.442454576492309570e-02,1.522696316242218018e-01
-1.136333122849464417e-02,1.669067889451980591e-02,2.370867580175399780e-01,4.565590247511863708e-02,1.434052735567092896e-02,-1.125315502285957336e-01,-1.017039045691490173e-01,-2.397677451372146606e-01,1.229963079094886780e-02,5.840003117918968201e-02,-9.329385310411453247e-02,6.038157641887664795e-02,-2.323949011042714119e-03,3.297570943832397461e-01,-2.984966635704040527e-01,-3.735105693340301514e-02,1.134958788752555847e-01,-1.002392247319221497e-01,7.058300822973251343e-02,-4.827366024255752563e-02,4.428207408636808395e-03,-2.018757015466690063e-01,3.116495311260223389e-01,-4.101267457008361816e-01,-1.164309829473495483e-01,1.390014542266726494e-03,2.208897173404693604e-01,1.354438960552215576e-01,-9.793189354240894318e-03,3.829345107078552246e-01,2.039693063125014305e-03,-2.794281840324401855e-01,-8.738171309232711792e-03,2.339760363101959229e-01,8.893984556198120117e-02,-1.747613102197647095e-01,-3.331420421600341797e-01,1.827657818794250488e-01,1.187053695321083069e-01,-2.065920233726501465e-01,8.609344251453876495e-03,-3.823572769761085510e-02,-9.235726296901702881e-02,3.275280296802520752e-01,-8.226554095745086670e-02,8.164062350988388062e-02,2.618074417114257812e-01,2.688763141632080078e-01,-1.280804574489593506e-01,7.925731688737869263e-02
-1.127814725041389465e-01,-7.235052436590194702e-02,9.949815459549427032e-03,2.269395738840103149e-01,1.120041310787200928e-01,-2.604674398899078369e-01,1.809191703796386719e-01,-2.325340546667575836e-02,8.802928030490875244e-02,-2.354246824979782104e-01,-2.965509146451950073e-02,-1.375076770782470703e-01,-3.648711442947387695e-01,-9.246872365474700928e-02,-1.377371102571487427e-01,-1.260370761156082153e-01,-1.652830652892589569e-02,8.565199375152587891e-02,1.173318699002265930e-01,2.249543517827987671e-01,1.267692148685455322e-01,-2.210900336503982544e-01,1.801015734672546387e-01,1.802327930927276611e-01,-1.681764423847198486e-01,1.889579296112060547e-01,1.928931660950183868e-02,-1.014343500137329102e-01,2.590074837207794189e-01,1.500140428543090820e-01,1.382133662700653076e-01,1.655026972293853760e-01,2.175271809101104736e-01,-1.349780522286891937e-02,3.574364483356475830e-01,1.703966110944747925e-01,-1.950808018445968628e-01,1.184580847620964050e-01,6.566462665796279907e-02,2.106165587902069092e-01,1.115691587328910828e-01,9.419226646423339844e-02,2.372256070375442505e-01,-1.432962119579315186e-01,6.608337908983230591e-02,-1.789789199829101562e-01,-3.401057124137878418e-01,9.560859203338623047e-02,1.662591248750686646e-01,-2.679235637187957764e-01
-4.449310898780822754e-01,-1.665365695953369141e-01,2.622935771942138672e-01,1.656595170497894287e-01,-1.595728099346160889e-02,-3.747165501117706299e-01,-2.492649853229522705e-01,1.432368648238480091e-03,2.352583557367324829e-01,-2.603975832462310791e-01,2.000043094158172607e-01,-2.282947003841400146e-01,1.486210078001022339e-01,6.103508546948432922e-02,-2.150952816009521484e-01,1.029022969305515289e-02,-8.535739779472351074e-02,-1.193787232041358948e-01,-3.259623050689697266e-01,-1.676326394081115723e-01,1.481851935386657715e-02,-2.630695700645446777e-01,-2.999576330184936523e-01,-3.179896175861358643e-01,-1.917857676744461060e-01,-2.454276010394096375e-02,-2.938694953918457031e-01,1.996139995753765106e-02,-1.069339215755462646e-01,-1.994521170854568481e-01,1.186668351292610168e-01,-1.384612470865249634e-01,1.534519046545028687e-01,8.391096442937850952e-02,-2.819346785545349121e-01,-2.623999714851379395e-01,2.527975663542747498e-02,-1.634104549884796143e-01,-3.054893612861633301e-01,3.421721756458282471e-01,-1.726965606212615967e-01,1.335822939872741699e-01,-1.676902025938034058e-01,5.659364163875579834e-02,-1.175896450877189636e-01,-1.882636547088623047e-01,4.866214394569396973e-01,2.629627287387847900e-01,-6.318228691816329956e-02,-3.301271200180053711e-01
-1.825567334890365601e-01,1.278823018074035645e-01,-5.405098572373390198e-02,1.304438412189483643e-01,1.791537851095199585e-01,-1.411303132772445679e-01,1.584209054708480835e-01,-1.937328428030014038e-01,8.174623548984527588e-02,-1.016002744436264038e-01,-2.964232303202152252e-02,-7.119570672512054443e-02,-9.489874541759490967e-02,-4.796198382973670959e-02,6.850049644708633423e-02,1.191956996917724609e-01,1.541616767644882202e-01,7.080474495887756348e-02,-1.264515370130538940e-01,2.571196854114532471e-01,-1.676269769668579102e-01,-1.328054219484329224e-01,-7.714455574750900269e-02,-9.422327578067779541e-02,3.031748831272125244e-01,2.047252058982849121e-01,1.801867634057998657e-01,-2.945387661457061768e-01,-1.048598289489746094e-01,1.130366921424865723e-01,2.855608165264129639e-01,5.507984384894371033e-02,-2.239522933959960938e-01,-1.270397007465362549e-01,-2.509814202785491943e-01,-1.823663711547851562e-01,1.752433478832244873e-01,8.744020760059356689e-02,1.417456120252609253e-01,-1.131522357463836670e-01,-6.045001372694969177e-02,-1.787109076976776123e-01,-1.131067350506782532e-01,1.707691885530948639e-02,-3.083630464971065521e-02,1.150718107819557190e-01,-5.921998620033264160e-02,7.446644455194473267e-02,1.766739636659622192e-01,-1.581065356731414795e-01
-7.108689844608306885e-02,-7.188588380813598633e-03,-5.112902522087097168e-01,3.017505407333374023e-01,-7.864040881395339966e-02,-1.910186707973480225e-01,2.717013061046600342e-01,5.863309837877750397e-03,9.968604147434234619e-02,-8.291199058294296265e-02,-4.128281399607658386e-02,-2.879889011383056641e-01,-1.596914529800415039e-01,-1.945869475603103638e-01,-2.443760931491851807e-01,2.946476638317108154e-01,-1.628381460905075073e-01,-1.423759013414382935e-01,-2.153079211711883545e-01,2.912329137325286865e-01,-4.409664869308471680e-02,-5.465525202453136444e-03,-2.167959697544574738e-02,-4.022828117012977600e-02,-2.505430281162261963e-01,6.718192249536514282e-02,-3.583658039569854736e-01,1.308669447898864746e-01,3.340172767639160156e-01,-4.680188000202178955e-02,-9.816737473011016846e-02,2.228472977876663208e-01,2.470925450325012207e-01,1.597360335290431976e-02,-2.190254781453404576e-05,-6.434371322393417358e-02,-2.395067960023880005e-01,3.193176388740539551e-01,2.580085024237632751e-02,-1.402695178985595703e-01,-5.098875761032104492e-01,6.133145838975906372e-02,-7.870230823755264282e-02,1.064019650220870972e-01,1.469444781541824341e-01,-1.382077485322952271e-01,-3.740476816892623901e-02,1.476136296987533569e-01,7.432482391595840454e-02,1.715405434370040894e-01
-1.728770881891250610e-01,2.196586728096008301e-01,7.738245278596878052e-02,1.277358829975128174e-01,2.665283977985382080e-01,-9.036082774400711060e-02,2.008050382137298584e-01,-1.331872195005416870e-01,1.293260008096694946e-01,3.504573926329612732e-02,-6.583215296268463135e-02,-7.484370470046997070e-02,-8.785728365182876587e-02,-3.656402602791786194e-02,-1.663761138916015625e-01,3.325894847512245178e-02,-6.690524518489837646e-02,-1.214980483055114746e-01,-9.798400849103927612e-02,-1.976643688976764679e-02,-2.019097357988357544e-01,-1.161976903676986694e-01,1.661872565746307373e-01,-9.974985569715499878e-02,-1.853997819125652313e-03,-6.307765841484069824e-02,-1.906803548336029053e-01,1.119280308485031128e-01,-1.241431683301925659e-01,5.875131860375404358e-02,2.417472898960113525e-01,-2.284126728773117065e-01,2.378950268030166626e-01,5.239285901188850403e-02,1.246726214885711670e-01,4.662283882498741150e-02,-4.664111882448196411e-02,5.849815905094146729e-02,-3.986218199133872986e-02,1.039963737130165100e-01,-1.302066743373870850e-01,-6.378042697906494141e-02,2.121282964944839478e-01,-1.284296065568923950e-01,6.455784291028976440e-02,-8.822266757488250732e-02,-1.786509454250335693e-01,1.290584206581115723e-01,8.357841521501541138e-03,-1.043920069932937622e-01
-1.261482089757919312e-01,3.678202629089355469e-01,-4.238091409206390381e-01,2.961914986371994019e-02,4.583661630749702454e-02,-1.162496879696846008e-01,3.915793597698211670e-01,-2.318579405546188354e-01,-1.948529779911041260e-01,-1.142156571149826050e-01,-1.100543439388275146e-01,-7.798397541046142578e-02,2.384826838970184326e-01,-2.980645895004272461e-01,1.086399257183074951e-01,-1.925835013389587402e-01,-1.132322773337364197e-01,3.016193807125091553e-01,-3.908387944102287292e-02,-4.762964323163032532e-02,-8.968999609351158142e-03,-1.484746932983398438e-01,-2.433330863714218140e-01,-2.230498343706130981e-01,-4.058766365051269531e-01,2.405242621898651123e-01,-8.678141236305236816e-02,-6.005372107028961182e-02,2.134873718023300171e-01,1.049266532063484192e-01,4.241992831230163574e-01,-2.147605568170547485e-01,6.058330461382865906e-02,2.601997554302215576e-02,2.903350442647933960e-02,2.012765780091285706e-02,1.214362233877182007e-01,-3.524244204163551331e-02,1.344238519668579102e-01,9.193222224712371826e-02,-3.781111240386962891e-01,-1.848088204860687256e-02,1.923705786466598511e-01,-1.650203168392181396e-01,-3.955048024654388428e-01,-2.004606463015079498e-02,-2.473360747098922729e-01,2.430858612060546875e-01,8.758178353309631348e-02,-2.267743051052093506e-01
2.087304741144180298e-02,1.247492525726556778e-02,-4.304743185639381409e-02,1.294534802436828613e-01,7.572047412395477295e-02,-3.436303734779357910e-01,1.315103378146886826e-02,-2.010976672172546387e-01,1.447324454784393311e-01,9.748651087284088135e-02,3.145115450024604797e-02,-6.134806200861930847e-02,2.344518452882766724e-01,1.814854443073272705e-01,4.042690992355346680e-01,9.731011092662811279e-02,6.156460568308830261e-02,4.009518027305603027e-01,-5.554676428437232971e-02,-2.102549672126770020e-01,4.876840859651565552e-02,1.343881636857986450e-01,1.141064688563346863e-01,-3.616112098097801208e-02,2.655348777770996094e-01,-1.310163587331771851e-01,-1.410280466079711914e-01,-1.438285708427429199e-01,-2.141715139150619507e-01,2.453690320253372192e-01,2.067367583513259888e-01,-7.395859807729721069e-02,8.258711546659469604e-03,-5.134768784046173096e-02,1.200880333781242371e-01,1.702345162630081177e-01,3.788242489099502563e-02,-4.540010690689086914e-01,-1.941947191953659058e-01,-1.329700499773025513e-01,-1.170551702380180359e-01,-1.033534780144691467e-01,6.589185446500778198e-02,-9.433246403932571411e-02,-2.001435309648513794e-02,5.767530575394630432e-02,-1.025614291429519653e-01,3.517308458685874939e-02,2.451486187055706978e-03,-6.456646323204040527e-02
-1.549406051635742188e-01,-1.276548802852630615e-01,-3.100285828113555908e-01,9.193518757820129395e-02,4.764046892523765564e-02,-2.050385773181915283e-01,6.535612046718597412e-02,-1.188797503709793091e-01,2.141614407300949097e-01,-2.786947414278984070e-02,3.349385261535644531e-01,-4.460372403264045715e-02,-1.498942375183105469e-01,1.639997214078903198e-01,2.338090352714061737e-02,-1.553103234618902206e-02,2.316325306892395020e-01,-6.340781599283218384e-02,1.738449186086654663e-01,-2.239329218864440918e-01,-1.933474689722061157e-01,1.670006662607192993e-01,-1.312357932329177856e-01,3.849221765995025635e-02,1.395743340253829956e-02,8.633448183536529541e-02,-5.997387319803237915e-02,2.074896246194839478e-01,7.048209011554718018e-02,7.652318477630615234e-02,2.865069210529327393e-01,6.557068973779678345e-02,-5.766193568706512451e-02,-1.260569319128990173e-02,-5.327912513166666031e-03,-3.420846462249755859e-01,-1.464896500110626221e-01,-9.413813799619674683e-02,-1.815577745437622070e-01,3.077414818108081818e-02,-1.770804375410079956e-01,3.956884518265724182e-02,1.840350329875946045e-01,-1.522516459226608276e-01,1.232780050486326218e-02,2.338753193616867065e-01,1.254085004329681396e-01,-1.165447477251291275e-02,-1.270882189273834229e-01,6.271918118000030518e-02
-2.625012993812561035e-01,-3.621526435017585754e-02,3.757963329553604126e-02,1.443866640329360962e-01,-1.981143951416015625e-01,-8.036778867244720459e-02,1.948564946651458740e-01,-1.697414219379425049e-01,-1.323868334293365479e-01,-5.779670178890228271e-02,-2.060982137918472290e-01,2.459921836853027344e-01,2.616783678531646729e-01,1.212989538908004761e-01,2.578815519809722900e-01,9.087663143873214722e-03,1.110636517405509949e-01,3.449818864464759827e-02,-3.339028060436248779e-01,1.264060288667678833e-01,-2.575767338275909424e-01,-3.205489516258239746e-01,2.026595622301101685e-01,7.860498130321502686e-02,2.951741516590118408e-01,-9.839512407779693604e-03,-1.099225729703903198e-01,-3.696981072425842285e-01,2.230549789965152740e-02,2.237670272588729858e-01,1.428330391645431519e-01,2.185828834772109985e-01,4.476916417479515076e-02,2.169365286827087402e-01,1.627167761325836182e-01,3.298242986202239990e-01,-2.035070657730102539e-01,6.090160459280014038e-02,-6.904062628746032715e-02,2.908328175544738770e-01,-3.059525191783905029e-01,-2.743456959724426270e-01,3.048347234725952148e-01,-6.092215701937675476e-02,7.723639160394668579e-02,2.030888572335243225e-02,-8.688623458147048950e-02,-1.890862435102462769e-01,-3.613882511854171753e-02,-2.135878801345825195e-01
1.882183104753494263e-01,-2.314066439867019653e-01,-2.222007066011428833e-01,-9.411537088453769684e-03,-2.635172009468078613e-02,2.072710394859313965e-01,-2.490822076797485352e-01,1.417564004659652710e-01,-2.202190905809402466e-01,3.410438001155853271e-01,1.390272825956344604e-01,1.585544645786285400e-01,5.906561762094497681e-02,1.343822330236434937e-01,-4.440410807728767395e-02,1.904461830854415894e-01,-8.887384086847305298e-03,5.316181778907775879e-01,2.033342868089675903e-01,9.345467388629913330e-02,1.429515480995178223e-01,8.283304423093795776e-02,-1.886386424303054810e-01,-8.091581054031848907e-03,-1.020018234848976135e-01,-2.059088498353958130e-01,-6.347277760505676270e-02,-9.770292043685913086e-02,-3.905066847801208496e-02,4.123993590474128723e-02,8.713186532258987427e-02,-2.747502028942108154e-01,-8.137896656990051270e-02,1.750458031892776489e-01,-1.443780064582824707e-01,5.103897675871849060e-02,9.258417785167694092e-02,-2.144850641489028931e-01,5.090203881263732910e-02,2.458138167858123779e-01,-6.814163923263549805e-02,1.599870324134826660e-01,2.252747565507888794e-01,-1.014259532094001770e-01,2.554001519456505775e-03,-1.867385059595108032e-01,-1.987126916646957397e-01,2.556529343128204346e-01,-1.446455717086791992e-01,-9.207874536514282227e-02
2.693009674549102783e-01,2.085174620151519775e-01,-1.235168054699897766e-01,-8.821232616901397705e-02,-9.515205025672912598e-02,1.071117743849754333e-01,1.705528348684310913e-01,2.111312150955200195e-01,2.332771271467208862e-01,-4.340685531497001648e-02,1.115336418151855469e-01,-1.476175934076309204e-01,3.330334424972534180e-01,-3.609294593334197998e-01,8.519573509693145752e-02,7.022205740213394165e-02,-1.823294758796691895e-01,2.908673286437988281e-01,-1.031582355499267578e-01,-2.836752831935882568e-01,-7.892274856567382812e-02,1.649969518184661865e-01,1.906001418828964233e-01,-1.408364474773406982e-01,5.697292089462280273e-01,-2.272956632077693939e-02,9.505891799926757812e-02,-1.059457734227180481e-01,2.170998044312000275e-02,-4.754117131233215332e-02,1.795160025358200073e-01,1.775399595499038696e-01,-5.973220616579055786e-02,-1.674027889966964722e-01,1.100279912352561951e-01,3.895084857940673828e-01,-6.314297020435333252e-02,1.152329221367835999e-01,1.124311983585357666e-01,1.567402631044387817e-01,-3.682450205087661743e-02,5.065624415874481201e-02,3.154505044221878052e-02,-1.208397969603538513e-01,-1.868802011013031006e-01,7.373015582561492920e-02,-3.789791464805603027e-01,-1.335864961147308350e-01,-7.928980514407157898e-03,4.232391715049743652e-02
-2.040655761957168579e-01,1.298832148313522339e-01,-2.188578844070434570e-01,-1.969255320727825165e-02,-1.337100937962532043e-02,2.467013299465179443e-01,2.946251332759857178e-01,2.166222482919692993e-01,1.717254221439361572e-01,3.734347224235534668e-02,1.215874850749969482e-01,-2.499931119382381439e-02,2.838546633720397949e-01,4.596108198165893555e-02,3.241375088691711426e-01,1.995883285999298096e-01,-5.468520522117614746e-02,-5.886260047554969788e-02,-3.288645446300506592e-01,-1.000996679067611694e-01,-2.181188166141510010e-01,6.975520402193069458e-02,-2.656886875629425049e-01,5.940755456686019897e-02,-3.796378150582313538e-02,-2.177679352462291718e-02,-1.752418465912342072e-02,-1.279059946537017822e-01,-4.301073774695396423e-02,2.127481102943420410e-01,-6.367846578359603882e-02,5.239865928888320923e-02,1.087562441825866699e-01,-1.768386960029602051e-01,3.589528845623135567e-03,3.928601443767547607e-01,2.331171184778213501e-01,4.225294105708599091e-03,-6.888789683580398560e-02,-2.249861657619476318e-01,-3.692554533481597900e-01,3.912496566772460938e-02,4.192301258444786072e-02,-2.850184142589569092e-01,-1.049608737230300903e-01,-1.870940029621124268e-01,-3.625515401363372803e-01,-9.961008094251155853e-03,-3.066064715385437012e-01,5.482470244169235229e-02
-5.248435214161872864e-02,7.003065198659896851e-02,8.577250689268112183e-02,1.055544763803482056e-01,-2.919089198112487793e-01,-1.189453378319740295e-01,3.144737184047698975e-01,7.305333018302917480e-02,-9.577475488185882568e-02,-1.320672929286956787e-01,-2.413962408900260925e-02,1.493120845407247543e-02,1.794518828392028809e-01,-3.211261630058288574e-01,-1.022434160113334656e-01,2.513912022113800049e-01,2.962208986282348633e-01,2.511973679065704346e-01,-1.150895431637763977e-01,-6.916780769824981689e-02,-4.865264520049095154e-02,-1.272671110928058624e-02,-2.511745691299438477e-01,2.935039810836315155e-02,-1.677149087190628052e-01,1.812241226434707642e-01,1.431254744529724121e-01,-1.191787645220756531e-01,2.949954196810722351e-02,2.774736881256103516e-01,2.346843034029006958e-01,-1.151890009641647339e-01,2.073573768138885498e-01,8.341343142092227936e-03,2.858407795429229736e-01,5.280549824237823486e-02,-7.750176638364791870e-02,2.427678406238555908e-01,1.448881030082702637e-01,3.083809316158294678e-01,1.246442645788192749e-02,1.695290952920913696e-01,-6.208712980151176453e-02,3.338792175054550171e-02,-1.084095090627670288e-01,-2.578690946102142334e-01,-2.114188969135284424e-01,2.127889078110456467e-03,1.394266784191131592e-01,-2.535657882690429688e-01
