1.200341060757637024e-01,-2.587565779685974121e-02,8.149176836013793945e-03,-1.897834986448287964e-01,3.984866663813591003e-03,-4.964584857225418091e-02,-4.809264242649078369e-01,-1.322306692600250244e-03,1.263108551502227783e-01,-6.750861555337905884e-02,1.015712842345237732e-01,-1.850236803293228149e-01,-1.364396959543228149e-01,-9.857875108718872070e-02,5.433870553970336914e-01,-1.547733247280120850e-01,1.288291513919830322e-01,-4.666026234626770020e-01,-3.812591359019279480e-02,3.126144111156463623e-01,4.429366588592529297e-01,6.718451529741287231e-02,-3.233616352081298828e-01,-1.693716496229171753e-01,-2.069694735109806061e-02,3.078530728816986084e-01,-2.351395227015018463e-02,2.386518418788909912e-01,1.123738959431648254e-01,-1.927552372217178345e-01,-3.573463261127471924e-01,2.787358760833740234e-01,2.706933617591857910e-01,5.022020544856786728e-03,-2.817601561546325684e-01,1.404056698083877563e-01,-5.198068618774414062e-01,4.304922819137573242e-01,2.164258062839508057e-01,-3.535172343254089355e-02,1.870987862348556519e-01,1.443963795900344849e-01,1.969669312238693237e-01,9.054109454154968262e-02,1.569343656301498413e-01,2.634940147399902344e-01,-2.795548737049102783e-01,2.094777822494506836e-01,4.187889695167541504e-01,-4.612401127815246582e-02
-1.853665150701999664e-02,-1.133207827806472778e-01,1.244928762316703796e-01,3.050007224082946777e-01,-1.121802031993865967e-01,-1.135319620370864868e-01,1.588880568742752075e-01,2.676300704479217529e-01,2.609315561130642891e-03,-4.234843328595161438e-02,-2.426887154579162598e-01,-4.502532482147216797e-01,7.346447557210922241e-02,-2.059453129768371582e-01,7.596436887979507446e-02,2.098768502473831177e-01,3.357738256454467773e-01,-5.978256836533546448e-02,9.867407381534576416e-02,-2.776526100933551788e-02,-2.583662271499633789e-01,9.358566254377365112e-02,2.920657694339752197e-01,-2.034251578152179718e-02,7.093362510204315186e-02,5.448499694466590881e-02,3.776616454124450684e-01,-9.400204569101333618e-02,9.611283242702484131e-02,6.055201217532157898e-02,1.195853799581527710e-01,7.151010911911725998e-03,-3.970303237438201904e-01,-4.912981092929840088e-01,6.080318093299865723e-01,-1.379013061523437500e-01,-3.170434534549713135e-01,-9.527629613876342773e-02,2.295757830142974854e-01,-2.278903275728225708e-01,-5.464966297149658203e-01,-1.104926764965057373e-01,-2.420171946287155151e-01,-1.886185854673385620e-01,-3.062468171119689941e-01,7.248996198177337646e-02,-2.344349175691604614e-01,2.268101871013641357e-01,3.182156085968017578e-01,-1.501511186361312866e-01
1.286190599203109741e-01,1.595586538314819336e-01,-3.952323794364929199e-01,8.287620544433593750e-02,6.337922811508178711e-02,-7.933841347694396973e-01,1.233057603240013123e-01,-8.771476745605468750e-01,-8.938305079936981201e-02,-6.761382818222045898e-01,-1.210548654198646545e-01,2.722800076007843018e-01,1.870836466550827026e-01,1.713537871837615967e-01,3.776151537895202637e-01,-7.453980445861816406e-01,5.106813907623291016e-01,-4.151425361633300781e-01,-1.170308738946914673e-01,-2.091176807880401611e-01,9.390765428543090820e-02,8.223683238029479980e-01,-4.021380096673965454e-02,-1.790920943021774292e-01,-5.295701622962951660e-01,1.273065656423568726e-01,-4.600481092929840088e-01,-1.579173058271408081e-01,-1.973986774682998657e-01,-9.288708865642547607e-02,-3.687226176261901855e-01,-6.761810183525085449e-02,1.211950182914733887e-01,3.170437812805175781e-01,-6.752501428127288818e-02,-3.956086039543151855e-01,4.255999252200126648e-02,1.395454406738281250e-01,-3.057886064052581787e-01,4.130691587924957275e-01,9.658296406269073486e-02,-6.761107593774795532e-02,-6.195792555809020996e-02,2.527838647365570068e-01,-6.532084345817565918e-01,1.635218709707260132e-01,-7.707452774047851562e-01,-1.195376664400100708e-01,5.850591659545898438e-01,-4.888781905174255371e-02
1.103330682963132858e-02,-1.192495226860046387e-01,1.770052462816238403e-01,2.224928289651870728e-01,-7.662869691848754883e-01,-2.154196053743362427e-01,-4.983639419078826904e-01,3.847308456897735596e-02,-5.602122098207473755e-02,7.242891192436218262e-02,4.849462211132049561e-02,-5.069226026535034180e-02,4.808239638805389404e-01,1.184535771608352661e-01,4.983394593000411987e-02,3.307320550084114075e-02,4.646229147911071777e-01,-1.604172140359878540e-01,-3.179217875003814697e-02,-5.502375960350036621e-01,9.983483701944351196e-02,1.083621457219123840e-01,1.600698828697204590e-01,-5.542840361595153809e-01,2.677021920680999756e-01,-6.310254335403442383e-01,1.208939924836158752e-01,2.912988066673278809e-01,-3.217412158846855164e-02,-1.349758952856063843e-01,2.532029151916503906e-01,1.711490601301193237e-01,-2.483459711074829102e-01,-3.804435729980468750e-01,4.322499930858612061e-01,-1.093337461352348328e-01,2.007104605436325073e-01,-1.471345126628875732e-01,1.063599511981010437e-01,2.518687844276428223e-01,-2.924267947673797607e-01,9.637054055929183960e-02,-3.207601904869079590e-01,9.243839234113693237e-02,1.080572977662086487e-01,4.736711680889129639e-01,1.114435568451881409e-01,-1.561019718647003174e-01,-3.342041969299316406e-01,-7.613848149776458740e-02
-7.128385361284017563e-03,-3.295950293540954590e-01,-1.070051193237304688e-01,-2.159604132175445557e-01,6.340966373682022095e-02,1.771626025438308716e-01,-1.797264367341995239e-01,1.907459646463394165e-02,-3.344896435737609863e-01,-3.235138356685638428e-01,1.478317975997924805e-01,-2.842091321945190430e-01,-1.389259658753871918e-02,-2.690067589282989502e-01,2.698549032211303711e-01,-2.643112279474735260e-02,4.204601049423217773e-01,-3.119895458221435547e-01,-2.899957895278930664e-01,-3.125625550746917725e-01,2.377110719680786133e-01,1.449435055255889893e-01,-1.270233988761901855e-01,-6.139369606971740723e-01,-5.037891268730163574e-01,1.970765413716435432e-03,5.445948243141174316e-02,-1.073029488325119019e-01,6.372695416212081909e-02,1.082037389278411865e-01,-1.129749119281768799e-01,-1.505498439073562622e-01,-2.252925001084804535e-02,1.569304615259170532e-01,-1.066691800951957703e-01,-1.878917664289474487e-01,-1.425461005419492722e-02,6.448929198086261749e-04,-5.791767835617065430e-01,3.104727268218994141e-01,4.118572920560836792e-03,-2.500536739826202393e-01,-5.117157101631164551e-01,-3.455832600593566895e-01,4.252621531486511230e-02,2.932331264019012451e-01,1.318114623427391052e-02,-1.712215095758438110e-01,1.751975119113922119e-01,-3.620919585227966309e-01
3.388907313346862793e-01,1.864120066165924072e-01,-4.119789004325866699e-01,-4.324556887149810791e-01,3.335689604282379150e-01,-5.265693739056587219e-02,-1.343706715852022171e-02,-2.089325934648513794e-01,-1.106043383479118347e-01,-2.253231555223464966e-01,4.157938063144683838e-01,1.193453222513198853e-01,-2.170645445585250854e-01,-2.787275798618793488e-02,4.093490075320005417e-03,-5.821485072374343872e-02,1.506475210189819336e-01,-1.386939585208892822e-01,1.158137023448944092e-01,5.491416901350021362e-02,1.186992824077606201e-01,2.145172804594039917e-01,2.911203801631927490e-01,-1.106081008911132812e-01,-2.132472395896911621e-01,4.916369318962097168e-01,3.643395379185676575e-02,8.514890819787979126e-02,-9.173475205898284912e-02,8.830495178699493408e-02,-1.174236536026000977e-01,-3.946448862552642822e-02,2.529789209365844727e-01,8.751418441534042358e-03,-8.556696027517318726e-02,4.025732874870300293e-01,-8.288803696632385254e-02,4.058093130588531494e-01,8.210133016109466553e-02,-3.316537290811538696e-02,3.331890329718589783e-02,-2.611732110381126404e-02,4.959093034267425537e-01,8.310137689113616943e-02,-2.457392811775207520e-01,-1.333547085523605347e-01,-2.937178611755371094e-01,-8.368998765945434570e-02,2.952279746532440186e-01,4.588470757007598877e-01
1.112836226820945740e-02,-6.635242700576782227e-02,-1.471959203481674194e-01,3.685995191335678101e-02,-2.079207003116607666e-01,-3.124004900455474854e-01,-1.755015552043914795e-01,-1.952987015247344971e-01,-1.128136739134788513e-01,-6.982815265655517578e-02,7.895115762948989868e-03,-5.437203682959079742e-03,-1.887677758932113647e-01,-1.859836876392364502e-01,-5.195457860827445984e-02,1.467111110687255859e-01,-5.470187589526176453e-02,-1.997925899922847748e-02,-3.520103096961975098e-01,1.099149882793426514e-01,2.175842225551605225e-02,-1.149574518203735352e-01,-7.527568936347961426e-02,-1.894216090440750122e-01,-3.836604356765747070e-01,4.021501913666725159e-02,-5.585388094186782837e-02,1.697331368923187256e-01,2.978949844837188721e-01,-2.372001856565475464e-02,-4.922302812337875366e-02,4.052310250699520111e-03,-2.970047853887081146e-02,-8.573034405708312988e-02,-1.973308473825454712e-01,-4.823207557201385498e-01,-3.402110934257507324e-01,-2.427566945552825928e-01,1.937009096145629883e-01,-1.385903656482696533e-01,-1.258863229304552078e-02,1.305203139781951904e-01,1.618164926767349243e-01,1.265958547592163086e-01,2.219372093677520752e-01,-8.869142271578311920e-03,1.187669709324836731e-01,3.542651832103729248e-01,-1.377647966146469116e-01,-1.482061445713043213e-01
-2.269195318222045898e-01,4.937838390469551086e-02,-2.872374951839447021e-01,-4.312351644039154053e-01,-3.030570745468139648e-01,-1.428950130939483643e-01,-5.218484625220298767e-02,-1.064875721931457520e-01,-3.575744628906250000e-01,3.474054634571075439e-01,-1.247099414467811584e-01,4.770745337009429932e-01,1.721814423799514771e-01,1.126290559768676758e-01,-8.034382760524749756e-02,4.354403614997863770e-01,1.593284159898757935e-01,-1.737880557775497437e-01,-1.206865087151527405e-01,-8.950110524892807007e-02,-1.901480108499526978e-01,1.855277866125106812e-01,-9.458384662866592407e-02,-1.575709581375122070e-01,1.705487072467803955e-01,1.491953879594802856e-01,2.261822521686553955e-01,-3.575948476791381836e-01,-7.568238675594329834e-02,-8.331873267889022827e-02,1.501596719026565552e-01,-2.239208817481994629e-01,-3.652714788913726807e-01,-2.769802212715148926e-01,3.786319792270660400e-01,-8.686059154570102692e-03,1.960921585559844971e-01,-3.935655355453491211e-01,-2.818048000335693359e-01,-1.148010566830635071e-01,-4.992272332310676575e-02,-6.014644354581832886e-02,-4.189822971820831299e-01,3.648672401905059814e-01,-2.051689475774765015e-01,-2.251844108104705811e-01,1.068983227014541626e-01,-2.089387625455856323e-01,-4.126765727996826172e-01,1.105958819389343262e-01
-3.448158502578735352e-02,9.971588104963302612e-02,-2.110588252544403076e-01,-1.297626346349716187e-01,9.403060376644134521e-02,8.650118857622146606e-02,2.141883671283721924e-01,2.270743250846862793e-01,6.899008154869079590e-02,-2.272278219461441040e-01,-3.355003297328948975e-01,-1.802810728549957275e-01,9.021326899528503418e-02,-1.376408245414495468e-02,1.070514880120754242e-02,2.610817551612854004e-01,2.643488645553588867e-01,-1.610722094774246216e-01,2.600124776363372803e-01,-5.688384640961885452e-03,-2.373381108045578003e-01,-7.487520575523376465e-02,2.314437180757522583e-01,2.475088387727737427e-01,-2.537272498011589050e-02,2.866592109203338623e-01,3.672284185886383057e-01,2.939466536045074463e-01,-3.084290958940982819e-02,9.748829156160354614e-02,-2.262538224458694458e-01,-3.177038431167602539e-01,-1.078042313456535339e-01,-3.942787647247314453e-02,3.292746245861053467e-01,1.830375194549560547e-01,-2.570020221173763275e-02,-4.209290742874145508e-01,-2.323569506406784058e-01,2.171546220779418945e-01,2.293322384357452393e-01,7.265833765268325806e-02,-4.636975228786468506e-01,-3.923672065138816833e-02,2.064886242151260376e-01,-2.638321183621883392e-02,2.303231954574584961e-01,-3.227624595165252686e-01,-5.188296437263488770e-01,1.126708835363388062e-01
2.570278942584991455e-01,2.948412671685218811e-02,-1.747190207242965698e-02,-4.558782577514648438e-01,2.406969815492630005e-01,-1.399232298135757446e-01,1.876931935548782349e-01,-2.515861392021179199e-01,-3.914002478122711182e-01,-2.987243793904781342e-02,-2.344629960134625435e-03,2.671552300453186035e-01,2.787696719169616699e-01,-2.640012800693511963e-01,-2.045891582965850830e-01,1.542062908411026001e-01,-2.010235637426376343e-01,1.867470294237136841e-01,3.198131918907165527e-01,3.190684318542480469e-02,1.647978574037551880e-01,5.990180373191833496e-02,2.796205282211303711e-01,3.423684537410736084e-01,2.981788478791713715e-02,2.614747285842895508e-01,1.518367230892181396e-01,-1.921673566102981567e-01,-1.183712109923362732e-01,-1.065038070082664490e-01,-9.073665738105773926e-02,1.289163529872894287e-01,-4.285373259335756302e-03,1.707551628351211548e-01,4.151898249983787537e-02,-9.063573926687240601e-02,1.625522375106811523e-01,-1.569533720612525940e-03,-2.665218412876129150e-01,1.347155719995498657e-01,1.986692845821380615e-01,2.411409765481948853e-01,1.244958583265542984e-02,2.730366587638854980e-01,3.779128193855285645e-01,-2.312379181385040283e-01,-1.212730785482563078e-05,6.076934933662414551e-02,-1.547341346740722656e-01,2.250807136297225952e-01
1.334188729524612427e-01,-1.451007463037967682e-02,-1.970726102590560913e-01,-3.547474145889282227e-01,-1.951808482408523560e-01,-1.896520256996154785e-01,-1.389186270534992218e-02,-9.854755550622940063e-02,-5.783139495179057121e-04,2.468649595975875854e-01,-3.271587193012237549e-01,3.945051431655883789e-01,-2.012298703193664551e-01,2.731314301490783691e-02,-6.314297765493392944e-02,-4.858232140541076660e-01,-8.166282624006271362e-02,6.078517436981201172e-02,1.181411296129226685e-01,1.528475135564804077e-01,-1.276216655969619751e-01,3.236727416515350342e-02,-2.861298322677612305e-01,1.225925013422966003e-01,-1.355475932359695435e-01,2.708855271339416504e-01,4.512846469879150391e-01,-2.527108788490295410e-01,-1.615692377090454102e-01,-1.227895617485046387e-01,1.791746914386749268e-01,-3.614047467708587646e-01,-3.530308008193969727e-01,-2.213227599859237671e-01,-2.133563533425331116e-02,2.399324476718902588e-01,9.240392595529556274e-02,1.618152298033237457e-02,1.855574995279312134e-01,-1.943826675415039062e-01,1.611309349536895752e-01,1.642611175775527954e-01,-5.221962928771972656e-01,-2.129901349544525146e-01,1.193262040615081787e-01,-1.464467495679855347e-01,3.050412237644195557e-01,-3.324633240699768066e-01,-1.497468054294586182e-01,1.939919590950012207e-01
4.672189429402351379e-02,-3.446478024125099182e-02,-1.021046936511993408e-01,-1.595600545406341553e-01,9.354902058839797974e-02,-1.252312958240509033e-01,-1.770731508731842041e-01,2.682617865502834320e-02,-2.466570585966110229e-02,-4.042707681655883789e-01,1.585363894701004028e-01,-2.389985769987106323e-01,-2.143865227699279785e-01,-2.975493073463439941e-01,6.450744718313217163e-02,-3.551433384418487549e-01,-4.861465394496917725e-01,-1.674810498952865601e-01,2.370330840349197388e-01,4.148419499397277832e-01,1.067645289003849030e-02,-2.870247960090637207e-01,-5.047648027539253235e-02,-7.047341018915176392e-02,8.533468097448348999e-02,1.546677500009536743e-01,-9.293668717145919800e-02,1.010720208287239075e-01,3.979554176330566406e-01,1.547735780477523804e-01,2.810888178646564484e-02,1.114379242062568665e-01,1.225570440292358398e-01,-1.172083467245101929e-01,-4.360496997833251953e-02,-2.802402377128601074e-01,-3.754723966121673584e-01,8.085276186466217041e-02,-4.925039783120155334e-02,-1.379870027303695679e-01,-2.785287499427795410e-01,-8.469745516777038574e-01,3.233308792114257812e-01,-1.623353064060211182e-01,-3.556848466396331787e-01,-4.231840670108795166e-01,9.732181578874588013e-02,-6.204501390457153320e-01,-6.538025140762329102e-01,3.334482610225677490e-01
3.743332922458648682e-01,-2.803280353546142578e-01,-3.731667697429656982e-01,4.728007130324840546e-03,-2.419642806053161621e-01,7.703970074653625488e-01,-5.136866122484207153e-02,-1.333109438419342041e-01,5.392351746559143066e-01,2.572371661663055420e-01,9.544961899518966675e-02,-3.942164778709411621e-01,8.615714311599731445e-02,-2.574552595615386963e-02,-2.684861421585083008e-01,-2.451591342687606812e-01,-7.399445027112960815e-02,-3.131923079490661621e-01,-1.912073045969009399e-01,-4.341552257537841797e-01,-3.624179363250732422e-01,7.984924316406250000e-02,1.171121895313262939e-01,-9.920659661293029785e-02,-4.598180353641510010e-01,1.021111458539962769e-01,1.066076084971427917e-01,1.239543482661247253e-01,-3.820587992668151855e-01,1.984696686267852783e-01,-7.247563451528549194e-02,8.547282963991165161e-02,7.136387377977371216e-02,-2.387736737728118896e-01,-2.174472659826278687e-01,1.176731102168560028e-02,1.554463617503643036e-02,-1.748401555232703686e-03,-5.033975839614868164e-01,1.101838275790214539e-01,-3.222939968109130859e-01,7.421713322401046753e-03,-3.301711678504943848e-01,-4.068836569786071777e-01,-4.720884561538696289e-01,3.833821415901184082e-01,-1.410726178437471390e-02,-2.591807246208190918e-01,-1.880337148904800415e-01,-5.884088873863220215e-01
1.670247167348861694e-01,-2.933127582073211670e-01,-3.700574338436126709e-01,3.994399607181549072e-01,-2.814781367778778076e-01,-3.437398672103881836e-01,-2.564019709825515747e-02,-1.642673909664154053e-01,2.387451231479644775e-01,-2.532394789159297943e-02,6.942678987979888916e-02,-9.778878837823867798e-02,-1.702128350734710693e-01,1.732497364282608032e-01,2.889537513256072998e-01,1.654260158538818359e-01,-2.181437239050865173e-02,-6.221554800868034363e-02,1.254784613847732544e-01,-2.080468237400054932e-01,9.769163280725479126e-02,2.428891807794570923e-01,8.159638941287994385e-02,1.491356492042541504e-01,9.550742805004119873e-02,-3.202057182788848877e-01,-2.044614702463150024e-01,-1.046740543097257614e-02,-1.636221110820770264e-01,-1.079007089138031006e-01,-1.106730028986930847e-01,4.110771715641021729e-01,2.235226631164550781e-01,-1.212419122457504272e-01,2.406003326177597046e-01,-2.261290103197097778e-01,2.215669006109237671e-01,-3.319088220596313477e-01,1.745239645242691040e-01,3.703296929597854614e-02,-5.110522508621215820e-01,-4.448843598365783691e-01,2.396197430789470673e-02,-2.496465593576431274e-01,-5.459147095680236816e-01,2.533689439296722412e-01,3.278617858886718750e-01,-7.564153522253036499e-02,-1.522859781980514526e-01,-2.141088843345642090e-01
-1.852270662784576416e-01,4.429241716861724854e-01,-1.984967142343521118e-01,5.124911069869995117e-01,-7.762639969587326050e-02,-2.089177072048187256e-01,6.428187489509582520e-01,-3.517798706889152527e-02,-1.891564726829528809e-01,-4.033310115337371826e-01,-9.897004067897796631e-02,-2.816218137741088867e-01,-1.984828263521194458e-01,4.501317143440246582e-01,-1.187778264284133911e-01,-2.164079248905181885e-01,1.588263511657714844e-01,3.426492214202880859e-01,-4.751514196395874023e-01,-3.025060296058654785e-01,-4.947152137756347656e-01,2.553513646125793457e-02,4.808500781655311584e-02,-2.676761150360107422e-01,-7.678481936454772949e-02,-3.443349385634064674e-03,2.357871681451797485e-01,-4.495984315872192383e-01,1.470434665679931641e-01,4.165502786636352539e-01,-1.224815025925636292e-01,1.863356828689575195e-01,-1.345272511243820190e-01,4.865261316299438477e-01,-1.179002299904823303e-01,1.918563246726989746e-02,-3.124302923679351807e-01,-3.123615980148315430e-01,3.931812942028045654e-01,1.958252787590026855e-01,-1.046168990433216095e-02,-9.320504218339920044e-02,-5.255789309740066528e-02,-2.522386312484741211e-01,-5.315882563591003418e-01,-4.181577861309051514e-01,7.353580743074417114e-02,8.543229848146438599e-02,-8.028558492660522461e-01,-3.052201271057128906e-01
1.859080642461776733e-01,2.374670058488845825e-01,-1.333076506853103638e-01,2.227000519633293152e-02,1.819812506437301636e-01,-8.977932333946228027e-01,-4.107814431190490723e-01,-4.293705224990844727e-01,-2.697257399559020996e-01,-3.456929232925176620e-03,-3.194057643413543701e-01,2.600506842136383057e-01,4.289416074752807617e-01,-2.481422275304794312e-01,7.724343985319137573e-02,3.103778511285781860e-02,-5.585723519325256348e-01,-2.366111576557159424e-01,1.052148267626762390e-01,-1.837720274925231934e-01,-4.889937937259674072e-01,1.954971253871917725e-01,2.756575345993041992e-01,-2.698810100555419922e-01,-1.096455752849578857e-02,-2.504728436470031738e-01,-5.936839804053306580e-02,3.117455840110778809e-01,-3.869196772575378418e-01,-7.683837413787841797e-01,-2.880359590053558350e-01,1.980628371238708496e-01,1.834073364734649658e-01,-5.674966052174568176e-02,-8.187671005725860596e-02,3.089711368083953857e-01,-4.296872913837432861e-01,-6.408945918083190918e-01,-2.461592108011245728e-01,-2.160860598087310791e-01,-1.333368569612503052e-01,-4.010871350765228271e-01,-1.873793751001358032e-01,3.611616194248199463e-01,-3.636834025382995605e-01,-1.400034427642822266e-01,-2.539088129997253418e-01,-2.382643148303031921e-02,5.050207488238811493e-03,-3.196479752659797668e-02
1.141190752387046814e-01,-2.396610528230667114e-01,1.164393499493598938e-01,-1.660930067300796509e-01,5.227482318878173828e-01,-1.418423056602478027e-01,3.737045824527740479e-01,-5.866612792015075684e-01,-4.023383371531963348e-03,-3.334321677684783936e-01,1.545841097831726074e-01,1.909285336732864380e-01,-2.669680106919258833e-04,1.245061308145523071e-01,5.270198732614517212e-02,-1.389802694320678711e-01,8.389189839363098145e-02,-2.489609867334365845e-01,-2.321836352348327637e-02,3.562520444393157959e-01,8.469278365373611450e-02,-3.455493152141571045e-01,-3.078757971525192261e-02,-1.379600167274475098e-01,-3.856646716594696045e-01,3.280244171619415283e-01,-1.350952088832855225e-01,-9.315987676382064819e-02,-2.809942960739135742e-01,2.002011286094784737e-03,-5.546085238456726074e-01,-1.613951325416564941e-01,-3.240381479263305664e-01,2.494674324989318848e-01,7.097383588552474976e-02,-3.849293291568756104e-01,-1.617449223995208740e-01,-1.463394463062286377e-01,-2.513806708157062531e-02,-2.255041450262069702e-01,6.577163934707641602e-02,-9.780582040548324585e-02,3.903122246265411377e-01,-1.580926030874252319e-01,9.691408276557922363e-02,-2.873800098896026611e-01,-3.818812668323516846e-01,-1.897647529840469360e-01,2.150833308696746826e-01,1.320929378271102905e-01
-7.833239436149597168e-02,2.436847239732742310e-01,2.101477086544036865e-01,6.181922927498817444e-02,-4.484971463680267334e-01,-4.084489867091178894e-02,-1.619145721197128296e-01,2.022971808910369873e-01,3.210749477148056030e-02,5.975381731986999512e-01,-3.934679925441741943e-01,7.859047502279281616e-02,-8.843155205249786377e-02,1.100607439875602722e-01,-4.190513789653778076e-01,5.159032344818115234e-01,-3.199469447135925293e-01,-5.928609520196914673e-02,-1.252928823232650757e-01,-2.450036108493804932e-01,-2.645548582077026367e-01,4.991871118545532227e-01,3.273124247789382935e-02,2.452177703380584717e-01,-1.784608960151672363e-01,-1.583001613616943359e-01,2.972581982612609863e-01,2.525236010551452637e-01,-4.651949107646942139e-01,-6.252474188804626465e-01,-3.041258156299591064e-01,-3.523089289665222168e-01,-1.728046834468841553e-01,-1.590062975883483887e-01,-2.012232542037963867e-01,-1.096968203783035278e-01,2.903692889958620071e-03,-4.940267503261566162e-01,-5.992685630917549133e-02,-4.140712320804595947e-01,3.408491909503936768e-01,-4.830959811806678772e-02,-3.590225800871849060e-02,-8.204055577516555786e-02,-3.225738182663917542e-02,1.910994201898574829e-02,2.128053754568099976e-01,3.174380064010620117e-01,-4.944076538085937500e-01,-3.632374107837677002e-01
-2.655235528945922852e-01,-3.605524003505706787e-01,-9.588464163243770599e-03,3.173451423645019531e-01,1.398376971483230591e-01,2.192940562963485718e-01,3.055897355079650879e-01,3.448225557804107666e-01,-3.258139193058013916e-01,2.228772081434726715e-02,-3.365975916385650635e-01,-3.038182854652404785e-01,-5.094758272171020508e-01,-1.322299391031265259e-01,-2.300768643617630005e-01,-1.064482256770133972e-01,-4.467479884624481201e-01,-3.194749355316162109e-01,3.420409262180328369e-01,-2.365607917308807373e-01,-3.226825296878814697e-01,6.971386075019836426e-02,-2.778168618679046631e-01,1.061982959508895874e-01,-9.330686926841735840e-02,3.623481392860412598e-01,2.381495535373687744e-01,2.821970582008361816e-01,-3.390288949012756348e-01,-1.363417506217956543e-02,-1.572851538658142090e-01,-1.713442951440811157e-01,3.108423650264739990e-01,-1.101834028959274292e-01,-2.541925013065338135e-01,2.243897616863250732e-01,1.283573210239410400e-01,-4.483024775981903076e-01,-1.378919780254364014e-01,1.424202620983123779e-01,-8.041226863861083984e-02,2.735231518745422363e-01,-3.580643832683563232e-01,-1.873539239168167114e-01,3.376930058002471924e-01,1.944439858198165894e-01,5.865230038762092590e-02,-3.544849157333374023e-01,-5.217114090919494629e-01,4.361903071403503418e-01
-6.373194605112075806e-02,-1.065977364778518677e-01,-3.120398893952369690e-02,-8.448055945336818695e-03,-3.010606765747070312e-01,-1.804316341876983643e-01,2.035668790340423584e-01,9.029413014650344849e-02,-7.734646648168563843e-02,1.018650978803634644e-01,3.101373463869094849e-02,-6.134236976504325867e-02,3.307555615901947021e-01,-2.171352803707122803e-01,-1.244119256734848022e-01,-7.260236889123916626e-02,3.210779130458831787e-01,-5.987852439284324646e-02,-8.840368688106536865e-02,-6.861029863357543945e-01,3.802208602428436279e-01,-4.217067658901214600e-01,-1.124480068683624268e-01,4.822072386741638184e-02,3.831878304481506348e-03,-6.673985719680786133e-01,-2.945996634662151337e-02,1.743573546409606934e-01,-4.118510335683822632e-02,1.292316243052482605e-02,4.652550220489501953e-01,-1.937757730484008789e-01,2.285456359386444092e-01,-1.742863655090332031e-02,2.187331914901733398e-01,2.287452071905136108e-01,3.050868213176727295e-01,-4.031636118888854980e-01,-3.524439930915832520e-01,-4.270075634121894836e-02,-8.899522572755813599e-02,-3.905393183231353760e-01,-3.981312811374664307e-01,-2.864959463477134705e-02,-1.705475524067878723e-02,5.982986092567443848e-01,-2.634423673152923584e-01,-3.419126868247985840e-01,-2.030371576547622681e-01,-1.843639016151428223e-01
-8.876367658376693726e-02,1.901003718376159668e-02,-3.159725368022918701e-01,-2.859285473823547363e-01,-6.420914828777313232e-02,1.047973185777664185e-01,-1.105496138334274292e-01,-2.276914417743682861e-01,-3.656487446278333664e-03,-5.311551690101623535e-01,-5.070642232894897461e-01,1.438429504632949829e-01,-3.137937188148498535e-01,-2.673792839050292969e-01,-4.371851980686187744e-01,-4.898186326026916504e-01,-8.329415321350097656e-02,-5.065834149718284607e-02,3.073579967021942139e-01,-1.204867810010910034e-01,-2.968997694551944733e-02,-7.736532390117645264e-02,6.550429016351699829e-02,6.538607925176620483e-02,-2.273962795734405518e-01,-2.786224149167537689e-02,4.064913988113403320e-01,6.031309813261032104e-02,-4.910383839160203934e-03,2.652132809162139893e-01,3.237198293209075928e-02,-2.252735197544097900e-01,-1.939330995082855225e-01,4.240632355213165283e-01,-6.201581284403800964e-02,-2.961196191608905792e-02,-2.831486240029335022e-02,-2.548038661479949951e-01,3.054005838930606842e-02,4.836206510663032532e-02,5.076027512550354004e-01,-3.893301188945770264e-01,-3.965608179569244385e-01,1.477835886180400848e-02,4.033241420984268188e-02,-2.529496550559997559e-01,1.256683617830276489e-01,-5.175228789448738098e-02,-2.194055169820785522e-01,1.886172592639923096e-01
-5.722256377339363098e-02,2.547851204872131348e-01,4.660079255700111389e-02,1.659590154886245728e-01,2.592625021934509277e-01,8.082183450460433960e-02,9.989300370216369629e-02,-1.962571218609809875e-02,-6.073147058486938477e-02,-4.888412952423095703e-01,-1.775939464569091797e-01,-3.383888602256774902e-01,-5.573917031288146973e-01,-3.485257923603057861e-01,-1.472110599279403687e-01,-2.930705547332763672e-01,2.491811290383338928e-02,3.858574926853179932e-01,-4.156331121921539307e-01,-3.529202342033386230e-01,-1.949507929384708405e-02,-2.237335145473480225e-01,-2.819345295429229736e-01,1.537746489048004150e-01,-1.855369508266448975e-01,1.789826154708862305e-01,1.876480877399444580e-01,2.474077641963958740e-01,-1.251305453479290009e-02,4.502281248569488525e-01,-4.188370406627655029e-01,-4.822233915328979492e-01,9.284623712301254272e-02,3.989689052104949951e-01,-3.264183998107910156e-01,5.164862871170043945e-01,-1.885923929512500763e-02,-5.250151157379150391e-01,-2.284559607505798340e-01,-1.436370313167572021e-01,1.208118796348571777e-01,-3.267864286899566650e-01,1.010507866740226746e-01,-3.979685604572296143e-01,2.402836233377456665e-01,-3.209350397810339928e-04,-6.661407649517059326e-02,-4.483226239681243896e-01,-2.739956378936767578e-01,-5.104910731315612793e-01
-1.127753928303718567e-01,2.189882099628448486e-01,-3.560613095760345459e-01,-4.792807102203369141e-01,-1.503186486661434174e-02,7.552170427516102791e-04,-5.621467828750610352e-01,-4.166063070297241211e-01,-2.683784961700439453e-01,-2.578649222850799561e-01,1.596760153770446777e-01,-2.626791000366210938e-01,4.732911288738250732e-02,-2.838264405727386475e-01,9.829134494066238403e-02,-2.760039567947387695e-01,-8.820411562919616699e-02,-2.211239188909530640e-01,3.495444953441619873e-01,3.467014133930206299e-01,6.739470362663269043e-02,3.436507880687713623e-01,9.255600720643997192e-02,-1.312779933214187622e-01,7.976803928613662720e-02,1.920699924230575562e-01,-4.800502657890319824e-01,1.970791369676589966e-01,3.251995146274566650e-01,-5.341243743896484375e-02,-5.560960769653320312e-01,9.670674800872802734e-02,5.656205415725708008e-01,-3.652496635913848877e-01,-9.634114056825637817e-02,2.983275651931762695e-01,1.586100086569786072e-02,6.905171275138854980e-01,-2.802929878234863281e-01,-3.262877762317657471e-01,-7.306697964668273926e-01,-4.257966578006744385e-01,6.525492668151855469e-02,-1.672681123018264771e-01,-2.298182249069213867e-01,-3.057157099246978760e-01,-3.640953600406646729e-01,-2.135220319032669067e-01,-4.993179738521575928e-01,2.652110159397125244e-01
-4.135433733463287354e-01,-2.723552882671356201e-01,1.687477231025695801e-01,1.597170680761337280e-01,-4.051675498485565186e-01,-3.161634802818298340e-01,-2.208770066499710083e-01,-3.786978423595428467e-01,-2.760741114616394043e-01,-9.220583736896514893e-02,2.954053580760955811e-01,-3.757754564285278320e-01,-5.251039192080497742e-02,1.155940368771553040e-01,2.701877355575561523e-01,-4.299443960189819336e-02,2.553178668022155762e-01,6.950024962425231934e-01,-1.814494654536247253e-02,2.996601462364196777e-01,-4.129033386707305908e-01,-7.648890018463134766e-01,4.640389978885650635e-01,-1.070304661989212036e-01,3.094955980777740479e-01,-2.786455452442169189e-01,-5.312558412551879883e-01,1.437506731599569321e-02,1.300047338008880615e-01,4.258644580841064453e-01,2.506358325481414795e-01,1.360191106796264648e-01,1.811675727367401123e-01,-5.835964679718017578e-01,2.407519519329071045e-01,2.679678797721862793e-01,4.077693521976470947e-01,2.992465496063232422e-01,-2.882500290870666504e-01,1.022649109363555908e-01,1.949778571724891663e-02,1.549774855375289917e-01,-3.528751134872436523e-01,-8.677610754966735840e-02,1.648140549659729004e-01,3.572482243180274963e-02,3.635104894638061523e-01,-1.279068887233734131e-01,-3.756573796272277832e-02,-2.462757974863052368e-01
-1.266345828771591187e-01,-1.403067708015441895e-01,4.244680702686309814e-01,-1.917739659547805786e-01,-1.882332414388656616e-01,2.368295798078179359e-03,-1.192475631833076477e-01,3.055374920368194580e-01,-3.984713256359100342e-01,-1.981448233127593994e-01,-1.327290982007980347e-01,-2.790330350399017334e-01,1.594583988189697266e-01,-1.547800898551940918e-01,-1.698173731565475464e-01,-2.098710685968399048e-01,1.732588410377502441e-01,-1.548720151185989380e-01,-7.626003026962280273e-02,-5.592691153287887573e-02,2.103720754384994507e-01,3.053442835807800293e-01,-2.175426632165908813e-01,1.524813026189804077e-01,-1.705214232206344604e-01,-2.744721472263336182e-01,2.090715318918228149e-01,-4.495941475033760071e-02,1.196115612983703613e-01,3.293241932988166809e-02,-1.050685942173004150e-01,-2.475613802671432495e-01,2.039170265197753906e-01,7.041471451520919800e-02,-1.173056364059448242e-01,2.987155914306640625e-01,7.485677301883697510e-02,2.286318838596343994e-01,-1.706689298152923584e-01,2.621807157993316650e-02,-1.538617908954620361e-01,-3.059498667716979980e-01,-1.156389899551868439e-02,-4.969120025634765625e-01,3.299569785594940186e-01,1.354086846113204956e-01,-8.887361735105514526e-02,1.981531977653503418e-01,-2.708564698696136475e-01,-2.194040119647979736e-01
2.000928372144699097e-01,-2.082606703042984009e-01,1.944518685340881348e-01,8.318306505680084229e-02,-2.610849142074584961e-01,1.037797331809997559e-01,-2.240781635046005249e-01,3.311043381690979004e-01,-2.335279807448387146e-02,-1.137765031307935715e-02,-2.522012591361999512e-01,-1.174357160925865173e-01,-1.048534363508224487e-01,-1.556147485971450806e-01,-8.531664498150348663e-03,-4.531563818454742432e-02,-6.765171419829130173e-04,-1.917515844106674194e-01,4.400791134685277939e-03,-8.657491952180862427e-02,9.319027513265609741e-02,6.796605139970779419e-02,-5.222176909446716309e-01,-3.580009192228317261e-02,-4.268222302198410034e-02,-2.194791436195373535e-01,1.294169723987579346e-01,2.597831189632415771e-01,-5.075690746307373047e-01,1.424031406641006470e-01,5.263370275497436523e-02,-1.003775000572204590e-01,-1.857697069644927979e-01,1.413280516862869263e-01,3.380648791790008545e-01,-3.611648380756378174e-01,-3.462043106555938721e-01,-2.610766291618347168e-01,1.131100356578826904e-01,-4.365964531898498535e-01,-1.044463515281677246e-01,1.911305338144302368e-01,2.138612419366836548e-01,-4.308220446109771729e-01,1.826807856559753418e-02,-1.265434622764587402e-01,1.713302582502365112e-01,5.322431325912475586e-01,-2.551552057266235352e-01,-3.061658143997192383e-01
9.212012588977813721e-02,1.475459486246109009e-01,-2.621281147003173828e-01,3.233579695224761963e-01,-3.053764998912811279e-01,-6.452584639191627502e-03,1.298155337572097778e-01,-2.410458475351333618e-01,2.499295175075531006e-01,1.571661382913589478e-01,-2.956669926643371582e-01,4.379916563630104065e-02,1.126977726817131042e-01,3.114092350006103516e-02,-5.088347196578979492e-01,-3.338615596294403076e-01,-1.615582555532455444e-01,2.945921719074249268e-01,-4.388206005096435547e-01,-6.537584215402603149e-02,-1.513813436031341553e-01,4.987356066703796387e-01,-1.741786599159240723e-01,1.367203891277313232e-01,2.075662016868591309e-01,-2.073489874601364136e-02,-2.739647030830383301e-01,-1.172828599810600281e-01,-2.621080875396728516e-01,-1.329911649227142334e-01,-3.246619403362274170e-01,-4.019789993762969971e-01,7.772266864776611328e-02,-3.061857223510742188e-01,-1.256055235862731934e-01,3.038925230503082275e-01,-6.368678808212280273e-01,6.830296665430068970e-02,2.410106658935546875e-01,-2.332922816276550293e-01,-1.347480714321136475e-01,5.308147668838500977e-01,3.845102339982986450e-02,2.106259763240814209e-01,-9.275636821985244751e-02,-5.068691372871398926e-01,-4.174735248088836670e-01,7.193669676780700684e-01,1.414676010608673096e-01,-5.493928194046020508e-01
-1.344641149044036865e-01,2.286699563264846802e-01,-2.714538387954235077e-02,6.924328953027725220e-02,-3.108029663562774658e-01,-2.382635325193405151e-01,-3.754261732101440430e-01,-1.900643855333328247e-01,1.531546413898468018e-01,-3.324518203735351562e-01,6.474073976278305054e-02,6.066273152828216553e-02,-5.841354280710220337e-02,3.344421684741973877e-01,3.504387140274047852e-01,-1.665406972169876099e-01,-2.699247300624847412e-01,2.763279676437377930e-01,1.261275559663772583e-01,1.500753462314605713e-01,6.089254841208457947e-02,2.259996980428695679e-01,-6.318894028663635254e-01,1.515063941478729248e-01,2.319844514131546021e-01,-3.755578398704528809e-02,-2.454251348972320557e-01,1.343964338302612305e-01,3.123426437377929688e-01,-1.515422612428665161e-01,1.050847992300987244e-01,5.948663502931594849e-02,-1.058753281831741333e-01,-9.290159679949283600e-03,5.468983948230743408e-02,-1.096231639385223389e-01,-2.670648321509361267e-02,2.906359434127807617e-01,1.312478333711624146e-01,-3.593484461307525635e-01,6.383387744426727295e-02,3.605236411094665527e-01,-1.708183065056800842e-02,-1.427640914916992188e-01,-8.791393041610717773e-02,-2.183544188737869263e-01,-1.531257927417755127e-01,3.925394117832183838e-01,1.042372286319732666e-01,-1.006027981638908386e-01
-6.799501180648803711e-02,3.994835540652275085e-02,8.081147074699401855e-02,-3.156939521431922913e-02,9.257005155086517334e-02,-5.436180904507637024e-02,-1.347579210996627808e-01,4.366806447505950928e-01,-4.018605947494506836e-01,-3.776434957981109619e-01,-5.751173943281173706e-02,-9.903731755912303925e-03,-1.329976767301559448e-01,-4.227355495095252991e-02,-1.296646445989608765e-01,1.513375937938690186e-01,1.772893816232681274e-01,1.332829613238573074e-02,-6.340797990560531616e-02,-3.736286759376525879e-01,1.768813431262969971e-01,-3.326531052589416504e-01,2.069115191698074341e-01,-1.605971604585647583e-01,7.713492959737777710e-02,-2.781275212764739990e-01,-7.008929550647735596e-02,-1.864866763353347778e-01,-7.055778801441192627e-02,-2.415336966514587402e-01,6.980190426111221313e-02,-4.388828873634338379e-01,1.473264247179031372e-01,-3.189682364463806152e-01,-5.244208872318267822e-02,2.199261188507080078e-01,-1.767093241214752197e-01,1.373717933893203735e-01,2.584538459777832031e-01,1.010804921388626099e-01,-3.171892166137695312e-01,-1.396089345216751099e-01,1.348155438899993896e-01,-5.493951439857482910e-01,1.846535056829452515e-01,-3.513467013835906982e-01,-2.367983609437942505e-01,1.297554820775985718e-01,-2.546760737895965576e-01,-1.722683608531951904e-01
-3.931560218334197998e-01,1.935228854417800903e-01,-2.296156883239746094e-01,3.391709551215171814e-02,-4.527228176593780518e-01,-4.431858062744140625e-01,-5.749324560165405273e-01,5.332871526479721069e-02,-5.648363009095191956e-02,-1.923326868563890457e-03,-2.751665115356445312e-01,-3.122646547853946686e-02,4.160351678729057312e-02,-6.459600478410720825e-02,2.894524335861206055e-01,-2.180967032909393311e-01,-3.368611633777618408e-02,-2.359528094530105591e-01,3.154050707817077637e-01,1.158001944422721863e-01,-1.543486714363098145e-01,6.616889685392379761e-02,-4.687515497207641602e-01,-3.428976535797119141e-01,-7.973133772611618042e-02,-2.510293722152709961e-01,-4.826748967170715332e-01,-1.230925694108009338e-01,-3.825374413281679153e-03,-3.044696152210235596e-01,-8.742187172174453735e-02,2.556743919849395752e-01,-3.981394469738006592e-01,1.010043025016784668e-01,1.206623483449220657e-02,3.431954234838485718e-02,-5.019521713256835938e-01,6.452900171279907227e-02,1.434280872344970703e-01,-3.226447999477386475e-01,3.044142425060272217e-01,2.401417642831802368e-01,2.983731627464294434e-01,-1.832150816917419434e-01,-5.328986793756484985e-03,-1.989684551954269409e-01,3.602660596370697021e-01,-6.123162060976028442e-02,1.469397693872451782e-01,-1.884545087814331055e-01
-3.527140021324157715e-01,-2.171617448329925537e-01,3.137545287609100342e-01,-1.260301321744918823e-01,-2.980325222015380859e-01,9.808716177940368652e-02,-2.601010352373123169e-02,-5.481358245015144348e-02,9.509783238172531128e-02,2.298166900873184204e-01,-2.175705581903457642e-01,2.771687926724553108e-03,2.919299304485321045e-01,6.979356706142425537e-02,-4.358068108558654785e-01,5.607490539550781250e-01,-2.135711908340454102e-01,-1.233018115162849426e-01,-4.371128380298614502e-01,-6.390313059091567993e-02,-1.825544238090515137e-02,2.073593810200691223e-02,1.245273649692535400e-02,-1.155583560466766357e-01,1.543959528207778931e-01,-8.183412998914718628e-02,3.057949542999267578e-01,2.430595308542251587e-01,-2.168660014867782593e-01,2.052122056484222412e-01,-5.278085544705390930e-02,2.077033519744873047e-01,5.048027634620666504e-02,3.005001842975616455e-01,-9.406594187021255493e-02,1.978785395622253418e-01,2.631717026233673096e-01,1.947667598724365234e-01,2.464084327220916748e-01,-3.650004565715789795e-01,7.016766816377639771e-02,-4.443290233612060547e-01,1.286596059799194336e-01,-7.180666923522949219e-02,-1.791551709175109863e-01,4.906242713332176208e-02,-5.337179899215698242e-01,-2.947425246238708496e-01,-1.651677489280700684e-01,-1.621169596910476685e-01
1.161923483014106750e-01,-3.148167207837104797e-02,-2.164332717657089233e-01,3.465393483638763428e-01,-5.701352357864379883e-01,1.803475171327590942e-01,-6.552911549806594849e-02,5.006518959999084473e-02,9.080357849597930908e-02,4.707496240735054016e-02,-1.581202074885368347e-02,-3.844076395034790039e-02,3.488861024379730225e-02,-7.637136429548263550e-02,-7.224552631378173828e-01,1.319542080163955688e-01,2.269312292337417603e-01,-6.604062765836715698e-02,-3.466009795665740967e-01,2.421436645090579987e-02,6.739463657140731812e-02,2.834106087684631348e-01,-5.610371828079223633e-01,-1.022753790020942688e-01,-4.895462989807128906e-01,-1.205496937036514282e-01,-1.752940192818641663e-02,2.092931419610977173e-02,-2.157578766345977783e-01,4.596623405814170837e-02,-2.447312474250793457e-01,9.560274332761764526e-02,1.110929921269416809e-01,-1.274470239877700806e-01,-2.929873764514923096e-01,-2.338166236877441406e-01,2.700495719909667969e-01,3.107022345066070557e-01,1.713956743478775024e-01,-2.201019972562789917e-01,-3.264814317226409912e-01,4.088132977485656738e-01,1.404109150171279907e-01,2.366757690906524658e-01,-1.671478599309921265e-01,-5.735936108976602554e-03,-4.004304111003875732e-01,2.265208661556243896e-01,-3.578743338584899902e-01,-3.677026331424713135e-01
8.432890474796295166e-02,-1.270809024572372437e-01,-9.328731894493103027e-02,-1.732381284236907959e-01,-4.709132909774780273e-01,-3.154904544353485107e-01,2.649579942226409912e-01,-4.188788309693336487e-02,-2.141396105289459229e-01,2.929037213325500488e-01,3.238988518714904785e-01,1.829295158386230469e-01,6.110287904739379883e-01,-2.287760190665721893e-02,-8.880045264959335327e-02,3.659568130970001221e-01,-9.656911715865135193e-03,-3.683683574199676514e-01,3.095328249037265778e-02,-5.681341886520385742e-01,-5.635526180267333984e-01,-1.932199150323867798e-01,3.647928237915039062e-01,-4.231252670288085938e-01,-1.084503903985023499e-01,8.836209774017333984e-02,3.812682628631591797e-01,3.673475980758666992e-02,8.743224292993545532e-02,1.027425099164247513e-02,3.811835497617721558e-02,1.903175264596939087e-01,-2.198488637804985046e-02,1.394766103476285934e-02,1.409994214773178101e-01,-3.933328017592430115e-02,2.449132800102233887e-01,-1.262917965650558472e-01,1.103160977363586426e-01,9.872404485940933228e-02,-1.423109620809555054e-01,2.223523855209350586e-01,-6.269036531448364258e-01,5.635070800781250000e-01,1.398440897464752197e-01,1.252937465906143188e-01,1.837689615786075592e-02,1.955053657293319702e-01,-4.274663031101226807e-01,-8.853521943092346191e-02
-1.359732151031494141e-01,-1.664888411760330200e-01,-9.652756899595260620e-02,-6.175651680678129196e-03,1.416297703981399536e-01,2.986695170402526855e-01,1.503865569829940796e-01,2.238523960113525391e-01,1.138723790645599365e-01,-8.692187070846557617e-02,-4.270840287208557129e-01,5.796197801828384399e-02,-3.320969268679618835e-02,-1.926303952932357788e-01,-7.903720438480377197e-02,3.021514415740966797e-01,3.436544165015220642e-02,2.290679365396499634e-01,-1.098091676831245422e-01,-9.164923429489135742e-02,-3.327480554580688477e-01,-1.505621224641799927e-01,-2.391617596149444580e-01,1.965755224227905273e-01,-3.606309592723846436e-01,-1.989218443632125854e-01,-1.088987942785024643e-02,-2.867294661700725555e-02,5.172762274742126465e-02,1.345102339982986450e-01,-3.370336294174194336e-01,-5.566183105111122131e-02,-7.098440080881118774e-02,9.502869099378585815e-02,-5.439367960207164288e-04,1.026031468063592911e-02,-9.172666072845458984e-02,-2.193417847156524658e-01,-2.127719819545745850e-01,4.302082359790802002e-01,-1.527148038148880005e-01,-2.300158590078353882e-01,-2.170260995626449585e-01,3.186907470226287842e-01,6.942056119441986084e-02,1.914498805999755859e-01,-1.782565563917160034e-01,-2.158677279949188232e-01,-2.033025026321411133e-01,1.070052236318588257e-01
-2.199850231409072876e-01,-4.054159522056579590e-01,-7.410359382629394531e-02,-3.085889816284179688e-01,-1.558562517166137695e-01,-1.492234319448471069e-01,-2.349738925695419312e-01,6.340686231851577759e-03,-2.486207187175750732e-01,3.190472722053527832e-01,-5.189955234527587891e-01,3.199308216571807861e-01,3.989961743354797363e-01,-3.887175023555755615e-01,-2.331487089395523071e-01,4.171414673328399658e-01,-1.676570624113082886e-01,-2.856619060039520264e-01,-1.506672650575637817e-01,1.786505617201328278e-02,-5.147534608840942383e-02,-3.940555825829505920e-02,1.878784596920013428e-01,5.982489883899688721e-02,-2.936997115612030029e-01,1.767765134572982788e-01,3.148775100708007812e-01,-7.442805767059326172e-01,3.049995936453342438e-02,-4.977167844772338867e-01,2.975953556597232819e-02,-4.801401197910308838e-01,-2.520927190780639648e-01,-3.343474566936492920e-01,1.772213876247406006e-01,-1.866402626037597656e-01,-2.260442078113555908e-02,-2.235228419303894043e-01,-4.191005602478981018e-02,2.070738822221755981e-01,-1.620001345872879028e-02,-2.189984172582626343e-02,3.596622943878173828e-01,3.917475938796997070e-01,-5.661622881889343262e-01,-4.009998142719268799e-01,1.101681441068649292e-01,2.421286702156066895e-02,-1.581399738788604736e-01,1.585973650217056274e-01
-6.091601401567459106e-02,5.131840109825134277e-01,1.174592226743698120e-01,2.794201672077178955e-01,-8.551229536533355713e-02,-4.325313270092010498e-01,-5.377209186553955078e-01,-2.258750051259994507e-02,1.599214412271976471e-02,-1.637732088565826416e-01,-3.810991346836090088e-01,2.375247143208980560e-02,-1.359969675540924072e-01,2.198384404182434082e-01,3.670470714569091797e-01,-5.342959165573120117e-01,-2.323689609766006470e-01,-2.293808907270431519e-01,-3.324995934963226318e-01,-1.379758864641189575e-01,-2.256605774164199829e-01,9.043586254119873047e-02,-1.091175302863121033e-01,1.307899411767721176e-02,1.779108196496963501e-01,1.997276995098218322e-04,-1.389449238777160645e-01,-4.308582097291946411e-02,1.958922147750854492e-01,-1.647282987833023071e-01,1.203362941741943359e-01,-1.047103404998779297e-01,-1.368597894906997681e-02,4.874184262007474899e-03,-2.586423456668853760e-01,-1.021111160516738892e-01,-1.436170190572738647e-01,1.069526150822639465e-01,8.981565386056900024e-02,-1.916572302579879761e-01,2.163763158023357391e-02,4.266649782657623291e-01,1.306842919439077377e-02,2.069729566574096680e-01,-4.460071027278900146e-01,9.389872103929519653e-02,4.782126471400260925e-02,1.306703239679336548e-01,2.219221591949462891e-01,4.497599229216575623e-02
-6.479229778051376343e-02,-8.667344599962234497e-02,2.236396968364715576e-01,-2.317986786365509033e-01,-3.157141804695129395e-02,-2.311382591724395752e-01,2.252153679728507996e-02,4.279158711433410645e-01,-1.829285174608230591e-01,-1.386307459324598312e-02,7.078182417899370193e-03,-2.507584691047668457e-01,-1.782812476158142090e-01,-2.469127774238586426e-01,5.324400961399078369e-02,3.033591806888580322e-02,-2.991102933883666992e-01,-1.391917467117309570e-02,1.351797133684158325e-01,-1.780431866645812988e-01,8.320054411888122559e-02,-8.465402573347091675e-02,-2.712205350399017334e-01,1.495693922042846680e-01,-4.318063557147979736e-01,-1.769407242536544800e-01,-2.825068235397338867e-01,5.428145825862884521e-02,-3.096431195735931396e-01,-1.773619800806045532e-01,2.683706209063529968e-02,3.423115313053131104e-01,-7.961560785770416260e-02,-2.286460548639297485e-01,-9.528862684965133667e-02,-3.741012215614318848e-01,-7.627175003290176392e-02,1.558008939027786255e-01,-1.211604773998260498e-01,-2.132284790277481079e-01,-1.780148409307003021e-02,1.951540261507034302e-01,5.780679360032081604e-02,6.695793569087982178e-02,2.733594775199890137e-01,-3.531843125820159912e-01,-1.360471993684768677e-01,-5.664331838488578796e-02,2.575803399085998535e-01,9.210289455950260162e-03
-4.769924283027648926e-02,2.823662161827087402e-01,4.284809902310371399e-02,2.469315230846405029e-01,-8.108844049274921417e-04,4.156752675771713257e-02,1.601530760526657104e-01,-3.425523936748504639e-01,-4.314916580915451050e-02,-3.725087940692901611e-01,3.020209968090057373e-01,-7.206515967845916748e-02,-5.159815549850463867e-01,4.254368245601654053e-01,-1.342354714870452881e-02,-3.219471871852874756e-01,-6.573647260665893555e-01,2.254583686590194702e-01,2.740474641323089600e-01,2.190610393881797791e-02,6.634514778852462769e-02,-4.029455780982971191e-01,2.937125563621520996e-01,3.211431205272674561e-01,2.714700400829315186e-01,5.027626156806945801e-01,-3.218981623649597168e-01,-2.114991471171379089e-02,-5.829786881804466248e-02,-1.163141895085573196e-02,-4.412920475006103516e-01,1.669173091650009155e-01,-1.426469907164573669e-02,1.047173738479614258e-01,-7.706583291292190552e-02,2.485816776752471924e-01,3.179425001144409180e-01,-4.330241978168487549e-01,-2.477604709565639496e-02,-1.598495841026306152e-01,1.365300565958023071e-01,3.613461181521415710e-02,6.766159087419509888e-02,-2.394693791866302490e-01,4.080674946308135986e-01,-3.750815689563751221e-01,1.375176012516021729e-01,-1.661131531000137329e-01,-3.577885925769805908e-01,-1.452615112066268921e-01
3.209607303142547607e-01,-3.608047068119049072e-01,-2.262394428253173828e-01,2.322544008493423462e-01,2.379672676324844360e-01,-2.915259897708892822e-01,-4.655976295471191406e-01,-2.344208061695098877e-01,9.112196415662765503e-02,-3.505788743495941162e-01,4.770647287368774414e-01,-1.951613426208496094e-01,2.164015322923660278e-01,2.751950323581695557e-01,4.819719195365905762e-01,-4.610757231712341309e-01,1.819517761468887329e-01,-1.245112568140029907e-01,1.555434167385101318e-01,-1.002972126007080078e-01,9.101830422878265381e-02,-1.302414834499359131e-01,-3.461573123931884766e-01,2.306867837905883789e-01,2.777691781520843506e-01,5.837682262063026428e-02,-9.866402298212051392e-02,1.222922727465629578e-01,5.028722882270812988e-01,-2.938742637634277344e-01,1.206717267632484436e-01,3.659169375896453857e-02,-2.259833067655563354e-01,-7.578257471323013306e-02,3.689497411251068115e-01,-3.919702768325805664e-02,2.772811651229858398e-01,3.726002275943756104e-01,3.219570592045783997e-02,-1.519600450992584229e-01,-2.567730545997619629e-01,1.952285617589950562e-01,-4.632596373558044434e-01,2.327622920274734497e-01,8.254416286945343018e-02,2.903487682342529297e-01,-3.834060952067375183e-02,2.440126426517963409e-02,5.095247030258178711e-01,1.824109852313995361e-01
7.941964268684387207e-02,9.748917073011398315e-02,1.976511180400848389e-01,-9.485249966382980347e-02,-2.124595493078231812e-01,1.858579367399215698e-01,5.622714757919311523e-02,3.351931869983673096e-01,2.727796733379364014e-01,4.597456753253936768e-02,-2.370119653642177582e-02,-6.581265479326248169e-02,1.638354212045669556e-01,-2.463693767786026001e-01,-5.080624818801879883e-01,-1.985464245080947876e-03,-2.525449693202972412e-01,-3.843900263309478760e-01,-3.113377988338470459e-01,2.465390563011169434e-01,2.427077293395996094e-01,-3.230521455407142639e-02,8.551526069641113281e-02,-1.404149234294891357e-01,-4.093384146690368652e-01,-2.980472445487976074e-01,3.728713095188140869e-02,1.849600821733474731e-01,-4.565965533256530762e-01,5.640589445829391479e-02,-1.395295374095439911e-02,9.121238440275192261e-02,3.168762326240539551e-01,-2.466926574707031250e-01,4.062865972518920898e-01,-1.251765936613082886e-01,-3.905668258666992188e-01,1.556141376495361328e-01,2.324635088443756104e-01,-1.659963876008987427e-01,-2.068300545215606689e-01,1.931600719690322876e-01,1.500594615936279297e-01,-3.260609209537506104e-01,-2.843565121293067932e-02,1.522255390882492065e-01,7.277016341686248779e-02,9.561334736645221710e-04,5.909458920359611511e-02,-2.672464847564697266e-01
5.450271442532539368e-02,-1.364228725433349609e-01,1.409856788814067841e-02,-2.274759560823440552e-01,2.297900617122650146e-01,-2.197319567203521729e-01,-2.072958275675773621e-02,-1.531869918107986450e-01,-2.736127078533172607e-01,-3.443232476711273193e-01,4.098272323608398438e-01,3.252154290676116943e-01,-1.922680586576461792e-01,4.834113419055938721e-01,3.417015969753265381e-01,-2.194101810455322266e-01,1.248570233583450317e-01,-1.413618773221969604e-01,-1.640163809061050415e-01,-4.191401302814483643e-01,8.266166597604751587e-02,-1.400479208678007126e-02,2.289727926254272461e-01,-1.751137077808380127e-01,1.759501695632934570e-01,1.228905245661735535e-01,6.265196949243545532e-02,-1.744146049022674561e-01,6.381773948669433594e-02,9.247487783432006836e-02,5.118638649582862854e-02,-1.936341524124145508e-01,2.745209932327270508e-01,-1.252425014972686768e-01,-2.539439126849174500e-02,-5.570924654603004456e-02,1.065864041447639465e-01,-1.506906598806381226e-01,3.212155401706695557e-02,1.394553184509277344e-01,-6.022129952907562256e-02,-4.273348748683929443e-01,1.147211790084838867e-01,1.608485877513885498e-01,5.530032515525817871e-02,1.392961144447326660e-01,-3.080358207225799561e-01,2.652912959456443787e-02,1.844936758279800415e-01,-5.350197106599807739e-02
-1.440344452857971191e-01,-2.189105451107025146e-01,1.046685054898262024e-01,-1.434499323368072510e-01,-5.509207397699356079e-02,1.851805299520492554e-01,4.142749607563018799e-01,1.970845311880111694e-01,3.423886373639106750e-02,-3.666530549526214600e-01,-5.248781442642211914e-01,-4.896568953990936279e-01,2.087305784225463867e-01,1.063329726457595825e-01,-5.583697557449340820e-02,3.550352752208709717e-01,-7.176026236265897751e-03,-2.746158838272094727e-01,-1.279567182064056396e-01,4.090061783790588379e-02,-5.883560180664062500e-01,2.798427012749016285e-04,-2.074053138494491577e-02,4.001096785068511963e-01,-1.537084728479385376e-01,-6.427457928657531738e-02,-7.654315233230590820e-01,-2.349271625280380249e-01,-8.731618523597717285e-03,-3.397408425807952881e-01,-3.070983588695526123e-01,-1.168457674793899059e-03,-4.665843248367309570e-01,-1.628089994192123413e-01,1.717269718647003174e-01,-4.906672239303588867e-02,-5.053187012672424316e-01,-4.794675707817077637e-01,-3.951243758201599121e-01,3.111119866371154785e-01,-5.438897013664245605e-01,2.627665400505065918e-01,-5.650113224983215332e-01,4.514558613300323486e-01,-1.234546378254890442e-01,1.888406723737716675e-01,-6.901100277900695801e-01,-1.714773029088973999e-01,-2.045426964759826660e-01,2.840948700904846191e-01
-1.106361597776412964e-01,8.284677565097808838e-02,-2.946480810642242432e-01,-1.708253622055053711e-01,-8.413271978497505188e-03,3.129014074802398682e-01,-2.478251159191131592e-01,3.243908882141113281e-01,-2.769936323165893555e-01,-2.787682712078094482e-01,6.421189755201339722e-02,3.248942792415618896e-01,-6.207177042961120605e-01,-6.528738886117935181e-02,6.085649877786636353e-02,7.126069813966751099e-02,-3.755353093147277832e-01,-4.523979723453521729e-01,9.260292351245880127e-02,2.586224116384983063e-02,-2.009877562522888184e-01,-5.629418492317199707e-01,2.261451780796051025e-01,3.177521824836730957e-01,-6.051648259162902832e-01,6.624863743782043457e-01,3.610356152057647705e-01,-6.246327236294746399e-02,2.714871466159820557e-01,-9.395202398300170898e-01,-2.705579102039337158e-01,-2.504207193851470947e-01,-1.350557655096054077e-01,-4.615171551704406738e-01,-1.405128184705972672e-02,8.957573212683200836e-03,-1.990546584129333496e-01,4.397880136966705322e-01,1.754956543445587158e-01,1.049804612994194031e-01,3.148669600486755371e-01,-1.553926318883895874e-01,-7.379483431577682495e-02,1.088154241442680359e-01,1.499852538108825684e-01,5.203323066234588623e-02,-1.522656716406345367e-02,-2.582898736000061035e-01,3.339560031890869141e-01,6.262971758842468262e-01
1.915582567453384399e-01,8.588755130767822266e-02,6.053697317838668823e-02,2.438168972730636597e-01,2.775584813207387924e-03,-3.481754064559936523e-01,3.288994133472442627e-01,-4.667704701423645020e-01,2.092928439378738403e-02,-1.029581874608993530e-01,3.119426965713500977e-01,-7.188419997692108154e-02,-1.613905094563961029e-02,2.887282073497772217e-01,-2.922946512699127197e-01,-9.979487955570220947e-02,-7.260547280311584473e-01,4.391530156135559082e-01,-1.466790884733200073e-01,-1.358657479286193848e-01,-3.251878321170806885e-01,-1.392583549022674561e-01,8.213601261377334595e-02,1.490785628557205200e-01,-1.969045773148536682e-02,-2.904095053672790527e-01,-6.751706004142761230e-01,-1.090739592909812927e-01,-4.772949814796447754e-01,1.139356046915054321e-01,-2.464722245931625366e-01,-3.384922742843627930e-01,3.782449662685394287e-01,2.245464324951171875e-01,7.239365577697753906e-02,-3.014209568500518799e-01,8.529802784323692322e-03,-2.562187314033508301e-01,3.167422953993082047e-03,1.412065029144287109e-01,5.906560271978378296e-02,3.413871526718139648e-01,3.070479817688465118e-02,-6.551834344863891602e-01,3.774199262261390686e-02,-7.736257910728454590e-01,7.424575835466384888e-02,3.562091290950775146e-01,-4.308048784732818604e-01,-5.106453299522399902e-01
-4.248702228069305420e-01,-7.734645009040832520e-01,5.363598093390464783e-02,1.920944303274154663e-01,1.181545201689004898e-02,-1.642624498344957829e-03,-3.540558740496635437e-02,1.337368935346603394e-01,5.551263689994812012e-03,3.268678858876228333e-02,-5.141372084617614746e-01,-8.631894737482070923e-02,-5.730978026986122131e-02,-8.415951579809188843e-02,1.947457194328308105e-01,8.879683166742324829e-02,-3.649883270263671875e-01,7.906121760606765747e-02,1.271072179079055786e-01,-1.407608985900878906e-01,9.238780289888381958e-02,1.178723201155662537e-01,-9.404960274696350098e-02,-3.653936088085174561e-01,-2.726378142833709717e-01,-4.612561315298080444e-02,5.088849067687988281e-01,5.376981571316719055e-02,5.123843904584646225e-03,6.310223042964935303e-02,7.308051455765962601e-03,1.970957219600677490e-01,-2.076707929372787476e-01,-1.713940948247909546e-01,1.540017724037170410e-01,-9.058356285095214844e-02,-2.798447012901306152e-01,-2.474467605352401733e-01,-1.561300922185182571e-02,-4.423492252826690674e-01,3.221094980835914612e-02,1.236413344740867615e-01,5.440069362521171570e-02,-2.295519411563873291e-02,3.185766637325286865e-01,1.896239072084426880e-01,1.804832965135574341e-01,-1.173714473843574524e-01,1.271412968635559082e-01,1.336635947227478027e-01
-1.323744356632232666e-01,-5.203982591629028320e-01,3.780342340469360352e-01,-1.571647226810455322e-01,-5.580285191535949707e-01,-1.277528554201126099e-01,-1.819690018892288208e-01,-1.228505447506904602e-01,-1.953349113464355469e-01,-5.225381627678871155e-02,-2.432864531874656677e-02,1.807071864604949951e-01,9.891474246978759766e-02,1.182148829102516174e-01,1.026274356991052628e-02,1.514918953180313110e-01,1.572392433881759644e-01,-2.220542132854461670e-01,-3.474502265453338623e-01,1.443571597337722778e-01,3.279445767402648926e-01,5.424423143267631531e-02,-1.545227016322314739e-03,-1.704999059438705444e-01,-1.130395084619522095e-01,-2.327761948108673096e-01,1.317522823810577393e-01,3.538205921649932861e-01,-1.799583621323108673e-02,9.771577268838882446e-02,-1.565151661634445190e-01,-3.907701373100280762e-02,3.559038043022155762e-01,-1.184724196791648865e-01,-2.744859158992767334e-01,9.994755685329437256e-02,2.185254171490669250e-02,6.994245648384094238e-01,3.559052944183349609e-01,2.866068482398986816e-01,-2.170224189758300781e-01,-1.728002727031707764e-01,3.543609008193016052e-02,-2.481560781598091125e-02,1.883706152439117432e-01,2.833049595355987549e-01,2.948789484798908234e-02,-1.935130655765533447e-01,-4.970776140689849854e-01,-3.991407454013824463e-01
-2.461257725954055786e-01,4.451357126235961914e-01,-1.896948218345642090e-01,2.355236411094665527e-01,-2.201012372970581055e-01,-9.109850227832794189e-02,2.395747900009155273e-01,5.416357889771461487e-04,-1.728039979934692383e-01,1.041301935911178589e-01,-4.262046515941619873e-01,2.422298192977905273e-01,-6.936906278133392334e-02,-3.435346484184265137e-02,5.407931208610534668e-01,-1.785072684288024902e-01,1.529210507869720459e-01,-2.572271525859832764e-01,6.284922361373901367e-02,9.887259453535079956e-02,-3.054867982864379883e-01,1.960719525814056396e-01,1.187593415379524231e-01,1.542621199041604996e-02,4.739986732602119446e-02,2.266225665807723999e-01,-7.198999077081680298e-02,1.146393120288848877e-01,1.401071399450302124e-01,-3.113752901554107666e-01,1.922940313816070557e-01,1.765376888215541840e-02,-5.219674706459045410e-01,-1.714877933263778687e-01,3.321385011076927185e-02,4.594831168651580811e-02,-9.810521453619003296e-02,-2.359178811311721802e-01,1.247472986578941345e-01,-3.087086081504821777e-01,-2.690167427062988281e-01,1.461592167615890503e-01,2.959145307540893555e-01,5.932845547795295715e-02,-1.392087191343307495e-01,1.051488146185874939e-01,3.222796022891998291e-01,2.272107452154159546e-01,3.098830580711364746e-01,1.388341337442398071e-01
-3.534629568457603455e-02,-3.621497657150030136e-03,4.356660693883895874e-02,-1.538753956556320190e-01,2.194621860980987549e-01,2.860477566719055176e-01,4.088662564754486084e-02,2.545439600944519043e-01,-1.410078704357147217e-01,-6.779119372367858887e-02,1.514674723148345947e-01,-3.565071523189544678e-01,-1.518795490264892578e-01,7.879398763179779053e-02,4.570029079914093018e-01,-3.017366826534271240e-01,-2.673514932394027710e-02,-6.578198075294494629e-02,-4.061700403690338135e-01,-2.346582114696502686e-01,-1.259761601686477661e-01,-2.339967936277389526e-01,-2.315649539232254028e-01,8.356752991676330566e-02,-5.279151797294616699e-01,1.120727360248565674e-01,2.708725035190582275e-01,2.466889172792434692e-01,-9.919994510710239410e-03,2.521789073944091797e-01,2.152815163135528564e-01,-8.951085060834884644e-02,1.294077932834625244e-01,-4.367744624614715576e-01,8.718497306108474731e-02,5.112019777297973633e-01,-1.812542080879211426e-01,2.700166106224060059e-01,-4.531313478946685791e-01,-1.534883026033639908e-02,-1.263442635536193848e-01,-4.036974310874938965e-01,-1.800494492053985596e-01,-7.613465189933776855e-02,8.913168311119079590e-02,1.620758771896362305e-01,-3.153302669525146484e-01,-3.416176140308380127e-01,-2.567396759986877441e-01,-4.750962555408477783e-01
-2.769750058650970459e-01,-3.249528110027313232e-01,-1.813418716192245483e-01,-2.789073623716831207e-02,1.774389892816543579e-01,5.588249117136001587e-02,-2.423890084028244019e-01,-1.787865906953811646e-01,1.494310498237609863e-01,9.869623184204101562e-02,-1.858671195805072784e-02,-2.447839528322219849e-01,-1.071017161011695862e-01,-7.423242181539535522e-02,2.431262582540512085e-01,1.124060526490211487e-01,-3.149780035018920898e-01,-2.666207849979400635e-01,-3.590192794799804688e-01,-2.135093212127685547e-01,-5.470292270183563232e-02,-1.966485232114791870e-01,-1.273696571588516235e-01,-2.197516560554504395e-01,-3.963211476802825928e-01,1.884509623050689697e-01,9.323772788047790527e-02,-9.797281771898269653e-02,2.254152745008468628e-01,1.043616309762001038e-01,-2.942414581775665283e-01,-1.660539954900741577e-01,-2.630221247673034668e-01,1.800266802310943604e-01,-4.857028722763061523e-01,-3.218011558055877686e-01,-3.479027152061462402e-01,-4.601593911647796631e-01,-4.396783933043479919e-02,-4.411026835441589355e-02,-2.306989133358001709e-01,-6.757577508687973022e-02,1.573085784912109375e-01,2.004488706588745117e-01,-1.503669917583465576e-01,5.853517353534698486e-02,6.917090713977813721e-02,4.036729335784912109e-01,-1.622807234525680542e-01,1.061363443732261658e-01
-2.612645328044891357e-01,1.245688125491142273e-01,4.075502157211303711e-01,-2.849934101104736328e-01,-4.525185823440551758e-01,-4.162051081657409668e-01,-8.069954067468643188e-02,3.192754983901977539e-01,-2.777734398841857910e-01,-6.558673977851867676e-01,5.762644857168197632e-02,-1.157123222947120667e-02,-5.584423989057540894e-02,-7.793015241622924805e-02,-2.930966913700103760e-01,7.896788418292999268e-02,4.275361001491546631e-01,-2.916601002216339111e-01,-2.247260659933090210e-01,-2.852559685707092285e-01,3.283978402614593506e-01,4.999986588954925537e-01,1.045224443078041077e-01,-1.835920512676239014e-01,-2.932057976722717285e-01,-1.949534565210342407e-01,-1.110015437006950378e-02,-4.163546562194824219e-01,-6.199310421943664551e-01,-3.940160572528839111e-02,-1.203683167695999146e-01,-1.012317314743995667e-01,3.808712121099233627e-03,-4.219876229763031006e-02,-1.301351487636566162e-01,2.535872720181941986e-02,-4.803718328475952148e-01,3.085362017154693604e-01,7.535943388938903809e-02,1.033340449794195592e-04,1.467632949352264404e-01,1.746617704629898071e-01,-9.258364886045455933e-02,-3.238120079040527344e-01,3.746753633022308350e-01,-3.655395805835723877e-01,-7.235288619995117188e-02,2.475932836532592773e-01,-2.402897626161575317e-01,-2.008559107780456543e-01
