-2.207402735948562622e-01,1.551484167575836182e-01,3.862834274768829346e-01,-4.076737165451049805e-01,4.102734327316284180e-01,1.182523206807672977e-03,-1.296021491289138794e-01,-4.161983132362365723e-01,-2.389598786830902100e-01,8.410415798425674438e-02,7.023333758115768433e-02,4.304004013538360596e-01,-4.200255572795867920e-01,-1.902810931205749512e-01,-6.405325531959533691e-01,5.989078283309936523e-01,2.778895795345306396e-01,-2.090987861156463623e-01,-3.463649749755859375e-01,-5.535028576850891113e-01,5.408665537834167480e-02,-5.543047189712524414e-02,5.205239653587341309e-01,-1.064016893506050110e-01,7.628447562456130981e-02,1.101084798574447632e-01,1.474083513021469116e-01,-4.844512343406677246e-01,-1.493352353572845459e-01,1.035674735903739929e-01,-3.002856671810150146e-01,-1.030173674225807190e-01,-6.727784872055053711e-01,-6.793605536222457886e-02,-4.144546985626220703e-01,-3.917099535465240479e-01,-3.410320729017257690e-02,-2.526775598526000977e-01,-2.646255493164062500e-01,1.063714399933815002e-01,2.519681584089994431e-03,2.659787535667419434e-01,-3.197705447673797607e-01,-7.392937690019607544e-02,2.655716240406036377e-01,-2.686359882354736328e-01,9.944757446646690369e-03,-4.981948137283325195e-01,4.377564489841461182e-01,-3.721151128411293030e-02
4.829667881131172180e-02,2.108634263277053833e-01,-9.648908674716949463e-02,2.324308156967163086e-01,-1.335834860801696777e-01,-8.022335171699523926e-02,-2.433539330959320068e-01,2.994090616703033447e-01,2.235758602619171143e-01,-9.095358103513717651e-02,1.731389947235584259e-02,2.438407689332962036e-01,2.958820760250091553e-01,2.606395184993743896e-01,2.126502841711044312e-01,2.183518186211585999e-02,3.898466750979423523e-02,-2.396347224712371826e-01,3.217446804046630859e-01,2.015210688114166260e-01,2.387910783290863037e-01,1.826076954603195190e-02,-1.144069507718086243e-01,-2.846632301807403564e-01,1.588933616876602173e-01,1.388479173183441162e-01,-3.117170035839080811e-01,-1.527073383331298828e-01,2.766870558261871338e-01,-9.200292825698852539e-02,-1.144422888755798340e-01,1.727875024080276489e-01,3.449146151542663574e-01,-1.005265489220619202e-01,-1.927543282508850098e-01,-4.435461387038230896e-02,-5.035957694053649902e-02,1.126414258033037186e-02,-1.929937154054641724e-01,9.092519059777259827e-03,2.798643894493579865e-03,4.343947470188140869e-01,3.796040266752243042e-02,-2.929213047027587891e-01,1.220427006483078003e-01,-3.499589860439300537e-01,-9.941113740205764771e-02,4.691732525825500488e-01,2.456601709127426147e-01,-2.160285711288452148e-01
-1.613142192363739014e-01,-2.886442840099334717e-01,1.830558031797409058e-01,-4.357983767986297607e-01,3.657242059707641602e-01,4.750248976051807404e-03,2.726398408412933350e-01,-2.355415374040603638e-01,-1.482895165681838989e-01,2.334393188357353210e-02,1.567504853010177612e-01,2.413708344101905823e-02,4.667931497097015381e-01,-5.420777797698974609e-01,-5.018441081047058105e-01,4.324652627110481262e-02,2.001599222421646118e-02,5.458277463912963867e-01,1.678760908544063568e-02,-5.504714846611022949e-01,6.512197665870189667e-03,-2.596925795078277588e-01,1.447797417640686035e-01,-2.255180776119232178e-01,7.220879942178726196e-02,-2.765742540359497070e-01,-2.449494898319244385e-01,-3.867295086383819580e-01,6.306444108486175537e-02,1.493045389652252197e-01,-2.358961384743452072e-03,-1.477059870958328247e-01,-3.964027464389801025e-01,2.946405708789825439e-01,-1.544924229383468628e-01,8.228233456611633301e-02,2.184667736291885376e-01,-3.308425843715667725e-01,-1.447263807058334351e-01,2.383524775505065918e-01,7.475902885198593140e-02,7.972135208547115326e-03,-2.171129919588565826e-02,-4.922934770584106445e-01,-4.761091470718383789e-01,-3.267705142498016357e-01,-1.979114264249801636e-01,-2.478241622447967529e-01,-1.258723624050617218e-02,1.547146439552307129e-01
2.224057316780090332e-01,1.529941856861114502e-01,-2.424647212028503418e-01,-8.733845502138137817e-02,-3.995947912335395813e-02,1.417456865310668945e-01,2.092675305902957916e-02,7.742580026388168335e-02,4.971025511622428894e-02,-8.089287579059600830e-02,-3.462710678577423096e-01,3.263982757925987244e-02,3.480396270751953125e-01,1.412007063627243042e-01,-1.470838487148284912e-02,-3.150738477706909180e-01,-5.710878595709800720e-02,-1.849275529384613037e-01,1.494118869304656982e-01,6.941824220120906830e-03,-1.005431264638900757e-01,-2.255335599184036255e-01,-2.041418254375457764e-01,1.192914173007011414e-01,-7.807711604982614517e-03,9.765081107616424561e-02,3.872036188840866089e-02,-3.186971843242645264e-01,2.640158310532569885e-02,-2.685501873493194580e-01,2.380855381488800049e-01,-2.772841602563858032e-02,1.657992787659168243e-02,-4.654319286346435547e-01,-1.220824941992759705e-01,-3.166150152683258057e-01,3.660075068473815918e-01,-3.926164507865905762e-01,-3.121159374713897705e-01,2.116674780845642090e-01,1.111456677317619324e-01,-2.364698201417922974e-01,-1.369710564613342285e-01,-3.001033365726470947e-01,2.351349145174026489e-01,-1.581454575061798096e-01,-4.079048335552215576e-01,1.989720761775970459e-01,-1.195908784866333008e-01,1.435708701610565186e-01
-4.055120348930358887e-01,1.601029634475708008e-01,-4.963349997997283936e-01,-5.876138433814048767e-02,-1.562104076147079468e-01,-3.927167057991027832e-01,-2.356190383434295654e-01,-1.913202181458473206e-02,7.652663439512252808e-02,1.041449233889579773e-01,2.338033318519592285e-01,-2.705439925193786621e-01,-3.544368445873260498e-01,-3.786092102527618408e-01,-5.838098376989364624e-02,4.140537083148956299e-01,-7.476802170276641846e-02,1.042378321290016174e-01,1.786199361085891724e-01,5.076507851481437683e-02,3.399663865566253662e-01,-2.067053169012069702e-01,-3.677375614643096924e-01,-2.057412266731262207e-01,2.867269702255725861e-02,-6.050053611397743225e-02,3.282551839947700500e-02,-3.611427247524261475e-01,-2.082921266555786133e-01,-2.131212651729583740e-01,6.599085405468940735e-03,-2.525970935821533203e-01,3.117857575416564941e-01,6.244796141982078552e-02,-4.203401505947113037e-02,-3.841360807418823242e-01,7.755457609891891479e-02,1.291023343801498413e-01,-4.695570468902587891e-02,-1.969574391841888428e-01,-4.220274090766906738e-01,3.172335922718048096e-01,-3.334221243858337402e-01,-4.730553030967712402e-01,-2.133175730705261230e-02,-4.555365443229675293e-02,1.320747099816799164e-02,-2.173523455858230591e-01,9.650764614343643188e-02,5.247921124100685120e-02
-2.764839529991149902e-01,2.068514823913574219e-01,-2.464509606361389160e-01,2.634636163711547852e-01,2.397959679365158081e-01,-1.613558679819107056e-01,-1.240056455135345459e-01,3.013366162776947021e-01,7.453553378582000732e-02,-9.855599142611026764e-03,-1.192145273089408875e-01,-2.837937474250793457e-01,4.867917597293853760e-01,3.851778106763958931e-03,1.328400373458862305e-01,-2.926487624645233154e-01,-3.378649055957794189e-01,-3.080626726150512695e-01,-1.283435821533203125e-01,3.082039356231689453e-01,-4.506804943084716797e-01,-4.454062879085540771e-01,2.705466151237487793e-01,6.874300539493560791e-02,3.274611830711364746e-01,1.921623349189758301e-01,-8.882239460945129395e-03,2.162889093160629272e-01,2.504805624485015869e-01,-2.003784775733947754e-01,-9.603852778673171997e-02,-3.573547303676605225e-02,1.476938277482986450e-01,-1.343446224927902222e-01,-2.058693468570709229e-01,8.866546303033828735e-02,-3.543819487094879150e-01,1.161913480609655380e-02,-1.168963164091110229e-01,8.688776940107345581e-02,1.744292974472045898e-01,-4.620862603187561035e-01,-3.352475464344024658e-01,-1.709756106138229370e-01,-3.118517398834228516e-01,3.084191679954528809e-01,-1.666017323732376099e-01,1.569291353225708008e-01,-3.750522434711456299e-01,1.693545728921890259e-01
-5.411081016063690186e-03,-2.091260850429534912e-01,3.063370883464813232e-01,-2.074829488992691040e-01,5.039176344871520996e-01,-5.073693394660949707e-01,1.364676207304000854e-01,-2.306201756000518799e-01,1.416426301002502441e-01,-5.821622014045715332e-01,-4.089705646038055420e-02,3.857495263218879700e-02,-2.228670865297317505e-01,-1.473099738359451294e-01,-2.878505885601043701e-01,3.151789605617523193e-01,1.173864305019378662e-01,1.464132368564605713e-01,2.263290733098983765e-01,3.170039877295494080e-02,-2.236144803464412689e-02,-3.995051085948944092e-01,2.197519391775131226e-01,-9.901195019483566284e-02,1.047952696681022644e-01,-1.410084664821624756e-01,7.978235371410846710e-03,4.584532976150512695e-02,-2.229818850755691528e-01,-4.240809753537178040e-02,-3.359502181410789490e-02,2.174169570207595825e-02,-2.289882302284240723e-01,-1.456974074244499207e-02,-5.121626332402229309e-02,2.608476579189300537e-01,1.406244188547134399e-01,-2.995127737522125244e-01,-1.101464256644248962e-01,-2.393609285354614258e-02,2.427117377519607544e-01,2.050905972719192505e-01,-5.309841036796569824e-01,-5.551835149526596069e-02,-1.237131357192993164e-01,-1.643908917903900146e-01,-2.168323844671249390e-01,-1.654293201863765717e-02,2.532930970191955566e-01,-4.955789819359779358e-02
2.159203961491584778e-02,-1.939759850502014160e-01,-7.068574428558349609e-02,5.006865411996841431e-02,3.078956604003906250e-01,-2.421363741159439087e-01,-4.220904782414436340e-02,1.252768654376268387e-02,-5.915000662207603455e-02,-8.233726024627685547e-02,3.128066956996917725e-01,3.437876999378204346e-01,1.417894512414932251e-01,-7.192618399858474731e-02,-3.507410585880279541e-01,-1.740356087684631348e-01,-1.199210360646247864e-01,-2.269317805767059326e-01,-2.422187030315399170e-01,2.609386444091796875e-01,-3.351223468780517578e-01,-2.666788101196289062e-01,2.303251624107360840e-01,2.315092235803604126e-01,-4.795510321855545044e-02,-7.784968614578247070e-02,-2.239340543746948242e-01,1.580549925565719604e-01,-3.327965736389160156e-01,4.555778205394744873e-01,-4.774774610996246338e-02,1.821255534887313843e-01,-1.074362918734550476e-01,4.794265329837799072e-02,-2.841307818889617920e-01,-1.689416766166687012e-01,1.125281974673271179e-01,-2.797629535198211670e-01,-5.222733318805694580e-02,-1.018965151160955429e-02,7.252331078052520752e-02,-1.139644160866737366e-01,-5.053349211812019348e-02,-2.549743354320526123e-01,2.425264865159988403e-01,-2.374101802706718445e-02,1.534829586744308472e-01,2.965846061706542969e-01,-4.842730704694986343e-03,-1.080129742622375488e-01
-6.465074419975280762e-02,7.678169012069702148e-02,-1.065606549382209778e-01,-5.356754735112190247e-02,-1.606908044777810574e-04,-2.306798994541168213e-01,-7.961817085742950439e-02,1.319510675966739655e-02,6.684760749340057373e-02,-1.858420372009277344e-01,2.226933687925338745e-01,-1.011227350682020187e-02,-2.632619738578796387e-01,-6.972155719995498657e-02,-1.230960711836814880e-01,-1.809127330780029297e-01,-2.464293390512466431e-01,2.095417231321334839e-01,4.073943197727203369e-01,-2.273847460746765137e-01,1.313062459230422974e-01,3.434829041361808777e-02,-2.367638349533081055e-01,-2.645601928234100342e-01,2.679608464241027832e-01,-1.425630748271942139e-01,3.563566803932189941e-01,-2.564751803874969482e-01,-4.181902483105659485e-02,-4.443571269512176514e-01,-1.729349344968795776e-01,-2.359913662075996399e-03,-8.560670539736747742e-03,-3.124034106731414795e-01,-1.474083065986633301e-01,-1.131109520792961121e-01,1.359474956989288330e-01,2.186780422925949097e-01,-5.100706219673156738e-02,1.361166536808013916e-01,1.165066100656986237e-02,2.408431768417358398e-01,4.570888280868530273e-01,2.627234160900115967e-01,-1.721933037042617798e-01,3.035596311092376709e-01,4.473585188388824463e-01,-1.464346349239349365e-01,-2.814766764640808105e-01,-4.688249528408050537e-02
-1.738115996122360229e-01,-1.533345878124237061e-01,1.732015162706375122e-01,-5.699666738510131836e-01,-1.971943825483322144e-01,7.426474988460540771e-02,-1.693399101495742798e-01,-1.711807698011398315e-01,-1.400310099124908447e-01,8.002667874097824097e-02,2.390845566987991333e-01,2.008206546306610107e-01,5.070101022720336914e-01,-5.004636049270629883e-01,1.959007531404495239e-01,-1.067114770412445068e-01,-7.958505302667617798e-02,-2.309721894562244415e-02,2.251516580581665039e-01,-4.011049866676330566e-01,-1.092500016093254089e-01,2.689830064773559570e-01,1.422293037176132202e-01,-7.079057861119508743e-03,9.078568965196609497e-02,-2.318023331463336945e-02,-3.925049006938934326e-01,-3.178259432315826416e-01,1.754532009363174438e-01,-1.840620040893554688e-01,8.817642182111740112e-02,5.198188498616218567e-02,-3.861513733863830566e-01,6.384960561990737915e-02,1.526400595903396606e-01,-2.514855861663818359e-01,2.269416749477386475e-01,6.753937806934118271e-03,-3.651828765869140625e-01,1.685672849416732788e-01,-3.203992247581481934e-01,-1.808593720197677612e-01,1.792663037776947021e-01,-4.214988648891448975e-01,-1.766126900911331177e-01,-2.772783041000366211e-01,-3.508748114109039307e-01,1.297089457511901855e-01,-2.089367657899856567e-01,3.332367837429046631e-01
-5.248615518212318420e-03,-3.960167989134788513e-02,1.222297549247741699e-01,-2.207037210464477539e-01,2.787061333656311035e-01,-1.672336608171463013e-01,-3.069702722132205963e-02,-2.001218199729919434e-01,1.222727298736572266e-01,-2.324813604354858398e-01,3.922861218452453613e-01,1.418306827545166016e-01,2.867444753646850586e-01,-1.370684057474136353e-01,-3.613191843032836914e-01,1.586553007364273071e-01,-3.724508360028266907e-02,-1.394566744565963745e-01,7.877662032842636108e-02,-3.219471573829650879e-01,1.481916755437850952e-01,-2.653856575489044189e-01,2.204326242208480835e-01,-2.144479192793369293e-02,9.678559750318527222e-02,-1.096659153699874878e-01,1.598709076642990112e-01,-5.550891533493995667e-02,-8.397769182920455933e-03,3.314692378044128418e-01,-2.985069751739501953e-01,-1.833391143009066582e-03,1.093827858567237854e-01,-6.906319409608840942e-02,-2.521154284477233887e-01,1.377220749855041504e-01,-2.580153346061706543e-01,-2.858997881412506104e-01,1.962058842182159424e-01,-3.081247210502624512e-01,4.428166151046752930e-02,-1.229183077812194824e-01,2.264712303876876831e-01,-1.084251925349235535e-01,8.790054917335510254e-02,9.010190516710281372e-02,3.328348696231842041e-02,1.806926876306533813e-01,3.317772746086120605e-01,-2.151075601577758789e-01
6.301502138376235962e-02,-6.263126619160175323e-03,6.210606545209884644e-02,-1.996683478355407715e-01,-6.628930568695068359e-02,1.079768463969230652e-01,-9.483256936073303223e-02,-1.961247809231281281e-02,-1.036899238824844360e-01,-3.577297627925872803e-01,-1.918771266937255859e-01,-2.006425559520721436e-01,1.351016163825988770e-01,1.392553299665451050e-01,5.122828111052513123e-02,-3.257647901773452759e-02,-1.089330948889255524e-02,-2.474674284458160400e-01,1.300622522830963135e-01,-2.699189819395542145e-03,1.816446334123611450e-02,-1.651955544948577881e-01,1.372167915105819702e-01,-1.595259085297584534e-02,-9.038376808166503906e-02,-1.108979433774948120e-01,2.669446766376495361e-01,1.184672117233276367e-01,4.171715304255485535e-02,5.113861560821533203e-01,1.787453442811965942e-01,2.760278880596160889e-01,2.130193561315536499e-01,1.236465647816658020e-01,-6.809469312429428101e-02,1.880316734313964844e-01,-1.977272629737854004e-01,-2.173353135585784912e-01,-2.543348670005798340e-01,-1.167414933443069458e-01,-2.842344045639038086e-01,-7.887227833271026611e-02,-1.339094191789627075e-01,2.416215240955352783e-01,-1.533417552709579468e-01,3.203338012099266052e-02,2.469251751899719238e-01,6.577586382627487183e-02,4.505242034792900085e-02,6.839853525161743164e-02
3.511006012558937073e-02,4.105745349079370499e-03,-1.691041290760040283e-01,4.678046703338623047e-02,5.507558584213256836e-02,-1.790353655815124512e-01,-1.666229218244552612e-01,-1.400364339351654053e-01,3.808393776416778564e-01,-1.605496257543563843e-01,1.504253000020980835e-01,-1.858862340450286865e-01,-1.283909287303686142e-02,-1.593810319900512695e-02,-8.172599226236343384e-02,2.652688026428222656e-01,-3.245003521442413330e-01,5.591329932212829590e-01,9.473169595003128052e-02,1.842041313648223877e-02,2.806154489517211914e-01,3.965464532375335693e-01,-2.831681370735168457e-01,-6.581027805805206299e-02,8.121405541896820068e-02,-1.416143327951431274e-01,-2.678421735763549805e-01,-2.780425846576690674e-01,6.911820173263549805e-02,1.867629438638687134e-01,2.087967991828918457e-01,-9.222322702407836914e-02,-9.026429057121276855e-02,2.407990545034408569e-01,4.429059624671936035e-01,1.555355042219161987e-01,2.367657423019409180e-01,-2.433816492557525635e-01,1.718938201665878296e-01,-2.937763929367065430e-01,-2.705042958259582520e-01,2.215225547552108765e-01,4.277709722518920898e-01,-4.407632648944854736e-01,2.393258064985275269e-01,-3.316572308540344238e-01,1.628617942333221436e-01,1.935345381498336792e-01,-8.079923689365386963e-02,-1.020580064505338669e-03
1.822184920310974121e-01,1.619616895914077759e-01,-2.003097683191299438e-01,-1.107164472341537476e-01,2.345701456069946289e-01,3.696854114532470703e-01,2.578021585941314697e-02,2.215302549302577972e-02,-1.759385764598846436e-01,2.319172173738479614e-01,-6.438723951578140259e-02,-2.559369504451751709e-01,-5.652905628085136414e-02,-1.217456832528114319e-01,-6.475260853767395020e-02,6.074654459953308105e-01,2.459971457719802856e-01,-3.513852059841156006e-01,3.407419919967651367e-01,-5.198004841804504395e-02,-1.233360394835472107e-01,-1.360600292682647705e-01,-1.492642611265182495e-01,-2.615291774272918701e-01,-1.290351897478103638e-01,-1.439985483884811401e-01,-2.829224169254302979e-01,-8.441876620054244995e-03,1.041827052831649780e-01,-2.519195973873138428e-01,9.184258431196212769e-02,-1.914810836315155029e-01,3.752857446670532227e-01,-2.772070169448852539e-01,1.364611536264419556e-01,-4.414960276335477829e-03,-1.883325427770614624e-01,-2.722190506756305695e-02,-7.205605506896972656e-02,3.057194054126739502e-01,2.080507725477218628e-01,-2.761717736721038818e-01,-6.048725452274084091e-03,2.048094272613525391e-01,-2.390798926353454590e-01,2.731862068176269531e-01,-7.628278732299804688e-01,-5.344992130994796753e-02,2.260637581348419189e-01,9.661273658275604248e-02
-5.355824157595634460e-02,-3.312512040138244629e-01,2.596054971218109131e-01,-2.859444916248321533e-01,6.408876180648803711e-01,-1.147297397255897522e-02,-2.531919479370117188e-01,-2.664066553115844727e-01,-1.860710829496383667e-01,-2.760196924209594727e-01,1.195265203714370728e-01,1.924362927675247192e-01,-1.692069619894027710e-01,-5.266974121332168579e-02,-4.629138112068176270e-01,1.404162198305130005e-01,4.828098416328430176e-02,-3.382402956485748291e-01,1.522129122167825699e-02,-3.023054599761962891e-01,1.015067622065544128e-01,-4.959336817264556885e-01,3.401562869548797607e-01,1.004189625382423401e-01,-1.811617314815521240e-01,4.540929943323135376e-02,2.373507767915725708e-01,9.574200212955474854e-02,6.584839522838592529e-02,1.940587759017944336e-01,7.135012745857238770e-02,-8.468732982873916626e-02,1.092294380068778992e-01,1.712726801633834839e-01,-2.981982529163360596e-01,1.147888526320457458e-01,-2.784520685672760010e-01,1.421998888254165649e-01,1.532156914472579956e-01,-1.924492716789245605e-01,3.068998642265796661e-02,-1.553873345255851746e-02,9.431242197751998901e-02,7.775530219078063965e-02,-3.517799973487854004e-01,4.223079979419708252e-02,5.572491884231567383e-02,-2.303030937910079956e-01,-9.377442300319671631e-02,2.586981654167175293e-01
3.436079323291778564e-01,1.264180839061737061e-01,2.341969907283782959e-01,2.254684716463088989e-01,3.460070192813873291e-01,3.768087923526763916e-02,1.881832331418991089e-01,5.457396432757377625e-02,-2.546620070934295654e-01,-1.378071606159210205e-01,9.446711093187332153e-02,2.083907574415206909e-01,-3.225807547569274902e-01,2.657946944236755371e-02,2.178353965282440186e-01,-1.978615820407867432e-01,-1.007096841931343079e-01,-4.065859615802764893e-01,-1.883575916290283203e-01,1.541068702936172485e-01,9.193440899252891541e-03,-5.416129231452941895e-01,-1.075390726327896118e-01,2.956637740135192871e-01,-3.705676198005676270e-01,1.746046543121337891e-01,7.140077352523803711e-01,3.945795297622680664e-01,-3.573401868343353271e-01,6.321345567703247070e-01,-3.720491230487823486e-01,1.146137639880180359e-01,-8.189602196216583252e-02,-9.570016711950302124e-02,-3.958075344562530518e-01,4.790629446506500244e-01,-6.026029586791992188e-02,1.787742674350738525e-01,3.388547599315643311e-01,-6.860107183456420898e-01,-1.211723983287811279e-01,1.256312727928161621e-01,3.790769353508949280e-02,3.970813453197479248e-01,5.023997649550437927e-02,-2.469210475683212280e-01,2.166288048028945923e-01,-1.444147080183029175e-01,1.373287588357925415e-01,-1.825506687164306641e-01
9.790281206369400024e-02,-2.612845897674560547e-01,-1.954205632209777832e-01,1.714204549789428711e-01,-1.483154296875000000e-01,-2.379361391067504883e-01,-3.057667613029479980e-01,9.929588437080383301e-02,-1.466407626867294312e-01,-3.605197668075561523e-01,-6.121969595551490784e-02,-3.703404217958450317e-02,-3.467145264148712158e-01,1.293341722339391708e-02,-1.109112203121185303e-01,-3.151629269123077393e-01,-1.613042354583740234e-01,1.449349224567413330e-01,1.674310714006423950e-01,-4.217655062675476074e-01,2.316628098487854004e-01,-1.052922308444976807e-01,2.518156468868255615e-01,-1.530991196632385254e-01,-1.239473521709442139e-01,-3.600510060787200928e-01,-4.333510994911193848e-01,1.227119266986846924e-01,-1.514616310596466064e-01,4.170498251914978027e-01,5.463494658470153809e-01,1.996568217873573303e-02,4.344240576028823853e-02,1.436885446310043335e-01,-3.029631972312927246e-01,-3.915298730134963989e-02,-9.260286390781402588e-02,-2.857733964920043945e-01,-3.914339244365692139e-01,1.296932622790336609e-02,-7.690888643264770508e-02,-5.777092650532722473e-02,-1.223511993885040283e-01,-1.453928649425506592e-01,2.958128154277801514e-01,4.784387350082397461e-01,-2.886528670787811279e-01,-4.560677707195281982e-02,-1.860441267490386963e-02,-4.328607395291328430e-02
9.480492770671844482e-02,-3.300933837890625000e-01,1.665554046630859375e-01,-2.787604331970214844e-01,1.669824123382568359e-01,5.555876344442367554e-02,1.261366182006895542e-03,6.763716787099838257e-02,9.674653410911560059e-02,1.773669868707656860e-01,2.002203017473220825e-01,6.628175824880599976e-02,-2.365121245384216309e-01,-2.746161222457885742e-01,3.213720023632049561e-01,-3.553714752197265625e-01,-2.519043684005737305e-01,2.433755844831466675e-01,2.420329898595809937e-01,-3.831828758120536804e-02,5.360944196581840515e-02,3.913384974002838135e-01,6.587744504213333130e-02,-7.679931074380874634e-02,-3.149647265672683716e-02,-4.083227217197418213e-01,-3.587972372770309448e-02,9.791198372840881348e-02,-7.355549931526184082e-02,-3.119342029094696045e-01,-4.273753240704536438e-02,3.293477892875671387e-01,-1.416138708591461182e-01,2.781786620616912842e-01,3.009772896766662598e-01,-1.202036887407302856e-01,1.922280788421630859e-01,1.207417696714401245e-01,-3.862616419792175293e-01,-2.337945848703384399e-01,3.387274146080017090e-01,-7.688459008932113647e-02,2.861220240592956543e-01,-2.708912491798400879e-01,-2.018631100654602051e-01,-9.848292917013168335e-02,5.989627540111541748e-02,7.070575654506683350e-02,4.214781150221824646e-02,9.983323514461517334e-03
-1.868836432695388794e-01,-6.461416184902191162e-02,-2.319195419549942017e-01,-1.930059045553207397e-01,-2.686244845390319824e-01,-2.722817659378051758e-01,1.934484392404556274e-01,-4.641340672969818115e-01,-2.436916977167129517e-01,-2.196429669857025146e-01,-9.916555136442184448e-02,-1.244989782571792603e-01,-2.897348403930664062e-01,-1.095380336046218872e-01,-6.105511784553527832e-01,3.578064739704132080e-01,1.309900283813476562e-01,3.537157475948333740e-01,2.339754998683929443e-01,-2.549394667148590088e-01,2.672546207904815674e-01,-4.773334786295890808e-02,-3.124113678932189941e-01,-4.675039052963256836e-01,-5.237502977252006531e-03,2.282522618770599365e-01,3.427976369857788086e-01,-3.004056960344314575e-02,-9.980748593807220459e-02,4.418972730636596680e-01,-2.929118871688842773e-01,2.510038316249847412e-01,-1.392544806003570557e-01,-1.292259985348209739e-04,3.457900136709213257e-02,-1.010639369487762451e-01,1.298764795064926147e-01,-2.331246435642242432e-01,-3.231045007705688477e-01,-6.531476974487304688e-02,-3.264297544956207275e-01,-2.471612691879272461e-01,-6.093943491578102112e-03,1.200544014573097229e-01,-1.562190204858779907e-01,-4.247523248195648193e-01,3.357349634170532227e-01,-3.011574149131774902e-01,5.640403628349304199e-01,3.361115232110023499e-02
-1.741141080856323242e-02,-5.076363682746887207e-01,1.491658538579940796e-01,-2.484822273254394531e-01,2.440199404954910278e-01,-3.776108622550964355e-01,1.746473908424377441e-01,-2.042248249053955078e-01,1.964346319437026978e-01,1.088317576795816422e-02,3.188816085457801819e-02,3.571262955665588379e-02,-2.749049663543701172e-01,-5.218729376792907715e-02,-5.156443119049072266e-01,1.196312755346298218e-01,3.002023138105869293e-02,1.398395150899887085e-01,-2.690779864788055420e-01,1.968403011560440063e-01,3.122813403606414795e-01,-1.894066184759140015e-01,8.151867985725402832e-02,3.922666609287261963e-02,2.435374110937118530e-01,-1.675602942705154419e-01,2.643612325191497803e-01,1.473207920789718628e-01,2.310742884874343872e-01,1.686908751726150513e-01,1.203859150409698486e-01,9.770687669515609741e-02,-4.495336115360260010e-01,2.806955575942993164e-01,-3.513321280479431152e-01,-3.372711688280105591e-02,1.524858921766281128e-01,-1.239947453141212463e-01,-1.048847287893295288e-01,1.832917481660842896e-01,-2.891753241419792175e-02,3.673454225063323975e-01,1.118112355470657349e-01,-3.677772730588912964e-02,7.383978366851806641e-02,-2.625103294849395752e-01,-1.409466415643692017e-01,1.043817326426506042e-01,6.012972071766853333e-02,2.264371216297149658e-01
2.399885356426239014e-01,-2.782305181026458740e-01,4.282597079873085022e-02,-5.246954783797264099e-02,-4.796253889799118042e-02,9.045821428298950195e-02,6.848040223121643066e-02,-5.174261704087257385e-02,-7.731486111879348755e-04,-1.130548790097236633e-01,3.350653648376464844e-01,-4.762912541627883911e-02,3.001178205013275146e-01,1.756979376077651978e-01,-2.824445366859436035e-01,-3.165969550609588623e-01,-1.359293330460786819e-02,-3.188998401165008545e-01,8.761655539274215698e-03,4.208765029907226562e-01,3.382240831851959229e-01,-2.973417043685913086e-01,7.275108993053436279e-02,1.182030364871025085e-01,1.425303667783737183e-01,-1.592155396938323975e-01,-1.859019398689270020e-01,1.045949384570121765e-01,1.043026670813560486e-01,-1.686858478933572769e-03,1.816327124834060669e-01,9.904386848211288452e-02,3.849829733371734619e-01,-5.161513574421405792e-03,-4.595520347356796265e-02,9.431715309619903564e-02,2.189099043607711792e-01,5.467804893851280212e-02,2.238045185804367065e-01,2.103803008794784546e-01,2.605714797973632812e-01,8.755318820476531982e-02,3.641584813594818115e-01,2.012820392847061157e-01,-6.578199565410614014e-02,-2.260570973157882690e-01,-2.348297983407974243e-01,3.515263497829437256e-01,-1.168603426776826382e-03,-2.018108367919921875e-01
-1.137233227491378784e-01,3.333818912506103516e-01,-3.955504000186920166e-01,8.894775807857513428e-02,5.264199897646903992e-02,-6.277773529291152954e-02,-1.661818772554397583e-01,2.627443075180053711e-01,6.461300700902938843e-02,6.568723917007446289e-02,-2.023013383150100708e-01,-1.121657714247703552e-01,4.149771630764007568e-01,-3.052692115306854248e-02,9.923038072884082794e-03,-1.283705085515975952e-01,-5.661364272236824036e-02,-5.836600065231323242e-01,-1.288931220769882202e-01,8.304527960717678070e-03,-1.636172384023666382e-01,-2.355737239122390747e-01,-3.610172271728515625e-01,1.481474190950393677e-01,2.484257891774177551e-02,-3.311189711093902588e-01,7.712049037218093872e-02,1.202321350574493408e-01,-2.198035418987274170e-01,2.519508600234985352e-01,7.866617292165756226e-02,9.705294668674468994e-02,9.311041980981826782e-02,2.516746148467063904e-02,-3.323036804795265198e-02,-1.539786532521247864e-02,3.885524868965148926e-01,-2.146539092063903809e-01,-2.895896881818771362e-02,-1.459119617938995361e-01,-2.252356261014938354e-01,-1.806416362524032593e-01,-2.780319750308990479e-01,-3.662686944007873535e-01,2.489386945962905884e-01,3.404513895511627197e-01,-1.107367053627967834e-01,6.383667886257171631e-02,3.177857398986816406e-01,4.228550195693969727e-01
-1.583828218281269073e-02,1.633805185556411743e-01,2.441915124654769897e-01,-1.625700145959854126e-01,8.845117092132568359e-01,-2.632881104946136475e-01,3.087149262428283691e-01,-1.368108987808227539e-01,-1.233998388051986694e-01,-6.739922165870666504e-01,-2.522251904010772705e-01,-2.369982888922095299e-03,-1.744683533906936646e-01,-1.298825442790985107e-01,-1.428628861904144287e-01,-8.280156552791595459e-02,-2.586715817451477051e-01,-2.052798271179199219e-01,-3.348167240619659424e-01,-1.119518578052520752e-01,3.866669163107872009e-02,-3.137654662132263184e-01,1.132201328873634338e-01,2.714330554008483887e-01,6.518984586000442505e-02,-1.740914732217788696e-01,-7.451879978179931641e-02,6.900829076766967773e-02,1.069413125514984131e-01,2.752828299999237061e-01,-2.162085324525833130e-01,-1.376627832651138306e-01,3.546133637428283691e-01,-7.715423405170440674e-02,-4.527832865715026855e-01,1.137544661760330200e-01,-3.849164545536041260e-01,-2.857866287231445312e-01,-1.956063956022262573e-01,-8.104898333549499512e-01,3.465593755245208740e-01,1.658933609724044800e-01,-2.406536936759948730e-01,3.282268345355987549e-01,1.258412450551986694e-01,2.351381182670593262e-01,-3.365554288029670715e-02,-2.358850687742233276e-01,4.829131662845611572e-01,-1.085674241185188293e-01
3.700422942638397217e-01,1.018334180116653442e-01,-1.370959877967834473e-01,5.404326319694519043e-02,1.889411956071853638e-01,2.425575703382492065e-01,1.093602851033210754e-01,-2.205277681350708008e-01,3.085370361804962158e-01,-2.680451571941375732e-01,-3.735083639621734619e-01,-1.192233785986900330e-01,2.728557586669921875e-01,-2.824553847312927246e-01,-1.855954974889755249e-01,-1.663347706198692322e-02,-1.078620851039886475e-01,1.299641877412796021e-01,1.617526402696967125e-03,1.148718744516372681e-01,-1.319180428981781006e-01,-4.020336866378784180e-01,1.493400186300277710e-01,1.497775614261627197e-01,4.276233911514282227e-01,1.167576834559440613e-01,4.650842025876045227e-02,-1.357818394899368286e-01,4.937817752361297607e-01,4.399677217006683350e-01,6.075747683644294739e-02,2.672345936298370361e-01,-3.537898361682891846e-01,-4.701152741909027100e-01,-2.179688513278961182e-01,-3.409730494022369385e-01,2.713173627853393555e-01,-5.047816038131713867e-01,-5.350024104118347168e-01,-3.438631817698478699e-02,8.945058286190032959e-02,-2.733979821205139160e-01,-9.266500174999237061e-02,-2.550950944423675537e-01,3.900091350078582764e-01,1.494184788316488266e-02,1.724383085966110229e-01,3.602139353752136230e-01,-1.521853804588317871e-01,2.209283262491226196e-01
2.349329553544521332e-02,-2.834715545177459717e-01,9.809999167919158936e-02,-1.496891975402832031e-01,4.772926568984985352e-01,-1.275428533554077148e-01,1.067910641431808472e-01,2.080313265323638916e-01,1.802988499402999878e-01,-1.324909329414367676e-01,7.133182883262634277e-02,-2.946670949459075928e-01,-1.717045158147811890e-01,-1.291679441928863525e-01,5.922475829720497131e-02,1.788525134325027466e-01,-1.993261724710464478e-01,-2.213919460773468018e-01,-6.130577251315116882e-02,1.928382366895675659e-01,-4.109697043895721436e-01,2.060315199196338654e-02,-7.333891093730926514e-02,5.682105571031570435e-02,1.941137462854385376e-01,-5.851941555738449097e-02,-7.912527024745941162e-02,2.540735304355621338e-01,3.057929575443267822e-01,1.903519928455352783e-01,-2.978767454624176025e-01,8.643518388271331787e-02,-2.750752270221710205e-01,-5.070171356201171875e-01,-1.101602762937545776e-01,-2.271359562873840332e-01,-1.572595685720443726e-01,-2.129668444395065308e-01,-6.515936851501464844e-01,-3.044387102127075195e-01,1.839355826377868652e-01,2.419486343860626221e-01,-3.350410610437393188e-02,-5.299739539623260498e-02,2.047547399997711182e-01,7.093682070262730122e-04,1.993244513869285583e-02,1.480167359113693237e-01,-2.671259939670562744e-01,4.616454541683197021e-01
2.257325500249862671e-01,-1.447643488645553589e-01,-5.662234425544738770e-01,1.992882937192916870e-01,2.224746793508529663e-01,-1.032185405492782593e-01,-1.328848004341125488e-01,-1.778586506843566895e-01,-2.608192153275012970e-02,2.687806636095046997e-02,-3.270368576049804688e-01,-4.452455341815948486e-01,1.922951452434062958e-02,8.069116622209548950e-02,-1.178759038448333740e-01,-2.173521816730499268e-01,-1.366232782602310181e-01,-6.099135056138038635e-02,1.109090223908424377e-01,-1.158506870269775391e-01,-7.366757839918136597e-02,1.252404451370239258e-01,4.660824686288833618e-02,-2.566689550876617432e-01,1.649533510208129883e-01,-1.223280280828475952e-01,2.910106480121612549e-01,-1.318803876638412476e-01,-7.959304004907608032e-02,2.582250535488128662e-01,7.857932150363922119e-02,4.439389109611511230e-01,1.543618440628051758e-01,4.578122869133949280e-02,-4.661357402801513672e-01,2.296577095985412598e-01,-9.378340840339660645e-02,-4.984881579875946045e-01,-3.787194490432739258e-01,-1.584221273660659790e-01,-1.014671325683593750e-01,-3.880005776882171631e-01,-2.916580252349376678e-02,-7.075888104736804962e-03,-5.583042651414871216e-02,3.635748922824859619e-01,-3.116710186004638672e-01,1.777135133743286133e-01,2.439411543309688568e-02,4.675635099411010742e-01
-3.617450594902038574e-02,5.260572209954261780e-02,1.887777000665664673e-01,1.329809874296188354e-01,3.130789399147033691e-01,-4.918943718075752258e-02,1.614361405372619629e-01,1.195591986179351807e-01,-1.832257658243179321e-01,-3.217614591121673584e-01,-1.034589186310768127e-01,2.808828353881835938e-01,-5.904835090041160583e-02,1.606045216321945190e-01,-7.799756526947021484e-02,-2.167774587869644165e-01,-1.200257241725921631e-01,2.228753864765167236e-01,8.181673288345336914e-02,1.993592679500579834e-01,-1.340327709913253784e-01,-9.277050942182540894e-02,-1.907478570938110352e-01,-7.532680756412446499e-04,-2.682929337024688721e-01,1.822830438613891602e-01,-1.839638799428939819e-01,-3.109555542469024658e-01,1.456012427806854248e-01,8.841335773468017578e-02,-3.025306165218353271e-01,-1.668786257505416870e-01,1.508509460836648941e-02,2.924022376537322998e-01,1.940438598394393921e-01,-8.685764856636524200e-03,2.593266963958740234e-01,-6.603433191776275635e-02,-2.823525369167327881e-01,7.500960677862167358e-02,-2.429659478366374969e-02,-2.479393333196640015e-01,8.611519634723663330e-02,-1.910281479358673096e-01,7.681218534708023071e-02,1.948896348476409912e-01,-1.059702038764953613e-02,1.246871724724769592e-01,2.042834609746932983e-01,-1.189581975340843201e-01
-4.235203936696052551e-02,-1.924047470092773438e-01,-1.124797854572534561e-02,-3.899359703063964844e-02,2.541395723819732666e-01,-2.902408242225646973e-01,-1.362112537026405334e-02,-4.351889193058013916e-01,-1.329753994941711426e-01,-2.275440543889999390e-01,1.340533345937728882e-01,2.558970749378204346e-01,-9.151210635900497437e-02,1.327928062528371811e-02,-6.825603246688842773e-01,2.215445041656494141e-01,3.093682415783405304e-02,4.969404041767120361e-01,-2.677131295204162598e-01,-5.814164131879806519e-02,1.695171147584915161e-01,-1.004510968923568726e-01,5.373883526772260666e-03,-2.981407046318054199e-01,2.302521914243698120e-01,1.026520952582359314e-01,1.957881897687911987e-01,-4.887736439704895020e-01,6.143904849886894226e-02,-3.343710601329803467e-01,1.179364398121833801e-01,2.304029315710067749e-01,-3.399468064308166504e-01,2.599361836910247803e-01,-1.586782634258270264e-01,-4.647997915744781494e-01,1.505673229694366455e-01,-3.367324471473693848e-01,-6.550700217485427856e-02,2.072123438119888306e-01,1.834918260574340820e-01,2.719875574111938477e-01,1.092025265097618103e-01,7.035283744335174561e-02,3.002366423606872559e-01,-1.449566781520843506e-01,-2.885662317276000977e-01,1.593569219112396240e-01,1.554393619298934937e-01,6.318788230419158936e-02
8.635098487138748169e-02,5.971081089228391647e-03,-4.531053602695465088e-01,-2.349823480471968651e-03,-9.679211303591728210e-03,-2.880240082740783691e-01,5.632015527226030827e-04,1.221875939518213272e-02,-1.688116490840911865e-01,-2.492237277328968048e-02,-3.860743641853332520e-01,-3.578708767890930176e-01,-4.257698953151702881e-01,-1.975283026695251465e-02,-9.698504954576492310e-02,-2.457990348339080811e-01,-2.660904228687286377e-01,1.577980816364288330e-01,-2.665130198001861572e-01,3.055756539106369019e-02,-1.146774441003799438e-01,2.854918837547302246e-01,3.116611838340759277e-01,-1.768177151679992676e-01,-1.756250411272048950e-01,-7.373139262199401855e-02,-3.938578963279724121e-01,1.086103264242410660e-02,-5.281726717948913574e-01,-1.226623058319091797e-01,3.232167363166809082e-01,1.136244460940361023e-01,-1.266710013151168823e-01,-2.307748198509216309e-01,-3.618913292884826660e-01,1.133341249078512192e-02,1.764401197433471680e-01,-4.245249147061258554e-04,-1.153232008218765259e-01,-3.053605258464813232e-01,-1.702301651239395142e-01,-1.378645002841949463e-01,-2.775303423404693604e-01,-3.201655745506286621e-01,1.287295371294021606e-01,2.230741679668426514e-01,-1.128300372511148453e-02,4.003531634807586670e-01,2.326375991106033325e-01,-9.182331711053848267e-02
-1.290960460901260376e-01,1.008213385939598083e-01,-3.802781105041503906e-01,-3.793081045150756836e-01,3.431990626268088818e-04,1.673757433891296387e-01,1.640153974294662476e-01,-9.115824848413467407e-02,6.490014027804136276e-03,6.400474812835454941e-03,1.766170561313629150e-01,1.754380464553833008e-01,-1.597400754690170288e-01,-2.628689706325531006e-01,2.783761322498321533e-01,-4.403382837772369385e-01,-1.102228760719299316e-01,-3.889104723930358887e-01,5.358831882476806641e-01,-1.036674678325653076e-01,1.428338438272476196e-01,8.290120959281921387e-02,-1.183110848069190979e-01,-1.324227452278137207e-01,1.441128551959991455e-01,-1.155892908573150635e-01,-5.765253305435180664e-02,-2.459122836589813232e-01,1.637291461229324341e-01,-2.216466218233108521e-01,1.611040718853473663e-02,7.038600742816925049e-02,1.965353190898895264e-01,-8.808720856904983521e-03,1.981350630521774292e-01,-3.301792442798614502e-01,-7.518408447504043579e-02,1.126800547353923321e-03,-2.283874303102493286e-01,2.147621288895606995e-02,9.152851998805999756e-02,2.413754314184188843e-01,3.252363801002502441e-01,-1.878403425216674805e-01,-1.625526249408721924e-01,2.452673166990280151e-01,-2.002511769533157349e-01,5.378421768546104431e-02,-1.021665558218955994e-01,-2.006268650293350220e-01
-3.522809743881225586e-01,-8.647729456424713135e-02,1.850969158113002777e-03,-1.906471103429794312e-01,1.544354557991027832e-01,4.957414418458938599e-02,-5.152017995715141296e-02,-8.419822901487350464e-02,1.311740428209304810e-01,3.513307869434356689e-02,-1.675454676151275635e-01,9.441491216421127319e-03,-2.328693121671676636e-02,-3.349621295928955078e-01,-1.432103514671325684e-01,-4.218849837779998779e-01,-1.164755597710609436e-01,-4.239857494831085205e-01,1.250600069761276245e-01,2.180548608303070068e-01,5.322012118995189667e-03,3.169678151607513428e-01,-3.797605931758880615e-01,4.457537457346916199e-02,-8.810905367136001587e-02,1.659828722476959229e-01,-4.125120639801025391e-01,-1.904265284538269043e-01,-7.515880465507507324e-02,-3.337693214416503906e-01,-8.295211591757833958e-04,7.275421917438507080e-02,-2.504673302173614502e-01,-1.408980935811996460e-01,-4.243730902671813965e-01,-3.987106680870056152e-01,-8.226183056831359863e-02,3.316877875477075577e-03,-3.501066267490386963e-01,-6.259564310312271118e-02,-1.340804994106292725e-01,2.224540710449218750e-01,-3.432450592517852783e-01,-5.101812481880187988e-01,2.758468389511108398e-01,-4.491275250911712646e-01,-1.574545651674270630e-01,3.306937217712402344e-02,-2.387771941721439362e-02,-2.804250121116638184e-01
-1.370853930711746216e-01,-9.106281213462352753e-03,-1.483120620250701904e-01,6.458565592765808105e-02,1.399348229169845581e-01,-2.582397162914276123e-01,-3.326283991336822510e-01,-1.762997955083847046e-01,2.449557036161422729e-01,-1.142648309469223022e-01,3.487407416105270386e-02,-2.446171790361404419e-01,1.398312002420425415e-01,6.642013788223266602e-02,8.510430902242660522e-02,-3.215535879135131836e-01,-1.606264263391494751e-01,-5.064330697059631348e-01,2.785144448280334473e-01,1.790545284748077393e-01,-5.243139341473579407e-02,-5.475491657853126526e-02,2.070089131593704224e-01,-4.272450879216194153e-02,1.093172729015350342e-01,-1.050915196537971497e-01,-1.229742467403411865e-01,-1.600974202156066895e-01,1.397419869899749756e-01,-3.423472344875335693e-01,9.106510132551193237e-02,1.742569655179977417e-01,-4.893397986888885498e-01,-2.751238346099853516e-01,-3.257078826427459717e-01,2.050036378204822540e-02,4.862086847424507141e-02,-1.890089362859725952e-01,-2.146667689085006714e-01,3.732876502908766270e-04,-1.101040318608283997e-01,-1.882321834564208984e-01,-3.544487804174423218e-02,-1.239463537931442261e-01,3.301781043410301208e-02,1.706471890211105347e-01,-2.675678431987762451e-01,3.395228832960128784e-02,-2.761014401912689209e-01,5.354896187782287598e-01
-3.651834130287170410e-01,9.352959692478179932e-02,-2.173064835369586945e-02,4.061706364154815674e-01,-3.113658726215362549e-01,-4.718245267868041992e-01,1.598258912563323975e-01,3.084480166435241699e-01,-6.101074442267417908e-02,5.806257948279380798e-02,-2.040595412254333496e-01,-9.064328670501708984e-02,-6.036456823348999023e-01,7.590363174676895142e-02,-8.738593757152557373e-02,1.673788577318191528e-01,8.272243291139602661e-02,1.394009869545698166e-02,3.527571260929107666e-01,5.369620323181152344e-01,3.815218210220336914e-01,3.543554842472076416e-01,-1.580938696861267090e-01,6.716041266918182373e-02,9.158669970929622650e-03,-1.695377975702285767e-01,6.758207827806472778e-02,1.525211930274963379e-01,-5.571973323822021484e-01,1.841365545988082886e-02,2.804696261882781982e-01,3.416429758071899414e-01,4.989375174045562744e-02,-7.681787759065628052e-02,1.392341852188110352e-01,1.994094550609588623e-01,2.560567110776901245e-02,-1.935875713825225830e-01,4.916213825345039368e-02,-3.942373991012573242e-01,-1.484367102384567261e-01,-8.175171911716461182e-03,-2.293184846639633179e-01,2.927542477846145630e-02,3.673748672008514404e-01,3.474268615245819092e-01,-2.889846265316009521e-02,1.037934944033622742e-01,-9.422797709703445435e-02,-2.600097954273223877e-01
2.346786856651306152e-01,7.394261658191680908e-02,-4.222809970378875732e-01,-1.001649796962738037e-01,-4.699392616748809814e-01,2.082493752241134644e-01,7.155334204435348511e-02,-8.563846349716186523e-02,-2.616098225116729736e-01,-8.327372372150421143e-02,-5.694629251956939697e-02,-1.345237642526626587e-01,1.396155059337615967e-01,1.734878271818161011e-01,-2.386537194252014160e-02,-5.850474834442138672e-01,3.562363982200622559e-01,2.739951014518737793e-01,4.976913630962371826e-01,-7.007727399468421936e-03,-3.221960067749023438e-01,1.972453296184539795e-01,-4.226398468017578125e-01,-3.675820231437683105e-01,1.467121392488479614e-01,-2.791033387184143066e-01,1.325005590915679932e-01,-2.608814537525177002e-01,-8.734866976737976074e-03,2.147141844034194946e-02,1.305970996618270874e-01,-1.741739735007286072e-02,4.528227150440216064e-01,-1.243183463811874390e-01,1.264390815049409866e-02,-3.484611511230468750e-01,2.747649848461151123e-01,-5.569075047969818115e-02,-4.082091897726058960e-02,-2.039474621415138245e-02,-3.334257602691650391e-01,-3.607619106769561768e-01,4.507471024990081787e-01,3.120697103440761566e-02,3.102555572986602783e-01,-1.405857652425765991e-01,-1.891378015279769897e-01,-1.314366422593593597e-02,-1.904422193765640259e-01,2.473541721701622009e-02
-1.363831162452697754e-01,-2.091514468193054199e-01,4.499495625495910645e-01,-2.173219472169876099e-01,8.721080422401428223e-02,1.864396482706069946e-01,2.043930590152740479e-01,-1.470120847225189209e-01,8.461118489503860474e-02,2.902858853340148926e-01,-2.249077409505844116e-01,1.674364060163497925e-01,2.009291015565395355e-02,1.839657276868820190e-01,1.244103386998176575e-01,3.288570344448089600e-01,3.149870634078979492e-01,-3.552861511707305908e-01,-1.191034913063049316e-01,-5.123692154884338379e-01,1.295934766530990601e-01,-9.119462966918945312e-02,3.963846862316131592e-01,3.186086565256118774e-02,-2.058002948760986328e-01,6.326901912689208984e-02,-1.976527571678161621e-01,-2.225017249584197998e-01,-2.204616069793701172e-01,-2.028024047613143921e-01,-1.376920789480209351e-01,4.282277077436447144e-02,-3.103593885898590088e-01,-1.122821643948554993e-01,1.614231616258621216e-01,-3.380646109580993652e-01,-1.332041174173355103e-01,-1.140069365501403809e-01,-6.183469295501708984e-02,3.403228223323822021e-01,7.050275802612304688e-02,-3.163765668869018555e-01,-2.555205225944519043e-01,1.280860155820846558e-01,-3.120017051696777344e-01,6.175867468118667603e-02,-6.578509807586669922e-01,-3.700617551803588867e-01,-9.378204494714736938e-02,3.311030268669128418e-01
4.102794080972671509e-02,-5.753445625305175781e-01,2.739201486110687256e-01,-4.397012889385223389e-01,2.581618726253509521e-01,-2.378870844841003418e-01,-8.394790440797805786e-02,-3.489669263362884521e-01,-1.862832754850387573e-01,-2.777990996837615967e-01,9.572639316320419312e-02,3.182162344455718994e-01,-2.582233846187591553e-01,-3.908230662345886230e-01,-7.938453555107116699e-01,2.283634394407272339e-01,-3.895974457263946533e-01,1.120261475443840027e-02,2.043126523494720459e-01,-1.812867820262908936e-01,-2.482434548437595367e-02,-1.318222582340240479e-01,5.693138018250465393e-02,4.568257182836532593e-02,4.362574592232704163e-02,2.643344998359680176e-01,2.854018509387969971e-01,-4.575951769948005676e-02,3.274620277807116508e-03,3.440448045730590820e-01,3.056230843067169189e-01,-1.195007488131523132e-01,-1.847365498542785645e-01,3.222097083926200867e-02,-2.105347216129302979e-01,2.007311023771762848e-02,-3.302605748176574707e-01,-3.266870081424713135e-01,5.074507743120193481e-02,-2.549629099667072296e-02,-1.372682452201843262e-01,-7.219690829515457153e-02,3.770276606082916260e-01,-2.312551289796829224e-01,1.475622355937957764e-01,1.101264283061027527e-01,-6.349991261959075928e-02,2.544516697525978088e-02,-2.158541530370712280e-01,-1.140499636530876160e-01
-4.873774051666259766e-01,-2.137985378503799438e-01,-1.564867943525314331e-01,-1.551955752074718475e-02,1.709044165909290314e-02,-4.278825819492340088e-01,-9.646718949079513550e-02,2.006556093692779541e-01,-1.087314113974571228e-01,2.039309293031692505e-01,3.732706308364868164e-01,-1.797403693199157715e-01,-2.122516036033630371e-01,-2.637840509414672852e-01,7.322154939174652100e-03,1.688034683465957642e-01,-3.933198750019073486e-01,2.187692970037460327e-01,1.703300327062606812e-01,-2.637801766395568848e-01,2.086182236671447754e-01,-3.195759057998657227e-01,-2.159052640199661255e-01,-4.539760053157806396e-01,-3.653767704963684082e-01,-4.961569607257843018e-01,3.724139928817749023e-01,-3.751819953322410583e-02,8.052118122577667236e-03,-5.327260587364435196e-03,4.511826857924461365e-02,-3.428652882575988770e-02,-3.576086461544036865e-02,-5.221937224268913269e-02,2.652896046638488770e-01,-1.794338077306747437e-01,-3.504953086376190186e-01,-2.202910929918289185e-01,-3.701490163803100586e-01,3.098797751590609550e-03,-2.651866078376770020e-01,4.515891075134277344e-01,1.437045782804489136e-01,-3.615354299545288086e-01,-3.086543381214141846e-01,-8.546761423349380493e-02,5.065191164612770081e-02,-5.234521627426147461e-01,-6.984710693359375000e-02,-7.358606159687042236e-02
-1.257161796092987061e-01,2.907302975654602051e-01,6.772026885300874710e-03,-1.609037071466445923e-01,-1.112258341163396835e-02,-8.498969674110412598e-02,2.192605882883071899e-01,-6.820837152190506458e-04,1.180755570530891418e-01,-8.026112616062164307e-02,-1.051537096500396729e-01,9.098385460674762726e-03,-1.525329500436782837e-01,1.355781406164169312e-02,1.989782303571701050e-01,-2.227065861225128174e-01,-6.020530462265014648e-01,-3.227140605449676514e-01,2.599267065525054932e-01,1.651208102703094482e-02,-1.697734892368316650e-01,9.362086653709411621e-02,-2.024558484554290771e-01,-2.147086560726165771e-01,1.841807216405868530e-01,-4.387838393449783325e-02,-3.020279705524444580e-01,-3.225695192813873291e-01,1.260906457901000977e-01,-4.454012215137481689e-01,1.026689410209655762e-01,4.695659577846527100e-01,-8.769652806222438812e-03,1.326117366552352905e-01,-7.464870065450668335e-02,-2.935584187507629395e-01,-1.679703146219253540e-01,2.863461710512638092e-02,-2.823460102081298828e-01,-5.310006141662597656e-01,-2.244680225849151611e-01,3.171534836292266846e-01,-9.795254468917846680e-02,-6.053543090820312500e-01,-2.650223672389984131e-01,9.968364238739013672e-02,-3.759327232837677002e-01,2.951654791831970215e-01,1.186932809650897980e-02,2.416429668664932251e-01
-3.360563516616821289e-02,1.333912909030914307e-01,-2.133313864469528198e-01,1.405067592859268188e-01,-6.824576854705810547e-02,-4.415348768234252930e-01,4.169963672757148743e-02,-2.788764536380767822e-01,-2.770735025405883789e-01,3.508035093545913696e-02,-2.457309514284133911e-01,-4.947580397129058838e-01,1.947423964738845825e-01,1.355746388435363770e-02,2.552131712436676025e-01,5.010791122913360596e-02,1.643191128969192505e-01,4.811603724956512451e-01,2.056379914283752441e-01,-9.775836020708084106e-02,-2.079128175973892212e-01,1.396214067935943604e-01,-2.436292767524719238e-01,-4.234550893306732178e-01,1.308123022317886353e-01,2.534534335136413574e-01,4.383999705314636230e-01,1.316161304712295532e-01,4.332973435521125793e-02,-4.910218715667724609e-02,-1.820299774408340454e-02,2.726253271102905273e-01,-3.031800687313079834e-02,-2.292656153440475464e-01,-2.129943966865539551e-01,1.415937691926956177e-01,4.870766401290893555e-02,1.830351650714874268e-01,3.228985145688056946e-02,7.217346876859664917e-02,-1.407212466001510620e-01,-7.555299252271652222e-02,-4.984522163867950439e-01,3.285201489925384521e-01,-1.030521690845489502e-01,-7.967451959848403931e-02,-3.236808776855468750e-01,-4.956766366958618164e-01,-1.288363784551620483e-01,3.758127391338348389e-01
1.409522444009780884e-01,-2.387875467538833618e-01,-1.232489570975303650e-01,1.957127898931503296e-01,1.209174394607543945e-01,-1.906702518463134766e-01,1.663741916418075562e-01,-8.885254710912704468e-02,1.467240601778030396e-01,-2.261797487735748291e-01,-3.657132983207702637e-01,-6.767257582396268845e-03,1.201367527246475220e-01,-7.142950594425201416e-02,4.490207508206367493e-02,-2.514524161815643311e-01,-2.539790868759155273e-01,-1.651026010513305664e-01,-5.563810840249061584e-02,6.679285317659378052e-02,-2.490598410367965698e-01,-5.116859078407287598e-01,1.831101924180984497e-01,1.242878511548042297e-01,2.290443032979965210e-01,1.414065156131982803e-02,-6.252877879887819290e-03,-1.531458199024200439e-01,8.580170571804046631e-02,-5.877930298447608948e-02,-1.809203028678894043e-01,1.366500705480575562e-01,2.703888714313507080e-01,-5.880089402198791504e-01,-3.024074733257293701e-01,-9.191036224365234375e-02,1.108345240354537964e-01,-3.859065175056457520e-01,-4.266822934150695801e-01,-1.979972869157791138e-01,-6.948518753051757812e-02,-1.303326189517974854e-01,-1.691742837429046631e-01,-8.395262062549591064e-02,-9.286477230489253998e-03,1.622512936592102051e-01,-3.161486387252807617e-01,4.053803384304046631e-01,-7.805325835943222046e-02,7.598651200532913208e-02
5.446358770132064819e-02,1.256642788648605347e-01,5.855935215950012207e-01,-2.875422537326812744e-01,2.823696434497833252e-01,3.631602823734283447e-01,-1.512474715709686279e-01,-2.103704400360584259e-02,1.247422955930233002e-02,2.281080633401870728e-01,-7.682211697101593018e-02,-6.037324666976928711e-02,-3.566153645515441895e-01,-1.082716733217239380e-01,2.238529622554779053e-01,5.077497959136962891e-01,3.437615334987640381e-01,-5.008130669593811035e-01,1.073432862758636475e-01,-4.564779400825500488e-01,1.586309866979718208e-03,2.029953338205814362e-02,3.553799986839294434e-01,-3.149801194667816162e-01,-1.977849900722503662e-01,-2.616249583661556244e-02,-4.326477050781250000e-01,-1.829511299729347229e-02,2.312159389257431030e-01,-7.210939191281795502e-03,-2.442589551210403442e-01,-5.248676240444183350e-02,-1.920378766953945160e-02,-1.081419289112091064e-01,1.933221518993377686e-02,-2.926068305969238281e-01,9.010251611471176147e-02,3.568061441183090210e-02,2.365661785006523132e-02,1.236787624657154083e-02,-1.200740262866020203e-01,1.166262924671173096e-01,-1.013033241033554077e-01,-2.518295682966709137e-02,6.888420879840850830e-02,-8.291678130626678467e-02,-4.129489064216613770e-01,-3.383066654205322266e-01,9.911853075027465820e-02,1.605188101530075073e-01
-1.010742858052253723e-01,-2.240264117717742920e-01,1.623686105012893677e-01,-7.051617652177810669e-02,-9.946101903915405273e-02,-2.466441839933395386e-01,-5.698762536048889160e-01,-7.196751236915588379e-02,6.259613670408725739e-03,-2.489328235387802124e-01,-1.207932084798812866e-01,-3.162018954753875732e-01,6.135970354080200195e-01,3.340885639190673828e-01,-1.337068676948547363e-01,-3.144706487655639648e-01,-1.572152227163314819e-01,6.358882784843444824e-02,-5.736590363085269928e-03,-1.443158835172653198e-02,-3.781366646289825439e-01,-1.148922219872474670e-01,-2.374791949987411499e-01,-2.623324990272521973e-01,-2.484687566757202148e-01,-2.119744569063186646e-01,3.185611963272094727e-02,2.004224993288516998e-02,-1.158152595162391663e-01,-5.006156563758850098e-01,3.870929777622222900e-01,1.914041787385940552e-01,-8.474015444517135620e-02,1.692025512456893921e-01,-2.880421876907348633e-01,-3.958986997604370117e-01,-3.433568775653839111e-01,-7.200449705123901367e-02,-1.712293475866317749e-01,-7.022588700056076050e-02,-4.262488186359405518e-01,-1.722205132246017456e-01,-2.235862761735916138e-01,8.708318322896957397e-02,-1.357471793889999390e-01,-1.266572177410125732e-01,-2.493474334478378296e-01,2.867836356163024902e-01,-1.723002046346664429e-01,-3.426981568336486816e-01
3.162549138069152832e-01,-2.164480537176132202e-01,-1.399826854467391968e-01,-2.792369946837425232e-02,2.585767507553100586e-01,-9.853956848382949829e-02,2.885610759258270264e-01,-3.554718196392059326e-01,-6.712247431278228760e-02,-2.525670826435089111e-01,8.187259733676910400e-02,7.898069918155670166e-03,1.044549942016601562e-01,-8.290371298789978027e-02,-1.081341579556465149e-01,-2.354776114225387573e-01,4.584223404526710510e-02,-1.203161757439374924e-02,-3.282617926597595215e-01,-2.554457187652587891e-01,-1.741671711206436157e-01,-2.782446742057800293e-01,1.557735204696655273e-01,-4.967734683305025101e-03,1.518631074577569962e-02,9.786073863506317139e-02,-1.102928593754768372e-01,1.615333557128906250e-01,-2.586171925067901611e-01,2.129274010658264160e-01,7.941278815269470215e-02,3.298935294151306152e-01,-3.622699528932571411e-02,2.219287604093551636e-01,-5.226991698145866394e-02,1.219995692372322083e-01,-1.266526281833648682e-01,-7.537090778350830078e-01,-4.785202071070671082e-02,1.337277591228485107e-01,2.498637139797210693e-01,1.733307242393493652e-01,1.248678192496299744e-02,-4.497339129447937012e-01,-2.690642699599266052e-02,3.980449736118316650e-01,-1.989524215459823608e-01,2.607161402702331543e-01,2.384651452302932739e-01,1.655149012804031372e-01
1.020693182945251465e-01,3.109242320060729980e-01,-5.853721499443054199e-01,2.707760334014892578e-01,-1.875324100255966187e-01,2.847167430445551872e-03,1.409122049808502197e-01,-2.356888502836227417e-01,-2.010634690523147583e-01,-9.177190065383911133e-02,5.559508875012397766e-02,1.616097688674926758e-01,1.611232012510299683e-01,1.269000321626663208e-01,1.333917230367660522e-01,-5.583485960960388184e-01,6.938677281141281128e-02,-1.568519920110702515e-01,3.773565292358398438e-01,-1.493158936500549316e-01,6.819294393062591553e-02,-1.758050769567489624e-01,2.072858810424804688e-02,-6.403505336493253708e-03,1.608610451221466064e-01,-6.331140641123056412e-03,5.164355635643005371e-01,-7.347878068685531616e-02,-1.650697588920593262e-01,1.913993060588836670e-01,-2.232018709182739258e-01,1.706026941537857056e-01,2.563269622623920441e-02,-2.048813179135322571e-02,-7.499472796916961670e-02,1.381544321775436401e-01,2.731765210628509521e-01,-9.644214063882827759e-02,-4.547408223152160645e-02,-5.787512660026550293e-01,-3.172543346881866455e-01,3.969082981348037720e-02,-3.075302839279174805e-01,2.891229093074798584e-01,4.377200901508331299e-01,-2.208488434553146362e-01,2.264425754547119141e-01,8.175053447484970093e-02,2.154738754034042358e-01,-4.872445389628410339e-02
-5.946271419525146484e-01,1.164522171020507812e-01,3.098430037498474121e-01,3.230290487408638000e-02,4.670513868331909180e-01,-1.308342665433883667e-01,-1.760029494762420654e-01,-1.905862987041473389e-01,-8.634891360998153687e-02,1.301501989364624023e-01,-1.322519481182098389e-01,2.536355257034301758e-01,1.580507159233093262e-01,-2.165320515632629395e-01,-3.554578423500061035e-01,4.167644307017326355e-02,2.612061202526092529e-01,-1.181664466857910156e-01,-9.554586559534072876e-02,-1.081337034702301025e-01,-2.079375088214874268e-02,4.291604459285736084e-02,-2.107513695955276489e-01,2.612719237804412842e-01,-1.531061977148056030e-01,-3.718711435794830322e-01,-1.750255525112152100e-01,-1.115587204694747925e-01,3.901156783103942871e-02,-9.979759901762008667e-02,-1.175236180424690247e-01,-2.521817386150360107e-01,-3.496447801589965820e-01,-3.130371868610382080e-02,-8.999826759099960327e-02,-1.591743081808090210e-01,-3.239500224590301514e-01,-3.426204621791839600e-01,-7.771378755569458008e-01,-1.689447164535522461e-01,-5.420052260160446167e-02,-5.356787145137786865e-02,-2.359111160039901733e-01,-1.248862072825431824e-01,-3.867675662040710449e-01,-4.257188737392425537e-02,3.828420070931315422e-03,-2.276725172996520996e-01,8.865693956613540649e-02,2.498462051153182983e-01
-7.095398753881454468e-02,4.289120435714721680e-02,-3.259827494621276855e-01,-1.740375012159347534e-01,-1.793522089719772339e-01,8.790897578001022339e-02,2.281498610973358154e-01,5.193143710494041443e-02,1.180599331855773926e-01,1.190700456500053406e-01,-7.676278799772262573e-02,-3.202334344387054443e-01,7.491687685251235962e-02,2.691592574119567871e-01,1.935723423957824707e-01,1.638760231435298920e-02,1.812845468521118164e-01,-2.404706627130508423e-01,2.105544134974479675e-02,1.200101301074028015e-01,1.018255390226840973e-02,-8.959048241376876831e-02,-3.219523727893829346e-01,-3.098531365394592285e-01,4.921929165720939636e-02,7.985543459653854370e-03,3.186914324760437012e-02,-2.775965929031372070e-01,-1.729910969734191895e-01,5.602685734629631042e-02,3.829543292522430420e-01,1.896057128906250000e-01,3.822350502014160156e-01,-1.314993761479854584e-02,-3.498234599828720093e-02,-2.177975475788116455e-01,-1.450996696949005127e-01,1.174038052558898926e-01,1.219508517533540726e-02,1.055518910288810730e-01,-2.509555518627166748e-01,-1.536629945039749146e-01,-1.601828187704086304e-01,6.338552385568618774e-02,8.491163700819015503e-02,-9.567052125930786133e-02,-1.000112853944301605e-02,2.404648661613464355e-01,-4.358156025409698486e-02,-1.774948537349700928e-01
-1.737287384457886219e-03,1.864336133003234863e-01,-4.408142343163490295e-02,2.000865787267684937e-01,-7.260346412658691406e-02,1.671845912933349609e-01,3.394619822502136230e-01,-2.133069932460784912e-01,5.449483916163444519e-02,-3.443767428398132324e-01,-8.560829609632492065e-02,-6.250128895044326782e-02,1.262423694133758545e-01,-2.921052090823650360e-02,-3.137115389108657837e-02,6.500215083360671997e-02,-1.236408501863479614e-01,-2.366754859685897827e-01,-6.664540152996778488e-03,-1.132041215896606445e-01,-1.447063088417053223e-01,6.186224520206451416e-03,7.163232564926147461e-02,-2.310614287853240967e-01,-2.636736035346984863e-01,1.173364818096160889e-01,-3.639705851674079895e-02,9.054786711931228638e-02,2.257636189460754395e-02,1.865321211516857147e-02,2.051318436861038208e-01,5.751420930027961731e-02,-2.956353314220905304e-02,-8.320562541484832764e-02,8.937872201204299927e-02,1.012527719140052795e-01,-8.671060204505920410e-02,3.402486070990562439e-02,-6.520589441061019897e-02,-2.637622952461242676e-01,-1.604503244161605835e-01,-1.591725647449493408e-02,8.175075054168701172e-02,-1.579849123954772949e-01,-1.291045397520065308e-01,-1.105510443449020386e-02,1.647703647613525391e-01,-1.288063544780015945e-02,5.129687190055847168e-01,7.580461353063583374e-02
3.021518290042877197e-01,4.755637049674987793e-01,-5.458782911300659180e-01,1.396324634552001953e-01,-3.300741612911224365e-01,1.494078785181045532e-01,-1.727064847946166992e-01,1.204212382435798645e-01,7.818479090929031372e-03,-5.583100020885467529e-02,7.778441905975341797e-02,-3.100040256977081299e-01,3.641898930072784424e-01,1.578118279576301575e-02,3.188921809196472168e-01,-6.012514829635620117e-01,2.133931666612625122e-01,-1.441513746976852417e-01,-1.210735663771629333e-01,-5.466167349368333817e-04,-2.849599905312061310e-02,-2.556204497814178467e-01,-3.139519393444061279e-01,-4.367306530475616455e-01,1.952452808618545532e-01,-2.195141464471817017e-01,-7.958597503602504730e-03,-4.199111461639404297e-02,2.051234394311904907e-01,-9.462144970893859863e-02,-3.105596303939819336e-01,-1.307478174567222595e-02,1.907284706830978394e-01,-1.796052753925323486e-01,2.625142037868499756e-01,-1.833631247282028198e-01,1.914909482002258301e-01,-2.354405075311660767e-01,1.758786290884017944e-01,-5.792646408081054688e-01,-3.844729363918304443e-01,-2.280343919992446899e-01,5.398787856101989746e-01,-7.806129753589630127e-02,1.980388909578323364e-01,2.060323804616928101e-01,1.534735411405563354e-01,6.142327785491943359e-01,1.706759333610534668e-01,1.569336205720901489e-01
3.870750591158866882e-02,2.093251794576644897e-01,-7.037780880928039551e-01,3.375737741589546204e-02,1.027798801660537720e-01,2.172620445489883423e-01,2.509393393993377686e-01,-4.321830347180366516e-02,7.249706983566284180e-02,1.984600350260734558e-02,-1.257997602224349976e-01,-2.846754193305969238e-01,1.283028870820999146e-01,1.552504859864711761e-02,1.285628229379653931e-01,4.945995286107063293e-02,1.394031792879104614e-01,-1.883128732442855835e-01,2.681466937065124512e-01,-2.911170423030853271e-01,-5.834908783435821533e-02,1.325374990701675415e-01,-2.049306631088256836e-01,-4.543666541576385498e-01,-2.521219849586486816e-01,-1.579749137163162231e-01,-1.757271587848663330e-01,-3.058140873908996582e-01,1.097620427608489990e-01,-1.407969146966934204e-01,9.399449825286865234e-02,7.611769717186689377e-03,4.972486793994903564e-01,-3.670527935028076172e-01,5.595730543136596680e-01,1.638820320367813110e-01,1.071413755416870117e-01,-2.403856255114078522e-02,7.320032268762588501e-02,-1.860670894384384155e-01,1.024925261735916138e-01,1.598645597696304321e-01,5.559413433074951172e-01,2.191232331097126007e-02,-6.553005427122116089e-02,2.342119514942169189e-01,-6.305887699127197266e-01,-1.929215528070926666e-02,2.206168323755264282e-01,4.157682880759239197e-03
-1.356421560049057007e-01,1.986401230096817017e-01,-4.714305996894836426e-01,-3.928849101066589355e-02,-2.764817774295806885e-01,-2.165634781122207642e-01,7.103447616100311279e-02,-5.750306695699691772e-02,-1.755576953291893005e-02,1.269769668579101562e-01,-2.177851647138595581e-02,1.112351194024085999e-01,-4.806317016482353210e-02,2.346129268407821655e-01,-1.708172261714935303e-01,3.552611470222473145e-01,-2.302722632884979248e-01,7.651236653327941895e-02,6.142369508743286133e-01,-2.995067536830902100e-01,1.299267634749412537e-02,1.697483062744140625e-01,-2.017603516578674316e-01,-3.552570939064025879e-01,6.773024052381515503e-02,4.255460575222969055e-02,-1.570270359516143799e-01,-6.169558316469192505e-02,-4.459781944751739502e-01,-7.598725706338882446e-02,-2.317566424608230591e-01,-1.447745114564895630e-01,5.391602218151092529e-02,-1.884477585554122925e-01,6.702179089188575745e-03,-1.898627877235412598e-01,-3.165597021579742432e-01,-8.032000809907913208e-02,-2.749761939048767090e-01,-5.300745368003845215e-01,1.500886231660842896e-01,1.749004721641540527e-01,-1.891855448484420776e-01,-3.936035037040710449e-01,1.737547665834426880e-01,4.851824045181274414e-02,-4.191617369651794434e-01,-1.577985137701034546e-01,-3.633567318320274353e-02,-4.903633520007133484e-02
