-2.821508795022964478e-02,4.978890344500541687e-02,-2.308330088853836060e-01,-6.615412235260009766e-02,1.235312875360250473e-02,-9.009610861539840698e-03,1.578216254711151123e-01,-3.038580063730478287e-03,-1.649067923426628113e-02,-1.757613569498062134e-01,-2.432519346475601196e-01,2.434581369161605835e-01,-5.591372027993202209e-02,-1.973195970058441162e-01,-9.728613495826721191e-02,3.914805874228477478e-02,-2.034199237823486328e-01,-1.366306543350219727e-01,1.912011504173278809e-01,-3.764997422695159912e-02,9.506098926067352295e-02,3.994370251893997192e-02,-2.065736502408981323e-01,2.692403197288513184e-01,-9.780974686145782471e-02,6.556226313114166260e-02,6.931755691766738892e-02,2.479848824441432953e-02,6.007155030965805054e-02,3.663216903805732727e-02,9.227454662322998047e-02,-2.906869631260633469e-03,-1.164387166500091553e-01,5.583458021283149719e-02,9.463748894631862640e-03,5.491141974925994873e-02,1.594698280096054077e-01,-4.232016950845718384e-02,2.305882275104522705e-01,1.161454617977142334e-02,-1.131297424435615540e-01,-4.385703708976507187e-03,-2.335767894983291626e-01,3.983704745769500732e-02,-3.361598029732704163e-02,2.087659835815429688e-01,7.262650132179260254e-02,7.882421463727951050e-02,1.172268912196159363e-01,-4.876659065485000610e-02
