-9.194596856832504272e-02
-1.428122669458389282e-01
-2.844833731651306152e-01
-3.820881545543670654e-01
-2.318990528583526611e-01
-3.390431404113769531e-01
2.299833893775939941e-01
-2.608621120452880859e-01
-4.734488129615783691e-01
1.014895737171173096e-03
-3.716650009155273438e-01
-2.358323931694030762e-01
-4.070563316345214844e-01
8.308029174804687500e-02
-3.640655577182769775e-01
-1.035224273800849915e-01
-2.847226569429039955e-03
4.909450188279151917e-02
-1.995997726917266846e-01
-3.193982839584350586e-01
-5.415911078453063965e-01
-2.509593963623046875e-01
-3.528973758220672607e-01
-1.938009709119796753e-01
1.062284782528877258e-02
-2.076018303632736206e-01
-4.350371286273002625e-02
4.663007333874702454e-02
-2.427209615707397461e-01
-3.340431749820709229e-01
-3.972670063376426697e-02
-5.672138184309005737e-02
-6.449890136718750000e-01
-2.656498849391937256e-01
-3.075316846370697021e-01
-3.826151788234710693e-01
1.909529417753219604e-01
-3.567746579647064209e-01
-3.178952336311340332e-01
-9.575670957565307617e-01
-2.230263203382492065e-01
6.121535971760749817e-02
-2.635907232761383057e-01
1.287009268999099731e-01
-6.099969148635864258e-02
5.357563495635986328e-02
-4.018037021160125732e-01
2.214199453592300415e-01
-2.055332660675048828e-01
-4.612525179982185364e-02
