4.270594716072082520e-01
-6.771349310874938965e-01
-8.119949698448181152e-01
2.368158847093582153e-01
7.958863675594329834e-02
-3.451374173164367676e-01
2.408523857593536377e-01
-2.209166586399078369e-01
-4.477707743644714355e-01
1.084257811307907104e-01
-5.756950378417968750e-01
-6.920351386070251465e-01
-7.752574980258941650e-02
-5.070252418518066406e-01
2.028459608554840088e-01
1.553109288215637207e-01
-5.101156421005725861e-03
-1.881523244082927704e-02
1.335948407649993896e-01
2.104173973202705383e-02
7.565711438655853271e-02
2.408463209867477417e-01
3.115326166152954102e-02
-6.175850704312324524e-02
9.185093641281127930e-02
8.348715305328369141e-02
-7.126339524984359741e-02
6.826027482748031616e-02
-1.944856047630310059e-01
-2.557297348976135254e-01
8.356525748968124390e-02
-2.808977663516998291e-01
-5.002405643463134766e-01
1.841946244239807129e-01
1.764629036188125610e-01
2.045016884803771973e-01
-1.020328998565673828e+00
-2.273087501525878906e-01
5.623093843460083008e-01
-8.239449262619018555e-01
-5.569547414779663086e-01
-3.792044222354888916e-01
1.889072209596633911e-01
9.673377871513366699e-02
-8.593855798244476318e-02
-9.783025085926055908e-02
-1.182528212666511536e-01
-4.219184629619121552e-03
5.578063428401947021e-02
4.210402667522430420e-01
