8.590289950370788574e-02
-3.725594654679298401e-02
-1.726974844932556152e-01
7.957611232995986938e-02
3.909450769424438477e-01
1.463278532028198242e-01
-2.820689976215362549e-01
-9.130269289016723633e-02
7.375990599393844604e-02
2.241313755512237549e-01
7.106250524520874023e-02
-4.261727258563041687e-02
-1.050652414560317993e-01
-8.989053368568420410e-01
1.128332838416099548e-01
1.574466973543167114e-01
8.615297824144363403e-02
-3.653368353843688965e-01
-2.684198915958404541e-01
-2.984390258789062500e-01
1.169882118701934814e-01
-2.055662125349044800e-01
-2.063872963190078735e-01
2.066888958215713501e-01
3.487688302993774414e-01
3.865416049957275391e-01
-1.817491501569747925e-01
-1.973723471164703369e-01
-4.363043606281280518e-01
6.434661149978637695e-02
-1.646897643804550171e-01
4.460003226995468140e-02
-3.483793437480926514e-01
-2.527227401733398438e-01
-1.003931984305381775e-01
-4.815444946289062500e-01
-1.194337010383605957e+00
-2.515014708042144775e-01
1.423137634992599487e-01
-2.068364918231964111e-01
-1.449024230241775513e-01
1.021037548780441284e-01
-1.025466322898864746e+00
-4.914193451404571533e-01
1.251038461923599243e-01
-4.664286971092224121e-01
-1.628988832235336304e-01
-2.525800466537475586e-01
-1.068149805068969727e+00
-8.003152161836624146e-02
