-1.248700544238090515e-02,3.508843109011650085e-02,-1.740623712539672852e-01,-2.158276736736297607e-02,7.111500948667526245e-03,-2.155488729476928711e-02,8.558099158108234406e-03,-9.777008555829524994e-03,-4.918186739087104797e-02,-6.327433977276086807e-03,-7.183126360177993774e-02,1.280873715877532959e-01,-7.799928635358810425e-02,-1.277443300932645798e-02,-3.481536731123924255e-02,-1.182770058512687683e-01,-8.799918740987777710e-02,-4.242221638560295105e-02,2.073175013065338135e-01,-1.687105745077133179e-01,2.671319060027599335e-02,-2.339065819978713989e-02,-2.450812608003616333e-01,1.190553978085517883e-01,1.564412843436002731e-03,-6.952466792427003384e-04,3.519990667700767517e-02,1.022444944828748703e-02,-5.510826408863067627e-02,-1.513622049242258072e-02,9.783968329429626465e-02,-4.295175895094871521e-03,-3.222422301769256592e-02,-4.519198089838027954e-02,1.578856855630874634e-01,1.482742093503475189e-02,5.343014001846313477e-02,-1.200511585921049118e-02,2.737724781036376953e-01,2.913461998105049133e-02,-9.014111012220382690e-02,8.986907079815864563e-03,-1.082141399383544922e-01,1.773667056113481522e-03,-8.212326094508171082e-03,-1.685804314911365509e-02,5.007902905344963074e-02,-1.345460209995508194e-02,6.230023223906755447e-03,9.929023683071136475e-03
