3.656284809112548828e-01,1.598731577396392822e-01,-6.281290650367736816e-01,-1.779650598764419556e-01,6.156421303749084473e-01,-4.641644954681396484e-01,-3.014330863952636719e-01,1.400560289621353149e-01,-6.504888534545898438e-01,3.422369658946990967e-01,-3.358437120914459229e-01,-5.936923623085021973e-01,4.214624166488647461e-01,-5.791622400283813477e-01,1.668447852134704590e-01,-2.169404774904251099e-01,-3.936700224876403809e-01,-3.197205662727355957e-01,3.042363822460174561e-01,-1.248399391770362854e-01
1.206280812621116638e-01,3.235430270433425903e-02,4.087546095252037048e-02,3.352446854114532471e-01,7.657366245985031128e-02,-1.690637618303298950e-01,1.774542331695556641e-01,2.554855048656463623e-01,1.485703289508819580e-01,3.049689531326293945e-01,6.448447704315185547e-02,1.332258731126785278e-01,4.285901784896850586e-03,-1.702298223972320557e-01,1.088910847902297974e-01,-2.046179026365280151e-02,-2.292588055133819580e-01,4.054098725318908691e-01,4.163717031478881836e-01,-2.810935974121093750e-01
-5.844721570611000061e-02,-4.649262726306915283e-01,2.001296132802963257e-01,2.913863956928253174e-02,-2.532519400119781494e-01,3.782641589641571045e-01,-9.683370590209960938e-01,4.587876200675964355e-01,8.795802295207977295e-02,-5.172339677810668945e-01,-2.042897641658782959e-01,-2.914742827415466309e-01,-3.681339323520660400e-01,5.373272895812988281e-01,-5.147460699081420898e-01,2.421715110540390015e-01,-1.656491458415985107e-01,5.939567089080810547e-01,1.457849740982055664e-01,1.789367571473121643e-02
1.700458973646163940e-01,-5.166699290275573730e-01,2.598077654838562012e-01,-2.253986150026321411e-01,-5.005745887756347656e-01,4.488225281238555908e-02,1.861171275377273560e-01,9.477430023252964020e-03,4.918982386589050293e-01,1.885984390974044800e-01,-1.766050308942794800e-01,4.288224875926971436e-02,1.308699604123830795e-02,-4.688076302409172058e-02,1.209827065467834473e-01,-3.491593301296234131e-01,-4.961650669574737549e-01,1.704168021678924561e-01,-4.924888014793395996e-01,2.049712538719177246e-01
-1.180287078022956848e-02,-3.145045936107635498e-01,-5.869882181286811829e-02,2.679510414600372314e-01,-7.970715165138244629e-01,-2.491658329963684082e-01,1.823738813400268555e-01,2.290367335081100464e-01,1.729692816734313965e-01,-1.075216680765151978e-01,6.776006519794464111e-02,-7.951679080724716187e-02,2.076755017042160034e-01,3.757465779781341553e-01,4.170165657997131348e-01,-1.433918774127960205e-01,6.926786154508590698e-02,-5.739120841026306152e-01,2.960847318172454834e-01,-6.575709674507379532e-03
3.307159245014190674e-01,6.601499319076538086e-01,-3.898091912269592285e-01,2.688259482383728027e-01,1.072242185473442078e-01,-2.530170083045959473e-01,-7.788731902837753296e-02,7.822072505950927734e-01,2.036056714132428169e-03,3.943744003772735596e-01,3.140247166156768799e-01,-7.641076296567916870e-02,-3.053797185420989990e-01,4.501857757568359375e-01,-5.263010859489440918e-01,2.835879325866699219e-01,-2.712957859039306641e-01,-3.544248342514038086e-01,-1.521064639091491699e-01,2.285313606262207031e-01
3.332288563251495361e-01,-1.076160907745361328e+00,-6.113136410713195801e-01,-4.325970709323883057e-01,-5.628926157951354980e-01,-6.635609865188598633e-01,-9.547487497329711914e-01,4.119218289852142334e-01,2.974565327167510986e-01,-6.178138852119445801e-01,6.463572382926940918e-01,-6.359237432479858398e-02,-3.176702260971069336e-01,-4.020856320858001709e-01,-4.946738183498382568e-01,1.800329834222793579e-01,6.725474596023559570e-01,-1.744236201047897339e-01,-5.521241426467895508e-01,4.186799526214599609e-01
-8.893998861312866211e-01,-4.159486889839172363e-01,2.232901602983474731e-01,2.486152350902557373e-01,-5.289954543113708496e-01,5.214804410934448242e-02,-2.777097821235656738e-01,1.464660763740539551e-01,6.472563147544860840e-01,-2.209474891424179077e-01,3.830588236451148987e-02,-5.565510690212249756e-02,-3.825353384017944336e-01,4.548557102680206299e-02,-3.358587622642517090e-01,-3.986378908157348633e-01,-2.557548880577087402e-01,4.193740189075469971e-01,-2.553120553493499756e-01,-9.226126074790954590e-01
-2.201534658670425415e-01,1.920658051967620850e-01,-6.367137432098388672e-01,-6.414269208908081055e-01,-5.185862183570861816e-01,-4.400979876518249512e-01,2.329024672508239746e-02,3.259467482566833496e-01,-1.940964162349700928e-01,1.001448407769203186e-01,3.488024771213531494e-01,4.552813470363616943e-01,3.353692591190338135e-01,-5.395027399063110352e-01,1.830600053071975708e-01,-3.975675627589225769e-02,3.770686984062194824e-01,-9.809631854295730591e-02,8.324039727449417114e-02,-2.458319813013076782e-01
2.657546699047088623e-01,-6.095045208930969238e-01,-2.180257141590118408e-01,4.391693770885467529e-01,3.533103168010711670e-01,-2.133697420358657837e-01,-8.614897131919860840e-01,-2.817043960094451904e-01,-4.958115145564079285e-02,1.103963777422904968e-01,-8.333205431699752808e-02,-5.083367824554443359e-01,4.251053035259246826e-01,-1.803531795740127563e-01,5.361599102616310120e-02,6.300253868103027344e-01,-4.935137033462524414e-01,7.225836068391799927e-02,3.743918240070343018e-01,4.502685666084289551e-01
2.897211313247680664e-01,-7.592205405235290527e-01,1.644636690616607666e-02,1.253943890333175659e-02,-3.302087485790252686e-01,-2.028641402721405029e-01,1.412707865238189697e-01,1.033927723765373230e-01,1.168366074562072754e-01,4.378167539834976196e-02,-5.767945051193237305e-01,-2.454792261123657227e-01,-7.589835524559020996e-01,3.952780961990356445e-01,-5.884228348731994629e-01,2.958924137055873871e-02,-7.049297094345092773e-01,3.439533710479736328e-01,-5.446369051933288574e-01,8.727108687162399292e-02
6.718850880861282349e-02,8.479639887809753418e-03,3.389179334044456482e-02,1.138155162334442139e-01,5.704951286315917969e-01,-8.290849924087524414e-01,-8.039898276329040527e-01,2.499681897461414337e-02,-1.186887621879577637e-01,1.546028554439544678e-01,-1.940027922391891479e-01,-3.169143795967102051e-01,1.691134870052337646e-01,-3.687714636325836182e-01,6.972479820251464844e-02,3.528869748115539551e-01,2.914059720933437347e-02,-8.234225511550903320e-01,2.373588681221008301e-01,3.646952807903289795e-01
3.973177075386047363e-01,-2.184534817934036255e-01,4.160023853182792664e-02,-1.788927763700485229e-01,5.789312124252319336e-01,-4.773971140384674072e-01,2.525735795497894287e-01,-2.450520247220993042e-01,-2.120796591043472290e-01,4.629601836204528809e-01,-3.274635374546051025e-01,-3.301649093627929688e-01,-2.645962536334991455e-01,6.208226084709167480e-02,2.235001325607299805e-01,1.142718344926834106e-01,4.002071171998977661e-02,-9.711728990077972412e-02,2.978918254375457764e-01,4.124109447002410889e-01
-1.213144585490226746e-01,-4.682964682579040527e-01,3.883236944675445557e-01,1.838980019092559814e-01,-4.713712930679321289e-01,1.071280241012573242e-01,-4.442599415779113770e-01,2.741373479366302490e-01,2.779754698276519775e-01,6.098451092839241028e-02,-4.241576492786407471e-01,1.700714081525802612e-01,-6.398234963417053223e-01,6.604982912540435791e-02,-7.251889705657958984e-01,-1.899702101945877075e-01,3.344131410121917725e-01,5.358455777168273926e-01,1.950509995222091675e-01,-6.157308816909790039e-01
-6.803151369094848633e-01,2.377200573682785034e-01,-2.613385207951068878e-02,1.116099432110786438e-01,-1.152456849813461304e-01,-3.535589575767517090e-01,-1.196748986840248108e-01,-9.402242898941040039e-01,-3.585029840469360352e-01,6.303805708885192871e-01,-9.399803876876831055e-01,2.379796206951141357e-01,-3.594478666782379150e-01,4.371297359466552734e-01,-4.390293061733245850e-01,4.468483030796051025e-01,-4.180718660354614258e-01,-2.320790439844131470e-01,2.925111949443817139e-01,-5.108374357223510742e-01
1.368498951196670532e-01,-2.978141605854034424e-01,9.267187118530273438e-02,-2.305336594581604004e-01,-5.233783125877380371e-01,4.046544730663299561e-01,3.153623342514038086e-01,-2.933233082294464111e-01,2.762121856212615967e-01,-1.245322525501251221e-01,8.688978850841522217e-02,-1.136403456330299377e-01,-3.122944533824920654e-01,2.916496396064758301e-01,1.343598067760467529e-01,-3.709083795547485352e-01,-6.750003099441528320e-01,4.386275708675384521e-01,1.453151404857635498e-01,-6.583071947097778320e-01
1.115431636571884155e-02,1.584664732217788696e-01,-2.670274972915649414e-01,-6.912646293640136719e-01,3.806966822594404221e-03,2.472087442874908447e-01,-1.445674598217010498e-01,3.247462213039398193e-01,-2.006465941667556763e-01,-1.400743331760168076e-02,2.342924326658248901e-01,1.716443300247192383e-01,-1.740468442440032959e-01,-4.429821297526359558e-02,7.102318853139877319e-02,3.621506392955780029e-01,1.258667856454849243e-01,-3.113676309585571289e-01,2.550265053287148476e-04,-1.384866684675216675e-01
-3.223556876182556152e-01,-7.130001187324523926e-01,8.785256743431091309e-02,4.558831155300140381e-01,4.972966909408569336e-01,3.940418660640716553e-01,3.491857647895812988e-01,-2.782681584358215332e-01,7.817739620804786682e-03,-5.229976773262023926e-02,-3.320500850677490234e-01,-3.122753798961639404e-01,1.915189027786254883e-01,1.748624294996261597e-01,1.138737201690673828e-01,-3.089960813522338867e-01,8.898110687732696533e-02,6.487797200679779053e-02,8.334442973136901855e-02,8.066144585609436035e-02
-4.277152121067047119e-01,5.780450105667114258e-01,1.366471946239471436e-01,-2.985525727272033691e-01,-4.322617053985595703e-01,-5.524058938026428223e-01,2.019592225551605225e-01,-1.979387998580932617e-01,-1.745682656764984131e-01,1.007295772433280945e-02,1.487718820571899414e-01,2.045328468084335327e-01,-6.422904133796691895e-01,3.775646984577178955e-01,2.100204080343246460e-01,5.210052132606506348e-01,1.964613497257232666e-01,-1.773905009031295776e-01,-2.512287497520446777e-01,-5.593653321266174316e-01
1.291386038064956665e-01,-4.433850944042205811e-01,9.920085966587066650e-02,1.806934624910354614e-01,4.261102974414825439e-01,3.148356219753623009e-03,3.689027130603790283e-01,-8.761672973632812500e-01,4.166443049907684326e-01,-2.940821945667266846e-01,1.072817444801330566e-01,-3.721559941768646240e-01,2.281023934483528137e-02,-3.269449174404144287e-01,1.362456977367401123e-01,3.037584722042083740e-01,-1.790617406368255615e-01,-3.285211324691772461e-01,1.019985899329185486e-01,1.000526472926139832e-01
