-4.026586934924125671e-02,-2.868448495864868164e-01,-2.140351086854934692e-01,-3.784043248742818832e-03,3.250705450773239136e-02,2.137147635221481323e-01,-7.212507724761962891e-02,1.080104634165763855e-01,-1.862909458577632904e-02,3.558516502380371094e-02,-1.756530106067657471e-01,2.312401086091995239e-01,-7.414513081312179565e-02,-1.731774359941482544e-01,7.120157033205032349e-02,3.229589387774467468e-02,-1.435063332319259644e-01,-2.579154670238494873e-01,-2.418266609311103821e-02,-8.854690194129943848e-02,-3.318019583821296692e-02,-2.327990978956222534e-01,2.079393416643142700e-01,5.972294136881828308e-02,-3.023191094398498535e-01,1.687853783369064331e-01,-1.435987800359725952e-01,-5.775453522801399231e-02,1.090957224369049072e-01,1.314416825771331787e-01,4.635633528232574463e-02,-9.157326817512512207e-02,-1.494034379720687866e-01,-1.701559126377105713e-01,1.025595813989639282e-01,2.129813879728317261e-01,2.424180954694747925e-01,1.117897108197212219e-01,6.062497198581695557e-02,-2.355851233005523682e-01,1.018088236451148987e-01,-5.971286445856094360e-02,-6.660708039999008179e-02,-7.846735417842864990e-02,4.709719121456146240e-02,-5.020996928215026855e-02,-1.895369738340377808e-01,-1.121481601148843765e-02,2.380559034645557404e-02,-3.708717599511146545e-02
-4.189564660191535950e-02,-2.020294815301895142e-01,1.578762829303741455e-01,-6.980133056640625000e-02,1.758403629064559937e-01,-1.545368582010269165e-01,-1.121885105967521667e-01,-8.729795366525650024e-02,-5.758630111813545227e-02,2.504093945026397705e-01,-1.576428487896919250e-02,-1.438315063714981079e-01,4.285706952214241028e-02,-1.480316966772079468e-01,-3.382932394742965698e-02,-2.157379686832427979e-02,-1.472080349922180176e-01,-3.606206923723220825e-02,-2.418258339166641235e-01,5.809726193547248840e-02,-2.187117636203765869e-01,-2.462041974067687988e-01,8.059987425804138184e-02,1.338746249675750732e-01,3.785789757966995239e-02,-1.683532893657684326e-01,1.244788989424705505e-02,-1.143791303038597107e-01,1.267102956771850586e-01,-2.145434319972991943e-01,-1.937775909900665283e-01,8.907555043697357178e-02,-2.474677748978137970e-02,1.352839916944503784e-01,8.658826351165771484e-02,1.092234998941421509e-01,1.723873764276504517e-01,3.209984302520751953e-01,5.218476429581642151e-02,-1.106852293014526367e-01,7.054901681840419769e-03,7.657689601182937622e-02,1.394014656543731689e-01,-1.444084220565855503e-03,2.207394838333129883e-01,-8.462800085544586182e-02,-1.824694871902465820e-01,-1.312590241432189941e-01,-2.128584533929824829e-01,-1.722086593508720398e-02
1.001625582575798035e-01,-2.767584323883056641e-01,-2.533684670925140381e-01,1.380112618207931519e-01,-6.239664740860462189e-03,-1.756392419338226318e-01,-7.229202240705490112e-02,1.069334372878074646e-01,-3.002533316612243652e-01,1.441788394004106522e-03,5.954591184854507446e-02,3.450697362422943115e-01,1.563833653926849365e-02,-6.478665769100189209e-02,2.403990775346755981e-01,-1.058768928050994873e-01,2.630123794078826904e-01,-1.370525658130645752e-01,7.641652971506118774e-02,5.122584849596023560e-02,1.089501604437828064e-01,2.079432606697082520e-01,2.952197752892971039e-02,-9.369975887238979340e-03,2.179047018289566040e-01,2.316410094499588013e-01,-2.802428305149078369e-01,7.790776342153549194e-02,5.821548029780387878e-02,-4.842050373554229736e-01,9.221950918436050415e-02,8.090746402740478516e-02,2.607585676014423370e-02,2.579062283039093018e-01,-3.644204139709472656e-01,2.238100171089172363e-01,-3.472546935081481934e-01,4.812242090702056885e-02,1.919952332973480225e-01,1.032232716679573059e-01,-1.399316042661666870e-01,-2.366901040077209473e-01,-7.055562734603881836e-02,-1.000623684376478195e-02,6.376571208238601685e-02,1.086278036236763000e-01,1.731718033552169800e-01,-8.992499858140945435e-02,-7.605595886707305908e-02,2.510519325733184814e-01
-1.625642627477645874e-01,-3.381187021732330322e-01,-2.959703207015991211e-01,-9.235711395740509033e-02,1.864580810070037842e-01,6.052165850996971130e-02,-2.029596269130706787e-01,-1.736478656530380249e-01,-9.940052032470703125e-02,2.637648880481719971e-01,1.791908144950866699e-01,-1.006921231746673584e-01,-9.386609494686126709e-02,7.935826666653156281e-03,1.014678552746772766e-01,-3.052344024181365967e-01,-6.846541911363601685e-02,-1.781511753797531128e-01,-2.163802236318588257e-01,6.710649281740188599e-02,-3.981222584843635559e-02,-4.084518551826477051e-02,2.187782898545265198e-02,3.738712146878242493e-02,1.393254250288009644e-01,2.180134318768978119e-02,-2.118386030197143555e-01,-2.358823567628860474e-01,-2.777738273143768311e-01,6.134901568293571472e-02,-1.542663723230361938e-01,-1.822317242622375488e-01,2.591497004032135010e-01,2.905763499438762665e-02,1.453983946703374386e-03,-1.611372977495193481e-01,-2.027718275785446167e-01,-1.409424841403961182e-01,-1.453827172517776489e-01,7.188423722982406616e-02,2.252250015735626221e-01,-1.506907306611537933e-02,1.144105419516563416e-01,-1.836655102670192719e-02,-1.503138691186904907e-01,1.575861424207687378e-01,2.102478891611099243e-01,-1.240591555833816528e-01,7.637488842010498047e-02,-1.801037043333053589e-02
-1.892087981104850769e-02,-1.121763437986373901e-01,-2.111065238714218140e-01,3.463007509708404541e-01,-6.966189295053482056e-02,-1.559565067291259766e-01,-2.708728313446044922e-01,1.355067044496536255e-01,-2.207192629575729370e-01,1.497114449739456177e-01,1.967284381389617920e-01,4.494225233793258667e-02,2.995404414832592010e-02,-1.442640721797943115e-01,-1.111298128962516785e-01,-6.319413427263498306e-03,-1.675991415977478027e-01,-1.262749731540679932e-01,-2.434486895799636841e-01,-4.407525993883609772e-03,-4.769695177674293518e-02,-2.721697092056274414e-02,9.950522333383560181e-02,1.321413069963455200e-01,8.199964463710784912e-02,-1.120795905590057373e-01,-1.674489229917526245e-01,-9.941308200359344482e-02,-7.078360021114349365e-02,-2.672633230686187744e-01,1.617477834224700928e-02,-1.117684841156005859e-01,1.879623234272003174e-01,-8.371385186910629272e-02,2.292154170572757721e-02,-4.011986777186393738e-02,1.475332230329513550e-01,-8.587788790464401245e-02,-1.655713021755218506e-01,1.189079061150550842e-01,-1.422576457262039185e-01,1.349456608295440674e-01,-2.158915065228939056e-02,-2.074973583221435547e-01,6.892184168100357056e-02,-1.981262564659118652e-01,-7.538919895887374878e-02,6.442538648843765259e-02,-2.012618780136108398e-01,1.705052852630615234e-01
2.850290620699524879e-03,-3.288221359252929688e-02,-1.212815195322036743e-01,1.077676117420196533e-01,1.136089265346527100e-01,-1.109709590673446655e-01,-2.599558420479297638e-02,-6.581710278987884521e-02,-7.045020908117294312e-02,1.144809350371360779e-01,-1.147898063063621521e-01,1.164393350481987000e-01,-1.518494486808776855e-01,-3.550097718834877014e-02,2.439043112099170685e-02,-8.113009482622146606e-02,-2.899067848920822144e-02,-1.500097848474979401e-02,1.873710891231894493e-03,4.909508675336837769e-02,1.265739947557449341e-01,-1.225574165582656860e-01,-1.780061423778533936e-01,-8.785949088633060455e-03,-8.363690227270126343e-02,7.274970412254333496e-02,-2.208098322153091431e-01,-1.901460782391950488e-04,2.200861871242523193e-01,1.251136362552642822e-01,-4.886252060532569885e-02,8.198340982198715210e-02,3.398899454623460770e-03,-1.322029232978820801e-01,-6.155754253268241882e-02,3.267531096935272217e-02,1.218588799238204956e-01,-1.315653920173645020e-01,1.081368848681449890e-01,-1.168844252824783325e-01,1.519050449132919312e-01,-4.082540795207023621e-02,-1.233750134706497192e-01,-1.230770424008369446e-01,-1.206151098012924194e-01,-1.532252877950668335e-01,2.197939753532409668e-01,2.310923784971237183e-01,-9.733725339174270630e-02,5.758757237344980240e-03
-9.516333043575286865e-02,-6.178178265690803528e-02,8.558250963687896729e-02,7.183343172073364258e-02,7.938668876886367798e-02,-1.090046167373657227e-01,1.099918410181999207e-01,1.166855245828628540e-01,1.809042394161224365e-01,-1.885880774352699518e-04,-1.547141522169113159e-01,-2.417839765548706055e-01,1.047031357884407043e-01,1.756964623928070068e-01,6.651995331048965454e-02,7.449260912835597992e-03,-1.718251556158065796e-01,-1.056606508791446686e-02,-6.800290942192077637e-02,2.874605357646942139e-02,4.437135159969329834e-02,-1.401228159666061401e-01,1.472937911748886108e-01,-5.143807828426361084e-02,2.118516266345977783e-01,-1.065771579742431641e-01,1.771737933158874512e-01,1.216998472809791565e-01,2.193728089332580566e-02,-1.524181962013244629e-01,3.877544775605201721e-02,-9.597324579954147339e-02,2.742822766304016113e-01,1.051032468676567078e-01,-6.675157230347394943e-03,-3.506855294108390808e-02,-4.633909836411476135e-02,6.075561419129371643e-02,7.479084655642509460e-03,1.783368587493896484e-01,-1.834253370761871338e-01,-4.642511159181594849e-02,-9.981736540794372559e-02,-9.409210085868835449e-02,-1.640967577695846558e-01,-7.040619850158691406e-02,-1.753339320421218872e-01,-5.814827606081962585e-02,-1.313311606645584106e-01,3.552266955375671387e-02
8.852163702249526978e-02,-1.189554706215858459e-01,-1.240226402878761292e-01,1.175097003579139709e-01,-2.253752648830413818e-01,2.084895968437194824e-03,2.216743528842926025e-01,-2.552807629108428955e-01,9.378924220800399780e-02,2.687458395957946777e-01,1.121964678168296814e-02,2.629014551639556885e-01,-2.883524894714355469e-01,-2.451504208147525787e-02,3.536650165915489197e-02,-3.233747184276580811e-02,1.483357399702072144e-01,-1.976364254951477051e-01,8.625898510217666626e-02,4.657249525189399719e-02,1.399342864751815796e-01,-2.195739299058914185e-01,1.774387210607528687e-01,3.387547284364700317e-02,-2.064200937747955322e-01,1.840607821941375732e-01,-1.351877301931381226e-01,-1.010598093271255493e-01,1.268242448568344116e-01,-9.385411976836621761e-04,-5.269030854105949402e-02,5.416550859808921814e-02,4.138127714395523071e-02,-5.072879791259765625e-02,1.241199485957622528e-02,-2.302056737244129181e-02,-1.197584439069032669e-02,7.487234473228454590e-02,-1.739835292100906372e-01,-5.765161290764808655e-02,5.323877558112144470e-03,2.003590576350688934e-02,8.093524724245071411e-02,-1.190609484910964966e-01,4.465013742446899414e-02,-3.362384811043739319e-02,-2.007405757904052734e-01,1.793999671936035156e-01,-1.370755285024642944e-01,-2.596291005611419678e-01
2.883487381041049957e-02,2.514788066036999226e-04,-1.492505520582199097e-01,-1.537293344736099243e-01,-1.458763778209686279e-01,2.293031960725784302e-01,-2.724933624267578125e-01,-1.818393170833587646e-01,-9.983226656913757324e-03,-1.961611956357955933e-01,1.886082440614700317e-01,8.124511688947677612e-02,5.843188986182212830e-02,4.512088745832443237e-02,-5.804412066936492920e-02,-1.736593395471572876e-01,-2.530070543289184570e-01,1.218357682228088379e-01,-3.082893788814544678e-01,-1.382716298103332520e-01,4.603814706206321716e-02,2.216238975524902344e-01,1.272704899311065674e-01,-2.245725691318511963e-01,-1.145927906036376953e-01,5.982958525419235229e-02,-1.669963076710700989e-02,-1.483671069145202637e-01,-2.269675284624099731e-01,-2.219750732183456421e-02,-1.599676907062530518e-02,-7.249217480421066284e-02,1.064965501427650452e-01,-9.310007840394973755e-02,-1.407986283302307129e-01,1.944184452295303345e-01,6.299895234405994415e-03,4.357175529003143311e-02,1.124386116862297058e-01,-3.481277227401733398e-01,-1.064667105674743652e-01,1.102177128195762634e-01,-7.043676078319549561e-02,-2.117010205984115601e-01,-2.673701643943786621e-01,-1.655427664518356323e-01,2.922857701778411865e-01,7.636829465627670288e-02,-8.583043701946735382e-03,5.727997422218322754e-02
4.082463309168815613e-02,-1.004311442375183105e-01,-3.032036125659942627e-02,-2.737745642662048340e-02,-2.516925334930419922e-01,-2.569250166416168213e-01,1.665796041488647461e-01,8.464030176401138306e-02,1.455703377723693848e-01,-9.009341895580291748e-02,8.223842829465866089e-02,1.308279335498809814e-01,9.265539050102233887e-02,2.572304010391235352e-02,-7.382625248283147812e-03,4.506878554821014404e-02,1.366813778877258301e-01,7.485187053680419922e-02,4.027781262993812561e-02,1.349251437932252884e-02,-9.381262958049774170e-02,2.173234820365905762e-01,-3.080368340015411377e-01,-8.278355002403259277e-02,5.522419139742851257e-02,5.281979218125343323e-02,-1.218860447406768799e-01,-1.091730892658233643e-01,1.042205169796943665e-01,1.521187741309404373e-02,-3.379906062036752701e-03,-7.129104435443878174e-02,1.100177988409996033e-01,3.664096351712942123e-03,2.629652060568332672e-02,-1.130120977759361267e-01,1.004437953233718872e-01,2.314261198043823242e-01,-1.360247731208801270e-01,-6.716462224721908569e-02,-1.514524519443511963e-01,-5.064509809017181396e-02,-2.478287070989608765e-01,-1.742406189441680908e-01,1.383561939001083374e-01,1.693734228610992432e-01,-5.057347938418388367e-02,-2.173455357551574707e-01,-1.585024297237396240e-01,-6.998954713344573975e-02
-8.456097543239593506e-02,1.305325794965028763e-02,-1.428581122308969498e-02,2.416841872036457062e-02,2.865624427795410156e-01,2.071187347173690796e-01,-3.172066807746887207e-01,2.787724323570728302e-02,2.469584047794342041e-01,-1.126311793923377991e-01,-2.781593203544616699e-01,-1.730811148881912231e-01,-1.478508710861206055e-01,-6.665245443582534790e-02,-1.575602889060974121e-01,-3.857079148292541504e-01,1.613692343235015869e-01,2.255600690841674805e-02,-2.137443125247955322e-01,2.575791478157043457e-01,7.401914149522781372e-02,-8.809420466423034668e-02,1.611384600400924683e-01,-9.613814204931259155e-02,1.543354839086532593e-01,-2.874163724482059479e-02,1.755133420228958130e-01,-4.198921620845794678e-01,-4.092415049672126770e-02,-8.542992174625396729e-02,-2.924894094467163086e-01,-1.638876646757125854e-01,-1.727828681468963623e-01,1.705537736415863037e-01,1.021813154220581055e-01,1.299512088298797607e-01,-2.149330824613571167e-01,-9.868083149194717407e-02,1.268415302038192749e-01,-3.376782834529876709e-01,-5.690515041351318359e-02,-1.579424291849136353e-01,-2.968300282955169678e-01,1.150022000074386597e-01,1.477106511592864990e-01,3.951039910316467285e-02,7.912795990705490112e-02,-1.380125731229782104e-01,1.158414557576179504e-01,1.730540394783020020e-01
6.304251402616500854e-02,-3.630612492561340332e-01,-1.273342370986938477e-01,-2.668510079383850098e-01,-1.711240559816360474e-01,-2.475825697183609009e-01,-1.499066352844238281e-01,-2.748401761054992676e-01,3.596448525786399841e-02,5.968634039163589478e-02,1.665148437023162842e-01,3.026488795876502991e-02,-9.004458785057067871e-02,-1.095077097415924072e-01,1.899911612272262573e-01,-2.600893974304199219e-01,-3.972822725772857666e-01,-4.148966819047927856e-02,1.117749214172363281e-01,2.584341354668140411e-02,1.671749949455261230e-01,-2.942966818809509277e-01,1.234810724854469299e-01,1.981302052736282349e-01,1.625550389289855957e-01,5.988743901252746582e-02,2.136003971099853516e-01,-4.552467912435531616e-02,-2.199367135763168335e-01,-1.806485205888748169e-01,-1.102318987250328064e-01,1.459711343050003052e-01,-1.031610965728759766e-01,-2.548758089542388916e-01,2.564514279365539551e-01,9.225806593894958496e-02,-3.807736039161682129e-01,-1.941691637039184570e-01,-6.619070768356323242e-01,-1.344610154628753662e-01,-8.817208558320999146e-02,-4.049821794033050537e-01,-3.899152278900146484e-01,-1.702699214220046997e-01,1.568001210689544678e-01,5.359337106347084045e-02,1.225999295711517334e-01,-1.363807767629623413e-01,-1.223904639482498169e-01,-2.117720246315002441e-02
-3.144941926002502441e-01,1.515461653470993042e-01,-1.370999813079833984e-01,-5.376487970352172852e-02,-2.469875961542129517e-01,-1.943576186895370483e-01,-1.147865802049636841e-01,-2.700242586433887482e-02,1.008319854736328125e-01,-6.488619744777679443e-02,1.321089919656515121e-02,-1.892154514789581299e-01,-1.071923524141311646e-01,7.248102128505706787e-02,3.220964670181274414e-01,-1.432230770587921143e-01,-1.784289926290512085e-01,7.182341068983078003e-02,-8.713026344776153564e-02,1.886875182390213013e-02,-2.113032527267932892e-02,7.925461977720260620e-02,-1.082778871059417725e-01,-2.339045852422714233e-01,7.277633994817733765e-02,6.836947984993457794e-03,8.799642324447631836e-02,-9.502539038658142090e-02,-1.115459874272346497e-01,-1.685251444578170776e-01,-1.728632897138595581e-01,8.432682603597640991e-02,-8.948383480310440063e-02,-1.320585161447525024e-01,-2.007329165935516357e-01,-3.671225532889366150e-02,3.577684760093688965e-01,-1.379488408565521240e-02,3.577724471688270569e-02,-3.312748968601226807e-01,7.242056727409362793e-02,1.078404635190963745e-01,1.821563392877578735e-01,-1.922734081745147705e-01,2.650356590747833252e-01,-9.824793040752410889e-02,-8.328624069690704346e-02,-2.187561094760894775e-01,-2.246922999620437622e-01,-5.168214440345764160e-01
1.217433288693428040e-01,5.354557558894157410e-02,5.530180409550666809e-02,1.157690584659576416e-01,3.527034074068069458e-02,7.222794461995363235e-03,-1.351314634084701538e-01,2.149288207292556763e-01,-3.268054425716400146e-01,-2.189023494720458984e-01,-7.072027772665023804e-02,-1.468599289655685425e-01,1.263848990201950073e-01,-7.397777400910854340e-03,-7.065773010253906250e-02,-1.023657321929931641e-01,1.837823353707790375e-02,-1.892015784978866577e-01,-1.276521682739257812e-01,-2.142589986324310303e-01,-2.243898250162601471e-02,2.131427377462387085e-01,-1.131016537547111511e-01,-1.628424525260925293e-01,4.379167407751083374e-02,-9.418947994709014893e-02,2.277587354183197021e-01,-1.589129567146301270e-01,-1.848379522562026978e-01,2.567484788596630096e-02,4.211030155420303345e-02,1.046378314495086670e-01,-1.398755759000778198e-01,2.665460854768753052e-02,-4.030814766883850098e-02,-6.008058413863182068e-02,-2.296567708253860474e-01,-2.121433913707733154e-01,-1.351138204336166382e-01,1.121140569448471069e-01,2.801209092140197754e-01,-5.740429833531379700e-02,4.444175586104393005e-02,-1.378302425146102905e-01,-8.805759251117706299e-02,3.251107037067413330e-02,7.436123490333557129e-02,-1.404960006475448608e-01,-2.989332377910614014e-02,6.921730935573577881e-02
-1.103336662054061890e-01,4.732638224959373474e-02,1.165790036320686340e-01,1.710477918386459351e-01,-9.532068669795989990e-02,8.430595509707927704e-03,-7.723833550699055195e-04,-2.237654626369476318e-01,7.883260399103164673e-02,1.961277872323989868e-01,-5.520037934184074402e-02,-2.749322652816772461e-01,2.109051942825317383e-01,-2.047907561063766479e-01,1.423937082290649414e-01,8.332577534019947052e-03,-4.078034684062004089e-02,2.414728701114654541e-01,-1.350426673889160156e-01,2.282732576131820679e-01,2.009565830230712891e-01,7.828955352306365967e-02,1.003365218639373779e-01,-1.906044036149978638e-01,-5.265613645315170288e-02,1.031813025474548340e-01,3.190310895442962646e-01,1.454294472932815552e-01,1.668644696474075317e-01,-5.994030088186264038e-02,5.137895047664642334e-02,-3.818946331739425659e-02,-3.145052194595336914e-01,7.184030860662460327e-02,-2.158533036708831787e-01,3.586122095584869385e-01,-3.566829562187194824e-01,-4.525382071733474731e-02,-5.196737498044967651e-02,1.000565961003303528e-01,2.468627179041504860e-03,-8.092961460351943970e-02,1.475620120763778687e-01,1.123755425214767456e-01,-2.589708864688873291e-01,-1.516210585832595825e-01,-2.204899489879608154e-01,-1.304337382316589355e-01,-1.826928704977035522e-01,-9.038314223289489746e-03
-5.459190905094146729e-02,1.877982169389724731e-01,3.169843256473541260e-01,-3.828638419508934021e-02,-1.605720371007919312e-01,6.563665717840194702e-02,3.199135139584541321e-02,3.893394395709037781e-02,1.658225357532501221e-01,1.185328215360641479e-01,4.021750763058662415e-03,-1.511993706226348877e-01,-1.913369596004486084e-01,2.308158017694950104e-02,2.448383159935474396e-02,-6.269419193267822266e-02,-1.114071086049079895e-01,9.462954103946685791e-02,-1.528531014919281006e-01,-1.266853064298629761e-01,2.605286426842212677e-02,2.507441863417625427e-02,-3.011247813701629639e-01,4.509509354829788208e-02,2.998193539679050446e-02,-3.135425224900245667e-02,4.500657618045806885e-01,-8.107411116361618042e-02,-1.910014450550079346e-01,4.310545623302459717e-01,-1.388604193925857544e-01,-1.936900988221168518e-02,3.211263418197631836e-01,5.045666173100471497e-02,-8.846042677760124207e-03,-2.307815253734588623e-01,4.428593218326568604e-01,4.040182754397392273e-02,-1.153451800346374512e-01,-4.476086199283599854e-01,3.254981935024261475e-01,2.065353691577911377e-01,-8.718232065439224243e-02,1.324949562549591064e-01,-4.176668357104063034e-03,1.583805680274963379e-01,-1.912026554346084595e-01,-1.965636387467384338e-03,-3.928325474262237549e-01,-4.266802966594696045e-01
-2.803191840648651123e-01,-3.972750008106231689e-01,-1.642882674932479858e-01,1.501085907220840454e-01,-7.965817302465438843e-02,2.345865219831466675e-01,9.866217523813247681e-02,9.713985770940780640e-02,1.339949220418930054e-01,-9.287125617265701294e-02,1.391195505857467651e-02,5.983144417405128479e-02,-2.506978511810302734e-01,2.103580832481384277e-01,9.043503552675247192e-02,-5.324900150299072266e-01,6.637255847454071045e-02,-2.294801473617553711e-01,-3.358498215675354004e-02,3.798731043934822083e-02,2.459680587053298950e-01,-2.109062671661376953e-01,-1.813499927520751953e-01,-9.333688765764236450e-03,-1.719894707202911377e-01,-1.688043922185897827e-01,1.109318658709526062e-01,-3.512036800384521484e-01,-3.022873997688293457e-01,-1.551658809185028076e-01,4.387127980589866638e-02,7.817922532558441162e-02,1.238132826983928680e-02,3.055201098322868347e-02,-2.471185326576232910e-01,1.139667183160781860e-01,-1.755494028329849243e-01,1.367402374744415283e-01,1.795336045324802399e-02,7.620158046483993530e-02,-1.706202179193496704e-01,-2.909303903579711914e-01,-6.954953819513320923e-02,1.062217727303504944e-01,1.280645281076431274e-01,6.936434656381607056e-02,1.586403697729110718e-01,6.928738951683044434e-02,2.026224136352539062e-01,-1.403445750474929810e-01
-2.267501354217529297e-01,-2.627159655094146729e-01,-2.138100564479827881e-01,7.177618145942687988e-02,5.104266479611396790e-02,-6.949635595083236694e-02,-1.114679872989654541e-01,1.433594524860382080e-01,-5.234013125300407410e-02,1.461349129676818848e-01,-4.191049933433532715e-02,1.340403109788894653e-01,-1.344363391399383545e-01,-1.433501541614532471e-01,2.433922737836837769e-01,-3.664212226867675781e-01,-3.283883631229400635e-02,-1.823161244392395020e-01,6.426483392715454102e-02,2.197671532630920410e-01,-1.271551102399826050e-02,-1.556727737188339233e-01,7.746428251266479492e-02,-9.676849842071533203e-02,7.558538019657135010e-02,-1.105030905455350876e-02,-1.249312534928321838e-01,-2.277589887380599976e-01,-5.225238949060440063e-02,-1.305454820394515991e-01,7.386404555290937424e-03,1.632551401853561401e-01,1.466405577957630157e-02,8.771635591983795166e-02,2.726394236087799072e-01,2.137909084558486938e-01,-1.398722380399703979e-01,8.220894634723663330e-02,-3.887882083654403687e-02,-8.114998787641525269e-02,9.918002784252166748e-02,-2.063897401094436646e-01,-3.784130141139030457e-02,1.175046712160110474e-01,7.238190621137619019e-02,2.075133621692657471e-01,-1.455565840005874634e-01,-2.816603751853108406e-03,-1.816280186176300049e-01,5.378977954387664795e-02
3.171036541461944580e-01,-4.988287761807441711e-02,-1.762992292642593384e-01,1.303569786250591278e-02,1.800356507301330566e-01,-1.943969400599598885e-03,1.294029951095581055e-01,-2.998634874820709229e-01,-1.927297562360763550e-01,3.114913403987884521e-01,-1.464240849018096924e-01,-1.401553899049758911e-01,1.157933147624135017e-03,-6.073994096368551254e-03,-1.031579822301864624e-01,1.853708773851394653e-01,-2.686682939529418945e-01,6.196031719446182251e-02,2.091709077358245850e-01,2.248645201325416565e-02,-4.254860058426856995e-02,-5.367445573210716248e-02,-2.568314671516418457e-01,-7.835165411233901978e-02,-1.018250267952680588e-02,-2.188818156719207764e-01,6.050479412078857422e-02,3.000703454017639160e-01,-2.670671939849853516e-01,6.799591332674026489e-02,-2.151618599891662598e-01,-1.057508811354637146e-01,-1.735635846853256226e-01,-3.110673427581787109e-01,1.788665354251861572e-01,2.189015271142125130e-03,-2.959622740745544434e-01,8.256379514932632446e-02,-3.687151968479156494e-01,-1.352390646934509277e-01,1.442137807607650757e-01,-7.015898078680038452e-02,-1.923104822635650635e-01,-1.300172954797744751e-01,-1.202964335680007935e-01,-8.271043747663497925e-02,-2.121405899524688721e-01,-9.202553331851959229e-02,-2.969778887927532196e-02,-6.022778525948524475e-02
-3.078896999359130859e-01,1.263494938611984253e-01,4.503986835479736328e-01,-1.914932727813720703e-01,3.747710958123207092e-02,2.336731255054473877e-01,1.768485158681869507e-01,-1.045446563512086868e-02,2.175924181938171387e-01,1.244038157165050507e-02,-2.072078734636306763e-02,-2.540107965469360352e-01,-2.158821523189544678e-01,4.352767169475555420e-01,-1.336922049522399902e-01,1.489406824111938477e-01,1.715863198041915894e-01,2.147161029279232025e-02,1.376850605010986328e-01,2.143281698226928711e-01,-4.268106073141098022e-03,-1.588391661643981934e-01,-9.145218878984451294e-03,5.634442716836929321e-02,-4.573919996619224548e-02,-1.927798241376876831e-01,4.836929030716419220e-03,-6.772108376026153564e-02,-3.603594601154327393e-01,4.233140051364898682e-01,5.926247686147689819e-03,2.170799076557159424e-01,4.644951820373535156e-01,-1.429134607315063477e-01,-4.592536762356758118e-02,-2.801331281661987305e-01,3.146491050720214844e-01,2.265720963478088379e-01,-1.174320876598358154e-01,-3.094143271446228027e-01,2.481345236301422119e-01,3.312128484249114990e-01,-3.285507559776306152e-01,-2.615027129650115967e-01,6.719786673784255981e-02,1.505100727081298828e-01,-1.497676074504852295e-01,1.105019822716712952e-01,-4.496101140975952148e-01,-5.310422778129577637e-01
-1.046131923794746399e-01,1.098740193992853165e-02,-1.899737417697906494e-01,-2.207476645708084106e-02,-1.229987218976020813e-01,3.182152286171913147e-02,8.183739334344863892e-02,1.910879649221897125e-02,-2.152250856161117554e-01,1.181887090206146240e-01,1.563012748956680298e-01,-9.575486183166503906e-02,2.879500985145568848e-01,-1.633905321359634399e-01,-7.235167920589447021e-02,-1.076909601688385010e-01,-1.488824337720870972e-01,2.501460611820220947e-01,-1.662222594022750854e-01,-4.436386749148368835e-03,2.125287353992462158e-01,-1.286237984895706177e-01,7.909681648015975952e-02,-6.548496335744857788e-02,-7.244194298982620239e-02,1.423278450965881348e-01,-2.392096966505050659e-01,3.501646593213081360e-02,4.606976360082626343e-02,1.519150137901306152e-01,-9.918034821748733521e-02,-3.720878064632415771e-02,1.830959022045135498e-01,-3.673436120152473450e-02,7.366081327199935913e-02,1.133037880063056946e-01,5.787873640656471252e-03,-2.139466702938079834e-01,-4.883527383208274841e-02,-1.000668331980705261e-01,8.209906518459320068e-02,-1.685290224850177765e-02,1.491087488830089569e-02,5.920448154211044312e-02,1.022772192955017090e-01,1.209118589758872986e-01,-4.856483545154333115e-03,-2.131345123052597046e-02,5.060067400336265564e-03,-6.640634685754776001e-02
9.499108418822288513e-03,7.598658651113510132e-02,-1.491109430789947510e-01,-7.628235220909118652e-02,1.542586982250213623e-01,-9.890159964561462402e-02,-1.563218794763088226e-02,-1.016531884670257568e-01,7.243395596742630005e-02,-5.156692862510681152e-02,-2.109250426292419434e-01,-6.775816436856985092e-03,-3.473528102040290833e-02,-1.965747028589248657e-01,-4.441901575773954391e-03,3.786543617025017738e-03,2.424163743853569031e-02,-1.578552834689617157e-02,-1.041326895356178284e-01,1.400516331195831299e-01,2.866221964359283447e-01,8.936494588851928711e-02,1.132173277437686920e-02,1.197877675294876099e-01,-6.054836884140968323e-02,-4.144498333334922791e-02,-8.843436092138290405e-02,-1.293151974678039551e-01,1.353970319032669067e-01,2.741171233355998993e-02,-1.601877808570861816e-02,1.364471167325973511e-01,1.881575286388397217e-01,7.489812374114990234e-02,8.702602982521057129e-02,-7.235027151182293892e-04,-1.034133881330490112e-01,-2.520663663744926453e-03,-5.164517462253570557e-02,-1.918050833046436310e-02,1.780039966106414795e-01,7.637256290763616562e-03,-7.398597896099090576e-02,3.553117439150810242e-02,-3.547064960002899170e-02,1.905137300491333008e-02,4.699543491005897522e-02,-7.643741369247436523e-02,-6.326795369386672974e-02,3.200764581561088562e-02
-5.653800368309020996e-01,-2.605665624141693115e-01,-1.245305165648460388e-01,3.177237522322684526e-04,1.564024090766906738e-01,-1.282831747084856033e-02,-2.996115684509277344e-01,1.764809936285018921e-01,-1.419756859540939331e-01,-1.343314647674560547e-01,9.900233708322048187e-03,-1.713439226150512695e-01,-1.799702048301696777e-01,-1.258967369794845581e-01,1.827989369630813599e-01,-5.525467395782470703e-01,-8.892862498760223389e-02,-3.539607301354408264e-02,-6.908538937568664551e-02,1.207256391644477844e-01,-1.392296701669692993e-01,3.487253189086914062e-02,1.682285964488983154e-01,-7.398428767919540405e-02,-3.374075293540954590e-01,2.143747061491012573e-01,-7.959481328725814819e-02,-5.137698650360107422e-01,1.549733728170394897e-01,-3.958667814731597900e-01,2.002638578414916992e-01,-3.088220581412315369e-02,-1.871314793825149536e-01,3.285567164421081543e-01,-5.119988918304443359e-01,-1.390604227781295776e-01,-1.082483562640845776e-03,-1.633510142564773560e-01,1.976830363273620605e-01,-2.266226410865783691e-01,-2.726499736309051514e-01,-3.278621435165405273e-01,-3.939672186970710754e-02,1.291436702013015747e-01,4.202475771307945251e-02,-1.018660590052604675e-01,1.189860627055168152e-01,7.208045572042465210e-02,5.327105894684791565e-02,-3.357555344700813293e-02
8.357644081115722656e-02,-2.828131020069122314e-01,-2.934499084949493408e-01,-1.863816231489181519e-01,1.048856973648071289e-01,1.159517765045166016e-01,-1.328874286264181137e-02,1.785650402307510376e-01,-4.104911684989929199e-01,2.366275936365127563e-01,1.283275894820690155e-02,1.540561318397521973e-01,-3.184672296047210693e-01,-3.232407867908477783e-01,-3.022584617137908936e-01,-1.257194727659225464e-01,-4.239442944526672363e-01,2.579291462898254395e-01,1.569029241800308228e-01,5.143546313047409058e-02,1.135973855853080750e-01,-4.444783627986907959e-01,1.642832756042480469e-01,1.233448609709739685e-01,-4.890893399715423584e-02,5.104837939143180847e-02,-3.692639619112014771e-02,2.852147445082664490e-02,5.295088887214660645e-02,9.736052155494689941e-02,-3.235260546207427979e-01,2.889038622379302979e-01,-1.463159173727035522e-01,-3.213161602616310120e-02,5.890757963061332703e-02,-2.155279740691184998e-02,-3.011862635612487793e-01,-1.213486120104789734e-01,-4.173900485038757324e-01,-2.115870416164398193e-01,-9.793239831924438477e-02,-4.632705450057983398e-01,-3.904287815093994141e-01,-2.231306396424770355e-02,1.444077193737030029e-01,-1.612498015165328979e-01,5.862568318843841553e-02,1.162211447954177856e-01,-2.808478772640228271e-01,-3.322885930538177490e-01
-2.843108475208282471e-01,6.503509730100631714e-02,-1.025345101952552795e-01,-3.702409192919731140e-02,-5.817161872982978821e-02,-6.737572699785232544e-02,1.979555636644363403e-01,-2.880743443965911865e-01,-1.208049952983856201e-01,1.819484382867813110e-01,-2.552812993526458740e-01,2.548569440841674805e-01,-1.123311668634414673e-01,2.367569506168365479e-01,9.253049641847610474e-02,-2.038817293941974640e-02,1.562122702598571777e-01,-6.376532465219497681e-02,-2.223608084022998810e-02,-1.039900854229927063e-01,1.905628144741058350e-01,1.894289702177047729e-01,-1.613265722990036011e-01,2.741304412484169006e-02,-9.808813780546188354e-02,1.645523160696029663e-01,-1.966218501329421997e-01,2.890846692025661469e-02,-1.710445731878280640e-01,-1.029384508728981018e-01,-7.473827153444290161e-02,-8.136805146932601929e-02,2.393219470977783203e-01,-1.674294918775558472e-01,1.695433408021926880e-01,1.361498329788446426e-02,-8.975121378898620605e-02,-1.498876661062240601e-01,-7.813250273466110229e-02,-6.660060584545135498e-02,-1.836219616234302521e-02,-5.374998971819877625e-02,-2.013633996248245239e-01,-1.598708182573318481e-01,-1.810376346111297607e-01,-1.667494028806686401e-01,-1.614024788141250610e-01,1.647074222564697266e-01,6.817670911550521851e-02,-3.062284737825393677e-02
5.404236167669296265e-02,-3.688375698402523994e-03,1.864499412477016449e-02,2.043542265892028809e-01,-4.903780296444892883e-03,-1.647284030914306641e-01,2.535187453031539917e-02,8.357860893011093140e-02,-1.000979095697402954e-01,-9.872430562973022461e-02,1.022086143493652344e-01,1.203057691454887390e-01,1.857299357652664185e-01,-4.476133361458778381e-02,1.093757078051567078e-01,9.332032501697540283e-02,1.640820056200027466e-01,-1.224228814244270325e-01,-1.164208054542541504e-01,4.736401140689849854e-02,-1.400708407163619995e-01,1.294283717870712280e-01,6.815945263952016830e-03,-1.708107292652130127e-01,6.264264136552810669e-02,-1.177873164415359497e-01,2.785870432853698730e-01,-1.935786008834838867e-01,1.011559590697288513e-01,1.450179517269134521e-01,-8.656372129917144775e-02,3.564794734120368958e-02,-1.061749160289764404e-01,2.732773497700691223e-02,7.473576068878173828e-02,1.328999847173690796e-01,-4.960315674543380737e-02,1.160833090543746948e-01,-1.768548227846622467e-02,-9.018234163522720337e-02,1.262735016644001007e-02,6.401307880878448486e-02,-6.139580532908439636e-02,9.687611833214759827e-03,-2.246895730495452881e-01,-1.191251561976969242e-03,3.490562364459037781e-02,8.476324379444122314e-02,-2.482135146856307983e-01,-1.040724813938140869e-01
-1.193356290459632874e-01,-2.145121991634368896e-01,-1.260253787040710449e-01,-1.967650353908538818e-01,4.068337380886077881e-02,1.683602929115295410e-01,1.559648215770721436e-01,1.689969450235366821e-01,-2.004267573356628418e-01,1.096671670675277710e-01,-5.300963297486305237e-02,1.434376090764999390e-01,-2.170379459857940674e-02,-2.437870390713214874e-02,4.361745715141296387e-02,-2.014594674110412598e-01,-2.119530886411666870e-01,8.837008476257324219e-02,2.422743290662765503e-02,-9.573418647050857544e-02,1.246764436364173889e-01,-1.898551583290100098e-01,1.138324514031410217e-01,-4.612309113144874573e-02,8.668436110019683838e-02,1.501878499984741211e-01,2.555539608001708984e-01,1.446707099676132202e-01,-2.753544412553310394e-02,2.181569039821624756e-01,-1.233594194054603577e-01,2.161658108234405518e-01,2.094939649105072021e-01,-9.684603661298751831e-02,-1.919256523251533508e-02,1.927628666162490845e-01,-1.903347820043563843e-01,1.508440524339675903e-01,-8.350613713264465332e-02,-6.279980391263961792e-02,-1.343352198600769043e-01,-2.171848416328430176e-01,-1.123520284891128540e-01,-1.362867504358291626e-01,2.168950587511062622e-01,-2.578622400760650635e-01,-1.022634431719779968e-01,9.305978566408157349e-02,4.632857069373130798e-02,9.644968807697296143e-02
-3.486258536577224731e-02,-9.943158179521560669e-02,6.087068095803260803e-02,-2.029268816113471985e-02,2.014158964157104492e-01,1.158229447901248932e-02,2.101195603609085083e-02,-1.191546991467475891e-01,2.422835230827331543e-01,1.161747276782989502e-01,-1.244379803538322449e-01,-1.724341064691543579e-01,-2.543340250849723816e-02,-8.239758759737014771e-02,-6.552259624004364014e-02,1.879987423308193684e-03,-1.676360815763473511e-01,3.729714080691337585e-04,-1.135208308696746826e-01,1.526197493076324463e-01,1.264894902706146240e-01,7.845243066549301147e-02,1.188261806964874268e-01,1.031955033540725708e-01,4.473819583654403687e-02,6.480878591537475586e-02,8.214486390352249146e-02,5.722647905349731445e-02,1.040513142943382263e-01,4.437477141618728638e-02,8.960394561290740967e-02,-9.451674297451972961e-03,6.871329993009567261e-02,-1.535423398017883301e-01,-9.897871315479278564e-02,-6.028247997164726257e-02,-1.637809872627258301e-01,1.071441024541854858e-01,6.451482325792312622e-02,1.117149889469146729e-01,-8.770813047885894775e-02,1.093611791729927063e-01,-4.830249026417732239e-02,-1.113987490534782410e-01,-1.101328209042549133e-01,-1.801446974277496338e-01,-1.327272206544876099e-01,2.326658926904201508e-02,-7.527103275060653687e-02,-3.893969208002090454e-02
1.786087304353713989e-01,-8.130185306072235107e-02,6.232592090964317322e-02,2.956961747258901596e-03,2.048078328371047974e-01,3.109222091734409332e-02,-2.114144712686538696e-01,-5.609895661473274231e-02,7.117215543985366821e-02,-2.664348483085632324e-01,-2.431422322988510132e-01,-4.966096580028533936e-02,2.489295788109302521e-02,-4.748662561178207397e-02,-8.724609017372131348e-02,-2.088831961154937744e-01,1.544025391340255737e-01,9.001456946134567261e-02,-4.958557337522506714e-02,7.773870229721069336e-02,-2.118674665689468384e-01,2.081524580717086792e-01,-1.881955415010452271e-01,5.214123055338859558e-02,1.704525649547576904e-01,1.533769369125366211e-01,5.427591502666473389e-02,-1.149901896715164185e-01,2.615643739700317383e-01,3.971923142671585083e-02,2.457967028021812439e-02,-2.177471667528152466e-01,-1.977413743734359741e-01,-4.648053646087646484e-02,-1.872441619634628296e-01,-1.638213694095611572e-01,1.057215780019760132e-01,1.628872901201248169e-01,-2.371566742658615112e-01,-1.947957426309585571e-01,-1.444860249757766724e-01,-2.442174404859542847e-02,-3.412026911973953247e-02,1.650338172912597656e-01,2.352488636970520020e-01,1.086649596691131592e-01,-2.189906388521194458e-01,1.455839071422815323e-02,-9.733934700489044189e-02,2.090470045804977417e-01
6.102380156517028809e-02,-4.642926529049873352e-02,1.033548712730407715e-01,2.062955796718597412e-01,-1.472648829221725464e-01,-2.078004032373428345e-01,4.209575429558753967e-02,1.246360465884208679e-01,1.259492784738540649e-01,5.496241524815559387e-02,-1.963973231613636017e-02,2.430560439825057983e-01,9.571150690317153931e-02,1.599811017513275146e-02,3.858209773898124695e-02,-2.570828609168529510e-02,1.603597849607467651e-01,1.467328984290361404e-03,-1.840326488018035889e-01,-1.053356528282165527e-01,1.045745909214019775e-01,-2.227596044540405273e-01,-8.339048177003860474e-02,-1.549874693155288696e-01,9.641087800264358521e-02,-1.423776894807815552e-01,1.708684414625167847e-01,-1.658370196819305420e-01,-1.081028953194618225e-01,-1.125169694423675537e-01,2.372914999723434448e-01,-5.455465987324714661e-02,-1.685790419578552246e-01,-1.253057271242141724e-01,3.972423076629638672e-02,1.067232787609100342e-01,4.801509529352188110e-02,7.215677946805953979e-02,-1.975106634199619293e-02,-2.308918535709381104e-02,-5.979130789637565613e-02,2.698671072721481323e-03,-2.543581128120422363e-01,1.338652223348617554e-01,-2.007656842470169067e-01,1.635971814393997192e-01,3.496169298887252808e-02,4.284027591347694397e-02,-1.342589408159255981e-01,9.754971601068973541e-03
1.242749840021133423e-01,-2.795374393463134766e-01,-3.357941210269927979e-01,1.009972169995307922e-01,1.777147054672241211e-01,-1.700831204652786255e-01,1.606813073158264160e-01,1.347985863685607910e-01,-2.053339779376983643e-02,3.627649694681167603e-02,-2.827142477035522461e-01,-5.177243053913116455e-02,1.188744008541107178e-01,-7.834084331989288330e-02,-1.066658049821853638e-01,6.285995990037918091e-02,-1.382787525653839111e-01,6.075878813862800598e-02,-1.669558584690093994e-01,-4.221976734697818756e-03,1.309597957879304886e-02,3.991810604929924011e-02,1.141770482063293457e-01,3.135582506656646729e-01,7.116164267063140869e-02,-2.337456643581390381e-01,1.701619029045104980e-01,1.593946814537048340e-01,3.732882812619209290e-02,1.374964416027069092e-01,-1.681289821863174438e-01,-1.239225566387176514e-01,1.433739662170410156e-01,8.380215615034103394e-02,2.262254357337951660e-01,1.508155167102813721e-01,-3.810060322284698486e-01,1.349233090877532959e-01,1.233626231551170349e-01,-1.132381055504083633e-02,-1.129823327064514160e-01,-1.340283006429672241e-01,1.405835896730422974e-01,4.319410026073455811e-02,1.683491468429565430e-01,2.496567964553833008e-01,1.298287659883499146e-01,1.377845853567123413e-01,7.811483740806579590e-02,-1.268993169069290161e-01
-8.009473793208599091e-03,4.463957995176315308e-02,-2.759351730346679688e-01,1.633039712905883789e-01,2.021565474569797516e-02,-2.769153714179992676e-01,1.920238137245178223e-02,5.956315994262695312e-02,-2.376849204301834106e-01,1.173883825540542603e-01,-2.256110608577728271e-01,3.613732988014817238e-03,-2.678861096501350403e-02,1.587824523448944092e-01,2.698498405516147614e-02,-7.395326346158981323e-02,6.641933321952819824e-02,-2.692858278751373291e-01,-6.457669287919998169e-02,-2.387702614068984985e-01,1.252185702323913574e-01,-8.520202338695526123e-02,1.166978403925895691e-01,-8.365229517221450806e-02,-1.484587341547012329e-01,1.652738153934478760e-01,1.418058872222900391e-01,-2.456041797995567322e-02,-3.630557656288146973e-02,1.451997160911560059e-01,5.869201943278312683e-02,-4.913897439837455750e-02,1.083778291940689087e-01,-2.596595138311386108e-02,9.561542421579360962e-02,1.552488803863525391e-01,1.454158779233694077e-02,-1.464427411556243896e-01,-1.408909112215042114e-01,1.257194876670837402e-01,1.064901128411293030e-01,-5.789997056126594543e-02,9.832723438739776611e-02,1.347075402736663818e-01,-1.667470037937164307e-01,1.653740555047988892e-01,-1.295243054628372192e-01,-1.037056893110275269e-01,-9.819321334362030029e-02,-1.131821349263191223e-01
-4.493223503232002258e-02,-4.322023093700408936e-01,-1.487983465194702148e-01,-1.767556369304656982e-02,5.348242446780204773e-02,-3.092021681368350983e-02,1.218939051032066345e-01,-6.653299182653427124e-02,2.106902301311492920e-01,-6.300108879804611206e-02,-1.781136393547058105e-01,3.454260230064392090e-01,9.491614252328872681e-02,3.804508224129676819e-02,1.594424694776535034e-01,1.779997721314430237e-03,1.073985993862152100e-01,7.000041007995605469e-02,1.794967502355575562e-01,1.834908276796340942e-01,2.567940354347229004e-01,1.619469374418258667e-01,1.104429736733436584e-01,-2.118521034717559814e-01,-4.450285434722900391e-02,3.761997073888778687e-02,7.220054417848587036e-02,-1.521372646093368530e-01,1.286713927984237671e-01,4.413294792175292969e-02,4.794489219784736633e-02,-2.615194022655487061e-01,8.987879753112792969e-02,4.944743961095809937e-02,3.452401980757713318e-02,-6.650651246309280396e-02,-5.790776014328002930e-02,-1.970032602548599243e-01,-2.954128384590148926e-01,1.164923459291458130e-01,-5.672008171677589417e-02,7.709892839193344116e-02,6.778373569250106812e-02,9.538967162370681763e-02,-9.445877373218536377e-02,7.423946261405944824e-02,-5.747604649513959885e-03,2.250768840312957764e-01,-2.130970060825347900e-01,1.996816098690032959e-01
1.165470704436302185e-01,-6.421178579330444336e-02,-6.959921866655349731e-02,-2.485157400369644165e-01,1.028143316507339478e-01,-8.194576203823089600e-02,-2.296035587787628174e-01,-9.424441307783126831e-02,6.105870380997657776e-02,-7.799147069454193115e-02,2.659353315830230713e-01,-9.506464004516601562e-02,-1.502161324024200439e-01,6.953249126672744751e-02,-1.477678120136260986e-01,3.258479526266455650e-03,-1.674140989780426025e-01,1.756192892789840698e-01,1.780746877193450928e-01,1.587038189172744751e-01,-2.516726255416870117e-01,7.916957139968872070e-02,2.239093482494354248e-01,-6.633510440587997437e-02,-9.507947415113449097e-02,-3.160431236028671265e-02,1.560091134160757065e-02,-2.194088846445083618e-01,-6.411290168762207031e-02,-1.805238723754882812e-01,-8.204255998134613037e-02,-3.383373469114303589e-02,-1.907021999359130859e-01,1.322644948959350586e-01,-1.942711472511291504e-01,2.270056307315826416e-01,1.963956095278263092e-02,-1.268997490406036377e-01,-9.236267209053039551e-02,-2.575932741165161133e-01,-9.441938996315002441e-02,1.959606707096099854e-01,-3.447250276803970337e-02,-2.908990159630775452e-02,2.448349632322788239e-02,1.599648594856262207e-01,-1.315835863351821899e-01,-9.383606165647506714e-02,-5.539352074265480042e-02,-2.871835827827453613e-01
1.663372367620468140e-01,-4.286566376686096191e-01,-1.457622200250625610e-01,1.609382927417755127e-01,5.450570955872535706e-02,-1.865281909704208374e-01,2.255735695362091064e-01,-3.033589124679565430e-01,-1.415938884019851685e-01,1.605103313922882080e-01,-1.030152197927236557e-02,-1.698062568902969360e-01,3.279748931527137756e-02,1.969502866268157959e-02,-1.629967391490936279e-01,2.109852880239486694e-01,-1.996957212686538696e-01,1.053873375058174133e-01,5.210615694522857666e-02,1.513268649578094482e-01,-1.680961102247238159e-01,3.797362446784973145e-01,6.590906530618667603e-02,4.034147784113883972e-02,2.578748166561126709e-01,-1.925726085901260376e-01,1.502742320299148560e-01,1.307189613580703735e-01,-4.905888065695762634e-02,-1.129243746399879456e-01,-2.544092573225498199e-02,-1.787042617797851562e-01,-2.378990352153778076e-01,-2.086905986070632935e-01,2.929563820362091064e-01,5.102027207612991333e-02,-3.802857920527458191e-02,5.695113912224769592e-02,1.602238267660140991e-01,-1.235544010996818542e-01,-3.136656284332275391e-01,-6.210648417472839355e-01,2.522248625755310059e-01,1.332035958766937256e-01,9.442103095352649689e-03,1.135635003447532654e-01,-2.750338613986968994e-01,-1.034231632947921753e-01,-1.096258759498596191e-01,1.551428437232971191e-01
-4.217169061303138733e-02,-1.965728029608726501e-02,4.411485791206359863e-02,-1.251647323369979858e-01,-3.174677118659019470e-02,4.373654723167419434e-02,2.004913538694381714e-01,-1.617795825004577637e-01,-7.916077226400375366e-02,-1.158759519457817078e-01,-1.794181615114212036e-01,2.660812437534332275e-01,-2.003170102834701538e-01,-3.020082786679267883e-02,2.701941691339015961e-02,-3.055660426616668701e-02,7.469556480646133423e-02,-1.745365262031555176e-01,-1.628429591655731201e-01,-6.501069758087396622e-03,-1.356121301651000977e-01,-1.151426136493682861e-01,1.295399963855743408e-01,8.318952471017837524e-02,1.209258660674095154e-01,-1.679923832416534424e-01,-1.511782705783843994e-01,1.600132584571838379e-01,-6.379982084035873413e-02,8.821478486061096191e-02,-2.688370347023010254e-01,-2.038006484508514404e-01,-1.104425266385078430e-01,1.323787122964859009e-01,-2.204720675945281982e-01,-1.545606404542922974e-01,1.326358225196599960e-02,1.289854571223258972e-02,-1.426564306020736694e-01,-2.058635354042053223e-01,-2.405512630939483643e-01,-1.436254233121871948e-01,-9.635362029075622559e-02,-3.979139029979705811e-02,-1.635224670171737671e-01,-2.239133566617965698e-01,1.004626452922821045e-01,-3.301180154085159302e-02,1.055091321468353271e-01,1.436774283647537231e-01
-8.524904027581214905e-03,-1.236109137535095215e-01,-4.409132152795791626e-02,-9.608652442693710327e-03,1.665520220994949341e-01,-1.207456886768341064e-01,-9.758051484823226929e-02,2.734087873250246048e-03,2.671959623694419861e-02,-1.277280747890472412e-01,-2.146136313676834106e-01,-1.303176581859588623e-01,-1.336194127798080444e-01,1.556089967489242554e-01,-2.499505728483200073e-01,-3.213958740234375000e-01,1.484154723584651947e-02,-1.303255558013916016e-01,7.224582135677337646e-02,6.590428203344345093e-02,-6.282988935708999634e-02,-2.136958986520767212e-01,2.186162620782852173e-01,-2.197173684835433960e-01,-5.149804055690765381e-02,-5.418701842427253723e-02,1.804357320070266724e-01,-2.052722498774528503e-02,1.357186734676361084e-01,1.823713630437850952e-01,-2.335612773895263672e-01,-7.966217398643493652e-02,2.096364647150039673e-02,-2.021075598895549774e-02,1.239823773503303528e-01,1.693810522556304932e-02,-3.466176688671112061e-01,9.708191454410552979e-02,-1.443793177604675293e-01,-1.678151190280914307e-01,-1.326523870229721069e-01,-4.738072454929351807e-01,-1.327657103538513184e-01,2.070582211017608643e-01,-6.482386030256748199e-03,2.440527454018592834e-02,2.471079528331756592e-01,5.433507263660430908e-02,-2.181847691535949707e-01,-6.841878872364759445e-03
-1.073110178112983704e-01,-1.618199497461318970e-01,1.072401702404022217e-01,1.371313184499740601e-01,8.352848142385482788e-02,-1.368994563817977905e-01,1.130805537104606628e-01,-5.798264220356941223e-02,-2.384601347148418427e-02,-1.485443711280822754e-01,-3.326234966516494751e-02,-1.488933116197586060e-01,-2.878322899341583252e-01,-6.544699519872665405e-02,4.154909774661064148e-02,-3.866646811366081238e-02,-5.410592257976531982e-02,-9.633675217628479004e-03,4.380881041288375854e-02,1.828677207231521606e-01,1.492001861333847046e-01,-1.493777036666870117e-01,2.095224708318710327e-01,7.417707890272140503e-02,-1.855503916740417480e-01,7.533930242061614990e-02,9.440483897924423218e-02,-2.571796476840972900e-01,1.707899868488311768e-01,9.719807654619216919e-02,1.718732342123985291e-02,7.394202053546905518e-02,8.956406265497207642e-02,-3.436234220862388611e-02,3.065347671508789062e-01,2.326690405607223511e-01,-1.811425536870956421e-01,3.386955335736274719e-02,4.295065999031066895e-03,1.339127961546182632e-02,1.838229298591613770e-01,3.928011283278465271e-02,1.534721553325653076e-01,-9.860418736934661865e-02,1.580104976892471313e-01,-1.085185334086418152e-01,-2.268596440553665161e-01,1.926421672105789185e-01,5.617741122841835022e-02,-2.964023351669311523e-01
2.498163841664791107e-02,5.162614956498146057e-02,3.687438368797302246e-01,-2.841295897960662842e-01,1.544816493988037109e-01,-3.470828384160995483e-02,-3.432919383049011230e-01,2.984731495380401611e-01,-1.595396548509597778e-01,-4.005459323525428772e-02,1.359795033931732178e-01,2.829727232456207275e-01,1.736238151788711548e-01,-2.297450006008148193e-01,-1.504396349191665649e-01,-1.601420342922210693e-01,-2.031275257468223572e-02,2.092667482793331146e-02,-1.445431709289550781e-01,-8.674120157957077026e-02,-8.075901865959167480e-02,-2.605971097946166992e-01,1.017007902264595032e-01,-7.730267196893692017e-02,-1.842609196901321411e-01,8.814865350723266602e-02,-1.934042572975158691e-01,-1.880714148283004761e-01,2.802086770534515381e-01,-5.818470716476440430e-01,1.556725203990936279e-01,2.118126153945922852e-01,3.749630451202392578e-01,1.598672196269035339e-02,-1.263909339904785156e-01,-1.815069913864135742e-01,3.411578238010406494e-01,-3.128233253955841064e-01,-3.263134956359863281e-01,5.620843172073364258e-01,6.474818103015422821e-03,9.582602977752685547e-02,-2.754639685153961182e-01,9.458632022142410278e-02,9.394825249910354614e-02,-2.645828062668442726e-03,1.253034770488739014e-01,6.448956578969955444e-02,7.497000042349100113e-04,-1.610709875822067261e-01
-9.053772664628922939e-04,-8.127772063016891479e-02,2.660798467695713043e-02,8.383829891681671143e-02,4.208717048168182373e-01,-9.916552156209945679e-02,1.545161847025156021e-02,-3.058772385120391846e-01,1.621382869780063629e-02,2.814923413097858429e-02,-5.111184716224670410e-02,1.373395770788192749e-01,7.155264914035797119e-02,-1.340186297893524170e-01,-8.654928207397460938e-02,1.072278767824172974e-01,1.019302308559417725e-01,-8.774311095476150513e-02,-6.046968325972557068e-02,5.342239513993263245e-02,-1.614606529474258423e-01,-6.070284545421600342e-02,2.837097831070423126e-02,2.828949503600597382e-02,2.047232836484909058e-01,1.311322897672653198e-01,9.839421510696411133e-02,-2.124369889497756958e-02,-5.136596038937568665e-02,8.872383087873458862e-02,1.143772378563880920e-01,3.751339390873908997e-03,4.571474343538284302e-02,-2.178585380315780640e-01,-3.295382857322692871e-02,-1.023972779512405396e-02,1.659293472766876221e-01,1.521666049957275391e-01,9.184819459915161133e-02,1.943761110305786133e-02,-4.030534997582435608e-02,-2.339184470474720001e-02,-1.296591609716415405e-01,-9.739863686263561249e-03,-4.957239329814910889e-02,3.710457682609558105e-02,-7.974562793970108032e-02,7.200993597507476807e-02,8.017013967037200928e-02,-2.153659909963607788e-01
-3.666701540350914001e-02,-2.535652220249176025e-01,-6.487632542848587036e-02,6.380333751440048218e-02,3.169468417763710022e-02,-1.831505596637725830e-01,4.487704951316118240e-03,-1.371919293887913227e-03,-1.938003301620483398e-02,7.819750905036926270e-02,-5.146915558725595474e-03,-2.396659106016159058e-01,-2.369598895311355591e-01,-2.471188455820083618e-01,5.213961005210876465e-02,4.077104628086090088e-01,-1.875583380460739136e-01,-2.734329402446746826e-01,-1.690227389335632324e-01,2.091473191976547241e-01,1.296072900295257568e-01,-4.826721549034118652e-02,1.950840204954147339e-01,-2.871873043477535248e-02,4.469912499189376831e-02,1.533306390047073364e-01,-2.315455377101898193e-01,-2.100885510444641113e-01,2.813901379704475403e-02,-2.188546359539031982e-01,-1.646396219730377197e-01,1.971906423568725586e-01,-4.077248275279998779e-02,1.337643861770629883e-01,-2.050018012523651123e-01,2.678461968898773193e-01,-4.630151689052581787e-01,1.039066612720489502e-01,-2.048925496637821198e-02,-2.876973748207092285e-01,-1.666371077299118042e-01,-2.176183760166168213e-01,-1.559003139846026897e-04,1.128472685813903809e-01,1.511359959840774536e-01,-1.915307641029357910e-01,9.849017858505249023e-02,2.135931998491287231e-01,5.241299048066139221e-02,2.537166476249694824e-01
-1.542406231164932251e-01,5.868041515350341797e-02,6.244789808988571167e-02,2.994890557602047920e-03,3.399194180965423584e-01,-1.111342906951904297e-01,6.859848648309707642e-02,-1.921961158514022827e-01,3.045533783733844757e-03,8.730289340019226074e-02,-9.074250236153602600e-03,-1.242765635251998901e-01,-4.323722794651985168e-02,1.807361654937267303e-02,-5.720648542046546936e-02,2.408671192824840546e-02,1.978918164968490601e-02,-2.120662778615951538e-01,-9.969594329595565796e-02,-1.653680354356765747e-01,-7.198986411094665527e-02,2.568684890866279602e-02,1.647462248802185059e-01,2.673610113561153412e-02,5.605259537696838379e-02,-1.198503673076629639e-01,-1.753829717636108398e-01,6.550065428018569946e-02,-7.626806199550628662e-02,-2.887709997594356537e-02,1.864028573036193848e-01,-1.667938083410263062e-01,1.537518352270126343e-01,8.743552607484161854e-04,6.631541997194290161e-02,-4.925378412008285522e-02,-1.285036504268646240e-01,-6.496452540159225464e-02,-6.421380490064620972e-02,7.748290151357650757e-02,1.601647399365901947e-02,-8.206130564212799072e-02,9.156548976898193359e-02,-1.286337617784738541e-02,6.469000130891799927e-03,1.212206576019525528e-02,-2.963666617870330811e-02,1.990133672952651978e-01,-3.567595779895782471e-02,-6.982181221246719360e-02
-2.324298210442066193e-02,6.554404646158218384e-02,-2.296112030744552612e-01,6.434644013643264771e-02,2.873952500522136688e-03,-1.672867089509963989e-01,3.014509975910186768e-01,-2.202212065458297729e-01,-2.229095846414566040e-01,5.347847938537597656e-03,-2.398792356252670288e-01,-4.582498967647552490e-02,2.067739889025688171e-02,-3.430109620094299316e-01,1.736627668142318726e-01,1.831261627376079559e-02,-1.463025510311126709e-01,2.510561943054199219e-01,2.326112389564514160e-01,1.688355207443237305e-01,2.317889034748077393e-01,-1.095198988914489746e-01,-1.222640159539878368e-03,-2.154847085475921631e-01,-1.375110149383544922e-01,1.535325795412063599e-01,1.132939159870147705e-01,-2.330309450626373291e-01,1.404182165861129761e-01,-2.260117977857589722e-01,1.794945746660232544e-01,-1.709111630916595459e-01,-3.064503371715545654e-01,1.704380363225936890e-01,-1.711460351943969727e-01,2.026258111000061035e-01,-1.969703286886215210e-01,2.642532996833324432e-02,1.243233978748321533e-01,-1.317963600158691406e-01,-2.068910598754882812e-01,-2.414441406726837158e-01,1.363474726676940918e-01,-5.584366247057914734e-02,-1.626517176628112793e-01,6.975077837705612183e-02,-2.929614186286926270e-01,2.343962341547012329e-01,1.722903177142143250e-02,-9.826897084712982178e-02
-9.924034029245376587e-02,-1.592290550470352173e-01,-2.353887632489204407e-02,2.773759961128234863e-01,1.965116411447525024e-01,-1.597000360488891602e-01,-8.779080957174301147e-02,-7.562626898288726807e-02,1.990952491760253906e-01,-8.642823249101638794e-02,5.415605381131172180e-02,1.049004308879375458e-02,7.555415853857994080e-03,1.328782588243484497e-01,1.536757647991180420e-01,-2.123608626425266266e-02,6.425255443900823593e-03,6.814051419496536255e-02,-1.369030028581619263e-01,-1.203553602099418640e-01,-8.168358355760574341e-02,2.072117030620574951e-01,-1.269724518060684204e-01,-1.840896159410476685e-01,-1.626247763633728027e-01,-9.851748123764991760e-03,-1.474030613899230957e-01,3.108907863497734070e-02,-2.480184473097324371e-02,1.507440060377120972e-01,1.868325322866439819e-01,-7.719832658767700195e-02,1.402036398649215698e-01,-9.794488549232482910e-02,2.564438804984092712e-02,1.303274184465408325e-02,-1.907032430171966553e-01,-8.655560761690139771e-02,-2.052512615919113159e-01,1.508134752511978149e-01,-1.940627545118331909e-01,6.413339171558618546e-03,-1.330811437219381332e-02,-1.341126859188079834e-01,-9.635479003190994263e-02,2.428359724581241608e-02,-1.104318425059318542e-01,-8.342645317316055298e-02,8.327690511941909790e-02,-9.939213842153549194e-02
-2.147701233625411987e-01,-3.084104061126708984e-01,-1.638513058423995972e-01,2.785731665790081024e-02,2.090924382209777832e-01,-1.061968058347702026e-01,-1.041017398238182068e-01,-1.757293790578842163e-01,1.732091754674911499e-01,1.319340467453002930e-01,3.251152634620666504e-01,1.184397041797637939e-01,-2.847890555858612061e-01,1.669291555881500244e-01,1.067893803119659424e-01,1.502015860751271248e-03,1.517020612955093384e-01,-1.347780674695968628e-01,1.279198974370956421e-01,-2.061603665351867676e-01,-1.996001899242401123e-01,1.380738914012908936e-01,-7.602436840534210205e-02,1.428389847278594971e-01,1.051951870322227478e-01,1.433491520583629608e-02,-1.217827945947647095e-01,-1.139161176979541779e-03,1.190787479281425476e-01,2.134000696241855621e-02,1.328664124011993408e-01,1.221221983432769775e-01,-6.052356585860252380e-02,2.685192227363586426e-02,8.922478556632995605e-02,-1.698727011680603027e-01,-2.456414327025413513e-02,-1.443499326705932617e-01,-2.762210071086883545e-01,-8.213234134018421173e-03,-4.595799744129180908e-02,-1.465685665607452393e-01,3.209950402379035950e-02,-1.037129685282707214e-01,1.553265452384948730e-01,2.702884078025817871e-01,1.056144908070564270e-01,8.525842428207397461e-02,-2.121818512678146362e-01,9.287557750940322876e-02
-1.650401055812835693e-01,-2.239313125610351562e-01,-1.662310771644115448e-02,1.589450836181640625e-01,-6.106303259730339050e-02,2.381432428956031799e-02,1.504498273134231567e-01,-1.670669168233871460e-01,6.632200628519058228e-02,-2.222478687763214111e-01,-2.891537845134735107e-01,7.271816581487655640e-02,8.542443811893463135e-02,1.770388185977935791e-01,1.324760466814041138e-01,-9.726472944021224976e-02,1.142241433262825012e-01,-1.240602359175682068e-01,-2.169000357389450073e-01,1.735880076885223389e-01,-2.946268916130065918e-01,-1.797700971364974976e-01,5.581369623541831970e-02,3.886537253856658936e-02,8.237108588218688965e-02,-1.232913583517074585e-01,-5.203234404325485229e-02,-1.417480874806642532e-02,1.672063320875167847e-01,2.217624932527542114e-01,1.042700260877609253e-01,2.375299781560897827e-01,9.990036487579345703e-02,1.367353051900863647e-01,1.358027160167694092e-01,2.878231406211853027e-01,-2.521447539329528809e-01,3.406768143177032471e-01,-2.309212982654571533e-01,1.949799507856369019e-01,-1.860421448945999146e-01,-1.678311228752136230e-01,-7.267985027283430099e-03,-1.900862306356430054e-01,1.071492731571197510e-01,3.838283196091651917e-02,-1.187504902482032776e-01,-1.192740947008132935e-01,-4.156905412673950195e-02,-1.527283638715744019e-01
1.482716500759124756e-01,-2.559645473957061768e-01,-1.761169880628585815e-01,-2.206435203552246094e-01,1.137368306517601013e-01,1.315180957317352295e-01,-3.656452596187591553e-01,2.118890136480331421e-01,-9.855882078409194946e-02,3.745966255664825439e-01,1.206051632761955261e-01,1.598000377416610718e-01,1.168216951191425323e-02,1.508067101240158081e-01,-7.346000522375106812e-02,3.840745612978935242e-02,-8.817382156848907471e-03,2.080504894256591797e-01,2.231907099485397339e-01,2.626136690378189087e-02,1.148900166153907776e-01,2.967773191630840302e-02,-1.979335844516754150e-01,1.864473670721054077e-01,-1.473964154720306396e-01,-2.972894310951232910e-01,1.534887682646512985e-02,2.842749655246734619e-02,-8.178638294339179993e-03,-8.596494793891906738e-02,-4.512080922722816467e-02,-1.073548570275306702e-01,-7.644891738891601562e-02,7.624892890453338623e-02,-2.096163481473922729e-01,6.825695186853408813e-02,5.823837220668792725e-02,-2.345725148916244507e-01,-1.152528896927833557e-01,2.494986653327941895e-01,1.361072659492492676e-01,-5.105066671967506409e-02,8.891095966100692749e-02,-1.295430362224578857e-01,8.342649787664413452e-02,-1.216940656304359436e-01,-1.947616785764694214e-02,1.821989566087722778e-01,-2.195099443197250366e-01,-1.501697450876235962e-01
7.773827016353607178e-02,-6.622373475693166256e-04,-1.327594667673110962e-01,-3.155751526355743408e-02,-7.597386091947555542e-02,1.111543253064155579e-01,2.223790809512138367e-02,7.095454726368188858e-03,1.221112012863159180e-01,-1.524964720010757446e-02,1.608842760324478149e-01,-1.245113462209701538e-01,4.953781515359878540e-02,-1.051019802689552307e-01,-4.679590463638305664e-02,-3.543311357498168945e-02,-5.649653077125549316e-02,9.523630142211914062e-02,-8.716680854558944702e-02,-2.507465183734893799e-01,-1.108320951461791992e-01,2.447788715362548828e-01,1.010909378528594971e-01,-2.897180318832397461e-01,-6.769744306802749634e-02,1.361758857965469360e-01,1.565429866313934326e-01,-1.366973072290420532e-01,-4.685559775680303574e-03,-7.932104915380477905e-02,1.609515547752380371e-01,-4.534751176834106445e-02,-9.215924888849258423e-02,-1.357708424329757690e-01,2.007853239774703979e-02,1.233299970626831055e-01,-1.169799789786338806e-01,1.589179039001464844e-01,1.717207580804824829e-02,1.904774270951747894e-02,8.622264117002487183e-02,7.903578132390975952e-02,-1.868364214897155762e-01,-8.438411355018615723e-02,-1.661960184574127197e-01,1.644339412450790405e-01,-2.530120313167572021e-02,-1.323559880256652832e-02,6.008801981806755066e-02,7.465183269232511520e-03
-7.837917655706405640e-02,4.830725118517875671e-02,-1.878656819462776184e-02,2.222731523215770721e-02,3.203212842345237732e-02,1.579880416393280029e-01,2.538116872310638428e-01,2.163059264421463013e-01,2.958229742944240570e-02,1.841381192207336426e-01,1.220601499080657959e-01,9.565500915050506592e-02,-3.185702487826347351e-03,1.318725291639566422e-02,-3.796076169237494469e-03,1.485903114080429077e-01,1.424802187830209732e-02,4.964858666062355042e-02,-1.264078021049499512e-01,4.835139214992523193e-02,-1.032624021172523499e-01,1.936211436986923218e-01,-1.595236063003540039e-01,2.457555830478668213e-01,-1.311546713113784790e-01,1.717188395559787750e-02,1.589920967817306519e-01,3.225169330835342407e-02,1.282432973384857178e-01,6.894470006227493286e-02,-1.094718948006629944e-01,8.470225334167480469e-02,5.199105944484472275e-03,-9.689126163721084595e-03,-2.810932137072086334e-02,1.050887778401374817e-01,3.170723095536231995e-02,-5.151674151420593262e-03,2.876655943691730499e-02,-1.335824131965637207e-01,-2.765154242515563965e-01,4.892451316118240356e-02,-2.049964368343353271e-01,-2.122842967510223389e-01,9.919244796037673950e-02,-2.751049697399139404e-01,-1.941204816102981567e-01,1.290540248155593872e-01,-1.929012835025787354e-01,8.680718392133712769e-02
4.712477792054414749e-03,-7.518170773983001709e-02,2.269427478313446045e-01,-2.146243676543235779e-02,-2.343304306268692017e-01,-2.211360037326812744e-01,2.920613884925842285e-01,7.095123827457427979e-02,-2.683277055621147156e-02,1.026311144232749939e-01,-5.145367607474327087e-02,3.853133693337440491e-02,1.500322669744491577e-01,-1.826450526714324951e-01,-9.782526642084121704e-02,9.293852001428604126e-02,1.029459610581398010e-01,1.361970454454421997e-01,-1.078283712267875671e-01,-6.071902438998222351e-02,6.140411365777254105e-03,-3.524453565478324890e-02,-2.610127031803131104e-01,1.509682387113571167e-01,-4.514928162097930908e-02,9.416363388299942017e-02,1.166275143623352051e-01,-5.003371089696884155e-02,1.216434985399246216e-01,1.064719185233116150e-01,7.519375067204236984e-03,1.809463277459144592e-02,1.163727566599845886e-01,-9.647746384143829346e-02,1.291247084736824036e-02,1.352334045805037022e-03,-4.578438773751258850e-02,3.541122376918792725e-01,8.113208413124084473e-02,-1.725523616187274456e-03,5.364474654197692871e-02,-8.782927691936492920e-02,-1.767476648092269897e-01,3.961184993386268616e-02,-1.000290215015411377e-01,-1.097514554858207703e-01,-2.064907252788543701e-01,-2.391660399734973907e-02,3.829922899603843689e-02,-2.779313325881958008e-01
