-7.470044307410717010e-03,1.032740063965320587e-02,2.663207054138183594e-02,2.150911092758178711e-01,-3.432268798351287842e-01,-1.566431522369384766e-01,-9.170654416084289551e-01,-5.144036933779716492e-02,2.907827496528625488e-01,-1.773853898048400879e-01,-2.866826355457305908e-01,8.885315060615539551e-02,-2.192186564207077026e-01,-1.452351957559585571e-01,1.831616759300231934e-01,-4.329103231430053711e-01,2.906675636768341064e-01,-3.008125722408294678e-01,-1.005258858203887939e-01,1.745030283927917480e-01,4.193869531154632568e-01,-4.645431786775588989e-02,-1.366947442293167114e-01,-8.002524822950363159e-02,1.106893271207809448e-01,1.865783184766769409e-01,-7.327832281589508057e-02,1.534298807382583618e-01,1.454369723796844482e-01,-8.919585496187210083e-02,-2.199870049953460693e-01,3.351848945021629333e-02,6.358043849468231201e-02,-5.903783813118934631e-02,-2.947679758071899414e-01,3.006269037723541260e-01,-4.086541533470153809e-01,-6.957664340734481812e-02,2.370282560586929321e-01,-1.764843761920928955e-01,2.718591392040252686e-01,-4.969373717904090881e-02,6.283648312091827393e-02,-1.780171394348144531e-01,8.049879968166351318e-02,1.211901083588600159e-01,-1.304969191551208496e-01,1.242877170443534851e-01,1.853634268045425415e-01,-2.963398098945617676e-01
2.273655682802200317e-01,1.261164844036102295e-01,-2.650866210460662842e-01,1.413978785276412964e-01,4.091035202145576477e-02,-1.686422675848007202e-01,2.190164923667907715e-01,-1.687109321355819702e-01,-1.500347256660461426e-02,-2.401625365018844604e-01,-3.341474533081054688e-01,-6.762679666280746460e-02,-2.116998881101608276e-01,-3.307322561740875244e-01,-3.077726364135742188e-01,-3.200079798698425293e-01,1.962284147739410400e-01,1.607971824705600739e-02,-2.555608153343200684e-01,1.631095707416534424e-01,-4.348004162311553955e-01,1.456565596163272858e-02,-4.117639735341072083e-02,2.049758583307266235e-01,9.000270813703536987e-02,2.077423632144927979e-01,-1.606271266937255859e-01,-2.268163859844207764e-01,-1.055819019675254822e-01,-5.210771411657333374e-02,-2.259903699159622192e-01,-5.782448872923851013e-02,-8.114878833293914795e-02,-3.583030104637145996e-01,6.145314127206802368e-02,1.098250076174736023e-01,-7.644202560186386108e-02,1.517574042081832886e-01,-1.245413068681955338e-02,-3.093799948692321777e-01,-3.226076960563659668e-01,-2.771914564073085785e-02,-2.734881639480590820e-01,-8.687809109687805176e-02,8.071589469909667969e-02,-2.604162991046905518e-01,-3.200533092021942139e-01,1.077866032719612122e-01,-2.304233796894550323e-02,-3.262760639190673828e-01
-3.493604063987731934e-02,1.086179614067077637e-01,1.229489073157310486e-01,-1.618640422821044922e-01,9.723086655139923096e-02,-5.007756948471069336e-01,1.351429373025894165e-01,3.163456916809082031e-03,2.443786896765232086e-02,-2.930566370487213135e-01,-7.958610355854034424e-02,-1.213005483150482178e-01,1.047084107995033264e-01,8.580583333969116211e-02,1.812885999679565430e-01,-2.738326489925384521e-01,2.868868112564086914e-01,-1.859888881444931030e-01,-1.166270449757575989e-01,-6.130202114582061768e-02,1.494510769844055176e-01,2.052892148494720459e-01,-1.864160597324371338e-02,-1.904013901948928833e-01,-4.982716441154479980e-01,2.693098187446594238e-01,1.879705041646957397e-01,-6.754767149686813354e-02,-1.830405294895172119e-01,-3.926706314086914062e-01,-9.697791188955307007e-02,1.565873506478965282e-03,2.784363627433776855e-01,1.143632158637046814e-01,-2.924393415451049805e-01,-5.180699229240417480e-01,-1.378233730792999268e-01,4.805397242307662964e-02,-1.046583987772464752e-02,2.573593854904174805e-01,1.691631227731704712e-01,-1.849670894443988800e-02,-6.105187907814979553e-02,-8.131071180105209351e-02,-1.747446060180664062e-01,4.940882325172424316e-02,-2.777400910854339600e-01,9.073247760534286499e-02,4.597721397876739502e-01,1.364535242319107056e-01
7.859722524881362915e-02,1.250443980097770691e-03,-1.143678575754165649e-01,-5.520420148968696594e-02,-4.788627028465270996e-01,-5.638796836137771606e-02,-4.543227553367614746e-01,1.070261597633361816e-01,6.166340038180351257e-02,5.567418038845062256e-02,1.645966432988643646e-02,-7.467634230852127075e-02,2.998434007167816162e-01,8.205710328184068203e-04,-7.000561058521270752e-02,-2.937173247337341309e-01,2.217842638492584229e-01,2.304119169712066650e-01,-2.765664756298065186e-01,-4.200630486011505127e-01,2.317439764738082886e-01,-7.473486661911010742e-02,2.316898405551910400e-01,-5.106114745140075684e-01,2.514835298061370850e-01,-2.231255024671554565e-01,3.291742205619812012e-01,2.162467092275619507e-01,4.328076243400573730e-01,2.907478809356689453e-01,3.398603498935699463e-01,1.969051361083984375e-01,-5.088545680046081543e-01,-2.016341239213943481e-01,3.694283366203308105e-01,-2.931839227676391602e-01,1.123061701655387878e-01,-4.353104531764984131e-01,4.368624463677406311e-02,-4.645461142063140869e-01,-4.286131262779235840e-02,4.223770648241043091e-02,-6.146493554115295410e-02,-2.801822684705257416e-02,3.485130965709686279e-01,4.905382096767425537e-01,3.132271468639373779e-01,-1.196309700608253479e-01,-4.298468679189682007e-02,-3.461694419384002686e-01
-1.768122799694538116e-02,-3.605067431926727295e-01,-4.537267237901687622e-02,-2.616026103496551514e-01,-8.311479538679122925e-02,-1.658635586500167847e-01,4.764712601900100708e-02,-4.017445147037506104e-01,-3.792372047901153564e-01,-1.327963620424270630e-01,-3.636500611901283264e-02,-1.008320227265357971e-01,4.978811740875244141e-02,-4.182620346546173096e-01,-4.388434812426567078e-02,-1.375001817941665649e-01,2.270767837762832642e-01,-7.538515329360961914e-02,-2.376866638660430908e-01,-2.117691636085510254e-01,-2.167224884033203125e-01,-9.709799289703369141e-02,-3.852075338363647461e-01,-2.640834748744964600e-01,-4.160789549350738525e-01,1.091943904757499695e-01,3.254494667053222656e-01,9.993172436952590942e-02,-2.616989016532897949e-01,8.053307235240936279e-02,-1.014361828565597534e-01,-3.165397346019744873e-01,-5.266606211662292480e-01,1.505689620971679688e-01,-2.863443195819854736e-01,-7.670528441667556763e-02,8.514620363712310791e-02,-8.590138703584671021e-02,-9.322374314069747925e-02,-1.760733574628829956e-01,1.996984183788299561e-01,2.471915259957313538e-02,-3.392459452152252197e-01,-1.403339505195617676e-01,-1.611542073078453541e-03,-4.428178537636995316e-03,9.727045893669128418e-03,2.589602023363113403e-02,2.186242640018463135e-01,-1.402501165866851807e-01
3.366848528385162354e-01,2.996827363967895508e-01,-3.871482610702514648e-02,-2.108904868364334106e-01,5.264768376946449280e-02,-8.597675710916519165e-02,6.651453673839569092e-02,1.409852318465709686e-02,-5.066752061247825623e-02,-4.851966798305511475e-01,2.262708246707916260e-01,1.038945652544498444e-02,-4.973072409629821777e-01,7.012457400560379028e-02,-2.067533284425735474e-01,-3.744616210460662842e-01,1.103540062904357910e-01,1.285903602838516235e-01,-2.471876740455627441e-01,-2.522865831851959229e-01,-1.807346493005752563e-01,2.104981690645217896e-01,1.091501936316490173e-01,-3.847883641719818115e-02,-1.019133031368255615e-01,2.802873253822326660e-01,-1.334102004766464233e-01,1.303521245718002319e-01,-7.671263813972473145e-02,3.221835792064666748e-01,2.756839394569396973e-01,-2.634926140308380127e-01,7.609929144382476807e-02,-3.326153382658958435e-02,4.806815832853317261e-02,2.894063889980316162e-01,-1.447602808475494385e-01,6.604949012398719788e-03,-1.031705290079116821e-01,-2.409807145595550537e-01,1.160461306571960449e-01,1.245738416910171509e-01,1.004182100296020508e-01,-5.140981823205947876e-02,-1.001780182123184204e-01,-1.690170317888259888e-01,3.035685233771800995e-02,-3.249415159225463867e-01,-3.623203635215759277e-01,-1.078564599156379700e-01
2.786100208759307861e-01,-1.649194508790969849e-01,2.046671882271766663e-02,-3.226726949214935303e-01,1.681305915117263794e-01,-2.289279848337173462e-01,1.395266503095626831e-01,-3.219864368438720703e-01,-9.448548406362533569e-02,-1.431771069765090942e-01,2.425968796014785767e-01,-4.981282651424407959e-01,2.265188843011856079e-03,6.628105789422988892e-02,9.567879885435104370e-02,1.324114017188549042e-02,-1.677839756011962891e-01,-2.571541368961334229e-01,-1.398986428976058960e-01,1.871316134929656982e-01,1.506252307444810867e-02,-9.887897223234176636e-02,4.115930944681167603e-02,-1.996015906333923340e-01,-5.181863531470298767e-02,2.217694967985153198e-01,9.903979487717151642e-03,-1.487754844129085541e-02,-3.384770452976226807e-01,-1.799736917018890381e-01,-1.021240875124931335e-01,1.488082557916641235e-01,1.338707804679870605e-01,3.835122287273406982e-02,3.164342045783996582e-02,-4.606196582317352295e-01,-1.236848831176757812e-01,-9.511466324329376221e-02,2.512387633323669434e-01,-9.271178394556045532e-02,-1.671662479639053345e-01,-3.892315924167633057e-02,4.131537377834320068e-01,-9.987283498048782349e-02,1.897198110818862915e-01,-2.339366674423217773e-01,1.563646197319030762e-01,2.291943281888961792e-01,-6.293631196022033691e-01,-1.968225091695785522e-01
-3.837311863899230957e-01,-2.002977430820465088e-01,5.760266631841659546e-02,-1.329593211412429810e-01,1.710111349821090698e-01,1.132820174098014832e-01,1.763633936643600464e-01,1.637281477451324463e-01,-3.912431597709655762e-01,1.704472452402114868e-01,2.507900893688201904e-01,-2.987454086542129517e-02,4.962746426463127136e-02,2.572622001171112061e-01,-9.525541216135025024e-02,3.684926033020019531e-01,2.025829702615737915e-01,-3.943574428558349609e-01,-5.072448775172233582e-02,-8.655105531215667725e-02,-3.686185181140899658e-01,-5.496296659111976624e-02,1.018454581499099731e-01,-2.306908220052719116e-01,-5.644446983933448792e-02,1.120836883783340454e-01,3.187901899218559265e-02,4.764929413795471191e-02,1.164083853363990784e-01,1.400471627712249756e-01,-1.423254907131195068e-01,2.804731205105781555e-02,-1.230514347553253174e-01,-2.982577383518218994e-01,2.271905541419982910e-01,5.579090863466262817e-02,1.425202786922454834e-01,-1.063313707709312439e-01,-1.548508405685424805e-01,-1.602716594934463501e-01,-5.778848528861999512e-01,-2.042983919382095337e-01,-1.729027628898620605e-01,8.895362168550491333e-02,3.753659129142761230e-01,-1.495234519243240356e-01,-3.829864040017127991e-02,-8.338645845651626587e-02,-3.844977915287017822e-01,-3.150560855865478516e-01
-9.972263127565383911e-02,1.460612267255783081e-01,-2.048797458410263062e-01,-2.008600085973739624e-01,4.161809384822845459e-02,-3.540647625923156738e-01,3.523905528709292412e-03,6.219705566763877869e-02,3.725075721740722656e-02,-2.631888687610626221e-01,-1.568705886602401733e-01,-2.512608766555786133e-01,2.162474691867828369e-01,-1.509500592947006226e-01,1.161936298012733459e-01,2.485917955636978149e-01,1.450437605381011963e-01,-1.259797662496566772e-01,2.660636603832244873e-01,9.071365743875503540e-02,-4.143929481506347656e-01,-1.631578654050827026e-01,-5.016039125621318817e-03,2.842436432838439941e-01,-7.591155916452407837e-02,3.149149715900421143e-01,1.671468168497085571e-01,4.362554103136062622e-02,-3.110126852989196777e-01,-6.791630387306213379e-02,-4.972286522388458252e-01,-1.470195055007934570e-01,-2.698710262775421143e-01,-4.109466671943664551e-01,1.942534446716308594e-01,1.029811426997184753e-01,-3.387668728828430176e-02,-3.352236449718475342e-01,-2.643521726131439209e-01,4.090037196874618530e-02,2.053556591272354126e-01,-1.556813437491655350e-02,-3.149645328521728516e-01,-5.739938840270042419e-02,1.260434538125991821e-01,-2.759610116481781006e-01,3.399972915649414062e-01,-2.013127505779266357e-01,-3.345586657524108887e-01,1.447200030088424683e-01
2.000405043363571167e-01,1.434420496225357056e-01,-1.803469955921173096e-01,-1.941241323947906494e-01,1.153749898076057434e-01,-2.592526935040950775e-02,2.576389908790588379e-01,-5.949273705482482910e-02,-2.505140006542205811e-01,1.531202942132949829e-01,-3.134572505950927734e-02,1.805924922227859497e-01,2.200159728527069092e-01,-4.248484075069427490e-01,-2.072434127330780029e-01,3.088922500610351562e-01,-7.690628618001937866e-02,3.337830007076263428e-01,1.603181511163711548e-01,3.621909022331237793e-02,-3.799760714173316956e-02,5.141747370362281799e-02,2.117160707712173462e-01,2.400800883769989014e-01,-1.404351741075515747e-01,1.917060017585754395e-01,1.739536076784133911e-01,-3.018745779991149902e-01,-9.760928899049758911e-02,-4.762121662497520447e-02,-1.334848552942276001e-01,1.796921491622924805e-01,-5.449492484331130981e-02,1.456657797098159790e-01,-1.020388305187225342e-01,-1.444169431924819946e-01,2.793114185333251953e-01,1.039298623800277710e-01,-1.080422475934028625e-01,-7.946494221687316895e-02,2.330680340528488159e-01,3.396324217319488525e-01,-6.812629103660583496e-02,1.937805265188217163e-01,3.396576642990112305e-01,-1.085905432701110840e-01,-1.589959487318992615e-02,2.661914229393005371e-01,-1.979280821979045868e-02,7.022806257009506226e-02
2.823037207126617432e-01,3.700393438339233398e-02,-2.051415443420410156e-01,-2.900979816913604736e-01,-1.185957118868827820e-01,-1.784523427486419678e-01,3.534013330936431885e-01,6.625519134104251862e-03,-1.164800748229026794e-01,1.073897033929824829e-01,-4.918918944895267487e-03,6.993475556373596191e-02,-2.260342091321945190e-01,-5.742307007312774658e-02,-7.311644405126571655e-02,-3.301433026790618896e-01,7.962162047624588013e-02,1.698694229125976562e-01,-3.022984787821769714e-02,7.474076002836227417e-02,-4.311068952083587646e-01,2.560346722602844238e-01,-3.218356966972351074e-01,2.029680460691452026e-01,-2.052870392799377441e-01,1.495220065116882324e-01,-2.835385035723447800e-03,-3.639369606971740723e-01,-1.316287964582443237e-01,7.598284631967544556e-02,2.416206002235412598e-01,-2.385475188493728638e-01,-1.178983896970748901e-01,-1.401810944080352783e-01,1.873116046190261841e-01,1.691907495260238647e-01,1.652927547693252563e-01,1.497013401240110397e-02,1.324553191661834717e-01,2.845219150185585022e-02,-6.449449807405471802e-02,3.115810453891754150e-01,-5.286841988563537598e-01,-6.029640883207321167e-02,3.438444137573242188e-01,6.548974663019180298e-02,2.200757712125778198e-01,-2.804334461688995361e-01,3.277782350778579712e-02,-6.296380609273910522e-02
9.778542071580886841e-02,-6.630667299032211304e-02,-2.947150170803070068e-02,3.270721435546875000e-01,9.464635699987411499e-02,-1.620683521032333374e-01,-3.424027562141418457e-01,2.571510970592498779e-01,1.826034486293792725e-01,-4.184570908546447754e-01,-1.544591635465621948e-01,7.529050111770629883e-02,2.676602825522422791e-02,-6.753899157047271729e-02,3.683068156242370605e-01,-5.588281154632568359e-01,2.171916142106056213e-02,-5.923727750778198242e-01,1.418230086565017700e-01,2.453746497631072998e-01,2.953351736068725586e-01,-1.938607096672058105e-01,-1.179852485656738281e-01,-3.031605621799826622e-03,3.978343307971954346e-02,2.488110214471817017e-01,1.693194061517715454e-01,2.692366540431976318e-01,-6.519473344087600708e-02,9.409673511981964111e-02,-7.260549068450927734e-02,1.775066554546356201e-01,-1.170346438884735107e-01,1.199639141559600830e-01,-2.506443262100219727e-01,-1.255898922681808472e-01,-4.351179003715515137e-01,3.313233852386474609e-01,1.808445304632186890e-01,1.214432939887046814e-01,-1.528863608837127686e-01,-4.179966151714324951e-01,4.277752339839935303e-01,-3.364624977111816406e-01,-1.819732487201690674e-01,-3.155708312988281250e-01,-2.728689648211002350e-02,-1.815399825572967529e-01,-1.776679605245590210e-02,3.867389559745788574e-01
1.970167458057403564e-01,-2.143141180276870728e-01,-8.346973918378353119e-03,-1.490446925163269043e-01,-1.211942136287689209e-01,4.030535221099853516e-01,-1.684356480836868286e-01,2.442715466022491455e-01,2.606986463069915771e-01,-1.216288581490516663e-01,3.282452225685119629e-01,-4.156050384044647217e-01,3.251827061176300049e-01,-3.013127744197845459e-01,3.223500028252601624e-02,-1.824864894151687622e-01,-2.311202287673950195e-01,-1.514146476984024048e-01,1.735094040632247925e-01,-2.624179720878601074e-01,-2.899752743542194366e-02,5.233020335435867310e-02,2.783651053905487061e-01,-2.325109094381332397e-01,-6.312800943851470947e-02,2.429064810276031494e-01,5.708285048604011536e-02,2.786951959133148193e-01,-6.278690695762634277e-02,2.748441398143768311e-01,1.679801493883132935e-01,6.412149220705032349e-02,-2.806410193443298340e-01,-1.671826839447021484e-01,3.348414301872253418e-01,-1.287753731012344360e-01,4.473187029361724854e-02,-4.288728535175323486e-01,-4.065901041030883789e-01,2.408140711486339569e-02,8.956535160541534424e-02,3.074488602578639984e-02,-6.770219653844833374e-02,-3.067647218704223633e-01,-1.901452615857124329e-02,2.000187337398529053e-01,2.876679599285125732e-01,-6.065862774848937988e-01,-2.043485790491104126e-01,-3.032354414463043213e-01
9.576395899057388306e-02,-1.915882900357246399e-02,-2.500198483467102051e-01,2.712723910808563232e-01,3.778472915291786194e-02,-5.975639075040817261e-02,-5.602155923843383789e-01,-9.931051731109619141e-02,1.538586914539337158e-01,1.613917946815490723e-01,8.860939741134643555e-02,1.631366759538650513e-01,-2.316706776618957520e-01,8.712922036647796631e-02,3.543424010276794434e-01,1.439370810985565186e-01,1.402937620878219604e-01,3.399107605218887329e-02,1.129197254776954651e-01,-3.816775279119610786e-03,4.653216302394866943e-01,2.670595049858093262e-01,2.650615572929382324e-01,-1.967042535543441772e-01,2.393205612897872925e-01,-2.690527737140655518e-01,-1.328561734408140182e-02,1.572161763906478882e-01,3.701272904872894287e-01,4.963130131363868713e-02,-3.509579598903656006e-02,3.365349173545837402e-01,2.482699155807495117e-01,1.525543481111526489e-01,2.317565381526947021e-01,-2.868159413337707520e-01,-5.384522303938865662e-02,9.342227876186370850e-02,1.944615095853805542e-01,2.136788517236709595e-01,-1.270093470811843872e-01,-4.572271704673767090e-01,9.917709231376647949e-02,-2.103191316127777100e-01,-1.101742833852767944e-01,2.566454410552978516e-01,6.338915228843688965e-02,-1.826561391353607178e-01,6.987985689193010330e-03,-1.462488472461700439e-01
-3.570861816406250000e-01,-2.486914861947298050e-03,-3.298388123512268066e-01,8.982901275157928467e-02,-2.063603512942790985e-02,1.121720001101493835e-01,-6.277069449424743652e-02,3.481140434741973877e-01,-1.540021300315856934e-01,-2.620384097099304199e-01,6.512131541967391968e-02,-2.063510566949844360e-01,2.686300575733184814e-01,-8.259607106447219849e-02,2.294477522373199463e-01,7.932864874601364136e-02,1.783353984355926514e-01,1.369397342205047607e-01,-1.007149890065193176e-01,-1.337876021862030029e-01,-2.059926241636276245e-01,-1.316907256841659546e-01,3.097252249717712402e-01,-2.573126852512359619e-01,1.172147393226623535e-01,-6.385184079408645630e-02,4.194830358028411865e-01,5.382965505123138428e-02,3.223704695701599121e-01,-2.686311006546020508e-01,-1.831621229648590088e-01,1.027477383613586426e-01,9.122179448604583740e-02,1.245773658156394958e-01,1.429071743041276932e-02,-2.139817625284194946e-01,2.461366541683673859e-02,1.349515765905380249e-01,-1.832489483058452606e-02,4.508842900395393372e-02,-6.678106188774108887e-01,-2.098374068737030029e-01,-1.121260076761245728e-01,5.520551279187202454e-02,-1.400020718574523926e-01,-3.434273973107337952e-02,-3.162371218204498291e-01,-1.875041425228118896e-01,-1.634706854820251465e-01,-4.078710079193115234e-01
2.039173245429992676e-01,2.254287153482437134e-01,-1.301691308617591858e-02,3.840752243995666504e-01,-5.050379782915115356e-02,6.508347112685441971e-03,-2.273838967084884644e-01,1.626683585345745087e-02,-2.330072969198226929e-01,6.487795617431402206e-04,1.590523868799209595e-01,2.443407177925109863e-01,2.631376981735229492e-01,-2.586184740066528320e-01,-1.958222985267639160e-01,8.905392885208129883e-02,-2.601551711559295654e-01,-1.664411872625350952e-01,-5.249146372079849243e-02,5.412150174379348755e-02,-7.719214260578155518e-02,-1.505813151597976685e-01,-5.601456016302108765e-02,-4.635831713676452637e-02,2.028749287128448486e-01,-2.504235804080963135e-01,-1.099759861826896667e-01,1.698469370603561401e-02,-1.463808268308639526e-01,-4.024154543876647949e-01,-2.896674275398254395e-01,-7.007684558629989624e-02,-2.201399505138397217e-01,-3.596298024058341980e-02,-2.296805679798126221e-01,3.600890636444091797e-01,-3.000587224960327148e-01,-4.152034223079681396e-01,-1.965269893407821655e-01,9.128203988075256348e-02,-1.415743585675954819e-02,-3.032861053943634033e-01,-3.635974526405334473e-01,8.368344604969024658e-02,1.216289550065994263e-01,1.855859905481338501e-02,2.613255009055137634e-02,1.709847599267959595e-01,-1.576864626258611679e-03,1.970226317644119263e-02
1.628516614437103271e-01,5.756193771958351135e-02,4.012837707996368408e-01,6.026626750826835632e-02,3.463833406567573547e-02,-4.054930433630943298e-02,1.996707320213317871e-01,-5.084722638130187988e-01,1.769293248653411865e-01,3.630438148975372314e-01,-2.287322878837585449e-01,3.527310192584991455e-01,-7.835450232960283756e-04,4.324753582477569580e-01,7.943176478147506714e-02,1.154615879058837891e-01,-1.373113244771957397e-01,-8.852709084749221802e-02,-2.128072828054428101e-01,-4.534646868705749512e-02,3.682980686426162720e-02,-6.207149475812911987e-02,-3.538988232612609863e-01,1.989317238330841064e-01,-2.839298248291015625e-01,-6.608832627534866333e-02,-1.082091927528381348e-01,-3.768329024314880371e-01,-3.167425692081451416e-01,-3.356622457504272461e-01,-3.772784173488616943e-01,-1.587564796209335327e-01,-2.721515893936157227e-01,-1.788701266050338745e-01,-3.484385609626770020e-01,-2.267257422208786011e-01,-2.721998989582061768e-01,-2.260515987873077393e-01,2.678049206733703613e-01,-5.191138386726379395e-01,1.713628508150577545e-02,-1.696736067533493042e-01,1.580489426851272583e-01,-3.296894952654838562e-02,-1.040726825594902039e-01,-2.483077049255371094e-01,-4.212765395641326904e-01,3.671335056424140930e-02,1.854201108217239380e-01,5.437159165740013123e-02
4.119597375392913818e-02,2.046601474285125732e-01,2.006258070468902588e-01,3.405800759792327881e-01,-1.665359586477279663e-01,2.944005839526653290e-02,-3.527559936046600342e-01,-7.948151230812072754e-02,-2.626571059226989746e-01,2.262382060289382935e-01,-8.186790347099304199e-02,4.603900909423828125e-01,-1.382306367158889771e-01,-9.933689981698989868e-02,-2.548313736915588379e-01,1.578903794288635254e-01,-3.915922939777374268e-01,-2.115017175674438477e-01,1.011271998286247253e-01,-2.251169830560684204e-01,-1.665433943271636963e-01,2.245786339044570923e-01,2.038440257310867310e-01,9.802669286727905273e-02,8.914485573768615723e-02,-1.923351734876632690e-01,2.532907528802752495e-03,2.275801748037338257e-01,-1.231678277254104614e-01,-4.437643587589263916e-01,-5.724588632583618164e-01,-2.433849871158599854e-01,-1.120001897215843201e-01,-5.499650239944458008e-01,-2.075885087251663208e-01,4.252449572086334229e-01,2.229542657732963562e-02,-5.638896822929382324e-01,-7.404717057943344116e-02,-3.889854550361633301e-01,2.324539870023727417e-01,-1.661949306726455688e-01,-2.907781898975372314e-01,-6.586696505546569824e-01,7.323440909385681152e-02,-8.914614468812942505e-02,1.888788421638309956e-03,8.634993433952331543e-02,-1.882138848304748535e-01,-2.361811995506286621e-01
-1.827032417058944702e-01,-2.783191204071044922e-01,-1.898165047168731689e-01,2.274924367666244507e-01,3.223001956939697266e-02,-2.616515755653381348e-01,1.852878183126449585e-01,1.478771269321441650e-01,-2.013479918241500854e-01,-2.571000717580318451e-02,-8.922485262155532837e-02,-1.167646348476409912e-01,-1.161050125956535339e-01,-2.755118310451507568e-01,4.323237389326095581e-02,-3.248196328058838844e-03,-2.239743322134017944e-01,-1.653946191072463989e-01,-2.972336718812584877e-03,-6.423564255237579346e-02,-1.293307989835739136e-01,-2.527932636439800262e-02,-1.599289923906326294e-01,-7.127258181571960449e-02,-3.750151768326759338e-02,2.103279829025268555e-01,2.246499434113502502e-02,-9.165396541357040405e-02,-2.146042436361312866e-01,-7.111659646034240723e-02,8.413434028625488281e-02,-7.822683453559875488e-02,1.687050610780715942e-01,3.856652602553367615e-02,-1.384114027023315430e-01,-1.689453423023223877e-01,1.842078268527984619e-01,-1.628583818674087524e-01,-6.938393414020538330e-02,3.015898466110229492e-01,8.981969952583312988e-02,2.664305567741394043e-01,-1.986551284790039062e-01,-6.208409368991851807e-02,-4.373194649815559387e-02,-1.099546775221824646e-01,1.778286136686801910e-02,-2.443289607763290405e-01,-2.465240657329559326e-01,1.734349876642227173e-02
1.490954589098691940e-02,2.303275167942047119e-01,3.529412746429443359e-01,1.962975114583969116e-01,-1.820549741387367249e-02,-3.418833613395690918e-01,3.503766953945159912e-01,1.977577358484268188e-01,-1.723538897931575775e-02,1.988383196294307709e-02,-2.443090826272964478e-02,-1.453068703413009644e-01,-9.127601236104965210e-02,-5.584918335080146790e-02,-9.255331754684448242e-02,1.430187225341796875e-01,-1.520668864250183105e-01,4.933370277285575867e-02,-4.759704321622848511e-02,-1.945740729570388794e-01,1.041346043348312378e-01,-1.820311066694557667e-03,-9.740914404392242432e-02,-1.173584684729576111e-01,-1.086328625679016113e-01,-4.628596007823944092e-01,-3.353368937969207764e-01,-1.770954132080078125e-01,7.390490174293518066e-02,1.070557311177253723e-01,1.908457726240158081e-01,-4.603203833103179932e-01,1.493544280529022217e-01,9.904695302248001099e-02,1.077760681509971619e-01,-6.506714224815368652e-02,1.722525656223297119e-01,-2.331007122993469238e-01,-3.188815340399742126e-02,-2.034698426723480225e-01,6.530821323394775391e-02,-1.408045887947082520e-01,-1.237443014979362488e-01,-5.268053710460662842e-02,-1.275400668382644653e-01,1.365852206945419312e-01,-1.878219246864318848e-01,-1.259344816207885742e-01,7.303376332856714725e-04,1.653286069631576538e-01
-1.578633040189743042e-01,-4.149553552269935608e-02,-6.588457226753234863e-01,-5.057902336120605469e-01,-1.322304308414459229e-01,2.065267860889434814e-01,-7.552661001682281494e-02,-3.082515895366668701e-01,-8.041222393512725830e-02,-1.033753976225852966e-01,-5.422402173280715942e-02,-3.366618454456329346e-01,-2.811951339244842529e-01,-2.472966909408569336e-01,-1.928292363882064819e-01,-1.705344417132437229e-03,9.563275426626205444e-02,-2.651317119598388672e-01,1.946636289358139038e-01,3.343521431088447571e-02,-1.264027953147888184e-01,-1.452109962701797485e-01,3.511682450771331787e-01,-2.243992686271667480e-02,-7.088071107864379883e-01,-2.793601155281066895e-01,4.693234860897064209e-01,-2.277712970972061157e-01,3.847730457782745361e-01,-1.263930797576904297e-01,-1.807422190904617310e-01,4.900867119431495667e-02,1.168006472289562225e-02,1.756573617458343506e-01,2.767951600253582001e-02,-6.225969195365905762e-01,2.869056463241577148e-01,-1.075233295559883118e-01,2.042940258979797363e-01,2.452193498611450195e-01,3.198088109493255615e-01,-2.385597527027130127e-01,-9.691401571035385132e-02,1.288994252681732178e-01,2.926056087017059326e-01,3.731149947270750999e-03,-5.396440252661705017e-02,1.680366098880767822e-01,1.040726676583290100e-01,8.610163629055023193e-02
2.497802674770355225e-01,1.676381081342697144e-01,3.891128003597259521e-01,1.433908641338348389e-01,1.762607544660568237e-01,-6.992121785879135132e-02,9.733681380748748779e-02,-2.418780513107776642e-02,8.652818948030471802e-02,-4.598128199577331543e-01,-2.886095317080616951e-03,-6.131372600793838501e-02,-3.678371012210845947e-01,-9.418252855539321899e-02,1.115090623497962952e-01,-2.098676413297653198e-01,-1.701710820198059082e-01,2.461942881345748901e-01,-3.672206699848175049e-01,-2.827646136283874512e-01,2.723721414804458618e-02,1.674729585647583008e-01,-2.552269995212554932e-01,1.249546781182289124e-01,-1.442340165376663208e-01,7.982140779495239258e-02,-1.669105887413024902e-01,3.012356162071228027e-02,-7.376355677843093872e-02,2.665956914424896240e-01,-1.267249435186386108e-01,-4.392901659011840820e-01,2.443492645397782326e-03,1.238018870353698730e-01,-1.198877319693565369e-01,1.419928520917892456e-01,-1.800863444805145264e-01,-2.378494143486022949e-01,-1.288849711418151855e-01,-2.388973683118820190e-01,9.384537488222122192e-02,-2.730396203696727753e-02,-1.342032849788665771e-01,-5.181971192359924316e-01,1.017192676663398743e-01,1.205324679613113403e-01,5.222881212830543518e-02,-3.658390045166015625e-01,-1.289289593696594238e-01,-3.256977200508117676e-01
-4.044608473777770996e-01,-4.771251976490020752e-01,-4.333327114582061768e-01,-6.485671550035476685e-02,-5.023834705352783203e-01,1.678514033555984497e-01,-4.313748776912689209e-01,1.486053168773651123e-01,-9.361802786588668823e-02,3.049204945564270020e-01,-9.056540578603744507e-02,-1.229694113135337830e-01,1.777842640876770020e-01,-1.360554546117782593e-01,-1.363117694854736328e-01,3.988832533359527588e-01,-9.614170342683792114e-02,-2.860223054885864258e-01,2.086866199970245361e-01,1.683987379074096680e-01,1.530253142118453979e-01,-1.536038368940353394e-01,3.303461372852325439e-01,-1.709302514791488647e-01,-7.934339344501495361e-03,-3.327518403530120850e-01,-1.866617947816848755e-01,-3.158153593540191650e-01,4.917127266526222229e-02,-3.885447382926940918e-01,-3.200101852416992188e-01,1.539658159017562866e-01,1.386182159185409546e-01,-6.467128545045852661e-02,-2.600446045398712158e-01,-1.154747139662504196e-02,1.253015846014022827e-01,-2.271330803632736206e-01,-1.450756192207336426e-01,-2.974091470241546631e-01,5.229603499174118042e-02,-5.949172973632812500e-01,-1.081998571753501892e-01,1.407002955675125122e-01,-1.153303980827331543e-01,-2.786968350410461426e-01,2.181862248107790947e-03,5.859366804361343384e-02,-9.115573018789291382e-02,6.868945062160491943e-02
-2.506637573242187500e-01,-4.957609772682189941e-01,6.775362044572830200e-02,-2.248474359512329102e-01,8.636056631803512573e-02,4.089030623435974121e-02,-1.469494253396987915e-01,8.412198722362518311e-02,-4.707662165164947510e-01,-6.479611992835998535e-01,3.127565383911132812e-01,-3.509438037872314453e-01,7.318120449781417847e-02,1.171050146222114563e-01,3.306384086608886719e-01,-3.413982391357421875e-01,1.270808726549148560e-01,1.454766392707824707e-01,6.682491302490234375e-02,-1.843155473470687866e-01,-2.088999748229980469e-01,-3.221194148063659668e-01,2.763600349426269531e-01,-4.980942010879516602e-01,2.387308925390243530e-01,-2.066386863589286804e-02,-1.599067151546478271e-01,1.640038937330245972e-01,1.350731104612350464e-01,2.277586460113525391e-01,2.092096358537673950e-01,1.818704605102539062e-01,-9.490772336721420288e-02,1.088408753275871277e-01,3.499113619327545166e-01,1.553523838520050049e-01,9.830919653177261353e-02,2.427509520202875137e-03,-4.686222672462463379e-01,-5.710959061980247498e-02,-2.081635408103466034e-03,-5.650283023715019226e-02,-1.185643002390861511e-01,-1.051693921908736229e-03,-8.420200645923614502e-02,3.058522045612335205e-01,1.297946572303771973e-01,-2.515886425971984863e-01,-1.398290544748306274e-01,-3.006199300289154053e-01
-1.636453717947006226e-01,-1.602610647678375244e-01,-7.720906287431716919e-03,-2.376584261655807495e-01,-1.501883417367935181e-01,2.318937890231609344e-02,-1.714794784784317017e-01,2.063739299774169922e-01,-2.986514270305633545e-01,-1.252161264419555664e-01,-2.407021224498748779e-01,-3.291703760623931885e-01,2.052985429763793945e-01,-1.838604360818862915e-01,6.455563008785247803e-02,-2.709926366806030273e-01,2.020714432001113892e-02,-7.715921849012374878e-02,-1.449763476848602295e-01,-1.366921663284301758e-01,9.895218163728713989e-02,1.767320558428764343e-02,-2.342029958963394165e-01,4.104622080922126770e-02,-7.985900342464447021e-02,-2.191655039787292480e-01,2.720081210136413574e-01,5.375383049249649048e-02,3.227437138557434082e-01,1.857620030641555786e-01,-1.975018158555030823e-02,-2.240329794585704803e-02,-3.248122334480285645e-01,-8.129230700433254242e-03,-9.546347707509994507e-02,1.534132808446884155e-01,1.656747609376907349e-01,-3.852708935737609863e-01,-1.723234057426452637e-01,-3.079157769680023193e-01,-1.963485926389694214e-01,-7.429062575101852417e-02,3.206540271639823914e-02,-3.365684747695922852e-01,2.478572726249694824e-01,1.782594323158264160e-01,-1.284809969365596771e-02,5.084227770566940308e-02,-2.236426174640655518e-01,-2.218894809484481812e-01
8.747857064008712769e-02,-3.596893548965454102e-01,1.206827014684677124e-01,6.650070101022720337e-02,-2.233188040554523468e-02,3.001347482204437256e-01,-3.332471251487731934e-01,2.753663361072540283e-01,6.928042508661746979e-03,1.286327540874481201e-01,-1.901933550834655762e-01,-2.756303548812866211e-01,-1.093774959444999695e-01,-1.361140161752700806e-01,1.390037536621093750e-01,-2.562168240547180176e-01,-1.345090717077255249e-01,-7.146316021680831909e-02,2.340809702873229980e-01,3.851730749011039734e-02,2.910511568188667297e-02,-1.079656556248664856e-01,-3.411066234111785889e-01,8.436270803213119507e-02,-3.099059760570526123e-01,-3.540797857567667961e-03,-1.517846155911684036e-02,4.204259812831878662e-01,-2.727386951446533203e-01,1.510542780160903931e-01,-5.621284618973731995e-02,-2.080747634172439575e-01,-1.618189066648483276e-01,3.411457315087318420e-02,-6.864664144814014435e-03,-1.772791296243667603e-01,-7.938627898693084717e-02,-3.036628961563110352e-01,4.880158975720405579e-02,-2.221920937299728394e-01,-3.849867731332778931e-02,-7.698930054903030396e-02,1.918013840913772583e-01,-4.557117223739624023e-01,1.086993664503097534e-01,-1.197371445596218109e-02,9.173222631216049194e-02,1.059192717075347900e-01,-4.519160091876983643e-01,-6.868684291839599609e-02
-1.538093239068984985e-01,-3.975337445735931396e-01,-2.269792109727859497e-01,1.447489112615585327e-01,-1.714211329817771912e-02,1.901918500661849976e-01,-1.147071793675422668e-01,2.334228903055191040e-02,7.175779342651367188e-02,2.165765613317489624e-01,-1.283312886953353882e-01,7.449115067720413208e-02,-2.221164256334304810e-01,2.459012344479560852e-02,-2.927865386009216309e-01,-3.048227131366729736e-01,-2.298280969262123108e-02,-2.627140143886208534e-03,1.447995901107788086e-01,2.852898323908448219e-03,1.673758625984191895e-01,1.047021299600601196e-01,-6.702992320060729980e-02,-1.832657903432846069e-01,2.565695345401763916e-01,-1.696334481239318848e-01,-8.903877437114715576e-02,-3.214050233364105225e-01,9.607154875993728638e-02,-1.749148517847061157e-01,-2.869474291801452637e-01,2.273313552141189575e-01,1.034221425652503967e-02,-3.049491345882415771e-01,-3.277412652969360352e-01,2.800737917423248291e-01,-2.749972343444824219e-01,1.797045320272445679e-01,2.063094973564147949e-01,-3.046693205833435059e-01,-7.464899122714996338e-02,4.357904568314552307e-02,6.638875603675842285e-02,6.569308042526245117e-02,6.963176187127828598e-03,2.465003915131092072e-02,-1.832443475723266602e-01,1.542519778013229370e-01,2.683582603931427002e-01,-8.944670110940933228e-02
-1.465123444795608521e-01,2.126870155334472656e-01,-3.263703584671020508e-01,-5.810680240392684937e-02,2.989472821354866028e-02,8.379724621772766113e-02,-1.423190236091613770e-01,-3.186859786510467529e-01,-3.709433227777481079e-02,-2.859013378620147705e-01,1.759439706802368164e-01,2.256709188222885132e-01,-4.558108150959014893e-01,2.040986344218254089e-02,2.145059555768966675e-01,3.421203047037124634e-02,-1.639974415302276611e-01,2.765916287899017334e-01,1.303040385246276855e-01,-6.614969670772552490e-02,-1.707309037446975708e-01,2.408174723386764526e-01,2.788846148177981377e-03,-1.074676439166069031e-01,9.239904582500457764e-02,-1.137354001402854919e-01,-2.732546329498291016e-01,1.704151928424835205e-01,1.500757038593292236e-02,2.910228213295340538e-03,2.532425522804260254e-02,-7.324503362178802490e-02,9.045490622520446777e-02,7.827899456024169922e-01,-1.289717573672533035e-02,-1.331450492143630981e-01,1.613861322402954102e-01,1.635175943374633789e-01,-2.411788105964660645e-01,-2.798475325107574463e-02,-4.908143077045679092e-03,2.293064445257186890e-01,-1.417939811944961548e-01,-1.872643977403640747e-01,-3.453095257282257080e-01,-1.925593167543411255e-01,-2.416448891162872314e-01,-1.797910928726196289e-01,1.520986557006835938e-01,-2.762071788311004639e-01
2.790531218051910400e-01,1.151791587471961975e-01,2.444708347320556641e-01,1.082123219966888428e-01,2.861613929271697998e-01,3.400161396712064743e-03,1.803292632102966309e-01,6.137888878583908081e-02,6.667885463684797287e-03,-6.408211588859558105e-01,-2.861953973770141602e-01,-3.703462481498718262e-01,-3.035416901111602783e-01,7.649911101907491684e-03,9.260188788175582886e-03,-2.635513246059417725e-02,1.489370167255401611e-01,5.065764188766479492e-01,-3.915168642997741699e-01,-1.455910801887512207e-01,-2.713751792907714844e-01,-9.915895760059356689e-02,-2.413852214813232422e-01,-5.872108414769172668e-02,-2.503917217254638672e-01,-7.099799066781997681e-02,-2.389671653509140015e-02,5.894776061177253723e-02,5.632482096552848816e-02,1.165645346045494080e-01,5.130784958600997925e-02,-6.164991259574890137e-01,-2.142814993858337402e-01,-3.568528294563293457e-01,1.595084369182586670e-01,2.439702749252319336e-01,-3.826594054698944092e-01,1.147484928369522095e-01,1.869170367717742920e-02,3.587625920772552490e-01,-4.347839578986167908e-02,1.256462335586547852e-01,-1.143763586878776550e-01,-2.639313936233520508e-01,2.861080877482891083e-02,-1.500295102596282959e-01,1.075860932469367981e-01,-5.105286836624145508e-01,-3.140152394771575928e-01,-2.176600843667984009e-01
1.960854791104793549e-02,3.473204970359802246e-01,1.869384497404098511e-01,8.815120905637741089e-02,-4.583887755870819092e-01,-2.386449277400970459e-01,7.565154135227203369e-02,-6.580951623618602753e-03,6.265193969011306763e-02,3.799452185630798340e-01,-2.834396958351135254e-01,3.673189505934715271e-02,-3.551747417077422142e-03,4.219262301921844482e-01,1.310947090387344360e-01,2.478866577148437500e-01,-2.039719140157103539e-03,-1.047777310013771057e-01,-6.952177733182907104e-02,-2.107150405645370483e-01,1.345601677894592285e-02,4.362752735614776611e-01,-1.310938447713851929e-01,-4.122936427593231201e-01,5.756800062954425812e-03,-6.385316848754882812e-01,1.227585598826408386e-01,-1.446192264556884766e-01,-2.272734940052032471e-01,-3.385718762874603271e-01,-2.521915733814239502e-01,1.415636986494064331e-01,-2.976196408271789551e-01,-1.502522230148315430e-01,-5.163480043411254883e-01,3.724303096532821655e-02,-2.144938707351684570e-01,-5.090662240982055664e-01,2.986508309841156006e-01,-6.700674891471862793e-01,-3.958588466048240662e-02,3.659177422523498535e-01,1.330365985631942749e-01,-2.445960640907287598e-01,1.417540907859802246e-01,-5.421031266450881958e-02,-3.954475224018096924e-01,1.418371051549911499e-01,3.466736078262329102e-01,-3.840454816818237305e-01
-2.911225855350494385e-01,3.405338153243064880e-02,-2.917495556175708771e-02,-1.258784532546997070e-01,-3.827131390571594238e-01,2.426868081092834473e-01,-3.051276206970214844e-01,-1.037705019116401672e-01,5.090694501996040344e-02,-7.026105374097824097e-02,-1.097629368305206299e-01,-4.586685895919799805e-01,-1.730280071496963501e-01,6.494853645563125610e-02,-9.796792268753051758e-02,3.031043410301208496e-01,-1.568888425827026367e-01,-8.502057753503322601e-03,6.539967376738786697e-03,7.999980449676513672e-02,-3.683511316776275635e-01,1.070743650197982788e-01,7.271568477153778076e-02,-2.636161148548126221e-01,-1.352314800024032593e-01,-2.681821286678314209e-01,6.186259910464286804e-02,-2.079996466636657715e-02,5.843429267406463623e-02,5.597231164574623108e-02,-1.079019084572792053e-01,-2.390087991952896118e-01,-1.128840744495391846e-01,-1.411599963903427124e-01,-1.035418733954429626e-01,5.438542738556861877e-02,1.919363588094711304e-01,1.327763497829437256e-01,2.115322276949882507e-02,-1.497817784547805786e-01,3.170862495899200439e-01,-4.336670041084289551e-01,-1.494607776403427124e-01,-3.286556154489517212e-02,5.817787256091833115e-03,-5.178605765104293823e-02,4.788413271307945251e-02,-3.126774132251739502e-01,-2.505022659897804260e-02,2.956974208354949951e-01
8.965412154793739319e-03,-1.415557116270065308e-01,-1.218253821134567261e-01,-6.773982942104339600e-02,1.365022081881761551e-02,2.790480293333530426e-02,5.995412915945053101e-02,-2.422993332147598267e-01,5.522572994232177734e-02,-1.201219111680984497e-01,-8.672134578227996826e-02,-2.569030821323394775e-01,-1.714239120483398438e-01,-7.374967448413372040e-03,-2.283516824245452881e-01,-1.505818963050842285e-01,6.777381151914596558e-02,-1.262699216604232788e-01,-2.648130655288696289e-01,3.638811409473419189e-02,2.050529792904853821e-02,2.372420392930507660e-03,-3.859183788299560547e-01,-2.612641453742980957e-01,-5.414513349533081055e-01,3.635004535317420959e-02,-2.056951820850372314e-01,-1.437832266092300415e-01,-2.184201031923294067e-02,2.111029475927352905e-01,-3.341920673847198486e-02,1.011331528425216675e-01,7.157995551824569702e-02,3.873116523027420044e-02,-3.544235229492187500e-01,-4.625278115272521973e-01,-7.037311047315597534e-02,8.415571600198745728e-02,3.569864928722381592e-01,-1.750599741935729980e-01,-4.804899990558624268e-01,4.607824981212615967e-01,1.545493453741073608e-01,-9.185297042131423950e-02,1.363642364740371704e-01,-7.990535348653793335e-02,-2.011673450469970703e-01,1.266931891441345215e-01,-4.110110104084014893e-01,-4.488880634307861328e-01
-1.700806915760040283e-01,6.122250109910964966e-02,3.818191885948181152e-01,-3.654837012290954590e-01,-2.564749717712402344e-01,-3.422678411006927490e-01,2.140251696109771729e-01,-3.041525483131408691e-01,-3.166003897786140442e-02,-3.200740367174148560e-02,-3.025557473301887512e-02,-7.847997546195983887e-02,-3.689879551529884338e-02,3.015606403350830078e-01,8.400695770978927612e-02,4.366671293973922729e-02,8.894607424736022949e-02,-6.878936290740966797e-02,-2.200042903423309326e-01,3.877513483166694641e-02,-1.882881373167037964e-01,1.009155586361885071e-01,-9.163937717676162720e-02,-1.130305379629135132e-01,-2.603837549686431885e-01,-1.497651636600494385e-01,1.407285332679748535e-01,-2.833287119865417480e-01,1.885412782430648804e-01,-1.409964263439178467e-01,-1.669040769338607788e-01,-3.215832263231277466e-02,6.993119139224290848e-03,-1.470389366149902344e-01,1.324492506682872772e-03,-6.002678275108337402e-01,-8.642701059579849243e-02,2.883712053298950195e-01,3.991046547889709473e-01,1.002607122063636780e-02,-1.657278835773468018e-01,-1.860466785728931427e-02,-2.036609202623367310e-01,2.518049776554107666e-01,-9.613972902297973633e-02,6.409631669521331787e-02,-2.046548426151275635e-01,4.183977842330932617e-02,-2.131543606519699097e-01,-1.296799480915069580e-01
-2.559810280799865723e-01,-3.605724275112152100e-01,-1.119989380240440369e-01,-2.662730775773525238e-02,1.338943988084793091e-01,1.419700980186462402e-01,1.628166735172271729e-01,1.253428906202316284e-01,1.867546290159225464e-01,6.330223381519317627e-02,7.687771320343017578e-02,7.591174542903900146e-02,3.027755022048950195e-01,-7.094583660364151001e-02,1.074849292635917664e-01,2.237954288721084595e-01,-1.001851260662078857e-01,2.803692221641540527e-01,-4.378558322787284851e-02,-2.009968310594558716e-01,2.133130654692649841e-02,-2.588128447532653809e-01,1.074084937572479248e-01,9.883081912994384766e-02,-2.150241434574127197e-01,-1.487021893262863159e-01,-4.727027937769889832e-02,-7.258834689855575562e-02,2.310208082199096680e-01,3.617571294307708740e-01,5.125888437032699585e-02,-1.981834508478641510e-02,-2.135535627603530884e-01,1.531894803047180176e-01,1.400489360094070435e-01,4.602400958538055420e-02,1.483871191740036011e-01,-3.069547004997730255e-02,-9.562571346759796143e-02,2.251321263611316681e-02,-2.896275222301483154e-01,-2.035062760114669800e-01,-2.010521888732910156e-01,2.941773831844329834e-01,-6.399363279342651367e-03,2.253319621086120605e-01,-5.702162161469459534e-02,-1.027577668428421021e-01,-1.597081720829010010e-01,-2.875987887382507324e-01
-2.162853777408599854e-01,-2.254962176084518433e-01,-1.426353752613067627e-01,-6.799992173910140991e-02,-4.253066778182983398e-01,-2.637745440006256104e-02,-2.515132427215576172e-01,7.549044489860534668e-02,-2.922399938106536865e-01,2.817154228687286377e-01,-2.420926541090011597e-01,1.922798901796340942e-01,3.089267611503601074e-01,-3.895710408687591553e-01,-3.650030791759490967e-01,3.473071157932281494e-01,-2.294109947979450226e-02,-1.868657469749450684e-01,-1.044393479824066162e-01,1.448227763175964355e-01,-2.313215583562850952e-01,-2.360617816448211670e-01,2.073410898447036743e-01,1.199136152863502502e-01,8.666895329952239990e-02,9.109870344400405884e-02,2.970740199089050293e-01,-7.061371207237243652e-01,1.724839359521865845e-01,-9.677478671073913574e-02,-1.472839713096618652e-01,-2.859161794185638428e-01,1.165181677788496017e-02,-3.156715929508209229e-01,5.102346185594797134e-03,7.230159640312194824e-02,2.956199347972869873e-01,3.390054777264595032e-02,-4.904002416878938675e-03,8.529585599899291992e-02,4.153097048401832581e-02,5.530169606208801270e-02,-2.800963222980499268e-01,2.416613101959228516e-01,-6.778275221586227417e-02,-2.039007395505905151e-01,1.491058617830276489e-01,2.632927000522613525e-01,-7.790387421846389771e-02,1.134561151266098022e-01
-3.264196813106536865e-01,-3.595323488116264343e-02,3.390403091907501221e-01,-1.158113707788288593e-03,1.696451604366302490e-01,-4.033187925815582275e-01,-3.754315078258514404e-01,4.297129809856414795e-01,-3.145003020763397217e-01,-2.282316833734512329e-01,4.374129325151443481e-02,-2.208369672298431396e-01,3.040608167648315430e-01,1.169795170426368713e-01,2.778159081935882568e-01,-3.107531666755676270e-01,-5.641052871942520142e-02,-4.510920941829681396e-01,-1.391494423151016235e-01,3.058851063251495361e-01,9.680563956499099731e-02,-3.761409819126129150e-01,2.061893194913864136e-01,1.028218120336532593e-01,3.507073819637298584e-01,1.206900924444198608e-01,3.066198527812957764e-01,-3.240383788943290710e-02,-1.038001254200935364e-01,-2.544635236263275146e-01,-1.629878580570220947e-01,-8.374302834272384644e-02,-9.201759099960327148e-02,-1.041722018271684647e-03,-2.961620502173900604e-02,-1.665468513965606689e-01,-8.610705286264419556e-02,2.197051942348480225e-01,9.427972137928009033e-02,2.061011195182800293e-01,-1.213903129100799561e-01,-4.719288945198059082e-01,6.907713133841753006e-03,-1.133921816945075989e-01,-1.800490319728851318e-01,-1.294164359569549561e-01,-1.427864134311676025e-01,-1.568802073597908020e-02,-9.535514563322067261e-02,1.289832293987274170e-01
-2.713770270347595215e-01,4.143236204981803894e-02,6.423699110746383667e-02,5.066055655479431152e-01,6.327095441520214081e-03,8.750242739915847778e-02,-3.591127991676330566e-01,2.693734169006347656e-01,5.484777092933654785e-01,-1.473276317119598389e-01,-6.103019416332244873e-02,-3.796639442443847656e-01,3.262670934200286865e-01,-1.910323351621627808e-01,5.784041285514831543e-01,-1.483032107353210449e-02,-4.366578161716461182e-02,-1.755714789032936096e-02,-4.944732878357172012e-03,-1.442579901777207851e-03,5.069296956062316895e-01,2.289375662803649902e-01,-2.842357158660888672e-01,7.038002461194992065e-02,-3.866029381752014160e-01,-2.235356569290161133e-01,-2.929664254188537598e-01,2.739816308021545410e-01,2.089503258466720581e-01,-1.814202368259429932e-01,3.287566825747489929e-02,3.152909874916076660e-01,2.850833348929882050e-03,-3.515300750732421875e-01,-1.848772168159484863e-01,-4.383737444877624512e-01,-3.154017329216003418e-01,2.873940467834472656e-01,1.317353248596191406e-01,8.627002127468585968e-03,-3.057094104588031769e-02,-3.603379800915718079e-02,2.033078074455261230e-01,-8.050747960805892944e-02,-3.365789651870727539e-01,-2.600319981575012207e-01,1.299960166215896606e-01,-2.493010312318801880e-01,-1.191791146993637085e-01,-3.592836260795593262e-01
-3.430724143981933594e-01,-2.702340185642242432e-01,4.619999825954437256e-01,1.683758944272994995e-01,-1.546235084533691406e-01,-1.256519109010696411e-01,2.389747351408004761e-01,-2.382287979125976562e-01,-1.798372529447078705e-02,-1.055325614288449287e-03,-5.010392889380455017e-02,6.982999294996261597e-02,-4.995512962341308594e-02,2.364868065342307091e-03,-1.095352098345756531e-01,-1.941916793584823608e-01,-1.181466430425643921e-01,7.488173991441726685e-02,4.615609720349311829e-02,1.205275580286979675e-01,1.415131837129592896e-01,-3.265061080455780029e-01,1.785106584429740906e-02,8.346581459045410156e-02,-3.020059317350387573e-02,3.526012599468231201e-01,-3.358424901962280273e-01,1.326853483915328979e-01,-2.487551420927047729e-01,2.359494864940643311e-01,-1.024751961231231689e-01,-6.612659245729446411e-02,1.628822833299636841e-01,-3.886582562699913979e-03,3.643437987193465233e-03,1.495830863714218140e-01,3.874885290861129761e-02,-2.939440608024597168e-01,-2.898126542568206787e-01,2.981952428817749023e-01,2.620867788791656494e-01,2.782727405428886414e-02,8.785508573055267334e-02,-2.486868947744369507e-01,-3.213271126151084900e-02,-2.177669703960418701e-01,2.121038287878036499e-01,-4.674549996852874756e-01,-1.884865611791610718e-01,-1.775827854871749878e-01
-3.045477159321308136e-02,-4.746749103069305420e-01,-2.056974619626998901e-01,1.720849275588989258e-01,6.020636484026908875e-02,-1.550977975130081177e-01,-2.595695853233337402e-01,7.150547951459884644e-02,2.322583198547363281e-01,-4.360083937644958496e-01,-1.066487934440374374e-02,-3.268571197986602783e-01,1.614248305559158325e-01,3.458777964115142822e-01,1.076358631253242493e-01,-3.109788000583648682e-01,2.820689082145690918e-01,-3.839628696441650391e-01,-5.673276260495185852e-02,-1.282400190830230713e-01,2.333512604236602783e-01,-2.164690047502517700e-01,-2.597390115261077881e-01,-1.204251646995544434e-01,-1.678503602743148804e-01,-2.820341661572456360e-02,-3.992093354463577271e-02,2.216702699661254883e-02,1.367271095514297485e-01,-3.916505873203277588e-01,-2.776685357093811035e-02,1.026711687445640564e-01,-1.835687160491943359e-01,1.090252101421356201e-01,1.533775627613067627e-01,-1.791693270206451416e-01,-1.435922831296920776e-01,1.442142575979232788e-01,7.755786925554275513e-02,-3.100209832191467285e-01,-1.363895535469055176e-01,-6.532549113035202026e-02,7.402992341667413712e-03,-7.494302093982696533e-02,-7.996653765439987183e-02,2.343520224094390869e-01,1.005651056766510010e-01,4.629196226596832275e-02,1.796850413084030151e-01,2.974856793880462646e-01
-2.998155355453491211e-02,-4.410476889461278915e-03,7.678521424531936646e-02,1.348473131656646729e-01,-1.025668755173683167e-01,2.378772795200347900e-01,-4.306034445762634277e-01,2.616330683231353760e-01,3.335284888744354248e-01,-1.068482547998428345e-01,1.222183853387832642e-01,3.303513824939727783e-01,2.046778053045272827e-01,-1.965800374746322632e-01,-6.101378798484802246e-02,-4.227651655673980713e-02,-7.201496511697769165e-02,-3.507321178913116455e-01,-1.498831212520599365e-01,6.561956554651260376e-02,4.399120807647705078e-01,3.361189365386962891e-02,9.244929999113082886e-02,-1.217631921172142029e-01,-2.833259105682373047e-01,-4.543515145778656006e-01,-1.973048001527786255e-01,5.063276290893554688e-01,-5.954261496663093567e-02,-9.398622810840606689e-02,3.770099952816963196e-02,-1.028464809060096741e-01,4.784020185470581055e-01,-2.080422788858413696e-01,1.951335817575454712e-01,3.839588537812232971e-02,-3.266788423061370850e-01,-8.040900528430938721e-02,-3.556255251169204712e-03,-2.709058299660682678e-02,-3.955751657485961914e-03,5.991728045046329498e-03,3.795042037963867188e-01,-4.991408288478851318e-01,4.583577811717987061e-01,5.197592824697494507e-02,1.082774922251701355e-01,-2.784848511219024658e-01,1.275446116924285889e-01,-3.133661746978759766e-01
-1.586992144584655762e-01,-1.737574338912963867e-01,2.381743937730789185e-01,-1.840599030256271362e-01,7.470290362834930420e-02,-2.342350035905838013e-02,-1.934716254472732544e-01,-1.670699715614318848e-01,4.349299147725105286e-02,-2.257498353719711304e-01,6.952393800020217896e-02,2.249698489904403687e-01,-2.355380505323410034e-01,2.744635799899697304e-03,6.185678020119667053e-02,-2.769758105278015137e-01,4.550539702177047729e-02,-7.722658663988113403e-02,-2.157697528600692749e-01,-1.916578114032745361e-01,-6.726302951574325562e-02,-2.500084936618804932e-01,2.880086004734039307e-02,2.042593248188495636e-02,-1.600634008646011353e-01,1.612080484628677368e-01,3.134176433086395264e-01,2.803497575223445892e-02,-1.591845788061618805e-02,2.050361968576908112e-02,2.133889049291610718e-01,-2.663341462612152100e-01,-8.417240530252456665e-02,-2.499501593410968781e-02,-1.126220896840095520e-01,6.903402507305145264e-02,1.935120858252048492e-02,-1.895580887794494629e-01,3.492441773414611816e-01,7.881359010934829712e-02,-4.534312058240175247e-03,-1.393766105175018311e-01,-3.767050430178642273e-02,2.028408944606781006e-01,-3.031836263835430145e-02,2.993292175233364105e-02,-2.933103740215301514e-01,-1.273906379938125610e-01,2.899115681648254395e-01,-4.685905948281288147e-02
1.125200912356376648e-01,1.972139328718185425e-01,2.910581529140472412e-01,-6.971838325262069702e-02,5.645482800900936127e-03,-6.474177818745374680e-03,1.681402027606964111e-01,1.595322340726852417e-01,1.537456661462783813e-01,-4.151548743247985840e-01,-5.621638149023056030e-02,-1.546330451965332031e-01,1.262986510992050171e-01,1.602779328823089600e-01,1.741942018270492554e-01,2.016821652650833130e-01,9.359227865934371948e-02,-7.626547664403915405e-02,-1.619337648153305054e-01,2.659323811531066895e-01,-8.078247308731079102e-02,-1.988304257392883301e-01,-1.769431233406066895e-01,4.039406776428222656e-02,1.165372598916292191e-02,-2.717646770179271698e-02,-2.020092457532882690e-01,-2.551511228084564209e-01,2.108284272253513336e-03,-9.717983752489089966e-02,1.986865140497684479e-02,-2.709718942642211914e-01,-3.452086150646209717e-01,-2.108281254768371582e-01,1.762361228466033936e-01,-1.045185923576354980e-01,-2.030991911888122559e-01,-8.019452542066574097e-02,-2.670902013778686523e-01,6.715395301580429077e-02,9.054073691368103027e-02,-1.127179637551307678e-01,-2.727409899234771729e-01,9.369263052940368652e-02,3.555500134825706482e-02,7.582258433103561401e-02,1.325041055679321289e-01,7.299868762493133545e-02,5.330863967537879944e-02,2.978096902370452881e-01
-9.790281206369400024e-02,5.303485319018363953e-02,-1.613657027482986450e-01,2.764813005924224854e-01,-2.494237720966339111e-01,2.944730520248413086e-01,-7.732000946998596191e-01,-3.303482197225093842e-03,1.641312390565872192e-01,-3.138199076056480408e-02,3.095428943634033203e-01,1.005692332983016968e-01,-2.204133272171020508e-01,2.317510694265365601e-01,2.081150710582733154e-01,-4.046885967254638672e-01,-1.475967615842819214e-01,-3.513222932815551758e-01,1.216810941696166992e-01,-1.410560458898544312e-01,1.670493334531784058e-01,-2.182314097881317139e-01,-9.653692692518234253e-02,-4.825885966420173645e-02,-1.164701804518699646e-01,2.668204717338085175e-03,-1.270176023244857788e-01,2.463318854570388794e-01,2.736341059207916260e-01,-1.547857886180281639e-03,1.987758465111255646e-02,2.041922360658645630e-01,9.869589656591415405e-02,-1.053746342658996582e-01,3.359536528587341309e-01,-2.094470858573913574e-01,-7.423427700996398926e-01,1.658671349287033081e-01,2.981326580047607422e-01,-3.603701665997505188e-02,2.615838348865509033e-01,-4.816713929176330566e-02,1.232252642512321472e-02,-2.963730692863464355e-01,-1.232451200485229492e-01,1.956762969493865967e-01,-2.003020495176315308e-01,-4.520233348011970520e-02,1.183101534843444824e-01,4.461804777383804321e-02
1.315076053142547607e-01,-1.286466419696807861e-01,-6.845633685588836670e-02,9.848842769861221313e-02,3.441053926944732666e-01,9.048130363225936890e-02,-8.475381880998611450e-02,-2.839318811893463135e-01,-9.481867402791976929e-02,-2.903979718685150146e-01,2.516903281211853027e-01,1.184636428952217102e-01,3.301599249243736267e-02,-5.519462227821350098e-01,2.066810727119445801e-01,-3.597623109817504883e-02,-3.871311992406845093e-02,1.659096591174602509e-02,3.206788897514343262e-01,2.021469771862030029e-01,2.457746416330337524e-01,-1.680907011032104492e-01,-4.626653343439102173e-02,2.564323544502258301e-01,-3.626558482646942139e-01,1.619089543819427490e-01,-2.333734631538391113e-01,3.094018995761871338e-01,-6.097387671470642090e-01,-1.755879372358322144e-01,-4.507539272308349609e-01,1.483712941408157349e-01,4.920587837696075439e-01,3.189875781536102295e-01,-9.174553304910659790e-02,1.971761435270309448e-01,-2.474044635891914368e-02,2.115655392408370972e-01,-2.478095591068267822e-01,4.546000063419342041e-01,2.910548150539398193e-01,-2.487988471984863281e-01,2.390440851449966431e-01,1.139033660292625427e-01,-2.036020755767822266e-01,-5.961409211158752441e-01,6.969279050827026367e-02,-4.715675115585327148e-01,6.431519985198974609e-02,7.026769965887069702e-02
4.639966040849685669e-02,-4.676842316985130310e-02,1.045427471399307251e-01,1.349987685680389404e-01,2.961146533489227295e-01,-1.312199681997299194e-01,2.156546860933303833e-01,2.541030291467905045e-03,-2.249049246311187744e-01,-3.562979996204376221e-01,8.271053433418273926e-03,3.063249588012695312e-02,-3.402538299560546875e-01,-3.836444020271301270e-02,-3.229707777500152588e-01,-1.747861057519912720e-01,-2.172531485557556152e-01,2.291741967201232910e-01,-1.443671137094497681e-01,-2.358170002698898315e-01,-3.319581449031829834e-01,2.744321227073669434e-01,-1.107240840792655945e-01,-2.938175797462463379e-01,-2.329472601413726807e-01,1.585779935121536255e-01,-1.231390908360481262e-01,-5.222205445170402527e-02,-1.693070083856582642e-01,2.578819096088409424e-01,-7.380978204309940338e-03,-3.146396577358245850e-01,-2.584365606307983398e-01,-5.393033381551504135e-03,2.085943967103958130e-01,1.380127519369125366e-01,-1.566805243492126465e-01,-2.868211865425109863e-01,-3.498848378658294678e-01,-6.510750949382781982e-02,9.540032595396041870e-02,2.221537679433822632e-01,-1.065485700964927673e-01,-2.199392914772033691e-01,2.470574826002120972e-01,-1.265692990273237228e-02,1.172554418444633484e-01,-9.745853394269943237e-02,-1.509096920490264893e-01,6.989987101405858994e-03
-1.086269840598106384e-01,-3.402308523654937744e-01,2.102663666009902954e-01,-1.949025243520736694e-01,-1.610617269761860371e-03,-2.403821349143981934e-01,1.168083027005195618e-01,-1.265659034252166748e-01,-4.011832177639007568e-01,2.247097343206405640e-01,1.586199849843978882e-01,2.143375277519226074e-01,-7.906615734100341797e-02,5.810324847698211670e-02,2.632866501808166504e-01,1.781581044197082520e-01,-7.459633797407150269e-02,-9.220656007528305054e-02,-2.825040221214294434e-01,1.444773524999618530e-01,6.268981099128723145e-02,6.664977967739105225e-02,1.495295912027359009e-01,8.235763758420944214e-02,1.751053780317306519e-01,-1.803541779518127441e-01,1.348994374275207520e-01,-3.317166864871978760e-02,1.371486932039260864e-01,2.286266386508941650e-01,1.374835800379514694e-02,-5.406520888209342957e-02,6.640451401472091675e-02,-9.197692573070526123e-02,3.215035796165466309e-02,-2.201721072196960449e-01,1.277531385421752930e-01,2.097235247492790222e-02,3.423553407192230225e-01,2.408154308795928955e-01,-1.824073046445846558e-01,2.093637734651565552e-02,8.026690036058425903e-02,-1.337558031082153320e-01,5.162891373038291931e-02,1.811170279979705811e-01,8.667762577533721924e-02,7.806505262851715088e-02,-1.759574115276336670e-01,-2.468927800655364990e-01
-2.363513857126235962e-01,4.209211468696594238e-01,-3.928588628768920898e-01,2.297742664813995361e-01,-1.127229854464530945e-01,-7.744996249675750732e-02,-8.705843240022659302e-02,-2.156010419130325317e-01,-2.497899383306503296e-01,-2.544664777815341949e-02,-2.767271697521209717e-01,-4.134273529052734375e-02,-2.788245975971221924e-01,1.758407503366470337e-01,1.914323270320892334e-01,-4.006570875644683838e-01,9.347707033157348633e-02,-1.788556277751922607e-01,2.457810332998633385e-03,1.943290047347545624e-02,-2.748201489448547363e-01,1.005761027336120605e-01,-1.747164428234100342e-01,-2.145631760358810425e-01,1.674232818186283112e-02,4.704633727669715881e-02,-2.428284883499145508e-01,2.634654939174652100e-01,6.083707883954048157e-02,-1.267793625593185425e-01,4.103778675198554993e-02,5.742134898900985718e-02,-1.476230025291442871e-01,7.110724691301584244e-03,1.284112185239791870e-01,-2.458852529525756836e-01,-3.902764320373535156e-01,-8.422687649726867676e-02,-7.811326067894697189e-03,-1.743269413709640503e-01,-2.171125113964080811e-01,-3.234809339046478271e-01,2.065112888813018799e-01,1.461552828550338745e-01,-4.911515116691589355e-01,1.574988812208175659e-01,6.285210698843002319e-02,2.226663529872894287e-01,1.891970336437225342e-01,6.231155246496200562e-03
-1.169255226850509644e-01,1.594409644603729248e-01,4.618240892887115479e-02,-2.345482558012008667e-01,2.921158075332641602e-02,1.765915155410766602e-01,4.753619804978370667e-02,8.263794332742691040e-02,-1.651147454977035522e-01,-8.110757172107696533e-02,2.604211270809173584e-01,-6.666003912687301636e-02,1.504863798618316650e-02,-1.964758522808551788e-02,5.046206340193748474e-02,-2.324738800525665283e-01,-1.954700239002704620e-02,-1.449124366044998169e-01,-1.554178446531295776e-01,-1.403746604919433594e-01,-1.789153516292572021e-01,-2.087551802396774292e-01,-4.404207319021224976e-02,3.388452902436256409e-02,-6.185174360871315002e-02,2.663730978965759277e-01,1.723362654447555542e-01,-4.606327041983604431e-02,1.249596625566482544e-01,1.399402767419815063e-01,1.613283604383468628e-01,-3.190052509307861328e-02,-1.012641414999961853e-01,-2.214485853910446167e-01,1.664260327816009521e-01,3.625006377696990967e-01,-8.882556110620498657e-02,1.016656011343002319e-01,-2.187513411045074463e-01,1.722607947885990143e-02,1.196925938129425049e-01,-3.194752037525177002e-01,-1.231904104351997375e-01,2.924077399075031281e-02,9.036882221698760986e-02,2.712082117795944214e-02,-9.749691188335418701e-02,-3.513063490390777588e-01,-2.033417671918869019e-01,-1.362010091543197632e-01
-1.951239407062530518e-01,-2.179596722126007080e-01,2.021699994802474976e-01,-4.906965792179107666e-02,4.196959137916564941e-01,6.344024837017059326e-02,7.800470292568206787e-02,4.031675681471824646e-02,1.330099105834960938e-01,7.185489684343338013e-02,3.831311166286468506e-01,1.298885196447372437e-01,1.050994396209716797e-01,-6.144900918006896973e-01,2.275564223527908325e-01,4.411732777953147888e-02,-1.765457987785339355e-01,-3.188574314117431641e-01,8.258274942636489868e-02,1.646274477243423462e-01,3.427952900528907776e-02,-1.895698904991149902e-01,9.167150408029556274e-02,3.405989408493041992e-01,-4.581662118434906006e-01,7.239716053009033203e-01,-3.475273400545120239e-02,-4.232274591922760010e-01,-2.155761271715164185e-01,-1.014271602034568787e-01,-1.438499540090560913e-01,-3.148368000984191895e-01,4.220525324344635010e-01,1.472272276878356934e-01,2.088484354317188263e-02,1.554285436868667603e-01,-2.913058400154113770e-01,8.992263674736022949e-02,-1.183151155710220337e-01,7.520019412040710449e-01,-2.767997980117797852e-02,-9.303428232669830322e-02,6.152259185910224915e-02,-1.048933938145637512e-01,-2.649497687816619873e-01,-4.169218838214874268e-01,2.862097322940826416e-01,-1.154466345906257629e-01,-2.767425775527954102e-01,4.037173092365264893e-01
-3.235370516777038574e-01,-1.777423173189163208e-01,8.859664946794509888e-02,-2.826368510723114014e-01,-1.216100752353668213e-01,-8.729144930839538574e-02,-2.193450629711151123e-01,-2.276860326528549194e-01,2.556511461734771729e-01,-2.215443700551986694e-01,-7.619475573301315308e-02,-2.036467492580413818e-01,-6.120810657739639282e-02,3.624064326286315918e-01,3.081310726702213287e-02,4.231163114309310913e-02,7.478881627321243286e-02,8.016092330217361450e-02,-1.263753175735473633e-01,-3.241153955459594727e-01,-9.477965533733367920e-02,6.598614156246185303e-02,-9.102267026901245117e-02,-1.770500838756561279e-02,-3.925037384033203125e-01,-2.248109728097915649e-01,-4.622558876872062683e-02,-6.981371641159057617e-01,-1.686971187591552734e-01,6.047162041068077087e-02,-9.842831641435623169e-02,2.990704178810119629e-01,-1.393228769302368164e-01,-6.527585536241531372e-02,-1.234461292624473572e-01,-1.204891949892044067e-01,-4.371359348297119141e-01,2.876365780830383301e-01,1.906153857707977295e-01,-6.474376469850540161e-02,-2.243775175884366035e-03,3.116718232631683350e-01,-2.328638732433319092e-02,4.164251964539289474e-03,4.518729110714048147e-04,-1.489999294281005859e-01,-2.894910871982574463e-01,-9.900312125682830811e-02,-1.415655715391039848e-04,-8.623136579990386963e-02
