-1.206056028604507446e-01,2.059373408555984497e-01,-1.499563604593276978e-01,9.650029242038726807e-02,2.187689244747161865e-01,2.715780735015869141e-01,1.416816283017396927e-02,-1.169908419251441956e-01,-3.260858654975891113e-01,-8.727685362100601196e-02,-1.301847398281097412e-01,-1.635233461856842041e-01,-4.933868721127510071e-02,2.789060771465301514e-01,-1.993433535099029541e-01,-1.083163172006607056e-01,-2.587817423045635223e-02,4.049261286854743958e-02,-3.302943706512451172e-01,1.122994571924209595e-01,1.567254364490509033e-01,3.341432213783264160e-01,-2.608182430267333984e-01,-9.324010461568832397e-02,3.110240399837493896e-01,1.385387629270553589e-01,-6.329948902130126953e-01,-9.766755253076553345e-02,1.366741508245468140e-01,-2.418181300163269043e-01,1.559745371341705322e-01,-1.226856093853712082e-02,-1.103909313678741455e-01,-2.618100047111511230e-01,4.061461389064788818e-01,-2.229909151792526245e-01,3.704087575897574425e-03,-3.684441372752189636e-02,-4.271208890713751316e-04,-1.365831196308135986e-01,3.127396702766418457e-01,3.256554007530212402e-01,-1.509128510951995850e-01,2.012581527233123779e-01,-1.997787058353424072e-01,1.555761396884918213e-01,2.480667382478713989e-01,2.481919229030609131e-01,2.095881402492523193e-01,1.902335584163665771e-01
1.020788028836250305e-01,2.771445810794830322e-01,1.383334696292877197e-01,6.061476469039916992e-02,-1.932728886604309082e-01,-3.063304126262664795e-01,3.543729186058044434e-01,-1.961038261651992798e-01,3.591596782207489014e-01,-1.695497334003448486e-01,1.724879890680313110e-01,3.608682155609130859e-01,3.214227259159088135e-01,2.402390241622924805e-01,-3.658647090196609497e-02,2.346236407756805420e-01,-1.863961815834045410e-01,2.537261247634887695e-01,4.979993402957916260e-02,-1.594960242509841919e-01,1.928026527166366577e-01,-4.571217894554138184e-01,5.047716498374938965e-01,-3.458157414570450783e-03,9.250495582818984985e-02,3.356066048145294189e-01,4.526382982730865479e-01,2.701248526573181152e-01,1.694056838750839233e-01,-1.145198568701744080e-01,-2.161410450935363770e-01,4.911798052489757538e-03,-1.496648937463760376e-01,1.787984520196914673e-01,-1.077277958393096924e-01,-2.346696704626083374e-01,3.698420524597167969e-02,1.602658033370971680e-01,-1.770139783620834351e-01,-4.318731650710105896e-02,1.296356618404388428e-01,2.765267789363861084e-01,-1.112717837095260620e-01,-2.040279358625411987e-01,9.968434274196624756e-02,1.244881898164749146e-01,1.952427476644515991e-01,1.470423787832260132e-01,5.598863586783409119e-02,-1.148491576313972473e-01
4.813783615827560425e-02,2.644336819648742676e-01,3.177862167358398438e-01,1.792288273572921753e-01,1.660260856151580811e-01,1.600610762834548950e-01,1.956328302621841431e-01,1.121522858738899231e-01,3.028484582901000977e-01,-1.165377199649810791e-01,1.761722862720489502e-01,2.542903721332550049e-01,8.991454541683197021e-02,1.413859426975250244e-01,1.626112759113311768e-01,2.096900492906570435e-01,-2.386480420827865601e-01,3.367146477103233337e-02,4.296125471591949463e-01,-3.870571404695510864e-02,2.600863575935363770e-01,-1.193914040923118591e-01,4.911709129810333252e-01,4.760383069515228271e-02,9.026487357914447784e-03,1.027573365718126297e-03,4.172971546649932861e-01,-9.248492866754531860e-02,2.212477773427963257e-01,3.374627605080604553e-02,-1.694070845842361450e-01,2.056884914636611938e-01,1.265140473842620850e-01,3.152803480625152588e-01,-1.824000477790832520e-01,2.078429013490676880e-01,-2.094676718115806580e-03,-1.071939468383789062e-01,-7.949675619602203369e-02,-1.085458099842071533e-01,9.329336881637573242e-02,2.611768543720245361e-01,4.263384342193603516e-01,-9.292759001255035400e-02,2.590849697589874268e-01,-1.984552592039108276e-01,1.204754784703254700e-01,-1.197969987988471985e-01,1.775017231702804565e-01,1.032422110438346863e-01
9.624622762203216553e-02,6.000590045005083084e-03,-9.149915724992752075e-02,-3.109513819217681885e-01,-2.443021088838577271e-01,-2.976411581039428711e-01,4.826753586530685425e-02,3.323915228247642517e-02,-5.663580819964408875e-02,-8.179524540901184082e-02,3.377729356288909912e-01,3.416252508759498596e-02,-2.399480789899826050e-01,7.868777215480804443e-02,-7.945858687162399292e-02,-2.842270135879516602e-01,6.655985116958618164e-02,-2.716705203056335449e-01,7.977074384689331055e-02,1.241916641592979431e-01,3.634586464613676071e-03,5.940517038106918335e-02,7.967718876898288727e-03,-1.723152399063110352e-01,4.421890899538993835e-02,-1.137503013014793396e-01,-3.306887745857238770e-01,-3.429091572761535645e-01,2.823691964149475098e-01,-1.511164009571075439e-01,-8.771705627441406250e-02,-1.324412375688552856e-01,-2.389999777078628540e-01,-8.688449114561080933e-02,-2.532136254012584686e-02,7.803765684366226196e-02,-4.009857177734375000e-01,-2.350003644824028015e-02,-8.156826719641685486e-03,2.009984105825424194e-02,6.037097051739692688e-02,-2.754797637462615967e-01,-8.756020106375217438e-03,-9.620539098978042603e-02,1.740865260362625122e-01,-2.534462884068489075e-02,-6.211299076676368713e-02,8.212599158287048340e-02,4.186480771750211716e-03,1.248946711421012878e-01
1.777959987521171570e-02,-9.897019714117050171e-02,-5.812966078519821167e-02,2.925200760364532471e-01,3.778950870037078857e-02,-1.253293305635452271e-01,-9.107416123151779175e-02,-8.337011933326721191e-02,3.778689354658126831e-02,-7.249516993761062622e-02,-8.984611928462982178e-02,-1.640999317169189453e-01,1.696964353322982788e-01,-2.279218882322311401e-01,1.980100125074386597e-01,-5.748518928885459900e-02,-1.170707307755947113e-02,-2.536480128765106201e-02,3.550983667373657227e-01,1.585754454135894775e-01,5.086222290992736816e-02,2.459746785461902618e-02,-1.602908596396446228e-02,4.630863666534423828e-03,2.848413884639739990e-01,-7.644502073526382446e-02,2.327594310045242310e-01,-1.898512542247772217e-01,1.856982558965682983e-01,-2.776682749390602112e-02,-8.476058393716812134e-02,1.680069416761398315e-01,6.901880353689193726e-02,-4.846150055527687073e-02,1.865267008543014526e-02,2.135215699672698975e-02,-1.810876131057739258e-01,4.478934407234191895e-02,-8.337377011775970459e-02,1.467701196670532227e-01,-1.899918764829635620e-01,-3.889789059758186340e-02,-1.988531202077865601e-01,-7.905630767345428467e-02,4.824357852339744568e-02,-3.254088759422302246e-02,4.365518689155578613e-01,-1.948209665715694427e-02,2.646760046482086182e-01,-3.816088140010833740e-01
-3.450739756226539612e-02,-2.850194871425628662e-01,1.272542774677276611e-01,-6.925655156373977661e-02,3.138104453682899475e-02,1.085267663002014160e-01,-2.363178431987762451e-01,1.898981928825378418e-01,1.895483434200286865e-01,2.840810418128967285e-01,3.177953660488128662e-01,5.261735990643501282e-02,2.240203768014907837e-01,-1.778194010257720947e-01,-1.908688247203826904e-01,8.326573669910430908e-02,-2.091605514287948608e-01,2.914643287658691406e-01,4.447846114635467529e-02,4.765963926911354065e-02,3.121999502182006836e-01,1.472779810428619385e-01,6.781510114669799805e-01,5.570272356271743774e-02,-6.969983130693435669e-02,1.577617675065994263e-01,1.729721948504447937e-02,-3.065313771367073059e-02,1.998831480741500854e-01,2.142155356705188751e-02,-1.147067472338676453e-01,-1.097848545759916306e-02,3.173470124602317810e-02,3.376851677894592285e-01,-1.481294035911560059e-01,-1.567521542310714722e-01,8.705332875251770020e-02,-5.504941567778587341e-02,2.420464754104614258e-01,-1.957580596208572388e-01,8.358397334814071655e-02,2.347305566072463989e-01,1.306501328945159912e-01,-1.419686526060104370e-01,1.458276715129613876e-02,-8.476652204990386963e-02,-9.738483279943466187e-02,-2.685777246952056885e-01,3.168025985360145569e-02,-1.018931493163108826e-01
6.042103841900825500e-02,-3.660643100738525391e-02,-4.080595076084136963e-01,-2.432395517826080322e-01,2.764471620321273804e-02,3.235661890357732773e-03,-9.554758667945861816e-02,3.774135112762451172e-01,-4.026977717876434326e-01,-3.165098652243614197e-02,1.021639406681060791e-01,-1.556905359029769897e-01,-1.220538318157196045e-01,-1.351402103900909424e-01,-3.468925878405570984e-02,1.045220941305160522e-01,-3.265228271484375000e-01,1.048485636711120605e-01,1.876951567828655243e-02,-2.770095765590667725e-01,-3.438825905323028564e-01,1.382131725549697876e-01,9.549284726381301880e-02,-1.012514755129814148e-01,-2.999117970466613770e-01,-1.358496993780136108e-01,-1.674153357744216919e-01,-1.424989849328994751e-01,2.186653912067413330e-01,8.035230636596679688e-02,-9.637029469013214111e-02,-1.556819975376129150e-01,-2.388304471969604492e-01,-5.460538342595100403e-02,-2.543917000293731689e-01,1.459776330739259720e-02,-1.621902436017990112e-01,2.639386653900146484e-01,-1.961957365274429321e-01,5.525993555784225464e-02,2.654085122048854828e-02,1.894811727106571198e-02,-4.259690269827842712e-02,4.175683483481407166e-02,-2.066059261560440063e-01,-3.917231559753417969e-01,1.577933281660079956e-01,1.306279897689819336e-01,5.078074336051940918e-02,-5.487187206745147705e-02
-1.002988964319229126e-02,-2.529138624668121338e-01,-7.056342437863349915e-03,-1.563025265932083130e-01,1.294216364622116089e-01,3.558051884174346924e-01,-1.617181301116943359e-01,-9.304498136043548584e-02,-3.823500871658325195e-02,-2.306682989001274109e-02,-2.685594931244850159e-02,-1.289250254631042480e-01,1.957371085882186890e-01,2.344498410820960999e-02,2.400261610746383667e-01,2.404201589524745941e-02,3.460420295596122742e-02,-2.584833800792694092e-01,1.079330444335937500e-01,1.216363534331321716e-01,-2.973009347915649414e-01,-3.438726067543029785e-02,3.150357007980346680e-01,-1.969713568687438965e-01,-1.921132504940032959e-01,-4.192193970084190369e-02,8.566635660827159882e-03,4.989782720804214478e-02,-1.256463527679443359e-01,8.250517398118972778e-02,-6.152104213833808899e-02,-8.481755107641220093e-02,4.515239000320434570e-01,-4.272224009037017822e-02,-4.302828386425971985e-02,-5.517892539501190186e-02,-2.284066975116729736e-01,-1.440499722957611084e-01,6.907587498426437378e-02,2.610051929950714111e-01,-1.986345350742340088e-01,-2.522847950458526611e-01,3.365061283111572266e-01,-3.496283292770385742e-01,1.791206449270248413e-01,2.996649146080017090e-01,2.454595118761062622e-01,-2.170599550008773804e-01,-1.531969606876373291e-01,-2.434026896953582764e-01
-9.434755146503448486e-02,1.028315164148807526e-02,2.848601639270782471e-01,-1.669988334178924561e-01,-1.716860830783843994e-01,-1.741809397935867310e-01,1.187181174755096436e-01,3.138060867786407471e-02,-4.095662012696266174e-02,-1.185553595423698425e-01,2.281349897384643555e-01,-1.360055208206176758e-01,-1.111029461026191711e-01,1.652052104473114014e-01,-1.751152575016021729e-01,1.030757352709770203e-01,-1.503273546695709229e-01,-1.025027483701705933e-01,-1.805237978696823120e-01,3.460446000099182129e-01,1.840942502021789551e-01,3.955957014113664627e-03,6.484363079071044922e-01,-1.549254059791564941e-01,-2.640368342399597168e-01,3.375523686408996582e-01,1.380340158939361572e-01,2.823449205607175827e-03,1.398648917675018311e-01,-7.734500616788864136e-02,-2.436989247798919678e-01,-2.923135757446289062e-01,1.186568513512611389e-01,3.297498682513833046e-03,8.335862308740615845e-02,-1.985523700714111328e-01,-2.013895511627197266e-01,1.473108977079391479e-01,-1.758672147989273071e-01,5.438462272286415100e-02,-6.541287992149591446e-03,3.267819434404373169e-02,-7.775425910949707031e-02,1.873879730701446533e-01,1.350372731685638428e-01,2.374444156885147095e-01,2.911481857299804688e-01,-3.025797903537750244e-01,3.540816605091094971e-01,-3.561025485396385193e-02
-4.595753923058509827e-02,-1.273102462291717529e-01,-1.158773005008697510e-01,1.475692540407180786e-01,-3.660750389099121094e-02,4.508456587791442871e-02,-3.024928569793701172e-01,-7.440494745969772339e-02,1.145833730697631836e-01,-4.933923482894897461e-02,-8.115246891975402832e-02,2.049673721194267273e-02,-2.583289444446563721e-01,-8.673233911395072937e-03,1.833950877189636230e-01,-3.955863714218139648e-01,3.539660573005676270e-01,-1.177445352077484131e-01,1.432022452354431152e-01,1.887297630310058594e-01,5.881176516413688660e-02,1.405367255210876465e-01,-2.569258911535143852e-03,-5.965172871947288513e-02,3.168493509292602539e-01,2.137968540191650391e-01,-6.555035710334777832e-02,1.650884002447128296e-01,1.482864618301391602e-01,5.160329118371009827e-02,-7.189752906560897827e-02,-3.639256209135055542e-02,-3.052069991827011108e-02,2.537971138954162598e-01,1.548615992069244385e-01,-1.011545807123184204e-01,-2.221722006797790527e-01,2.492301464080810547e-01,1.119166985154151917e-01,2.074594497680664062e-01,-1.706601679325103760e-01,3.145156204700469971e-01,4.196914434432983398e-01,1.581023782491683960e-01,2.442023605108261108e-01,1.413974761962890625e-01,4.196782708168029785e-01,7.884076982736587524e-02,8.604165166616439819e-02,-1.048429533839225769e-01
-8.867149055004119873e-02,6.541141122579574585e-02,6.129136309027671814e-02,2.445470541715621948e-01,-3.508044779300689697e-02,-2.163639068603515625e-01,-7.069441676139831543e-02,-1.345540434122085571e-01,1.913137850351631641e-03,-1.493035349994897842e-02,-2.179762721061706543e-01,5.213683098554611206e-02,-1.474968492984771729e-01,-1.694011241197586060e-01,-2.042082371190190315e-03,3.038712032139301300e-02,9.480388462543487549e-02,7.831078022718429565e-02,1.113731786608695984e-01,-5.089760199189186096e-02,-3.941787779331207275e-02,-2.531737089157104492e-01,1.854394972324371338e-01,3.550236672163009644e-02,8.300942927598953247e-02,6.374187022447586060e-02,1.177732571959495544e-01,2.157091200351715088e-01,8.459253609180450439e-02,1.290393471717834473e-01,6.160070002079010010e-02,-1.556852459907531738e-01,1.309172511100769043e-01,8.921102434396743774e-02,-1.168671026825904846e-01,-1.881322823464870453e-03,-2.372629381716251373e-02,-1.401070952415466309e-01,3.145429119467735291e-02,4.611197113990783691e-02,2.040426284074783325e-01,1.888895630836486816e-01,-3.830292448401451111e-02,-1.898179501295089722e-01,4.600851237773895264e-02,3.708438202738761902e-02,-4.421140626072883606e-02,8.809630572795867920e-02,-7.254722528159618378e-03,-5.438838526606559753e-02
3.163288114592432976e-03,1.773937419056892395e-02,-2.355271875858306885e-01,6.848328560590744019e-02,-1.643103361129760742e-01,1.807680130004882812e-01,-1.348689943552017212e-01,-1.693824380636215210e-01,3.228001892566680908e-01,-9.591299295425415039e-02,-8.741142600774765015e-02,3.823873996734619141e-01,4.995104297995567322e-02,-9.976429492235183716e-02,4.674636200070381165e-02,-3.996607661247253418e-02,-1.173022314906120300e-01,-3.865455389022827148e-01,5.094940662384033203e-01,-1.390197128057479858e-01,1.122265160083770752e-01,7.445430755615234375e-02,-2.156675308942794800e-01,5.399426817893981934e-02,1.811143308877944946e-01,1.559545099735260010e-01,3.352693915367126465e-01,2.662154436111450195e-01,-5.269565060734748840e-02,1.411388218402862549e-01,-1.809102296829223633e-02,2.264341711997985840e-01,1.288899183273315430e-01,2.510388791561126709e-01,-1.268343031406402588e-01,-1.087142154574394226e-01,2.633547782897949219e-01,-2.316465415060520172e-02,-1.190168559551239014e-01,-1.219429820775985718e-01,-7.291752262972295284e-04,-6.548629701137542725e-02,-1.340879499912261963e-01,-1.194090321660041809e-01,1.453257650136947632e-01,7.606817875057458878e-03,-1.087964177131652832e-01,-2.172864601016044617e-02,2.289620488882064819e-01,-1.032424420118331909e-01
-2.680293619632720947e-01,6.822316907346248627e-03,1.380847021937370300e-02,-1.319323927164077759e-01,-4.317604005336761475e-02,2.032184302806854248e-01,-2.036826163530349731e-01,-8.144234307110309601e-03,1.060534566640853882e-01,-1.413963288068771362e-01,2.658932469785213470e-02,8.765014819800853729e-03,-2.402475178241729736e-01,-2.942398786544799805e-01,-1.758174747228622437e-01,-1.663957834243774414e-01,2.747568786144256592e-01,4.071504622697830200e-02,1.014092415571212769e-01,-1.081095449626445770e-02,1.097148284316062927e-02,-1.380392313003540039e-01,-2.103896290063858032e-01,-1.866177842020988464e-02,1.377003043889999390e-01,-9.096097946166992188e-02,1.108139157295227051e-01,-7.748487591743469238e-02,8.024617284536361694e-02,7.395234704017639160e-02,-1.046460866928100586e-01,8.867307007312774658e-02,2.001703977584838867e-01,2.473844736814498901e-01,1.080169379711151123e-01,2.719286680221557617e-01,4.165325313806533813e-02,-1.394719481468200684e-01,-1.590169370174407959e-01,-2.283078581094741821e-01,-1.233557760715484619e-01,1.581492871046066284e-01,-7.004275918006896973e-02,8.014323562383651733e-02,-1.009418591856956482e-01,1.902144849300384521e-01,1.418531984090805054e-01,-1.711715012788772583e-01,1.551735848188400269e-01,2.106053680181503296e-01
1.835331618785858154e-01,1.422215700149536133e-01,1.053110137581825256e-01,1.899012923240661621e-01,-2.107059210538864136e-01,-5.172196775674819946e-02,1.511551290750503540e-01,2.070590481162071228e-02,1.988202780485153198e-01,1.369365453720092773e-01,1.573190838098526001e-01,-2.904607951641082764e-01,-2.427407056093215942e-01,5.506642628461122513e-03,2.700641155242919922e-01,-2.822535634040832520e-01,1.134577840566635132e-01,-3.751571103930473328e-02,-3.490304807201027870e-03,-5.554991960525512695e-02,1.941458508372306824e-02,-1.024247109889984131e-01,5.752013921737670898e-01,2.050291597843170166e-01,1.126746460795402527e-02,1.992845535278320312e-01,-1.781898364424705505e-02,1.002452373504638672e-01,-9.887970983982086182e-02,-8.027491159737110138e-03,-1.259568780660629272e-01,6.061220541596412659e-02,2.326204329729080200e-01,-9.645459800958633423e-02,-2.316119670867919922e-01,-2.829941548407077789e-02,-2.253416553139686584e-02,-2.435905113816261292e-02,-2.663638256490230560e-02,8.036613464355468750e-02,1.273896843194961548e-01,1.838958114385604858e-01,-3.717865422368049622e-02,-1.677545160055160522e-01,3.693256154656410217e-02,1.097397729754447937e-01,3.545069396495819092e-01,-1.161191165447235107e-01,2.918067574501037598e-01,2.702585794031620026e-02
-1.177216395735740662e-01,2.142947465181350708e-01,2.153214067220687866e-02,-6.705317646265029907e-02,-1.666913330554962158e-01,2.414047569036483765e-01,-4.695009887218475342e-01,-9.788677562028169632e-04,-1.918383240699768066e-01,-1.118049845099449158e-01,-1.656363904476165771e-01,3.722459673881530762e-01,7.086618244647979736e-02,-1.281985789537429810e-01,5.187182500958442688e-02,-2.564010918140411377e-01,1.432844344526529312e-02,-2.928808033466339111e-01,-3.931649029254913330e-01,7.608675956726074219e-02,-1.054177284240722656e-01,-2.810455858707427979e-01,-1.942133605480194092e-01,9.784548729658126831e-02,-4.562907218933105469e-01,1.427662670612335205e-01,1.898144483566284180e-01,-3.438333570957183838e-01,-1.462111622095108032e-01,-1.733920425176620483e-01,-1.413375437259674072e-01,9.147522598505020142e-02,-2.504059970378875732e-01,-3.135856091976165771e-01,-3.732732534408569336e-01,-1.944824010133743286e-01,-3.836685717105865479e-01,1.088880226016044617e-01,-2.101770639419555664e-01,2.035634815692901611e-01,-3.054769635200500488e-01,-2.229560762643814087e-01,-9.540573507547378540e-02,-4.089704900979995728e-02,-3.584177792072296143e-01,-1.250554621219635010e-01,4.045043885707855225e-02,6.664540618658065796e-02,3.405045717954635620e-02,-8.711055666208267212e-02
-2.770469486713409424e-01,7.126232236623764038e-02,-5.736954808235168457e-01,2.985004484653472900e-01,1.808153986930847168e-01,-1.039120480418205261e-01,8.880586177110671997e-02,9.460160136222839355e-02,-2.240025550127029419e-01,-1.021079495549201965e-01,-5.553723573684692383e-01,-2.971671223640441895e-01,-1.310913860797882080e-01,-7.896649092435836792e-02,-3.843762874603271484e-01,2.504093050956726074e-01,-3.992313444614410400e-01,-2.275932580232620239e-01,1.100719422101974487e-01,4.977535828948020935e-02,4.970344901084899902e-02,2.678216993808746338e-01,-1.007832512259483337e-01,5.676416680216789246e-02,1.077316552400588989e-01,8.185442537069320679e-03,-2.742049694061279297e-01,-2.162873372435569763e-02,-4.603316262364387512e-02,-1.679410487413406372e-01,3.288277983665466309e-01,9.213673323392868042e-02,-3.329882025718688965e-01,-2.150734961032867432e-01,-2.656624913215637207e-01,1.307772248983383179e-01,-2.272960245609283447e-01,8.806943893432617188e-02,-2.702702879905700684e-01,-9.509444236755371094e-02,1.240096688270568848e-01,3.966648876667022705e-01,3.902798518538475037e-02,-8.397952467203140259e-02,-9.244234301149845123e-03,-9.953796863555908203e-02,-2.363892346620559692e-01,-5.165616422891616821e-02,5.252100899815559387e-02,-3.203387930989265442e-02
1.890364885330200195e-01,1.537841260433197021e-01,1.046070903539657593e-01,-3.453575307503342628e-03,3.138172924518585205e-01,-1.245102658867835999e-01,-5.927176475524902344e-01,5.121324211359024048e-02,-2.203564494848251343e-01,2.834576368331909180e-01,-3.503962159156799316e-01,1.257582157850265503e-01,-2.594385854899883270e-02,-3.595229685306549072e-01,3.817345947027206421e-02,-1.523754149675369263e-01,1.304285973310470581e-02,-8.191003650426864624e-02,2.833871915936470032e-02,-3.243072926998138428e-01,-1.740678399801254272e-01,1.516610980033874512e-01,-2.680289372801780701e-02,1.059197485446929932e-01,-1.612851768732070923e-01,-1.211886033415794373e-01,-3.140037059783935547e-01,-1.643946766853332520e-01,-1.926051825284957886e-01,-8.436912298202514648e-02,-7.808008044958114624e-02,-5.759524554014205933e-02,1.594162881374359131e-01,-4.538610950112342834e-02,7.610030937939882278e-03,-2.223164141178131104e-01,3.313510119915008545e-02,8.233629167079925537e-03,1.279117912054061890e-01,2.148183584213256836e-01,1.148284878581762314e-02,-2.975217103958129883e-01,1.438427865505218506e-01,6.537087261676788330e-02,-4.088441431522369385e-01,-3.615436702966690063e-02,-3.065799921751022339e-02,1.736239790916442871e-01,8.655832149088382721e-03,3.166191577911376953e-01
-1.989958733320236206e-01,4.390799999237060547e-02,-3.803764879703521729e-01,-3.362686932086944580e-02,2.370585352182388306e-01,-7.349494844675064087e-02,-1.976628005504608154e-01,-1.488778740167617798e-01,2.817206084728240967e-01,2.603498995304107666e-01,-1.398031413555145264e-01,1.417293101549148560e-01,-3.943248465657234192e-02,2.549889683723449707e-02,-1.004537269473075867e-01,-3.657778203487396240e-01,-1.759484526701271534e-03,1.255409568548202515e-01,1.177000850439071655e-01,-2.255979031324386597e-01,4.099144041538238525e-02,9.281268343329429626e-03,-1.700671315193176270e-01,-8.900221437215805054e-02,1.482618898153305054e-01,2.052631415426731110e-02,-1.154415011405944824e-01,1.236852556467056274e-01,1.397247612476348877e-01,3.107305467128753662e-01,-1.452951282262802124e-01,2.915548086166381836e-01,-1.247715950012207031e-01,-1.120396852493286133e-01,9.172234684228897095e-02,-6.085167452692985535e-02,-4.652191884815692902e-03,-1.424919217824935913e-01,1.229827478528022766e-01,-1.367823928594589233e-01,-2.259271144866943359e-01,-1.570291370153427124e-01,2.253123372793197632e-01,1.961512416601181030e-01,-4.150960221886634827e-02,-6.927154213190078735e-02,1.630990952253341675e-01,-1.236002445220947266e-01,-6.613888591527938843e-02,-1.160857081413269043e-01
1.900476366281509399e-01,-1.350832432508468628e-01,-4.273196160793304443e-01,1.604338139295578003e-01,8.077301830053329468e-02,-1.106962785124778748e-01,-6.932836771011352539e-02,-6.107126362621784210e-03,-1.288586705923080444e-01,2.125672698020935059e-01,-1.549258232116699219e-01,1.060598064213991165e-02,-1.310017704963684082e-01,-2.168127596378326416e-01,-2.505284361541271210e-02,-1.906177848577499390e-01,4.160323645919561386e-03,2.803320996463298798e-02,1.824770122766494751e-01,-1.207194328308105469e-01,2.432206124067306519e-01,-8.118830621242523193e-02,-2.464217990636825562e-01,-3.494328632950782776e-02,5.637949332594871521e-02,-8.224382251501083374e-02,-1.469167023897171021e-01,-5.000246688723564148e-02,-3.914913535118103027e-02,1.636029630899429321e-01,-1.587901264429092407e-01,1.889677792787551880e-01,3.405497968196868896e-02,-2.123604565858840942e-01,-8.328401297330856323e-02,8.268619328737258911e-02,-1.806933879852294922e-01,1.305357902310788631e-03,6.520880013704299927e-02,1.941138356924057007e-01,7.986032962799072266e-02,2.831795215606689453e-01,1.592959165573120117e-01,1.316648721694946289e-01,-7.971663028001785278e-02,-1.690762341022491455e-01,-1.484426259994506836e-01,-9.518494457006454468e-02,1.946505755186080933e-01,-1.907498985528945923e-01
2.322143875062465668e-03,-2.946784198284149170e-01,-4.572309553623199463e-02,-7.495373487472534180e-02,-8.980827033519744873e-02,-1.398662626743316650e-01,-3.138288483023643494e-02,9.636308997869491577e-02,-2.544475495815277100e-01,2.580120861530303955e-01,2.805322706699371338e-01,2.128336280584335327e-01,-3.327091634273529053e-01,-4.054456353187561035e-01,2.844240069389343262e-01,-6.609642505645751953e-02,-2.504614591598510742e-01,2.877180650830268860e-02,4.462832212448120117e-02,5.295473337173461914e-02,-7.788923382759094238e-02,3.829347342252731323e-02,-9.025563299655914307e-02,-2.658231258392333984e-01,-1.755449175834655762e-01,5.469712615013122559e-02,9.095413982868194580e-02,-2.291474640369415283e-01,-9.577695280313491821e-02,1.939660310745239258e-01,-2.477061748504638672e-02,2.608578205108642578e-01,2.657388746738433838e-01,4.440575093030929565e-02,2.066499292850494385e-01,-1.954355537891387939e-01,-4.177553951740264893e-01,2.159801125526428223e-01,2.150766402482986450e-01,2.465002238750457764e-01,6.293272972106933594e-02,-1.382238268852233887e-01,2.800793945789337158e-01,-1.639288850128650665e-02,4.069809615612030029e-02,2.737759053707122803e-01,5.044512823224067688e-02,-2.831393480300903320e-01,-9.857246279716491699e-02,-1.209005936980247498e-01
4.835539683699607849e-02,7.952118664979934692e-02,-6.197440996766090393e-02,2.366891056299209595e-01,-1.602870821952819824e-01,2.071218043565750122e-01,-1.960694193840026855e-01,8.008585125207901001e-02,-1.297418624162673950e-01,9.948559850454330444e-02,2.077983617782592773e-01,7.359708100557327271e-02,-2.084057182073593140e-01,7.364509999752044678e-02,-1.060117781162261963e-01,-3.641873896121978760e-01,1.534129828214645386e-01,1.956850104033946991e-02,-2.728740684688091278e-02,-2.713160775601863861e-02,1.782994717359542847e-01,-6.858975440263748169e-02,-4.101589322090148926e-02,1.409718245267868042e-01,1.284890770912170410e-01,-2.308806478977203369e-01,1.333108544349670410e-01,7.988813519477844238e-02,1.472471281886100769e-03,9.952633082866668701e-02,5.097585916519165039e-02,2.510098367929458618e-02,-1.683119237422943115e-01,1.014918908476829529e-01,-9.874729067087173462e-02,2.754998393356800079e-02,-2.921866178512573242e-01,-2.107822746038436890e-01,-9.526018053293228149e-02,1.938590556383132935e-01,2.934834547340869904e-02,-1.409828513860702515e-01,-5.290150269865989685e-02,-9.905939549207687378e-02,-2.879194915294647217e-01,1.415165364742279053e-01,-2.153029739856719971e-01,-1.616185158491134644e-01,-8.934341371059417725e-02,7.819556444883346558e-02
2.719667553901672363e-02,4.271334782242774963e-02,-1.975189149379730225e-01,-2.870451211929321289e-01,-1.109959557652473450e-01,-6.886898726224899292e-02,-6.223892420530319214e-02,-5.299126729369163513e-02,-2.612647712230682373e-01,-1.674013584852218628e-01,-4.946537315845489502e-02,2.310403734445571899e-01,8.924901485443115234e-03,1.905419398099184036e-03,-2.200646847486495972e-01,-4.708590358495712280e-02,9.005819447338581085e-03,1.483839899301528931e-01,-2.462620139122009277e-01,3.342656195163726807e-01,-3.774330914020538330e-01,1.714054644107818604e-01,2.370564341545104980e-01,5.310053750872612000e-02,-2.859671786427497864e-02,1.223877444863319397e-01,-3.742483258247375488e-02,-2.128993123769760132e-01,2.325133047997951508e-02,-1.248042508959770203e-01,1.830195933580398560e-01,1.123785600066184998e-01,-2.684710919857025146e-01,-3.537412583827972412e-01,-5.707374215126037598e-02,-4.707580059766769409e-02,-2.910168766975402832e-01,6.732144951820373535e-02,1.465178877115249634e-01,-1.354703865945339203e-02,-1.334706842899322510e-01,1.077146083116531372e-01,-2.365168631076812744e-01,1.446113139390945435e-01,2.583203092217445374e-02,1.110553294420242310e-01,-6.630983948707580566e-02,-1.688001602888107300e-01,1.461106240749359131e-01,2.660276293754577637e-01
-1.074186190962791443e-01,-7.602660357952117920e-02,-5.674207583069801331e-02,1.683940589427947998e-01,7.511303573846817017e-02,-9.095068275928497314e-02,-2.542462944984436035e-01,4.401060193777084351e-02,2.837652564048767090e-01,5.698554590344429016e-02,-1.060321852564811707e-01,-1.288935169577598572e-02,1.440002322196960449e-01,6.890204548835754395e-02,-1.835053414106369019e-01,-4.285807721316814423e-03,1.634071469306945801e-01,-1.822454929351806641e-01,2.238037586212158203e-01,-7.931946218013763428e-02,5.598474293947219849e-02,2.579364925622940063e-02,-3.443058729171752930e-01,-1.545251607894897461e-01,-8.890205621719360352e-02,1.786544471979141235e-01,2.461812943220138550e-01,7.292928174138069153e-03,7.995547354221343994e-02,2.101081162691116333e-01,1.330614387989044189e-01,2.258612215518951416e-01,-2.712884172797203064e-02,8.875275030732154846e-03,2.184459567070007324e-02,9.402438998222351074e-02,-2.004769295454025269e-01,9.319420158863067627e-02,2.466747015714645386e-01,3.699477389454841614e-02,8.996418863534927368e-02,5.305836442857980728e-03,1.257122457027435303e-01,1.040186211466789246e-01,4.063585996627807617e-01,-3.201505169272422791e-02,-9.260395169258117676e-02,-4.828232526779174805e-02,1.744260638952255249e-01,-5.814289301633834839e-02
-2.710193991661071777e-01,-1.228141039609909058e-01,9.906248003244400024e-02,8.169630914926528931e-02,1.289518922567367554e-01,-1.166574209928512573e-01,-1.526924073696136475e-01,1.237118337303400040e-02,-7.305086404085159302e-02,-8.679011464118957520e-02,-2.018967568874359131e-01,-2.300865016877651215e-02,-5.281372461467981339e-03,3.288020566105842590e-02,2.173559218645095825e-01,-3.108696937561035156e-01,-5.823849886655807495e-02,6.301032006740570068e-02,-5.174922570586204529e-02,5.136301741003990173e-02,1.772226542234420776e-01,-6.940084975212812424e-03,-1.563495099544525146e-01,-1.147815678268671036e-02,1.573250740766525269e-01,5.390241369605064392e-02,-2.112206444144248962e-02,-1.187626868486404419e-01,-1.825568377971649170e-01,3.048083782196044922e-01,-9.752684831619262695e-02,6.278298795223236084e-02,-2.979108691215515137e-01,5.023957788944244385e-02,1.635698080062866211e-01,3.159191086888313293e-02,-2.956471507786773145e-05,1.901299655437469482e-01,-1.909716427326202393e-02,-1.799538582563400269e-01,-1.561363339424133301e-01,1.155378073453903198e-01,-4.334494099020957947e-02,-1.477568596601486206e-01,2.702997624874114990e-01,-1.576204895973205566e-01,-4.212086647748947144e-02,1.723788827657699585e-01,-7.839500159025192261e-02,-1.996065527200698853e-01
-1.716715097427368164e-01,5.695386230945587158e-02,-3.604348599910736084e-01,1.111192181706428528e-01,-9.711918979883193970e-02,-6.676844507455825806e-02,-9.611449390649795532e-02,-1.103108748793601990e-01,9.618071466684341431e-02,8.764367550611495972e-02,-1.882290989160537720e-01,-1.327094882726669312e-01,-2.056400179862976074e-01,8.876791223883628845e-03,-1.483973264694213867e-01,-1.338794380426406860e-01,2.744817733764648438e-02,1.761929243803024292e-01,-7.272631675004959106e-02,-4.862581193447113037e-02,-7.007256895303726196e-02,2.631152868270874023e-01,-2.248340398073196411e-01,-1.485405266284942627e-01,1.207579821348190308e-01,5.715621635317802429e-02,-1.764082908630371094e-01,-1.641890108585357666e-01,-2.526912093162536621e-01,4.369988739490509033e-01,8.620960265398025513e-02,1.453506201505661011e-01,-2.973618209362030029e-01,-1.573363691568374634e-02,-1.261084228754043579e-01,1.269303113222122192e-01,-1.128197461366653442e-01,-1.968282610177993774e-01,3.628495335578918457e-02,-2.441485822200775146e-01,1.440468579530715942e-01,-7.784748077392578125e-02,1.239960789680480957e-01,-1.692749261856079102e-01,-1.650805622339248657e-01,-2.662334144115447998e-01,-7.360919564962387085e-02,4.370213299989700317e-02,1.900664418935775757e-01,7.069649547338485718e-02
2.239521294832229614e-01,1.637826859951019287e-01,2.934172749519348145e-01,3.837726777419447899e-03,-6.158747151494026184e-02,-2.400033026933670044e-01,-4.541163444519042969e-01,1.511379778385162354e-01,1.123792678117752075e-02,-1.850597001612186432e-02,-2.063402086496353149e-01,2.060444504022598267e-01,-7.329674810171127319e-02,-2.051653563976287842e-01,1.439837515354156494e-01,-4.236849769949913025e-02,-4.849473014473915100e-02,2.021775543689727783e-01,2.655056416988372803e-01,7.278618868440389633e-03,-1.485519260168075562e-01,1.940897107124328613e-01,-1.527550164610147476e-02,3.615121543407440186e-02,-1.925818063318729401e-02,7.365328073501586914e-02,7.480388134717941284e-02,-3.687306642532348633e-01,-1.070889309048652649e-01,2.110186368227005005e-01,1.164657343178987503e-02,-3.309214662294834852e-05,-2.174856215715408325e-01,1.379293054342269897e-01,-3.496379256248474121e-01,1.901671737432479858e-01,-5.463747382164001465e-01,1.871007978916168213e-01,5.703547224402427673e-02,2.003578990697860718e-01,-2.615811675786972046e-02,-3.139232695102691650e-01,2.029872536659240723e-01,-9.673799574375152588e-02,2.995474338531494141e-01,1.611716002225875854e-01,-1.959427297115325928e-01,1.309787184000015259e-01,-4.882220178842544556e-02,3.202707469463348389e-01
-1.304849982261657715e-02,-7.617145776748657227e-02,-3.091377317905426025e-01,-1.380718946456909180e-01,-1.041699722409248352e-01,2.497915364801883698e-02,-3.602265566587448120e-02,1.880200207233428955e-01,1.076407805085182190e-01,-1.974685937166213989e-01,-3.172819316387176514e-01,-2.014134638011455536e-02,-1.177566871047019958e-01,-2.064944989979267120e-02,3.044057488441467285e-01,-2.336632758378982544e-01,5.950864031910896301e-02,-5.850751698017120361e-02,1.935383826494216919e-01,2.340016067028045654e-01,2.612278163433074951e-01,-2.451532185077667236e-01,1.164148598909378052e-01,-4.009790346026420593e-02,-2.039594650268554688e-01,-2.270258814096450806e-01,-2.540093958377838135e-01,6.696102023124694824e-02,4.008705168962478638e-02,3.687503933906555176e-01,-1.273180842399597168e-01,2.843972444534301758e-01,1.402456909418106079e-01,3.248733580112457275e-01,1.172137632966041565e-01,1.555924117565155029e-01,-1.584440097212791443e-02,1.786140203475952148e-01,-6.764809042215347290e-02,3.235379755496978760e-01,7.223709020763635635e-03,9.587699919939041138e-02,2.114576995372772217e-01,2.144009470939636230e-01,1.376997530460357666e-01,-1.947495490312576294e-01,2.859755456447601318e-01,-1.880988329648971558e-01,-5.239737406373023987e-02,1.128988042473793030e-01
-9.239280968904495239e-02,-1.655547320842742920e-01,1.432706862688064575e-01,1.028828248381614685e-01,3.218099176883697510e-01,1.460868716239929199e-01,9.678249806165695190e-02,-5.387401208281517029e-02,-4.154409170150756836e-01,5.107430741190910339e-02,-3.419332206249237061e-02,-2.419815212488174438e-01,-1.106313169002532959e-01,7.061355561017990112e-02,-2.626419626176357269e-02,-4.238640964031219482e-01,2.813681066036224365e-01,-9.455455839633941650e-02,-3.904813230037689209e-01,2.970888316631317139e-01,-4.070889204740524292e-02,6.850288808345794678e-02,-8.913130313158035278e-02,-2.080534398555755615e-01,5.227386206388473511e-02,3.970501944422721863e-02,-3.767875134944915771e-01,-5.230902433395385742e-01,-2.160788476467132568e-01,-1.330164521932601929e-01,-4.192079603672027588e-02,3.242664337158203125e-01,1.493396759033203125e-01,-1.905951350927352905e-01,3.926653265953063965e-01,1.115604937076568604e-01,2.654372155666351318e-01,6.393157690763473511e-02,-2.109203785657882690e-01,1.237269267439842224e-01,1.085884496569633484e-01,-4.674522951245307922e-02,-7.503349334001541138e-02,3.343494832515716553e-01,1.443090662360191345e-02,1.167055517435073853e-01,2.720336914062500000e-01,-2.861767113208770752e-01,-3.690985590219497681e-02,1.218259036540985107e-01
-2.848179340362548828e-01,-1.896005719900131226e-01,-8.973121643066406250e-02,-9.877666831016540527e-02,-5.460936110466718674e-03,2.288957536220550537e-01,2.465595118701457977e-02,-1.897803097963333130e-01,1.255818903446197510e-01,8.036898076534271240e-02,-1.856075599789619446e-02,2.648976147174835205e-01,2.438332587480545044e-01,-4.133089184761047363e-01,-6.407738476991653442e-02,1.802724413573741913e-02,-4.386634007096290588e-02,-1.301477253437042236e-01,1.568635255098342896e-01,3.858176469802856445e-01,1.706520318984985352e-01,-1.215498242527246475e-02,-5.006134510040283203e-01,-1.180325299501419067e-01,-3.115183673799037933e-02,-6.624706834554672241e-02,4.883617162704467773e-01,3.222219944000244141e-01,6.254453957080841064e-02,1.929127573966979980e-01,-1.394685208797454834e-01,6.398904323577880859e-02,3.797612786293029785e-01,1.065867915749549866e-01,9.734256565570831299e-02,-1.430352032184600830e-01,2.086517363786697388e-01,1.329127401113510132e-01,1.204420402646064758e-01,-1.014737486839294434e-01,-3.368645533919334412e-02,-2.745023928582668304e-02,6.403703242540359497e-02,-1.551371533423662186e-02,7.566378917545080185e-03,1.954662054777145386e-01,-4.249322712421417236e-01,8.617545664310455322e-02,1.395340710878372192e-01,1.405426561832427979e-01
-1.886262744665145874e-02,-2.146675437688827515e-01,-2.870931327342987061e-01,-4.102880135178565979e-02,-5.197753757238388062e-02,-7.335557043552398682e-02,-2.155340742319822311e-03,-3.592550754547119141e-02,3.476748988032341003e-02,-1.455076485872268677e-01,-5.370069667696952820e-02,-1.341929435729980469e-01,-1.918248236179351807e-01,2.190487086772918701e-02,5.515186488628387451e-02,-3.185433149337768555e-01,1.981034874916076660e-01,2.406915873289108276e-01,-1.425609439611434937e-01,1.222390234470367432e-01,5.359619390219449997e-03,2.490259408950805664e-01,7.270135879516601562e-01,-1.099925264716148376e-01,5.079089850187301636e-02,4.510580003261566162e-02,1.580271273851394653e-01,2.267325222492218018e-01,1.507270336151123047e-01,5.236601233482360840e-01,-9.411153942346572876e-02,2.411780506372451782e-02,-1.706849038600921631e-02,4.439413920044898987e-02,-7.762180268764495850e-02,-1.225922852754592896e-01,2.234627120196819305e-02,1.206306740641593933e-01,2.095452696084976196e-01,1.063763536512851715e-02,5.231271684169769287e-02,2.216276079416275024e-01,2.149910032749176025e-01,-2.092273235321044922e-01,2.243482470512390137e-01,1.068961173295974731e-01,1.826501488685607910e-01,-3.024134412407875061e-02,1.962279379367828369e-01,2.644843235611915588e-02
-5.117565393447875977e-03,-1.354669630527496338e-01,1.140047609806060791e-01,-7.242238521575927734e-02,3.592313081026077271e-02,-4.763815179467201233e-02,-2.682123184204101562e-01,-1.450950205326080322e-01,2.662457525730133057e-02,2.254508882761001587e-01,-1.207123175263404846e-01,6.922934204339981079e-02,1.822161674499511719e-01,-3.127014040946960449e-01,1.903564780950546265e-01,-8.498642593622207642e-03,8.853841572999954224e-02,-2.368670850992202759e-01,2.765592336654663086e-01,2.346954047679901123e-01,-4.446347057819366455e-01,2.092088013887405396e-01,-1.110294535756111145e-01,3.707810863852500916e-02,-4.718410670757293701e-01,-1.766646653413772583e-01,-7.749819755554199219e-02,-1.348596215248107910e-01,-1.951002627611160278e-01,1.599863469600677490e-01,-2.372936010360717773e-01,-1.255563199520111084e-01,9.064996987581253052e-02,-2.324408590793609619e-01,1.043522655963897705e-01,2.726352810859680176e-01,4.048880934715270996e-02,6.273400783538818359e-02,1.884119212627410889e-01,3.782838582992553711e-01,-3.146775364875793457e-01,-1.785329431295394897e-01,2.303874194622039795e-01,-2.143149375915527344e-01,1.432778872549533844e-02,3.373605608940124512e-01,-3.623313084244728088e-02,1.917856484651565552e-01,1.282262504100799561e-01,6.451308727264404297e-04
1.201239973306655884e-01,7.119195163249969482e-02,1.063766106963157654e-01,7.679532747715711594e-03,-3.016474284231662750e-02,1.863565742969512939e-01,-8.708547055721282959e-02,-1.733184456825256348e-01,1.331070661544799805e-01,-5.580139532685279846e-02,-5.930481012910604477e-03,4.176354035735130310e-02,-9.017726778984069824e-02,2.568818628787994385e-02,2.288344949483871460e-01,-2.001755386590957642e-01,-4.012690857052803040e-03,4.864748567342758179e-02,-4.881137609481811523e-02,-5.670875683426856995e-02,1.262793838977813721e-01,3.611031174659729004e-02,2.827330529689788818e-01,-3.666489198803901672e-02,-3.043330833315849304e-02,-2.360837757587432861e-01,1.314019858837127686e-01,2.701989933848381042e-02,7.352684438228607178e-02,2.647642195224761963e-01,-2.622856795787811279e-01,-6.543291360139846802e-02,-1.206597462296485901e-01,3.137661814689636230e-01,1.919334754347801208e-02,-1.423778086900711060e-01,-7.848980836570262909e-03,9.072924964129924774e-03,-5.355947837233543396e-02,1.627057641744613647e-01,6.010244786739349365e-02,-2.208286970853805542e-01,6.629221141338348389e-02,-6.600965280085802078e-03,3.481232225894927979e-01,8.989708125591278076e-02,4.306106641888618469e-02,3.768346831202507019e-02,1.266623437404632568e-01,-1.287871152162551880e-01
-8.039613068103790283e-02,-2.783236326649785042e-03,-4.346715658903121948e-02,2.017936855554580688e-01,6.812001019716262817e-02,-5.948820710182189941e-02,-1.727418601512908936e-01,8.149025589227676392e-02,3.144252300262451172e-02,6.215317919850349426e-02,-3.623213618993759155e-02,1.939320117235183716e-01,5.072763306088745594e-04,-4.804944619536399841e-02,-1.059821173548698425e-01,-1.735807210206985474e-01,-1.914460584521293640e-02,1.089521590620279312e-02,3.681556582450866699e-01,3.007205389440059662e-02,-5.908108130097389221e-02,-2.337895631790161133e-01,6.302930116653442383e-01,2.228059917688369751e-01,-8.664151653647422791e-03,1.226386800408363342e-01,3.322729766368865967e-01,-1.123569682240486145e-01,1.887854635715484619e-01,1.821018308401107788e-01,5.651715025305747986e-02,-3.712090104818344116e-02,2.880766093730926514e-01,2.832705676555633545e-01,-6.221559643745422363e-02,2.023623138666152954e-01,9.232342988252639771e-02,-1.232979819178581238e-01,-8.433443144895136356e-04,-2.902436554431915283e-01,-1.076661571860313416e-01,5.866484716534614563e-02,1.511084288358688354e-01,-8.858563750982284546e-02,-6.274764891713857651e-03,1.559783983975648880e-02,2.544189989566802979e-01,1.556114256381988525e-01,-2.395320450887084007e-03,-4.234380275011062622e-02
3.986106514930725098e-01,1.425017565488815308e-01,1.447505950927734375e-01,-2.361890524625778198e-01,-2.412074953317642212e-01,1.911748647689819336e-01,-6.752916574478149414e-01,-9.192331135272979736e-02,-3.134662508964538574e-01,2.407990843057632446e-01,-2.202504426240921021e-01,2.235002219676971436e-01,7.259377092123031616e-02,-3.269681036472320557e-01,2.125004380941390991e-01,7.774500548839569092e-02,7.885406166315078735e-02,-2.649260163307189941e-01,3.841677606105804443e-01,3.791392548009753227e-03,-2.398545667529106140e-02,2.213261723518371582e-01,-4.334202408790588379e-01,1.658383905887603760e-01,-6.748970597982406616e-02,-2.356358617544174194e-01,-1.441522091627120972e-01,-2.446610927581787109e-01,-1.663680225610733032e-01,-4.963231831789016724e-02,-1.087673380970954895e-01,6.636408716440200806e-02,-1.580098271369934082e-01,-1.994187533855438232e-01,-4.296661913394927979e-02,1.603174656629562378e-01,-1.501277089118957520e-01,2.106605768203735352e-01,2.329548299312591553e-01,-5.836442485451698303e-02,-1.704969257116317749e-01,-1.130797639489173889e-01,1.751641482114791870e-01,-2.137356204912066460e-03,1.585904359817504883e-01,-4.818172007799148560e-02,-2.120588421821594238e-01,1.169604063034057617e-01,7.780898828059434891e-03,2.804096043109893799e-01
-2.575555443763732910e-01,-4.242308139801025391e-01,-2.253351211547851562e-01,-1.148986220359802246e-01,1.699694693088531494e-01,-4.461596906185150146e-02,-1.325740814208984375e-01,8.797386288642883301e-02,-1.847817599773406982e-01,4.641743004322052002e-02,-5.685041844844818115e-02,-2.229582369327545166e-01,5.823327228426933289e-02,-4.829090088605880737e-03,2.296350747346878052e-01,-5.941952466964721680e-01,-1.429864913225173950e-01,2.403050959110260010e-01,-3.292728364467620850e-01,-6.880798190832138062e-02,1.773003786802291870e-01,-5.925028026103973389e-02,1.663422561250627041e-03,-4.504757821559906006e-01,1.047752797603607178e-01,-1.087328791618347168e-01,-3.073908388614654541e-01,-3.866545259952545166e-01,3.014942109584808350e-01,1.765115112066268921e-01,-1.566006839275360107e-01,2.757241725921630859e-01,-3.063682913780212402e-01,-5.828404799103736877e-02,3.335075080394744873e-01,7.627439498901367188e-02,3.004785776138305664e-01,5.112223699688911438e-02,-3.032885491847991943e-01,-2.441341429948806763e-01,1.628009676933288574e-01,-2.195874974131584167e-02,1.878609210252761841e-01,3.495486080646514893e-01,-8.256912231445312500e-02,1.308750212192535400e-01,2.559711933135986328e-01,-3.605074584484100342e-01,3.856176435947418213e-01,1.048925742506980896e-01
-9.638024494051933289e-03,-2.122600823640823364e-01,-2.230825573205947876e-01,-1.658451706171035767e-01,5.681436136364936829e-02,9.760909713804721832e-03,-1.254739612340927124e-01,-1.415146514773368835e-02,-4.630786366760730743e-03,-1.563565582036972046e-01,-2.487649321556091309e-01,-7.584058493375778198e-02,1.112726181745529175e-01,2.618072032928466797e-01,-4.039493575692176819e-02,-1.678321361541748047e-01,-1.543859094381332397e-01,-2.335549518465995789e-02,2.768009006977081299e-01,-6.686338037252426147e-02,-1.349256038665771484e-01,3.317722380161285400e-01,-4.042243063449859619e-01,-1.993066966533660889e-01,-2.588428258895874023e-01,1.239170953631401062e-01,2.158095538616180420e-01,-1.687218844890594482e-01,-1.064030155539512634e-01,-5.026127398014068604e-02,-1.389331668615341187e-01,3.160400092601776123e-01,-3.243117034435272217e-02,-3.486941158771514893e-01,-2.336441539227962494e-02,1.536470502614974976e-01,-1.330852061510086060e-01,-1.187469344586133957e-02,-8.179030567407608032e-02,-1.838624626398086548e-01,7.523667067289352417e-02,-2.642591893672943115e-01,-3.156972676515579224e-02,-9.551385790109634399e-02,2.087119966745376587e-01,-7.661328464746475220e-02,9.185452759265899658e-02,7.398716360330581665e-02,2.773864567279815674e-01,1.016595736145973206e-01
-9.606365114450454712e-03,4.666604697704315186e-01,1.237739846110343933e-01,1.399434059858322144e-01,-4.184697195887565613e-02,1.282028108835220337e-01,2.461794167757034302e-01,-3.254347667098045349e-02,4.325146675109863281e-01,-1.781067228876054287e-03,4.362142831087112427e-02,1.349140405654907227e-01,2.760040760040283203e-01,2.708421945571899414e-01,2.096442272886633873e-03,1.477397680282592773e-01,-1.816878318786621094e-01,5.744929611682891846e-02,3.343082666397094727e-01,-6.555665284395217896e-02,1.055850163102149963e-01,-6.521490216255187988e-02,5.866046547889709473e-01,-8.374150097370147705e-02,-1.146062165498733521e-01,4.636377990245819092e-01,3.305184245109558105e-01,1.060543432831764221e-01,2.410333305597305298e-01,3.201689720153808594e-01,-9.804499149322509766e-02,7.073002308607101440e-02,1.825719028711318970e-01,4.711878597736358643e-01,-1.375745832920074463e-01,-2.381552010774612427e-01,1.066021025180816650e-01,-2.200159430503845215e-01,1.904162168502807617e-01,-4.487874805927276611e-01,2.836734801530838013e-02,1.695819199085235596e-01,-3.802755475044250488e-02,2.713625319302082062e-02,-2.890087068080902100e-01,-1.659177839756011963e-01,2.638507187366485596e-01,-3.168972954154014587e-02,2.472400218248367310e-01,-9.421892464160919189e-02
-8.400245569646358490e-03,-2.473846673965454102e-01,-8.833094686269760132e-02,-8.330694586038589478e-02,-2.671573162078857422e-01,2.950839996337890625e-01,1.514663398265838623e-01,2.552285194396972656e-01,-2.897142618894577026e-02,1.890441477298736572e-01,2.764500677585601807e-01,-2.957574725151062012e-01,-4.327243566513061523e-02,-6.466483324766159058e-02,8.830435574054718018e-02,9.899859875440597534e-02,-2.814926505088806152e-01,-1.171498522162437439e-01,-1.689828783273696899e-01,-5.393095687031745911e-02,-3.551150858402252197e-02,2.314621359109878540e-01,3.887280225753784180e-01,2.330131083726882935e-01,-3.442004323005676270e-01,9.954974986612796783e-03,-1.928850114345550537e-01,-1.327496618032455444e-01,2.491363137960433960e-02,-1.389699876308441162e-01,6.261892616748809814e-02,-3.346830904483795166e-01,-2.500191330909729004e-01,2.342653721570968628e-01,-3.098435401916503906e-01,-1.241407245397567749e-01,1.220828369259834290e-01,2.206680029630661011e-01,-1.086980700492858887e-01,-1.246734857559204102e-01,2.485980279743671417e-02,-1.545358449220657349e-01,2.501344084739685059e-01,-2.299334555864334106e-01,1.364069581031799316e-01,1.958676725625991821e-01,2.163387686014175415e-01,3.719134628772735596e-02,1.277295523323118687e-03,1.206353530287742615e-01
2.137269675731658936e-01,7.385689020156860352e-02,1.159930825233459473e-01,1.668819785118103027e-02,1.369514763355255127e-01,2.995480597019195557e-01,7.046261429786682129e-02,-2.505968809127807617e-01,1.957304477691650391e-01,2.980467118322849274e-02,8.328610658645629883e-02,-1.168782040476799011e-01,2.710113823413848877e-01,7.290775887668132782e-03,-1.579130142927169800e-01,1.036664247512817383e-01,1.921026408672332764e-01,-1.920917034149169922e-01,-1.195706650614738464e-01,3.095328249037265778e-02,-4.082193672657012939e-01,1.241714060306549072e-01,-5.060694813728332520e-01,2.136806398630142212e-01,-1.109684631228446960e-01,-3.333442211151123047e-01,-3.279854357242584229e-01,-3.028739690780639648e-01,-2.669123709201812744e-01,-3.224306404590606689e-01,-1.205619983375072479e-02,1.010447889566421509e-01,1.292597800493240356e-01,-1.056379377841949463e-01,7.143922150135040283e-02,2.171983122825622559e-01,-3.087708652019500732e-01,-1.224975287914276123e-01,7.254841178655624390e-02,1.186233535408973694e-01,-2.749460935592651367e-01,-3.521457612514495850e-01,-9.238444268703460693e-02,2.382639348506927490e-01,-1.891753636300563812e-02,2.880097031593322754e-01,-1.619186401367187500e-01,1.261159181594848633e-01,-1.500846743583679199e-01,1.886709779500961304e-01
-1.940865367650985718e-01,-1.130819991230964661e-01,-2.071369737386703491e-01,3.214096277952194214e-02,-6.406146287918090820e-02,-2.314776778221130371e-01,-1.673220098018646240e-02,2.590646445751190186e-01,4.383826255798339844e-01,1.567178964614868164e-01,-4.174943864345550537e-01,5.118300318717956543e-01,1.008704677224159241e-01,-3.389384150505065918e-01,4.664797335863113403e-02,1.402703970670700073e-01,5.410041287541389465e-02,-4.426013827323913574e-01,3.912797868251800537e-01,-2.200581282377243042e-01,2.465752065181732178e-01,8.006367087364196777e-02,-1.230805888772010803e-01,-1.424668729305267334e-01,2.497491091489791870e-01,3.425386846065521240e-01,2.408764064311981201e-01,3.113489747047424316e-01,1.292655169963836670e-01,-2.263556420803070068e-01,-4.425172507762908936e-02,-6.625923514366149902e-02,-2.647375762462615967e-01,3.427294790744781494e-01,-2.189148813486099243e-01,8.769430220127105713e-02,3.491402044892311096e-02,-2.670413628220558167e-02,-8.990785479545593262e-02,-4.403462111949920654e-01,-1.669348627328872681e-01,5.812677741050720215e-02,-1.219699392095208168e-03,-7.970023155212402344e-02,1.335746347904205322e-01,-4.110129177570343018e-01,-1.484064310789108276e-01,2.223533689975738525e-01,-9.407453238964080811e-02,-2.630905248224735260e-02
-8.842298388481140137e-02,3.665179479867219925e-03,1.115909963846206665e-01,9.586490690708160400e-03,-1.458980888128280640e-01,-5.865322425961494446e-02,8.809662610292434692e-02,2.745333909988403320e-01,-2.902385219931602478e-02,-2.425346821546554565e-01,1.108777895569801331e-01,-1.662418991327285767e-01,-4.652837291359901428e-02,-1.787219312973320484e-03,-8.336660265922546387e-02,1.451909393072128296e-01,3.134579956531524658e-02,1.206683889031410217e-01,-1.114806145778857172e-04,4.224132746458053589e-02,1.387591511011123657e-01,6.867102533578872681e-02,5.727230906486511230e-01,1.652320474386215210e-01,8.125279843807220459e-02,2.925315201282501221e-01,1.893854588270187378e-01,-3.395768627524375916e-02,-1.278206557035446167e-01,-2.612339332699775696e-02,-6.410069018602371216e-02,1.880494356155395508e-01,3.278157711029052734e-01,2.686277925968170166e-01,9.673411399126052856e-02,-1.170172914862632751e-01,4.611164703965187073e-02,-9.937627613544464111e-02,9.959537535905838013e-03,-3.463305532932281494e-01,-7.018059492111206055e-02,2.690718770027160645e-01,3.255247324705123901e-02,-1.724329590797424316e-02,1.503137350082397461e-01,-2.674231231212615967e-01,1.614916622638702393e-01,-2.490950077772140503e-01,1.653699725866317749e-01,-9.454847127199172974e-02
-1.063185930252075195e-01,-2.188927829265594482e-01,3.490267992019653320e-01,-3.246672153472900391e-01,-1.457273587584495544e-02,-1.361309736967086792e-01,-6.010010242462158203e-01,5.882738530635833740e-02,1.867798566818237305e-01,3.793055415153503418e-01,-1.570359766483306885e-01,-2.796582579612731934e-01,-2.146555483341217041e-01,-3.697457313537597656e-01,1.458133906126022339e-01,-4.418751895427703857e-01,2.367973774671554565e-01,-1.300331354141235352e-01,-3.450708985328674316e-01,-2.871862612664699554e-02,-1.673384159803390503e-01,-3.790108487010002136e-02,3.974861502647399902e-01,-3.867479041218757629e-02,5.555967241525650024e-02,1.754131764173507690e-01,1.665389239788055420e-01,1.920954287052154541e-01,-9.091110527515411377e-02,6.489759683609008789e-02,-2.720656692981719971e-01,9.919150732457637787e-03,3.512282073497772217e-01,2.630487978458404541e-01,2.756566740572452545e-03,-3.863889351487159729e-02,2.500894665718078613e-01,-1.322613656520843506e-01,-2.017648667097091675e-01,4.730558767914772034e-02,8.821189403533935547e-02,-8.807054162025451660e-02,-1.302866041660308838e-01,-3.743238002061843872e-02,-9.114522486925125122e-02,-1.144477427005767822e-01,1.982422173023223877e-01,-2.789328098297119141e-01,-3.122197985649108887e-01,1.574143320322036743e-01
-2.635423541069030762e-01,-1.090119825676083565e-03,-5.144923925399780273e-02,-8.464454673230648041e-03,-1.731723099946975708e-01,1.931668221950531006e-01,1.238564923405647278e-01,7.943001389503479004e-02,-1.878736913204193115e-02,-2.722685337066650391e-01,1.016414612531661987e-01,-1.368632912635803223e-01,-1.589089632034301758e-01,5.925896018743515015e-02,-9.266148507595062256e-02,7.890420965850353241e-03,5.662353709340095520e-02,3.386835008859634399e-02,-7.194513827562332153e-02,2.841550409793853760e-01,-4.309602975845336914e-01,9.637018293142318726e-02,-3.291207924485206604e-02,-4.038462415337562561e-02,-1.046503484249114990e-01,5.812274292111396790e-02,-1.957737803459167480e-01,-3.265326023101806641e-01,-2.213433831930160522e-01,2.588538639247417450e-02,1.744813323020935059e-01,-7.763010263442993164e-02,-7.071509212255477905e-02,-2.104365266859531403e-02,-1.465255487710237503e-02,-5.348002910614013672e-02,-3.957665264606475830e-01,-1.433472186326980591e-01,2.167789936065673828e-01,1.113769263029098511e-01,-1.241329759359359741e-01,-3.188940286636352539e-01,-1.985857784748077393e-01,8.230840414762496948e-02,2.022821605205535889e-01,1.859196722507476807e-01,1.961188316345214844e-01,2.482681423425674438e-01,-3.786601871252059937e-02,1.884191930294036865e-01
5.390118807554244995e-02,1.711191842332482338e-03,-9.698390960693359375e-02,-4.764370992779731750e-02,-6.620013713836669922e-02,8.038880676031112671e-02,-1.473555713891983032e-01,1.134395375847816467e-01,-2.502692043781280518e-01,2.656488120555877686e-01,-1.244900971651077271e-01,1.394736617803573608e-01,1.145812049508094788e-01,-8.028538525104522705e-02,1.072766482830047607e-01,-1.320215761661529541e-01,-3.500736504793167114e-02,-6.358825415372848511e-02,3.984792903065681458e-02,1.400880962610244751e-01,-1.767386794090270996e-01,-1.334410458803176880e-01,1.185419112443923950e-01,-1.057631671428680420e-01,3.968522697687149048e-02,-6.480794399976730347e-02,1.779962480068206787e-01,4.073927924036979675e-02,-1.719328314065933228e-01,-1.489523500204086304e-01,7.453654706478118896e-02,1.378877311944961548e-01,-1.389348208904266357e-01,9.095678478479385376e-02,1.106219813227653503e-01,-1.381803750991821289e-01,-1.304123699665069580e-01,5.423693731427192688e-02,-1.164965927600860596e-01,-3.907820582389831543e-02,1.480866596102714539e-02,2.000655382871627808e-01,-6.534225307404994965e-03,-3.187414258718490601e-02,1.069945618510246277e-01,1.188568547368049622e-01,-1.886583715677261353e-01,-5.635306239128112793e-02,-2.295692265033721924e-01,2.012914866209030151e-01
9.352876245975494385e-02,1.544522792100906372e-01,1.059089135378599167e-02,-1.572101190686225891e-02,-7.330044358968734741e-02,1.248865053057670593e-01,-1.851741597056388855e-02,-2.075472846627235413e-02,-1.135336700826883316e-02,1.806774586439132690e-01,-4.173489660024642944e-02,2.721733450889587402e-01,6.313991267234086990e-03,9.996400214731693268e-03,2.741800807416439056e-02,-1.321867555379867554e-01,1.545334380352869630e-04,7.995568215847015381e-02,1.994284391403198242e-01,1.551658511161804199e-01,-7.900968939065933228e-02,-9.222155064344406128e-02,1.676115542650222778e-01,1.285732090473175049e-01,1.944765448570251465e-02,-1.940237879753112793e-01,-7.644683122634887695e-02,5.304509773850440979e-02,-2.372049540281295776e-02,-1.337523609399795532e-01,-2.115904241800308228e-01,5.701273679733276367e-02,-1.465526968240737915e-01,-9.587521664798259735e-03,4.895991832017898560e-02,-2.801913022994995117e-01,-9.907393716275691986e-03,3.223293125629425049e-01,-2.760056965053081512e-02,1.717094630002975464e-01,-2.049430087208747864e-02,-3.067872300744056702e-02,2.338044345378875732e-01,-3.476442024111747742e-02,3.345020413398742676e-01,-1.799754798412322998e-01,1.286109238862991333e-01,-1.837238669395446777e-03,1.564980596303939819e-01,1.892646588385105133e-02
1.251493543386459351e-01,-3.972638025879859924e-02,-2.277271449565887451e-01,-9.066759049892425537e-02,8.699276484549045563e-03,2.721380591392517090e-01,1.296112835407257080e-01,2.089863121509552002e-01,-7.608382403850555420e-02,1.344815194606781006e-01,5.892343446612358093e-02,-9.563524508848786354e-05,1.407464295625686646e-01,-1.102340072393417358e-01,-1.691764742136001587e-01,-1.457487344741821289e-01,-7.422985881567001343e-02,-6.111852079629898071e-02,-8.910860866308212280e-02,-1.175969839096069336e-01,-1.363857537508010864e-01,1.571969240903854370e-01,3.006441295146942139e-01,2.207825183868408203e-01,-2.919305860996246338e-01,-1.327678114175796509e-01,1.380058079957962036e-01,-1.486236229538917542e-02,1.450331360101699829e-01,-2.704772353172302246e-01,-3.924516588449478149e-02,-1.192959398031234741e-01,1.811752319335937500e-01,-2.468551248311996460e-01,-1.713911741971969604e-01,-9.777232259511947632e-02,-1.356447935104370117e-01,-2.096709236502647400e-02,1.960045695304870605e-01,-1.400576680898666382e-01,1.914946548640727997e-02,9.994401037693023682e-02,-3.235644698143005371e-01,1.070696115493774414e-01,1.395709812641143799e-01,3.485448658466339111e-02,-7.110742479562759399e-02,1.232333183288574219e-01,-8.195508271455764771e-02,4.961603134870529175e-02
-2.212540246546268463e-03,-2.803381383419036865e-01,-1.465503275394439697e-01,8.254652470350265503e-02,8.001355081796646118e-02,-1.729990541934967041e-01,-1.191560849547386169e-01,1.315189450979232788e-01,-2.324510812759399414e-01,5.031765997409820557e-02,-5.107920616865158081e-02,-2.497883327305316925e-02,1.914883106946945190e-01,-1.752280145883560181e-01,-8.638097345829010010e-02,1.428669244050979614e-01,1.029491797089576721e-01,-2.516248524188995361e-01,3.137933611869812012e-01,4.479507729411125183e-02,-2.857505530118942261e-02,-2.531522810459136963e-01,6.835916638374328613e-02,1.557323988527059555e-02,1.631689667701721191e-01,-1.103857159614562988e-01,3.293940424919128418e-01,4.580838233232498169e-02,1.388151049613952637e-01,2.847009003162384033e-01,-1.277392059564590454e-01,-6.392736732959747314e-02,2.394505403935909271e-02,-1.225665733218193054e-01,-2.720972150564193726e-02,-2.030036002397537231e-01,2.336110483156517148e-04,1.658701449632644653e-01,2.343746274709701538e-01,1.637064516544342041e-01,-6.122224405407905579e-02,-1.113829985260963440e-01,-1.380872875452041626e-01,-1.479351073503494263e-01,2.998467087745666504e-01,4.265640676021575928e-02,-3.040101937949657440e-02,-1.665092110633850098e-01,-6.425909698009490967e-02,1.301392167806625366e-01
1.290538758039474487e-01,-2.644047439098358154e-01,4.933681711554527283e-02,-2.872753739356994629e-01,1.486864387989044189e-01,-8.447875827550888062e-02,3.064092062413692474e-02,-7.490346580743789673e-02,-1.846699565649032593e-01,6.343767046928405762e-03,-1.527926623821258545e-01,5.018505454063415527e-02,1.850103884935379028e-01,1.049168556928634644e-01,-3.225613012909889221e-02,-2.448491752147674561e-01,1.866682060062885284e-02,-1.416243463754653931e-01,3.053599298000335693e-01,2.272877609357237816e-03,1.299146711826324463e-01,-1.482479572296142578e-01,4.789938777685165405e-02,-5.075385794043540955e-02,-1.680123209953308105e-01,1.571487784385681152e-01,6.225606799125671387e-02,5.492343008518218994e-02,7.281900197267532349e-02,2.077768556773662567e-02,-1.211074590682983398e-01,1.392595469951629639e-01,-2.857193052768707275e-01,-1.947784721851348877e-01,-9.199886023998260498e-02,1.329312473535537720e-01,-1.467703748494386673e-02,-1.116671636700630188e-01,4.724647849798202515e-03,2.569288015365600586e-02,-5.182962864637374878e-02,-1.583918929100036621e-01,2.031991034746170044e-01,2.752589583396911621e-01,6.335166096687316895e-02,-1.888365000486373901e-01,1.183921694755554199e-01,-1.208671182394027710e-01,-7.452367991209030151e-02,1.509146690368652344e-01
-1.454035639762878418e-01,-3.367415070533752441e-02,8.472096174955368042e-02,-6.603352725505828857e-02,4.820246994495391846e-02,-8.383816480636596680e-02,3.660416975617408752e-02,-1.535265594720840454e-01,-2.116016447544097900e-01,8.463169634342193604e-02,-3.457399830222129822e-02,2.051081359386444092e-01,-2.057094275951385498e-01,-2.826092839241027832e-01,2.020746022462844849e-01,5.971286445856094360e-02,4.499729722738265991e-03,1.327417939901351929e-01,6.821317970752716064e-02,6.750658899545669556e-02,2.021959424018859863e-02,-1.173214837908744812e-01,-2.295832484960556030e-01,2.389116398990154266e-02,-1.147433742880821228e-01,2.291284799575805664e-01,-6.249877065420150757e-02,-3.553070500493049622e-02,1.319453269243240356e-01,9.985581785440444946e-02,-7.208701572380959988e-04,-2.338828146457672119e-02,2.022645771503448486e-01,1.375469565391540527e-01,-2.158792875707149506e-02,1.495103389024734497e-01,-2.581806778907775879e-01,8.398030698299407959e-02,-7.504031807184219360e-02,-1.221418380737304688e-01,-1.331520527601242065e-01,-4.157330840826034546e-02,-1.116475090384483337e-02,-5.013950169086456299e-02,-2.170460075139999390e-01,-8.741887286305427551e-03,-1.162277460098266602e-01,4.681933298707008362e-02,2.750098891556262970e-02,-6.496334075927734375e-02
-1.058268100023269653e-01,-1.079088672995567322e-01,7.438138127326965332e-02,4.269405901432037354e-01,-4.865676164627075195e-02,-2.953342497348785400e-01,1.896794885396957397e-01,1.154746860265731812e-01,-3.290795385837554932e-01,-2.883808910846710205e-01,-1.610705442726612091e-02,2.164525538682937622e-01,3.104506619274616241e-02,-1.040333360433578491e-01,-8.198501914739608765e-02,-6.361056119203567505e-02,-7.454793900251388550e-02,2.057918906211853027e-01,7.495582848787307739e-02,2.163255959749221802e-01,-1.581410914659500122e-01,1.583431661128997803e-02,-3.852907419204711914e-01,-4.453775007277727127e-03,-7.186185568571090698e-03,1.192612275481224060e-01,2.315766215324401855e-01,-3.179421126842498779e-01,3.221880793571472168e-01,1.925248503684997559e-01,3.228490948677062988e-01,9.675544500350952148e-02,1.063665151596069336e-01,-2.132381349802017212e-01,-5.526552349328994751e-02,7.547861337661743164e-02,-2.101607769727706909e-01,6.509441882371902466e-02,-1.216683760285377502e-01,-3.208211362361907959e-01,-1.443196088075637817e-01,-2.192651852965354919e-02,1.814815402030944824e-01,7.870679348707199097e-02,2.285460084676742554e-01,-1.069250181317329407e-01,1.829926967620849609e-01,1.249900013208389282e-01,-3.696904703974723816e-02,8.841381967067718506e-02
