-3.806322813034057617e-01
3.276630770415067673e-03
-4.357344210147857666e-01
4.288169741630554199e-02
-1.880168616771697998e-01
-3.570254147052764893e-01
6.900062412023544312e-02
-1.662948578596115112e-01
1.015459746122360229e-01
-1.920433044433593750e-01
4.610288888216018677e-02
-2.446684092283248901e-01
-1.698691099882125854e-01
-5.048635601997375488e-01
-1.476514041423797607e-01
-2.761285305023193359e-01
-2.456667423248291016e-01
2.617758512496948242e-01
-2.007896900177001953e-01
-3.673651814460754395e-01
-1.963417232036590576e-01
5.974632222205400467e-03
-4.366183280944824219e-01
-3.233872056007385254e-01
-7.136550545692443848e-02
-1.167366430163383484e-01
-4.344964623451232910e-01
-3.523230254650115967e-01
-4.115861356258392334e-01
1.954554766416549683e-01
-3.924299776554107666e-02
-6.936550140380859375e-02
-1.059265062212944031e-01
1.801496595144271851e-01
-6.016650423407554626e-02
-4.538381397724151611e-01
-1.285960227251052856e-01
-1.803386956453323364e-01
-4.949232339859008789e-01
1.304585486650466919e-01
-8.406197279691696167e-02
3.754770383238792419e-02
1.729789674282073975e-01
-3.086686432361602783e-01
-3.615127801895141602e-01
1.765991747379302979e-01
-2.276478894054889679e-02
3.613817319273948669e-02
-1.485211998224258423e-01
-2.182258665561676025e-01
