7.727572917938232422e-01
-6.442408263683319092e-02
4.902574717998504639e-01
1.158916428685188293e-01
9.158942103385925293e-02
-2.323655337095260620e-01
-5.467787981033325195e-01
-3.112746216356754303e-02
-2.830579280853271484e-01
-7.158826291561126709e-02
-1.344428807497024536e-01
-9.193162620067596436e-02
1.952724456787109375e-01
-4.848867952823638916e-01
1.648636609315872192e-01
-1.666877716779708862e-01
5.606315732002258301e-01
-2.324827015399932861e-02
1.082417294383049011e-01
-1.628106683492660522e-01
-1.887358278036117554e-01
-6.845216751098632812e-01
-5.156585574150085449e-01
-9.678852558135986328e-02
-3.269486725330352783e-01
-1.554748713970184326e-01
-9.875318408012390137e-02
1.750403083860874176e-02
-1.675760447978973389e-01
5.430229306221008301e-01
2.102979272603988647e-01
-2.361861914396286011e-01
-1.503586322069168091e-01
-1.883861869573593140e-01
-9.656699746847152710e-02
1.578447036445140839e-02
-2.875477969646453857e-01
1.505734175443649292e-01
-7.367118448019027710e-02
-1.297112852334976196e-01
-8.233985900878906250e-01
-7.719942927360534668e-02
7.628046721220016479e-02
1.955743581056594849e-01
1.674064844846725464e-01
-3.571612834930419922e-01
3.539914488792419434e-01
-7.413082122802734375e-01
-7.293612957000732422e-01
-2.109925597906112671e-01
