-7.503234595060348511e-02,-3.525390326976776123e-01,-2.435431629419326782e-01,4.998376220464706421e-02,-6.399048119783401489e-02,1.136863902211189270e-01,5.815335735678672791e-02,1.059523597359657288e-01,-1.016171202063560486e-01,-1.469197273254394531e-01,-1.890585571527481079e-01,1.400888264179229736e-01,4.477847740054130554e-02,-2.766195237636566162e-01,9.708329290151596069e-02,5.309673771262168884e-02,-1.369279026985168457e-01,-1.064678356051445007e-01,-6.216084957122802734e-02,-9.218432754278182983e-02,-4.863252863287925720e-03,-1.886694431304931641e-01,1.351783610880374908e-02,2.352035939693450928e-01,-2.628452777862548828e-01,2.598668932914733887e-01,-4.910784214735031128e-02,1.644259542226791382e-01,3.594830334186553955e-01,2.912720143795013428e-01,1.751573532819747925e-01,-9.945536404848098755e-02,-1.260790042579174042e-03,-1.082804352045059204e-01,2.567344903945922852e-01,2.843529880046844482e-01,2.031518965959548950e-01,1.971489638090133667e-01,1.988008618354797363e-01,-2.676261365413665771e-01,3.592513874173164368e-02,-2.540383115410804749e-02,4.236166924238204956e-02,1.527458727359771729e-01,8.024335652589797974e-02,-7.350354641675949097e-02,-1.640044301748275757e-01,-2.018567323684692383e-01,1.056291460990905762e-01,-1.981691457331180573e-02
8.107706904411315918e-03,-1.623985916376113892e-01,6.418076902627944946e-02,1.937779635190963745e-01,3.471768647432327271e-02,-1.804369240999221802e-01,-1.747021824121475220e-02,-3.220107555389404297e-01,8.200023323297500610e-02,2.270167022943496704e-01,-6.068498641252517700e-02,-1.000615134835243225e-01,8.132947236299514771e-02,-2.412572056055068970e-01,-6.378006190061569214e-02,1.866763532161712646e-01,-2.215700894594192505e-01,4.487737640738487244e-02,-2.705343961715698242e-01,1.163412779569625854e-01,-2.980321645736694336e-01,4.073574021458625793e-02,4.206826910376548767e-02,-1.230398267507553101e-01,-1.623997377464547753e-05,-7.616389542818069458e-02,-5.964951962232589722e-02,-1.388088613748550415e-01,1.320098638534545898e-01,-3.537287116050720215e-01,3.435858711600303650e-02,-1.769826114177703857e-01,-1.609739065170288086e-01,6.171882152557373047e-02,-1.154180243611335754e-02,-6.247281655669212341e-02,-3.280360996723175049e-02,2.323579788208007812e-01,-2.237330004572868347e-02,7.425433397293090820e-02,-1.166954264044761658e-01,-2.387647479772567749e-01,1.184754595160484314e-01,4.237348213791847229e-02,6.240660697221755981e-02,-1.129086408764123917e-02,-1.995631456375122070e-01,-2.384324073791503906e-01,-1.329919695854187012e-01,1.061904579401016235e-01
8.442009240388870239e-02,-5.596360564231872559e-02,-2.801156342029571533e-01,1.185406073927879333e-01,2.087758034467697144e-01,-1.785006225109100342e-01,-3.808834254741668701e-01,3.965601623058319092e-01,-1.058217957615852356e-01,6.075331941246986389e-02,-1.368759274482727051e-01,9.085377678275108337e-03,-1.189727708697319031e-01,3.394715785980224609e-01,-7.344452291727066040e-02,-3.933617770671844482e-01,4.239424467086791992e-01,-1.660285592079162598e-01,1.000593453645706177e-01,1.084830760955810547e-01,-1.825915724039077759e-01,3.307080864906311035e-01,-2.107661068439483643e-01,1.600171476602554321e-01,3.274786174297332764e-01,2.603735923767089844e-01,-6.834599375724792480e-02,3.007018268108367920e-01,2.627256214618682861e-01,-5.820968151092529297e-01,-5.807169154286384583e-02,1.210355311632156372e-01,3.582634031772613525e-01,2.921257913112640381e-01,-7.281819730997085571e-02,-4.020643532276153564e-01,-1.140934526920318604e-01,-1.421092748641967773e-01,1.533621847629547119e-01,-3.628548979759216309e-02,4.084037616848945618e-02,-1.094561815261840820e-01,-3.998185694217681885e-02,9.954375773668289185e-02,1.877562552690505981e-01,7.221313565969467163e-02,4.697377681732177734e-01,-1.424065977334976196e-01,-2.358358539640903473e-02,3.191334307193756104e-01
-4.059824049472808838e-01,-2.185428887605667114e-01,-5.113388299942016602e-01,-1.155403479933738708e-01,-3.022152185440063477e-02,-8.348222821950912476e-02,1.281240880489349365e-01,-2.327623665332794189e-01,1.216865852475166321e-01,1.243754476308822632e-01,3.310064077377319336e-01,-7.308211177587509155e-02,-3.009164929389953613e-01,4.484070837497711182e-02,7.206817716360092163e-02,-1.246211007237434387e-01,-7.780400663614273071e-02,-2.182368040084838867e-01,-3.765103816986083984e-01,1.353674829006195068e-01,-3.248785436153411865e-02,2.777333557605743408e-01,-2.764323353767395020e-01,-3.517033532261848450e-02,1.961328536272048950e-01,4.513450339436531067e-02,-3.145414888858795166e-01,1.726251691579818726e-01,-3.092113435268402100e-01,2.411433905363082886e-01,9.307091124355792999e-03,-3.570328652858734131e-01,2.498360872268676758e-01,-2.493628412485122681e-01,-1.108051463961601257e-02,-1.735483855009078979e-01,-1.143347695469856262e-01,1.715195178985595703e-01,-3.565122485160827637e-01,1.564735025167465210e-01,1.418690383434295654e-01,1.380019914358854294e-02,2.935334146022796631e-01,1.913785934448242188e-01,-3.154631257057189941e-01,3.821282684803009033e-01,3.076103925704956055e-01,-5.493130683898925781e-01,3.944313526153564453e-01,-2.206175029277801514e-02
1.101969406008720398e-01,-1.921079605817794800e-01,-1.963957101106643677e-01,4.976263735443353653e-04,-3.883646428585052490e-01,-3.272160291671752930e-01,-2.812139391899108887e-01,2.590931020677089691e-02,2.103413343429565430e-01,2.133200913667678833e-01,3.366023898124694824e-01,1.508796960115432739e-01,1.857007741928100586e-01,3.211917355656623840e-02,-1.323894113302230835e-01,6.969700753688812256e-02,-3.515889644622802734e-01,-6.915438920259475708e-02,-3.664859235286712646e-01,1.212285310029983521e-01,-1.024206820875406265e-02,1.147612929344177246e-01,3.759744018316268921e-02,1.315509229898452759e-01,2.809478938579559326e-01,-1.520851552486419678e-01,-1.120027527213096619e-01,1.270009279251098633e-01,2.675249874591827393e-01,-2.211181372404098511e-01,9.601882845163345337e-02,-3.140262067317962646e-01,2.948350012302398682e-01,-2.278955280780792236e-01,1.641006767749786377e-01,-1.767408251762390137e-01,3.021633327007293701e-01,1.905682235956192017e-01,-2.496500462293624878e-01,-4.412418976426124573e-02,-2.557357847690582275e-01,3.543049395084381104e-01,1.784186810255050659e-01,-2.140902727842330933e-01,-6.549081206321716309e-02,-8.831036835908889771e-02,-1.159728318452835083e-01,8.560753613710403442e-02,-5.403227806091308594e-01,2.358745187520980835e-01
-2.166200876235961914e-01,-3.189655020833015442e-02,-1.426280289888381958e-01,1.478547900915145874e-01,1.810211092233657837e-01,-3.088741898536682129e-01,-2.197078894823789597e-03,-4.587264955043792725e-01,-1.764466762542724609e-01,2.215867489576339722e-01,-2.735649794340133667e-02,-9.980552829802036285e-03,-1.083362847566604614e-01,3.425826728343963623e-01,5.256057903170585632e-02,-4.872747510671615601e-02,4.679073765873908997e-02,6.430270522832870483e-02,1.459093242883682251e-01,-1.334411054849624634e-01,2.582689523696899414e-01,-4.479457065463066101e-02,-4.217556118965148926e-01,-7.293099164962768555e-02,-4.545844793319702148e-01,1.378009170293807983e-01,-2.752456068992614746e-01,1.250941306352615356e-01,1.328990757465362549e-01,7.300003618001937866e-02,-1.303870324045419693e-02,1.745251566171646118e-01,1.472543552517890930e-02,-3.734728991985321045e-01,-1.234817579388618469e-01,3.394655883312225342e-02,1.799644529819488525e-01,-1.576093882322311401e-01,-2.558093331754207611e-02,-1.512476950883865356e-01,-7.355822622776031494e-02,-2.227843701839447021e-01,-2.620542347431182861e-01,-1.210886612534523010e-01,-9.839591383934020996e-02,-1.353072822093963623e-01,-6.056588143110275269e-02,2.763006649911403656e-02,-1.022709831595420837e-01,-1.026337668299674988e-01
-1.950542628765106201e-01,-5.387827754020690918e-02,1.167017892003059387e-01,1.693821251392364502e-01,1.024496480822563171e-01,-2.017147392034530640e-01,1.522215455770492554e-01,1.631893590092658997e-02,4.310006797313690186e-01,2.065820991992950439e-02,-1.290029585361480713e-01,-2.202437967061996460e-01,1.305838972330093384e-01,-2.131797809852287173e-04,1.819271892309188843e-01,-1.339779347181320190e-01,-2.404118031263351440e-01,-6.508884951472282410e-03,-2.102042585611343384e-01,-3.001612052321434021e-02,-1.015136297792196274e-02,-1.347494423389434814e-01,1.283163577318191528e-01,-3.389428257942199707e-01,8.223639428615570068e-02,-8.865424990653991699e-02,1.813901960849761963e-01,5.418513342738151550e-02,4.728727415204048157e-02,-4.071621894836425781e-01,2.318171113729476929e-01,-3.995792269706726074e-01,2.577213011682033539e-02,6.139402464032173157e-02,1.303180027753114700e-02,-6.083721667528152466e-02,-6.452061980962753296e-02,4.570718854665756226e-02,-1.453684568405151367e-01,1.960701048374176025e-01,-1.789313852787017822e-01,-2.387359291315078735e-01,-1.150384023785591125e-01,-2.878433465957641602e-01,-2.531153857707977295e-01,-2.625936865806579590e-01,-1.083796918392181396e-01,-8.643779903650283813e-02,-2.889815717935562134e-02,1.082080379128456116e-01
1.668197102844715118e-02,-1.182925030589103699e-01,-1.146850883960723877e-01,-3.447975497692823410e-03,-9.779810160398483276e-02,3.803495317697525024e-02,1.258371770381927490e-01,-1.055269613862037659e-01,-4.845089092850685120e-02,7.439479976892471313e-02,-9.604429826140403748e-03,1.330429464578628540e-01,-4.645240679383277893e-02,-5.025318637490272522e-02,1.384520530700683594e-01,-4.253372084349393845e-03,2.656787037849426270e-01,-7.330641895532608032e-02,1.890268474817276001e-01,-1.519275363534688950e-02,1.425382941961288452e-01,-2.359882928431034088e-02,-2.166216447949409485e-02,3.265981003642082214e-02,-3.503165245056152344e-01,2.744348347187042236e-01,-1.790829449892044067e-01,2.622718922793865204e-02,1.796397715806961060e-01,-9.511838853359222412e-02,-2.884720079600811005e-02,-1.907151751220226288e-02,-1.032589282840490341e-02,-4.503166675567626953e-02,1.250826865434646606e-01,-3.286081179976463318e-02,-1.228322014212608337e-01,5.827021598815917969e-02,-1.358370780944824219e-01,3.623546659946441650e-02,-7.142599672079086304e-02,1.305243819952011108e-01,8.565583825111389160e-02,1.487123221158981323e-02,-2.488818019628524780e-02,-3.126443549990653992e-02,3.158952668309211731e-02,2.417889423668384552e-02,-1.823202706873416901e-02,-1.972544938325881958e-01
2.361469864845275879e-01,-3.826148062944412231e-02,-1.263649016618728638e-01,-1.290449351072311401e-01,-3.014145791530609131e-01,1.805711090564727783e-01,1.335038393735885620e-01,-4.301795959472656250e-01,-4.517179355025291443e-02,-2.307614684104919434e-01,4.099374115467071533e-01,2.311127781867980957e-01,2.787113487720489502e-01,-2.197590917348861694e-01,-3.432274237275123596e-02,1.611116528511047363e-01,-6.154528856277465820e-01,1.695979982614517212e-01,-3.957408070564270020e-01,-2.627994716167449951e-01,1.533232629299163818e-01,-2.296701446175575256e-02,1.669356971979141235e-01,-1.549821048974990845e-01,-1.452147960662841797e-01,2.841003239154815674e-02,-5.676396191120147705e-02,2.324380166828632355e-02,-2.029230594635009766e-01,4.001083076000213623e-01,2.682004272937774658e-01,-1.448434293270111084e-01,4.679819568991661072e-03,-2.353146225214004517e-01,5.736334249377250671e-02,6.819158196449279785e-01,1.330576390027999878e-01,4.480813443660736084e-01,2.392310649156570435e-01,-2.500157356262207031e-01,-9.804603457450866699e-02,-7.980515807867050171e-02,2.019633799791336060e-01,-2.635111212730407715e-01,-5.639346837997436523e-01,-6.852615624666213989e-02,7.258722186088562012e-02,-3.353611752390861511e-02,-3.762849047780036926e-02,-1.882445365190505981e-01
6.991981714963912964e-02,1.556272655725479126e-01,-2.396182715892791748e-02,2.246960401535034180e-01,1.220737863332033157e-02,-4.789634943008422852e-01,-6.181810796260833740e-02,5.897805839776992798e-02,1.241270899772644043e-01,-2.774371504783630371e-01,1.210548207163810730e-01,8.282726258039474487e-02,2.130333781242370605e-01,2.940162122249603271e-01,-9.232908487319946289e-02,-1.433310657739639282e-01,2.512366175651550293e-01,3.063610494136810303e-01,-1.000167150050401688e-02,2.358985692262649536e-01,-2.301119565963745117e-01,1.957101374864578247e-01,-5.818981528282165527e-01,-1.395548414438962936e-02,1.274931132793426514e-01,4.043750166893005371e-01,-3.709899187088012695e-01,2.951426664367318153e-03,3.545082509517669678e-01,-1.155178695917129517e-01,5.648177862167358398e-02,4.818554967641830444e-02,2.357881367206573486e-01,3.196335732936859131e-01,1.265527606010437012e-01,-4.444628953933715820e-02,-1.363103389739990234e-01,2.554537653923034668e-01,8.912032470107078552e-03,-1.263925731182098389e-01,-1.906637102365493774e-01,4.462890326976776123e-01,-1.773961782455444336e-01,-5.785274133086204529e-02,1.778174936771392822e-01,-2.214836655184626579e-03,-2.186085432767868042e-01,-5.070621967315673828e-01,9.039893746376037598e-02,-2.703036740422248840e-02
-4.341248131822794676e-04,3.644863069057464600e-01,-1.697764694690704346e-01,1.740902215242385864e-01,2.658670246601104736e-01,-8.465622365474700928e-02,-3.041005134582519531e-01,1.563113480806350708e-01,6.446243822574615479e-02,-2.288449257612228394e-01,-2.438429743051528931e-01,-2.203194946050643921e-01,-7.524998486042022705e-02,4.350068420171737671e-02,-1.897406131029129028e-01,-1.861155927181243896e-01,1.789375841617584229e-01,1.568132042884826660e-01,-3.074633777141571045e-01,2.824091315269470215e-01,3.912419825792312622e-02,-6.130852177739143372e-02,1.268769651651382446e-01,1.336587816476821899e-01,3.148883879184722900e-01,1.733132451772689819e-01,2.764333486557006836e-01,-2.843396663665771484e-01,1.802136152982711792e-01,-2.464630007743835449e-01,-1.745911985635757446e-01,-8.772239834070205688e-02,-4.065296147018671036e-03,3.796153366565704346e-01,2.886525988578796387e-01,3.121255636215209961e-01,-3.411785066127777100e-01,-2.894055545330047607e-01,1.549115031957626343e-01,-3.782802224159240723e-01,-2.746602594852447510e-01,8.708751760423183441e-03,-1.525697112083435059e-01,1.828261315822601318e-01,2.359993904829025269e-01,-2.913020551204681396e-01,-9.125725924968719482e-02,-2.009368687868118286e-01,2.453127950429916382e-01,2.029785811901092529e-01
6.708000600337982178e-02,-4.306600093841552734e-01,-1.975527219474315643e-02,-5.146400332450866699e-01,-3.502403795719146729e-01,-4.051184654235839844e-01,-2.573562264442443848e-01,-3.473446965217590332e-01,3.769682645797729492e-01,2.798663377761840820e-01,1.788953095674514771e-01,1.496969014406204224e-01,-1.256043165922164917e-01,-1.528735458850860596e-01,6.314247101545333862e-02,-4.681583046913146973e-01,-5.406786203384399414e-01,-1.256563514471054077e-01,-1.640815883874893188e-01,4.950636252760887146e-02,3.242402970790863037e-01,-3.605008721351623535e-01,3.062936663627624512e-01,3.003273308277130127e-01,2.985624670982360840e-01,1.073621436953544617e-01,1.773987561464309692e-01,-2.058391869068145752e-01,-9.517085552215576172e-02,-6.891883909702301025e-02,5.745603516697883606e-02,1.584278047084808350e-01,7.836778461933135986e-02,-8.899084478616714478e-02,1.001449972391128540e-01,-5.721730180084705353e-03,-2.594004571437835693e-01,-2.273503094911575317e-01,-4.116486907005310059e-01,-5.185267329216003418e-01,1.673107743263244629e-01,1.174827199429273605e-02,-1.857978403568267822e-01,-2.464921921491622925e-01,2.172968834638595581e-01,-1.122624501585960388e-01,1.995216161012649536e-01,6.570009887218475342e-02,-4.991027414798736572e-01,1.458450406789779663e-01
-9.737224131822586060e-02,4.293169975280761719e-01,-1.740785241127014160e-01,1.319160163402557373e-01,-1.236633211374282837e-01,-4.593233764171600342e-01,-1.603918969631195068e-01,-7.700975984334945679e-02,2.066471986472606659e-02,-2.272774726152420044e-01,4.174958169460296631e-02,-2.508371174335479736e-01,-1.295657604932785034e-01,4.009871482849121094e-01,7.909531705081462860e-03,-4.556795954704284668e-02,-6.546482443809509277e-02,1.677917838096618652e-01,9.440560638904571533e-02,2.292968630790710449e-01,-2.397731095552444458e-01,5.550642684102058411e-02,-2.321151196956634521e-01,-1.785363703966140747e-01,1.019613817334175110e-01,4.112920463085174561e-01,-1.496416330337524414e-01,8.263951539993286133e-02,-1.362606883049011230e-01,-2.858585119247436523e-01,-4.052616953849792480e-01,-6.814425438642501831e-02,-2.359976023435592651e-01,-9.458697587251663208e-02,-1.013790965080261230e-01,-1.923621743917465210e-01,5.942881107330322266e-02,-3.037948720157146454e-02,-4.316696431487798691e-03,-2.589888870716094971e-01,1.565092056989669800e-01,3.079341053962707520e-01,1.397244632244110107e-01,-1.654934324324131012e-02,1.402218490839004517e-01,-1.469200551509857178e-01,-8.003644645214080811e-02,-3.871206641197204590e-01,2.908724844455718994e-01,-2.718965709209442139e-01
1.747298389673233032e-01,3.699778914451599121e-01,1.400235146284103394e-01,9.758134186267852783e-02,-1.509878784418106079e-01,-1.400935184210538864e-02,-2.317234687507152557e-02,4.521010443568229675e-02,-2.316266894340515137e-01,-8.910156041383743286e-02,1.003068611025810242e-01,-6.181680411100387573e-02,2.545586526393890381e-01,-3.040554821491241455e-01,5.345981568098068237e-02,3.569571971893310547e-01,-1.252057701349258423e-01,6.944945454597473145e-02,-1.874503046274185181e-01,-3.815509974956512451e-01,-2.495119534432888031e-02,1.626583635807037354e-01,-6.800761073827743530e-02,-2.568260431289672852e-01,-2.305529117584228516e-01,4.689016938209533691e-02,2.525256276130676270e-01,-1.645046174526214600e-01,-1.574722081422805786e-01,7.764901220798492432e-02,1.970486640930175781e-01,5.465705692768096924e-02,-1.799951046705245972e-01,-1.286201458424329758e-02,8.748052269220352173e-02,-3.707542270421981812e-02,-1.182354316115379333e-01,1.339905858039855957e-01,-2.435705363750457764e-01,1.584835648536682129e-01,2.122735977172851562e-01,-1.009666621685028076e-01,2.509880252182483673e-02,-1.058218702673912048e-01,-3.358417451381683350e-01,-2.199626564979553223e-01,9.067485108971595764e-03,-2.220450788736343384e-01,7.626625150442123413e-02,-5.421599745750427246e-02
-6.287928670644760132e-02,4.508441686630249023e-02,2.053827792406082153e-01,1.559600234031677246e-01,-3.175363242626190186e-01,4.376503080129623413e-02,2.137884646654129028e-01,-5.666744709014892578e-01,1.442199945449829102e-01,8.745993673801422119e-02,9.395921975374221802e-02,-9.620518237352371216e-02,1.848854124546051025e-01,-4.660511910915374756e-01,1.050259619951248169e-01,-4.329149052500724792e-02,-2.046667337417602539e-01,-7.078379858285188675e-03,-2.836163043975830078e-01,5.614640191197395325e-03,1.536560505628585815e-01,-2.169923037290573120e-01,4.838628694415092468e-02,-2.920367419719696045e-01,-2.359125018119812012e-01,9.104701690375804901e-03,2.930118739604949951e-01,1.948657333850860596e-01,7.446589320898056030e-02,5.476483702659606934e-01,3.130259513854980469e-01,-8.969798684120178223e-02,-4.104408025741577148e-01,-4.699324443936347961e-02,-8.497297018766403198e-02,8.601814508438110352e-01,7.426951546221971512e-03,4.221287369728088379e-01,1.468562055379152298e-02,2.403119504451751709e-01,1.557245701551437378e-01,-1.362463384866714478e-01,2.574805319309234619e-01,-2.702707238495349884e-02,-5.158535838127136230e-01,9.941900521516799927e-02,-1.460494399070739746e-01,-1.032999157905578613e-01,-3.816050589084625244e-01,-2.826948165893554688e-01
-1.609977632761001587e-01,5.566871538758277893e-02,1.062098369002342224e-01,-1.473587658256292343e-02,-2.106742709875106812e-01,-7.032699137926101685e-02,-6.385578215122222900e-02,7.018164545297622681e-02,4.701665043830871582e-02,-1.442149281501770020e-01,-1.420245170593261719e-01,2.545605897903442383e-01,-7.037834078073501587e-02,-3.328840732574462891e-01,-2.400653660297393799e-01,-6.033919751644134521e-02,-7.199133932590484619e-02,3.206695616245269775e-02,-1.393487900495529175e-01,-8.186350762844085693e-02,-1.149900108575820923e-01,-2.377264900133013725e-03,-2.707242369651794434e-01,1.265324205160140991e-01,-1.149730235338211060e-01,9.668008983135223389e-02,8.110056072473526001e-02,1.963811516761779785e-01,4.311775043606758118e-02,3.071790933609008789e-01,1.566701084375381470e-01,-8.256798982620239258e-02,1.210242807865142822e-01,1.178993433713912964e-01,1.008757352828979492e-01,-1.340534538030624390e-01,1.062699258327484131e-01,1.526418179273605347e-01,-1.898080706596374512e-01,-1.114560142159461975e-01,1.626337617635726929e-01,4.128021374344825745e-02,-5.561388283967971802e-02,2.579248845577239990e-01,-6.514155119657516479e-02,7.238791882991790771e-02,-1.268104910850524902e-01,-2.298781275749206543e-01,-1.425614655017852783e-01,-1.740500926971435547e-01
-1.312638074159622192e-01,-1.819849163293838501e-01,-2.859679460525512695e-01,3.284276723861694336e-01,2.766286581754684448e-02,2.003132253885269165e-01,7.117033749818801880e-02,1.084902975708246231e-02,3.173715174198150635e-01,-1.037001684308052063e-01,-1.937366575002670288e-01,1.926006525754928589e-01,-3.315779566764831543e-01,2.222138792276382446e-01,6.115702912211418152e-02,-3.292941153049468994e-01,1.104237139225006104e-01,-1.783390641212463379e-01,-1.360066533088684082e-01,6.029037013649940491e-02,1.034583821892738342e-01,3.640357777476310730e-02,-4.125640392303466797e-01,-3.436963772401213646e-03,-2.825313210487365723e-01,-1.353842467069625854e-01,6.562978960573673248e-03,5.654582753777503967e-02,-3.178491592407226562e-01,-9.778989106416702271e-02,1.050947234034538269e-01,-1.962692588567733765e-01,1.162517932243645191e-03,2.328451164066791534e-02,-1.802709326148033142e-02,1.146494373679161072e-01,-2.634879946708679199e-01,2.734808921813964844e-01,-3.005840778350830078e-01,6.432343274354934692e-02,-2.588175833225250244e-01,-2.819158732891082764e-01,-1.391090154647827148e-01,2.539649903774261475e-01,-8.532328158617019653e-02,-6.809463351964950562e-02,1.936081349849700928e-01,-1.960046440362930298e-01,2.341414988040924072e-01,-5.659943819046020508e-02
-2.018849998712539673e-01,1.602263599634170532e-01,-2.431521117687225342e-01,3.591066300868988037e-01,6.227609887719154358e-02,-2.982083261013031006e-01,-2.651461027562618256e-02,2.606387436389923096e-01,-2.512472271919250488e-01,-1.916082343086600304e-03,-1.935262978076934814e-01,1.986810863018035889e-01,-9.590461850166320801e-02,-6.835044175386428833e-02,1.905505359172821045e-01,-4.801724106073379517e-02,2.190100774168968201e-02,-3.132913634181022644e-02,-1.447297446429729462e-02,2.697050273418426514e-01,-7.933793962001800537e-02,-1.149180904030799866e-01,1.286951545625925064e-02,9.977754205465316772e-02,1.686764061450958252e-01,2.180459052324295044e-01,-1.796538382768630981e-01,-1.514226943254470825e-02,1.286018341779708862e-01,-2.788815498352050781e-01,1.544275581836700439e-01,2.720839977264404297e-01,7.602816820144653320e-02,2.727602720260620117e-01,3.369469046592712402e-01,3.888463973999023438e-01,-4.559175074100494385e-01,7.583446800708770752e-02,-8.557542413473129272e-02,-8.638676255941390991e-02,-3.389349207282066345e-02,-1.199192032217979431e-01,-1.174928694963455200e-01,2.516736686229705811e-01,1.011524870991706848e-01,3.508554771542549133e-02,-3.869536519050598145e-01,-6.764968484640121460e-02,2.772120572626590729e-02,1.474042534828186035e-01
1.945845633745193481e-01,4.333083033561706543e-01,-1.558333169668912888e-02,4.427207112312316895e-01,1.021607220172882080e-01,3.130084648728370667e-02,4.009666144847869873e-01,-2.438819706439971924e-01,-2.884289324283599854e-01,2.265982627868652344e-01,-2.041229279711842537e-03,-8.039785921573638916e-02,2.500463426113128662e-01,-1.226231902837753296e-01,3.703031539916992188e-01,4.155220091342926025e-01,-1.342806220054626465e-01,2.489106655120849609e-01,6.578455120325088501e-02,9.662435948848724365e-02,8.261429518461227417e-02,2.615391314029693604e-01,-2.612862288951873779e-01,-3.217049241065979004e-01,-3.266012072563171387e-01,6.516464054584503174e-02,4.348677396774291992e-02,1.935898810625076294e-01,-8.465975522994995117e-02,-2.918188273906707764e-01,2.926766872406005859e-01,-4.645894467830657959e-02,-2.582710683345794678e-01,2.350827306509017944e-02,1.333258952945470810e-02,-1.355704516172409058e-01,-3.765422105789184570e-02,1.839706450700759888e-01,-3.269292414188385010e-01,6.774652749300003052e-02,1.688708662986755371e-01,-1.565043777227401733e-01,-2.030892819166183472e-01,5.329243466258049011e-02,-2.670623064041137695e-01,-1.855203211307525635e-01,-3.566998243331909180e-01,-8.194078505039215088e-02,1.726774871349334717e-01,-1.945230178534984589e-02
-1.727386564016342163e-01,2.238115062937140465e-03,2.641096413135528564e-01,-1.517760604619979858e-01,4.253531247377395630e-02,-9.754617698490619659e-03,3.844505250453948975e-01,-1.104777380824089050e-01,-1.170001924037933350e-01,-2.156438380479812622e-01,-1.091608628630638123e-01,1.355403214693069458e-01,-6.040530279278755188e-02,5.874272063374519348e-02,1.435883902013301849e-02,2.862565219402313232e-01,5.673314258456230164e-02,6.587514281272888184e-02,5.989584699273109436e-02,2.242114990949630737e-01,1.556952949613332748e-02,-3.179544210433959961e-01,9.056693315505981445e-02,2.418237179517745972e-01,-1.985014528036117554e-01,-2.028791755437850952e-01,-1.370234340429306030e-01,2.871310897171497345e-02,-4.619121924042701721e-02,3.419351279735565186e-01,8.634264767169952393e-02,7.460167258977890015e-02,1.759602874517440796e-01,-1.682860702276229858e-01,-1.727415248751640320e-02,3.078316450119018555e-01,2.948896400630474091e-02,5.116676092147827148e-01,-3.551974147558212280e-02,1.385538130998611450e-01,8.011350035667419434e-02,-1.676541566848754883e-02,-7.738988101482391357e-02,-2.749291956424713135e-01,-2.116295248270034790e-01,1.050219237804412842e-01,-3.937804102897644043e-01,2.527599409222602844e-02,-4.612212777137756348e-01,-5.108979344367980957e-01
-4.577032625675201416e-01,-6.502148509025573730e-02,-2.372465580701828003e-01,1.142889484763145447e-01,-1.381640136241912842e-01,-1.828896254301071167e-01,8.646680414676666260e-02,5.228094756603240967e-02,-3.411753475666046143e-01,1.723876148462295532e-01,2.533093690872192383e-01,2.292612008750438690e-02,3.795619308948516846e-01,-2.678224444389343262e-02,-1.380919218063354492e-01,-1.404856592416763306e-01,-2.762874364852905273e-01,2.841479778289794922e-01,-4.624812602996826172e-01,1.901302486658096313e-01,2.961075901985168457e-01,-6.156967580318450928e-02,3.554290905594825745e-02,3.811353445053100586e-02,-1.837932914495468140e-01,2.799668312072753906e-01,-2.737450599670410156e-01,5.982942506670951843e-02,2.911829352378845215e-01,1.214215066283941269e-03,-5.280192941427230835e-02,1.157841011881828308e-01,2.376021742820739746e-01,-9.581021964550018311e-02,-3.505683690309524536e-02,-1.525992304086685181e-01,6.825255602598190308e-02,-1.597168892621994019e-01,-3.257936537265777588e-01,-3.234543204307556152e-01,6.336441636085510254e-02,2.184948883950710297e-02,8.946736901998519897e-02,1.365872472524642944e-01,1.367831528186798096e-01,1.250003278255462646e-01,6.461100187152624130e-03,3.402769565582275391e-02,-1.008511632680892944e-01,-8.480534702539443970e-02
-8.661622554063796997e-02,2.049057483673095703e-01,-1.399376988410949707e-01,-7.379614748060703278e-03,-4.076264053583145142e-02,-1.472834348678588867e-01,-1.064772233366966248e-01,-1.590258777141571045e-01,7.852955162525177002e-02,-1.262557208538055420e-01,-5.801894515752792358e-02,-6.981767714023590088e-02,2.733758278191089630e-02,-2.445342689752578735e-01,2.801766432821750641e-02,-4.988236352801322937e-03,2.145459689199924469e-02,-1.481015086174011230e-01,-1.468495726585388184e-01,8.328786492347717285e-02,2.046760171651840210e-01,5.722102895379066467e-02,-5.389300733804702759e-02,-1.376122795045375824e-02,-2.491024434566497803e-01,-1.268314570188522339e-01,1.702260822057723999e-01,1.243965774774551392e-01,2.067854814231395721e-02,1.063130199909210205e-01,1.094527542591094971e-01,9.548154473304748535e-02,1.646136492490768433e-01,9.860198944807052612e-03,2.092365026473999023e-01,-1.703191846609115601e-01,-8.978590369224548340e-02,2.119182348251342773e-01,-2.278568744659423828e-01,-1.653856635093688965e-01,1.478927433490753174e-01,1.455242186784744263e-01,-5.273277312517166138e-02,3.376027196645736694e-02,-1.939075887203216553e-01,7.343599200248718262e-02,1.150612160563468933e-01,-2.208362072706222534e-01,-7.854311913251876831e-02,5.900501459836959839e-02
-3.826830089092254639e-01,8.042735606431961060e-02,-4.553491994738578796e-02,1.163240820169448853e-01,1.976085901260375977e-01,-2.008104622364044189e-01,-2.168442904949188232e-01,1.935038417577743530e-01,-2.664821445941925049e-01,-2.239155173301696777e-01,-1.215173453092575073e-01,-2.561067044734954834e-01,-1.194761991500854492e-01,-5.102282017469406128e-02,1.691529760137200356e-03,-2.398693859577178955e-01,-2.015336602926254272e-01,1.933989822864532471e-01,9.358078986406326294e-02,-1.761781983077526093e-02,-3.785324692726135254e-01,1.724940985441207886e-01,5.079026147723197937e-02,2.396889477968215942e-01,-1.338995099067687988e-01,2.128563821315765381e-01,1.871919035911560059e-01,-1.952258646488189697e-01,4.421674311161041260e-01,-4.659674465656280518e-01,1.766956299543380737e-01,-9.214693307876586914e-02,-4.080671444535255432e-02,3.759535551071166992e-01,-1.432681083679199219e-01,-3.288482725620269775e-01,3.157176375389099121e-01,-3.646678030490875244e-01,3.313685357570648193e-01,-4.312541186809539795e-01,-2.935191988945007324e-01,-1.134591996669769287e-01,1.276124566793441772e-01,1.663282513618469238e-01,6.378059089183807373e-02,-4.615200161933898926e-01,-5.200539901852607727e-02,9.409904479980468750e-02,1.101493462920188904e-01,7.126982510089874268e-02
-5.244510769844055176e-01,-3.548248410224914551e-01,-1.304328739643096924e-01,5.788376182317733765e-02,2.156780958175659180e-01,1.208251863718032837e-01,1.594478935003280640e-01,2.125099599361419678e-01,-6.613263487815856934e-01,3.619029819965362549e-01,3.736710920929908752e-02,3.574557602405548096e-01,5.480065941810607910e-03,-1.099867150187492371e-01,-2.817032933235168457e-01,-1.308588236570358276e-01,-1.886869817972183228e-01,3.445684611797332764e-01,1.458936482667922974e-01,9.345918893814086914e-02,3.589307069778442383e-01,-1.750325858592987061e-01,1.886054724454879761e-01,-1.089168116450309753e-01,-2.571826279163360596e-01,3.951943516731262207e-01,-9.928932040929794312e-02,-1.416315138339996338e-01,-7.614617049694061279e-02,-2.731592021882534027e-02,-2.106766551733016968e-01,2.282063812017440796e-01,-3.673791289329528809e-01,8.462521433830261230e-02,-1.814375966787338257e-01,-1.999969929456710815e-01,-3.995203077793121338e-01,-2.384766377508640289e-02,-5.367388948798179626e-02,-3.236868381500244141e-01,4.878558218479156494e-02,-3.262680768966674805e-01,-2.820697426795959473e-01,1.129449009895324707e-01,3.703244030475616455e-02,-2.740427851676940918e-01,1.819500625133514404e-01,2.467953860759735107e-01,-1.420712620019912720e-01,-6.742305308580398560e-02
-6.392792463302612305e-01,1.807004660367965698e-01,-2.325677722692489624e-01,-3.383243083953857422e-01,4.833998158574104309e-02,-2.904779613018035889e-01,2.156293392181396484e-01,-1.766532957553863525e-01,-2.173773758113384247e-02,8.125206083059310913e-02,-1.846897304058074951e-01,-2.130611799657344818e-02,-1.151788309216499329e-01,7.689499855041503906e-02,-2.801782684400677681e-03,-7.089940458536148071e-02,2.466513067483901978e-01,-6.097397208213806152e-02,-1.200992166996002197e-01,-1.262931972742080688e-01,1.530449837446212769e-01,2.723065614700317383e-01,-3.508849143981933594e-01,3.818881884217262268e-02,4.409651458263397217e-02,2.983627319335937500e-01,-3.477615416049957275e-01,3.058865070343017578e-01,-9.651070088148117065e-02,-1.346046477556228638e-01,3.761057183146476746e-02,-2.203507423400878906e-01,1.596797555685043335e-01,-2.489825189113616943e-01,1.826634705066680908e-01,-5.182173568755388260e-03,-3.467586040496826172e-01,-1.544367372989654541e-01,1.887516677379608154e-01,-1.555177122354507446e-01,-8.329594135284423828e-02,3.165791332721710205e-01,-6.610197573900222778e-02,-1.738316267728805542e-01,-3.312568366527557373e-01,-6.934413313865661621e-02,-1.219111159443855286e-01,-1.138392090797424316e-01,3.235043883323669434e-01,5.756092816591262817e-02
-5.865235999226570129e-02,-3.316050022840499878e-02,-8.260309696197509766e-03,1.182181611657142639e-01,5.367652326822280884e-02,-1.496505886316299438e-01,1.048273742198944092e-01,6.119009852409362793e-02,-1.831043660640716553e-01,-2.468147575855255127e-01,4.316229000687599182e-02,1.118562892079353333e-01,1.023593768477439880e-01,-1.153245344758033752e-01,-6.320867687463760376e-02,-6.406547129154205322e-02,1.944331973791122437e-01,-9.349723905324935913e-02,-1.096422225236892700e-01,-2.295318618416786194e-02,-1.825709491968154907e-01,1.877820938825607300e-01,5.924880132079124451e-02,-4.071100428700447083e-02,5.846725776791572571e-02,-9.344539046287536621e-02,1.669090092182159424e-01,-1.206896603107452393e-01,7.407028973102569580e-02,1.400240659713745117e-01,-2.066602557897567749e-01,1.779675632715225220e-01,-5.195418745279312134e-02,3.552617505192756653e-03,7.729820162057876587e-02,2.363130450248718262e-01,-1.343019157648086548e-01,1.099065244197845459e-01,4.393201670609414577e-04,2.981884032487869263e-02,-4.024126008152961731e-02,8.512094616889953613e-02,-6.104797124862670898e-02,8.838691562414169312e-02,-2.228090316057205200e-01,2.493349835276603699e-02,-1.887533627450466156e-02,1.072183833457529545e-03,-2.022638469934463501e-01,-8.622908592224121094e-02
-1.437449157238006592e-01,-9.595913439989089966e-02,-2.525861561298370361e-01,-2.076648324728012085e-01,-9.725764393806457520e-02,-1.173322573304176331e-01,1.035666912794113159e-01,-6.483869254589080811e-02,1.579340845346450806e-01,7.922730594873428345e-02,-3.626928851008415222e-02,1.665482074022293091e-01,-6.119549274444580078e-02,-1.494328230619430542e-01,2.239415980875492096e-02,-2.790602445602416992e-01,-3.519918620586395264e-01,8.432577364146709442e-03,-3.232286870479583740e-01,-1.778700947761535645e-01,1.445383131504058838e-01,-1.538091152906417847e-01,5.952867120504379272e-02,7.560376822948455811e-02,1.343791186809539795e-01,1.498773247003555298e-01,7.367528975009918213e-02,2.298421561717987061e-01,-3.401421010494232178e-02,1.240821629762649536e-01,-1.453399192541837692e-02,2.826823294162750244e-01,2.620843350887298584e-01,-5.317178368568420410e-02,-1.023956239223480225e-01,-4.247450828552246094e-02,-2.563400566577911377e-01,2.821510732173919678e-01,-3.315998315811157227e-01,-3.453608453273773193e-01,-1.746784150600433350e-01,-1.304717361927032471e-01,-1.499192416667938232e-01,-2.788992524147033691e-01,2.490080147981643677e-01,-2.685626745223999023e-01,1.488497480750083923e-02,1.969135999679565430e-01,-2.926906049251556396e-01,8.482661843299865723e-02
-1.744149066507816315e-02,9.380958043038845062e-03,8.507792651653289795e-02,-9.646692872047424316e-02,1.964567601680755615e-01,-1.309852600097656250e-01,9.033560752868652344e-02,-2.056045383214950562e-01,1.404397636651992798e-01,1.526779085397720337e-01,-9.433805197477340698e-02,-2.667168080806732178e-01,2.188188880681991577e-01,-1.872100830078125000e-01,-8.438818156719207764e-02,2.915937900543212891e-01,-1.071774140000343323e-01,1.406614184379577637e-01,-1.841590106487274170e-01,-6.179622188210487366e-02,1.052347645163536072e-01,1.581223756074905396e-01,1.296589672565460205e-01,-1.470019370317459106e-01,-1.871490180492401123e-01,-2.599888481199741364e-02,1.461329811718314886e-04,1.474064588546752930e-01,1.095267608761787415e-01,-2.115678936243057251e-01,2.303880900144577026e-01,-2.382413595914840698e-01,-2.764738798141479492e-01,-1.674415022134780884e-01,-3.649404272437095642e-02,-1.981391161680221558e-01,-1.925588399171829224e-01,-2.110716886818408966e-02,4.998443275690078735e-02,8.982820063829421997e-02,-1.685001403093338013e-01,7.675620913505554199e-02,-7.590343058109283447e-02,-5.586155503988265991e-02,-2.256828844547271729e-01,-3.431228101253509521e-01,-1.244105473160743713e-01,-5.759214609861373901e-02,-9.241106361150741577e-02,7.426393777132034302e-02
5.120256170630455017e-02,1.452076155692338943e-02,5.985223501920700073e-02,5.904161185026168823e-02,1.266555041074752808e-01,-4.291685670614242554e-02,-2.122183591127395630e-01,-1.909015141427516937e-02,-8.135192841291427612e-02,-1.180602386593818665e-01,-9.433408081531524658e-02,2.080873586237430573e-02,2.259323447942733765e-01,-1.633347868919372559e-01,-1.960007697343826294e-01,-1.100601553916931152e-01,-2.154701761901378632e-02,1.205343902111053467e-01,-1.071943789720535278e-01,1.279040053486824036e-02,-1.060635969042778015e-01,1.969108730554580688e-02,-6.009862944483757019e-02,-2.710669301450252533e-02,7.800653576850891113e-02,1.371877938508987427e-01,4.930817335844039917e-02,-7.508037146180868149e-03,1.538943350315093994e-01,4.359290748834609985e-02,1.203742176294326782e-01,-2.248841822147369385e-01,-2.912537157535552979e-01,-2.415486611425876617e-02,-2.002971768379211426e-01,-8.879397809505462646e-02,5.762748420238494873e-02,8.230901509523391724e-02,-1.389741599559783936e-01,-1.719306856393814087e-01,-9.159804135560989380e-02,-1.532335728406906128e-01,-1.430700719356536865e-02,3.814144805073738098e-02,7.681741565465927124e-02,5.054723098874092102e-02,-7.545208185911178589e-02,3.249268978834152222e-02,-9.253568202257156372e-02,1.682021319866180420e-01
4.350664676167070866e-04,4.331700876355171204e-02,-9.883754886686801910e-03,1.465896517038345337e-01,-7.619331590831279755e-03,-1.124244034290313721e-01,-4.756240174174308777e-03,5.361707136034965515e-02,2.011653035879135132e-02,-5.068796128034591675e-02,-1.486363708972930908e-01,1.252885758876800537e-01,9.111431986093521118e-02,-1.229651868343353271e-01,-1.339206993579864502e-01,-3.072125650942325592e-02,1.737236082553863525e-01,7.245031744241714478e-02,-7.190319150686264038e-02,-1.170971617102622986e-01,1.089394763112068176e-01,-1.701691448688507080e-01,-1.104361414909362793e-01,8.803014643490314484e-03,1.035263612866401672e-01,-8.349578082561492920e-02,1.695529520511627197e-01,-5.160899832844734192e-02,-6.965632736682891846e-02,-1.241584718227386475e-01,2.428725957870483398e-01,-2.179874293506145477e-02,-1.114716157317161560e-01,-1.625352203845977783e-01,1.875250935554504395e-01,2.608160972595214844e-01,-6.616116315126419067e-02,7.437120378017425537e-02,2.133997716009616852e-02,-7.142222952097654343e-03,-1.060812398791313171e-01,1.043147668242454529e-01,-2.042079567909240723e-01,1.386781185865402222e-01,-1.750740706920623779e-01,3.109628520905971527e-02,9.298255294561386108e-02,-6.572577357292175293e-02,-1.061976775527000427e-01,5.745958164334297180e-02
-1.758758574724197388e-01,1.302375178784132004e-02,-2.928049564361572266e-01,1.304641962051391602e-01,3.351929411292076111e-02,-4.656292498111724854e-01,1.320094019174575806e-01,2.695243805646896362e-02,-2.712360620498657227e-01,6.045582145452499390e-02,-6.889015436172485352e-02,1.079331710934638977e-01,2.262866944074630737e-01,-1.029368042945861816e-01,-8.984791487455368042e-02,1.266948282718658447e-01,-1.492361873388290405e-01,9.381977468729019165e-02,-4.485720098018646240e-01,-2.204429805278778076e-01,1.159961521625518799e-01,-2.331737428903579712e-02,7.279850542545318604e-03,1.620740592479705811e-01,-7.538379728794097900e-02,-8.755361288785934448e-02,1.877899914979934692e-01,2.698709666728973389e-01,8.598078042268753052e-02,-6.259372830390930176e-02,-2.360939420759677887e-02,-2.206492424011230469e-01,-4.695805907249450684e-02,8.315447717905044556e-02,1.103062778711318970e-01,-6.127177178859710693e-02,-1.140085533261299133e-01,1.898217797279357910e-01,2.252836897969245911e-02,-3.853369504213333130e-02,-1.857952028512954712e-01,1.994508504867553711e-02,7.035345584154129028e-02,7.968121021986007690e-02,-1.814539358019828796e-02,2.276552766561508179e-01,1.419016718864440918e-01,1.738722026348114014e-01,-2.426842041313648224e-02,-1.243212819099426270e-01
-6.067539379000663757e-02,1.105788722634315491e-02,-2.341959774494171143e-01,3.191950321197509766e-01,-3.088316507637500763e-02,-5.500020980834960938e-01,-6.761074811220169067e-02,-3.165159747004508972e-02,-2.367339879274368286e-01,1.140259429812431335e-01,-1.371876299381256104e-01,9.070973098278045654e-02,1.855047792196273804e-01,3.712396621704101562e-01,1.637723594903945923e-01,-5.947151407599449158e-02,2.378130257129669189e-01,-2.187071591615676880e-01,-2.957912385463714600e-01,-2.730112671852111816e-01,1.807453483343124390e-01,-1.143458187580108643e-01,3.700003400444984436e-02,-3.777270913124084473e-01,-1.966150999069213867e-01,2.506793439388275146e-01,1.454095095396041870e-01,2.792788147926330566e-01,1.183213889598846436e-01,-6.405668705701828003e-02,1.541347801685333252e-01,-2.099331915378570557e-01,9.048605337738990784e-03,1.494312584400177002e-01,1.441356241703033447e-01,1.849495321512222290e-01,2.909978032112121582e-01,-3.587222844362258911e-02,-4.343905672430992126e-02,-1.454822421073913574e-01,3.724844381213188171e-02,3.753032162785530090e-02,2.485069483518600464e-01,8.829879015684127808e-02,-2.671523988246917725e-01,2.443529069423675537e-01,-1.545484215021133423e-01,-2.103215754032135010e-01,-6.198928505182266235e-02,-1.460973024368286133e-01
-9.108060598373413086e-02,-1.451960504055023193e-01,-2.018079012632369995e-01,2.138902246952056885e-01,-7.196916639804840088e-02,-1.205700784921646118e-01,2.335107922554016113e-01,-2.335753291845321655e-02,2.178429961204528809e-01,-3.064379692077636719e-01,-2.142805159091949463e-01,8.751659840345382690e-02,1.310953199863433838e-01,-1.330506335943937302e-02,1.042985543608665466e-01,-5.392395332455635071e-02,1.713529974222183228e-01,1.155144274234771729e-01,2.791007794439792633e-02,1.697972714900970459e-01,2.172518223524093628e-01,1.788377910852432251e-01,-6.483108550310134888e-02,-9.917104989290237427e-02,-1.313928067684173584e-01,1.577685028314590454e-01,-3.890970349311828613e-02,7.870887219905853271e-02,2.012816667556762695e-01,8.912774920463562012e-02,2.274985611438751221e-01,-1.612051874399185181e-01,6.536819040775299072e-02,2.167073339223861694e-01,9.572756290435791016e-02,-2.834466099739074707e-01,-1.592496484518051147e-01,-1.353579312562942505e-01,-3.669448792934417725e-01,1.204335317015647888e-01,-1.004420295357704163e-01,1.120688393712043762e-01,1.497829407453536987e-01,1.767840832471847534e-01,-6.241298094391822815e-02,-1.036048587411642075e-02,-4.740108549594879150e-02,3.350875899195671082e-02,-1.811865419149398804e-01,2.436028420925140381e-01
8.134517073631286621e-02,7.649004459381103516e-03,1.664217375218868256e-02,-2.131509929895401001e-01,1.566682159900665283e-01,-7.491442561149597168e-02,-5.746747925877571106e-02,-1.955131813883781433e-02,1.344617903232574463e-01,1.066242977976799011e-01,2.482235878705978394e-01,-6.131470203399658203e-02,-2.363928593695163727e-02,3.625772148370742798e-02,7.463102042675018311e-02,9.872607141733169556e-02,-9.983012825250625610e-02,1.416433453559875488e-01,1.460712105035781860e-01,9.571366012096405029e-02,-1.911805272102355957e-01,2.219456136226654053e-01,9.033761173486709595e-02,-5.305728688836097717e-02,-2.758189737796783447e-01,2.414161711931228638e-02,1.311722397804260254e-02,-1.981206983327865601e-01,-1.905367076396942139e-01,-1.458830386400222778e-01,8.758242428302764893e-02,-1.253818869590759277e-01,-1.793387085199356079e-01,3.089914619922637939e-01,-1.388392001390457153e-01,1.353854127228260040e-02,-4.882898926734924316e-02,-7.891347259283065796e-02,7.892137020826339722e-02,-5.922740697860717773e-02,-1.305887103080749512e-01,1.295093446969985962e-01,2.219269052147865295e-02,3.324932232499122620e-02,-1.335597634315490723e-01,5.825887247920036316e-02,-4.534489009529352188e-03,-1.123384982347488403e-01,-1.542911678552627563e-02,-1.305903047323226929e-01
-2.126296237111091614e-02,-3.652665317058563232e-01,-1.508125755935907364e-02,5.442185997962951660e-01,-5.483115464448928833e-02,-5.302516222000122070e-01,4.225417971611022949e-02,-3.234777450561523438e-01,-3.095305562019348145e-01,3.289490342140197754e-01,2.819021344184875488e-01,2.481475621461868286e-01,2.358609288930892944e-01,2.981164753437042236e-01,3.684775531291961670e-02,1.099146530032157898e-01,-8.218557387590408325e-02,1.229229643940925598e-01,-4.514201879501342773e-01,6.966626644134521484e-02,-6.100539863109588623e-02,2.554645240306854248e-01,1.783026009798049927e-01,-2.834490835666656494e-01,7.843821495771408081e-02,-7.492113858461380005e-02,2.870459556579589844e-01,2.001590579748153687e-01,1.285529583692550659e-01,-5.120255351066589355e-01,2.101766467094421387e-01,-4.505387544631958008e-01,-2.674547135829925537e-01,-5.347798764705657959e-02,1.115034446120262146e-01,4.914145916700363159e-02,2.638432681560516357e-01,-1.094112843275070190e-01,-1.887426078319549561e-01,-1.802890747785568237e-01,-2.256748378276824951e-01,-3.647910654544830322e-01,1.929714977741241455e-01,2.558643929660320282e-02,-2.849246561527252197e-01,-4.849143698811531067e-02,-3.538605868816375732e-01,-1.941763609647750854e-02,-2.248275578022003174e-01,7.760698348283767700e-02
2.096661925315856934e-01,1.954457759857177734e-01,1.960193663835525513e-01,-2.248546667397022247e-02,-3.181295990943908691e-01,1.797608456399757415e-05,-5.022776499390602112e-02,-5.225515365600585938e-01,4.175621569156646729e-01,2.415146492421627045e-02,-2.904669344425201416e-01,3.130753934383392334e-01,-4.269615411758422852e-01,9.774462133646011353e-02,3.645918667316436768e-01,1.343085318803787231e-01,1.098486632108688354e-01,-2.897090613842010498e-01,-3.075126707553863525e-01,-6.134983152151107788e-02,-1.941176205873489380e-01,1.193369925022125244e-02,1.979527473449707031e-01,-3.231916110962629318e-03,1.827283948659896851e-01,-1.981316953897476196e-01,-2.688991278409957886e-02,1.766307502985000610e-01,1.828438341617584229e-01,-1.614174693822860718e-01,-9.152425080537796021e-02,-5.069109201431274414e-01,-3.941021487116813660e-02,1.655727922916412354e-01,-5.678453296422958374e-02,-3.840907812118530273e-01,3.813488185405731201e-01,1.218994110822677612e-01,-1.386008858680725098e-01,-3.355847895145416260e-01,-2.929287850856781006e-01,-1.858572661876678467e-01,-2.439012005925178528e-02,2.750044316053390503e-02,-3.402965962886810303e-01,-4.155257940292358398e-01,-2.280752211809158325e-01,-5.138203501701354980e-02,-1.217920705676078796e-01,3.205907344818115234e-01
-2.985350489616394043e-01,-1.460961401462554932e-01,1.943897008895874023e-01,2.102578580379486084e-01,2.136250734329223633e-01,-1.547053158283233643e-01,-1.683984994888305664e-01,-9.439089894294738770e-02,-1.555519104003906250e-01,6.385019514709711075e-03,-1.142733469605445862e-01,6.317836791276931763e-02,1.006500199437141418e-01,4.406790733337402344e-01,-2.696969509124755859e-01,-3.600687980651855469e-01,1.716776639223098755e-01,-9.130876511335372925e-03,1.256168931722640991e-01,-1.370162703096866608e-02,2.439531311392784119e-02,-1.057594567537307739e-01,2.330432087182998657e-01,-4.162315428256988525e-01,-2.606096863746643066e-01,2.271558344364166260e-01,2.964709401130676270e-01,2.452236227691173553e-02,-7.792568951845169067e-02,1.518965810537338257e-01,-1.522804647684097290e-01,-2.177602648735046387e-01,-2.061602920293807983e-01,8.514526486396789551e-02,7.039251923561096191e-02,-3.042513430118560791e-01,-1.773991733789443970e-01,3.043815493583679199e-03,-1.652702838182449341e-01,-4.099458456039428711e-01,2.935222350060939789e-02,-2.072034329175949097e-01,-2.371119409799575806e-01,2.352329343557357788e-01,-1.710189133882522583e-01,-4.444196447730064392e-02,3.724852800369262695e-01,1.912676841020584106e-01,-1.788575202226638794e-01,1.940254271030426025e-01
-1.767476499080657959e-01,-2.658262550830841064e-01,3.255869150161743164e-01,2.767072319984436035e-01,2.966499701142311096e-02,-2.132425010204315186e-01,3.082571029663085938e-01,1.963275950402021408e-03,-2.234057523310184479e-02,-3.703161776065826416e-01,-1.120787411928176880e-01,-9.324009716510772705e-02,-2.817152142524719238e-01,-5.288976803421974182e-02,-2.309180051088333130e-02,-2.157061547040939331e-02,1.507599465548992157e-02,-4.476604983210563660e-02,6.535984575748443604e-02,1.929322332143783569e-01,8.368464559316635132e-02,-2.188577800989151001e-01,1.854397356510162354e-01,8.668798953294754028e-02,-9.171596169471740723e-02,1.728081703186035156e-01,1.086873561143875122e-01,-6.016222760081291199e-02,3.949450254440307617e-01,2.108660340309143066e-01,-2.936485409736633301e-02,5.531241372227668762e-02,9.634926170110702515e-02,1.862422674894332886e-01,4.258844554424285889e-01,6.554914116859436035e-01,-9.279170632362365723e-02,1.506907194852828979e-01,3.780115544795989990e-01,-4.703607875853776932e-03,8.316013962030410767e-02,-1.872756518423557281e-02,3.323276042938232422e-01,-3.501226194202899933e-03,9.464184939861297607e-02,-1.890359967947006226e-01,-4.091419875621795654e-01,1.256923824548721313e-01,-4.780591651797294617e-02,-2.810516357421875000e-01
-8.311391621828079224e-02,2.656628787517547607e-01,1.313328295946121216e-01,-4.362600669264793396e-02,1.865142770111560822e-02,3.080037236213684082e-02,-1.202348433434963226e-02,-1.870618909597396851e-01,7.317349314689636230e-02,-3.939074277877807617e-02,1.582531929016113281e-01,4.801977798342704773e-02,4.460345804691314697e-01,-3.374256789684295654e-01,1.030636206269264221e-01,3.299466669559478760e-01,-1.285873502492904663e-01,2.373347133398056030e-01,-3.183546066284179688e-01,-2.845755517482757568e-01,1.231194660067558289e-01,-2.127240300178527832e-01,-7.465703040361404419e-02,-3.327209651470184326e-01,-3.907950818538665771e-01,-1.316226366907358170e-02,-1.874748617410659790e-01,-3.043549656867980957e-01,2.708230912685394287e-01,-2.625517547130584717e-01,1.681711226701736450e-01,8.514821529388427734e-02,6.356563419103622437e-02,-5.403254926204681396e-02,-1.867453306913375854e-01,-8.795406669378280640e-02,3.161048293113708496e-01,1.815684288740158081e-01,-2.192148268222808838e-01,3.404811322689056396e-01,-1.154751256108283997e-01,-1.463299244642257690e-01,4.877554625272750854e-02,1.312779337167739868e-01,-1.680334359407424927e-01,-1.154979020357131958e-01,-1.776013150811195374e-02,8.839618414640426636e-02,4.979385808110237122e-02,-3.025347590446472168e-01
-1.190521344542503357e-01,-2.268376387655735016e-02,2.352853678166866302e-02,7.465883344411849976e-02,3.315142542123794556e-02,-2.845494542270898819e-03,3.623702228069305420e-01,-5.024843215942382812e-01,-1.608405262231826782e-02,-1.944417506456375122e-01,2.097837030887603760e-01,8.357207477092742920e-02,8.319526910781860352e-02,-4.205486178398132324e-01,8.332712203264236450e-02,3.119607269763946533e-01,-1.181842759251594543e-01,-8.941703289747238159e-02,-2.929370105266571045e-01,-3.986991941928863525e-02,1.188505887985229492e-01,-4.480477869510650635e-01,1.548746973276138306e-02,-2.758261263370513916e-01,7.340525090694427490e-02,1.010057609528303146e-02,2.625636160373687744e-01,-2.211161255836486816e-01,-1.728453785181045532e-01,4.765636324882507324e-01,4.981575906276702881e-01,-8.234931528568267822e-02,-3.173694312572479248e-01,-3.393156826496124268e-01,-1.306833773851394653e-01,4.771305620670318604e-01,3.144001662731170654e-01,4.473903477191925049e-01,1.666062325239181519e-01,-7.375525776296854019e-03,8.835203200578689575e-02,-3.015049695968627930e-01,2.161639556288719177e-02,-1.081048771739006042e-01,-2.289090752601623535e-01,1.054368391633033752e-01,-3.923403564840555191e-03,1.421718448400497437e-01,-1.003442555665969849e-01,-5.286750197410583496e-01
-4.864939749240875244e-01,2.373210489749908447e-01,-2.516131103038787842e-01,2.389626502990722656e-01,1.936578303575515747e-01,-2.674595713615417480e-01,-5.139990150928497314e-02,1.430850476026535034e-01,-1.968216598033905029e-01,-1.423572842031717300e-02,-2.070753872394561768e-01,-2.566834390163421631e-01,-3.128559887409210205e-01,-3.374749720096588135e-01,4.539053887128829956e-02,2.593646645545959473e-01,-6.081291940063238144e-03,-2.132075279951095581e-01,-4.523804485797882080e-01,2.103832364082336426e-01,-3.647509217262268066e-02,3.486154973506927490e-02,2.447741106152534485e-02,2.549486458301544189e-01,-2.122985897585749626e-03,3.365731835365295410e-01,-3.764692246913909912e-01,-1.207495480775833130e-01,3.474393486976623535e-01,-5.112822055816650391e-01,-2.078515738248825073e-01,3.083370327949523926e-01,1.994446963071823120e-01,2.686050236225128174e-01,-8.406203240156173706e-02,2.659226655960083008e-01,-5.756898522377014160e-01,9.507196396589279175e-02,-9.676063805818557739e-02,-1.842310875654220581e-01,-4.752955734729766846e-01,-1.105886623263359070e-01,-3.356830477714538574e-01,1.976254582405090332e-01,2.194417417049407959e-01,-7.333570122718811035e-01,-1.419331580400466919e-01,7.856135070323944092e-02,2.885431647300720215e-01,2.708069682121276855e-01
-1.513463556766510010e-01,1.089919656515121460e-01,8.966209739446640015e-02,1.247069910168647766e-01,2.812932431697845459e-01,-1.878087520599365234e-01,1.311759948730468750e-01,-3.184593915939331055e-01,1.820317506790161133e-01,3.758427873253822327e-02,-3.979944810271263123e-02,-1.990619488060474396e-02,4.018129035830497742e-02,1.614443585276603699e-02,-9.476229548454284668e-02,1.012491881847381592e-01,6.829653680324554443e-02,-1.249410882592201233e-01,-1.689629107713699341e-01,-6.104417517781257629e-02,-1.935158967971801758e-01,2.521531283855438232e-02,9.774830192327499390e-02,-1.435078680515289307e-01,-8.265508711338043213e-02,-1.067013218998908997e-01,-1.872192472219467163e-01,1.379650235176086426e-01,1.039316505193710327e-01,-2.054201513528823853e-01,3.948265910148620605e-01,-3.632061779499053955e-01,6.667504459619522095e-02,2.651135809719562531e-02,1.299911588430404663e-01,-9.040991961956024170e-02,-1.042464748024940491e-01,-7.759799808263778687e-02,-2.115818858146667480e-01,1.693265289068222046e-01,-1.388581544160842896e-01,-2.307839393615722656e-01,2.765467017889022827e-02,-9.568547457456588745e-02,-1.021017059683799744e-01,-1.552805900573730469e-01,-1.425797790288925171e-01,1.461627781391143799e-01,-1.404332071542739868e-01,-4.189483821392059326e-02
-1.516002565622329712e-01,-4.067237675189971924e-02,-1.150484532117843628e-01,-7.835901342332363129e-03,-9.873367100954055786e-02,-3.200785070657730103e-02,5.317593812942504883e-01,-2.737627327442169189e-01,-1.640888750553131104e-01,-1.682165861129760742e-01,-2.266325652599334717e-01,-1.501793116331100464e-01,5.407892540097236633e-02,-4.881953001022338867e-01,8.004092425107955933e-02,-2.214722633361816406e-01,-1.444925963878631592e-01,2.219264805316925049e-01,1.068897545337677002e-01,8.167855441570281982e-02,-2.028000354766845703e-02,-3.138498067855834961e-01,-1.710348427295684814e-01,-1.009688079357147217e-01,-1.491531580686569214e-01,1.394060552120208740e-01,3.212355822324752808e-02,1.294533908367156982e-01,3.256000280380249023e-01,2.745625078678131104e-01,2.414156496524810791e-01,-1.241988837718963623e-01,-2.176214605569839478e-01,1.248867437243461609e-01,-2.334233745932579041e-02,1.322662737220525742e-02,2.610749602317810059e-01,3.520415425300598145e-01,3.826933801174163818e-01,4.652468115091323853e-02,-1.000613570213317871e-01,-1.219465956091880798e-02,2.806152105331420898e-01,-4.153086990118026733e-02,-1.609577536582946777e-01,8.267655223608016968e-02,-3.879786729812622070e-01,7.179542630910873413e-02,-1.657589972019195557e-01,-2.381806969642639160e-01
-9.215128608047962189e-03,-1.114069595932960510e-01,8.078905194997787476e-02,1.020246669650077820e-01,1.200553774833679199e-01,-9.545335173606872559e-02,-9.072217345237731934e-02,-9.916108846664428711e-02,1.346471607685089111e-01,6.028926745057106018e-02,-3.267059475183486938e-02,-6.988929212093353271e-02,1.066785827279090881e-01,-1.039598719216883183e-03,2.337420433759689331e-01,7.862666249275207520e-02,2.240929938852787018e-02,-2.617894485592842102e-02,-2.621888741850852966e-02,-2.375739663839340210e-01,-3.692809492349624634e-02,1.090513691306114197e-01,-5.181439337320625782e-04,-8.064574003219604492e-02,-1.142975538969039917e-01,-1.347493380308151245e-01,-9.217208623886108398e-02,-5.679702386260032654e-02,-1.465732455253601074e-01,1.963927596807479858e-02,2.005136013031005859e-01,-1.366878896951675415e-01,1.406516283750534058e-01,-3.266857191920280457e-02,1.638971418142318726e-01,-7.601170241832733154e-02,-1.337855011224746704e-01,-7.805162668228149414e-02,-5.996698886156082153e-02,-3.262311452999711037e-03,-1.259966939687728882e-01,7.027114927768707275e-02,6.698172539472579956e-02,-1.296820491552352905e-01,-2.408271655440330505e-02,-4.798512905836105347e-03,-4.645343497395515442e-02,-6.098872981965541840e-03,-3.087264671921730042e-02,-2.784409373998641968e-02
-3.414968848228454590e-01,-8.872801065444946289e-02,-1.783748716115951538e-01,3.534960150718688965e-01,8.931785076856613159e-02,-1.677211523056030273e-01,-8.263808488845825195e-02,-5.745311453938484192e-02,7.955889403820037842e-02,4.289433732628822327e-02,2.885959148406982422e-01,8.445434272289276123e-03,-6.178424507379531860e-02,9.806773066520690918e-02,2.141755521297454834e-01,7.691220939159393311e-02,2.663800120353698730e-01,-6.284915655851364136e-02,4.224437475204467773e-02,-2.111609429121017456e-01,-2.141281515359878540e-01,2.477592974901199341e-01,-2.422482669353485107e-01,1.038593053817749023e-01,2.885403856635093689e-02,1.568000465631484985e-01,3.118176711723208427e-03,1.549432128667831421e-01,1.725654453039169312e-01,-2.153168171644210815e-01,3.046975731849670410e-01,-5.129499826580286026e-03,-1.982477158308029175e-01,2.211784273386001587e-01,8.235978335142135620e-02,-4.128264784812927246e-01,-2.833526730537414551e-01,-1.460414528846740723e-01,-4.709240198135375977e-01,9.932512044906616211e-02,-5.475297570228576660e-02,-1.525812596082687378e-01,-4.158269613981246948e-02,5.595453083515167236e-02,6.763910502195358276e-02,2.165851145982742310e-01,2.162230908870697021e-01,-6.353307515382766724e-02,-1.524121612310409546e-01,2.058465629816055298e-01
3.760217130184173584e-01,2.385724484920501709e-01,1.297642290592193604e-01,-9.360662102699279785e-02,-2.783069610595703125e-01,1.994703561067581177e-01,1.256375908851623535e-01,-2.654761672019958496e-01,2.908375561237335205e-01,-4.301809966564178467e-01,-2.595148980617523193e-01,-9.043990820646286011e-02,1.846745312213897705e-01,-2.225819975137710571e-01,5.174357295036315918e-01,4.297369122505187988e-01,3.153674006462097168e-01,-6.631612032651901245e-02,-1.981515288352966309e-01,2.247705012559890747e-01,-5.109362006187438965e-01,-1.267063766717910767e-01,6.383705139160156250e-02,7.137261331081390381e-02,2.188031673431396484e-01,-2.731734216213226318e-01,-4.297742843627929688e-01,-8.149456977844238281e-02,2.324445694684982300e-01,1.904811114072799683e-01,5.660201311111450195e-01,1.572856009006500244e-01,3.009083569049835205e-01,1.698441505432128906e-01,1.103745326399803162e-01,2.190437912940979004e-01,-4.385313019156455994e-02,3.423068523406982422e-01,-2.673202008008956909e-02,5.097883939743041992e-01,-1.512681394815444946e-01,-7.235097885131835938e-02,1.580331921577453613e-01,-2.991108000278472900e-01,1.015704721212387085e-01,-2.030275464057922363e-01,-3.024707436561584473e-01,-4.210969507694244385e-01,2.551394104957580566e-01,-3.376706838607788086e-01
1.333386916667222977e-02,1.242684572935104370e-01,-9.320323169231414795e-02,-9.135387837886810303e-02,-9.381651133298873901e-02,1.013894751667976379e-01,-2.463051080703735352e-01,-6.205059587955474854e-02,-1.759021282196044922e-01,2.623574733734130859e-01,1.724490523338317871e-01,2.759903967380523682e-01,1.148254349827766418e-01,9.770643897354602814e-03,2.415147572755813599e-01,3.216078877449035645e-01,-8.999523520469665527e-02,3.611399531364440918e-01,-1.485548447817564011e-03,-4.896615073084831238e-02,2.301009744405746460e-01,1.283264756202697754e-01,-1.603788137435913086e-01,-1.397109180688858032e-01,-3.236189186573028564e-01,-1.506762951612472534e-01,-1.947952806949615479e-01,-1.351709365844726562e-01,-4.435352981090545654e-02,-3.780691921710968018e-01,1.953602731227874756e-01,-2.855386137962341309e-01,-2.906182706356048584e-01,7.812230382114648819e-03,-2.124243825674057007e-01,2.005710899829864502e-01,1.305974740535020828e-02,-2.206074744462966919e-01,-1.588767915964126587e-01,1.915159523487091064e-01,5.099242553114891052e-02,4.446230363100767136e-03,2.124621905386447906e-02,-6.977652758359909058e-02,-5.528755486011505127e-02,-4.011642634868621826e-01,-1.640262156724929810e-01,1.414109319448471069e-01,-3.071923926472663879e-02,-1.328930556774139404e-01
8.688700944185256958e-02,-7.774372398853302002e-02,4.783593176398426294e-04,-1.181707996875047684e-02,-1.487959828227758408e-02,1.416084542870521545e-02,7.565109431743621826e-02,2.298807725310325623e-02,1.261929422616958618e-02,-5.421629641205072403e-03,1.290355026721954346e-01,-7.224114984273910522e-02,1.214330121874809265e-01,-1.667169034481048584e-01,1.863101311028003693e-02,2.164845615625381470e-01,-6.516111642122268677e-02,2.453199774026870728e-01,2.965473942458629608e-02,-1.969282180070877075e-01,-2.192334234714508057e-01,2.978430688381195068e-01,1.232843473553657532e-01,-3.617809414863586426e-01,-1.567722260951995850e-01,1.797300875186920166e-01,1.632216274738311768e-01,-7.260502129793167114e-02,1.734686940908432007e-01,-3.164779543876647949e-01,6.548016518354415894e-02,-4.865291342139244080e-02,-1.323633342981338501e-01,-1.296410113573074341e-01,2.036461681127548218e-01,-2.504970319569110870e-02,-2.057201862335205078e-01,3.354682773351669312e-02,8.064466714859008789e-02,-3.895923495292663574e-02,-4.729865863919258118e-02,-5.472897365689277649e-02,-1.817962378263473511e-01,-8.064556866884231567e-02,-2.041620612144470215e-01,-2.145231142640113831e-02,-1.745991557836532593e-01,-1.603228040039539337e-02,1.468055546283721924e-01,1.013952344655990601e-01
-2.001893520355224609e-01,1.234558373689651489e-01,-1.417717933654785156e-01,1.274539679288864136e-01,-7.279299944639205933e-02,1.027761176228523254e-01,1.711861789226531982e-01,7.334652543067932129e-02,6.954704970121383667e-02,9.637144207954406738e-02,1.528052538633346558e-01,2.123755961656570435e-02,-6.352008203975856304e-04,-3.558120690286159515e-03,-2.297253608703613281e-01,1.978439837694168091e-01,-6.461219489574432373e-02,-6.805243343114852905e-02,-2.556525468826293945e-01,-6.495860219001770020e-02,-1.189664900302886963e-01,1.256916224956512451e-01,-2.566909790039062500e-01,9.759689122438430786e-02,-1.681587845087051392e-01,-3.282421734184026718e-03,1.082635298371315002e-01,1.043917462229728699e-01,2.487639896571636200e-02,1.673092097043991089e-01,-1.204978302121162415e-01,-6.046404689550399780e-02,-1.322597172111272812e-02,-8.117078244686126709e-02,-1.296545416116714478e-01,1.114997863769531250e-01,-1.092431172728538513e-01,1.858575642108917236e-01,-9.604558348655700684e-02,-2.198581546545028687e-01,-1.480312943458557129e-01,1.333636194467544556e-01,-2.189003825187683105e-01,-2.137509882450103760e-01,-5.178391560912132263e-02,-2.013578116893768311e-01,-2.465841919183731079e-01,-4.568967968225479126e-02,-1.830947250127792358e-01,1.347070187330245972e-01
-3.857888281345367432e-02,-9.181390702724456787e-02,-4.109316505491733551e-03,-6.779748946428298950e-02,-2.305206656455993652e-01,-1.209469065070152283e-01,3.485348448157310486e-02,7.092765718698501587e-02,-3.164342045783996582e-02,-5.767960473895072937e-02,-2.349730767309665680e-02,-8.107171952724456787e-02,3.578454256057739258e-02,-1.195123344659805298e-01,8.718956261873245239e-02,1.566507965326309204e-01,2.144867032766342163e-01,1.434245407581329346e-01,-3.403006494045257568e-02,-1.056021600961685181e-01,3.335604071617126465e-02,-1.222253497689962387e-02,-7.526979595422744751e-02,9.549429267644882202e-02,-4.120597243309020996e-02,6.948458403348922729e-02,1.158877238631248474e-01,3.555028140544891357e-02,-1.311773154884576797e-02,-7.171837612986564636e-03,1.319198757410049438e-01,-2.657000720500946045e-02,-4.693261906504631042e-02,-8.514993637800216675e-02,-3.151451796293258667e-02,-4.526889696717262268e-02,-3.950077574700117111e-03,6.030158698558807373e-02,4.873254150152206421e-02,3.576935455203056335e-02,1.005797684192657471e-01,-1.045019552111625671e-01,-1.888130456209182739e-01,2.956383861601352692e-02,-3.401716053485870361e-02,-1.663643121719360352e-02,-7.416459172964096069e-02,2.960749715566635132e-02,6.671893596649169922e-02,-9.286404401063919067e-02
