-3.262358903884887695e-01,5.283700227737426758e-01,-2.471558302640914917e-01,-1.533949524164199829e-01,1.631369739770889282e-01,1.882890164852142334e-01,-4.642051458358764648e-02,-3.138367235660552979e-01,-4.468674659729003906e-01,-1.034577712416648865e-01,1.470036059617996216e-02,2.021263092756271362e-01,-8.672788739204406738e-02,2.504186928272247314e-01,-1.037330478429794312e-01,1.415690630674362183e-01,-1.826863586902618408e-01,-7.920358330011367798e-02,-4.280219078063964844e-01,-2.634091302752494812e-02,-1.432125866413116455e-01,2.292566150426864624e-01,2.554230988025665283e-01,-2.856917679309844971e-01,4.092100858688354492e-01,9.375740773975849152e-03,2.285768277943134308e-02,-4.354394376277923584e-01,2.212581336498260498e-01,-2.701655402779579163e-02,-1.461052000522613525e-01,-4.695825576782226562e-01,3.019224107265472412e-01,-4.665540158748626709e-01,2.176215201616287231e-01,-2.823770046234130859e-01,2.920664846897125244e-01,-6.680168956518173218e-02,2.976673189550638199e-03,-3.695537149906158447e-01,5.849027633666992188e-01,-1.504294127225875854e-01,-1.141339242458343506e-01,-1.133462488651275635e-01,-3.509854078292846680e-01,5.407581925392150879e-01,-5.220501869916915894e-02,4.928701221942901611e-01,2.079012393951416016e-01,2.286789007484912872e-02
-1.623793542385101318e-01,-8.128784596920013428e-02,-1.555654406547546387e-01,-3.079237043857574463e-01,-1.250277161598205566e-01,-3.459356725215911865e-01,2.128197103738784790e-01,-4.435085952281951904e-01,4.361272156238555908e-01,-2.136626541614532471e-01,1.260401755571365356e-01,3.188526928424835205e-01,1.318532824516296387e-01,-1.131625398993492126e-01,-2.393325716257095337e-01,3.968236148357391357e-01,-6.066695600748062134e-02,-1.143418624997138977e-01,9.541811048984527588e-02,-3.898339569568634033e-01,2.376506626605987549e-01,-1.551783829927444458e-01,4.365168511867523193e-01,-4.020304083824157715e-01,5.389061570167541504e-01,-1.465047299861907959e-01,-3.357151150703430176e-02,1.338804960250854492e-01,2.150990962982177734e-01,-3.144519627094268799e-01,-3.248127102851867676e-01,1.547858119010925293e-01,-8.785707503557205200e-02,2.610859870910644531e-01,-2.930320501327514648e-01,-1.742924600839614868e-01,3.331576287746429443e-01,3.008728846907615662e-02,-2.144365161657333374e-01,-1.384159922599792480e-01,-5.616210028529167175e-02,2.170716375112533569e-01,-1.298499554395675659e-01,-5.142498612403869629e-01,-3.924716636538505554e-02,1.850924044847488403e-01,-3.559751510620117188e-01,3.515624403953552246e-01,9.396866708993911743e-02,8.579311519861221313e-02
-5.550071969628334045e-02,3.311191201210021973e-01,2.036940902471542358e-01,1.717836260795593262e-01,-6.736436393111944199e-03,2.004573941230773926e-01,1.037375107407569885e-01,1.964062154293060303e-01,5.401201173663139343e-02,-2.810232937335968018e-01,3.509852886199951172e-01,3.409168720245361328e-01,3.851522132754325867e-02,-1.420034766197204590e-01,-4.236217588186264038e-02,2.131374329328536987e-01,-4.109378457069396973e-01,-1.923404484987258911e-01,-1.098782173357903957e-03,1.319026947021484375e-01,1.140679419040679932e-01,-3.526135906577110291e-02,1.014373302459716797e-01,9.191790968179702759e-02,2.348527461290359497e-01,-1.800146847963333130e-01,2.649444155395030975e-02,-3.343903422355651855e-01,2.058434933423995972e-01,-2.571780383586883545e-01,-7.819472253322601318e-02,1.098902076482772827e-01,2.828027307987213135e-02,-1.986356228590011597e-01,-2.417978942394256592e-01,2.383440136909484863e-01,-2.854076027870178223e-01,-3.800228238105773926e-01,-2.720083594322204590e-01,-3.081621974706649780e-02,1.201937869191169739e-01,1.688797324895858765e-01,3.801367580890655518e-01,-6.105059012770652771e-02,-2.448955550789833069e-02,-4.446114227175712585e-02,2.427905797958374023e-02,-3.113180398941040039e-01,-1.437584906816482544e-01,1.329426616430282593e-01
4.367931187152862549e-01,-7.112333923578262329e-02,1.357491314411163330e-01,-2.320234924554824829e-01,-3.498726785182952881e-01,-3.906826972961425781e-01,-1.434025466442108154e-01,-2.605871260166168213e-01,-1.732551902532577515e-01,8.654061704874038696e-02,2.699021399021148682e-01,8.133984357118606567e-02,-2.706632614135742188e-01,1.663154363632202148e-01,-1.185054332017898560e-01,-1.856048256158828735e-01,-2.690293490886688232e-01,-5.722267031669616699e-01,-1.138381939381361008e-02,1.582369506359100342e-01,-1.582617163658142090e-01,1.600395739078521729e-01,4.168729186058044434e-01,-1.568202525377273560e-01,3.367543816566467285e-01,-3.757466673851013184e-01,-3.988101184368133545e-01,-5.621522665023803711e-01,4.705847203731536865e-01,2.549470029771327972e-02,3.264385759830474854e-01,-3.319605588912963867e-01,-4.481315612792968750e-01,-3.249140083789825439e-01,3.712709061801433563e-03,-3.497887253761291504e-01,-9.882131963968276978e-02,7.498894631862640381e-02,-1.923379600048065186e-01,1.528999358415603638e-01,3.523522242903709412e-02,1.807660013437271118e-01,7.354925852268934250e-03,1.776319742202758789e-01,2.531796395778656006e-01,-5.195751413702964783e-02,-1.782392114400863647e-01,-2.641254663467407227e-01,-2.015251666307449341e-01,5.770790856331586838e-03
-2.389461100101470947e-01,-1.043531224131584167e-01,6.331840902566909790e-02,1.870529800653457642e-01,2.760103642940521240e-01,-3.405609428882598877e-01,-3.347291350364685059e-01,-1.351933344267308712e-03,4.991190135478973389e-02,-2.428055554628372192e-01,-1.085381433367729187e-01,-3.115579783916473389e-01,2.201421260833740234e-01,-2.482237964868545532e-01,-2.827556163538247347e-04,-2.330381125211715698e-01,8.655063807964324951e-02,8.190818130970001221e-02,1.504233628511428833e-01,4.324202239513397217e-02,1.666967198252677917e-02,-8.025939762592315674e-02,-2.595936954021453857e-01,2.088200114667415619e-02,1.245155334472656250e-01,9.878471493721008301e-02,1.009014695882797241e-01,-2.334391921758651733e-01,2.967686951160430908e-01,-1.356502473354339600e-01,-3.553363084793090820e-01,-1.303661316633224487e-01,7.203055918216705322e-02,1.219112724065780640e-01,-2.927924096584320068e-01,1.317777037620544434e-01,1.519939452409744263e-01,3.465968072414398193e-01,-4.230241179466247559e-01,-9.997494518756866455e-02,-5.139524340629577637e-01,-2.099330276250839233e-01,-2.724165618419647217e-01,-5.569451302289962769e-02,-8.980882912874221802e-02,-2.374691702425479889e-02,2.771256268024444580e-01,2.768398821353912354e-01,2.513332664966583252e-01,1.113807689398527145e-02
-4.041560590267181396e-01,-2.374642193317413330e-01,1.340024471282958984e-01,-9.860002249479293823e-02,4.397745728492736816e-01,3.420745432376861572e-01,-9.367344528436660767e-02,3.566995263099670410e-01,3.247073292732238770e-01,3.134702518582344055e-02,1.154702380299568176e-01,1.310464590787887573e-01,3.869114816188812256e-01,-4.879546165466308594e-01,-3.697849810123443604e-01,2.288664430379867554e-01,-8.902457356452941895e-02,1.726979762315750122e-01,3.553767129778862000e-02,1.439169794321060181e-01,1.433836817741394043e-01,3.205903768539428711e-01,3.160755038261413574e-01,2.683655619621276855e-01,1.989661306142807007e-01,7.181213796138763428e-02,1.027088090777397156e-01,8.124466054141521454e-03,1.969492137432098389e-01,-4.228277802467346191e-01,-2.802848517894744873e-01,1.586817651987075806e-01,9.718278795480728149e-02,3.633954226970672607e-01,-4.277463555335998535e-01,2.169319801032543182e-02,3.919225335121154785e-01,2.491987347602844238e-01,4.234608411788940430e-01,3.039885163307189941e-01,-1.111213341355323792e-01,7.881642132997512817e-02,2.001559883356094360e-01,3.163996934890747070e-01,2.037958204746246338e-01,2.797494828701019287e-02,1.528129260987043381e-02,1.757681965827941895e-01,-6.405123323202133179e-02,-1.896408386528491974e-02
1.485956758260726929e-01,3.790919110178947449e-02,-9.107898175716400146e-02,-3.024808168411254883e-01,-3.474531229585409164e-03,1.908263564109802246e-01,3.058579862117767334e-01,-2.265404462814331055e-01,-8.682899177074432373e-02,2.359935082495212555e-02,1.303687244653701782e-01,-3.003579378128051758e-01,-3.124106526374816895e-01,-1.087610870599746704e-01,-4.882754385471343994e-02,1.491114497184753418e-01,-1.287237107753753662e-01,-3.248588144779205322e-01,6.067027896642684937e-02,-9.511026740074157715e-02,-8.102905750274658203e-02,3.341454565525054932e-01,3.046056330204010010e-01,-4.719113409519195557e-01,-6.160016730427742004e-02,-2.225037962198257446e-01,3.422980755567550659e-02,1.230756342411041260e-01,3.114691004157066345e-02,-1.459839493036270142e-01,9.006476402282714844e-02,4.282653331756591797e-02,-6.908179819583892822e-02,1.223716884851455688e-02,-2.810077369213104248e-01,-7.837089151144027710e-02,-1.177921444177627563e-01,-8.302696049213409424e-02,7.556667923927307129e-02,2.235403656959533691e-01,2.224705964326858521e-01,2.669158875942230225e-01,-9.934429824352264404e-02,6.583338230848312378e-02,-2.421114295721054077e-01,3.371596336364746094e-02,-1.095910370349884033e-01,-3.468248248100280762e-02,-3.126112045720219612e-03,-1.166753992438316345e-01
2.034084945917129517e-01,-1.832543462514877319e-01,9.658692777156829834e-02,-2.433111667633056641e-01,3.502769768238067627e-01,-1.362588703632354736e-01,-1.739360392093658447e-01,-9.518310427665710449e-02,-5.023001432418823242e-01,-1.144289597868919373e-01,-1.009427085518836975e-01,-2.238346338272094727e-01,2.797121703624725342e-01,-1.181254442781209946e-02,3.578647673130035400e-01,-8.566831052303314209e-02,1.455309391021728516e-01,-2.070087045431137085e-01,1.061171740293502808e-01,1.502781957387924194e-01,-4.924568533897399902e-01,-3.033885359764099121e-01,-1.803283393383026123e-01,-2.663697004318237305e-01,-1.294992417097091675e-01,-9.943415224552154541e-02,1.165182814002037048e-01,-1.210095733404159546e-01,-9.992429614067077637e-02,3.146337270736694336e-01,2.258246243000030518e-01,-4.126885235309600830e-01,1.007953286170959473e-01,-4.105451703071594238e-01,1.787322163581848145e-01,-3.648430109024047852e-01,-1.662206500768661499e-01,1.836522072553634644e-01,-1.940697878599166870e-01,-1.186545565724372864e-01,-2.967593073844909668e-01,-2.513893134891986847e-02,1.772425174713134766e-01,-1.228379607200622559e-01,2.638058066368103027e-01,2.645278573036193848e-01,4.182563126087188721e-01,-4.035719037055969238e-01,-5.136521458625793457e-01,-4.120124503970146179e-02
-5.409628152847290039e-01,2.304098606109619141e-01,-6.133447587490081787e-02,5.800235271453857422e-02,-2.040722221136093140e-01,-3.643948137760162354e-01,-1.333811283111572266e-01,-2.099577151238918304e-02,-2.129349410533905029e-01,-6.574276834726333618e-03,1.494357138872146606e-01,-6.044117361307144165e-02,1.733502559363842010e-02,2.410746663808822632e-01,-4.684002697467803955e-02,1.948779076337814331e-01,-1.515478491783142090e-01,-1.048370525240898132e-01,-1.747787296772003174e-01,3.920477032661437988e-01,-1.045647859573364258e-01,2.268878370523452759e-01,1.637087911367416382e-01,1.922171562910079956e-01,-3.150959014892578125e-01,2.561769783496856689e-01,4.535131454467773438e-01,-1.783652752637863159e-01,1.127747967839241028e-01,-1.010408028960227966e-01,-3.409193158149719238e-01,-9.756676107645034790e-02,2.820135056972503662e-01,-5.007671713829040527e-01,4.222997128963470459e-01,-1.167203262448310852e-01,2.986866608262062073e-02,2.702541649341583252e-01,-2.043451964855194092e-01,-1.129163503646850586e-01,4.029815793037414551e-01,3.519541025161743164e-02,-9.762666374444961548e-02,3.213058412075042725e-01,-9.158477932214736938e-02,4.793598055839538574e-01,6.389374732971191406e-01,-8.457924425601959229e-02,3.979172408580780029e-01,2.424407750368118286e-01
-6.234951689839363098e-02,7.643306255340576172e-02,-1.436798274517059326e-02,4.038494080305099487e-02,-3.830760121345520020e-01,1.346845477819442749e-01,-4.086614549160003662e-01,2.023993059992790222e-02,3.852252960205078125e-01,-2.125692814588546753e-01,2.547434568405151367e-01,1.940688937902450562e-01,-2.563993632793426514e-01,-4.190460145473480225e-01,-6.029727309942245483e-02,-6.226910352706909180e-01,2.208363860845565796e-01,-6.310789287090301514e-02,3.559597134590148926e-01,1.033286005258560181e-01,-2.831815183162689209e-01,-6.009623873978853226e-03,4.500583931803703308e-02,3.091476857662200928e-01,-1.217651963233947754e-01,2.868545353412628174e-01,2.541430592536926270e-01,1.077737510204315186e-01,2.612389326095581055e-01,6.379317492246627808e-02,-1.349191665649414062e-01,3.724421933293342590e-02,-3.124678730964660645e-01,2.363702952861785889e-01,2.017810009419918060e-02,-3.757043182849884033e-02,-2.818922102451324463e-01,1.023959740996360779e-01,9.813089668750762939e-02,3.024060130119323730e-01,-6.074979305267333984e-01,2.685411572456359863e-01,2.749432027339935303e-01,1.336639933288097382e-02,2.901405692100524902e-01,-1.176062300801277161e-01,2.410132288932800293e-01,-2.009541392326354980e-01,3.182640299201011658e-02,9.852813184261322021e-02
-1.868201941251754761e-01,9.354894608259201050e-02,5.696562305092811584e-02,-2.633324125781655312e-03,-3.835235536098480225e-01,3.773569315671920776e-02,-4.194701090455055237e-02,-2.638352215290069580e-01,-3.531833412125706673e-03,-1.333453506231307983e-01,-9.042406082153320312e-02,-1.229318752884864807e-01,-4.151118099689483643e-01,-5.515511035919189453e-01,-1.074252799153327942e-01,1.969145424664020538e-02,1.601100564002990723e-01,4.237407073378562927e-02,1.244373992085456848e-01,5.190341174602508545e-02,-1.211429163813591003e-01,-8.874572813510894775e-04,1.643905937671661377e-01,6.897388398647308350e-02,6.494444608688354492e-02,-6.706973910331726074e-02,-3.824242576956748962e-02,8.099272847175598145e-02,8.394494652748107910e-02,-2.997348606586456299e-01,-9.488372132182121277e-03,-7.968626171350479126e-02,-7.353547029197216034e-03,6.577128171920776367e-02,-3.601197600364685059e-01,-1.012766659259796143e-01,-2.535942196846008301e-01,-2.245609015226364136e-01,2.698427438735961914e-02,3.303598165512084961e-01,1.182915642857551575e-01,-4.839004483073949814e-03,-1.581304222345352173e-01,-1.980685144662857056e-01,-7.611409574747085571e-02,1.367609798908233643e-01,6.933768838644027710e-02,9.599952027201652527e-03,-1.605375111103057861e-02,1.796375811100006104e-01
1.373695209622383118e-02,2.686951160430908203e-01,-1.894179880619049072e-01,-1.296897679567337036e-01,-4.330854415893554688e-01,1.722487956285476685e-01,-3.792830407619476318e-01,-4.459042474627494812e-02,1.667131185531616211e-01,-2.753350734710693359e-01,-6.271513551473617554e-02,8.804301917552947998e-02,-7.562721520662307739e-02,-4.137719571590423584e-01,-7.645364850759506226e-02,-5.701578855514526367e-01,-2.008194923400878906e-01,-2.442011088132858276e-01,4.316195249557495117e-01,-1.108575686812400818e-01,-9.541936963796615601e-02,2.798584699630737305e-01,-3.338812887668609619e-01,3.052417039871215820e-01,-1.286956965923309326e-01,2.188232988119125366e-01,5.737487226724624634e-02,1.259595602750778198e-01,-5.345514509826898575e-03,-1.151430234313011169e-01,8.009678870439529419e-02,1.790969073772430420e-01,-3.439990878105163574e-01,-1.084287315607070923e-01,-6.413874626159667969e-01,1.445113420486450195e-01,-1.736286878585815430e-01,6.323745846748352051e-02,5.843421444296836853e-02,2.424468398094177246e-01,-3.518507182598114014e-01,-1.290001869201660156e-01,4.499431326985359192e-02,-8.021172881126403809e-02,-2.812091819941997528e-02,4.633638262748718262e-02,8.640994876623153687e-02,-1.216356381773948669e-01,6.434525549411773682e-02,1.193977594375610352e-01
-3.956845402717590332e-01,2.944224327802658081e-02,-6.589388847351074219e-02,-3.431224524974822998e-01,1.446076035499572754e-01,8.361374586820602417e-02,-2.644120752811431885e-01,-8.170135319232940674e-02,1.786553561687469482e-01,-6.767969112843275070e-03,-2.626505121588706970e-02,7.918918877840042114e-02,-3.592920601367950439e-01,-5.161570310592651367e-01,-2.007739245891571045e-01,1.636916771531105042e-02,2.052509784698486328e-01,3.653614595532417297e-02,1.770060956478118896e-01,-1.120803579688072205e-01,-3.887814283370971680e-02,-1.475545465946197510e-01,-2.399821132421493530e-01,-1.662355363368988037e-01,3.778662383556365967e-01,-3.976791203022003174e-01,1.495856512337923050e-02,-2.078111916780471802e-01,2.312083393335342407e-01,-2.498646527528762817e-01,3.891681879758834839e-02,-1.717129647731781006e-01,1.353587023913860321e-02,2.924890518188476562e-01,-3.781398534774780273e-01,4.166706502437591553e-01,-1.040854826569557190e-01,-4.326421022415161133e-01,-1.397525984793901443e-02,-1.874189674854278564e-01,-2.914234995841979980e-01,1.036843284964561462e-01,3.488303627818822861e-03,-2.709604799747467041e-01,-5.537435039877891541e-02,3.228359818458557129e-01,-9.692299365997314453e-02,-3.885973989963531494e-01,2.948957495391368866e-03,3.181303739547729492e-01
7.684779167175292969e-02,1.088370755314826965e-01,5.711468309164047241e-02,-2.086228728294372559e-01,-2.251058220863342285e-01,-2.185378819704055786e-01,-1.283194422721862793e-01,-3.654386103153228760e-01,2.978128194808959961e-01,2.781681120395660400e-01,9.706187993288040161e-02,1.300006918609142303e-02,-5.573951601982116699e-01,-2.759840488433837891e-01,2.768740952014923096e-01,-4.692482054233551025e-01,-1.179473474621772766e-01,-1.088298335671424866e-01,2.885234355926513672e-01,-3.170982003211975098e-01,-4.087568819522857666e-01,1.058490350842475891e-01,2.990429997444152832e-01,2.011280506849288940e-01,2.530839145183563232e-01,3.718087971210479736e-01,-3.569222092628479004e-01,-2.581065595149993896e-01,-1.713466346263885498e-01,-2.525456547737121582e-01,-3.198221027851104736e-01,1.467138379812240601e-01,2.175901234149932861e-01,-7.470293343067169189e-02,-1.576484888792037964e-01,-1.904520392417907715e-01,-3.126465678215026855e-01,-3.227373063564300537e-01,-1.716783083975315094e-02,1.157596707344055176e-01,-3.272062912583351135e-02,-5.622091144323348999e-02,-1.859944760799407959e-01,-1.556165814399719238e-01,7.699661701917648315e-02,1.154669970273971558e-01,4.456312954425811768e-02,-2.149944454431533813e-01,1.509435754269361496e-02,9.729616343975067139e-02
-3.961359858512878418e-01,3.331454396247863770e-01,5.090143159031867981e-02,-3.448407948017120361e-01,-2.849310636520385742e-01,-7.921882718801498413e-02,-2.644811868667602539e-01,-4.294277131557464600e-01,-2.567744553089141846e-01,-3.929319679737091064e-01,-1.092900708317756653e-01,2.042122483253479004e-01,2.259964793920516968e-01,1.932642161846160889e-01,2.381477206945419312e-01,-3.955603018403053284e-02,-1.142694950103759766e-01,-2.533671259880065918e-01,-1.841468811035156250e-01,-1.478790887631475925e-03,-1.593018025159835815e-01,1.619089543819427490e-01,2.602951526641845703e-01,-5.407672375440597534e-02,-1.920343935489654541e-01,3.320952132344245911e-02,4.331111162900924683e-02,-2.298128008842468262e-01,-1.606442034244537354e-01,9.882087260484695435e-02,-8.168352395296096802e-02,-2.651999145746231079e-02,-1.738154515624046326e-02,-2.227834165096282959e-01,-2.138622850179672241e-01,-2.178789228200912476e-01,2.239405810832977295e-01,4.642498493194580078e-02,-2.527836896479129791e-02,-7.201496511697769165e-02,-6.279665511101484299e-03,-5.895524099469184875e-02,6.597156822681427002e-02,-1.941167116165161133e-01,-2.688006758689880371e-01,9.954371303319931030e-02,-2.404391020536422729e-01,2.317291796207427979e-01,-2.016239166259765625e-01,2.722161114215850830e-01
-1.806480437517166138e-01,1.586716175079345703e-01,-6.794537603855133057e-02,-1.684543788433074951e-01,3.375997841358184814e-01,9.683049470186233521e-02,1.404369920492172241e-01,-1.436796188354492188e-01,-3.434280157089233398e-01,6.200054287910461426e-02,-6.862122565507888794e-02,-1.502294540405273438e-01,-1.966405659914016724e-01,6.777752935886383057e-02,-1.400414258241653442e-01,1.990478336811065674e-01,-5.085580348968505859e-01,-3.679319322109222412e-01,-4.003954678773880005e-02,-1.598056703805923462e-01,-1.079584062099456787e-01,2.977698445320129395e-01,1.448670178651809692e-01,-9.970902465283870697e-03,3.169951736927032471e-01,-3.903262317180633545e-02,9.456456452608108521e-02,-3.128829002380371094e-01,-2.185810059309005737e-01,2.420387417078018188e-02,1.816631555557250977e-01,1.133632436394691467e-01,-2.005173265933990479e-01,8.267328143119812012e-02,-3.675809204578399658e-01,1.663087122142314911e-02,-1.579773724079132080e-01,-4.210603609681129456e-02,-2.383068799972534180e-01,1.630110144615173340e-01,5.213245749473571777e-02,8.113465458154678345e-02,2.141672968864440918e-01,-4.115335047245025635e-01,-2.216047979891300201e-02,2.296490371227264404e-01,-4.744498133659362793e-01,1.111317127943038940e-01,-2.537005841732025146e-01,8.423384279012680054e-02
-2.004154622554779053e-01,8.699789643287658691e-02,-6.606113631278276443e-03,-1.144782453775405884e-01,3.630486428737640381e-01,-2.105221748352050781e-01,-1.767552196979522705e-01,2.731988131999969482e-01,-1.350921243429183960e-01,1.083173081278800964e-01,-2.488832324743270874e-01,8.722331374883651733e-02,2.049785554409027100e-01,-3.904553055763244629e-01,1.248086467385292053e-01,-1.782299280166625977e-01,1.873367577791213989e-01,7.103113830089569092e-02,-8.697866648435592651e-02,-2.483363151550292969e-01,-2.198625355958938599e-01,1.912091374397277832e-01,1.236023101955652237e-02,1.589422821998596191e-01,-1.477199643850326538e-01,1.287693679332733154e-01,-8.998400717973709106e-02,-3.077837526798248291e-01,1.118632927536964417e-01,-4.022746384143829346e-01,-2.528024017810821533e-01,6.065073609352111816e-02,2.423916459083557129e-01,-2.322604656219482422e-01,-3.849848359823226929e-02,-3.109948039054870605e-01,4.060408845543861389e-02,2.044054865837097168e-01,-3.922867402434349060e-02,2.948152720928192139e-01,-8.386062085628509521e-02,-2.516501545906066895e-01,-7.453273236751556396e-02,3.299366831779479980e-01,-1.283428966999053955e-01,2.345003634691238403e-01,4.784416779875755310e-02,2.541320919990539551e-01,1.210631802678108215e-01,2.308417856693267822e-01
-2.110397517681121826e-01,1.063526868820190430e-01,-6.090225651860237122e-02,-2.586677372455596924e-01,4.787606000900268555e-02,-5.812616273760795593e-02,4.416134953498840332e-02,-1.104118898510932922e-01,4.557416141033172607e-01,9.661011397838592529e-02,1.475227326154708862e-01,2.317148298025131226e-01,-2.220621109008789062e-01,-1.829632930457592010e-02,-4.137922078371047974e-02,-2.053032070398330688e-01,-6.739749759435653687e-02,9.246729314327239990e-02,4.064916819334030151e-02,-2.583911418914794922e-01,2.666271291673183441e-02,-2.057162672281265259e-01,3.925837576389312744e-02,-4.722613096237182617e-02,2.750412523746490479e-01,-1.815228611230850220e-01,-1.455552428960800171e-01,4.500460624694824219e-02,1.864548027515411377e-01,-3.798967897891998291e-01,-8.988401293754577637e-02,2.983836531639099121e-01,-1.487392485141754150e-01,-6.242642924189567566e-02,-1.594450771808624268e-01,1.242744177579879761e-02,-2.602721005678176880e-02,-2.658033668994903564e-01,9.174808114767074585e-02,-1.271875947713851929e-01,-4.740538597106933594e-01,-4.284108430147171021e-02,1.362088918685913086e-01,-1.289068758487701416e-01,-1.269084811210632324e-01,-2.091512382030487061e-01,1.292620971798896790e-02,6.963416934013366699e-02,-1.890164762735366821e-01,1.478607207536697388e-01
5.889813303947448730e-01,-3.916349634528160095e-02,2.493832260370254517e-01,-6.935100257396697998e-02,4.152509942650794983e-02,-2.574657201766967773e-01,-3.148794174194335938e-02,4.745958447456359863e-01,-1.917005330324172974e-01,6.376747041940689087e-02,5.237961560487747192e-02,-1.337779313325881958e-01,-1.267039477825164795e-01,3.189836163073778152e-03,-3.015701770782470703e-01,5.527645722031593323e-02,1.001083776354789734e-01,-9.901038557291030884e-02,-1.631823480129241943e-01,-1.482892334461212158e-01,1.937517076730728149e-01,-4.447231590747833252e-01,-2.384554445743560791e-01,1.700254827737808228e-01,1.815172731876373291e-01,-4.039922356605529785e-02,-2.118881493806838989e-01,-3.562701642513275146e-01,1.336486190557479858e-01,-2.118689268827438354e-01,-1.133119314908981323e-01,1.729554496705532074e-02,6.646754592657089233e-02,-4.433814436197280884e-02,-1.223922222852706909e-01,1.676975637674331665e-01,-2.026416063308715820e-01,-2.884195446968078613e-01,-2.221624739468097687e-02,-1.629298329353332520e-01,1.354911178350448608e-01,3.216918706893920898e-01,-2.261818945407867432e-01,4.193229079246520996e-01,1.785674095153808594e-01,-3.862791955471038818e-01,-1.768923699855804443e-01,-3.712681829929351807e-01,-2.731587179005146027e-02,1.405650824308395386e-01
1.355874836444854736e-01,-1.919783651828765869e-01,-5.665897391736507416e-03,-4.367991909384727478e-02,6.808374822139739990e-02,-3.293589353561401367e-01,-3.416243195533752441e-02,-6.541776657104492188e-02,-1.264730393886566162e-01,1.698146909475326538e-01,2.099905461072921753e-01,1.397903263568878174e-01,-2.937555015087127686e-01,-1.095798537135124207e-01,2.248183339834213257e-01,-9.459075331687927246e-02,-2.728230059146881104e-01,3.045193478465080261e-02,-1.127880811691284180e-01,-5.154504999518394470e-02,-3.207317888736724854e-01,-9.518678300082683563e-03,-6.215823348611593246e-03,-2.145804315805435181e-01,-7.158422470092773438e-02,6.063901260495185852e-02,1.795685291290283203e-01,-8.967874944210052490e-02,9.848020039498806000e-03,-1.471837610006332397e-01,1.701839417219161987e-01,4.307012632489204407e-02,5.849376320838928223e-02,-4.028679132461547852e-01,1.576896160840988159e-01,-1.314919143915176392e-01,-9.634492546319961548e-02,2.337498813867568970e-01,-1.401158422231674194e-01,-3.774325549602508545e-02,-2.431952580809593201e-02,2.390960156917572021e-01,-3.669612808153033257e-03,-1.889911144971847534e-01,-2.170694433152675629e-02,3.894851207733154297e-01,8.289241045713424683e-02,-4.632868468761444092e-01,-4.451689124107360840e-01,-3.288097679615020752e-02
1.962728649377822876e-01,2.701720893383026123e-01,1.303359679877758026e-02,3.888272494077682495e-02,-3.176086544990539551e-01,1.181433945894241333e-01,-2.313927561044692993e-01,1.096836030483245850e-01,2.605484798550605774e-02,-8.220570534467697144e-02,2.292148023843765259e-01,-6.450509279966354370e-02,-2.001156806945800781e-01,-2.379789501428604126e-01,2.684950828552246094e-01,-4.230871796607971191e-01,2.709470987319946289e-01,7.086977362632751465e-02,8.835671097040176392e-02,1.211097761988639832e-01,1.097437962889671326e-01,2.528229057788848877e-01,-1.543966233730316162e-01,2.955373525619506836e-01,1.745719015598297119e-01,-2.439290583133697510e-01,1.547815650701522827e-01,1.605058014392852783e-01,-2.068636119365692139e-01,-4.836522340774536133e-01,6.802917271852493286e-02,-5.447535961866378784e-02,-1.745450794696807861e-01,2.675267755985260010e-01,-3.639489710330963135e-01,2.714889943599700928e-01,-3.699274063110351562e-01,-3.023606538772583008e-01,-5.797864496707916260e-02,-4.793597757816314697e-02,-3.231719136238098145e-01,-2.313963472843170166e-01,-1.799128204584121704e-01,-1.196544915437698364e-01,-2.222034633159637451e-01,3.430584669113159180e-01,-2.692454159259796143e-01,-9.814339876174926758e-02,-4.371941089630126953e-01,2.998741567134857178e-01
-1.605094075202941895e-01,1.307482719421386719e-01,-2.779381573200225830e-01,-2.189024686813354492e-01,1.867667585611343384e-01,-3.124048411846160889e-01,-3.195925951004028320e-01,-1.456378698348999023e-01,-1.414483785629272461e-01,-7.081595808267593384e-02,-5.303316190838813782e-02,2.977929711341857910e-01,-2.147625759243965149e-02,-2.879059314727783203e-01,8.861449360847473145e-02,-2.562937736511230469e-01,-5.795295163989067078e-02,1.608626544475555420e-01,-2.914494276046752930e-01,1.983468234539031982e-01,-2.193653583526611328e-01,1.971657425165176392e-01,4.432264342904090881e-02,2.426154911518096924e-01,-2.742993533611297607e-01,2.212903201580047607e-01,1.437404453754425049e-01,-2.147025614976882935e-01,1.265361160039901733e-01,-2.156639695167541504e-01,-6.219914555549621582e-02,3.677563369274139404e-02,-2.552116811275482178e-01,-1.851574331521987915e-01,8.853466063737869263e-02,-1.085000038146972656e-01,-9.808215498924255371e-02,2.777262628078460693e-01,-2.862367033958435059e-02,2.947749942541122437e-02,-3.144802153110504150e-01,-4.250505939126014709e-02,-3.780634403228759766e-01,3.068678677082061768e-01,-1.445889919996261597e-01,4.704140424728393555e-01,7.057339698076248169e-02,-8.255585283041000366e-02,1.747451424598693848e-01,4.730432033538818359e-01
-1.574084162712097168e-01,1.523570120334625244e-01,1.370515953749418259e-02,2.278370857238769531e-01,-3.270658254623413086e-01,-2.371197752654552460e-02,7.899122312664985657e-03,1.397434473037719727e-01,2.451410591602325439e-01,-2.921666204929351807e-01,-1.748085767030715942e-02,-8.216436207294464111e-02,9.542067348957061768e-02,1.414147019386291504e-01,-1.337207853794097900e-01,-2.970230877399444580e-01,3.985546827316284180e-01,-2.276291400194168091e-01,3.469305932521820068e-01,-5.554313212633132935e-02,1.085652410984039307e-01,-1.428008377552032471e-01,-3.988724946975708008e-01,8.895212411880493164e-02,-3.528287708759307861e-01,3.227262198925018311e-01,2.722387015819549561e-01,1.449516625143587589e-03,1.870463639497756958e-01,2.030427157878875732e-01,2.514429092407226562e-01,2.172329723834991455e-01,-5.072837471961975098e-01,-3.890438703820109367e-03,-1.023747324943542480e-01,2.800040543079376221e-01,-3.076927065849304199e-01,2.110643386840820312e-01,1.543444991111755371e-01,1.096477061510086060e-01,1.699479222297668457e-01,2.971360981464385986e-01,2.314592152833938599e-01,6.905079632997512817e-02,2.119746953248977661e-01,-5.736475065350532532e-02,-3.219605609774589539e-02,-9.798064082860946655e-02,3.855760991573333740e-01,6.781481206417083740e-02
-7.886671274900436401e-02,-5.771174654364585876e-02,2.699808478355407715e-01,9.939389675855636597e-02,2.770055830478668213e-01,-4.274628162384033203e-01,-1.100110188126564026e-01,-2.785761952400207520e-01,-1.495680212974548340e-01,-1.847655773162841797e-01,-9.917695075273513794e-03,1.713123470544815063e-01,1.093019992113113403e-01,2.086038142442703247e-01,2.983296513557434082e-01,-2.226844131946563721e-01,5.088233575224876404e-02,3.647947218269109726e-03,-7.938436418771743774e-02,-2.885092794895172119e-02,4.924823343753814697e-02,-2.886081337928771973e-01,-3.085287809371948242e-01,1.056319996714591980e-01,1.013915762305259705e-01,1.132908836007118225e-01,-1.822103746235370636e-02,-5.284006148576736450e-02,-3.175901249051094055e-02,3.621830344200134277e-01,1.399796754121780396e-01,-8.860380388796329498e-03,-2.006795555353164673e-01,-5.398896336555480957e-02,2.488174587488174438e-01,-4.930189996957778931e-02,1.989711821079254150e-01,4.440119266510009766e-01,-4.666557312011718750e-01,-3.104533255100250244e-01,-2.054432928562164307e-01,2.441675662994384766e-01,6.313478201627731323e-02,-4.705325067043304443e-01,2.278026044368743896e-01,-1.215355247259140015e-01,2.709056250751018524e-02,2.360960990190505981e-01,-1.535406559705734253e-01,1.059604063630104065e-01
-5.334789156913757324e-01,1.203208938241004944e-01,-2.696017920970916748e-01,5.528317019343376160e-02,-1.774298697710037231e-01,-2.725223004817962646e-01,-1.859021745622158051e-02,5.461914464831352234e-02,2.028694450855255127e-01,5.445844307541847229e-02,1.808051615953445435e-01,-7.461611181497573853e-02,-2.324116677045822144e-01,1.321979016065597534e-01,8.920966833829879761e-02,3.395876381546258926e-03,2.574024349451065063e-02,2.082259953022003174e-01,-1.631107330322265625e-01,-1.517530530691146851e-01,-1.366025954484939575e-01,1.356744915246963501e-01,7.335050404071807861e-02,1.829201579093933105e-01,9.309620410203933716e-02,2.717874050140380859e-01,-7.063478976488113403e-02,-3.028283417224884033e-01,-2.147561609745025635e-01,-8.161547780036926270e-02,-1.109737083315849304e-01,2.752231657505035400e-01,-7.825851440429687500e-02,-2.444162368774414062e-01,1.638365387916564941e-01,-1.151815652847290039e-01,-2.817814350128173828e-01,-3.879487812519073486e-01,-1.394642293453216553e-01,-1.790764033794403076e-01,2.062794864177703857e-01,1.087989658117294312e-01,3.698011115193367004e-02,-1.644552648067474365e-01,-3.850347995758056641e-01,-1.420072000473737717e-02,1.421506749466061592e-03,2.464922815561294556e-01,4.485965371131896973e-01,2.536533176898956299e-01
-9.769929945468902588e-02,1.547497659921646118e-01,1.977652460336685181e-01,-3.439587354660034180e-02,6.300356984138488770e-02,-2.736857831478118896e-01,-3.222044408321380615e-01,2.588550560176372528e-02,6.311545968055725098e-01,-2.540902197360992432e-01,-6.525138020515441895e-02,1.379038840532302856e-01,-2.388012856245040894e-01,-4.764106571674346924e-01,1.999249607324600220e-01,-1.609880477190017700e-01,-7.003901153802871704e-02,2.479010522365570068e-01,9.783782064914703369e-02,-6.842117011547088623e-02,-3.268812224268913269e-02,1.620613634586334229e-01,1.640410274267196655e-01,-1.001323610544204712e-01,-2.094415277242660522e-01,1.308836936950683594e-01,7.100375741720199585e-02,-1.640925705432891846e-01,-1.877956688404083252e-01,2.989121712744235992e-02,-1.324747651815414429e-01,1.128959730267524719e-01,-2.230643481016159058e-01,1.420501172542572021e-01,-2.337675541639328003e-01,3.179961740970611572e-01,-3.024032115936279297e-01,1.060406938195228577e-01,-3.829379081726074219e-01,8.947480469942092896e-02,-2.569601237773895264e-01,-1.620865911245346069e-01,6.764915585517883301e-02,-6.357225775718688965e-02,2.179831415414810181e-01,2.333378344774246216e-01,1.029109656810760498e-01,4.902412593364715576e-01,2.412380278110504150e-02,6.069469451904296875e-01
4.650055617094039917e-02,4.624539613723754883e-02,-1.399998962879180908e-01,-2.397522479295730591e-01,-2.512831389904022217e-01,1.091626212000846863e-01,-1.745365858078002930e-01,6.059126928448677063e-02,-7.658248394727706909e-02,-1.506597250699996948e-01,9.924703091382980347e-02,1.891818940639495850e-01,-3.750236034393310547e-01,-2.252137064933776855e-01,2.164220660924911499e-01,-3.302259743213653564e-01,-1.014801412820816040e-01,-1.438345760107040405e-01,3.352246582508087158e-01,1.173856779932975769e-01,-1.328114867210388184e-01,-1.083559095859527588e-01,1.371588408946990967e-01,3.042168617248535156e-01,-9.794294089078903198e-02,-1.976309120655059814e-01,-1.354848593473434448e-01,-7.816120237112045288e-02,1.009880825877189636e-01,1.769894547760486603e-02,-8.728452771902084351e-02,2.140162885189056396e-01,1.104280948638916016e-01,2.476810514926910400e-01,-1.257567107677459717e-01,1.684472113847732544e-01,-5.474925786256790161e-02,-1.012115925550460815e-01,8.278033882379531860e-02,1.647124886512756348e-01,-7.648701965808868408e-02,-1.881334036588668823e-01,-1.572128236293792725e-01,1.919336915016174316e-01,1.089671533554792404e-02,-1.126162111759185791e-01,1.386942267417907715e-01,-9.637822210788726807e-02,-9.942543506622314453e-02,2.096072435379028320e-01
4.125850275158882141e-02,-2.288797795772552490e-01,-7.081054151058197021e-02,2.678387165069580078e-01,2.056578397750854492e-01,-5.426344275474548340e-02,8.934903889894485474e-02,-1.173939630389213562e-01,1.182904765009880066e-01,-1.711289435625076294e-01,-1.044228672981262207e-01,-8.061907137744128704e-04,-2.943309247493743896e-01,-1.350796222686767578e-01,-3.268733993172645569e-02,-1.370111107826232910e-02,-9.349770843982696533e-02,-1.370774954557418823e-01,-5.029191076755523682e-02,3.898535370826721191e-01,-2.185708433389663696e-01,2.649753987789154053e-01,9.822197258472442627e-02,-2.772835195064544678e-01,-4.215389490127563477e-01,-5.215471982955932617e-02,9.489578753709793091e-02,-1.600717008113861084e-01,-1.594058610498905182e-02,-2.530012726783752441e-01,3.246179223060607910e-02,8.117683231830596924e-02,-7.575982064008712769e-02,-3.743974119424819946e-02,2.756004333496093750e-01,-8.663941174745559692e-02,1.676968783140182495e-01,1.722295135259628296e-01,-5.140103399753570557e-02,1.127213016152381897e-01,1.001740526407957077e-02,-1.916991174221038818e-02,-2.553592920303344727e-01,4.857978224754333496e-01,-5.692688003182411194e-02,3.001685440540313721e-01,8.957598358392715454e-02,-1.444570869207382202e-01,-1.301463097333908081e-01,-4.427382722496986389e-02
-6.437831521034240723e-01,-2.277631871402263641e-02,-1.513125747442245483e-01,-5.546668767929077148e-01,-3.261365294456481934e-01,5.308501794934272766e-02,1.266856328584253788e-03,-6.695449352264404297e-02,9.566339850425720215e-02,-1.764840260148048401e-02,-2.099074274301528931e-01,-4.341824650764465332e-01,2.362991720438003540e-01,-2.699358165264129639e-01,-1.241626814007759094e-01,-4.105503559112548828e-01,-4.608607664704322815e-02,1.121637225151062012e-02,-9.976679831743240356e-02,-3.200547397136688232e-01,-1.015525683760643005e-01,9.358022361993789673e-02,-3.173690438270568848e-01,-3.012520074844360352e-01,7.728665322065353394e-02,-1.392105370759963989e-01,-2.194474190473556519e-01,-1.509592235088348389e-01,3.205252885818481445e-01,-1.573851518332958221e-02,1.758293360471725464e-01,-3.069013953208923340e-01,1.974460035562515259e-01,1.955166645348072052e-02,-4.793114587664604187e-02,-1.890680044889450073e-01,2.281679660081863403e-01,1.056922450661659241e-01,-3.444145619869232178e-01,-3.753483295440673828e-01,-3.126521408557891846e-01,4.816476106643676758e-01,-4.399030655622482300e-02,-2.976104617118835449e-01,-5.609686970710754395e-01,-3.433803617954254150e-01,-1.610990166664123535e-01,-1.487123966217041016e-01,1.720933318138122559e-01,4.156984388828277588e-01
-6.926891207695007324e-02,-2.033881545066833496e-01,-2.962838709354400635e-01,-1.614631116390228271e-01,-2.408131361007690430e-01,2.644576728343963623e-01,3.363407254219055176e-01,-3.348866105079650879e-02,-9.704162925481796265e-02,-4.902265965938568115e-01,1.477282792329788208e-01,4.800298064947128296e-02,-4.818283319473266602e-01,8.395988494157791138e-02,-2.338422536849975586e-01,-5.405981093645095825e-02,3.911138698458671570e-02,-4.034671187400817871e-01,-7.566098868846893311e-02,4.005433022975921631e-01,-2.866231091320514679e-02,5.745980143547058105e-01,6.645533442497253418e-01,-8.763591200113296509e-02,1.145216226577758789e-01,-1.030253767967224121e-01,9.033814072608947754e-02,2.571210563182830811e-01,1.627829298377037048e-02,-4.281891882419586182e-01,-7.196841388940811157e-02,2.677158117294311523e-01,9.812191128730773926e-03,5.141159053891897202e-03,-2.023235708475112915e-01,1.534114480018615723e-01,-1.606452316045761108e-01,-2.249660938978195190e-01,3.437676727771759033e-01,2.934296429157257080e-01,1.279508024454116821e-01,4.777018353343009949e-02,1.138102784752845764e-01,-5.950573086738586426e-02,5.567518994212150574e-02,2.193947583436965942e-01,-4.489584565162658691e-01,-8.451565355062484741e-02,-1.787886470556259155e-01,-7.620236277580261230e-02
-8.137907832860946655e-02,1.606976538896560669e-01,5.087824538350105286e-02,-1.773509234189987183e-01,-2.022344991564750671e-02,5.876817926764488220e-02,1.161457896232604980e-01,-4.484972655773162842e-01,2.626998424530029297e-01,1.339147984981536865e-01,-2.808726578950881958e-02,7.174375653266906738e-02,-5.326811596751213074e-02,2.607915177941322327e-02,5.154237616807222366e-03,2.153377383947372437e-01,1.524992138147354126e-01,-3.861228525638580322e-01,2.542913854122161865e-01,3.303335607051849365e-01,-4.491997063159942627e-01,4.739291667938232422e-01,3.718496486544609070e-02,-1.455505937337875366e-01,3.094030171632766724e-02,-2.659300565719604492e-01,4.456848651170730591e-02,6.111127883195877075e-02,-4.544004052877426147e-02,1.820263415575027466e-01,-2.254779785871505737e-01,-2.390521913766860962e-01,-1.287064105272293091e-01,-2.317056208848953247e-01,-1.011231169104576111e-01,1.017631739377975464e-01,5.549257993698120117e-01,-7.003842294216156006e-02,1.286069154739379883e-01,1.638055443763732910e-01,4.335079714655876160e-02,-2.074814634397625923e-03,2.571808099746704102e-01,-4.213700592517852783e-01,-2.421770691871643066e-01,1.838413625955581665e-01,4.033354669809341431e-02,3.323596417903900146e-01,1.040502861142158508e-01,-6.612570583820343018e-02
1.467539966106414795e-01,-5.103461444377899170e-03,6.955129653215408325e-02,-6.286365538835525513e-02,-2.412157505750656128e-02,-1.294022351503372192e-01,-4.452231898903846741e-02,-4.987869039177894592e-02,1.596350669860839844e-01,-1.825436055660247803e-01,-1.064345315098762512e-01,4.962527379393577576e-02,5.960579030215740204e-03,1.964430883526802063e-02,2.402714192867279053e-01,-1.556413471698760986e-01,1.298814117908477783e-01,1.148715335875749588e-02,-1.828014850616455078e-01,-1.014077011495828629e-02,1.918777078390121460e-01,4.250713810324668884e-02,7.110299915075302124e-02,-1.068191379308700562e-01,1.911207884550094604e-01,-2.572427690029144287e-01,-1.509583294391632080e-01,2.257239818572998047e-02,-6.991377472877502441e-02,2.159760743379592896e-01,-1.664295047521591187e-01,-7.152721285820007324e-02,-2.327972501516342163e-01,1.186148449778556824e-01,-8.158765733242034912e-02,-1.018625795841217041e-01,8.151517808437347412e-02,9.073872864246368408e-02,-2.873809337615966797e-01,-3.365927934646606445e-01,4.517887905240058899e-02,-2.430013418197631836e-01,2.426991164684295654e-01,-2.271294742822647095e-01,3.143333196640014648e-01,1.470374315977096558e-01,2.102293372154235840e-01,-1.091028377413749695e-01,-1.243549659848213196e-01,1.120539531111717224e-01
-1.009363830089569092e-01,1.244939956814050674e-02,-2.249358147382736206e-01,1.070600152015686035e-01,2.276970893144607544e-01,-4.608960151672363281e-01,-1.751336604356765747e-01,-6.760011613368988037e-02,-1.185601577162742615e-01,5.287731811404228210e-02,-1.789074540138244629e-01,6.896621081978082657e-03,2.675906009972095490e-02,-1.912421174347400665e-02,-1.071797916665673256e-03,-2.714261710643768311e-01,-7.321318984031677246e-02,8.248271793127059937e-02,1.725749373435974121e-01,-2.702612802386283875e-02,-3.781437575817108154e-01,-3.045741021633148193e-01,6.992814689874649048e-02,-1.533399336040019989e-02,4.817226156592369080e-02,5.776640027761459351e-03,-5.522441118955612183e-02,-2.062029540538787842e-01,2.507228851318359375e-01,2.360318750143051147e-01,2.028896063566207886e-01,-1.312807016074657440e-02,1.705758571624755859e-01,-4.239203631877899170e-01,1.357933133840560913e-01,-3.737707436084747314e-02,1.720720976591110229e-01,-2.086623199284076691e-02,-3.760862350463867188e-01,-3.934893012046813965e-01,-1.971324235200881958e-01,1.878112554550170898e-01,1.973996162414550781e-01,-2.938555777072906494e-01,-8.240761607885360718e-02,3.480835258960723877e-01,2.128815948963165283e-01,-2.371802181005477905e-01,-1.083634570240974426e-01,1.537121087312698364e-01
2.318029999732971191e-01,1.178374290466308594e-01,1.175835877656936646e-01,-6.360881328582763672e-01,-1.492153406143188477e-01,-2.324875593185424805e-01,-3.384702205657958984e-01,-2.233800888061523438e-01,3.933423198759555817e-03,-1.356343775987625122e-01,1.989555545151233673e-02,9.446850977838039398e-03,1.889752447605133057e-01,6.967786233872175217e-03,3.833480775356292725e-01,-1.591618508100509644e-01,1.670603752136230469e-01,-2.406999468803405762e-01,1.383711397647857666e-01,-6.682605296373367310e-02,6.098425015807151794e-02,3.424810618162155151e-02,-2.604384720325469971e-01,5.885794013738632202e-02,8.238798379898071289e-02,-1.230138242244720459e-01,-3.308687210083007812e-01,-4.423380494117736816e-01,6.354764848947525024e-02,-1.005001366138458252e-01,-6.898492574691772461e-03,3.135772421956062317e-02,-3.345661163330078125e-01,-2.446028143167495728e-01,6.439273059368133545e-02,9.285005927085876465e-02,3.141244351863861084e-01,3.108002245426177979e-01,-2.818957269191741943e-01,-5.375362634658813477e-01,7.962815463542938232e-02,4.261427521705627441e-01,2.584563791751861572e-01,-1.957637369632720947e-01,2.384507805109024048e-01,-1.932192295789718628e-01,-2.130216658115386963e-01,-8.705075085163116455e-02,-3.779170513153076172e-01,4.116962254047393799e-01
-2.048171460628509521e-01,-4.286681860685348511e-02,-1.655663847923278809e-01,-6.104347854852676392e-02,-8.555240929126739502e-02,2.584887295961380005e-02,-5.031535401940345764e-02,7.021450251340866089e-02,-9.749927371740341187e-02,-3.739754110574722290e-02,-6.433837860822677612e-02,-8.458454906940460205e-02,-7.720959931612014771e-02,6.126798316836357117e-02,1.311551183462142944e-01,-1.687979549169540405e-01,-5.305202677845954895e-02,1.158878356218338013e-01,-9.181720763444900513e-02,-7.530160993337631226e-02,-3.723447397351264954e-02,-3.952949494123458862e-02,1.643490232527256012e-02,-1.728189736604690552e-01,-1.438238769769668579e-01,-1.370191276073455811e-01,-5.737100541591644287e-02,-1.260571479797363281e-01,2.880714833736419678e-01,-4.050262644886970520e-02,-2.492639422416687012e-01,-3.522183373570442200e-02,-1.963602304458618164e-01,-9.414445608854293823e-02,8.671250939369201660e-02,2.529745101928710938e-01,4.422907158732414246e-02,5.459613166749477386e-03,-1.275402605533599854e-01,-1.570394337177276611e-01,1.750858849845826626e-03,-7.667968422174453735e-02,2.080180048942565918e-01,1.282790601253509521e-01,-1.887628022814169526e-04,2.498842924833297729e-01,1.426187604665756226e-01,-1.326886937022209167e-02,4.154662191867828369e-01,2.363393753767013550e-01
-5.935688018798828125e-01,-3.117007911205291748e-01,-3.525950759649276733e-02,1.415504515171051025e-01,1.853861808776855469e-01,1.789178550243377686e-01,-8.003257960081100464e-02,3.020194470882415771e-01,-5.751572251319885254e-01,-6.212114095687866211e-01,-1.485077589750289917e-01,-5.888623595237731934e-01,1.644638180732727051e-02,4.707588851451873779e-01,6.159904412925243378e-03,-4.951356947422027588e-01,-4.658952653408050537e-01,-2.330005615949630737e-01,2.929849028587341309e-01,4.259072244167327881e-01,1.189133822917938232e-01,2.891389131546020508e-01,-7.548439502716064453e-02,-2.312623262405395508e-01,-2.989559769630432129e-01,-2.065282687544822693e-02,-1.720643490552902222e-01,7.700107060372829437e-03,-7.049062103033065796e-02,-2.655397355556488037e-01,-5.405501723289489746e-01,3.170231580734252930e-01,1.554642766714096069e-01,1.697982251644134521e-01,-2.817425429821014404e-01,3.580310344696044922e-01,-4.028569534420967102e-02,2.299375534057617188e-01,8.267429471015930176e-02,-7.111212611198425293e-02,-1.375378966331481934e-01,-3.779422342777252197e-01,2.104407846927642822e-01,-3.529360890388488770e-01,2.565844357013702393e-01,-1.832883507013320923e-01,-3.394442200660705566e-01,1.887452751398086548e-01,1.408386528491973877e-01,2.717922627925872803e-01
-2.213221937417984009e-01,3.228223025798797607e-01,-1.481263339519500732e-01,7.524178177118301392e-02,-2.723014950752258301e-01,3.841574788093566895e-01,6.426057964563369751e-02,-4.002009630203247070e-01,3.153726831078529358e-02,-3.721033632755279541e-01,-9.405092895030975342e-02,1.164713054895401001e-01,1.252780705690383911e-01,-4.884248599410057068e-02,-1.437720805406570435e-01,-3.801806643605232239e-02,-1.987144947052001953e-01,-3.460318148136138916e-01,1.806879341602325439e-01,8.613266982138156891e-03,-3.017959892749786377e-01,2.695002257823944092e-01,2.805298864841461182e-01,-7.066802587360143661e-03,-4.030097648501396179e-02,3.016284108161926270e-01,2.276586890220642090e-01,-2.941665351390838623e-01,2.335544824600219727e-01,7.217905670404434204e-02,-2.396319210529327393e-01,2.077718824148178101e-01,1.651169210672378540e-01,2.509574592113494873e-01,-2.054172903299331665e-01,-3.980360329151153564e-01,1.214943453669548035e-01,-1.008190959692001343e-01,1.309576630592346191e-01,-2.945066429674625397e-02,1.632317900657653809e-01,-1.724758930504322052e-02,-6.219726428389549255e-02,3.366453647613525391e-01,-7.592540979385375977e-02,8.751919865608215332e-02,2.108450829982757568e-01,-1.175496652722358704e-01,6.786561757326126099e-02,1.913232654333114624e-01
7.018429040908813477e-02,-2.995815277099609375e-01,-2.770834267139434814e-01,-2.338041067123413086e-01,4.899078607559204102e-02,3.157341778278350830e-01,2.128673940896987915e-01,-2.110907137393951416e-01,1.100424155592918396e-01,-2.476167865097522736e-02,2.254229187965393066e-01,-1.829748898744583130e-01,-4.047710001468658447e-01,-1.093620732426643372e-01,7.768024504184722900e-02,2.037282139062881470e-01,-3.141853809356689453e-01,-3.710117638111114502e-01,9.177575260400772095e-02,1.100753843784332275e-01,-1.462323963642120361e-01,4.851536750793457031e-01,1.526373028755187988e-01,-9.329854696989059448e-02,-3.142005205154418945e-01,3.907221369445323944e-03,1.063615754246711731e-01,-2.500580847263336182e-01,1.007038205862045288e-01,-3.461073338985443115e-01,-3.656417727470397949e-01,1.875853724777698517e-02,-1.803882122039794922e-01,2.410194128751754761e-01,-2.273311614990234375e-01,-2.717841565608978271e-01,3.472302854061126709e-01,-4.544619098305702209e-02,-1.331430077552795410e-01,7.550906389951705933e-02,2.842526137828826904e-01,-4.775651171803474426e-02,5.390072241425514221e-02,-1.050461828708648682e-01,3.554197847843170166e-01,3.979309797286987305e-01,5.013207718729972839e-02,-1.984104216098785400e-01,-4.608716070652008057e-02,1.785749644041061401e-01
-1.315020173788070679e-01,8.090063929557800293e-02,1.328740417957305908e-01,-3.028655052185058594e-01,-2.474368922412395477e-02,2.332072854042053223e-01,7.044990360736846924e-02,7.381365448236465454e-02,3.664245903491973877e-01,2.695824019610881805e-03,-1.471157819032669067e-01,-8.353281617164611816e-01,1.842067092657089233e-01,5.675789341330528259e-02,-2.821417152881622314e-01,-2.610509283840656281e-02,4.273021519184112549e-01,-1.231484785676002502e-01,-3.933638799935579300e-03,-3.671229481697082520e-01,1.564784198999404907e-01,5.899896100163459778e-02,-4.368976131081581116e-02,-3.701930865645408630e-02,-9.414096921682357788e-02,-1.074241399765014648e-01,-1.165061742067337036e-01,-4.274404048919677734e-01,-1.281245201826095581e-01,-4.716485142707824707e-01,-2.911407649517059326e-01,8.883870393037796021e-02,3.306981921195983887e-01,4.028331339359283447e-01,-1.007131487131118774e-02,1.221441328525543213e-01,-2.647061087191104889e-02,-1.075258031487464905e-01,-2.139055430889129639e-01,-1.677856966853141785e-02,-3.497427701950073242e-01,-7.195115834474563599e-02,-3.140763342380523682e-01,2.437277138233184814e-01,2.387938350439071655e-01,-1.491597592830657959e-01,-2.950131893157958984e-01,1.126922145485877991e-01,-1.120292022824287415e-01,5.763332843780517578e-01
-1.301660686731338501e-01,-1.129430308938026428e-01,-5.412522554397583008e-01,-6.025961637496948242e-01,4.187237322330474854e-01,-1.162873730063438416e-01,2.689985632896423340e-01,1.788253337144851685e-01,4.140344262123107910e-01,8.609446138143539429e-02,-1.902785003185272217e-01,2.552950680255889893e-01,1.364225521683692932e-02,-3.077789247035980225e-01,-2.208397835493087769e-01,3.007494211196899414e-01,-1.903782933950424194e-01,-1.032758727669715881e-01,-1.388236880302429199e-02,-1.602148264646530151e-01,1.948355324566364288e-02,4.399859309196472168e-01,1.652532666921615601e-01,-1.461436301469802856e-01,3.607890903949737549e-01,2.615816891193389893e-01,5.099193006753921509e-02,-5.018325895071029663e-02,2.862550318241119385e-02,-2.861045598983764648e-01,-1.831236332654953003e-01,2.141434401273727417e-01,1.805631630122661591e-02,-1.651804447174072266e-01,-7.773649692535400391e-02,-2.414826154708862305e-01,3.228994607925415039e-01,2.755605876445770264e-01,-1.049196571111679077e-01,-9.692976623773574829e-02,-1.135578900575637817e-01,-2.015796154737472534e-01,-5.089421868324279785e-01,4.582957178354263306e-02,1.540427356958389282e-01,2.811870574951171875e-01,-1.287571787834167480e-01,4.227871298789978027e-01,-4.181142449378967285e-01,1.265300214290618896e-01
-2.608172297477722168e-01,-4.657769110053777695e-03,-5.090304836630821228e-02,-4.361176490783691406e-02,-9.305100888013839722e-02,1.411282550543546677e-02,-7.923836261034011841e-02,2.236456274986267090e-01,2.804528474807739258e-01,-1.582472324371337891e-01,-8.049084991216659546e-02,-3.704650327563285828e-02,1.489070523530244827e-02,-5.291792154312133789e-01,-1.170320659875869751e-01,6.484136730432510376e-02,5.606407672166824341e-02,-6.020830944180488586e-03,1.306637376546859741e-01,2.242179512977600098e-01,-2.989188022911548615e-02,-5.060811713337898254e-02,-8.500356227159500122e-02,1.598067283630371094e-01,2.290143966674804688e-01,1.490277200937271118e-01,2.866661250591278076e-01,1.555849565193057060e-03,-2.375466823577880859e-01,-3.878743350505828857e-01,-1.859558932483196259e-02,3.597106039524078369e-01,1.928628608584403992e-02,1.768551468849182129e-01,-1.383830793201923370e-02,-4.052830114960670471e-02,-2.515713870525360107e-01,3.071735799312591553e-02,8.398874849081039429e-02,-1.732594966888427734e-01,-1.325353085994720459e-01,7.156156003475189209e-02,2.153726965188980103e-01,-3.728728592395782471e-01,-1.433619298040866852e-02,6.066097319126129150e-02,5.537121742963790894e-02,-2.091989666223526001e-01,2.658955752849578857e-02,-6.129224598407745361e-02
-1.143317222595214844e-01,-1.819239109754562378e-01,2.105114310979843140e-01,-6.541894376277923584e-02,-1.988779604434967041e-01,-2.570015490055084229e-01,-9.616226702928543091e-02,5.605149269104003906e-02,3.699274063110351562e-01,3.854525685310363770e-01,-5.080551281571388245e-02,-7.050338387489318848e-02,-3.048633038997650146e-01,-1.454202085733413696e-01,1.415786147117614746e-01,9.821955859661102295e-02,1.850972175598144531e-01,3.871383145451545715e-02,-1.692229211330413818e-01,1.614458300173282623e-02,-8.553650230169296265e-03,3.964754194021224976e-02,3.746157586574554443e-01,1.297679543495178223e-01,1.963678002357482910e-01,1.274176687002182007e-01,8.327192813158035278e-02,6.578938663005828857e-02,3.806031495332717896e-02,-2.284490764141082764e-01,-8.559910953044891357e-02,2.960325181484222412e-01,1.668236851692199707e-01,-1.714089810848236084e-01,-1.314217299222946167e-01,7.965314202010631561e-03,-2.082497626543045044e-01,-3.259095847606658936e-01,-2.902747690677642822e-01,5.488237366080284119e-03,1.215944960713386536e-01,4.214325174689292908e-02,-1.589831858873367310e-01,-1.709721386432647705e-01,-1.908602565526962280e-01,-2.275167852640151978e-01,-1.036112606525421143e-01,1.601848155260086060e-01,2.424994856119155884e-01,-2.316274913027882576e-03
-3.817939758300781250e-01,1.643454134464263916e-01,1.736929453909397125e-02,-5.543019250035285950e-02,-8.961238712072372437e-02,1.478123813867568970e-01,2.266746312379837036e-01,3.914300352334976196e-02,1.925549656152725220e-01,-3.447464108467102051e-01,5.880028381943702698e-02,-4.521043598651885986e-01,-1.700144708156585693e-01,4.448970407247543335e-02,-6.470000743865966797e-02,7.119654119014739990e-02,2.167604267597198486e-01,-1.072563901543617249e-01,-4.145280644297599792e-02,1.248755231499671936e-01,-1.918576061725616455e-01,2.356251180171966553e-01,2.199354618787765503e-01,-7.124121487140655518e-02,-2.996600866317749023e-01,-7.135027647018432617e-02,-2.007772177457809448e-01,-1.199913397431373596e-01,-2.176817953586578369e-01,-1.186563074588775635e-01,1.019087135791778564e-01,1.247126311063766479e-01,1.283246725797653198e-01,1.794290542602539062e-02,2.408801615238189697e-01,-3.584375381469726562e-01,1.501409113407135010e-01,-2.192883640527725220e-01,1.844463199377059937e-01,2.485612183809280396e-01,1.578847914934158325e-01,1.087790653109550476e-01,-4.687733054161071777e-01,9.352874010801315308e-02,1.009515523910522461e-01,2.294349521398544312e-01,9.933489561080932617e-02,5.689802020788192749e-02,-2.892120480537414551e-01,1.520183682441711426e-01
2.734481692314147949e-01,-5.213119089603424072e-02,-2.322617918252944946e-01,-7.694645226001739502e-02,-9.451588615775108337e-03,-1.562452018260955811e-01,-2.681456208229064941e-01,1.547658443450927734e-01,-2.028821706771850586e-01,2.787811756134033203e-01,3.991338610649108887e-02,1.679895967245101929e-01,-7.538765668869018555e-02,-1.467284113168716431e-01,2.683835029602050781e-01,-2.610370814800262451e-01,-3.621259331703186035e-01,-1.757999956607818604e-01,-7.667148858308792114e-02,4.857623577117919922e-02,-6.570460796356201172e-01,-1.900527179241180420e-01,1.078570261597633362e-01,-2.285599708557128906e-02,-1.593656837940216064e-01,7.244073599576950073e-02,2.672642767429351807e-01,1.984486915171146393e-02,8.492809534072875977e-02,-1.355915963649749756e-01,3.280215859413146973e-01,-1.668576002120971680e-01,-2.770296931266784668e-01,-2.387774586677551270e-01,2.791629359126091003e-02,-3.999326005578041077e-02,-3.514094650745391846e-01,3.306179866194725037e-02,-5.035437941551208496e-01,-2.025531083345413208e-01,-2.621068358421325684e-01,3.287670612335205078e-01,-9.847689419984817505e-02,7.246198505163192749e-02,1.721049547195434570e-01,3.385456800460815430e-01,-3.976421058177947998e-02,-3.544289767742156982e-01,-3.612181246280670166e-01,2.073304355144500732e-01
4.806756675243377686e-01,2.457636408507823944e-02,-1.272383481264114380e-01,-1.553379148244857788e-01,-7.695120573043823242e-02,-3.081725537776947021e-01,7.130166888236999512e-02,1.138639301061630249e-01,2.255971133708953857e-01,1.507141441106796265e-01,-2.004659920930862427e-01,1.030643098056316376e-02,-5.384971736930310726e-04,1.637364476919174194e-01,-3.861891105771064758e-03,8.081702142953872681e-02,4.253558441996574402e-02,7.923858612775802612e-02,-1.384963095188140869e-01,-9.181331098079681396e-02,4.489914281293749809e-04,-4.548308551311492920e-01,-3.509869426488876343e-02,1.659357994794845581e-01,3.744418025016784668e-01,-1.562328636646270752e-01,-3.558505177497863770e-01,-5.742374435067176819e-02,-4.818888381123542786e-02,-4.405300915241241455e-01,-1.649843752384185791e-01,1.297082453966140747e-01,-1.906530857086181641e-01,-1.819438934326171875e-01,2.023024111986160278e-02,-9.507252275943756104e-02,5.752839893102645874e-02,2.425181865692138672e-01,-3.258751332759857178e-01,-2.398717105388641357e-01,8.074044436216354370e-02,-1.685270369052886963e-01,1.560851279646158218e-02,-2.932651340961456299e-01,2.477176636457443237e-01,-2.579719126224517822e-01,3.202438727021217346e-02,-1.187096908688545227e-01,3.097987174987792969e-01,1.121855080127716064e-01
1.841653585433959961e-01,-2.242868393659591675e-01,-4.591715931892395020e-01,-1.340787298977375031e-02,1.442279219627380371e-01,3.913910984992980957e-01,2.078140676021575928e-01,1.493358463048934937e-01,1.542675048112869263e-01,2.175697237253189087e-01,-1.559386402368545532e-01,-4.205802083015441895e-02,-1.568005234003067017e-01,-2.167164534330368042e-01,-1.777421534061431885e-01,-1.718168556690216064e-01,-1.864115893840789795e-01,-1.684574633836746216e-01,1.196257187984883785e-03,-3.382755815982818604e-02,-2.133557200431823730e-01,3.945860564708709717e-01,1.455930322408676147e-01,8.259703218936920166e-02,-3.064070940017700195e-01,-7.727638632059097290e-02,3.698062896728515625e-01,2.171512227505445480e-03,1.214842200279235840e-01,-1.563332676887512207e-01,2.144751884043216705e-02,-1.611282862722873688e-02,1.315672248601913452e-01,-1.780562549829483032e-01,1.369140343740582466e-03,-2.990313768386840820e-01,-4.014570713043212891e-01,-2.806633114814758301e-01,3.580219745635986328e-01,6.271097809076309204e-02,2.313879728317260742e-01,1.741113364696502686e-01,-6.053523421287536621e-01,1.247912049293518066e-01,3.422834873199462891e-01,3.668649494647979736e-01,5.717552825808525085e-02,-1.449207961559295654e-01,-1.484901607036590576e-01,3.779218345880508423e-02
4.984877109527587891e-01,-2.870627045631408691e-01,3.449006378650665283e-02,-4.981299489736557007e-02,-1.839186549186706543e-01,-2.946828305721282959e-01,1.423857808113098145e-01,2.252797782421112061e-01,-2.917942032217979431e-02,-3.560908734798431396e-01,2.285281717777252197e-01,-1.239959076046943665e-01,2.638796865940093994e-01,-2.717569768428802490e-01,-3.071246482431888580e-02,2.205532938241958618e-01,2.505582869052886963e-01,-1.586445122957229614e-01,-8.622507005929946899e-02,9.708885848522186279e-02,5.736022721976041794e-03,-4.082981646060943604e-01,5.879326164722442627e-02,-1.327488105744123459e-02,-1.036476269364356995e-01,-1.840160489082336426e-01,2.532553374767303467e-01,1.850001662969589233e-01,-1.858092658221721649e-02,-7.328557223081588745e-02,-2.045232206583023071e-01,-1.780354529619216919e-01,-6.835755109786987305e-01,-1.836592555046081543e-01,-7.042822986841201782e-02,9.571326524019241333e-02,-1.420016139745712280e-01,2.694636285305023193e-01,1.430131196975708008e-01,1.126990914344787598e-01,-3.998060524463653564e-01,-1.416173726320266724e-01,-3.044989407062530518e-01,-7.717359066009521484e-02,-1.808048225939273834e-02,1.834101080894470215e-01,1.353616416454315186e-01,-7.281962782144546509e-02,-1.445582211017608643e-01,-2.250606864690780640e-01
3.909943103790283203e-01,-1.110429540276527405e-01,3.600066900253295898e-01,-3.244315981864929199e-01,1.048166379332542419e-01,7.074587047100067139e-03,6.117999926209449768e-02,-1.429572999477386475e-01,1.198295131325721741e-01,-1.220837458968162537e-01,9.513975679874420166e-02,3.295239433646202087e-02,1.911287307739257812e-01,-1.197766363620758057e-01,-3.540581837296485901e-02,-2.573208808898925781e-01,1.696401089429855347e-01,-1.210208050906658173e-03,2.979174852371215820e-01,-8.962464332580566406e-02,2.755443379282951355e-02,-2.507429122924804688e-01,1.304751727730035782e-02,-1.909672096371650696e-02,-3.743312954902648926e-01,2.506764233112335205e-01,7.746095955371856689e-02,1.478805392980575562e-01,9.564956277608871460e-02,-6.544038187712430954e-03,-2.396115958690643311e-01,1.935892701148986816e-01,-5.151719450950622559e-01,-1.537081450223922729e-01,-2.712035179138183594e-01,1.504053026437759399e-01,-9.282088279724121094e-02,-3.061668574810028076e-02,2.809525234624743462e-03,6.773669272661209106e-02,-5.308117866516113281e-01,2.974330447614192963e-02,1.815410405397415161e-01,2.648961842060089111e-01,-4.256393015384674072e-02,-2.427698075771331787e-01,8.834362775087356567e-02,-1.284088641405105591e-01,-3.238671422004699707e-01,1.252569407224655151e-01
-5.154368281364440918e-01,-1.367604732513427734e-01,-5.245436728000640869e-02,2.017964422702789307e-01,3.838988542556762695e-01,-3.448205590248107910e-01,-3.142495453357696533e-02,-2.432562559843063354e-01,8.231110125780105591e-02,1.495344191789627075e-01,5.556590855121612549e-02,2.892846167087554932e-01,-3.126906752586364746e-01,-3.634876906871795654e-01,7.045823335647583008e-02,1.978601515293121338e-01,-5.442625880241394043e-01,1.823401153087615967e-01,-1.971775442361831665e-01,3.771129995584487915e-02,-1.612695120275020599e-02,2.046810090541839600e-01,-9.355283528566360474e-02,-4.952232539653778076e-02,-1.264962404966354370e-01,1.253900825977325439e-01,-2.364379167556762695e-01,1.416754424571990967e-01,2.687084972858428955e-01,-1.166036948561668396e-01,7.797800749540328979e-02,-4.659580066800117493e-02,4.270433261990547180e-02,-6.239005550742149353e-02,-2.064982205629348755e-01,8.823090046644210815e-02,-3.363554477691650391e-01,3.422474265098571777e-01,-2.276829034090042114e-01,-1.062491387128829956e-01,-5.538477897644042969e-01,2.601213194429874420e-02,-6.189680099487304688e-01,-4.948694258928298950e-02,-3.348762392997741699e-01,4.599163234233856201e-01,-2.411188185214996338e-02,4.997434914112091064e-01,3.530317246913909912e-01,1.061076000332832336e-01
-1.137621179223060608e-01,2.323064506053924561e-01,4.074885323643684387e-02,1.232868805527687073e-01,1.851902157068252563e-01,-2.368478924036026001e-01,-8.159355074167251587e-02,1.040423475205898285e-02,-4.151695668697357178e-01,-2.194412797689437866e-01,2.751578390598297119e-01,1.905825585126876831e-01,1.820038259029388428e-01,-3.535535633563995361e-01,4.778112098574638367e-02,-1.493877544999122620e-02,-6.496408581733703613e-02,9.247432649135589600e-02,1.215848177671432495e-01,1.673423647880554199e-01,-2.541391551494598389e-01,5.546710267663002014e-02,-4.805999696254730225e-01,1.883875727653503418e-01,-6.921845488250255585e-03,2.966500222682952881e-01,5.867605805397033691e-01,-2.365891188383102417e-01,2.615087330341339111e-01,1.630887240171432495e-01,2.177256643772125244e-01,-4.798375964164733887e-01,-1.317242980003356934e-01,-4.283467531204223633e-01,-8.218460530042648315e-02,8.608105033636093140e-02,2.354958280920982361e-02,2.001943439245223999e-01,-2.701184153556823730e-01,-3.532377481460571289e-01,-1.605085879564285278e-01,3.087259596213698387e-03,2.393426299095153809e-01,3.644031286239624023e-02,-2.164832316339015961e-02,6.847738474607467651e-02,1.642656624317169189e-01,1.005132570862770081e-01,-3.008806407451629639e-01,2.859779000282287598e-01
