-1.785764098167419434e-01,-1.193762123584747314e-01,6.851258128881454468e-02,3.608338832855224609e-01,-9.682255983352661133e-02,1.817319393157958984e-01,-4.581120014190673828e-01,2.078494057059288025e-03,2.971870303153991699e-01,8.339137583971023560e-02,-2.022406160831451416e-01,-1.267957240343093872e-01,-4.222693443298339844e-01,2.132982611656188965e-01,6.677203774452209473e-01,-3.650694489479064941e-01,2.463830262422561646e-01,-1.903998404741287231e-01,1.407669670879840851e-02,1.847639679908752441e-01,4.926798641681671143e-01,2.171417772769927979e-01,-1.840241998434066772e-01,-4.462512731552124023e-01,3.746773600578308105e-01,9.408051520586013794e-02,-3.196214735507965088e-01,3.584365919232368469e-02,3.119479715824127197e-01,2.417034953832626343e-01,-1.553183142095804214e-02,3.576899468898773193e-01,4.890432581305503845e-02,1.587810516357421875e-01,-2.584378421306610107e-01,-4.019629955291748047e-02,-1.881264001131057739e-01,2.743175029754638672e-01,6.057716608047485352e-01,2.528613805770874023e-01,9.433774650096893311e-02,2.516019642353057861e-01,-1.634914577007293701e-01,5.285198614001274109e-02,8.269087970256805420e-02,3.900527060031890869e-01,-2.507092952728271484e-01,2.999873459339141846e-01,5.880550295114517212e-02,-2.348525375127792358e-01
4.133241176605224609e-01,-3.277617990970611572e-01,2.042302787303924561e-01,2.768618464469909668e-01,7.015821337699890137e-02,-7.340550422668457031e-03,3.207354545593261719e-01,5.263809487223625183e-02,-6.450945138931274414e-02,-3.470268845558166504e-01,-2.020985782146453857e-01,1.903723925352096558e-02,-1.387093514204025269e-01,-5.472889915108680725e-02,-2.011591047048568726e-01,-3.687214106321334839e-02,1.264199614524841309e-01,-1.543257832527160645e-01,3.283161520957946777e-01,-1.937830001115798950e-01,1.251083100214600563e-03,-4.269861429929733276e-02,1.634059995412826538e-01,-2.783690765500068665e-02,-1.650551892817020416e-02,-3.461216390132904053e-02,1.688965708017349243e-01,-2.196972519159317017e-01,1.220170930027961731e-01,-4.838523641228675842e-02,-1.017842218279838562e-01,-2.242732234299182892e-02,-4.525646567344665527e-01,-5.316560268402099609e-01,1.177968978881835938e-01,-2.872431874275207520e-01,-9.021624573506414890e-04,-1.230418682098388672e-01,3.910820186138153076e-02,-3.880004286766052246e-01,-2.804765403270721436e-01,-2.180687487125396729e-01,-1.531600654125213623e-01,2.448169514536857605e-02,-1.399158239364624023e-01,9.724991768598556519e-02,-2.576169073581695557e-01,9.092966094613075256e-03,4.160377383232116699e-02,-2.708510160446166992e-01
-3.257483839988708496e-01,4.471813440322875977e-01,3.723654747009277344e-01,1.010040119290351868e-01,-4.805077016353607178e-01,-2.715883255004882812e-01,-3.679475560784339905e-02,-3.851542472839355469e-01,-3.419582173228263855e-02,-4.738171398639678955e-02,-1.903681606054306030e-01,2.731566429138183594e-01,2.352367937564849854e-01,1.294426470994949341e-01,-1.075916737318038940e-02,-5.122159719467163086e-01,3.487236499786376953e-01,-3.117880821228027344e-01,-6.200653314590454102e-02,-2.543701827526092529e-01,1.249485760927200317e-01,1.033309623599052429e-01,-6.617838144302368164e-02,-2.834143042564392090e-01,-4.356153607368469238e-01,-4.709951952099800110e-02,-6.438280344009399414e-01,-2.116184830665588379e-01,7.948043197393417358e-02,-3.691043332219123840e-02,-1.368757933378219604e-01,1.890174895524978638e-01,-1.079065278172492981e-01,2.914651930332183838e-01,-3.192488849163055420e-01,-1.864279806613922119e-01,4.887289926409721375e-02,1.615282893180847168e-01,-1.838509887456893921e-01,4.149421751499176025e-01,2.336935400962829590e-01,1.034837141633033752e-01,-1.050206273794174194e-01,4.586124122142791748e-01,-3.188743293285369873e-01,-8.172067254781723022e-02,-3.409428000450134277e-01,5.993389710783958435e-02,6.207059025764465332e-01,-1.957222670316696167e-01
6.569321453571319580e-02,-1.905436366796493530e-01,-2.917867004871368408e-01,-5.358623806387186050e-03,-3.131481707096099854e-01,-1.072699502110481262e-01,-1.476283222436904907e-01,3.051823563873767853e-02,5.796988308429718018e-02,-3.486927133053541183e-03,1.512890160083770752e-01,-1.648384332656860352e-01,3.156747221946716309e-01,-5.281821265816688538e-02,-2.131912857294082642e-01,2.993073873221874237e-02,1.605632156133651733e-01,7.305332925170660019e-03,-2.171754240989685059e-01,-5.936257243156433105e-01,-8.204945176839828491e-02,-1.253412961959838867e-01,1.316219866275787354e-01,-6.023615598678588867e-01,3.004385530948638916e-01,-1.932660937309265137e-01,1.023865416646003723e-01,2.262216359376907349e-01,2.958136498928070068e-01,2.331280708312988281e-01,3.585347533226013184e-01,1.448426991701126099e-01,-1.926193386316299438e-01,-3.961592167615890503e-02,2.663413882255554199e-01,-3.370123803615570068e-01,1.550896912813186646e-01,-7.172249555587768555e-01,-2.485192865133285522e-01,-5.584859848022460938e-02,-1.801647096872329712e-01,1.705472320318222046e-01,-2.227103114128112793e-01,9.831493720412254333e-03,1.966802179813385010e-01,4.285180568695068359e-01,-7.482849806547164917e-02,1.564253866672515869e-01,-4.033735394477844238e-01,-4.496501982212066650e-01
1.059065237641334534e-01,-5.613856315612792969e-01,-1.766227185726165771e-01,-6.102427467703819275e-02,-2.801861763000488281e-01,2.719008326530456543e-01,-3.413746133446693420e-02,2.284659296274185181e-01,-7.115919888019561768e-02,-2.002261877059936523e-01,2.518337070941925049e-01,-2.549107372760772705e-01,2.075745314359664917e-01,-1.429498344659805298e-01,4.260212182998657227e-01,1.997883059084415436e-02,1.661140918731689453e-01,-3.747255206108093262e-01,2.821703068912029266e-02,-2.998815774917602539e-01,3.188374340534210205e-01,1.796004325151443481e-01,-1.716276444494724274e-02,-3.091110587120056152e-01,-2.407430559396743774e-01,-1.208606958389282227e-01,8.014515042304992676e-04,2.543831765651702881e-01,1.854712069034576416e-01,4.245134815573692322e-02,1.712043583393096924e-02,-6.660487968474626541e-03,7.634448260068893433e-02,2.044612020254135132e-01,1.130761653184890747e-01,7.826831191778182983e-02,2.157232612371444702e-01,4.483833312988281250e-01,2.758481502532958984e-01,5.915690585970878601e-02,-4.563172534108161926e-02,-1.274030283093452454e-02,-1.419077366590499878e-01,-1.883769929409027100e-01,-4.616400226950645447e-02,2.550022602081298828e-01,-2.981150746345520020e-01,3.112398087978363037e-02,-1.754202507436275482e-02,-3.264410197734832764e-01
-6.833183020353317261e-02,1.550284326076507568e-01,-6.184844970703125000e-01,-3.462491557002067566e-02,2.366281300783157349e-01,6.220504269003868103e-02,-1.844028681516647339e-01,-1.255578398704528809e-01,3.570641949772834778e-02,-3.696017265319824219e-01,2.535594105720520020e-01,-2.628666907548904419e-02,-3.869848847389221191e-01,-6.790858507156372070e-02,2.518453299999237061e-01,-3.036093413829803467e-01,1.586681604385375977e-01,-5.376392602920532227e-02,2.483272999525070190e-01,-1.417783945798873901e-01,1.329890172928571701e-02,1.888327896595001221e-01,6.056424230337142944e-02,1.412175893783569336e-01,-2.067979127168655396e-01,6.046037077903747559e-01,-8.003080636262893677e-02,-1.925708204507827759e-01,-2.557293139398097992e-02,-5.943193659186363220e-02,-4.283120334148406982e-01,3.479781374335289001e-02,3.913182616233825684e-01,1.974632292985916138e-01,-8.167023770511150360e-04,5.575665235519409180e-01,-5.018686652183532715e-01,5.193440914154052734e-01,2.163435798138380051e-03,2.069537937641143799e-01,2.057780921459197998e-01,-1.959660649299621582e-01,4.954318702220916748e-01,8.071800321340560913e-02,-7.635999470949172974e-02,-1.396334022283554077e-01,-1.979536414146423340e-01,-3.436940014362335205e-01,1.944149285554885864e-01,7.763667702674865723e-01
-3.294584453105926514e-01,1.355755925178527832e-01,-2.597721219062805176e-01,-8.745355159044265747e-02,1.542776226997375488e-01,-6.424463391304016113e-01,-4.758828878402709961e-02,3.790060803294181824e-02,-3.225280344486236572e-01,-1.703817248344421387e-01,1.923461854457855225e-01,-1.131048984825611115e-02,-2.662453949451446533e-01,5.764576792716979980e-02,-1.654031872749328613e-01,-2.781694829463958740e-01,6.568961590528488159e-02,-4.327132999897003174e-01,-6.253341436386108398e-01,-8.769116550683975220e-02,1.917694509029388428e-01,-5.874854698777198792e-02,2.617996186017990112e-02,-1.519587337970733643e-01,-3.825019672513008118e-02,2.578761279582977295e-01,-1.890568137168884277e-01,1.605213284492492676e-01,-5.027378350496292114e-02,-8.062567561864852905e-02,9.254323691129684448e-02,-1.561345309019088745e-01,2.329015731811523438e-02,-3.813864886760711670e-01,-1.502727121114730835e-01,-6.624980568885803223e-01,-6.050810590386390686e-02,-5.994826555252075195e-01,8.423088490962982178e-02,-4.411875605583190918e-01,-3.465592563152313232e-01,-3.058954179286956787e-01,1.007089838385581970e-01,-1.898924261331558228e-01,7.715795189142227173e-02,-4.492364525794982910e-01,1.980704963207244873e-01,7.540752738714218140e-02,-3.621622920036315918e-01,-2.541536390781402588e-01
-3.708243966102600098e-01,-3.270722925662994385e-02,-2.382682710886001587e-01,-1.292230188846588135e-01,-1.923674643039703369e-01,-1.497516185045242310e-01,-2.127749025821685791e-01,-1.248413100838661194e-01,-3.600154221057891846e-01,3.768348097801208496e-01,1.624525189399719238e-01,2.832412719726562500e-01,-1.041435301303863525e-01,2.810047864913940430e-01,-4.880515635013580322e-01,5.361742377281188965e-01,1.147904321551322937e-01,-2.733846306800842285e-01,9.654266387224197388e-02,4.743373095989227295e-01,-2.884894907474517822e-01,-3.112652301788330078e-01,-1.755861490964889526e-01,-2.054819911718368530e-01,2.072737514972686768e-01,-1.212519481778144836e-01,9.471260756254196167e-02,-3.109606206417083740e-01,-2.855811417102813721e-01,1.040888652205467224e-01,-1.056763306260108948e-01,-1.661552465520799160e-03,-3.202690780162811279e-01,-3.792361617088317871e-01,1.457127183675765991e-01,-5.458078160881996155e-02,1.681178808212280273e-01,-4.883439093828201294e-02,-3.568477630615234375e-01,-3.626101315021514893e-01,-4.042499959468841553e-01,-1.340452432632446289e-01,-1.523296833038330078e-01,3.062967061996459961e-01,-2.507152855396270752e-01,-2.972735762596130371e-01,3.247723281383514404e-01,-1.217602342367172241e-01,-2.434514015913009644e-01,3.670912981033325195e-01
-5.519548058509826660e-02,2.291272021830081940e-02,-3.065349459648132324e-01,-1.128249615430831909e-01,2.234959043562412262e-02,-9.427097439765930176e-02,1.253826022148132324e-01,3.918401896953582764e-01,1.741859763860702515e-01,-2.583270668983459473e-01,-7.596300244331359863e-01,-2.550460696220397949e-01,3.661595880985260010e-01,-3.244171142578125000e-01,1.774405315518379211e-02,1.647282540798187256e-01,-2.064078450202941895e-01,-4.093044623732566833e-02,6.790200620889663696e-02,-4.650373384356498718e-02,-2.745856344699859619e-01,-1.773466169834136963e-02,1.880038529634475708e-01,1.134961917996406555e-01,-1.492792367935180664e-01,3.460389673709869385e-01,4.683150649070739746e-01,3.068762421607971191e-01,8.806924521923065186e-02,4.841535538434982300e-02,-6.057808995246887207e-01,9.860204905271530151e-02,-1.939029842615127563e-01,-1.770398914813995361e-01,1.749273240566253662e-01,1.746646016836166382e-01,1.056957058608531952e-02,-2.771697938442230225e-01,-8.478700369596481323e-02,1.865326240658760071e-02,2.911739945411682129e-01,1.410489086993038654e-03,-6.024580597877502441e-01,2.065298557281494141e-01,2.257881611585617065e-01,5.711197108030319214e-02,1.684972345829010010e-01,-4.349979460239410400e-01,-4.188899397850036621e-01,-1.244730316102504730e-02
3.236123025417327881e-01,4.822195693850517273e-02,7.337736338376998901e-02,6.625053007155656815e-03,3.567752838134765625e-01,-1.344453096389770508e-01,2.898424267768859863e-01,-2.547376453876495361e-01,-2.560529112815856934e-01,-1.194066330790519714e-01,7.378026843070983887e-02,-7.696533948183059692e-02,1.445664167404174805e-01,-3.087668716907501221e-01,3.820662572979927063e-02,2.030434459447860718e-02,-1.661525517702102661e-01,7.402420639991760254e-01,3.035342991352081299e-01,-5.667489022016525269e-02,2.561581730842590332e-01,1.155157200992107391e-02,1.281551420688629150e-01,7.674422115087509155e-02,-7.935059070587158203e-02,3.143462538719177246e-01,1.287981122732162476e-01,-2.082113735377788544e-02,-9.532310068607330322e-04,2.143379388144239783e-04,-1.224162057042121887e-01,2.283032983541488647e-01,8.259006589651107788e-02,3.257404565811157227e-01,-1.324009597301483154e-01,-3.054050169885158539e-02,-2.022620886564254761e-01,2.529481351375579834e-01,-4.126745462417602539e-02,-3.522659838199615479e-02,2.755987644195556641e-01,2.656805217266082764e-01,2.202585339546203613e-01,-8.325768634676933289e-03,3.462443649768829346e-01,-1.657708585262298584e-01,-1.845415681600570679e-01,3.876174986362457275e-02,-4.612800106406211853e-02,1.561499387025833130e-01
1.136046648025512695e-01,-1.531217098236083984e-01,-1.372794061899185181e-01,-2.398452460765838623e-01,-3.937048912048339844e-01,-2.212338298559188843e-01,2.623761072754859924e-02,1.481634937226772308e-02,-1.187782511115074158e-01,3.906427696347236633e-02,-3.363770991563796997e-02,1.365767419338226318e-01,-2.499971538782119751e-01,-1.445942819118499756e-01,2.036548852920532227e-01,-2.541938126087188721e-01,-6.800186634063720703e-02,-8.341004699468612671e-02,1.449228078126907349e-01,1.999767124652862549e-01,-3.565430343151092529e-01,1.085985079407691956e-01,-4.072309136390686035e-01,2.529889345169067383e-01,-2.222556769847869873e-01,-4.589049611240625381e-03,9.496949613094329834e-02,-1.711775809526443481e-01,8.052647113800048828e-02,-2.065919525921344757e-02,2.970028221607208252e-01,-5.922140479087829590e-01,-1.995081156492233276e-01,-2.377133667469024658e-01,2.483079433441162109e-01,8.790208399295806885e-02,1.026652827858924866e-01,-8.129099756479263306e-02,7.289916742593050003e-03,-1.936014182865619659e-02,7.410158216953277588e-02,-2.902542054653167725e-01,-5.345363616943359375e-01,-3.023281395435333252e-01,1.183593124151229858e-01,3.002569079399108887e-01,3.806492984294891357e-01,-5.521035790443420410e-01,8.991828560829162598e-02,-3.042470896616578102e-03
3.643673658370971680e-01,-1.536873131990432739e-01,-2.183522433042526245e-01,1.400084141641855240e-02,-9.639418870210647583e-02,7.974915206432342529e-02,9.558461606502532959e-03,1.227007955312728882e-01,-1.515381783246994019e-01,-2.616549730300903320e-01,2.478610575199127197e-01,1.706549227237701416e-01,3.941069915890693665e-02,-9.397073835134506226e-02,2.341884970664978027e-01,2.532289326190948486e-01,-2.902706265449523926e-01,-3.722411096096038818e-01,2.637085318565368652e-01,1.195007413625717163e-01,-5.338248610496520996e-02,-5.782049149274826050e-03,-1.096123605966567993e-01,-5.653352290391921997e-02,3.318598568439483643e-01,1.897241622209548950e-01,7.647626101970672607e-02,2.266539037227630615e-01,1.570754349231719971e-01,8.456581085920333862e-02,5.445452332496643066e-01,-1.539129316806793213e-01,2.192501872777938843e-01,2.715109288692474365e-01,3.286949396133422852e-01,-8.972973376512527466e-02,-1.065244600176811218e-01,-6.944222748279571533e-02,2.718127518892288208e-02,3.892730176448822021e-02,-1.379447430372238159e-02,-3.261700868606567383e-01,-5.987677350640296936e-02,-4.465531110763549805e-01,-1.650725901126861572e-01,-2.940219342708587646e-01,-7.943437695503234863e-01,-3.485898375511169434e-01,-4.617539048194885254e-01,-4.700925946235656738e-01
5.037530660629272461e-01,-1.289933472871780396e-01,-2.948595285415649414e-01,2.821654081344604492e-02,-2.864496707916259766e-01,4.560667276382446289e-01,2.241113223135471344e-03,2.930029034614562988e-01,4.278103411197662354e-01,-3.201435804367065430e-01,2.522096335887908936e-01,-9.111485630273818970e-02,1.573944687843322754e-01,-3.527045249938964844e-02,2.302963286638259888e-02,-2.055872678756713867e-01,-1.102774217724800110e-01,-4.163506031036376953e-01,-8.374121785163879395e-02,-2.132307291030883789e-01,-2.272116243839263916e-01,2.644995748996734619e-01,1.789729744195938110e-01,-6.054328083992004395e-01,-1.369561702013015747e-01,1.854998320341110229e-01,-9.562684595584869385e-02,5.804001912474632263e-02,-8.873090147972106934e-02,1.156354099512100220e-01,1.628037244081497192e-01,1.242433115839958191e-01,-8.712097257375717163e-02,-1.421063393354415894e-02,3.522513508796691895e-01,-2.436278164386749268e-01,-9.075501561164855957e-02,-4.363102316856384277e-01,-3.948864936828613281e-01,-4.864238575100898743e-02,2.042727470397949219e-01,1.437887251377105713e-01,-3.609344363212585449e-01,-4.372568726539611816e-01,-3.937099128961563110e-02,1.917814835906028748e-02,-8.789816498756408691e-02,-9.391085058450698853e-02,-3.351628482341766357e-01,-4.364203214645385742e-01
2.678618021309375763e-02,-1.762896925210952759e-01,-4.566511809825897217e-01,2.275123149156570435e-01,-4.775269329547882080e-01,-2.986395359039306641e-01,-7.468009740114212036e-02,-2.303859144449234009e-01,-7.964476197957992554e-02,1.805479265749454498e-02,-1.237975433468818665e-01,9.915366023778915405e-02,-1.367846280336380005e-01,-1.085574179887771606e-01,2.648749053478240967e-01,3.707502186298370361e-01,1.887344121932983398e-01,-7.135058939456939697e-02,2.025156468152999878e-01,-2.242618948221206665e-01,2.673105895519256592e-01,7.095415145158767700e-03,1.843011677265167236e-01,-1.807092577219009399e-01,1.687791347503662109e-01,-2.277531921863555908e-01,-2.143949568271636963e-01,2.801111154258251190e-02,1.008900552988052368e-01,-1.452120114117860794e-02,6.234815716743469238e-02,3.125084340572357178e-01,2.069911360740661621e-01,2.669606804847717285e-01,1.213830336928367615e-01,-2.597299516201019287e-01,1.456927508115768433e-01,-3.711998760700225830e-01,-2.055504731833934784e-02,-2.127494104206562042e-02,-4.836263358592987061e-01,-4.991961419582366943e-01,6.451410055160522461e-02,-1.722436249256134033e-01,-3.210024833679199219e-01,2.915206849575042725e-01,2.375260591506958008e-01,-1.183901280164718628e-01,-3.585733771324157715e-01,-1.572105437517166138e-01
-1.704432815313339233e-01,2.945637702941894531e-01,-5.357114672660827637e-01,2.397711277008056641e-01,2.266112267971038818e-01,-1.303782761096954346e-01,1.324733952060341835e-03,1.371143311262130737e-01,-2.748700082302093506e-01,-2.053887099027633667e-01,-2.627093493938446045e-01,-2.311008423566818237e-01,-2.180573940277099609e-01,2.562600374221801758e-01,-6.904636323451995850e-02,-2.141778357326984406e-02,1.554030627012252808e-01,4.489468336105346680e-01,-1.703206002712249756e-01,-4.045101404190063477e-01,-3.724838495254516602e-01,6.619694083929061890e-02,-5.140919238328933716e-02,-7.826582342386245728e-02,-1.950692734681069851e-03,2.829374670982360840e-01,2.201631218194961548e-01,5.387821048498153687e-02,1.432994455099105835e-01,-1.330324411392211914e-01,-3.423464298248291016e-01,1.529034674167633057e-01,-3.229647129774093628e-02,1.366821974515914917e-01,-4.597897827625274658e-01,1.082071214914321899e-01,-2.043528407812118530e-01,1.664763838052749634e-01,1.306950896978378296e-01,-3.457394987344741821e-02,-1.725898832082748413e-01,-1.084163933992385864e-01,-1.419804394245147705e-01,1.012394204735755920e-01,-2.103785425424575806e-01,-2.607943117618560791e-01,-4.217843115329742432e-01,1.359282433986663818e-01,-2.249458283185958862e-01,-4.015021920204162598e-01
-1.870191469788551331e-02,-1.482248604297637939e-01,-2.673282325267791748e-01,-1.340596936643123627e-02,1.588539220392704010e-02,5.520088970661163330e-02,-2.493265084922313690e-02,7.919454574584960938e-02,-5.045126080513000488e-01,8.861254900693893433e-02,1.543482393026351929e-01,9.446643292903900146e-02,7.399682700634002686e-02,-3.786041438579559326e-01,-2.542689740657806396e-01,3.321753740310668945e-01,-2.264022380113601685e-01,-9.653789550065994263e-02,3.158362209796905518e-01,2.643929421901702881e-01,-2.375903278589248657e-01,-3.720971941947937012e-01,2.734142541885375977e-01,-2.538046538829803467e-01,-1.471944339573383331e-02,-2.551387250423431396e-01,-2.848230898380279541e-01,-9.296973049640655518e-02,-2.715850770473480225e-01,-3.724473416805267334e-01,-4.507665038108825684e-01,9.835460036993026733e-02,-3.094507753849029541e-02,2.657041251659393311e-01,-1.828889399766921997e-01,1.114091500639915466e-01,-4.778613746166229248e-01,-3.968603909015655518e-01,-1.439856141805648804e-01,4.482584595680236816e-01,-1.049291193485260010e-01,-2.386309057474136353e-01,-1.607937514781951904e-01,2.868488430976867676e-01,3.220799267292022705e-01,1.992590259760618210e-03,-1.820794045925140381e-01,-9.933218359947204590e-02,2.857109904289245605e-01,3.516439497470855713e-01
1.573821455240249634e-01,-2.051501572132110596e-01,4.180686175823211670e-01,2.519834935665130615e-01,4.209862351417541504e-01,4.385714884847402573e-03,2.874159812927246094e-01,-4.032734036445617676e-01,-7.784388959407806396e-02,3.326687216758728027e-02,2.516234219074249268e-01,2.371995300054550171e-01,-2.508244514465332031e-01,2.601352930068969727e-01,-5.540152266621589661e-02,-3.139279484748840332e-01,3.645904660224914551e-01,-1.443515866994857788e-01,2.168783098459243774e-01,1.874858438968658447e-01,6.445544306188821793e-03,-2.205925434827804565e-01,1.902899891138076782e-01,-4.683529213070869446e-02,-3.623772859573364258e-01,2.379940748214721680e-01,-2.590458989143371582e-01,-2.292815148830413818e-01,-3.024041652679443359e-01,-2.878658706322312355e-03,-4.547517001628875732e-01,3.797802701592445374e-02,-3.050753176212310791e-01,4.703720510005950928e-01,-9.198467433452606201e-02,-1.070371270179748535e-01,-7.857865840196609497e-02,6.479705125093460083e-02,-7.011157274246215820e-02,-3.137545287609100342e-02,1.026108413934707642e-01,7.347263395786285400e-02,1.516571789979934692e-01,-6.256854534149169922e-02,3.011477887630462646e-01,-3.206137716770172119e-01,-7.003511786460876465e-01,-3.113019466400146484e-01,1.959181725978851318e-01,2.098422050476074219e-01
-1.750842332839965820e-01,2.526209354400634766e-01,2.235910743474960327e-01,3.863091170787811279e-01,-7.155444025993347168e-01,1.255248785018920898e-01,-1.559262275695800781e-01,3.195244967937469482e-01,7.501216977834701538e-02,3.263757824897766113e-01,-2.446000427007675171e-01,2.853314876556396484e-01,-5.653104186058044434e-02,-1.507255733013153076e-01,-4.288574457168579102e-01,1.712854653596878052e-01,-1.943804919719696045e-01,-1.544768214225769043e-01,-1.032395288348197937e-01,-1.742515116930007935e-01,-2.591957747936248779e-01,3.126579225063323975e-01,3.256561160087585449e-01,-6.238946691155433655e-02,-1.837640702724456787e-01,-1.099138557910919189e-01,3.287169337272644043e-01,2.289839684963226318e-01,-5.472159385681152344e-01,-2.377949804067611694e-01,-1.727675795555114746e-01,-2.915706932544708252e-01,-3.490079045295715332e-01,-4.576320946216583252e-01,1.346357464790344238e-01,9.352778643369674683e-02,-7.057598326355218887e-03,-5.117340683937072754e-01,7.283235341310501099e-02,-2.692781984806060791e-01,4.962149560451507568e-01,-1.347804814577102661e-01,-1.644421517848968506e-01,-4.037339985370635986e-01,7.340129464864730835e-02,-1.174368560314178467e-01,1.664891242980957031e-01,8.886276185512542725e-02,-5.906748175621032715e-01,-3.111414611339569092e-01
-1.249334067106246948e-01,-2.654092311859130859e-01,-1.307148337364196777e-01,3.953709304332733154e-01,2.681677043437957764e-01,-9.561641514301300049e-02,4.228568077087402344e-01,4.066459536552429199e-01,-2.205966711044311523e-01,6.154517829418182373e-02,-1.631290167570114136e-01,-3.370272815227508545e-01,-1.951213628053665161e-01,-1.155961081385612488e-01,9.434177726507186890e-02,1.839191764593124390e-01,-2.247813493013381958e-01,4.317557811737060547e-02,1.273656915873289108e-02,-9.766793251037597656e-02,1.768934354186058044e-02,-1.726704239845275879e-01,-4.317019879817962646e-02,-5.001474916934967041e-02,-2.125825285911560059e-01,3.797892928123474121e-01,-1.289291977882385254e-01,-2.866711914539337158e-01,1.302305329591035843e-02,-1.984343230724334717e-01,-3.971517831087112427e-02,-3.780907392501831055e-01,3.507137596607208252e-01,5.826079100370407104e-02,-7.349226623773574829e-02,8.325961232185363770e-02,-1.209510490298271179e-02,-2.888408601284027100e-01,-1.349207460880279541e-01,1.814400255680084229e-01,8.915989100933074951e-02,2.367662191390991211e-01,-4.668442308902740479e-01,4.908609390258789062e-02,2.431297302246093750e-01,6.785295158624649048e-02,-6.969421356916427612e-02,-4.480603337287902832e-01,-3.189974129199981689e-01,3.723351955413818359e-01
-1.357046961784362793e-01,3.700564801692962646e-02,3.350943326950073242e-01,3.217922523617744446e-02,-2.355908453464508057e-01,-1.157477349042892456e-01,1.471452116966247559e-01,2.272632867097854614e-01,-1.204469427466392517e-01,-5.373996496200561523e-02,2.516189357265830040e-03,9.506991505622863770e-02,1.225849315524101257e-01,-1.792837083339691162e-01,-2.363048791885375977e-01,-2.407802641391754150e-01,-7.582848519086837769e-02,1.223257556557655334e-01,3.918488323688507080e-02,-2.093043923377990723e-01,2.567687034606933594e-01,-2.057456374168395996e-01,-3.057296872138977051e-01,2.676882445812225342e-01,1.166973542422056198e-02,-2.775805592536926270e-01,-1.727814227342605591e-01,-2.592353150248527527e-02,4.606194496154785156e-01,-1.895154863595962524e-01,1.031768843531608582e-01,-1.345527619123458862e-01,2.468754500150680542e-01,8.429628610610961914e-02,-1.061987727880477905e-01,1.825993806123733521e-01,2.490810006856918335e-01,-1.430489718914031982e-01,-8.341296762228012085e-02,-1.253431737422943115e-01,-2.758656069636344910e-02,-1.301441341638565063e-01,-3.381750285625457764e-01,2.209998816251754761e-01,1.909798756241798401e-02,3.044849634170532227e-01,-3.876026272773742676e-01,-3.421753346920013428e-01,2.104610390961170197e-02,1.030660271644592285e-01
-6.748893298208713531e-03,2.259932644665241241e-02,-4.350800216197967529e-01,-5.305394157767295837e-02,-2.630444467067718506e-01,-1.669396013021469116e-01,-1.698558777570724487e-01,-4.052056670188903809e-01,-1.026673689484596252e-01,-7.342489808797836304e-02,-2.251885682344436646e-01,3.509097099304199219e-01,-2.268258482217788696e-01,-4.358844161033630371e-01,-1.763223297894001007e-02,-1.762737482786178589e-01,1.211060732603073120e-01,-7.148009538650512695e-02,2.628587484359741211e-01,1.732188463211059570e-01,-2.111754380166530609e-02,5.452596023678779602e-02,1.774727553129196167e-01,4.314851015806198120e-02,-1.351289004087448120e-01,1.134338900446891785e-01,5.129839181900024414e-01,-3.335057199001312256e-01,-6.685931980609893799e-02,1.015660259872674942e-02,-6.687022279947996140e-03,-1.508554071187973022e-01,1.125730723142623901e-01,9.490674734115600586e-02,-2.186461538076400757e-01,1.373089253902435303e-01,6.409967690706253052e-02,-2.654793858528137207e-01,2.413871288299560547e-01,-1.140758693218231201e-01,5.481193065643310547e-01,-4.255796074867248535e-01,-1.191561371088027954e-01,-5.982604622840881348e-02,-4.676735401153564453e-02,-3.589693307876586914e-01,6.726317107677459717e-02,-3.318336233496665955e-02,-1.478348523378372192e-01,1.086973473429679871e-01
2.351232916116714478e-01,2.621478438377380371e-01,5.196349322795867920e-02,5.929936841130256653e-02,5.050996541976928711e-01,-5.271368101239204407e-02,2.668461389839649200e-02,3.001077473163604736e-02,-2.011149749159812927e-02,-6.786760091781616211e-01,-9.950914978981018066e-02,-2.709270417690277100e-01,-2.780001461505889893e-01,-1.853554248809814453e-01,8.561492711305618286e-02,5.690410267561674118e-03,-2.843859195709228516e-01,4.002793431282043457e-01,-1.300697922706604004e-01,-4.038840234279632568e-01,5.505270883440971375e-02,6.394424289464950562e-02,-4.240004420280456543e-01,1.827186644077301025e-01,-5.573679879307746887e-02,3.397535383701324463e-01,3.405495285987854004e-01,6.593474000692367554e-02,7.263622432947158813e-02,1.765236556529998779e-01,-2.008511722087860107e-01,-5.567706227302551270e-01,2.401710115373134613e-02,2.573935687541961670e-01,-1.859513968229293823e-01,1.423064172267913818e-01,5.465858057141304016e-02,-2.431214153766632080e-01,-9.971898049116134644e-02,-7.208205014467239380e-02,2.280948758125305176e-01,-3.458234667778015137e-01,-1.060513332486152649e-01,-2.854448556900024414e-01,1.283643096685409546e-01,1.485804468393325806e-01,8.836187422275543213e-02,-2.958516180515289307e-01,-1.032397001981735229e-01,-1.105797812342643738e-01
-1.427150517702102661e-01,-1.038228422403335571e-01,-3.057948946952819824e-01,-3.090082705020904541e-01,-1.263385564088821411e-01,-4.962421953678131104e-02,-1.586303561925888062e-01,-4.040509760379791260e-01,-4.382149279117584229e-01,5.046882033348083496e-01,1.802275031805038452e-01,1.703291833400726318e-01,1.149871274828910828e-01,-7.640998065471649170e-02,-2.038530707359313965e-01,3.050200343132019043e-01,-1.204645261168479919e-01,2.209315309301018715e-03,4.889928102493286133e-01,2.312062084674835205e-01,2.636836171150207520e-01,-1.690141484141349792e-02,2.763999700546264648e-01,-3.320101797580718994e-01,3.390143215656280518e-01,4.834773764014244080e-02,-1.741294115781784058e-01,6.110314652323722839e-02,2.117380052804946899e-01,-5.188977345824241638e-03,-8.531709015369415283e-02,6.011263728141784668e-01,3.855038285255432129e-01,1.645749807357788086e-01,-2.796103656291961670e-01,1.999764889478683472e-01,1.329114735126495361e-01,-4.372963309288024902e-01,-4.753413498401641846e-01,-1.358640491962432861e-01,-9.507960081100463867e-02,-9.895960241556167603e-02,1.106677278876304626e-01,-4.727211594581604004e-02,-3.829438984394073486e-01,-2.865764498710632324e-01,3.742603957653045654e-01,5.806984007358551025e-02,-4.405088424682617188e-01,3.031564950942993164e-01
-2.535030841827392578e-01,-2.955763041973114014e-01,9.643296897411346436e-02,-3.365727066993713379e-01,-6.552328169345855713e-02,-1.571924388408660889e-01,-2.724069403484463692e-03,-1.846506446599960327e-01,-5.547478199005126953e-01,-3.018532097339630127e-01,2.036774158477783203e-01,-4.885682165622711182e-01,1.401030644774436951e-02,8.657330274581909180e-02,3.546166419982910156e-01,-1.175110936164855957e-01,3.216907680034637451e-01,3.413910865783691406e-01,1.705372780561447144e-01,-7.549961656332015991e-02,-2.366452217102050781e-01,-6.528003215789794922e-01,1.038825511932373047e-01,-2.916120886802673340e-01,4.049459099769592285e-01,-5.794395506381988525e-02,-3.593390583992004395e-01,1.780845671892166138e-01,1.379217803478240967e-01,3.958491086959838867e-01,4.888846874237060547e-01,3.749705553054809570e-01,9.101354330778121948e-02,2.949647307395935059e-01,1.816585958003997803e-01,3.213180899620056152e-01,2.838760018348693848e-01,2.942412197589874268e-01,-6.820549964904785156e-01,1.374508291482925415e-01,-4.186822474002838135e-02,1.247981861233711243e-01,-4.639457762241363525e-01,-3.069058954715728760e-01,6.271252781152725220e-02,4.929687678813934326e-01,1.661349236965179443e-01,-1.096585206687450409e-02,1.743798106908798218e-01,3.541906550526618958e-02
-2.199775278568267822e-01,-6.193045154213905334e-02,2.610691487789154053e-01,-1.809307336807250977e-01,-1.584176421165466309e-01,1.003109067678451538e-01,-2.444386184215545654e-01,6.860627979040145874e-02,-1.088126450777053833e-01,-1.001561507582664490e-01,-3.887104392051696777e-01,-2.779437601566314697e-01,1.495007276535034180e-01,-8.630206435918807983e-02,-7.614614069461822510e-02,-2.501692771911621094e-01,2.769427560269832611e-02,-7.820636779069900513e-02,-3.033386170864105225e-01,-2.871551215648651123e-01,2.796790003776550293e-01,1.889829635620117188e-01,-1.533295065164566040e-01,1.377660781145095825e-01,-1.017654966562986374e-02,-2.992309033870697021e-01,1.033834740519523621e-01,-9.464175999164581299e-02,4.698531031608581543e-01,2.721236944198608398e-01,-1.253038346767425537e-01,2.528567910194396973e-01,-3.103051185607910156e-01,1.678744107484817505e-01,-2.904978394508361816e-01,2.187627553939819336e-01,3.692101538181304932e-01,-3.551945388317108154e-01,-2.919829487800598145e-01,8.255258947610855103e-02,3.898990154266357422e-02,-2.249637246131896973e-01,-2.494082450866699219e-01,-1.900897324085235596e-01,2.541233003139495850e-01,2.228787541389465332e-01,-3.877985104918479919e-02,9.859509766101837158e-02,-3.840384185314178467e-01,-6.463439762592315674e-02
1.125523820519447327e-01,-2.348702847957611084e-01,5.459237471222877502e-02,8.464159071445465088e-02,-6.675120443105697632e-02,5.155819654464721680e-01,-2.715956568717956543e-01,4.806147515773773193e-01,1.388938128948211670e-01,3.314501047134399414e-02,-2.639291584491729736e-01,-2.618060111999511719e-01,-1.573242843151092529e-01,-1.010155901312828064e-01,2.316439598798751831e-01,-1.501116622239351273e-02,-1.007899641990661621e-02,1.408973783254623413e-01,3.729158341884613037e-01,1.390584856271743774e-01,1.009877920150756836e-01,4.758145287632942200e-02,-3.873694837093353271e-01,-1.155922263860702515e-01,9.382139146327972412e-02,-1.928560435771942139e-02,2.069172859191894531e-01,1.968185454607009888e-01,-1.571774929761886597e-01,2.794523835182189941e-01,1.579968333244323730e-01,-3.830005526542663574e-01,-7.292588055133819580e-02,1.249779164791107178e-01,3.179540932178497314e-01,-3.006344139575958252e-01,-1.473934203386306763e-01,-4.932831823825836182e-01,1.521930545568466187e-01,-1.655741780996322632e-01,-4.426819458603858948e-02,-1.404404938220977783e-01,-7.320825010538101196e-03,-2.355174869298934937e-01,-1.832456737756729126e-01,-1.058951690793037415e-01,-1.618245393037796021e-01,2.104420810937881470e-01,-6.228173971176147461e-01,-3.072362542152404785e-01
-6.231266260147094727e-02,-6.501206010580062866e-02,-1.693387925624847412e-01,1.398391425609588623e-01,-9.185270220041275024e-02,8.095966279506683350e-02,1.432313024997711182e-01,-2.512533962726593018e-01,1.142016798257827759e-01,2.478429824113845825e-01,-1.939979642629623413e-01,3.459164202213287354e-01,-1.473128944635391235e-01,1.156517639756202698e-01,-3.952389061450958252e-01,-2.900032699108123779e-01,1.224901303648948669e-01,6.492146849632263184e-02,-1.213994696736335754e-01,1.182695254683494568e-01,1.551027745008468628e-01,9.194050729274749756e-02,2.059767991304397583e-01,-8.508831262588500977e-02,1.357967108488082886e-01,-1.462914198637008667e-01,-3.310897648334503174e-01,-4.445220828056335449e-01,1.629979698918759823e-03,-1.310682743787765503e-01,-2.853445708751678467e-01,7.990070618689060211e-03,-1.638295203447341919e-01,-3.192190825939178467e-01,-3.710072636604309082e-01,2.437465190887451172e-01,-1.973720490932464600e-01,2.418862134218215942e-01,3.309038281440734863e-01,-2.869817018508911133e-01,-1.608369797468185425e-01,3.158203065395355225e-01,2.834666669368743896e-01,3.907483220100402832e-01,-1.383542418479919434e-01,-3.986370265483856201e-01,-3.786026313900947571e-02,4.956454336643218994e-01,2.552298307418823242e-01,3.010218776762485504e-02
-9.466724097728729248e-02,2.264197319746017456e-01,3.951038718223571777e-01,6.577192991971969604e-02,-1.791330426931381226e-01,1.075842827558517456e-01,-2.190251052379608154e-01,-1.358296424150466919e-01,1.720857620239257812e-02,1.941791474819183350e-01,-1.298530399799346924e-01,2.512598633766174316e-01,-4.499135613441467285e-01,5.735540390014648438e-01,-9.343048185110092163e-02,1.865590959787368774e-01,-5.462331175804138184e-01,2.865291833877563477e-01,1.994434148073196411e-01,1.516681462526321411e-01,-1.476029008626937866e-01,1.369094699621200562e-01,-5.065870881080627441e-01,2.662810385227203369e-01,1.353560239076614380e-01,-3.727635741233825684e-01,-4.662623703479766846e-01,4.559809714555740356e-02,-1.150794848799705505e-01,-1.799570620059967041e-01,1.052443981170654297e-01,-4.685508012771606445e-01,-2.645068056881427765e-02,3.453258424997329712e-02,2.742819674313068390e-02,-3.381655216217041016e-01,-6.110756099224090576e-02,-1.388520300388336182e-01,-1.089044287800788879e-01,-3.031290471553802490e-01,-2.238010913133621216e-01,1.711646467447280884e-01,4.038640297949314117e-03,-5.134938955307006836e-01,-1.028450429439544678e-01,-4.997262954711914062e-01,-4.429545998573303223e-01,2.593643963336944580e-01,-7.192109227180480957e-01,-1.627104580402374268e-01
2.514083981513977051e-01,-2.895786985754966736e-02,-9.456804394721984863e-02,3.573452234268188477e-01,1.872445940971374512e-01,-1.324533671140670776e-01,-1.392033845186233521e-01,-6.389392167329788208e-02,-2.888022065162658691e-01,-7.467134296894073486e-02,-2.896920442581176758e-01,1.278167814016342163e-01,-6.646025925874710083e-02,2.680534422397613525e-01,-1.262140721082687378e-01,9.877216070890426636e-02,8.016402274370193481e-02,3.259734213352203369e-01,1.069161370396614075e-01,-4.009946584701538086e-01,-9.590481407940387726e-03,-3.127973377704620361e-01,-2.804145812988281250e-01,9.154877811670303345e-02,6.996715068817138672e-02,-5.488078594207763672e-01,3.242357447743415833e-02,-2.564524114131927490e-01,2.844825573265552521e-02,-1.980967372655868530e-01,5.898968875408172607e-02,-3.367921113967895508e-01,1.910834759473800659e-01,-2.180929630994796753e-01,7.433369755744934082e-02,4.134068489074707031e-01,-2.652771472930908203e-01,4.221059009432792664e-02,-1.639968156814575195e-01,-1.258594244718551636e-01,-1.759517788887023926e-01,-3.639488220214843750e-01,8.287210017442703247e-02,-1.719549000263214111e-01,-2.235363423824310303e-01,-5.063273906707763672e-01,-3.891870081424713135e-01,8.863069862127304077e-02,-4.640873670578002930e-01,-3.242352604866027832e-01
-5.670647025108337402e-01,1.947674602270126343e-01,-5.580573156476020813e-02,-4.994122684001922607e-02,-2.735998332500457764e-01,-4.949062168598175049e-01,-3.404751792550086975e-02,1.896113306283950806e-01,-3.485873937606811523e-01,1.470002532005310059e-02,-2.487836480140686035e-01,7.609530538320541382e-02,-4.092807471752166748e-01,2.113349884748458862e-01,1.205016523599624634e-01,-6.132980808615684509e-02,1.036328896880149841e-01,-4.730696678161621094e-01,2.325325161218643188e-01,-1.492138653993606567e-01,1.570177078247070312e-01,3.142722249031066895e-01,-2.663239538669586182e-01,-2.991585135459899902e-01,-8.567472547292709351e-02,-2.751429080963134766e-01,5.582879483699798584e-02,-3.096466697752475739e-02,-7.568634301424026489e-02,-1.931097805500030518e-01,4.246911779046058655e-02,-1.353635787963867188e-01,-2.401243448257446289e-01,-1.294052693992853165e-02,-2.211215794086456299e-01,-7.727908343076705933e-02,-2.078910917043685913e-01,-2.971554696559906006e-01,-9.594152122735977173e-02,2.686538733541965485e-02,-4.608839005231857300e-02,1.726678460836410522e-01,1.352619826793670654e-01,-3.257893025875091553e-01,1.742668449878692627e-01,-4.889627993106842041e-01,-7.289610803127288818e-02,-1.795307248830795288e-01,2.525042295455932617e-01,-3.226343095302581787e-01
-1.936794817447662354e-01,-3.251234814524650574e-02,2.444465160369873047e-01,2.568729221820831299e-01,-2.803944051265716553e-01,1.299232840538024902e-01,-1.704406142234802246e-01,8.262148499488830566e-02,6.668907403945922852e-02,5.449087917804718018e-02,-2.746895253658294678e-01,-1.679465174674987793e-01,2.440237104892730713e-01,1.293775439262390137e-01,1.157291978597640991e-01,-3.990561887621879578e-02,-3.046165704727172852e-01,1.556257754564285278e-01,-3.470161855220794678e-01,7.660541683435440063e-03,-1.444729566574096680e-01,2.917680740356445312e-01,6.411255896091461182e-02,-5.861724615097045898e-01,1.052388995885848999e-01,-6.425410509109497070e-03,1.200046166777610779e-01,1.833349019289016724e-01,1.100049912929534912e-01,2.551516592502593994e-01,-2.252436429262161255e-02,1.728708297014236450e-01,-6.285790354013442993e-02,9.305530786514282227e-02,1.019308418035507202e-01,8.285270631313323975e-02,-3.293629363179206848e-02,2.384738773107528687e-01,2.726234197616577148e-01,-6.266443431377410889e-02,-9.861242026090621948e-03,-6.647696346044540405e-02,-3.535186648368835449e-01,-3.916141763329505920e-02,-1.432329565286636353e-01,-6.902094930410385132e-02,-3.239038586616516113e-02,-5.241775885224342346e-02,-2.972314953804016113e-01,-2.008908055722713470e-02
-9.094595909118652344e-02,-6.323585659265518188e-02,-4.260945320129394531e-01,1.493633240461349487e-01,-1.237319260835647583e-01,3.007234930992126465e-01,1.928231865167617798e-01,1.952718645334243774e-01,2.687205672264099121e-01,-7.745733857154846191e-02,-9.138512611389160156e-02,-2.029937654733657837e-01,-7.599376887083053589e-02,-2.664435207843780518e-01,-3.795521855354309082e-01,-3.580726683139801025e-02,1.861284524202346802e-01,-2.957495674490928650e-02,-1.515182703733444214e-01,1.203595697879791260e-01,1.376392692327499390e-01,6.588832288980484009e-02,-2.210003286600112915e-01,-4.435531795024871826e-01,-5.528272390365600586e-01,6.206197664141654968e-02,-6.791847199201583862e-02,-1.449693366885185242e-02,-3.010989399626851082e-03,1.318535357713699341e-01,-1.886928081512451172e-01,-4.696598742157220840e-03,7.250445336103439331e-02,-1.385849118232727051e-01,-4.481628537178039551e-01,-5.124099850654602051e-01,2.287824451923370361e-01,8.986696600914001465e-02,4.230767190456390381e-01,-2.585652768611907959e-01,-1.429494470357894897e-01,3.062349259853363037e-01,1.361286640167236328e-01,5.027624368667602539e-01,4.192021116614341736e-02,2.900025993585586548e-02,-9.301062673330307007e-02,1.098091825842857361e-01,-1.469973623752593994e-01,1.161637622863054276e-02
-1.601428985595703125e-01,-6.776322424411773682e-02,-1.060432009398937225e-02,-6.377252936363220215e-01,-2.775217294692993164e-01,-1.718061864376068115e-01,1.174736693501472473e-01,-1.369879543781280518e-01,-5.166882276535034180e-01,-2.711073458194732666e-01,-1.640883535146713257e-01,-4.699468612670898438e-02,-1.162326112389564514e-01,7.715087383985519409e-02,-1.378836035728454590e-01,2.450377307832241058e-02,1.853034496307373047e-01,-3.721666634082794189e-01,2.811989001929759979e-02,-7.749984264373779297e-01,-2.428653538227081299e-01,-3.345152437686920166e-01,-6.876553408801555634e-03,-5.470762848854064941e-01,-8.876559138298034668e-02,-2.300789654254913330e-01,1.321227103471755981e-01,-2.654495239257812500e-01,2.513818144798278809e-01,1.124859899282455444e-01,-3.626693785190582275e-01,3.691907823085784912e-01,-3.712433278560638428e-01,1.445958167314529419e-01,-1.749340891838073730e-01,-4.140962660312652588e-01,2.924664616584777832e-01,1.574316769838333130e-01,-4.532359540462493896e-01,5.401059985160827637e-02,4.690545797348022461e-02,-1.255541294813156128e-01,-5.863537192344665527e-01,3.581803739070892334e-01,1.597181111574172974e-01,-2.598511427640914917e-02,2.865064740180969238e-01,1.233375966548919678e-01,-3.011652231216430664e-01,2.796049714088439941e-01
-1.520829051733016968e-01,-5.782626569271087646e-02,-3.738760948181152344e-01,5.975594744086265564e-02,1.227160468697547913e-01,3.096132874488830566e-01,6.368928402662277222e-02,2.646692395210266113e-01,2.703563570976257324e-01,-2.651320397853851318e-01,-2.811757922172546387e-01,6.608192622661590576e-02,1.680538505315780640e-01,-3.022173047065734863e-01,-1.598205417394638062e-01,1.558371037244796753e-01,-2.450797408819198608e-01,-1.192971095442771912e-01,-1.538569927215576172e-01,1.078633293509483337e-01,-3.850751221179962158e-01,-1.638293564319610596e-01,-2.232790291309356689e-01,7.908271998167037964e-02,-4.249020218849182129e-01,-5.668588727712631226e-02,6.279560178518295288e-02,1.369618996977806091e-02,-2.159399241209030151e-01,4.396144673228263855e-02,-3.864542245864868164e-01,-9.834834933280944824e-02,-5.400896668434143066e-01,1.522335559129714966e-01,1.178902313113212585e-01,6.037902832031250000e-02,-1.910617947578430176e-01,-3.008301556110382080e-01,-1.015556082129478455e-01,2.132686078548431396e-01,-2.820217013359069824e-01,-4.571320414543151855e-01,-5.093245506286621094e-01,3.662733435630798340e-01,1.511497199535369873e-01,1.841470412909984589e-02,-7.548615336418151855e-02,-9.163600206375122070e-02,-1.041947752237319946e-01,-9.531893767416477203e-03
-7.288832962512969971e-02,-5.984236001968383789e-01,-1.397563219070434570e-01,2.499588727951049805e-01,-1.798829138278961182e-01,-2.034478634595870972e-01,-1.758014857769012451e-01,7.556629925966262817e-02,-2.081500887870788574e-01,2.597176134586334229e-01,-3.941291570663452148e-01,4.356642663478851318e-01,1.545028090476989746e-01,-2.251317650079727173e-01,-2.722318768501281738e-01,1.884211897850036621e-01,-2.650542259216308594e-01,-1.875200271606445312e-01,-2.320690266788005829e-02,3.043980300426483154e-01,-1.351101398468017578e-01,-2.612727880477905273e-01,1.423699706792831421e-01,-5.707832053303718567e-02,5.416662432253360748e-03,-6.298403721302747726e-03,3.936444520950317383e-01,-5.229247212409973145e-01,-3.468240052461624146e-02,-3.090621531009674072e-01,-2.560113966464996338e-01,-9.762614965438842773e-02,-3.159445822238922119e-01,-2.508653700351715088e-01,5.772730335593223572e-02,-1.341870129108428955e-01,2.054330557584762573e-01,1.797058433294296265e-02,-1.937426477670669556e-01,-3.475962951779365540e-02,1.292237043380737305e-01,-7.680620253086090088e-02,1.880033314228057861e-02,3.503191173076629639e-01,-4.651888906955718994e-01,-2.781733870506286621e-01,6.922009587287902832e-02,1.886719372123479843e-03,3.666369942948222160e-03,3.111162781715393066e-01
-3.488728702068328857e-01,-3.641948476433753967e-02,-1.371597796678543091e-01,-1.381063759326934814e-01,-3.721113204956054688e-01,-3.159618675708770752e-01,-4.159490168094635010e-01,6.855966150760650635e-02,-3.881549537181854248e-01,-2.264050245285034180e-01,-1.686909981071949005e-02,-2.785885035991668701e-01,5.795244872570037842e-02,-1.409287005662918091e-01,3.172947093844413757e-02,3.293770551681518555e-02,9.468498826026916504e-02,-5.116418004035949707e-01,-1.429780013859272003e-02,-3.877391517162322998e-01,1.104742884635925293e-01,-5.734503269195556641e-01,2.652254402637481689e-01,1.503261644393205643e-02,4.629819393157958984e-01,-3.163061738014221191e-01,1.352194696664810181e-01,3.855090588331222534e-02,1.310190558433532715e-01,-1.726665943861007690e-01,1.929339766502380371e-01,2.386245131492614746e-01,-7.574846595525741577e-02,1.732249706983566284e-01,-1.492122411727905273e-01,-4.122802615165710449e-02,3.096313476562500000e-01,2.648037075996398926e-01,-3.470810651779174805e-01,-1.498103886842727661e-01,-4.088211655616760254e-01,-2.787902653217315674e-01,-1.595537811517715454e-01,9.156096726655960083e-02,-3.731719851493835449e-01,4.455948173999786377e-01,7.798068970441818237e-02,-1.412559300661087036e-01,1.899787038564682007e-02,2.751580178737640381e-01
1.559785753488540649e-01,4.457138106226921082e-02,1.126519590616226196e-01,-1.798482239246368408e-02,-4.879362508654594421e-02,-8.305802941322326660e-02,5.617199093103408813e-02,1.863560825586318970e-02,2.136548608541488647e-01,-1.150341108441352844e-01,-9.340336173772811890e-02,-4.132866859436035156e-01,-1.656874716281890869e-01,2.645723335444927216e-02,-1.365341991186141968e-01,-3.017741814255714417e-02,-1.838746815919876099e-01,9.864998050034046173e-03,-2.982518374919891357e-01,1.232700049877166748e-01,-9.931239485740661621e-02,-1.456485688686370850e-01,-2.921989262104034424e-01,3.342133760452270508e-01,-2.170016318559646606e-01,-3.235742151737213135e-01,-5.836238265037536621e-01,-4.902291297912597656e-01,-1.363286077976226807e-01,-2.057342603802680969e-02,1.713571697473526001e-02,-8.124816417694091797e-02,-4.436190426349639893e-01,-2.751466929912567139e-01,-3.363391757011413574e-01,-3.759939372539520264e-01,-2.144198268651962280e-01,-1.174597367644309998e-01,1.782359778881072998e-01,-4.339419305324554443e-01,-8.964890986680984497e-02,3.560550212860107422e-01,1.162333860993385315e-01,-2.239774018526077271e-01,-2.883522510528564453e-01,-4.361774623394012451e-01,2.886855900287628174e-01,5.867532491683959961e-01,-2.622521817684173584e-01,-9.421627968549728394e-03
6.471531838178634644e-02,1.162860989570617676e-01,3.028098344802856445e-01,-1.158675476908683777e-01,-4.103456810116767883e-02,-1.306151747703552246e-01,5.072238445281982422e-01,-3.815961480140686035e-01,-3.572083115577697754e-01,-7.676282525062561035e-01,5.295593664050102234e-02,-3.146501481533050537e-01,-2.739717364311218262e-01,1.865108460187911987e-01,6.712269037961959839e-02,-3.603084087371826172e-01,-2.828506529331207275e-01,3.073521256446838379e-01,-2.730768918991088867e-02,5.737632140517234802e-02,1.413044482469558716e-01,-2.501226365566253662e-01,-1.317930072546005249e-01,2.221423238515853882e-01,1.386125087738037109e-01,7.444056123495101929e-02,-1.271425187587738037e-02,6.019043549895286560e-02,1.062504500150680542e-01,1.951758712530136108e-01,6.576224416494369507e-02,-1.151692941784858704e-01,-3.333854302763938904e-02,5.140582323074340820e-01,1.425761282444000244e-01,3.714288026094436646e-02,3.588848747313022614e-03,-3.523272275924682617e-01,-3.089438080787658691e-01,5.223900824785232544e-02,1.450931131839752197e-01,1.832945942878723145e-01,-3.066516853868961334e-02,-4.745579361915588379e-01,2.080016732215881348e-01,-7.644002325832843781e-03,-4.743831977248191833e-02,-2.276667058467864990e-01,-2.498858869075775146e-01,-3.790521025657653809e-01
-2.112208902835845947e-01,1.040922030806541443e-01,-2.932033538818359375e-01,3.543635010719299316e-01,-3.819068968296051025e-01,-3.002928793430328369e-01,-4.409213066101074219e-01,-9.422681480646133423e-02,7.438132911920547485e-02,-1.083810925483703613e-01,7.854192703962326050e-02,-1.263035237789154053e-01,3.138926625251770020e-01,3.827081918716430664e-01,3.962012529373168945e-01,-5.601519346237182617e-01,-1.641616374254226685e-01,-3.232140541076660156e-01,-3.028983771800994873e-01,-9.406532347202301025e-02,-1.364852041006088257e-01,1.906661316752433777e-02,-2.490667849779129028e-01,3.439548611640930176e-01,2.759501338005065918e-01,1.324176937341690063e-01,-1.777521073818206787e-01,-1.025996133685112000e-01,1.685688942670822144e-01,-1.861906796693801880e-01,3.876008093357086182e-02,-5.005660653114318848e-02,-3.857347071170806885e-01,4.044480323791503906e-01,3.754894733428955078e-01,2.995763123035430908e-01,4.532251972705125809e-03,6.469416022300720215e-01,3.295228481292724609e-01,-7.528185099363327026e-02,-2.049268782138824463e-01,-1.636566072702407837e-01,-4.504356980323791504e-01,2.479343209415674210e-03,-2.789261043071746826e-01,2.638200521469116211e-01,2.645248472690582275e-01,4.132210016250610352e-01,5.178307890892028809e-01,2.786172330379486084e-01
1.443654298782348633e-02,-3.073310852050781250e-02,-5.265650153160095215e-02,-6.577247381210327148e-02,-2.851877510547637939e-01,2.938579618930816650e-01,-1.641135811805725098e-01,3.030992150306701660e-01,2.918357849121093750e-01,8.837014436721801758e-03,2.606617808341979980e-01,8.202853798866271973e-02,5.521884933114051819e-02,2.219554781913757324e-02,-1.363615542650222778e-01,-3.948889374732971191e-01,-1.055145710706710815e-01,-6.790923476219177246e-01,-3.686771392822265625e-01,1.583922207355499268e-01,1.807297915220260620e-01,4.256954416632652283e-02,2.054746001958847046e-01,-4.842934384942054749e-02,-6.899973750114440918e-01,-3.343936800956726074e-01,1.160528808832168579e-01,2.887649536132812500e-01,-1.428999602794647217e-01,-3.388815745711326599e-02,-1.984892413020133972e-02,-3.669348955154418945e-01,3.665338158607482910e-01,-1.270309090614318848e-01,2.854078710079193115e-01,-1.247435212135314941e-01,-2.641197144985198975e-01,2.287885248661041260e-01,9.072767943143844604e-02,-2.270743623375892639e-02,-4.510554298758506775e-02,2.386772483587265015e-01,2.863279879093170166e-01,-1.765089035034179688e-01,1.033156737685203552e-01,1.761546172201633453e-02,1.416291892528533936e-01,-2.143048495054244995e-01,1.806778162717819214e-01,-3.273106366395950317e-02
-1.655018925666809082e-01,-2.353480309247970581e-01,1.785230636596679688e-01,-4.376746118068695068e-01,5.133139342069625854e-02,8.126522600650787354e-02,-1.631667166948318481e-01,-5.206854268908500671e-02,-2.000243216753005981e-01,-2.856604754924774170e-01,1.344005763530731201e-01,2.985720038414001465e-01,-1.745618283748626709e-01,8.836665749549865723e-02,4.998187422752380371e-01,-4.702199399471282959e-01,2.109103202819824219e-01,-3.510858416557312012e-01,-2.048822939395904541e-01,-1.950606703758239746e-01,5.727410898543894291e-04,-5.242080613970756531e-02,1.767216473817825317e-01,8.656190335750579834e-02,-1.540063917636871338e-01,5.797101557254791260e-02,-2.865040861070156097e-02,2.323252521455287933e-02,1.796650737524032593e-01,9.407366067171096802e-02,3.938582167029380798e-02,-2.145240306854248047e-01,7.303528487682342529e-02,3.711007162928581238e-02,-7.534299045801162720e-02,4.249253496527671814e-02,1.314050853252410889e-01,2.151333689689636230e-01,2.852652370929718018e-01,1.947084814310073853e-01,6.137980148196220398e-02,-2.750304341316223145e-01,7.434596121311187744e-02,1.185471192002296448e-01,9.139796346426010132e-02,2.148836851119995117e-01,-2.371986657381057739e-01,1.213043928146362305e-02,2.431881427764892578e-01,1.205736026167869568e-01
3.401508331298828125e-01,2.656548321247100830e-01,3.414545953273773193e-01,-2.311052521690726280e-03,1.242051497101783752e-01,-4.254657626152038574e-01,1.538766920566558838e-01,-4.898142442107200623e-02,-1.217418983578681946e-01,-4.073816239833831787e-01,-1.570634543895721436e-01,-1.544960737228393555e-01,-1.557247191667556763e-01,5.484594106674194336e-01,3.145216107368469238e-01,1.315731853246688843e-01,-1.103509888052940369e-01,2.064912319183349609e-01,8.496786653995513916e-02,-1.384043991565704346e-01,-5.634952187538146973e-01,8.034989237785339355e-02,-3.297492861747741699e-01,1.605072319507598877e-01,3.862510621547698975e-02,-3.942868113517761230e-01,-1.717412173748016357e-01,-1.104123666882514954e-01,3.481934368610382080e-01,1.688900031149387360e-02,8.068250119686126709e-02,-5.693604350090026855e-01,-2.450739294290542603e-01,5.947387591004371643e-02,1.219117864966392517e-01,-2.275554686784744263e-01,-2.589444816112518311e-01,-1.272005587816238403e-01,-2.464834600687026978e-01,-2.665909230709075928e-01,-2.076939344406127930e-01,-6.396267563104629517e-02,-2.741816639900207520e-01,-1.660835556685924530e-02,-1.755189746618270874e-01,9.298238903284072876e-02,-1.302118748426437378e-01,3.226847052574157715e-01,1.194656938314437866e-01,-1.624365597963333130e-01
-2.489156126976013184e-01,1.172724738717079163e-01,-2.531863749027252197e-01,-2.641024813055992126e-02,-2.918739616870880127e-01,1.507903039455413818e-01,-2.723673358559608459e-02,1.272898316383361816e-01,-3.572337701916694641e-02,-1.698267757892608643e-01,1.500262320041656494e-02,3.253483474254608154e-01,-1.046118363738059998e-01,8.551198244094848633e-02,1.978617012500762939e-01,-3.694653511047363281e-01,-1.177494823932647705e-01,-6.005663275718688965e-01,-2.900342047214508057e-01,3.620102405548095703e-01,-1.267347931861877441e-01,-2.573048174381256104e-01,2.161305397748947144e-01,1.778979003429412842e-01,-5.683249831199645996e-01,4.407137334346771240e-01,-2.380503416061401367e-01,-1.613754481077194214e-01,-9.216179698705673218e-02,-1.392928063869476318e-01,-2.425549030303955078e-01,2.365936636924743652e-01,-1.297888308763504028e-01,-1.444199681282043457e-01,1.557811349630355835e-01,5.571880564093589783e-02,-3.902817964553833008e-01,1.121071279048919678e-01,-2.677158080041408539e-02,-5.937584862112998962e-02,4.360283613204956055e-01,3.277385979890823364e-02,-1.359801143407821655e-01,8.058945834636688232e-02,1.131253018975257874e-01,3.205470740795135498e-01,-9.349958971142768860e-03,-1.580262631177902222e-01,3.457073867321014404e-02,2.379962652921676636e-01
1.516051590442657471e-01,7.655712962150573730e-02,6.831137090921401978e-02,-1.242573410272598267e-01,9.824328869581222534e-02,-1.516481488943099976e-01,2.729285955429077148e-01,-5.441865324974060059e-01,-3.504745662212371826e-01,2.337000817060470581e-01,4.887762665748596191e-01,-1.074030101299285889e-01,-1.316453665494918823e-01,-1.855387911200523376e-02,-4.818797484040260315e-02,4.126488566398620605e-01,-1.257019042968750000e-01,4.126222133636474609e-01,4.219952523708343506e-01,2.189461886882781982e-02,1.125267744064331055e-01,-2.137274295091629028e-01,-4.499020427465438843e-02,1.109687983989715576e-01,-1.080197766423225403e-01,-1.987316310405731201e-01,-4.846813678741455078e-01,1.111708357930183411e-01,-2.662627398967742920e-01,1.412562578916549683e-01,2.300667576491832733e-02,1.403523683547973633e-01,2.829005718231201172e-01,1.540023088455200195e-01,-1.237456873059272766e-01,-4.800586402416229248e-02,1.402645558118820190e-01,8.405048400163650513e-02,-1.309647411108016968e-01,1.981108635663986206e-01,2.429861109703779221e-03,2.114243954420089722e-01,3.336732387542724609e-01,-1.848094165325164795e-02,2.237942256033420563e-02,-2.032266706228256226e-01,-2.335581630468368530e-01,2.561192810535430908e-01,-1.540545672178268433e-01,-3.945346176624298096e-01
-4.839377477765083313e-02,-1.730340421199798584e-01,9.002933651208877563e-02,3.175106346607208252e-01,3.114790022373199463e-01,-6.262022852897644043e-01,7.296399772167205811e-02,-4.070381224155426025e-01,-6.316410750150680542e-02,-2.277206331491470337e-01,-2.449981868267059326e-01,-1.414189785718917847e-01,-2.831347882747650146e-01,1.477551162242889404e-01,-5.509219169616699219e-01,-1.856399476528167725e-01,-4.682559967041015625e-01,4.356277287006378174e-01,2.022652141749858856e-02,-1.584277153015136719e-01,4.692006856203079224e-02,-4.629021976143121719e-03,-5.263100862503051758e-01,-6.796424835920333862e-02,-3.251166343688964844e-01,-6.373821943998336792e-02,-2.116399407386779785e-01,-1.131490617990493774e-01,-2.609952390193939209e-01,1.223877593874931335e-01,1.191725358366966248e-01,8.658998459577560425e-02,-3.245631456375122070e-01,-2.138014584779739380e-01,-2.333157882094383240e-02,2.347965836524963379e-01,-4.174284040927886963e-01,-1.781568229198455811e-01,-1.728386431932449341e-01,-5.327281951904296875e-01,5.884621292352676392e-02,2.740531563758850098e-01,1.335788071155548096e-01,-4.771957695484161377e-01,-9.264088422060012817e-02,-1.519812196493148804e-01,-3.077984154224395752e-01,1.910354048013687134e-01,-4.532764256000518799e-01,-1.625072360038757324e-01
1.050409302115440369e-01,-3.188112676143646240e-01,-2.182424664497375488e-01,-3.054105043411254883e-01,-3.577666357159614563e-02,9.385183453559875488e-03,-7.230504415929317474e-03,-1.069736108183860779e-02,-2.919076681137084961e-01,-2.370600998401641846e-01,2.297849655151367188e-01,1.439157873392105103e-01,-7.845754176378250122e-02,-3.072333633899688721e-01,2.876455783843994141e-01,-5.806545540690422058e-02,8.006191253662109375e-02,-2.651373147964477539e-01,-6.385040283203125000e-01,1.908196210861206055e-01,1.711013466119766235e-01,1.551773548126220703e-01,9.902104735374450684e-02,-4.831650480628013611e-02,-1.198871880769729614e-01,-1.012746393680572510e-01,6.300166994333267212e-02,2.785581052303314209e-01,2.118532806634902954e-01,1.421021223068237305e-01,5.081506073474884033e-02,2.587591484189033508e-02,2.639003470540046692e-02,-2.629595994949340820e-01,-1.504390388727188110e-01,-1.735603660345077515e-01,1.597650349140167236e-01,-8.950775116682052612e-02,1.842406392097473145e-01,1.690450757741928101e-01,-1.238045915961265564e-01,-1.339408010244369507e-01,-3.063549846410751343e-02,-3.560877740383148193e-01,2.543068826198577881e-01,1.702309697866439819e-01,2.458621747791767120e-02,-1.608584523200988770e-01,-7.434604167938232422e-01,-5.991037487983703613e-01
-3.569085299968719482e-01,1.151800900697708130e-01,-1.313460022211074829e-01,1.412620991468429565e-01,-9.094301611185073853e-02,6.175335049629211426e-01,2.508280873298645020e-01,-1.671877689659595490e-02,-1.632867753505706787e-01,1.762355118989944458e-01,-4.368278384208679199e-01,8.464117534458637238e-03,3.325315937399864197e-02,-1.069290563464164734e-01,6.936618685722351074e-02,1.868346519768238068e-02,-1.120732203125953674e-01,-2.391743361949920654e-01,-1.008796468377113342e-01,3.566064685583114624e-02,-5.119800567626953125e-01,-1.000767648220062256e-01,-2.465676330029964447e-02,2.011148929595947266e-01,7.476020604372024536e-03,8.028454147279262543e-03,-8.946917057037353516e-01,-5.115985125303268433e-02,-2.611047402024269104e-02,-2.594155967235565186e-01,4.094763845205307007e-02,-1.570510328747332096e-03,-1.512333303689956665e-01,-2.435335665941238403e-01,1.566214561462402344e-01,6.018513813614845276e-02,-3.328624069690704346e-01,-2.687106132507324219e-01,-3.371877074241638184e-01,4.036888480186462402e-01,-5.022690296173095703e-01,-2.079378627240657806e-02,1.071099266409873962e-01,-1.577802300453186035e-01,9.593403339385986328e-02,2.379891127347946167e-01,7.522323727607727051e-02,-7.684630155563354492e-02,-2.936412692070007324e-01,9.390697628259658813e-02
4.822403192520141602e-02,1.872017830610275269e-01,5.748442932963371277e-02,-6.747644394636154175e-02,-1.763905584812164307e-01,2.150941491127014160e-01,-2.066205739974975586e-01,1.346838325262069702e-01,-2.340019680559635162e-02,1.080483868718147278e-01,-3.404091298580169678e-02,-2.036646455526351929e-01,-1.942828893661499023e-01,2.082074731588363647e-01,3.712813258171081543e-01,-2.951600253582000732e-01,8.178970217704772949e-02,-1.841614693403244019e-01,-4.560377001762390137e-01,-1.246900409460067749e-01,2.951140142977237701e-02,-8.508178591728210449e-02,-2.529197633266448975e-01,-2.434297092258930206e-02,-3.955034911632537842e-01,4.061903357505798340e-01,1.544072628021240234e-01,1.962924143299460411e-03,3.543259799480438232e-01,2.876122295856475830e-01,2.726975679397583008e-01,2.066622972488403320e-01,-3.980334848165512085e-03,-2.546637058258056641e-01,8.647434413433074951e-02,2.682582736015319824e-01,-9.662920981645584106e-02,2.885797619819641113e-01,-2.224711328744888306e-01,-3.834965452551841736e-02,2.972048521041870117e-01,-1.724432855844497681e-01,-1.680769622325897217e-01,6.858308613300323486e-02,-9.172861278057098389e-02,1.730592846870422363e-01,7.437380263581871986e-04,-1.546454727649688721e-01,-2.112641334533691406e-01,-2.374320030212402344e-01
-2.442518472671508789e-01,-3.060439825057983398e-01,-3.660884499549865723e-01,8.608665317296981812e-02,-7.547328621149063110e-02,3.763421177864074707e-01,-6.152682751417160034e-02,-2.214534729719161987e-01,4.341896474361419678e-01,1.555456370115280151e-01,1.423636376857757568e-01,-5.374652519822120667e-02,-3.533873856067657471e-01,4.809748753905296326e-02,3.429179489612579346e-01,-9.318459779024124146e-02,-5.273751020431518555e-01,-3.174743354320526123e-01,-3.934465348720550537e-01,-1.391072571277618408e-01,-1.252035051584243774e-01,-2.973397970199584961e-01,-4.482898861169815063e-02,-4.215741753578186035e-01,-3.124333024024963379e-01,2.972408533096313477e-01,6.994602084159851074e-02,1.109010074287652969e-02,1.265420466661453247e-01,8.744045346975326538e-02,-2.898389995098114014e-01,8.718337863683700562e-02,-3.417795524001121521e-02,1.750098615884780884e-01,-2.368566244840621948e-01,-3.835892379283905029e-01,-2.898103594779968262e-01,-3.509165048599243164e-01,-3.074712455272674561e-01,-2.029320411384105682e-02,-1.056682392954826355e-01,9.795249439775943756e-03,1.379076857119798660e-02,-2.178723961114883423e-01,-2.468446791172027588e-01,3.088913559913635254e-01,9.189113974571228027e-02,6.644535809755325317e-02,-2.328174412250518799e-01,1.823340952396392822e-01
-2.667347788810729980e-01,-9.588601440191268921e-02,1.344328932464122772e-02,-2.317863106727600098e-01,-2.590412795543670654e-01,5.853758752346038818e-02,5.614666733890771866e-03,2.818778157234191895e-01,-9.410099685192108154e-02,-2.256516069173812866e-01,1.348163280636072159e-02,-5.443927645683288574e-02,-1.001077890396118164e-01,7.531897723674774170e-02,-1.845077127218246460e-01,1.774281561374664307e-01,1.370120346546173096e-01,-6.840585917234420776e-02,-3.417702019214630127e-01,-2.407272607088088989e-01,2.707755863666534424e-01,3.432909846305847168e-01,2.159489840269088745e-01,-1.215434968471527100e-01,5.172920599579811096e-02,-2.223087549209594727e-01,-2.189524322748184204e-01,-1.883006244897842407e-01,-4.278216660022735596e-01,3.733479231595993042e-02,6.238204613327980042e-02,-7.552996277809143066e-02,1.455186158418655396e-01,-1.526827365159988403e-01,-1.571865752339363098e-02,-6.158768385648727417e-02,-7.053666561841964722e-02,-1.174073070287704468e-01,9.404657781124114990e-02,4.959935694932937622e-02,1.022400334477424622e-02,2.136332988739013672e-01,4.609486833214759827e-02,-2.961042523384094238e-01,3.152972757816314697e-01,-5.895590782165527344e-01,-2.107881605625152588e-01,-3.623094037175178528e-02,-2.468111217021942139e-01,1.647585183382034302e-01
