-5.680093541741371155e-02
-4.044366255402565002e-02
-2.629041373729705811e-01
-2.704724967479705811e-01
-6.125154718756675720e-02
-2.976423501968383789e-02
-4.257702734321355820e-03
-1.120353043079376221e-01
1.053279414772987366e-01
-4.302173107862472534e-02
-1.187446936964988708e-01
-5.935877189040184021e-02
-7.783561944961547852e-02
8.056244999170303345e-02
-1.473582386970520020e-01
6.977182626724243164e-02
-1.487351357936859131e-01
-1.873230040073394775e-01
-2.671743631362915039e-01
-6.435836106538772583e-02
-2.803370356559753418e-01
3.208264708518981934e-01
-7.555779814720153809e-02
-1.630525290966033936e-01
-1.194773837924003601e-01
1.410342603921890259e-01
4.782798886299133301e-01
3.077063560485839844e-01
-8.395168185234069824e-02
-3.915732502937316895e-01
-1.033368185162544250e-01
-1.789712607860565186e-01
1.354976594448089600e-01
-4.301991760730743408e-01
-2.276774942874908447e-01
-1.466353982686996460e-01
-8.931475877761840820e-02
-2.298625372350215912e-02
-4.598137363791465759e-02
-9.923518449068069458e-02
5.207168683409690857e-02
-1.300656646490097046e-01
-2.037897706031799316e-01
9.435416758060455322e-02
2.007858753204345703e-01
-1.727294772863388062e-01
-7.880543172359466553e-02
3.150113299489021301e-02
8.645319938659667969e-02
2.367734163999557495e-01
