-4.350652918219566345e-02,1.772803366184234619e-01,-1.071822480298578739e-03,8.038928359746932983e-02,1.291466206312179565e-01,-8.499538525938987732e-03,-2.213608473539352417e-01,-1.737146973609924316e-01,-3.640007972717285156e-02,-2.079182416200637817e-01,-2.019803524017333984e-01,-1.653097271919250488e-01,-3.406734466552734375e-01,7.160275429487228394e-02,-2.161097526550292969e-01,-3.880335688591003418e-01,-9.915622882544994354e-03,2.035370916128158569e-01,-4.262688755989074707e-01,2.156407386064529419e-01,-1.331902295351028442e-01,2.570582032203674316e-01,4.541898518800735474e-02,-5.884478613734245300e-02,1.747852563858032227e-01,2.452591806650161743e-01,-1.240652874112129211e-01,-1.105969026684761047e-01,2.361622750759124756e-01,-2.375830560922622681e-01,8.375065773725509644e-02,-1.881053894758224487e-01,-1.725473403930664062e-01,-6.527584046125411987e-02,2.922203242778778076e-01,-2.014792859554290771e-01,-1.064763590693473816e-01,9.204626828432083130e-02,-1.222603209316730499e-02,-3.771994113922119141e-01,1.827003210783004761e-01,1.256833225488662720e-01,-3.254979848861694336e-01,1.580103933811187744e-01,-1.064798757433891296e-01,2.279959022998809814e-01,1.994774788618087769e-01,1.884092688560485840e-01,2.257204055786132812e-01,3.308207094669342041e-01
2.965329587459564209e-01,1.213269308209419250e-01,-2.969357669353485107e-01,-2.028847038745880127e-01,-1.703381836414337158e-01,-5.083091557025909424e-02,1.937001943588256836e-01,-6.059244275093078613e-02,3.531104326248168945e-01,-1.545688789337873459e-02,-3.225792944431304932e-02,2.437859475612640381e-01,-6.288371235132217407e-02,-1.259832084178924561e-01,-5.396294966340065002e-02,-8.676049858331680298e-02,-3.280338346958160400e-01,-1.817949116230010986e-01,1.876941025257110596e-01,-4.026446938514709473e-01,1.066968888044357300e-01,-4.434820637106895447e-02,3.527016937732696533e-01,-4.567438364028930664e-02,1.226572915911674500e-01,2.792557477951049805e-01,3.257286846637725830e-01,2.515529990196228027e-01,9.177841991186141968e-02,-4.288869202136993408e-01,-2.564892470836639404e-01,8.261197805404663086e-02,-3.191653788089752197e-01,-5.706935748457908630e-02,-2.010268121957778931e-01,-2.048141360282897949e-01,5.957961082458496094e-02,2.130673229694366455e-01,-2.661063671112060547e-01,-5.472359433770179749e-02,-2.571069821715354919e-02,1.486772000789642334e-01,-6.020978838205337524e-02,-3.450621366500854492e-01,1.458024829626083374e-01,1.955043226480484009e-01,9.930641949176788330e-02,1.764747053384780884e-01,-4.481611773371696472e-02,2.892425656318664551e-01
-4.236590117216110229e-02,1.711079031229019165e-01,1.946029812097549438e-01,-6.850036233663558960e-02,7.441844791173934937e-02,1.440028846263885498e-01,3.725905716419219971e-01,2.753876745700836182e-01,1.491099148988723755e-01,-7.605929672718048096e-02,4.836719632148742676e-01,3.801855146884918213e-01,1.052714139223098755e-01,-4.845320247113704681e-03,9.091833978891372681e-02,1.649831086397171021e-01,-2.927866578102111816e-01,-2.571515440940856934e-01,3.851157724857330322e-01,-2.030375599861145020e-01,6.195979565382003784e-02,8.329020440578460693e-02,3.755729645490646362e-02,-3.592938557267189026e-02,1.397818028926849365e-01,-2.639178633689880371e-01,1.631928533315658569e-01,-1.562169194221496582e-01,2.255753129720687866e-01,-1.128799170255661011e-01,6.518239527940750122e-02,1.374532282352447510e-01,-3.484518527984619141e-01,-1.924144662916660309e-02,-2.759297490119934082e-01,1.476428657770156860e-01,-3.007621467113494873e-01,-5.228782445192337036e-02,-1.709400117397308350e-01,1.515126693993806839e-02,-1.038956046104431152e-01,2.324124127626419067e-01,4.159155189990997314e-01,-8.906897157430648804e-02,8.450006693601608276e-02,5.343665368854999542e-03,1.420008689165115356e-01,-1.604819595813751221e-01,2.222473025321960449e-01,-1.691868901252746582e-02
1.415690928697586060e-01,2.645486034452915192e-02,-1.762480437755584717e-01,-3.278816342353820801e-01,-1.528435647487640381e-01,1.892469450831413269e-02,-1.243667080998420715e-01,-8.012299984693527222e-02,8.587605319917201996e-03,-1.038496866822242737e-01,2.001785933971405029e-01,-3.139922767877578735e-02,-2.132115513086318970e-01,-1.423143595457077026e-01,-7.140150666236877441e-02,-1.324468255043029785e-01,1.309354752302169800e-01,-1.746916919946670532e-01,1.601963192224502563e-01,-8.400267362594604492e-02,1.291558444499969482e-01,-7.546444982290267944e-02,3.162727132439613342e-02,-3.288209438323974609e-01,5.339880287647247314e-02,-1.775474846363067627e-01,-4.026613533496856689e-01,-2.450959980487823486e-01,3.368411958217620850e-01,-1.995244473218917847e-01,-8.952066302299499512e-02,-1.228041946887969971e-01,-1.189184784889221191e-01,-2.584939599037170410e-01,-8.016207255423069000e-03,1.422873884439468384e-01,-1.826214790344238281e-01,6.854503601789474487e-02,2.285959757864475250e-02,2.435878664255142212e-01,-4.706258326768875122e-02,-1.893201172351837158e-01,-4.823072254657745361e-02,4.688792675733566284e-02,-6.816325336694717407e-02,1.193384379148483276e-01,-2.543253079056739807e-02,2.311409711837768555e-01,-2.841950766742229462e-02,-1.391701214015483856e-02
1.077226027846336365e-01,-9.333934634923934937e-02,-1.639389246702194214e-02,4.948639497160911560e-02,8.086860179901123047e-02,-3.285364806652069092e-01,-3.401723802089691162e-01,6.009323149919509888e-02,-3.378648310899734497e-02,-2.750082612037658691e-01,-1.553069204092025757e-01,-1.216963827610015869e-01,2.582407295703887939e-01,-4.213071167469024658e-01,5.485917255282402039e-02,-9.582422673702239990e-02,1.671890765428543091e-01,3.906626254320144653e-03,8.279048651456832886e-02,-2.801277860999107361e-02,6.697306036949157715e-02,2.114666551351547241e-01,1.231481581926345825e-01,1.010182052850723267e-01,1.474049836397171021e-01,1.028894931077957153e-01,4.030989110469818115e-02,-2.762133777141571045e-01,2.928670123219490051e-02,-2.181669771671295166e-01,-6.429086625576019287e-02,5.984642356634140015e-02,1.917725354433059692e-01,9.378066658973693848e-02,-2.051700800657272339e-01,7.176376134157180786e-02,-4.665076360106468201e-02,-8.640719205141067505e-02,-1.913197785615921021e-01,-2.096121758222579956e-01,-2.249232083559036255e-01,9.554928541183471680e-02,-4.910074919462203979e-02,-3.960629701614379883e-01,1.774702966213226318e-01,2.558985911309719086e-02,1.002230867743492126e-01,1.345813181251287460e-02,3.302119299769401550e-02,-4.031273126602172852e-01
-1.061230376362800598e-01,-5.221371054649353027e-01,1.528672594577074051e-02,-1.559392362833023071e-01,-6.282290071249008179e-02,3.513731658458709717e-01,-1.860294193029403687e-01,2.669917047023773193e-01,7.836996018886566162e-02,2.835837602615356445e-01,1.517099887132644653e-01,-6.779171526432037354e-02,1.430453956127166748e-01,-3.440533280372619629e-01,-2.717129588127136230e-01,2.019074745476245880e-02,-4.783287644386291504e-01,1.741810888051986694e-01,6.843207031488418579e-02,2.398719936609268188e-01,2.173151224851608276e-01,8.550391346216201782e-02,2.249348461627960205e-01,-2.311825752258300781e-01,-6.291870027780532837e-02,1.638842076063156128e-01,1.170388534665107727e-01,-8.148473501205444336e-02,4.974009096622467041e-02,-2.640196681022644043e-01,-5.500334501266479492e-02,3.092818558216094971e-01,1.379477828741073608e-01,8.986866474151611328e-02,-6.048248335719108582e-02,-3.535948693752288818e-01,5.307386070489883423e-02,2.583190500736236572e-01,3.095501065254211426e-01,2.809383347630500793e-02,1.672101914882659912e-01,2.875792086124420166e-01,1.909026056528091431e-01,-1.962114125490188599e-01,1.160083860158920288e-01,2.243427336215972900e-01,-3.497385382652282715e-01,-1.630488485097885132e-01,-1.405593156814575195e-01,-4.334855079650878906e-01
1.802434623241424561e-01,5.614842101931571960e-02,-1.437945067882537842e-01,-3.743513226509094238e-01,6.521556526422500610e-02,-1.198018640279769897e-01,2.637358009815216064e-01,1.476733982563018799e-01,-1.327445358037948608e-01,1.282942146062850952e-01,4.593889415264129639e-01,-1.375503465533256531e-02,3.825932973995804787e-03,-8.809769153594970703e-02,-1.282935123890638351e-02,1.319691538810729980e-01,-2.833735346794128418e-01,-2.432644963264465332e-01,2.354710996150970459e-01,-5.630097389221191406e-01,-1.989563554525375366e-01,2.194846123456954956e-01,1.423930227756500244e-01,-2.315638959407806396e-01,-2.442595064640045166e-01,-2.524055242538452148e-01,1.458830535411834717e-01,2.598061598837375641e-02,3.447233140468597412e-02,-1.712575554847717285e-01,-1.361310929059982300e-01,-3.152818419039249420e-03,-2.830030918121337891e-01,4.235227778553962708e-02,-1.769990772008895874e-01,-9.299192577600479126e-02,-2.917616963386535645e-01,1.928331404924392700e-01,-8.032981306314468384e-02,2.981303930282592773e-01,-1.989285349845886230e-01,1.376299411058425903e-01,1.836158782243728638e-01,-1.674786508083343506e-01,2.158862724900245667e-02,2.387939579784870148e-02,-3.176809987053275108e-03,1.363388746976852417e-01,-4.866030439734458923e-02,-1.933320760726928711e-01
-1.174879148602485657e-01,-3.318489789962768555e-01,-2.594074904918670654e-01,-2.051578015089035034e-01,1.913145184516906738e-01,-1.374894529581069946e-01,-2.918436825275421143e-01,-1.809819601476192474e-02,-2.082332670688629150e-01,-4.018523395061492920e-01,-1.068070232868194580e-01,-3.815997540950775146e-01,6.576202809810638428e-02,-6.872428953647613525e-02,2.640971541404724121e-01,1.363213360309600830e-01,1.071069315075874329e-01,-1.710198074579238892e-01,-5.900926515460014343e-02,2.120086699724197388e-01,-9.711802005767822266e-02,-1.998262852430343628e-01,1.267727464437484741e-01,-3.161647617816925049e-01,-9.981182962656021118e-02,-3.482090532779693604e-01,-2.275744266808032990e-02,4.921540990471839905e-02,-2.852862700819969177e-02,-2.287674993276596069e-01,1.378926634788513184e-01,-1.530722528696060181e-01,2.934733033180236816e-01,-2.115346342325210571e-01,-3.777372464537620544e-02,-1.377467364072799683e-01,-2.576256990432739258e-01,1.054565142840147018e-02,-2.661549150943756104e-01,-2.522310614585876465e-01,-2.105511128902435303e-01,1.285622715950012207e-01,3.277444243431091309e-01,-2.202872931957244873e-01,4.769848287105560303e-01,2.187283933162689209e-01,4.306259453296661377e-01,-2.083853036165237427e-01,-1.788452453911304474e-02,-3.327337801456451416e-01
-2.016972601413726807e-01,-4.208700731396675110e-02,6.363357603549957275e-02,-3.410370647907257080e-01,-2.488122284412384033e-01,-2.330603450536727905e-01,1.274848580360412598e-01,-3.282299935817718506e-01,7.642868161201477051e-02,-1.550138369202613831e-02,3.124866783618927002e-01,2.122322618961334229e-01,-1.317951530218124390e-01,1.644842326641082764e-01,-3.714556694030761719e-01,1.941564083099365234e-01,-1.278537213802337646e-01,-3.020162582397460938e-01,2.558586895465850830e-01,-1.209092512726783752e-01,7.903534919023513794e-02,5.775499716401100159e-02,4.037795588374137878e-02,-2.769633531570434570e-01,-2.625386416912078857e-01,1.240696907043457031e-01,2.136391550302505493e-01,-4.256641864776611328e-02,1.174662187695503235e-01,-6.859397143125534058e-02,-1.743334382772445679e-01,-2.167792022228240967e-01,-3.314738571643829346e-01,-2.523141503334045410e-01,1.142653599381446838e-01,-5.788342282176017761e-02,-2.985478341579437256e-01,1.839118599891662598e-01,-1.846340149641036987e-01,1.560629606246948242e-01,-1.916868239641189575e-01,-6.271875649690628052e-02,8.058576285839080811e-02,-2.438595741987228394e-01,1.260090917348861694e-01,2.414431124925613403e-01,3.334973007440567017e-02,-2.136171013116836548e-01,2.915638685226440430e-01,1.823688112199306488e-02
-1.362893730401992798e-01,-4.935807734727859497e-02,-4.058712124824523926e-01,1.406974494457244873e-01,3.601484699174761772e-03,-5.396864190697669983e-02,-3.522133529186248779e-01,5.150370299816131592e-02,7.385552674531936646e-02,-3.621545732021331787e-01,1.270072460174560547e-01,2.072428762912750244e-01,-2.775071859359741211e-01,-8.495562523603439331e-02,1.139416098594665527e-01,-3.415562212467193604e-01,4.137969762086868286e-02,-1.046975553035736084e-01,9.866365790367126465e-02,2.877081036567687988e-01,-8.228357136249542236e-02,2.102017402648925781e-02,1.641496121883392334e-01,2.653206586837768555e-01,2.045077234506607056e-01,1.063911765813827515e-01,-7.403829367831349373e-04,1.246643811464309692e-01,1.403067111968994141e-01,-3.188339248299598694e-02,-6.467510014772415161e-02,2.260833233594894409e-02,2.696667797863483429e-02,3.273932635784149170e-01,3.080333471298217773e-01,1.884593255817890167e-02,-3.623963892459869385e-01,2.930075824260711670e-01,-6.408823188394308090e-03,-9.260115772485733032e-02,-2.397039681673049927e-01,2.036979198455810547e-01,1.034040078520774841e-01,1.128991469740867615e-01,2.162345647811889648e-01,1.449008435010910034e-01,2.741511464118957520e-01,8.851126581430435181e-02,1.522593349218368530e-01,-9.564342349767684937e-02
-1.938810497522354126e-01,-2.544669806957244873e-02,-7.621820271015167236e-02,1.936812549829483032e-01,-2.166951000690460205e-01,-1.173226386308670044e-01,-1.074892878532409668e-01,-1.963176280260086060e-01,1.542140543460845947e-01,-3.327651619911193848e-01,-2.678546011447906494e-01,-7.262907177209854126e-02,-1.025114282965660095e-01,-1.880110800266265869e-01,-2.211103774607181549e-02,-5.937873944640159607e-02,1.699694842100143433e-01,3.612217307090759277e-02,-3.278248012065887451e-02,3.352559357881546021e-02,-1.769268512725830078e-01,-1.980776041746139526e-01,3.916623890399932861e-01,2.238436341285705566e-01,-1.955209858715534210e-02,3.205681964755058289e-02,-3.053793907165527344e-01,1.409577876329421997e-01,-5.124652758240699768e-02,3.575588166713714600e-01,6.493581831455230713e-02,-1.567524224519729614e-01,3.838609904050827026e-02,-1.999807916581630707e-02,-3.424738943576812744e-01,-5.836361274123191833e-02,-4.122343659400939941e-01,-2.067085057497024536e-01,-5.353569611907005310e-02,1.771342754364013672e-01,-2.805503644049167633e-02,3.045817911624908447e-01,-2.831316292285919189e-01,-1.255299150943756104e-01,-6.793598178774118423e-03,-7.986716227605938911e-04,1.522159129381179810e-01,4.567569121718406677e-02,-4.919581860303878784e-02,-1.119085997343063354e-01
7.750854641199111938e-02,1.127690970897674561e-01,-2.159228771924972534e-01,-1.910031288862228394e-01,-2.999374568462371826e-01,1.761839836835861206e-01,-7.027322053909301758e-02,2.044556587934494019e-01,2.101622521877288818e-01,-3.968532979488372803e-01,-3.453771173954010010e-01,-6.863596290349960327e-02,-1.531238574534654617e-02,-1.808820068836212158e-01,8.464263379573822021e-02,-2.367674857378005981e-01,-2.160059213638305664e-01,-1.041598692536354065e-01,2.438085228204727173e-01,-1.906297951936721802e-01,2.941929735243320465e-02,-9.566077962517738342e-03,9.317511320114135742e-02,1.083170548081398010e-01,1.410241872072219849e-01,7.175210863351821899e-02,-9.170202910900115967e-02,1.376172006130218506e-01,7.846582680940628052e-02,-3.506736457347869873e-01,8.579671382904052734e-02,2.388206571340560913e-01,-7.130753993988037109e-02,3.895718604326248169e-02,-1.443206965923309326e-01,6.168697774410247803e-02,-3.797531127929687500e-02,2.203226834535598755e-01,-3.695016503334045410e-01,1.976744085550308228e-01,-1.730874478816986084e-01,-1.858981885015964508e-02,-1.561029702425003052e-01,-2.267961204051971436e-01,2.669441401958465576e-01,3.855708986520767212e-02,2.302873134613037109e-01,-6.733767688274383545e-02,3.095890879631042480e-01,-2.322662174701690674e-01
-3.851320967078208923e-02,1.554926037788391113e-01,-3.334909304976463318e-02,-1.395224928855895996e-01,2.085156291723251343e-01,-1.805117353796958923e-02,-3.800528645515441895e-01,-8.767420426011085510e-03,-4.452952183783054352e-03,-1.056951358914375305e-01,-1.951508596539497375e-02,6.591813638806343079e-03,-3.135210275650024414e-01,-5.567560195922851562e-01,-2.105952799320220947e-01,-3.144135475158691406e-01,3.216232061386108398e-01,1.590527296066284180e-01,-1.541515290737152100e-01,3.415294364094734192e-02,-3.316991403698921204e-02,-2.812909483909606934e-01,-1.094433218240737915e-01,2.567352540791034698e-02,3.077311515808105469e-01,-3.999284654855728149e-02,-1.781799048185348511e-01,-1.110588759183883667e-01,1.377573311328887939e-01,-3.232772648334503174e-02,-2.868266310542821884e-03,9.102618694305419922e-02,1.484419852495193481e-01,3.339187502861022949e-01,1.833622008562088013e-01,2.230350971221923828e-01,1.743821650743484497e-01,-1.668687909841537476e-01,-1.438801586627960205e-01,-2.949396967887878418e-01,4.708670452237129211e-02,1.630595475435256958e-01,-2.345691621303558350e-01,1.647995114326477051e-01,-2.744071781635284424e-01,2.525497674942016602e-01,-3.846528008580207825e-02,-1.866586506366729736e-01,1.756509393453598022e-01,3.355960249900817871e-01
1.086430773138999939e-01,6.938567012548446655e-02,-8.048344403505325317e-02,1.824755519628524780e-01,-1.548348367214202881e-01,-1.786123514175415039e-01,7.927164435386657715e-02,3.606098890304565430e-02,7.325331866741180420e-02,1.197543963789939880e-01,-1.881419569253921509e-01,-1.689516007900238037e-01,-2.877832651138305664e-01,-2.535081468522548676e-02,3.571284115314483643e-01,-2.741415500640869141e-01,4.569457843899726868e-02,-5.980779230594635010e-02,9.342184662818908691e-02,-5.101611837744712830e-02,-3.751663118600845337e-02,-3.412245213985443115e-01,1.224691197276115417e-01,1.917591094970703125e-01,3.144775629043579102e-01,8.399809151887893677e-02,-2.567311935126781464e-02,-4.062410071492195129e-02,8.920399844646453857e-02,-5.036202818155288696e-02,-9.127549082040786743e-02,-2.429473958909511566e-02,-3.021063841879367828e-02,-2.280777245759963989e-01,-2.152629047632217407e-01,4.800791293382644653e-02,-5.056502297520637512e-02,7.774811983108520508e-02,-2.726815044879913330e-01,-9.636271744966506958e-03,2.497172206640243530e-01,1.223795861005783081e-01,1.981872320175170898e-02,-3.536292612552642822e-01,1.932568848133087158e-01,2.389246225357055664e-01,2.691393792629241943e-01,-1.053497940301895142e-01,1.663890033960342407e-01,-1.113929301500320435e-01
-2.084821015596389771e-01,2.360586524009704590e-01,-1.267814785242080688e-01,-1.801188886165618896e-01,-3.536529093980789185e-02,2.257465422153472900e-01,-1.489056646823883057e-01,-1.904548518359661102e-02,-1.361763030290603638e-01,-3.566592037677764893e-01,-6.897094845771789551e-02,2.856850922107696533e-01,1.011176109313964844e-01,9.021558612585067749e-02,1.853590160608291626e-01,-3.127249181270599365e-01,4.127957299351692200e-02,-2.063181996345520020e-01,-2.320406734943389893e-01,2.664777077734470367e-02,-5.952620133757591248e-02,-1.192813646048307419e-02,6.231412664055824280e-02,2.170735150575637817e-01,-2.840887606143951416e-01,2.531917691230773926e-01,-1.177028492093086243e-01,-2.643001675605773926e-01,-4.801386967301368713e-02,5.132251977920532227e-02,-1.444676667451858521e-01,2.224490195512771606e-01,-3.946808576583862305e-01,-2.413019388914108276e-01,-1.385527402162551880e-01,-6.105555593967437744e-02,-3.763293623924255371e-01,4.345107078552246094e-02,-2.752826511859893799e-01,2.449781149625778198e-01,-3.122265636920928955e-01,9.721119701862335205e-02,2.684304863214492798e-02,-5.160092934966087341e-02,-7.068159431219100952e-02,-3.491514623165130615e-01,-9.564103931188583374e-02,-1.609074324369430542e-02,5.758738145232200623e-02,1.932281553745269775e-01
-3.335364758968353271e-01,-8.002571761608123779e-02,-1.354598402976989746e-01,1.200213208794593811e-01,1.768698990345001221e-01,-9.365890175104141235e-02,2.586349546909332275e-01,1.011173129081726074e-01,1.678436696529388428e-01,-6.454180926084518433e-02,-1.971856206655502319e-01,-3.077625930309295654e-01,-2.958412766456604004e-01,1.718552410602569580e-01,-3.711653947830200195e-01,1.365507841110229492e-01,-4.145988821983337402e-01,-2.627944946289062500e-01,1.699907481670379639e-01,-5.197058990597724915e-02,-2.302930504083633423e-01,4.225836396217346191e-01,9.074066579341888428e-02,-1.333951056003570557e-01,4.128052294254302979e-02,1.049094647169113159e-01,-9.504181146621704102e-02,-6.874263286590576172e-02,-6.685175001621246338e-02,-2.540261447429656982e-01,3.407237231731414795e-01,-2.273478731513023376e-02,-1.396802365779876709e-01,3.783454298973083496e-01,-2.438099086284637451e-01,-1.181764453649520874e-01,-2.390668839216232300e-01,-5.762558057904243469e-02,-2.049444764852523804e-01,-1.340558081865310669e-01,2.522729150950908661e-02,3.410876989364624023e-01,1.551153697073459625e-02,-1.536133233457803726e-02,-1.019097715616226196e-01,-2.482264339923858643e-01,-2.495700865983963013e-01,-3.394433856010437012e-02,-1.332975272089242935e-02,-7.739566266536712646e-02
1.387002915143966675e-01,1.433866620063781738e-01,8.471780270338058472e-02,4.710902646183967590e-02,1.543950289487838745e-01,-7.723677903413772583e-02,-1.013806015253067017e-01,1.462116837501525879e-01,-2.951703071594238281e-01,1.343745086342096329e-02,6.479599326848983765e-02,1.135140359401702881e-01,1.140415892004966736e-01,-3.753941655158996582e-01,2.674098685383796692e-02,-7.465626299381256104e-02,2.496174164116382599e-02,8.273020386695861816e-02,1.886888742446899414e-01,-1.371760070323944092e-01,-2.136697769165039062e-01,6.531769782304763794e-02,9.930790960788726807e-02,1.377711147069931030e-01,-1.952596306800842285e-01,2.725944481790065765e-02,-2.934988141059875488e-01,-1.653751879930496216e-01,7.623963057994842529e-02,-1.868838518857955933e-01,1.951678656041622162e-02,-8.452072739601135254e-03,-1.363296061754226685e-01,-1.783681213855743408e-01,-8.857367932796478271e-02,1.046993862837553024e-02,-4.157677292823791504e-01,8.009307831525802612e-02,1.140503883361816406e-01,3.632145524024963379e-01,-6.563279777765274048e-02,-5.747556686401367188e-02,2.461631149053573608e-01,2.204483151435852051e-01,-2.504338026046752930e-01,-1.011802405118942261e-01,1.736392974853515625e-01,2.811303138732910156e-01,1.656324416399002075e-01,2.709511220455169678e-01
-1.545973569154739380e-01,9.609299153089523315e-02,-1.042465865612030029e-01,-2.713651210069656372e-02,1.999626010656356812e-01,-8.113508671522140503e-02,-9.687809646129608154e-02,-1.712145507335662842e-01,3.586585223674774170e-01,1.711885035037994385e-01,-7.393604516983032227e-02,3.229700028896331787e-01,-5.095218867063522339e-02,2.286033472046256065e-03,-4.753400385379791260e-01,-2.057213336229324341e-01,-1.026316955685615540e-01,1.136724874377250671e-01,-6.927928328514099121e-02,-2.444118857383728027e-01,-8.395448327064514160e-02,1.156575009226799011e-01,-3.332665190100669861e-02,3.795871883630752563e-02,1.043456941843032837e-01,7.198061794042587280e-02,-1.123496890068054199e-01,2.266414314508438110e-01,-7.541895657777786255e-02,-1.296299993991851807e-01,8.132125437259674072e-02,1.859401464462280273e-01,-3.394101932644844055e-02,1.029120162129402161e-01,1.329266428947448730e-01,-2.023336142301559448e-01,8.961873501539230347e-02,-2.224763035774230957e-01,1.603634059429168701e-01,-3.139410912990570068e-01,-2.273160517215728760e-01,8.971132338047027588e-02,-8.609404414892196655e-02,2.563978135585784912e-01,-1.774536222219467163e-01,-1.990495473146438599e-01,-4.563225060701370239e-02,-1.910712867975234985e-01,-2.058957815170288086e-01,-2.823830395936965942e-02
1.685770601034164429e-01,3.989763557910919189e-02,-7.760916650295257568e-02,2.389657311141490936e-02,3.690157234668731689e-01,-1.991666108369827271e-01,-3.852002024650573730e-01,7.447073608636856079e-02,-3.462454974651336670e-01,-5.136568099260330200e-03,-3.238413333892822266e-01,8.595824241638183594e-03,-2.218620628118515015e-01,-6.316840052604675293e-01,-1.936326473951339722e-01,-3.836891651153564453e-01,7.842062413692474365e-02,1.600254178047180176e-01,-7.301514595746994019e-02,2.407179772853851318e-02,1.600955277681350708e-01,-3.772262632846832275e-01,1.923439092934131622e-02,1.018913313746452332e-01,2.403200417757034302e-01,5.661950632929801941e-02,-3.141174018383026123e-01,-1.664746254682540894e-01,-3.739653155207633972e-02,-3.326016664505004883e-01,-8.230478316545486450e-02,2.449547052383422852e-01,3.591364026069641113e-01,2.125484496355056763e-01,1.247836649417877197e-01,-1.927112229168415070e-02,1.595222651958465576e-01,-2.358189374208450317e-01,1.568922773003578186e-02,-1.985414773225784302e-01,2.345505803823471069e-01,1.861955523490905762e-01,-2.137903273105621338e-01,2.538280785083770752e-01,-2.484589517116546631e-01,-2.134632170200347900e-01,-1.582722663879394531e-01,-2.155777215957641602e-01,4.928383976221084595e-02,-5.628247559070587158e-02
1.345455646514892578e-01,5.425413697957992554e-02,-9.305428713560104370e-02,-1.255579888820648193e-01,5.697816237807273865e-02,-3.633866012096405029e-01,-1.918635517358779907e-01,8.724808692932128906e-02,-2.544624209403991699e-01,1.211311370134353638e-01,2.000228315591812134e-01,2.312504649162292480e-01,-3.262035250663757324e-01,-3.900416195392608643e-01,5.431780964136123657e-02,-2.190907150506973267e-01,-1.564788073301315308e-01,-1.523845791816711426e-01,1.359642855823040009e-02,-2.337062656879425049e-01,-2.113416939973831177e-01,1.647427119314670563e-02,-3.095008060336112976e-02,-1.125791817903518677e-01,-8.970181643962860107e-02,-5.610179156064987183e-02,1.409662663936614990e-01,-1.439933031797409058e-01,4.823165759444236755e-02,-2.253498286008834839e-01,1.583696454763412476e-01,-7.696869969367980957e-02,-2.558577246963977814e-02,-1.525668203830718994e-01,4.338801279664039612e-02,-9.438195824623107910e-02,-1.206416487693786621e-01,5.188345313072204590e-01,-1.683166027069091797e-01,2.545907497406005859e-01,1.636017411947250366e-01,9.755558520555496216e-02,3.149858713150024414e-01,-1.141695082187652588e-01,1.933406889438629150e-01,1.978417783975601196e-01,1.379428356885910034e-01,4.335575923323631287e-02,-2.153577953577041626e-01,-5.879690498113632202e-02
1.161622107028961182e-01,3.567807748913764954e-02,-6.804692000150680542e-02,1.931232511997222900e-01,-1.310663819313049316e-01,9.828782081604003906e-02,-4.866630733013153076e-01,-1.485842764377593994e-01,-1.827482134103775024e-01,1.807820051908493042e-02,1.076145470142364502e-01,-8.932249993085861206e-02,-2.462362349033355713e-01,-1.645000874996185303e-01,-9.114551544189453125e-02,-2.435129582881927490e-01,-1.427374314516782761e-02,1.025716960430145264e-01,5.864436272531747818e-03,6.621306389570236206e-02,-1.669659279286861420e-02,1.019109860062599182e-01,-7.080064713954925537e-02,1.163822114467620850e-01,6.300326436758041382e-02,-1.891632378101348877e-01,6.944978982210159302e-02,1.004382595419883728e-01,-1.652927845716476440e-01,-2.464706450700759888e-01,1.717623174190521240e-01,-1.383865624666213989e-01,-1.179231144487857819e-02,3.018263578414916992e-01,-1.038174256682395935e-01,2.831589579582214355e-01,-2.425841540098190308e-01,-2.109677940607070923e-01,4.623223096132278442e-02,-9.147845953702926636e-02,5.151833221316337585e-02,-1.418528854846954346e-01,-3.977215588092803955e-01,4.306289367377758026e-03,7.227858155965805054e-02,4.281385540962219238e-01,-3.005890846252441406e-01,4.216187447309494019e-02,-1.499288827180862427e-01,2.212502658367156982e-01
3.305056989192962646e-01,1.991421729326248169e-01,-2.407435886561870575e-02,-2.054588794708251953e-01,-7.359593361616134644e-02,-1.204349920153617859e-01,-1.093859598040580750e-01,-1.158725246787071228e-01,-3.466740548610687256e-01,-7.578940689563751221e-02,-3.006092505529522896e-03,3.245014548301696777e-01,-1.133839562535285950e-01,-2.038748264312744141e-01,-3.565522134304046631e-01,-2.996450103819370270e-02,7.130488008260726929e-02,3.348367512226104736e-01,-1.073632910847663879e-01,2.069020718336105347e-01,-3.408981561660766602e-01,2.660656869411468506e-01,1.732453852891921997e-01,3.286381065845489502e-01,-1.806917339563369751e-01,2.477271258831024170e-01,-2.619866132736206055e-01,-4.792242050170898438e-01,3.065408673137426376e-03,3.519603312015533447e-01,9.052411466836929321e-02,1.544924080371856689e-01,-4.575014114379882812e-01,-1.958606839179992676e-01,2.150906920433044434e-01,7.069815415889024734e-03,-3.639535009860992432e-01,2.072371393442153931e-01,2.291792631149291992e-01,2.574062347412109375e-01,-4.236164391040802002e-01,2.422376722097396851e-01,-1.300982087850570679e-01,3.241816163063049316e-01,-2.587111890316009521e-01,1.884027570486068726e-01,-5.549218505620956421e-02,8.871763944625854492e-02,-8.768907748162746429e-03,4.231320321559906006e-01
-1.596327275037765503e-01,7.125327363610267639e-03,1.258787959814071655e-01,2.402045279741287231e-01,-1.500450540333986282e-02,5.408388096839189529e-03,-1.877862811088562012e-01,5.929080769419670105e-02,3.689383864402770996e-01,-1.424769014120101929e-01,-5.092447996139526367e-02,-5.188134964555501938e-03,1.491969227790832520e-01,2.538417577743530273e-01,-2.864029705524444580e-01,-2.073751389980316162e-01,2.234118878841400146e-01,-1.109304353594779968e-01,2.297150939702987671e-01,-1.601103991270065308e-01,-3.499307855963706970e-02,6.936645507812500000e-02,-3.423561900854110718e-02,-6.519146263599395752e-02,-1.463653743267059326e-01,1.894759237766265869e-01,8.112709969282150269e-02,6.794951856136322021e-02,1.079152002930641174e-01,3.664265275001525879e-01,3.416550159454345703e-01,2.812280952930450439e-01,-1.940293759107589722e-01,2.226653993129730225e-01,-8.555261418223381042e-03,-6.819154322147369385e-02,-4.553383588790893555e-01,3.062761425971984863e-01,9.242013841867446899e-02,2.066506743431091309e-01,-1.560663804411888123e-03,3.413401246070861816e-01,1.380013823509216309e-01,1.780557334423065186e-01,3.762547075748443604e-01,-1.811017096042633057e-01,3.547279536724090576e-02,-3.611342981457710266e-02,3.072895705699920654e-01,3.211441263556480408e-02
-2.037539184093475342e-01,-1.641563028097152710e-01,3.861626088619232178e-01,8.655730634927749634e-02,2.554081380367279053e-01,-2.529256939888000488e-01,-6.112271174788475037e-02,-5.119702592492103577e-02,6.400182098150253296e-02,-1.667109429836273193e-01,-6.086516007781028748e-02,-1.420302689075469971e-01,-9.868361055850982666e-03,2.179536074399948120e-01,5.489911511540412903e-02,1.812344603240489960e-02,-9.684939682483673096e-02,2.009956091642379761e-01,-1.372199505567550659e-01,1.555779129266738892e-01,2.303094118833541870e-01,9.534560889005661011e-02,-3.324947953224182129e-01,-1.326585859060287476e-01,2.483752369880676270e-01,-7.667779922485351562e-02,6.903936155140399933e-03,-4.085192084312438965e-02,-9.862271696329116821e-02,3.888991177082061768e-01,1.047933027148246765e-01,-2.357477135956287384e-02,-2.868127226829528809e-01,4.367594122886657715e-01,3.330843746662139893e-01,-6.391737610101699829e-02,1.659957617521286011e-01,1.842210441827774048e-01,-6.432210654020309448e-02,-3.202523887157440186e-01,-1.203937903046607971e-01,1.320989280939102173e-01,-2.232226729393005371e-01,-1.818110644817352295e-01,1.812199503183364868e-01,-3.448726832866668701e-01,1.621913313865661621e-01,3.613523542881011963e-01,-9.130169451236724854e-02,-1.321115791797637939e-01
-2.909413874149322510e-01,2.885918319225311279e-02,-3.338950276374816895e-01,-8.664885908365249634e-02,-2.953065931797027588e-02,-9.790260344743728638e-02,1.873455643653869629e-01,-1.188190877437591553e-01,4.112488031387329102e-01,1.287346929311752319e-01,2.149741351604461670e-01,3.959138318896293640e-02,-3.716623783111572266e-01,2.928117848932743073e-02,-4.026566147804260254e-01,-8.784850686788558960e-02,7.342898845672607422e-02,1.087805256247520447e-01,-2.338544428348541260e-01,4.449279978871345520e-02,-1.331957876682281494e-01,2.329842150211334229e-01,1.591515094041824341e-01,-1.583954840898513794e-01,2.235073745250701904e-01,1.339430660009384155e-01,-9.377495385706424713e-03,-4.972081165760755539e-03,-7.368209958076477051e-02,2.054372131824493408e-01,1.934004127979278564e-01,9.986600279808044434e-02,-4.522445499897003174e-01,2.127637416124343872e-01,-1.800131611526012421e-02,7.760164141654968262e-02,-1.563253402709960938e-01,-2.829384244978427887e-02,-1.796467006206512451e-01,-2.713137306272983551e-02,1.783888339996337891e-01,2.685369178652763367e-02,-1.780411303043365479e-01,-2.537767589092254639e-01,-1.146962493658065796e-01,-3.680095374584197998e-01,-8.142539113759994507e-02,5.085910111665725708e-02,2.692357003688812256e-01,1.155548263341188431e-02
3.556720018386840820e-01,2.942486703395843506e-01,3.720811307430267334e-01,2.046188339591026306e-02,1.445961892604827881e-01,-1.979457587003707886e-01,-8.390881121158599854e-02,5.715166032314300537e-02,1.002101227641105652e-01,-1.781510114669799805e-01,-3.197487592697143555e-01,1.387605518102645874e-01,-2.029683440923690796e-01,-1.930695921182632446e-01,-5.620670691132545471e-02,9.355518221855163574e-02,-6.906789541244506836e-02,5.301122069358825684e-01,2.384557873010635376e-01,-3.713148459792137146e-02,-2.331687957048416138e-01,2.605672478675842285e-01,2.086825110018253326e-02,8.882505446672439575e-02,3.502164036035537720e-02,1.405824720859527588e-01,-1.102643758058547974e-01,-4.009665250778198242e-01,-1.540350168943405151e-01,2.679508924484252930e-01,-1.930982433259487152e-02,1.889610588550567627e-01,-2.860567867755889893e-01,1.094017550349235535e-01,4.994935006834566593e-04,1.869987994432449341e-01,-4.476572275161743164e-01,6.560041010379791260e-02,-1.275450177490711212e-02,7.462178170680999756e-02,7.352261245250701904e-02,-2.887382507324218750e-01,-1.843449920415878296e-01,1.128236129879951477e-01,7.081997580826282501e-03,7.805701345205307007e-02,-4.845209792256355286e-02,2.545098662376403809e-01,-4.228078573942184448e-02,4.281360507011413574e-01
2.432021051645278931e-01,8.715763688087463379e-02,-9.512201696634292603e-02,-7.938327640295028687e-02,1.107367575168609619e-01,2.084176056087017059e-02,-2.983706593513488770e-01,8.971176296472549438e-02,-2.054855376482009888e-01,-2.688626646995544434e-01,-2.649232745170593262e-01,-4.541609808802604675e-02,-2.037417590618133545e-01,-3.291176557540893555e-01,2.086758166551589966e-01,-4.319139122962951660e-01,9.640598297119140625e-02,-4.892241954803466797e-02,-2.427609451115131378e-02,2.764874696731567383e-01,-9.113545529544353485e-03,-2.827398777008056641e-01,9.091011434793472290e-02,2.392150461673736572e-01,-1.326802372932434082e-01,-2.008455991744995117e-01,-2.312622666358947754e-01,-8.893875777721405029e-02,-7.877427339553833008e-02,1.502705514430999756e-01,-9.701831266283988953e-03,3.388217687606811523e-01,2.052102535963058472e-01,3.588100373744964600e-01,2.267985939979553223e-01,1.964988261461257935e-01,6.413041055202484131e-02,1.539440900087356567e-01,2.415785752236843109e-02,-8.396133035421371460e-02,1.003055945038795471e-01,-1.224336326122283936e-01,-4.301812499761581421e-02,2.489236593246459961e-01,-9.788268804550170898e-02,-4.532371461391448975e-02,3.110791742801666260e-01,-1.701028048992156982e-01,-1.872139275074005127e-01,3.090992867946624756e-01
1.346027106046676636e-01,-2.878799736499786377e-01,1.542372852563858032e-01,5.373622477054595947e-02,2.640121281147003174e-01,-7.003749161958694458e-02,2.853089869022369385e-01,-1.284221410751342773e-01,-2.592530548572540283e-01,-7.767870090901851654e-03,8.249211311340332031e-02,-7.264728844165802002e-02,-9.308477491140365601e-02,-8.546511083841323853e-02,1.299429778009653091e-02,-1.396893411874771118e-01,-1.103591080754995346e-02,-2.295880764722824097e-01,-2.436416000127792358e-01,7.613613456487655640e-02,-1.360011696815490723e-01,5.908569693565368652e-02,5.632679909467697144e-02,-5.383721590042114258e-01,-1.595384031534194946e-01,-6.325817853212356567e-02,1.445902734994888306e-01,-2.912543714046478271e-01,-2.576290071010589600e-01,-1.446623802185058594e-01,-6.443070713430643082e-03,1.317181289196014404e-01,2.267791703343391418e-02,-2.796594798564910889e-01,1.627254188060760498e-01,6.916984915733337402e-02,1.758438795804977417e-01,2.482462227344512939e-01,-3.627975881099700928e-01,-5.440377816557884216e-02,-9.151747450232505798e-03,-1.870485693216323853e-01,1.919442862272262573e-01,4.004652053117752075e-02,3.279202803969383240e-02,2.209707051515579224e-01,-2.798307538032531738e-01,-1.541332751512527466e-01,-3.457558155059814453e-01,-4.026213660836219788e-02
-2.663565874099731445e-01,-8.909799158573150635e-02,-2.631475403904914856e-02,-2.075716555118560791e-01,-3.682536482810974121e-01,1.838285028934478760e-01,3.527966886758804321e-02,-6.795120984315872192e-02,-4.146274328231811523e-01,-1.373442262411117554e-01,1.573685556650161743e-01,7.109571993350982666e-02,2.755956053733825684e-01,-4.140534698963165283e-01,-1.249707266688346863e-01,-2.712428271770477295e-01,-2.592603489756584167e-02,-1.652239412069320679e-01,-1.837213188409805298e-01,-2.604573071002960205e-01,8.156972378492355347e-02,9.569485485553741455e-02,-8.617521077394485474e-02,-9.331800043582916260e-02,-6.927962880581617355e-03,-7.943276315927505493e-02,-5.611183047294616699e-01,-2.461862936615943909e-02,2.268044948577880859e-01,2.353222295641899109e-02,1.172284036874771118e-01,-1.980251520872116089e-01,1.391135603189468384e-01,4.421808198094367981e-02,-3.269606530666351318e-01,-1.168291866779327393e-01,-1.862531006336212158e-01,4.999770224094390869e-02,4.922396689653396606e-02,-1.049280539155006409e-01,-2.832308411598205566e-01,3.278560936450958252e-01,8.470637798309326172e-01,-2.912943959236145020e-01,-2.103064805269241333e-01,7.959334552288055420e-02,9.511747956275939941e-02,-1.208602562546730042e-01,3.350738883018493652e-01,1.854911632835865021e-02
5.040230229496955872e-02,-1.363978981971740723e-01,-2.888882756233215332e-01,-1.738400012254714966e-01,-1.328604221343994141e-01,-1.012789756059646606e-01,2.611165940761566162e-01,1.307587176561355591e-01,-1.786543726921081543e-01,-3.891539871692657471e-01,-2.314443886280059814e-02,3.687881678342819214e-02,-1.538025736808776855e-01,-1.729999929666519165e-01,2.223941124975681305e-02,-2.897864580154418945e-01,1.081756353378295898e-01,6.909551471471786499e-02,-3.781942129135131836e-01,7.623077929019927979e-02,-2.796977162361145020e-01,2.328936159610748291e-01,2.894246280193328857e-01,-1.541569922119379044e-02,1.206251978874206543e-01,-3.745904564857482910e-02,9.422594308853149414e-02,-2.230293303728103638e-02,3.674939572811126709e-01,-5.449828505516052246e-02,7.080551981925964355e-02,2.350950390100479126e-01,-1.968467384576797485e-01,-2.997779846191406250e-01,1.124001219868659973e-01,-1.631858348846435547e-01,-1.496247649192810059e-01,6.104192733764648438e-01,5.706730298697948456e-03,-2.627485804259777069e-02,2.177183516323566437e-02,6.185420975089073181e-02,1.617498993873596191e-01,-3.538696169853210449e-01,1.478015929460525513e-01,3.852230012416839600e-01,-9.667968377470970154e-03,1.571862101554870605e-01,6.615670025348663330e-02,2.138908207416534424e-01
-1.818046532571315765e-02,-4.237512499094009399e-02,2.329687178134918213e-01,1.675935834646224976e-02,1.295689195394515991e-01,-1.114923655986785889e-01,-7.153835147619247437e-02,-6.177434697747230530e-02,-1.102374717593193054e-01,1.990414857864379883e-01,-2.461473271250724792e-02,9.877908974885940552e-02,2.014985531568527222e-01,-3.356126546859741211e-01,-1.012978553771972656e-01,5.374377965927124023e-02,9.549109637737274170e-02,-2.011801749467849731e-01,2.151120305061340332e-01,2.821671366691589355e-01,-3.813166022300720215e-01,1.861214488744735718e-01,-1.426535546779632568e-01,1.748995482921600342e-01,-6.502261012792587280e-02,-1.066497806459665298e-02,-1.366988718509674072e-01,-2.143239043653011322e-02,-3.091486990451812744e-01,3.633417189121246338e-01,-1.259639859199523926e-01,-1.048751920461654663e-01,2.152509405277669430e-04,-2.581005990505218506e-01,7.282181084156036377e-02,1.843266189098358154e-01,2.405328005552291870e-01,2.246839851140975952e-01,2.388204485177993774e-01,3.900060057640075684e-01,-3.105994760990142822e-01,2.171564847230911255e-01,3.683148622512817383e-01,-1.499723047018051147e-01,1.038710847496986389e-01,4.474242925643920898e-01,-1.705428063869476318e-01,1.297756731510162354e-01,1.151852589100599289e-02,1.201898530125617981e-01
9.519497305154800415e-02,1.090222150087356567e-01,1.668607741594314575e-01,-1.909659951925277710e-01,-6.991465389728546143e-02,-1.322285681962966919e-01,3.570840507745742798e-02,-1.404406428337097168e-01,1.343909800052642822e-01,-1.897296309471130371e-01,-9.671404957771301270e-02,4.493098333477973938e-02,-1.520661562681198120e-01,5.993364378809928894e-02,3.021151423454284668e-01,-4.931483045220375061e-02,-2.353787980973720551e-02,1.585354655981063843e-01,-6.834779679775238037e-02,4.766899347305297852e-02,2.633391618728637695e-01,-4.481814429163932800e-02,2.188104689121246338e-01,-1.905641257762908936e-01,1.624963283538818359e-01,-4.644426703453063965e-01,-1.117088794708251953e-01,5.225528962910175323e-03,1.862955987453460693e-01,5.506677180528640747e-02,-2.419230490922927856e-01,-8.212136477231979370e-02,-1.580266058444976807e-01,1.252180784940719604e-01,1.141736954450607300e-01,-1.852942109107971191e-01,9.462361782789230347e-02,1.040685698390007019e-01,-4.464508593082427979e-01,-1.955064386129379272e-01,1.919023543596267700e-01,-2.024348378181457520e-01,-3.746182098984718323e-02,-1.128704622387886047e-01,2.950094938278198242e-01,2.101704664528369904e-02,4.024825990200042725e-01,-2.192658185958862305e-02,7.056427001953125000e-02,-1.785020679235458374e-01
-1.160158812999725342e-01,1.835580170154571533e-02,-1.169125586748123169e-01,3.009556829929351807e-01,1.619916260242462158e-01,-1.727037876844406128e-01,2.327922135591506958e-01,-1.291959285736083984e-01,-2.412675172090530396e-01,-2.208966994658112526e-03,3.483243286609649658e-01,6.601554155349731445e-02,1.668190956115722656e-01,7.217147946357727051e-02,9.755374491214752197e-02,-3.063737601041793823e-02,-3.125136485323309898e-03,2.375543713569641113e-01,9.085892885923385620e-02,5.393397808074951172e-02,1.819050312042236328e-02,-2.974466681480407715e-01,-1.000065356492996216e-01,1.391192078590393066e-01,3.111422657966613770e-01,-7.309398055076599121e-02,-8.795013278722763062e-02,-2.674785554409027100e-01,1.077038049697875977e-01,3.575133383274078369e-01,-2.332598716020584106e-02,6.047971919178962708e-02,-6.105944886803627014e-02,3.851135447621345520e-02,8.905902504920959473e-03,9.646882116794586182e-02,2.431170642375946045e-01,-1.640504598617553711e-01,-1.357461065053939819e-01,-1.143590286374092102e-01,-9.168337099254131317e-03,-1.866680830717086792e-01,2.738928496837615967e-01,-1.606517136096954346e-01,-5.040132403373718262e-01,7.031124830245971680e-02,4.468440115451812744e-01,4.023908078670501709e-02,6.278715282678604126e-02,4.572077188640832901e-03
2.260920703411102295e-01,9.155531227588653564e-02,8.051753789186477661e-02,-8.806066960096359253e-02,7.044755667448043823e-02,1.285975873470306396e-01,-2.019547969102859497e-01,3.696784377098083496e-02,-3.961843252182006836e-01,5.885329842567443848e-02,-7.085315883159637451e-02,9.478878974914550781e-02,-1.014816462993621826e-01,-1.829293817281723022e-01,-8.287011086940765381e-02,1.000675410032272339e-01,1.159606799483299255e-01,-1.328985989093780518e-01,2.838771641254425049e-01,1.229128520935773849e-02,-5.558585003018379211e-02,2.426602691411972046e-01,-1.741586029529571533e-01,1.855039000511169434e-01,6.712809205055236816e-02,-1.893536597490310669e-01,-4.509503543376922607e-01,-3.022435009479522705e-01,1.960910484194755554e-02,5.171017837710678577e-04,2.084416337311267853e-03,2.477976530790328979e-01,-1.932117640972137451e-01,-8.454401046037673950e-02,1.004405692219734192e-01,2.591927349567413330e-01,1.104279682040214539e-01,9.758820384740829468e-02,8.160064369440078735e-02,-2.069275230169296265e-01,-5.111974477767944336e-02,2.751368582248687744e-01,7.673299312591552734e-02,5.814090371131896973e-02,3.073021769523620605e-02,-6.742190569639205933e-02,-1.636131852865219116e-01,4.083606600761413574e-02,-7.402231544256210327e-02,2.256562709808349609e-01
-1.690852344036102295e-01,-1.684788316488265991e-01,1.192223802208900452e-01,-3.238606154918670654e-01,1.279462426900863647e-01,-1.973269507288932800e-02,-1.035978868603706360e-01,2.682837285101413727e-02,-1.717655546963214874e-02,-9.917586296796798706e-02,9.712480939924716949e-03,1.294552255421876907e-02,1.230606809258460999e-01,-2.720052599906921387e-01,1.161013618111610413e-01,-2.992309629917144775e-01,-2.012485563755035400e-01,2.176156789064407349e-01,-2.369644343852996826e-01,-1.095231771469116211e-01,-5.950286518782377243e-03,-9.905150160193443298e-03,1.965560317039489746e-01,-2.906121313571929932e-01,-1.218678429722785950e-01,-1.780533641576766968e-01,-1.443942487239837646e-01,-2.902598381042480469e-01,1.950944513082504272e-01,-1.216798461973667145e-02,-2.542346417903900146e-01,6.519691646099090576e-02,-2.466689348220825195e-01,-1.723971776664257050e-02,1.888907253742218018e-01,1.024295166134834290e-01,1.781621575355529785e-01,2.523263394832611084e-01,-2.711073458194732666e-01,-3.237990736961364746e-01,5.290064960718154907e-02,-1.406184136867523193e-01,2.803670465946197510e-01,2.048673927783966064e-01,-5.770577117800712585e-02,1.298746913671493530e-01,7.272233814001083374e-02,-4.512305557727813721e-02,6.964422017335891724e-02,1.256326884031295776e-01
5.060384795069694519e-02,-1.939618140459060669e-01,8.884051442146301270e-02,-3.123889565467834473e-01,2.471170276403427124e-01,1.531054824590682983e-01,-4.061612188816070557e-01,1.192931383848190308e-01,6.896590441465377808e-02,-1.924387812614440918e-01,-3.485433757305145264e-01,-2.879782617092132568e-01,-1.338627636432647705e-01,-1.270448882132768631e-02,-3.771392405033111572e-01,-4.685492217540740967e-01,-1.161965504288673401e-01,-2.396113798022270203e-02,-1.491015683859586716e-02,-2.989635765552520752e-01,-3.766973316669464111e-01,3.213756978511810303e-01,7.089996337890625000e-02,-2.565026879310607910e-01,-4.234808683395385742e-01,3.331009447574615479e-01,-7.950236648321151733e-02,-2.110894471406936646e-01,-7.817895710468292236e-02,-2.119165658950805664e-02,-1.175963580608367920e-01,3.600388765335083008e-01,1.074269264936447144e-01,-1.453762501478195190e-01,2.370389997959136963e-01,-1.811800152063369751e-01,-1.054434385150671005e-02,5.729655269533395767e-03,-9.394355118274688721e-02,-2.871669530868530273e-01,4.894006997346878052e-02,-1.416873186826705933e-01,-2.020634114742279053e-01,-2.244349271059036255e-01,9.258707612752914429e-02,-1.454554498195648193e-01,-1.600081622600555420e-01,6.395990401506423950e-02,-5.672536790370941162e-02,2.015084624290466309e-01
-6.520666182041168213e-02,1.611307412385940552e-01,-2.190144360065460205e-01,-1.345635950565338135e-01,-3.621455132961273193e-01,1.524277478456497192e-01,1.840172410011291504e-01,6.096176803112030029e-02,3.121581375598907471e-01,-1.356892585754394531e-01,-4.964067786931991577e-02,1.024431884288787842e-01,1.932444870471954346e-01,2.793119847774505615e-01,-1.726077049970626831e-01,1.241616755723953247e-01,-2.352726608514785767e-01,-7.768987864255905151e-02,9.246741235256195068e-02,8.291634917259216309e-02,-1.302365660667419434e-01,2.056450992822647095e-01,1.765513569116592407e-01,-2.193877249956130981e-01,-4.176434576511383057e-01,1.415299177169799805e-01,2.358284890651702881e-01,3.700954094529151917e-02,1.419443637132644653e-01,-3.201469480991363525e-01,-2.424177229404449463e-01,6.669422239065170288e-02,2.176737338304519653e-01,6.905048340559005737e-02,-2.172877341508865356e-01,-5.749559998512268066e-01,-1.828396320343017578e-01,-2.931791841983795166e-01,1.594052463769912720e-01,-2.980856299400329590e-01,-3.638937175273895264e-01,-1.875448077917098999e-01,1.957165151834487915e-01,1.931718736886978149e-01,1.420724242925643921e-01,-3.904253244400024414e-01,1.215703785419464111e-01,4.017531499266624451e-02,1.563735455274581909e-01,1.609689444303512573e-01
-1.459463965147733688e-02,-7.391221076250076294e-02,-2.336574494838714600e-01,-2.640581130981445312e-01,-2.230973839759826660e-01,-1.681238971650600433e-02,2.121693491935729980e-01,-3.201711177825927734e-01,2.375141382217407227e-01,7.958483695983886719e-02,1.678916662931442261e-01,1.506684273481369019e-01,-2.234873622655868530e-01,-4.318632185459136963e-01,1.192282885313034058e-01,6.078359484672546387e-02,-1.178744584321975708e-01,-3.745208680629730225e-01,1.488851457834243774e-01,-1.918374150991439819e-01,-1.179383471608161926e-01,1.474862545728683472e-01,3.801375925540924072e-01,1.653468310832977295e-01,-1.856595128774642944e-01,1.772195100784301758e-01,1.285682469606399536e-01,9.853639639914035797e-03,1.205891072750091553e-01,-5.801193118095397949e-01,-1.400564424693584442e-02,-1.855975985527038574e-01,-2.460923343896865845e-01,4.730279371142387390e-02,-1.691378057003021240e-01,-2.182169854640960693e-01,1.831788569688796997e-01,4.416607916355133057e-01,-2.834734916687011719e-01,-8.338099718093872070e-02,2.677671015262603760e-01,-7.615254074335098267e-02,7.744426280260086060e-02,-4.770349264144897461e-01,4.283866584300994873e-01,5.124189853668212891e-01,1.244288161396980286e-01,-2.210496179759502411e-02,-3.439193591475486755e-02,2.256563901901245117e-01
2.411356121301651001e-01,7.747440040111541748e-02,1.639682948589324951e-01,-1.786318025551736355e-03,1.394169628620147705e-01,2.460163831710815430e-01,3.936772048473358154e-02,-2.309620566666126251e-02,-2.541769668459892273e-02,-6.885211914777755737e-02,-5.782978236675262451e-02,-7.842598855495452881e-02,2.608669996261596680e-01,-8.076710253953933716e-02,-5.914076566696166992e-01,1.259298473596572876e-01,3.494741022586822510e-01,-1.489569693803787231e-01,3.791510593146085739e-03,-9.219950437545776367e-02,5.285710468888282776e-02,2.091230899095535278e-01,-2.187494337558746338e-01,2.724046409130096436e-01,-1.726706773042678833e-01,-6.860360503196716309e-02,-4.400628805160522461e-01,-5.369489192962646484e-01,-1.834701150655746460e-01,-2.166654318571090698e-01,-7.611190527677536011e-02,4.637898504734039307e-02,6.413698196411132812e-02,2.154829725623130798e-02,-9.445216506719589233e-03,2.082906365394592285e-01,-3.000284731388092041e-01,-3.646624684333801270e-01,9.640713781118392944e-02,3.989443928003311157e-02,-4.045955538749694824e-01,9.894004464149475098e-02,2.859556488692760468e-02,1.499267071485519409e-01,-1.041423156857490540e-01,1.713672429323196411e-01,-4.871521592140197754e-01,5.802463740110397339e-02,-6.075293421745300293e-01,1.522207856178283691e-01
-5.514089763164520264e-02,-2.511644959449768066e-01,-2.715992927551269531e-01,-3.517440855503082275e-01,5.472904443740844727e-02,-3.328820765018463135e-01,2.741521298885345459e-01,4.682491421699523926e-01,2.658358514308929443e-01,1.337862610816955566e-01,9.275214374065399170e-02,2.987997233867645264e-01,-1.028573838993906975e-03,-2.311721295118331909e-01,-3.524078428745269775e-01,1.541885137557983398e-01,1.805189810693264008e-02,-1.594807654619216919e-01,3.169054985046386719e-01,-1.759583950042724609e-01,1.744100004434585571e-01,1.870058178901672363e-01,5.331318080425262451e-02,-2.899391055107116699e-01,2.173988670110702515e-01,9.104830026626586914e-02,-3.293406218290328979e-02,2.015213966369628906e-01,4.146572053432464600e-01,-2.191973328590393066e-01,1.413753330707550049e-01,7.365264743566513062e-02,-4.157431125640869141e-01,1.491709500551223755e-01,5.188171565532684326e-02,8.980780094861984253e-02,-1.273508220911026001e-01,3.976431787014007568e-01,-1.224876344203948975e-01,-1.564282178878784180e-01,-2.855481207370758057e-01,1.681859493255615234e-01,-1.507151573896408081e-01,-2.147467434406280518e-02,2.413777858018875122e-01,-1.253370046615600586e-01,-7.926310598850250244e-02,1.572066098451614380e-01,-1.587262898683547974e-01,-9.995301067829132080e-02
-2.963206470012664795e-01,-6.654712487943470478e-04,6.148136779665946960e-02,-1.025831624865531921e-01,-5.678813531994819641e-02,-2.465157508850097656e-01,-1.651200205087661743e-01,9.282404184341430664e-02,2.672448381781578064e-02,-1.984574347734451294e-01,-3.443903028964996338e-01,-1.138961538672447205e-01,1.985262036323547363e-01,-3.496357202529907227e-01,4.518373310565948486e-02,-1.578263123519718647e-03,1.197320744395256042e-01,1.773147284984588623e-01,9.186096489429473877e-02,-5.675439909100532532e-02,8.854018151760101318e-02,7.040580362081527710e-02,1.286775469779968262e-01,1.948887705802917480e-01,9.631705284118652344e-02,1.284307539463043213e-01,2.319216430187225342e-01,-2.517766058444976807e-01,-3.489734232425689697e-01,-1.191363111138343811e-01,-1.583959013223648071e-01,1.777271330356597900e-01,2.858107984066009521e-01,2.589799761772155762e-01,8.275117725133895874e-02,-2.082549780607223511e-01,-2.922951988875865936e-02,-1.577331684529781342e-02,-4.686931148171424866e-03,-2.811989188194274902e-01,-4.069865867495536804e-02,-1.198321487754583359e-02,1.860891282558441162e-01,-3.918496072292327881e-01,-2.421371079981327057e-02,-3.396993577480316162e-01,2.826472818851470947e-01,-5.057112872600555420e-02,1.020405441522598267e-01,-1.910134404897689819e-01
-2.431412041187286377e-01,-1.256621181964874268e-01,2.199376225471496582e-01,-1.838964223861694336e-01,-3.605000674724578857e-01,-4.798084199428558350e-01,-1.335504204034805298e-01,-2.161448448896408081e-02,2.895492911338806152e-01,1.759463697671890259e-01,-1.554848998785018921e-01,-2.011660635471343994e-01,-5.119062066078186035e-01,-7.435527443885803223e-02,4.964637458324432373e-01,-2.556400597095489502e-01,1.846784055233001709e-01,-4.906879365444183350e-02,-2.072585970163345337e-01,2.217505127191543579e-02,-6.951279938220977783e-02,-2.750057876110076904e-01,4.063696861267089844e-01,-1.787192672491073608e-01,-7.873240113258361816e-02,-1.584771871566772461e-01,3.665690720081329346e-01,2.389829754829406738e-01,1.941733360290527344e-01,-1.061250865459442139e-01,4.990494623780250549e-02,1.569860428571701050e-02,1.387038230895996094e-01,-2.183495908975601196e-01,-1.942279785871505737e-01,3.496648371219635010e-02,-3.627167083323001862e-03,5.634534358978271484e-02,-5.785284042358398438e-01,-3.215990662574768066e-01,2.343837320804595947e-01,2.121054567396640778e-02,-9.094357490539550781e-02,-1.581672132015228271e-01,5.858419463038444519e-03,-3.622782528400421143e-01,3.998766541481018066e-01,-1.917759031057357788e-01,2.276830077171325684e-01,-2.818625569343566895e-01
-2.564356923103332520e-01,2.245701104402542114e-02,8.948418498039245605e-02,2.046341747045516968e-01,8.330833911895751953e-02,1.360292434692382812e-01,1.642408668994903564e-01,1.658993512392044067e-01,-1.678537577390670776e-02,-5.114136263728141785e-02,1.947742998600006104e-01,-1.176972836256027222e-01,-2.187064588069915771e-01,1.599419265985488892e-01,-2.170225083827972412e-01,4.914506897330284119e-02,6.685978919267654419e-02,5.249597132205963135e-02,2.467214502394199371e-02,1.254553496837615967e-01,-4.132559895515441895e-01,8.117048442363739014e-02,3.509417548775672913e-02,-1.546760089695453644e-02,-6.407507508993148804e-02,8.788223564624786377e-02,-2.530282735824584961e-01,-2.762490510940551758e-01,-1.529561728239059448e-01,4.169100224971771240e-01,1.554079800844192505e-01,-3.786058723926544189e-02,-2.592669613659381866e-02,1.743932813405990601e-01,1.303692311048507690e-01,-2.187229245901107788e-01,-1.154400259256362915e-01,-5.769984796643257141e-02,2.516419291496276855e-01,2.895838320255279541e-01,-3.550592437386512756e-02,1.684037595987319946e-02,-8.858177810907363892e-02,1.853037439286708832e-02,8.633370697498321533e-02,1.321698576211929321e-01,6.383429747074842453e-03,1.535107642412185669e-01,-3.996768891811370850e-01,1.101009473204612732e-01
2.175875753164291382e-02,8.465690165758132935e-02,-6.627220660448074341e-02,-1.099602654576301575e-01,-2.682484388351440430e-01,-2.196005582809448242e-01,-5.533097386360168457e-01,1.588007509708404541e-01,-1.100113615393638611e-01,1.970488876104354858e-01,-2.402524203062057495e-01,6.546260416507720947e-02,-5.962980911135673523e-03,-3.802249133586883545e-01,1.952717453241348267e-01,-2.266062647104263306e-01,2.186052687466144562e-02,-1.499379426240921021e-02,3.419680893421173096e-02,1.920003257691860199e-02,-2.358860671520233154e-01,-1.265918761491775513e-01,3.907160162925720215e-01,-6.741566956043243408e-02,-4.589733108878135681e-02,-1.091396883130073547e-01,3.372418284416198730e-01,6.921061128377914429e-02,-8.043752610683441162e-02,-5.463291406631469727e-01,1.557325124740600586e-01,8.439286798238754272e-02,-1.613294184207916260e-01,-2.099680900573730469e-02,-8.238591998815536499e-02,-1.205326989293098450e-01,-2.735998034477233887e-01,4.929926693439483643e-01,-3.383896052837371826e-01,-1.509941276162862778e-02,1.558566093444824219e-02,-5.433192476630210876e-02,-6.359226256608963013e-02,-1.627591252326965332e-01,3.627235591411590576e-01,1.586685627698898315e-01,2.008785307407379150e-02,1.100037917494773865e-01,-1.911347508430480957e-01,2.751174867153167725e-01
9.873238205909729004e-02,1.156036257743835449e-01,7.517100870609283447e-02,8.305940032005310059e-02,5.718319211155176163e-03,-7.226510345935821533e-02,-1.123191863298416138e-01,-1.584054082632064819e-01,-6.649596244096755981e-02,6.691706180572509766e-02,-1.177402064204216003e-01,1.503072232007980347e-01,2.433797530829906464e-02,-6.509660929441452026e-02,5.681372061371803284e-02,-1.280918866395950317e-01,-1.478818245232105255e-02,1.982676684856414795e-01,1.562285572290420532e-01,7.976050674915313721e-02,1.343638300895690918e-01,-2.497504353523254395e-01,3.224817290902137756e-02,1.108116060495376587e-01,2.183095961809158325e-01,-3.922286331653594971e-01,-1.781691759824752808e-01,-1.082011684775352478e-01,-3.667916357517242432e-02,1.220839656889438629e-02,-1.359485089778900146e-02,1.316690593957901001e-01,-1.388865858316421509e-01,3.190216422080993652e-01,1.145791709423065186e-01,-1.532927304506301880e-01,1.351251006126403809e-01,5.420345664024353027e-01,-2.158967107534408569e-01,-1.207769736647605896e-01,6.396291404962539673e-02,7.967183738946914673e-02,2.067148685455322266e-01,-5.157019942998886108e-02,3.973913788795471191e-01,-8.100868016481399536e-02,3.169269859790802002e-01,-1.540819648653268814e-02,1.158995851874351501e-01,-3.491349890828132629e-02
1.380918174982070923e-01,-2.383513301610946655e-01,-3.397441804409027100e-01,1.353493519127368927e-02,-4.949376359581947327e-02,1.184226423501968384e-01,-1.933813840150833130e-01,1.086579486727714539e-01,-1.123318448662757874e-01,1.978928893804550171e-01,-2.323584854602813721e-01,-1.212193518877029419e-01,2.014170289039611816e-01,-1.536789387464523315e-01,-3.217797577381134033e-01,-2.817520499229431152e-01,2.222685329616069794e-02,-7.585962116718292236e-02,5.285797640681266785e-02,-1.642036139965057373e-01,-1.142934933304786682e-01,6.507941335439682007e-02,6.529451813548803329e-03,-4.577593877911567688e-02,-1.927614808082580566e-01,-9.645660221576690674e-02,1.296062320470809937e-01,-2.025884240865707397e-01,2.395645380020141602e-01,2.072008401155471802e-01,-1.884825527667999268e-01,-7.338713854551315308e-02,5.772161856293678284e-02,-2.638575434684753418e-01,-8.575509488582611084e-02,-4.632585123181343079e-02,-3.197151422500610352e-01,1.847611218690872192e-01,1.703965365886688232e-01,-2.836795449256896973e-01,3.513847291469573975e-02,1.267369389533996582e-01,-2.783619761466979980e-01,-2.747806906700134277e-01,4.163050949573516846e-01,2.647650837898254395e-01,-1.719322502613067627e-01,-6.039753556251525879e-02,-2.984083630144596100e-02,4.396132007241249084e-02
1.485557407140731812e-01,-5.030657723546028137e-02,1.070271283388137817e-01,8.866446465253829956e-02,1.191326528787612915e-01,-5.833318829536437988e-02,-2.426416873931884766e-01,2.716968953609466553e-01,-1.295177787542343140e-01,1.122778877615928650e-01,1.705812215805053711e-01,-8.655085228383541107e-03,4.657456576824188232e-01,-4.634214565157890320e-03,3.056313991546630859e-01,2.692625224590301514e-01,2.294384986162185669e-01,9.010500460863113403e-02,4.782356023788452148e-01,-4.546451196074485779e-02,1.653564125299453735e-01,-4.024477005004882812e-01,-1.257684826850891113e-01,3.155205249786376953e-01,2.578500211238861084e-01,-2.874461710453033447e-01,1.951248943805694580e-01,4.678611084818840027e-02,5.410467833280563354e-02,3.581768572330474854e-01,-3.484818339347839355e-02,2.448752522468566895e-01,-2.880142331123352051e-01,1.327860057353973389e-01,1.750078648328781128e-01,3.821370750665664673e-02,2.123358994722366333e-01,-5.882292985916137695e-02,2.980802953243255615e-01,3.783664703369140625e-01,1.370039880275726318e-01,-3.109627962112426758e-01,-3.233248591423034668e-01,-8.401139825582504272e-02,-5.871656537055969238e-01,-3.449054807424545288e-02,3.794343471527099609e-01,-9.757434576749801636e-02,8.424562960863113403e-02,2.307831794023513794e-01
3.110038936138153076e-01,-2.136160582304000854e-01,2.297177016735076904e-01,-2.068319618701934814e-01,2.826503217220306396e-01,1.421859022229909897e-03,1.585603058338165283e-01,5.373871326446533203e-02,-2.386754602193832397e-01,-2.131785452365875244e-02,1.257442384958267212e-01,4.280535131692886353e-02,8.650705218315124512e-02,3.009512647986412048e-02,-2.736985385417938232e-01,-2.753276228904724121e-01,5.393615737557411194e-02,-1.537233293056488037e-01,1.769269555807113647e-01,2.234183400869369507e-01,6.081416830420494080e-02,-5.119211226701736450e-02,1.115161553025245667e-02,-1.200170218944549561e-01,-1.360834091901779175e-01,3.340645134449005127e-01,-2.520745806396007538e-02,2.151614874601364136e-01,5.683353543281555176e-02,1.202580332756042480e-01,-1.151230409741401672e-01,3.277816176414489746e-01,-3.825415670871734619e-01,-2.917213737964630127e-01,2.573237940669059753e-02,2.116716839373111725e-02,5.493303388357162476e-02,1.083922339603304863e-03,-6.908813863992691040e-02,-3.853797912597656250e-02,6.045596301555633545e-02,-3.355846554040908813e-02,2.800956070423126221e-01,2.813575565814971924e-01,-1.787395775318145752e-02,-2.283802777528762817e-01,-4.367763549089431763e-02,-2.637526392936706543e-01,-3.077134490013122559e-01,3.415653407573699951e-01
-1.149500161409378052e-01,-6.769448518753051758e-02,9.354798821732401848e-04,-2.130111157894134521e-01,4.414228349924087524e-02,-8.628948777914047241e-02,1.741969771683216095e-02,-1.621223688125610352e-01,-1.804340034723281860e-01,5.149998888373374939e-02,4.915805906057357788e-02,-1.359368022531270981e-02,-1.752841025590896606e-01,-3.206762671470642090e-01,1.173074170947074890e-01,1.577511727809906006e-01,7.461319863796234131e-02,2.083084434270858765e-01,2.136277258396148682e-01,-1.225408911705017090e-01,1.847222074866294861e-02,-8.886045217514038086e-02,4.543419927358627319e-02,-1.157887279987335205e-01,-1.266341507434844971e-01,9.524349868297576904e-02,-2.904710769653320312e-01,-7.384962402284145355e-03,2.852074205875396729e-01,1.320039778947830200e-01,4.003721475601196289e-02,-1.070436239242553711e-01,8.628960698843002319e-02,-8.829370886087417603e-02,-1.125396490097045898e-01,2.263875305652618408e-01,-3.376475274562835693e-01,2.514882385730743408e-01,-3.526816144585609436e-02,-7.686311006546020508e-02,-3.850950300693511963e-01,-2.610430680215358734e-02,8.027522265911102295e-02,-1.151199638843536377e-01,-1.423970013856887817e-01,2.476063668727874756e-01,-3.907813727855682373e-01,7.894764840602874756e-02,-1.324811428785324097e-01,-7.234715670347213745e-02
-2.751249261200428009e-02,-1.176961958408355713e-01,7.164640724658966064e-02,3.192303329706192017e-02,2.541603147983551025e-01,-1.407607048749923706e-01,2.129865884780883789e-01,1.575592905282974243e-01,-9.828443825244903564e-02,-2.370290271937847137e-02,1.267051696777343750e-01,1.917152702808380127e-01,7.521012425422668457e-02,-3.802350759506225586e-01,-2.868965566158294678e-01,-4.781053215265274048e-02,9.582731872797012329e-02,2.474107891321182251e-01,2.121932506561279297e-01,-1.649623066186904907e-01,-2.755081951618194580e-01,1.882824599742889404e-01,-3.473039716482162476e-02,-9.660852700471878052e-02,1.101211607456207275e-01,2.020915150642395020e-01,1.911164522171020508e-01,-1.077724322676658630e-01,2.644745707511901855e-01,2.308206260204315186e-01,2.040441036224365234e-01,4.787060897797346115e-03,1.328682899475097656e-01,-8.073920011520385742e-02,-3.247737884521484375e-03,9.095918387174606323e-03,1.788707077503204346e-01,7.965497672557830811e-02,8.340025320649147034e-03,-1.079317107796669006e-01,-1.869375407695770264e-01,-4.863016307353973389e-03,2.727718055248260498e-01,-3.090535476803779602e-02,1.525956541299819946e-01,3.130465745925903320e-02,-1.282797753810882568e-01,2.005148530006408691e-01,-2.794596552848815918e-01,-7.751024793833494186e-03
