-4.057958349585533142e-02,9.680025279521942139e-02,-3.550700843334197998e-02,1.087569147348403931e-01,-1.808014512062072754e-01,-1.275122910737991333e-01,-5.371625423431396484e-01,-8.639091998338699341e-02,1.789571344852447510e-01,2.803795598447322845e-02,2.349657751619815826e-02,1.386331617832183838e-01,-2.044996246695518494e-02,6.816359609365463257e-02,4.773017391562461853e-02,-2.829087972640991211e-01,3.016845881938934326e-01,-2.601778209209442139e-01,1.413379609584808350e-01,1.494088768959045410e-01,1.985309123992919922e-01,2.161383628845214844e-02,-3.947911262512207031e-01,-2.489020973443984985e-01,1.848808228969573975e-01,-1.865343600511550903e-01,1.314003020524978638e-01,-1.722389645874500275e-02,-1.072570756077766418e-01,-1.591695845127105713e-01,-1.011541336774826050e-01,1.926337629556655884e-01,1.178064048290252686e-01,3.666147217154502869e-02,-1.379648000001907349e-01,-1.092403382062911987e-01,-3.477398455142974854e-01,-2.465677410364151001e-01,4.522536695003509521e-01,-7.876984775066375732e-02,-6.013618037104606628e-02,1.365677565336227417e-01,2.492600120604038239e-02,-1.883014738559722900e-01,-3.751160502433776855e-01,3.256838768720626831e-02,-5.478217005729675293e-01,6.258440613746643066e-01,6.392629444599151611e-02,-5.327818393707275391e-01
1.260581165552139282e-01,4.196324646472930908e-01,2.240929007530212402e-01,3.060092329978942871e-01,2.906035780906677246e-01,-3.625230491161346436e-01,3.148738741874694824e-01,-2.042522281408309937e-01,-1.818943619728088379e-01,-4.462075233459472656e-01,-6.829122453927993774e-02,-1.910856068134307861e-01,-5.279979854822158813e-02,-1.767941564321517944e-01,-3.102521300315856934e-01,-5.605001449584960938e-01,1.772815585136413574e-01,6.124900281429290771e-02,-5.265387892723083496e-01,4.197351634502410889e-02,-1.835617274045944214e-01,2.325244098901748657e-01,-6.878744065761566162e-02,1.948061734437942505e-01,1.835345178842544556e-01,1.618800014257431030e-01,-8.533092588186264038e-02,-2.589041292667388916e-01,2.548532187938690186e-02,3.290140330791473389e-01,-6.634705513715744019e-02,-1.249095574021339417e-01,-1.919264644384384155e-01,-2.623110711574554443e-01,2.068787254393100739e-02,-2.660595579072833061e-03,-3.300807476043701172e-01,4.909934848546981812e-02,-2.734436392784118652e-01,-3.185580670833587646e-01,-1.554167270660400391e-01,-4.009537398815155029e-02,-1.329745799303054810e-01,-2.482454329729080200e-01,-1.975418180227279663e-01,2.390134707093238831e-02,-4.235455095767974854e-01,1.132112890481948853e-01,-1.888653188943862915e-01,-3.818607926368713379e-01
-1.633854657411575317e-01,-3.700871765613555908e-01,2.688311338424682617e-01,-4.604773595929145813e-02,-4.686156511306762695e-01,-1.805747747421264648e-01,1.764933168888092041e-01,9.273482859134674072e-02,1.064824834465980530e-01,-3.417291939258575439e-01,3.482370404526591301e-03,-3.502386808395385742e-02,-2.651250958442687988e-01,-2.397820651531219482e-01,1.245258972048759460e-01,-2.492002099752426147e-01,1.233835592865943909e-01,-5.396955460309982300e-02,8.118678629398345947e-02,7.889664173126220703e-02,4.097632467746734619e-01,-3.374761939048767090e-01,-9.529198706150054932e-02,1.091246260330080986e-03,-4.781160056591033936e-01,3.018193840980529785e-01,-3.957177102565765381e-01,-4.115557670593261719e-01,-2.362565696239471436e-01,1.433785259723663330e-02,4.054745286703109741e-02,-3.028263896703720093e-02,1.328426003456115723e-01,-5.645132064819335938e-02,-4.781369566917419434e-01,7.053948193788528442e-02,-6.162192299962043762e-02,6.462022662162780762e-02,-3.289124667644500732e-01,3.232646882534027100e-01,1.550245285034179688e-01,-1.956947296857833862e-01,-7.577762752771377563e-02,2.417650371789932251e-01,-1.770480573177337646e-01,6.076543405652046204e-02,8.484845608472824097e-02,-2.153328657150268555e-01,3.922484442591667175e-02,-4.163373634219169617e-02
1.986502856016159058e-02,-2.281357496976852417e-01,-2.741397321224212646e-01,-3.607652708888053894e-02,-1.372612267732620239e-01,-3.284361362457275391e-01,-3.722873926162719727e-01,-5.278266221284866333e-02,3.482783213257789612e-02,-6.292673945426940918e-02,-1.965838111937046051e-02,3.204014524817466736e-02,4.974114596843719482e-01,-1.309497058391571045e-01,-2.154712677001953125e-01,-1.452743262052536011e-01,2.144390344619750977e-01,4.235045909881591797e-01,-2.546393871307373047e-01,-3.356535732746124268e-01,8.102470077574253082e-03,4.657143354415893555e-02,3.451197445392608643e-01,-1.826085746288299561e-01,-7.093349937349557877e-03,-1.802954226732254028e-01,2.908827066421508789e-01,2.798059955239295959e-02,1.577042974531650543e-02,-1.969782263040542603e-02,9.905923902988433838e-02,1.381758153438568115e-01,-3.617241978645324707e-01,-4.998667910695075989e-02,3.344527184963226318e-01,-3.028192520141601562e-01,1.498302221298217773e-01,-2.018507570028305054e-01,2.207004725933074951e-01,-5.754658579826354980e-02,4.473682492971420288e-02,-6.966554373502731323e-02,-2.842466831207275391e-01,1.040120199322700500e-01,2.372416257858276367e-01,3.427409529685974121e-01,2.514916360378265381e-01,8.748322725296020508e-02,-1.797835528850555420e-01,-9.693412482738494873e-02
1.411491781473159790e-01,-2.004119604825973511e-01,-1.015215665102005005e-01,-3.228738903999328613e-01,-1.677218228578567505e-01,5.494378879666328430e-02,1.645378470420837402e-01,-6.681367009878158569e-02,-2.196605652570724487e-01,-1.710785180330276489e-01,-4.682266153395175934e-03,-9.786918759346008301e-02,1.195544302463531494e-01,-2.894832491874694824e-01,-1.987981945276260376e-01,1.328428387641906738e-01,-6.029886193573474884e-03,-2.012275531888008118e-02,-1.055814921855926514e-01,-1.111354976892471313e-01,4.199533537030220032e-02,1.145163848996162415e-01,-1.709595024585723877e-01,-3.104160428047180176e-01,-1.719032078981399536e-01,1.363101750612258911e-01,7.685375958681106567e-02,-2.092493884265422821e-02,-2.497752010822296143e-01,6.164756789803504944e-02,-2.745309099555015564e-02,-1.123255044221878052e-01,-1.622154563665390015e-01,7.747349143028259277e-02,1.869001053273677826e-02,-8.551141247153282166e-03,6.639430671930313110e-02,2.175346575677394867e-02,9.968040511012077332e-03,-1.192949712276458740e-01,1.250528991222381592e-01,9.714301675558090210e-02,-1.183069795370101929e-01,-1.053447648882865906e-01,-1.625404059886932373e-01,1.345549225807189941e-01,-1.329336464405059814e-01,-6.551689002662897110e-03,9.432126581668853760e-02,-2.556739747524261475e-01
3.601065576076507568e-01,4.746026396751403809e-01,-4.390114545822143555e-02,2.887723268941044807e-03,1.637739688158035278e-01,3.566579818725585938e-01,4.041709601879119873e-01,2.108633965253829956e-01,-3.541391193866729736e-01,-3.771207034587860107e-01,3.200011849403381348e-01,-1.106372922658920288e-01,-4.282551705837249756e-01,8.573644608259201050e-02,-4.039106667041778564e-01,-3.030591309070587158e-01,2.098262310028076172e-02,1.239716559648513794e-01,-1.247763782739639282e-01,-1.624293476343154907e-01,-1.262632608413696289e-01,3.582395911216735840e-01,1.688817888498306274e-01,-1.920146346092224121e-01,2.118219286203384399e-01,2.937143146991729736e-01,-2.590235769748687744e-01,3.344508633017539978e-02,9.287313558161258698e-03,1.589184403419494629e-01,9.191670268774032593e-02,-3.124601244926452637e-01,1.130629852414131165e-01,-1.012796834111213684e-01,-1.194742918014526367e-01,1.306428909301757812e-01,-1.315051764249801636e-01,-7.541093230247497559e-02,-4.056175947189331055e-01,-1.013110429048538208e-01,2.638954520225524902e-01,1.450315862894058228e-01,1.885182112455368042e-01,-1.023399606347084045e-01,2.129852026700973511e-01,-1.951574385166168213e-01,-1.739184409379959106e-01,-3.230336308479309082e-01,-3.436078131198883057e-01,2.921580672264099121e-01
-2.197740972042083740e-01,-4.053043425083160400e-01,7.899539917707443237e-02,2.591846287250518799e-01,1.223279237747192383e-01,-6.274825334548950195e-02,-3.589694499969482422e-01,3.493937849998474121e-02,8.847809582948684692e-02,-8.584052324295043945e-02,2.495659887790679932e-01,-1.446154117584228516e-01,-9.441895782947540283e-02,6.370267271995544434e-02,8.715616911649703979e-02,-3.899510204792022705e-01,1.403196342289447784e-02,-1.926780790090560913e-01,-4.055086895823478699e-02,7.004388421773910522e-02,2.127299755811691284e-01,-2.456901967525482178e-01,-1.011180728673934937e-01,-6.327947974205017090e-02,-4.865236878395080566e-01,1.556392759084701538e-01,-1.174268200993537903e-01,4.553608596324920654e-01,5.233993753790855408e-02,9.623905643820762634e-03,-1.226381286978721619e-01,2.355912923812866211e-01,2.817516922950744629e-01,-1.205364540219306946e-01,-1.098068803548812866e-02,-1.782023906707763672e-01,-5.285623669624328613e-01,-2.385634370148181915e-02,5.430946871638298035e-02,-2.861854434013366699e-01,-3.035103678703308105e-01,-2.627878785133361816e-01,1.637433022260665894e-01,-1.782577484846115112e-02,-1.942222118377685547e-01,6.998555362224578857e-02,3.318287432193756104e-01,-9.436759352684020996e-02,-3.099684119224548340e-01,-1.784937381744384766e-01
-1.834881752729415894e-01,-2.527161240577697754e-01,-1.024546474218368530e-01,-2.788567841053009033e-01,-3.699179738759994507e-02,2.729781866073608398e-01,-2.060807645320892334e-01,1.386818438768386841e-01,-3.667858242988586426e-01,5.373925566673278809e-01,-3.979092463850975037e-02,5.012233853340148926e-01,-2.057128958404064178e-02,2.360039204359054565e-01,-3.280544579029083252e-01,4.211667478084564209e-01,2.641739845275878906e-01,-5.309699773788452148e-01,4.860626161098480225e-02,-2.291856333613395691e-02,-2.823615968227386475e-01,9.474222897551953793e-04,6.978262960910797119e-02,-1.632635146379470825e-01,-2.913515781983733177e-03,-3.300683572888374329e-02,1.886661201715469360e-01,-3.483836725354194641e-02,-2.818541228771209717e-01,-1.446156203746795654e-01,-2.746824920177459717e-01,1.309091746807098389e-01,-4.161546826362609863e-01,-1.387393474578857422e-01,2.309385687112808228e-01,4.948015883564949036e-02,3.750849664211273193e-01,-8.851728588342666626e-02,-1.127810850739479065e-01,-3.014287650585174561e-01,-3.690991103649139404e-01,-1.201227605342864990e-01,-9.753718227148056030e-02,1.425087153911590576e-01,-2.518069744110107422e-01,-4.868709743022918701e-01,8.205363899469375610e-02,-1.086030602455139160e-01,-1.791329383850097656e-01,-5.940490402281284332e-03
-3.665317967534065247e-02,1.071093678474426270e-01,-5.209162831306457520e-01,-3.041859567165374756e-01,-1.821876317262649536e-01,6.439018994569778442e-02,-2.177553623914718628e-01,1.872797757387161255e-01,-3.534455224871635437e-02,-6.402204632759094238e-01,3.630996122956275940e-02,-6.825513243675231934e-01,3.412350416183471680e-01,-1.703373789787292480e-01,-8.522370457649230957e-02,1.303583849221467972e-02,1.909199208021163940e-01,4.986515268683433533e-02,2.338399738073348999e-02,-1.610735207796096802e-01,-2.329663038253784180e-01,-2.254758775234222412e-01,3.838915526866912842e-01,-9.330392628908157349e-02,-8.715451508760452271e-02,1.862006336450576782e-01,3.645362854003906250e-01,3.610399961471557617e-01,-8.199734240770339966e-02,2.401670515537261963e-01,-1.365116983652114868e-01,-4.208612814545631409e-02,2.157451026141643524e-02,-1.613993197679519653e-01,2.370527237653732300e-01,1.059996932744979858e-01,7.503441721200942993e-02,-3.864105045795440674e-01,-7.801215648651123047e-01,-2.223376184701919556e-02,1.402985006570816040e-01,6.885272264480590820e-02,-1.294806748628616333e-01,-2.377247363328933716e-01,2.250249236822128296e-01,1.242939978837966919e-01,1.047936901450157166e-01,-5.914254784584045410e-01,-3.121376633644104004e-01,-2.496873736381530762e-01
2.754775583744049072e-01,5.889290198683738708e-02,-2.212885469198226929e-01,-2.673676609992980957e-01,7.550944387912750244e-02,1.587307266891002655e-02,2.167636901140213013e-01,-1.443998068571090698e-01,-3.435627222061157227e-01,9.143178164958953857e-02,-1.254943758249282837e-01,1.132685393095016479e-01,1.713197976350784302e-01,-2.867309749126434326e-01,-1.006234362721443176e-01,3.098700940608978271e-01,-1.303869932889938354e-01,2.097515016794204712e-01,2.950688600540161133e-01,6.500529497861862183e-02,6.226056814193725586e-02,-4.447381198406219482e-02,3.332723677158355713e-01,9.487412869930267334e-02,-3.144623339176177979e-02,9.011992067098617554e-02,1.821616590023040771e-01,-4.185019731521606445e-01,-2.100172787904739380e-01,-6.383961532264947891e-03,-1.155131086707115173e-01,3.916034102439880371e-01,-1.907424926757812500e-01,1.920062750577926636e-01,-5.661477148532867432e-02,-3.473384678363800049e-01,2.533482611179351807e-01,-5.100515112280845642e-02,-9.136236272752285004e-03,-8.080310374498367310e-02,1.935772597789764404e-01,4.197603464126586914e-01,9.596946090459823608e-02,1.055935248732566833e-01,1.452188044786453247e-01,-3.151709437370300293e-01,-5.763878114521503448e-03,1.757768541574478149e-01,2.055176533758640289e-02,1.984278410673141479e-01
2.350917607545852661e-01,-2.168986797332763672e-01,-3.994675874710083008e-01,-5.771069526672363281e-01,-2.442084252834320068e-02,-4.288898110389709473e-01,2.333329468965530396e-01,-6.876840442419052124e-02,-9.847705066204071045e-02,1.977984607219696045e-01,-1.225024834275245667e-01,2.442772984504699707e-01,6.443638354539871216e-02,-3.580854237079620361e-01,-3.031742572784423828e-01,2.116024196147918701e-01,-1.906196475028991699e-01,-1.661653518676757812e-01,1.464223861694335938e-01,1.147045940160751343e-01,-4.374044239521026611e-01,-2.666987851262092590e-02,-2.321386784315109253e-01,2.508651614189147949e-01,-1.520150750875473022e-01,1.401206105947494507e-01,-1.359516829252243042e-01,-2.685475051403045654e-01,-3.008504211902618408e-01,-1.759194135665893555e-01,9.802198410034179688e-02,-1.433677822351455688e-01,-2.431588023900985718e-01,-1.856712400913238525e-01,7.503323256969451904e-02,7.742677628993988037e-02,3.457967936992645264e-01,-1.735553592443466187e-01,2.513851225376129150e-01,-2.120241522789001465e-01,2.043248862028121948e-01,-4.855541884899139404e-02,-4.325018823146820068e-01,-8.537578582763671875e-02,-9.387229569256305695e-03,-1.910614669322967529e-01,4.364975169301033020e-02,-4.137252867221832275e-01,-3.276834264397621155e-02,2.738022208213806152e-01
-9.274671785533428192e-03,6.795990467071533203e-02,-1.667988151311874390e-01,-1.115800291299819946e-01,-1.336689442396163940e-01,-4.574782401323318481e-02,-1.036699861288070679e-01,9.840440470725297928e-04,5.031464993953704834e-02,-2.000330239534378052e-01,8.904120326042175293e-02,7.538435608148574829e-02,2.127756178379058838e-01,-3.054260313510894775e-01,2.449139356613159180e-01,-2.916367948055267334e-01,-4.489330202341079712e-02,-6.623151898384094238e-02,1.834431886672973633e-01,4.089806079864501953e-01,-2.504912577569484711e-02,-2.658810615539550781e-01,-2.592334151268005371e-01,2.006702274084091187e-01,4.042522609233856201e-02,-8.440460078418254852e-03,1.818552017211914062e-01,1.567740589380264282e-01,2.270525097846984863e-01,1.211604624986648560e-01,2.092893421649932861e-01,-1.573364585638046265e-01,9.500442445278167725e-02,3.550778925418853760e-01,-1.267322599887847900e-01,-3.697820007801055908e-02,-2.316697686910629272e-01,2.332129329442977905e-01,1.306267380714416504e-01,6.578812003135681152e-02,-1.124733388423919678e-01,-1.295278817415237427e-01,-1.109711639583110809e-02,-1.944450736045837402e-01,2.658128440380096436e-01,-3.864777982234954834e-01,-5.359889864921569824e-01,-2.557212710380554199e-01,-1.338288336992263794e-01,1.177862659096717834e-01
2.420960366725921631e-01,-1.489297300577163696e-01,-2.961120605468750000e-01,-2.548769414424896240e-01,-2.361523360013961792e-01,3.944744467735290527e-01,-1.486997306346893311e-01,3.160652518272399902e-01,1.319024115800857544e-01,-2.746869623661041260e-02,3.072845041751861572e-01,-1.958921551704406738e-01,2.624908387660980225e-01,-1.078982204198837280e-01,-1.054102554917335510e-01,-2.437541335821151733e-01,1.266917679458856583e-02,-6.251043081283569336e-02,2.465866357088088989e-01,-2.417231798171997070e-01,-1.494839936494827271e-01,3.202559053897857666e-01,2.692275643348693848e-01,-2.990016341209411621e-01,-1.088164970278739929e-01,2.262958697974681854e-02,1.031296029686927795e-01,7.173421978950500488e-02,-5.394975543022155762e-01,4.938091710209846497e-02,1.115193590521812439e-01,3.242513909935951233e-02,2.880611689761281013e-03,-9.545905143022537231e-02,5.709245055913925171e-02,-3.976404368877410889e-01,-8.960515260696411133e-02,-3.936495482921600342e-01,-1.830183267593383789e-01,-1.026143953204154968e-01,1.197083517909049988e-01,8.605914562940597534e-02,-1.168174892663955688e-01,-2.066249400377273560e-01,-6.698436290025711060e-02,1.368451565504074097e-01,-2.573495171964168549e-02,-6.007875874638557434e-02,-1.872438043355941772e-01,-2.637617588043212891e-01
2.759577333927154541e-01,-2.464049756526947021e-01,-7.706066244281828403e-04,2.717516720294952393e-01,-2.671462297439575195e-01,-2.800897955894470215e-01,-3.426380753517150879e-01,-1.013735309243202209e-01,-9.788524359464645386e-02,-1.469945013523101807e-01,-7.564741373062133789e-02,-4.566910862922668457e-01,-3.537232577800750732e-01,2.962770871818065643e-02,2.011423707008361816e-01,4.052691459655761719e-01,-4.839156568050384521e-02,1.210459172725677490e-01,1.740778684616088867e-01,-1.976323127746582031e-01,-1.050556153059005737e-01,1.769331693649291992e-01,1.887495443224906921e-02,2.623950242996215820e-01,-1.052076891064643860e-01,-2.020896375179290771e-01,2.052016109228134155e-01,-4.124439358711242676e-01,1.343684941530227661e-01,1.477439552545547485e-01,-4.220989346504211426e-02,-1.718744039535522461e-01,-1.601389795541763306e-02,2.488782554864883423e-01,2.788105905055999756e-01,-4.763188064098358154e-01,3.454056680202484131e-01,-2.054728195071220398e-02,-4.675735905766487122e-02,5.473433993756771088e-03,-1.783735156059265137e-01,-1.790979802608489990e-01,3.391205668449401855e-01,-1.542578637599945068e-01,-2.543497681617736816e-01,2.718792259693145752e-01,3.175374493002891541e-02,-2.783336043357849121e-01,3.161001368425786495e-04,1.679619699716567993e-01
-1.478465199470520020e-01,4.770395532250404358e-02,-1.222595199942588806e-01,1.800962239503860474e-01,-3.161334618926048279e-02,3.835344612598419189e-01,1.881616264581680298e-01,2.605415582656860352e-01,-2.997734248638153076e-01,-2.841063439846038818e-01,6.270621716976165771e-02,-1.851739585399627686e-01,-9.242866188287734985e-02,1.805520206689834595e-01,-1.694741100072860718e-02,4.118956625461578369e-02,2.265609055757522583e-01,6.137729808688163757e-02,-8.132731169462203979e-02,-2.478497773408889771e-01,-1.892287656664848328e-02,5.143935978412628174e-02,2.405496388673782349e-01,-2.979080080986022949e-01,-4.347486048936843872e-02,-2.011269778013229370e-01,-9.674111753702163696e-02,-2.118155509233474731e-01,2.106938064098358154e-01,-9.551502764225006104e-02,-1.306968480348587036e-01,2.877804338932037354e-01,1.316668242216110229e-01,6.628402322530746460e-02,-1.264127641916275024e-01,-4.011922776699066162e-01,-1.754677593708038330e-01,-4.748965427279472351e-02,-2.514214953407645226e-03,6.389315426349639893e-02,-1.976183801889419556e-01,2.212628573179244995e-01,9.677729010581970215e-02,-2.853550612926483154e-01,-1.925287395715713501e-01,-2.375164330005645752e-01,-2.666690759360790253e-02,5.022184923291206360e-02,-1.185063049197196960e-01,-3.264374732971191406e-01
1.808662414550781250e-01,6.583181768655776978e-02,1.766478270292282104e-01,2.518511116504669189e-01,-6.493867933750152588e-02,-4.844648018479347229e-02,-1.591609716415405273e-01,-1.307984888553619385e-01,-3.124995529651641846e-01,-1.694344431161880493e-01,5.910198390483856201e-02,-1.329165399074554443e-01,5.647686123847961426e-02,-2.864761352539062500e-01,-2.963533699512481689e-01,-1.260104775428771973e-01,-2.976742386817932129e-01,-2.224235236644744873e-01,-2.002452686429023743e-02,-3.028492927551269531e-01,5.425903573632240295e-02,-2.518051564693450928e-01,1.302393078804016113e-01,-2.390740066766738892e-01,1.626345068216323853e-01,-2.262389510869979858e-01,4.022569209337234497e-02,-1.720450632274150848e-02,3.424026966094970703e-01,-3.738117218017578125e-01,-2.775437533855438232e-01,-1.037369593977928162e-01,-1.129549816250801086e-01,1.060234457254409790e-01,-3.068210780620574951e-01,1.098444908857345581e-01,-9.785334765911102295e-02,-2.808885276317596436e-01,-2.688673436641693115e-01,3.598674014210700989e-02,-7.154224812984466553e-02,-3.357655704021453857e-01,-2.742528915405273438e-01,-1.618622690439224243e-01,4.549118876457214355e-01,2.323102653026580811e-01,-2.499259561300277710e-01,2.111078798770904541e-01,-2.198008000850677490e-01,5.488785356283187866e-02
1.050342395901679993e-01,3.710748860612511635e-03,4.225868582725524902e-01,2.021344304084777832e-01,7.766199111938476562e-02,-2.410135976970195770e-02,1.216794699430465698e-01,-4.355327486991882324e-01,1.448660641908645630e-01,1.374080032110214233e-01,-3.778816014528274536e-02,5.149574205279350281e-02,-1.839474439620971680e-01,3.727393448352813721e-01,4.075217545032501221e-01,-1.467419117689132690e-01,-1.272176206111907959e-01,-2.743676602840423584e-01,-1.326498687267303467e-01,3.223618725314736366e-03,1.285160630941390991e-01,-1.665197685360908508e-02,-2.563264667987823486e-01,2.043348364531993866e-02,-4.006998836994171143e-01,-2.883398719131946564e-02,-5.558543279767036438e-02,-1.610174626111984253e-01,-1.354642361402511597e-01,-5.141519010066986084e-02,-3.104246258735656738e-01,-5.130659341812133789e-01,-1.669895946979522705e-01,-1.468201261013746262e-02,-3.234338015317916870e-02,-2.738396525382995605e-01,-5.670150741934776306e-02,-1.143325716257095337e-01,2.026867680251598358e-02,5.636612698435783386e-02,2.187728732824325562e-01,-2.002207189798355103e-02,3.131322860717773438e-01,1.078986451029777527e-01,2.688874490559101105e-02,-6.267302036285400391e-01,-2.113080471754074097e-01,-2.671767771244049072e-02,1.411100178956985474e-01,5.105470120906829834e-02
-8.313587307929992676e-02,2.684142589569091797e-01,3.743319511413574219e-01,1.220907121896743774e-01,-1.974902004003524780e-01,-2.168486267328262329e-01,-2.253663986921310425e-01,1.404250711202621460e-01,-1.873248517513275146e-01,3.267109394073486328e-01,-1.602229773998260498e-01,1.416465789079666138e-01,-4.484308660030364990e-01,-2.120690979063510895e-02,-5.646488666534423828e-01,3.118649721145629883e-01,-1.535305827856063843e-01,-1.526132822036743164e-01,6.141576543450355530e-02,-1.742817461490631104e-01,-1.983151137828826904e-01,3.793323636054992676e-01,1.907950192689895630e-01,1.669671982526779175e-01,-1.045424342155456543e-01,-1.853594332933425903e-01,-1.831135302782058716e-01,2.293554693460464478e-01,-5.161601305007934570e-01,-5.697806477546691895e-01,-5.797947645187377930e-01,-1.999525278806686401e-01,-3.228902220726013184e-01,-3.526504635810852051e-01,-1.213371567428112030e-02,9.322074055671691895e-02,-1.182685047388076782e-01,-3.181949257850646973e-01,1.692364811897277832e-01,-3.799681663513183594e-01,1.179006919264793396e-01,6.590156257152557373e-02,9.984896332025527954e-02,-1.167248785495758057e-01,-3.480518162250518799e-01,-1.018073037266731262e-01,-5.397820100188255310e-02,2.752784192562103271e-01,-2.521868646144866943e-01,-3.343391716480255127e-01
-1.615390479564666748e-01,-1.773587018251419067e-01,-3.538025021553039551e-01,4.219286739826202393e-01,2.854974567890167236e-01,-2.496843934059143066e-01,3.013653159141540527e-01,3.216483071446418762e-02,-2.513530850410461426e-01,-2.530385255813598633e-01,-2.388635873794555664e-01,1.272405032068490982e-02,-2.859093546867370605e-01,-3.518683910369873047e-01,-2.145082950592041016e-01,8.316743373870849609e-02,-2.659533321857452393e-01,6.418050080537796021e-02,-1.278628557920455933e-01,-2.806524336338043213e-01,-4.875726997852325439e-01,8.558208495378494263e-02,-2.717351913452148438e-01,1.351828426122665405e-01,1.734319329261779785e-02,4.040995240211486816e-01,8.131550997495651245e-02,-4.795404896140098572e-02,-2.053860016167163849e-02,-1.754693090915679932e-01,3.714143484830856323e-02,-3.468321561813354492e-01,2.353738397359848022e-01,6.750297546386718750e-02,-4.851646348834037781e-02,-1.044993847608566284e-01,1.633156985044479370e-01,5.846289172768592834e-02,-5.077184364199638367e-02,4.297171533107757568e-02,1.807758361101150513e-01,1.994387358427047729e-01,-3.922467231750488281e-01,-4.201033152639865875e-03,1.044046506285667419e-02,9.424510598182678223e-02,-8.301744610071182251e-02,-2.952333390712738037e-01,-2.247169166803359985e-01,1.797285228967666626e-01
1.759928464889526367e-01,2.457988560199737549e-01,2.986161410808563232e-01,5.170024186372756958e-02,5.603437125682830811e-02,-3.248023390769958496e-01,2.746231257915496826e-01,-2.183652948588132858e-03,-2.195281833410263062e-01,-1.101509109139442444e-01,-1.301443129777908325e-01,6.065126135945320129e-02,-3.838304802775382996e-02,-2.128397673368453979e-01,-1.886031180620193481e-01,-1.004069820046424866e-01,-2.628474533557891846e-01,1.581847369670867920e-01,-6.306318193674087524e-02,-4.383266866207122803e-01,2.090086787939071655e-01,-8.703704178333282471e-02,-2.937708795070648193e-01,6.716217845678329468e-02,4.812993481755256653e-02,-2.582609951496124268e-01,-1.213789135217666626e-01,-4.860720336437225342e-01,3.095685243606567383e-01,4.482530802488327026e-02,1.021335273981094360e-01,-5.214262604713439941e-01,-3.513049483299255371e-01,-2.975098323076963425e-03,8.929804712533950806e-02,2.929076924920082092e-02,1.664613634347915649e-01,-1.979222446680068970e-01,-4.188076779246330261e-02,-3.224613368511199951e-01,2.221080474555492401e-02,-1.552916020154953003e-01,-6.481309980154037476e-02,3.618988767266273499e-02,-6.588965654373168945e-02,2.795058488845825195e-01,-2.701210975646972656e-01,-1.729536568745970726e-03,-2.199391834437847137e-02,7.478898763656616211e-02
-4.652869701385498047e-02,-3.362723290920257568e-01,-4.524153769016265869e-01,-1.920287609100341797e-01,-2.013940364122390747e-01,7.943907380104064941e-02,-3.074703216552734375e-01,-2.783016301691532135e-02,-2.032504230737686157e-01,2.221414148807525635e-01,-1.959484219551086426e-01,2.102416902780532837e-01,1.716771423816680908e-01,-2.025551497936248779e-01,-2.968105375766754150e-01,1.777165383100509644e-01,-3.149837628006935120e-02,-1.196445450186729431e-01,1.900497227907180786e-01,9.431245923042297363e-02,-1.470819413661956787e-01,-1.706758588552474976e-01,4.533926248550415039e-01,2.287607342004776001e-01,-1.408362239599227905e-01,-2.152442932128906250e-01,4.612421691417694092e-01,-1.031857207417488098e-01,-2.331154346466064453e-01,-1.099006161093711853e-01,-7.204075157642364502e-02,2.564901411533355713e-01,-9.364365041255950928e-02,1.326489448547363281e-01,3.806076198816299438e-02,-2.468579113483428955e-01,4.865770041942596436e-01,-3.418528735637664795e-01,3.763745725154876709e-01,-2.136882767081260681e-02,1.205865889787673950e-01,-1.672305464744567871e-01,-3.039444424211978912e-02,3.183869719505310059e-01,-4.104015529155731201e-01,-3.377579152584075928e-01,-2.605129592120647430e-02,2.777376472949981689e-01,-1.098740659654140472e-02,1.461395472288131714e-01
6.590323895215988159e-02,2.597345411777496338e-01,2.786366343498229980e-01,2.897642850875854492e-01,2.802400290966033936e-01,-8.494732528924942017e-02,-2.656861841678619385e-01,1.608439385890960693e-01,-5.786815658211708069e-02,-5.316714048385620117e-01,1.385690718889236450e-01,-3.532507121562957764e-01,-2.547239661216735840e-01,5.550776794552803040e-02,2.103914320468902588e-01,-4.784680604934692383e-01,-2.566539943218231201e-01,3.263913840055465698e-02,-3.136969506740570068e-01,-1.886529177427291870e-01,6.815646588802337646e-02,3.741979598999023438e-01,-3.168690800666809082e-01,5.713448300957679749e-02,6.381237413734197617e-03,2.566211521625518799e-01,-2.547247409820556641e-01,1.896073222160339355e-01,1.383313536643981934e-01,1.641519367694854736e-01,-2.988387644290924072e-01,-5.103330612182617188e-01,1.605691611766815186e-01,-9.975355863571166992e-02,-2.545736730098724365e-01,8.364540338516235352e-02,8.745752274990081787e-03,-1.748488992452621460e-01,-2.517994046211242676e-01,-1.169320791959762573e-01,-1.558815091848373413e-01,-1.828125417232513428e-01,8.751764893531799316e-02,-3.558461368083953857e-01,4.043469429016113281e-01,3.010469675064086914e-01,-2.014033645391464233e-01,-1.552453786134719849e-01,-1.542560160160064697e-01,-4.461050033569335938e-01
-2.579720318317413330e-01,-3.659559786319732666e-01,-2.077428847551345825e-01,-1.455849260091781616e-01,-3.515368793159723282e-03,6.872707605361938477e-02,-4.698199033737182617e-01,-5.484988540410995483e-02,-8.321626111865043640e-03,1.881381422281265259e-01,-2.836320996284484863e-01,-3.965860009193420410e-01,1.076883971691131592e-01,7.134821265935897827e-02,2.215518150478601456e-03,1.357249170541763306e-01,-2.393081039190292358e-01,-1.666695028543472290e-01,1.062596887350082397e-01,2.329429835081100464e-01,2.251030057668685913e-01,1.735109835863113403e-02,9.485018998384475708e-02,-2.092040777206420898e-01,-1.465516090393066406e-01,1.913755238056182861e-01,1.010822970420122147e-02,8.976574055850505829e-03,-8.796776086091995239e-02,-1.851543337106704712e-01,-1.647021174430847168e-01,1.853063106536865234e-01,5.199958756566047668e-02,1.410306692123413086e-01,-6.976866722106933594e-02,-9.494206309318542480e-02,2.210841923952102661e-01,-9.746782481670379639e-02,-1.156435012817382812e-01,-2.312931716442108154e-01,-7.196377962827682495e-02,-4.615817368030548096e-01,2.796274423599243164e-02,2.709232270717620850e-01,-5.550137162208557129e-01,-6.778758019208908081e-02,2.921099066734313965e-01,-6.435667723417282104e-02,-1.086370497941970825e-01,1.961565464735031128e-01
-9.141320735216140747e-02,-4.437843263149261475e-01,-4.152221605181694031e-02,-1.393115371465682983e-01,6.880217790603637695e-02,5.546544119715690613e-02,-1.713696420192718506e-01,2.329923212528228760e-01,-3.345516324043273926e-01,-4.792473614215850830e-01,1.535571813583374023e-01,-3.421114087104797363e-01,2.325815707445144653e-01,1.081275101751089096e-02,1.608455479145050049e-01,-1.477190703153610229e-01,2.799504697322845459e-01,3.932509124279022217e-01,-1.700019687414169312e-01,-1.694029420614242554e-01,-2.233669012784957886e-01,-4.177594780921936035e-01,3.593910336494445801e-01,-4.396742880344390869e-01,1.293247491121292114e-01,-8.216732740402221680e-02,2.007635496556758881e-02,1.606735736131668091e-01,1.648526638746261597e-01,2.862708568572998047e-01,3.167202174663543701e-01,2.793010175228118896e-01,-7.061147689819335938e-02,-5.925831943750381470e-02,4.334057569503784180e-01,1.956188380718231201e-01,2.063646912574768066e-01,-1.289029605686664581e-02,-5.218318700790405273e-01,4.949873313307762146e-02,1.170559078454971313e-01,-3.220838606357574463e-01,-4.315782189369201660e-01,-1.180506646633148193e-01,5.285929888486862183e-02,6.410731673240661621e-01,1.289615780115127563e-01,1.363869309425354004e-01,2.065717577934265137e-01,-1.903516650199890137e-01
-1.041656881570816040e-01,-4.238836839795112610e-02,-8.365640789270401001e-02,-3.201364874839782715e-01,2.396683394908905029e-01,2.255957014858722687e-02,-7.719498127698898315e-02,2.620257139205932617e-01,-1.755913197994232178e-01,-1.623863279819488525e-01,-1.851497143507003784e-01,-5.598559975624084473e-01,4.508644044399261475e-01,-2.216206490993499756e-01,-3.322688341140747070e-01,-7.217372953891754150e-02,1.045633181929588318e-01,-4.515723884105682373e-02,-1.503230780363082886e-01,-6.924761831760406494e-02,2.165105342864990234e-01,1.140436828136444092e-01,9.615366347134113312e-03,-4.229068011045455933e-02,1.410970464348793030e-02,-2.513773739337921143e-01,1.789874732494354248e-01,3.262567799538373947e-03,3.285825848579406738e-01,1.724424809217453003e-01,4.692357033491134644e-02,6.175556033849716187e-02,5.912717431783676147e-02,8.131065219640731812e-02,-1.557212173938751221e-01,1.337053179740905762e-01,3.413141667842864990e-01,-4.037420451641082764e-01,-1.199394017457962036e-01,-9.578194469213485718e-03,-2.416065186262130737e-01,-4.807556271553039551e-01,-9.040713310241699219e-02,-3.396692574024200439e-01,2.822624146938323975e-01,3.900301456451416016e-01,-9.963484853506088257e-02,3.056126832962036133e-01,-4.700513482093811035e-01,-1.291877925395965576e-01
-2.227427996695041656e-02,-1.395680606365203857e-01,3.517453074455261230e-01,1.496061235666275024e-01,-9.639132767915725708e-03,4.917212948203086853e-02,-2.813298702239990234e-01,8.801704645156860352e-02,-8.459255844354629517e-02,7.669357210397720337e-02,-1.827672868967056274e-01,-2.076514065265655518e-01,-1.310431957244873047e-02,1.212930008769035339e-01,7.377418130636215210e-02,-1.209497638046741486e-02,-1.988746970891952515e-01,1.451220642775297165e-02,7.012844830751419067e-02,-2.898945240303874016e-03,-3.898769244551658630e-02,6.165343523025512695e-02,-3.418555557727813721e-01,2.935645282268524170e-01,-8.840867877006530762e-02,-2.107910960912704468e-01,-3.955957666039466858e-02,1.859820485115051270e-01,-3.164786100387573242e-01,1.903232038021087646e-01,4.161761701107025146e-02,-2.360602021217346191e-01,-7.887321710586547852e-02,-3.294965252280235291e-02,1.477418094873428345e-01,-3.897565901279449463e-01,-1.365303099155426025e-01,-2.980567812919616699e-01,1.936482340097427368e-01,-3.763514161109924316e-01,9.723100066184997559e-02,7.200214546173810959e-03,2.578462958335876465e-01,-3.167541697621345520e-02,-1.511295139789581299e-01,-3.928171992301940918e-01,-1.872345618903636932e-02,4.425478875637054443e-01,-1.090933457016944885e-01,-6.579791754484176636e-02
-1.192539855837821960e-01,-2.018131911754608154e-01,-1.218098178505897522e-01,1.704614236950874329e-02,1.288731992244720459e-01,-8.884173631668090820e-02,2.078675776720046997e-01,1.244434490799903870e-01,-1.753505878150463104e-02,1.761100888252258301e-01,-2.316564023494720459e-01,1.313367020338773727e-02,-3.722793161869049072e-01,5.480244755744934082e-03,-2.282519489526748657e-01,-2.305384725332260132e-01,1.532341390848159790e-01,-1.505333036184310913e-01,1.289417743682861328e-01,1.451146602630615234e-01,1.180717349052429199e-01,1.475427597761154175e-01,-1.301744673401117325e-02,-3.989102318882942200e-02,1.021325439214706421e-01,-9.699179977178573608e-02,-2.991526424884796143e-01,-1.633815467357635498e-01,3.734876215457916260e-02,-3.371051251888275146e-01,-2.480877637863159180e-01,-9.877102822065353394e-02,2.237563878297805786e-01,-2.513979673385620117e-01,-3.379484117031097412e-01,1.024762541055679321e-01,-4.748245179653167725e-01,1.129824221134185791e-01,3.823483884334564209e-01,-2.506688237190246582e-01,-1.647171825170516968e-01,1.344264894723892212e-01,1.950529366731643677e-01,4.705956950783729553e-02,-1.982892155647277832e-01,-3.021730482578277588e-01,-2.939676642417907715e-01,2.882840931415557861e-01,5.674245208501815796e-02,-1.209022253751754761e-01
8.415241539478302002e-02,3.198803663253784180e-01,8.780155330896377563e-02,1.795615553855895996e-01,-1.686839312314987183e-01,2.237178385257720947e-03,-3.344312012195587158e-01,-5.211025103926658630e-02,1.517288386821746826e-01,6.940313428640365601e-02,-9.818842262029647827e-02,2.294164746999740601e-01,-3.585734367370605469e-01,5.091120004653930664e-01,1.776704192161560059e-01,1.532595008611679077e-01,-4.159788787364959717e-01,3.675473332405090332e-01,1.746809482574462891e-01,5.380670726299285889e-02,-1.808684766292572021e-01,3.929017782211303711e-01,-4.324944913387298584e-01,9.005717188119888306e-02,7.691586017608642578e-02,-2.664564549922943115e-01,-1.340897679328918457e-01,1.802526973187923431e-02,-8.040473610162734985e-02,-2.133100479841232300e-01,-5.314668640494346619e-02,-7.957004755735397339e-02,-8.190185576677322388e-02,3.440552949905395508e-02,8.605124801397323608e-02,-3.068759441375732422e-01,-9.908230602741241455e-02,-4.955554381012916565e-02,9.727946668863296509e-02,-2.562360465526580811e-01,9.158886969089508057e-02,3.588266298174858093e-02,1.757827401161193848e-01,-3.931353241205215454e-02,-4.609727859497070312e-01,-1.384145021438598633e-01,2.460227161645889282e-01,3.511821329593658447e-01,2.216380235040560365e-04,-3.877987340092658997e-02
1.839011758565902710e-01,1.035061478614807129e-01,1.148662418127059937e-01,9.469886869192123413e-02,4.698869585990905762e-01,1.690780967473983765e-01,2.017541825771331787e-01,-1.674372702836990356e-01,-3.239545524120330811e-01,-5.211601257324218750e-01,-1.659177392721176147e-01,-3.074910044670104980e-01,-2.037996798753738403e-01,-1.462141722440719604e-01,-1.271577477455139160e-01,-1.428893506526947021e-01,9.284435212612152100e-02,4.351100325584411621e-01,-3.787055015563964844e-01,-8.516986668109893799e-02,-2.295586913824081421e-01,-7.849550247192382812e-02,-3.806034624576568604e-01,1.044481340795755386e-02,1.533332169055938721e-01,-5.072794854640960693e-02,5.842581763863563538e-02,-1.989193446934223175e-02,1.460911631584167480e-01,1.584797501564025879e-01,1.052721869200468063e-02,-6.073790192604064941e-01,-2.035319805145263672e-01,-7.862242311239242554e-02,-8.489857614040374756e-02,2.189132571220397949e-01,-3.955441415309906006e-01,1.586154699325561523e-01,-1.987630724906921387e-01,1.617309004068374634e-01,9.964843839406967163e-02,1.038475856184959412e-01,-3.528365120291709900e-02,-2.684558331966400146e-01,3.762431144714355469e-01,-4.112334176898002625e-02,-1.252588927745819092e-01,-2.093859314918518066e-01,-3.548051714897155762e-01,-4.163594171404838562e-02
-2.498451322317123413e-01,-1.356116980314254761e-01,-8.210591971874237061e-02,2.015206962823867798e-01,-3.245249688625335693e-01,-3.998365700244903564e-01,-4.809611290693283081e-02,1.304429620504379272e-01,-1.648886501789093018e-01,2.003103047609329224e-01,-3.615197241306304932e-01,1.166718304157257080e-01,-1.013325527310371399e-01,1.174360960721969604e-01,2.903481759130954742e-02,-7.591921836137771606e-02,3.576477244496345520e-02,-2.882686555385589600e-01,1.886136233806610107e-01,-2.960048913955688477e-01,-8.546911925077438354e-02,1.002609059214591980e-01,-5.432641133666038513e-02,-6.748299300670623779e-02,5.710884928703308105e-02,-2.363931983709335327e-01,-5.425474792718887329e-02,-2.644092775881290436e-02,3.103230521082878113e-02,-1.838160157203674316e-01,-1.528867613524198532e-02,1.243578121066093445e-01,-1.779802590608596802e-01,-5.244341865181922913e-02,6.833010911941528320e-02,2.957325279712677002e-01,6.583358161151409149e-03,8.357483148574829102e-02,-2.144675701856613159e-01,-3.437633514404296875e-01,1.736987084150314331e-01,1.466663032770156860e-01,1.672824025154113770e-01,-2.510496973991394043e-01,-1.933868229389190674e-02,-1.671924889087677002e-01,-1.940812170505523682e-02,-7.570236921310424805e-02,1.048042178153991699e-01,-2.958277463912963867e-01
-5.955652892589569092e-02,2.945596873760223389e-01,-2.455477230250835419e-02,1.524143815040588379e-01,-1.049389243125915527e-01,2.279350608587265015e-01,-1.168907955288887024e-01,-2.695936858654022217e-01,2.308008633553981781e-02,1.372387399896979332e-03,-2.133952975273132324e-01,-5.135273933410644531e-01,-3.584179654717445374e-02,6.003989651799201965e-02,-6.095376983284950256e-02,-4.626636952161788940e-02,-2.037124335765838623e-01,4.772012680768966675e-02,-5.414226651191711426e-01,4.062799215316772461e-01,-4.569313526153564453e-01,3.849973380565643311e-01,1.659837663173675537e-01,-2.727459967136383057e-01,2.209830582141876221e-01,1.770979762077331543e-01,7.884991914033889771e-02,1.566667258739471436e-01,-1.166049093008041382e-01,3.237143754959106445e-01,1.004576534032821655e-01,6.512718391604721546e-04,-1.289837155491113663e-02,3.518658876419067383e-02,-2.586869001388549805e-01,2.415845543146133423e-01,1.070972830057144165e-01,5.394762754440307617e-02,-6.543245166540145874e-02,-1.948070228099822998e-01,1.447013616561889648e-01,2.206977009773254395e-01,-1.784221231937408447e-01,8.618324995040893555e-02,-9.876162558794021606e-02,-8.901536464691162109e-02,-2.315616980195045471e-02,-8.237922191619873047e-02,1.676968485116958618e-02,-2.331577427685260773e-02
2.169261127710342407e-01,-1.031106859445571899e-01,-7.434948533773422241e-02,1.841624081134796143e-01,-1.508812755346298218e-01,1.830419711768627167e-02,-1.667733490467071533e-02,-5.045239925384521484e-01,1.195862367749214172e-01,-2.651999890804290771e-01,-1.762641519308090210e-01,-4.167053103446960449e-01,-2.516054362058639526e-02,1.106841936707496643e-01,-3.019272685050964355e-01,-2.608464658260345459e-01,1.135200858116149902e-01,-1.314128786325454712e-01,-4.715305864810943604e-01,1.316512078046798706e-01,2.704265117645263672e-01,1.057345569133758545e-01,-1.732458621263504028e-01,-1.492092609405517578e-01,-4.138494431972503662e-01,4.009348154067993164e-02,-1.520314961671829224e-01,-4.264027476310729980e-01,2.102282792329788208e-01,7.977958768606185913e-02,-1.596999913454055786e-01,9.598784893751144409e-02,-4.056700039654970169e-03,-9.405663609504699707e-02,-4.110426902770996094e-01,-5.157142877578735352e-01,1.784317493438720703e-01,-4.132982343435287476e-02,2.812938094139099121e-01,-3.168376684188842773e-01,-2.374973744153976440e-01,3.870486319065093994e-01,1.836616098880767822e-01,3.108157813549041748e-01,-1.312268078327178955e-01,-4.446740746498107910e-01,-1.051111742854118347e-01,2.718303501605987549e-01,-1.468180865049362183e-01,-4.805968403816223145e-01
-1.336174458265304565e-01,1.689140126109123230e-02,1.444329619407653809e-01,-1.733682006597518921e-01,-2.204638719558715820e-01,-3.077596127986907959e-01,3.039301335811614990e-01,-1.479461789131164551e-01,-3.416706323623657227e-01,-1.828748285770416260e-01,-8.745213970541954041e-03,5.268720537424087524e-02,3.691745921969413757e-02,1.648246347904205322e-01,-1.247497722506523132e-01,-1.184456869959831238e-01,1.706614345312118530e-01,-1.393336504697799683e-01,-1.764585226774215698e-01,-1.483339518308639526e-01,-2.767771780490875244e-01,1.592018008232116699e-01,-1.333305090665817261e-01,-2.356071621179580688e-01,-2.570169568061828613e-01,-5.385136976838111877e-02,3.016603887081146240e-01,-7.055430859327316284e-02,1.178324688225984573e-03,-4.806068539619445801e-02,-1.290933042764663696e-01,-8.195779472589492798e-02,-3.104070387780666351e-02,2.375695109367370605e-01,-1.067625265568494797e-02,-3.211840093135833740e-01,-1.496578939259052277e-02,1.051292717456817627e-01,2.593663632869720459e-01,1.673898398876190186e-01,1.375138014554977417e-01,-3.162630368024110794e-03,-2.620241940021514893e-01,2.994840145111083984e-01,2.302772402763366699e-01,-2.453080117702484131e-01,-8.995071053504943848e-02,1.842140555381774902e-01,-1.287108361721038818e-01,-1.483325660228729248e-01
-1.724333614110946655e-01,-4.342060983180999756e-01,-3.063263744115829468e-02,3.406593501567840576e-01,8.636189252138137817e-02,-2.706542909145355225e-01,-7.733508944511413574e-02,7.867117226123809814e-02,5.328640714287757874e-02,-3.452182710170745850e-01,-4.639833569526672363e-01,3.764255642890930176e-01,1.357971131801605225e-01,1.190682724118232727e-01,4.229241609573364258e-01,2.976494431495666504e-01,-1.316459476947784424e-01,2.427479475736618042e-01,-1.850509345531463623e-01,-9.255265444517135620e-02,-3.605783581733703613e-01,-9.456821531057357788e-02,-2.978822290897369385e-01,2.666851282119750977e-01,-4.117856025695800781e-01,-2.663307189941406250e-01,-3.090953528881072998e-01,9.227950125932693481e-02,1.630349606275558472e-01,-1.005026027560234070e-01,-2.312114983797073364e-01,-7.942707836627960205e-02,-3.678719699382781982e-01,-1.005431041121482849e-01,1.571226269006729126e-01,1.136743202805519104e-01,-1.810432672500610352e-01,4.735187441110610962e-02,-1.578994989395141602e-01,2.362111816182732582e-03,-2.333878278732299805e-01,-4.759854078292846680e-01,-3.506223857402801514e-01,2.240150421857833862e-01,-2.445827573537826538e-01,2.839229404926300049e-01,2.654361128807067871e-01,-1.399127952754497528e-02,9.092418104410171509e-02,2.880534529685974121e-02
-7.334664463996887207e-02,-2.759042382240295410e-01,1.486262958496809006e-02,-1.384399831295013428e-01,-1.291082203388214111e-01,1.709716171026229858e-01,-7.014293223619461060e-02,-1.999141871929168701e-01,-1.348870247602462769e-01,1.820977032184600830e-01,-6.916248053312301636e-02,6.574726849794387817e-02,-2.464292943477630615e-02,-4.878520667552947998e-01,-2.957901358604431152e-02,4.045965075492858887e-01,-2.231912314891815186e-01,-1.535045504570007324e-01,-8.856693655252456665e-02,2.723038792610168457e-01,-1.190751269459724426e-01,-2.954147160053253174e-01,6.281047314405441284e-02,3.627844154834747314e-02,-1.851652115583419800e-01,3.215267062187194824e-01,4.260558187961578369e-01,-8.168578147888183594e-01,-2.269932627677917480e-01,3.700358793139457703e-02,-6.448041647672653198e-02,-2.912823557853698730e-01,-5.264039337635040283e-02,3.207337483763694763e-02,-5.784386396408081055e-02,-9.026823192834854126e-02,3.893259465694427490e-01,3.110864898189902306e-03,-2.090227603912353516e-02,1.630044579505920410e-01,1.250879168510437012e-01,2.514938823878765106e-02,1.965928524732589722e-01,7.729027420282363892e-02,-4.359472692012786865e-01,-4.054773449897766113e-01,1.425877511501312256e-01,-8.801224082708358765e-02,6.322036683559417725e-02,2.610313296318054199e-01
-1.625205278396606445e-01,3.018645644187927246e-01,5.878538265824317932e-02,5.855174362659454346e-02,-3.171743154525756836e-01,-3.839420080184936523e-01,-3.667920231819152832e-01,2.364948689937591553e-01,-3.754486143589019775e-01,-1.733430176973342896e-01,-3.426220715045928955e-01,2.112286686897277832e-01,-6.332113593816757202e-02,1.971957236528396606e-01,6.272414326667785645e-01,-1.849965602159500122e-01,2.563756890594959259e-02,-1.257183253765106201e-01,-3.067295253276824951e-01,1.091816052794456482e-01,-1.993528008460998535e-01,6.602260470390319824e-02,4.009797796607017517e-02,-6.373918056488037109e-02,2.123659849166870117e-01,-1.315937936305999756e-01,4.425750076770782471e-01,5.964029580354690552e-02,3.262850344181060791e-01,-1.549984514713287354e-01,4.620512127876281738e-01,-3.909915685653686523e-01,-1.710366457700729370e-01,5.894832015037536621e-01,-5.064495280385017395e-02,-1.178135648369789124e-01,1.618604063987731934e-01,2.249483168125152588e-01,2.042539864778518677e-01,-3.516587018966674805e-01,1.112657636404037476e-01,-3.341244161128997803e-01,-1.563934236764907837e-01,6.389954686164855957e-02,5.660280585289001465e-02,1.929859369993209839e-01,2.709120213985443115e-01,1.675603985786437988e-01,1.931391507387161255e-01,-2.596905641257762909e-02
2.340338975191116333e-01,1.465222388505935669e-01,1.148201674222946167e-01,8.855768293142318726e-02,2.202357351779937744e-02,-1.037106513977050781e-01,-4.357347637414932251e-02,1.231724470853805542e-01,-2.249721623957157135e-02,1.395042836666107178e-01,1.030707508325576782e-01,-2.391327545046806335e-02,-2.197518646717071533e-01,1.255201995372772217e-01,5.843842402100563049e-02,1.245744898915290833e-01,-1.219087764620780945e-01,-8.084034174680709839e-02,6.456805020570755005e-02,-3.452769294381141663e-02,-8.736486546695232391e-03,6.399992853403091431e-03,-4.088229238986968994e-01,2.493738979101181030e-01,1.681666634976863861e-02,-3.196712136268615723e-01,-3.065256476402282715e-01,-1.862579435110092163e-01,-2.167501747608184814e-01,-6.237464770674705505e-02,1.362338960170745850e-01,1.986450850963592529e-01,1.082835048437118530e-01,-2.382909059524536133e-01,-2.043168246746063232e-01,-2.572046518325805664e-01,-1.776291131973266602e-01,-1.199013143777847290e-01,1.881665438413619995e-01,-1.798494458198547363e-01,9.515445679426193237e-02,1.261233687400817871e-01,2.183602899312973022e-01,-1.658290624618530273e-01,-6.196627020835876465e-01,-5.516058206558227539e-01,1.785834901966154575e-03,4.052212238311767578e-01,-1.587071716785430908e-01,-2.257986962795257568e-01
-2.380959093570709229e-01,1.095082983374595642e-02,-2.150104148313403130e-03,-2.115271687507629395e-01,-1.576593220233917236e-01,7.550293207168579102e-02,2.787102460861206055e-01,-5.223467946052551270e-01,1.929108984768390656e-03,-4.657103419303894043e-01,1.707730740308761597e-01,2.398516982793807983e-01,-1.913556158542633057e-01,-2.505220770835876465e-01,1.528143286705017090e-01,-1.861783564090728760e-01,-2.992207407951354980e-01,-1.472820341587066650e-01,8.962531387805938721e-02,2.528274357318878174e-01,9.001696482300758362e-03,-4.037467837333679199e-01,8.788695186376571655e-02,3.469567298889160156e-01,-2.440874874591827393e-01,6.265247464179992676e-01,-1.167696565389633179e-01,-1.640364527702331543e-01,-1.968657374382019043e-01,-2.248234301805496216e-01,-1.958498805761337280e-01,-1.410509347915649414e-01,2.345203906297683716e-01,2.884471714496612549e-01,-1.770673394203186035e-01,2.076574116945266724e-01,1.544677466154098511e-01,-5.860808864235877991e-02,-2.619393765926361084e-01,7.914003729820251465e-02,2.850589156150817871e-01,-9.436310827732086182e-02,-1.064086779952049255e-01,-2.785822935402393341e-02,2.399614453315734863e-01,-4.597712159156799316e-01,2.315526455640792847e-01,-7.460016608238220215e-01,-2.173909395933151245e-01,-1.085558086633682251e-01
1.138012409210205078e-01,-4.230047464370727539e-01,-3.589020073413848877e-01,2.432751357555389404e-01,7.414621114730834961e-02,2.006006985902786255e-01,-1.800503581762313843e-01,-3.048067390918731689e-01,2.536657750606536865e-01,-1.793942749500274658e-01,3.221510723233222961e-02,-1.354340612888336182e-01,6.651838868856430054e-02,5.153186321258544922e-01,5.721058249473571777e-01,-5.603584051132202148e-01,2.326665967702865601e-01,-3.455802202224731445e-01,-8.252067863941192627e-02,-2.741841673851013184e-01,-4.757536947727203369e-02,-1.795607432723045349e-02,-4.100551307201385498e-01,4.481384530663490295e-02,-1.807744503021240234e-01,5.089255794882774353e-02,6.912226974964141846e-02,1.224262788891792297e-01,2.622894942760467529e-01,-2.348221838474273682e-01,1.468643397092819214e-01,1.128692775964736938e-01,-5.315562337636947632e-02,3.012453615665435791e-01,1.430430263280868530e-01,-2.697177231311798096e-02,-3.051124513149261475e-01,4.166795015335083008e-01,1.269519478082656860e-01,1.096982881426811218e-01,-3.261037766933441162e-01,-1.006852313876152039e-01,-1.560249030590057373e-01,8.111994713544845581e-02,-1.778686344623565674e-01,-1.108181662857532501e-02,-4.868490248918533325e-02,2.160821110010147095e-01,6.554941534996032715e-01,1.638996452093124390e-01
3.334874510765075684e-01,1.739214807748794556e-01,1.567987054586410522e-01,-1.502593606710433960e-01,-1.090853735804557800e-01,5.651162266731262207e-01,2.560046017169952393e-01,4.010453075170516968e-02,8.912057429552078247e-02,6.837724149227142334e-02,2.989408969879150391e-01,3.920122683048248291e-01,1.162806451320648193e-01,-2.891169628128409386e-03,-1.850708723068237305e-01,-6.629754602909088135e-02,-1.584428250789642334e-01,-4.316341578960418701e-01,2.755460143089294434e-01,1.924432069063186646e-01,2.968769967555999756e-01,1.966666132211685181e-01,3.415399491786956787e-01,-4.573786854743957520e-01,-1.312911361455917358e-01,-4.011709690093994141e-01,1.670106500387191772e-01,-2.944267913699150085e-02,3.769033774733543396e-02,2.340382784605026245e-01,7.135475426912307739e-02,-1.905906051397323608e-01,2.502575516700744629e-01,-5.394066101871430874e-04,1.211458742618560791e-01,-2.145350873470306396e-01,-5.665040761232376099e-02,-2.501120865345001221e-01,1.364482752978801727e-02,8.665481209754943848e-02,-1.666801273822784424e-01,7.216345071792602539e-01,1.753356009721755981e-01,-2.981926202774047852e-01,3.864727020263671875e-01,1.035728603601455688e-01,-1.449067890644073486e-01,-3.684189915657043457e-02,2.778112590312957764e-01,-1.269487440586090088e-01
-8.260442316532135010e-02,1.171607524156570435e-03,6.076212599873542786e-02,-6.312323808670043945e-01,9.185425937175750732e-03,2.333697378635406494e-01,2.071992605924606323e-01,-2.753291726112365723e-01,-3.708270192146301270e-02,-2.847657799720764160e-01,-3.570178057998418808e-03,3.703958392143249512e-01,-4.041799604892730713e-01,-4.076055437326431274e-02,4.062220752239227295e-01,-3.145898878574371338e-01,2.035651803016662598e-01,-3.566935360431671143e-01,-9.003171324729919434e-02,8.949401974678039551e-02,1.054995432496070862e-01,-2.634471282362937927e-02,-5.205552652478218079e-02,-2.300417423248291016e-01,-9.324122220277786255e-02,2.134151756763458252e-01,3.411183357238769531e-01,-7.740518450736999512e-02,1.096113994717597961e-01,4.610240831971168518e-02,2.625971138477325439e-01,-3.510453701019287109e-01,-2.594633698463439941e-01,1.384692639112472534e-01,-1.523399055004119873e-01,1.006890833377838135e-01,-2.114349789917469025e-02,-4.383410140872001648e-02,2.064699530601501465e-01,3.692591190338134766e-01,1.090700030326843262e-01,-5.903459340333938599e-02,3.225139155983924866e-02,1.789875775575637817e-01,4.394165873527526855e-01,-6.129494309425354004e-02,-3.475076258182525635e-01,-6.304217129945755005e-02,5.745251774787902832e-01,-4.511732980608940125e-02
1.405447125434875488e-01,1.935281008481979370e-01,4.481320381164550781e-01,-6.615301221609115601e-02,-3.126060590147972107e-02,1.565983295440673828e-01,7.586811552755534649e-04,1.693961173295974731e-01,1.784606873989105225e-01,8.772133849561214447e-03,4.456693306565284729e-02,-1.989778727293014526e-01,1.309533864259719849e-01,2.242940366268157959e-01,5.277938023209571838e-02,3.763619363307952881e-01,-8.783241361379623413e-02,9.987302124500274658e-02,-5.175779759883880615e-02,2.547288239002227783e-01,-3.051174879074096680e-01,-5.078892409801483154e-02,-1.194757744669914246e-01,1.617707759141921997e-01,7.036228477954864502e-02,-3.818134590983390808e-02,-3.585189282894134521e-01,-3.460037112236022949e-01,6.218894198536872864e-02,2.366291917860507965e-02,4.815563932061195374e-02,-6.175330877304077148e-01,-1.445345878601074219e-01,-1.729741245508193970e-01,1.658823527395725250e-02,-1.201646998524665833e-01,-1.046351119875907898e-01,-2.762995846569538116e-02,-2.439354658126831055e-01,-7.133436948060989380e-02,-5.690934136509895325e-02,5.983962491154670715e-02,-3.762396275997161865e-01,2.080465434119105339e-03,2.978078834712505341e-02,2.720019817352294922e-01,1.059940680861473083e-01,7.788010686635971069e-02,2.603233605623245239e-02,1.783414185047149658e-01
-1.093873009085655212e-02,8.511336147785186768e-02,-2.829065620899200439e-01,-1.672861166298389435e-02,-3.187929391860961914e-01,1.934402287006378174e-01,-8.493777364492416382e-02,-6.412500888109207153e-02,1.996187306940555573e-02,-4.501787424087524414e-01,2.354846596717834473e-01,1.078455746173858643e-01,-1.634962558746337891e-01,-5.210072919726371765e-02,-9.995862096548080444e-02,-2.961285710334777832e-01,-4.374068677425384521e-01,-3.800421059131622314e-01,-4.094361513853073120e-02,2.584309279918670654e-01,-2.920148372650146484e-01,-3.346932828426361084e-01,2.029055207967758179e-01,2.658816576004028320e-01,-3.856772780418395996e-01,6.053894162178039551e-01,-1.718301475048065186e-01,-2.018192857503890991e-01,1.033148318529129028e-01,-2.928257882595062256e-01,-2.751640379428863525e-01,-7.024297863245010376e-02,1.163729801774024963e-01,-7.156877964735031128e-02,1.721494793891906738e-01,3.504655510187149048e-02,-1.436351388692855835e-01,2.988972067832946777e-01,-2.140071690082550049e-01,4.048725217580795288e-02,1.797414571046829224e-01,1.486543416976928711e-01,-1.284084469079971313e-01,2.814236097037792206e-02,2.595652453601360321e-02,-6.574791669845581055e-02,-1.707777976989746094e-01,-3.469054698944091797e-01,-9.179634600877761841e-02,2.360352873802185059e-01
1.964758038520812988e-01,-4.879719913005828857e-01,-3.308458924293518066e-01,2.632074430584907532e-02,3.193579018115997314e-01,2.318097949028015137e-01,-2.017021179199218750e-01,-3.146464824676513672e-01,-4.978723824024200439e-02,2.933590859174728394e-02,2.345578074455261230e-01,-2.745539844036102295e-01,9.606759250164031982e-02,3.991359844803810120e-03,-2.240144461393356323e-02,-1.467410475015640259e-01,-2.653001546859741211e-01,4.088491201400756836e-01,1.291069835424423218e-01,-1.020490825176239014e-01,-1.531300842761993408e-01,-3.455030024051666260e-01,-1.708277016878128052e-01,1.014623194932937622e-01,-3.013880252838134766e-01,-4.114952683448791504e-01,-4.568587839603424072e-01,1.774716526269912720e-01,-2.317689955234527588e-01,-4.519524052739143372e-02,-4.087190032005310059e-01,2.907367944717407227e-01,1.090667396783828735e-01,-3.291076421737670898e-01,1.202874109148979187e-01,-2.094614610541611910e-04,-3.992748856544494629e-01,-1.429467648267745972e-01,-7.718340307474136353e-02,4.795444309711456299e-01,-2.961108386516571045e-01,2.296356484293937683e-02,-1.421710476279258728e-02,1.377689838409423828e-01,-7.546775043010711670e-02,-5.749973654747009277e-02,-1.072502434253692627e-01,-1.368211060762405396e-01,4.997801408171653748e-02,8.801987394690513611e-03
-2.196265384554862976e-02,-9.423630312085151672e-03,-1.685119816102087498e-03,3.143015503883361816e-01,4.368212223052978516e-01,-4.377171397209167480e-01,4.884111881256103516e-02,7.476242026314139366e-04,-1.783715635538101196e-01,-7.751692831516265869e-02,-1.982657015323638916e-01,1.718518733978271484e-01,-2.089212238788604736e-01,8.465708233416080475e-03,-2.151612788438796997e-01,-1.050367429852485657e-01,-1.773357540369033813e-01,2.706953883171081543e-01,-2.653874158859252930e-01,-4.162309169769287109e-01,-1.758106350898742676e-01,4.298301041126251221e-01,-1.163411978632211685e-02,4.938293248414993286e-03,-9.055454283952713013e-02,2.229754328727722168e-01,-3.581150248646736145e-02,-3.580127060413360596e-01,-3.443130850791931152e-02,2.512559890747070312e-01,1.872487179934978485e-02,-1.122983545064926147e-02,-1.739233136177062988e-01,-5.229802429676055908e-02,2.231846153736114502e-01,7.793043553829193115e-02,-1.244838759303092957e-01,-2.815715968608856201e-01,-1.101723462343215942e-01,-2.890809476375579834e-01,1.573213189840316772e-01,2.577133476734161377e-01,1.788209825754165649e-01,-2.520201206207275391e-01,-2.445322275161743164e-01,5.509273707866668701e-02,-1.370766311883926392e-01,1.203924193978309631e-01,-1.515384912490844727e-01,8.764309436082839966e-02
-1.207327544689178467e-01,-2.638559937477111816e-01,1.497800946235656738e-01,-3.031072020530700684e-01,-1.046750769019126892e-01,-1.803437024354934692e-01,1.686848402023315430e-01,-1.852225065231323242e-01,-2.982449233531951904e-01,-1.251506358385086060e-01,-2.634775638580322266e-02,2.190529853105545044e-01,-1.232309639453887939e-01,-3.950067460536956787e-01,-4.588373377919197083e-02,3.396506011486053467e-01,-5.996605381369590759e-02,-2.454465925693511963e-01,-3.629651665687561035e-01,-1.214010640978813171e-02,1.861748993396759033e-01,9.020927362143993378e-03,3.588362410664558411e-02,-1.342464834451675415e-01,-3.451569676399230957e-01,-2.184786647558212280e-01,2.939391508698463440e-02,7.804816216230392456e-02,-1.284094601869583130e-01,5.834764614701271057e-02,-6.095685437321662903e-02,-2.053595483303070068e-01,-3.135084407404065132e-03,-6.901519745588302612e-02,-3.003624454140663147e-02,-2.084862589836120605e-01,-5.012089759111404419e-02,-2.898331880569458008e-01,2.303239703178405762e-01,1.076410412788391113e-01,-2.523932754993438721e-01,5.898610129952430725e-02,1.528825704008340836e-02,7.936144247651100159e-03,1.865490227937698364e-01,2.483555078506469727e-01,1.374780535697937012e-01,-4.364272058010101318e-01,-4.249875545501708984e-01,-2.601447105407714844e-01
-2.202376425266265869e-01,2.240626066923141479e-01,-5.518985986709594727e-01,5.096742510795593262e-01,2.124179154634475708e-01,-2.745916834101080894e-03,2.936664521694183350e-01,-2.882481217384338379e-01,-1.865736991167068481e-01,2.774349600076675415e-02,-6.112388372421264648e-01,1.823499798774719238e-01,2.973039448261260986e-01,1.103856042027473450e-01,-1.388060767203569412e-02,-2.427035272121429443e-01,1.755326092243194580e-01,-2.838906645774841309e-01,-5.228406190872192383e-01,2.172415852546691895e-01,-3.890054821968078613e-01,1.275538504123687744e-01,6.509910523891448975e-02,-3.126084804534912109e-02,-4.515426233410835266e-02,4.609782993793487549e-01,-4.021609574556350708e-02,2.456646971404552460e-02,4.784582555294036865e-01,-2.480437904596328735e-01,1.432075351476669312e-01,3.594911098480224609e-01,-2.043681591749191284e-01,-6.986515969038009644e-02,1.723571419715881348e-01,2.145848870277404785e-01,-4.546152427792549133e-02,-1.657645404338836670e-01,1.969369202852249146e-01,-3.719503283500671387e-01,-3.329274952411651611e-01,-1.695031970739364624e-01,-1.287593841552734375e-01,3.546567559242248535e-01,-3.204347789287567139e-01,-8.689700067043304443e-02,2.045972198247909546e-01,2.031885534524917603e-01,4.767033457756042480e-01,2.989309281110763550e-02
-1.757248491048812866e-01,-2.519288100302219391e-02,2.157067134976387024e-02,-9.986666589975357056e-02,-2.149667292833328247e-01,1.912819445133209229e-01,-1.134036481380462646e-01,1.866686195135116577e-01,1.521432548761367798e-01,3.371733054518699646e-02,2.921065688133239746e-01,-4.651684165000915527e-01,-1.595623642206192017e-01,-1.631932407617568970e-01,-1.073159798979759216e-01,-3.739296793937683105e-01,-3.674424486234784126e-03,5.940283089876174927e-02,-1.236580386757850647e-01,-7.409030199050903320e-02,-1.141722798347473145e-01,-4.289031922817230225e-01,-1.515778303146362305e-01,8.631891012191772461e-02,-2.787267863750457764e-01,2.169716954231262207e-01,3.396707773208618164e-02,1.587257385253906250e-01,-7.268211245536804199e-02,2.388654500246047974e-01,7.145540416240692139e-02,2.186768501996994019e-01,2.229245305061340332e-01,-4.840399920940399170e-01,-1.164743527770042419e-01,2.540775239467620850e-01,-9.864135086536407471e-02,1.035970300436019897e-01,-1.170577779412269592e-01,-1.151007562875747681e-01,1.801777631044387817e-01,-4.103815928101539612e-02,2.067482769489288330e-01,2.282128036022186279e-01,-7.671385258436203003e-02,3.762767417356371880e-03,-1.669749966822564602e-03,-3.380952775478363037e-01,-4.731431603431701660e-01,-1.644313484430313110e-01
-4.836781919002532959e-01,-5.716682672500610352e-01,-5.062044784426689148e-02,2.154202610254287720e-01,1.482377201318740845e-01,2.541908249258995056e-02,-1.247845292091369629e-01,8.741653710603713989e-02,4.706401526927947998e-01,-1.140768378973007202e-01,2.546561360359191895e-01,-3.049828708171844482e-01,-1.530744731426239014e-01,-5.736576765775680542e-02,4.758608937263488770e-01,-2.829996943473815918e-01,-9.184538573026657104e-02,-5.680297613143920898e-01,-3.491706447675824165e-04,-1.668454259634017944e-01,1.949918568134307861e-01,-1.569478660821914673e-01,1.536641642451286316e-02,-1.768450587987899780e-01,-3.674376606941223145e-01,4.382123053073883057e-01,-6.464481353759765625e-02,2.959021031856536865e-01,3.796765208244323730e-01,-1.485866606235504150e-01,-2.916221320629119873e-01,1.421210635453462601e-02,1.902244389057159424e-01,-4.693758860230445862e-02,-1.078472658991813660e-01,7.294797897338867188e-02,-6.984640359878540039e-01,6.851570308208465576e-02,-8.924224227666854858e-02,-7.233372330665588379e-02,-3.682453334331512451e-01,-4.182950854301452637e-01,1.193901821970939636e-01,1.367595493793487549e-01,-3.707415163516998291e-01,8.402012288570404053e-02,3.499336242675781250e-01,-1.852094233036041260e-01,-2.931588701903820038e-02,1.238547563552856445e-01
-1.055964305996894836e-01,-4.227011278271675110e-02,-1.472847014665603638e-01,-3.253167271614074707e-01,-2.278491109609603882e-01,2.102962285280227661e-01,1.515891775488853455e-02,-2.809577882289886475e-01,3.013392686843872070e-01,-1.292863041162490845e-01,5.628119036555290222e-02,8.494303375482559204e-02,-3.274234533309936523e-01,-8.500303328037261963e-02,1.248739361763000488e-01,2.336990833282470703e-01,2.563617192208766937e-02,-1.935589313507080078e-01,9.722450375556945801e-02,-2.354306401684880257e-03,-1.317404657602310181e-01,1.498795486986637115e-02,3.152845054864883423e-02,7.323684543371200562e-02,-1.703480780124664307e-01,5.643434077501296997e-02,3.739429637789726257e-02,-4.435301721096038818e-01,-4.217709302902221680e-01,3.104182332754135132e-02,-2.199824750423431396e-01,8.577658236026763916e-02,2.941171638667583466e-03,3.644432127475738525e-02,-9.055755287408828735e-02,2.556619644165039062e-01,1.473229192197322845e-02,3.047770261764526367e-01,-1.021166518330574036e-01,1.939612925052642822e-01,1.507815420627593994e-01,1.437313407659530640e-01,-1.211858093738555908e-01,-1.658059805631637573e-01,1.595341414213180542e-01,-2.678819298744201660e-01,-1.122750043869018555e-01,-2.996401488780975342e-01,-1.529072970151901245e-01,1.692802459001541138e-01
