-4.741222411394119263e-02,6.346714496612548828e-02,-1.017028391361236572e-01,-6.257286667823791504e-02,2.695100940763950348e-02,4.590338468551635742e-02,1.268528401851654053e-01,-1.151951178908348083e-01,-9.366904944181442261e-02,-7.208780199289321899e-02,-1.013079062104225159e-01,1.873402148485183716e-01,-1.719298362731933594e-01,8.091269433498382568e-02,-8.745872974395751953e-02,-5.699902772903442383e-02,-1.153849363327026367e-01,-1.916617751121520996e-01,2.141666710376739502e-01,-7.357993721961975098e-02,3.167369216680526733e-02,3.621647879481315613e-02,-2.555742859840393066e-01,1.523646414279937744e-01,-1.238738149404525757e-01,-2.163580358028411865e-01,7.069589942693710327e-02,1.336697936058044434e-01,6.663248687982559204e-02,-9.636452049016952515e-02,5.956796929240226746e-02,-9.347798675298690796e-02,-1.091969460248947144e-01,2.738465927541255951e-02,1.346777677536010742e-01,1.939905732870101929e-01,7.513249665498733521e-02,1.089266613125801086e-01,8.924174308776855469e-02,1.596866734325885773e-02,-7.937156409025192261e-02,1.174333393573760986e-01,-1.294823288917541504e-01,-4.609994590282440186e-02,-8.319929987192153931e-02,1.072532013058662415e-01,1.398992538452148438e-01,2.378085814416408539e-02,-5.784037336707115173e-02,-9.334947168827056885e-02
