2.318392097949981689e-01,8.574228733777999878e-02,1.335562318563461304e-01,5.732812732458114624e-02,2.365686297416687012e-01,-2.137839049100875854e-01,3.649516403675079346e-02,-7.269302010536193848e-02,-1.695314645767211914e-01,-1.043564081192016602e-02,-1.686840951442718506e-01,-2.811892330646514893e-01,1.223059520125389099e-01,-2.309951633214950562e-01,7.223915308713912964e-02,4.268205165863037109e-02,2.866460084915161133e-01,-1.222135052084922791e-01,-2.665124237537384033e-01,-3.401688039302825928e-01,6.590348202735185623e-03,2.294454425573348999e-01,-1.448534987866878510e-02,-2.389218658208847046e-01,2.049130797386169434e-01,2.510513663291931152e-01,1.557828336954116821e-01,-3.463602364063262939e-01,-3.192939162254333496e-01,-2.390643814578652382e-03,-1.450538039207458496e-01,3.719983696937561035e-01,-6.316923350095748901e-02,-4.928447902202606201e-01,-2.604116797447204590e-01,-4.571731984615325928e-01,-6.196218729019165039e-02,-3.733814358711242676e-01,-3.411038219928741455e-01,-4.032669216394424438e-02,-4.341591149568557739e-02,-2.526843361556529999e-02,-2.607394456863403320e-01,-4.674673974514007568e-01,-8.776477724313735962e-02,9.992036223411560059e-02,-1.620500087738037109e-01,-5.137838125228881836e-01,1.169561296701431274e-01,-6.485809385776519775e-02
1.825304776430130005e-01,1.738267838954925537e-01,-6.782539188861846924e-02,2.208788841962814331e-01,-1.448428928852081299e-01,-1.313785910606384277e-01,-1.233060508966445923e-01,1.261048763990402222e-01,4.094696342945098877e-01,-2.475324720144271851e-01,-6.486333161592483521e-02,1.802365928888320923e-01,2.252867519855499268e-01,1.246909275650978088e-01,1.514445394277572632e-01,2.477928400039672852e-01,1.721077114343643188e-01,5.368389189243316650e-02,5.936022847890853882e-03,-5.615205317735671997e-02,1.572258174419403076e-01,1.209193244576454163e-01,1.534114331007003784e-01,-1.172735840082168579e-01,1.353859007358551025e-01,1.131040528416633606e-01,-1.984594622626900673e-03,4.058181494474411011e-02,-6.816526502370834351e-02,-2.393932081758975983e-02,8.253040909767150879e-02,3.815633356571197510e-01,2.113874256610870361e-01,-4.606969058513641357e-01,-2.445470541715621948e-01,-3.310353457927703857e-01,2.772929146885871887e-02,-1.729078888893127441e-01,-1.328952163457870483e-01,8.062973618507385254e-02,-1.860561519861221313e-01,-1.819157451391220093e-01,9.056219458580017090e-02,-3.948827981948852539e-01,-2.222115844488143921e-01,-1.526408344507217407e-01,-4.237190186977386475e-01,6.363720446825027466e-02,2.789257168769836426e-01,-2.497225701808929443e-01
4.522971808910369873e-02,-8.222921937704086304e-02,1.276307180523872375e-02,5.363688990473747253e-02,1.079580709338188171e-01,2.724852263927459717e-01,3.208660185337066650e-01,2.853337228298187256e-01,-1.149394437670707703e-01,1.765808910131454468e-01,-2.829754054546356201e-01,-1.648378372192382812e-01,2.212099730968475342e-01,-2.046710401773452759e-01,2.265820205211639404e-01,-2.717294991016387939e-01,2.097261995077133179e-01,3.298428356647491455e-01,-1.197616755962371826e-01,-1.042797192931175232e-01,-1.555552184581756592e-01,7.753616571426391602e-02,1.116240471601486206e-01,-3.495073020458221436e-01,-2.806913554668426514e-01,4.567372798919677734e-02,-3.677422553300857544e-02,-2.544171363115310669e-02,2.380873262882232666e-02,2.763547599315643311e-01,1.185000836849212646e-01,3.797154724597930908e-01,1.976394951343536377e-01,-2.366149276494979858e-01,2.773720920085906982e-01,-3.047611378133296967e-02,8.318321406841278076e-02,9.648911654949188232e-02,2.211090177297592163e-02,1.623949557542800903e-01,1.191847547888755798e-01,-1.341166794300079346e-01,5.892311781644821167e-02,-2.785027027130126953e-01,-1.799249649047851562e-02,-1.786866486072540283e-01,-3.753219842910766602e-01,-2.020123302936553955e-01,3.724016249179840088e-02,-2.582778036594390869e-02
1.321299523115158081e-01,3.302502334117889404e-01,-5.513285472989082336e-02,-1.968259513378143311e-01,-2.684884332120418549e-02,2.268928289413452148e-01,-8.552421629428863525e-02,-1.211435347795486450e-01,-7.109025120735168457e-02,3.526866063475608826e-02,-4.617146253585815430e-01,1.115383580327033997e-01,-1.051820367574691772e-01,9.757260233163833618e-02,1.752741634845733643e-01,6.175014004111289978e-02,-5.980329215526580811e-02,-5.682622641324996948e-02,3.278276026248931885e-01,-3.625588491559028625e-02,1.440816670656204224e-01,1.516390591859817505e-01,-7.365509122610092163e-02,9.250789298675954342e-04,-2.379424870014190674e-02,1.574163138866424561e-01,-2.106343507766723633e-01,-1.067281290888786316e-01,-4.494245722889900208e-02,3.978586196899414062e-02,2.811128199100494385e-01,-1.498526930809020996e-01,2.291261404752731323e-01,-3.002630174160003662e-01,-1.981403231620788574e-01,2.962651848793029785e-02,1.720644682645797729e-01,-6.628978997468948364e-02,-1.519299894571304321e-01,9.494975209236145020e-02,3.478650748729705811e-01,-2.013640403747558594e-01,1.897973269224166870e-01,-1.860560327768325806e-01,-3.101194743067026138e-03,1.878452450037002563e-01,-2.406295388936996460e-01,1.473119258880615234e-01,-4.154404997825622559e-01,-3.174151852726936340e-02
-4.592880606651306152e-01,4.539920389652252197e-01,-3.696959912776947021e-01,5.903722252696752548e-03,1.727827042341232300e-01,-3.180402517318725586e-02,-3.498379290103912354e-01,-4.258060455322265625e-02,1.539413630962371826e-01,7.974238693714141846e-02,2.056396901607513428e-01,-2.982965707778930664e-01,-2.232977300882339478e-01,1.738617569208145142e-01,6.922261416912078857e-02,1.961830258369445801e-01,1.364311724901199341e-01,1.369884759187698364e-01,1.963198184967041016e-01,2.931158244609832764e-01,3.094174861907958984e-01,5.000096559524536133e-02,-2.530912868678569794e-02,-3.272583335638046265e-02,7.015998661518096924e-02,1.172903701663017273e-01,-3.107033204287290573e-03,-2.024688720703125000e-01,7.063991576433181763e-02,2.571050263941287994e-02,1.966129392385482788e-01,-1.296816021203994751e-01,2.393887341022491455e-01,1.009787842631340027e-01,4.939839988946914673e-02,-1.500144153833389282e-01,1.540500372648239136e-01,1.985724270343780518e-01,3.369312360882759094e-02,-8.381823301315307617e-01,-4.415857493877410889e-01,9.208692610263824463e-02,-1.821232140064239502e-01,-7.006244063377380371e-01,1.696558743715286255e-01,-2.000538706779479980e-01,1.799342930316925049e-01,-6.936054676771163940e-02,-6.038089096546173096e-02,-4.358934611082077026e-02
-4.238300919532775879e-01,-2.157157659530639648e-02,-2.321881204843521118e-01,5.877694487571716309e-02,2.653125226497650146e-01,-2.348310947418212891e-01,1.183614972978830338e-02,-2.317822575569152832e-01,2.297627776861190796e-01,1.442246884107589722e-01,-4.957556352019309998e-02,4.843437299132347107e-02,-1.338468212634325027e-02,-1.443954855203628540e-01,3.448743373155593872e-02,-1.088758651167154312e-02,-1.764849871397018433e-01,-6.220775097608566284e-02,-2.263782024383544922e-01,2.041642069816589355e-01,-2.043137848377227783e-01,-7.413486391305923462e-02,1.857505738735198975e-01,9.402877837419509888e-02,4.811244085431098938e-02,-8.698551915585994720e-03,-5.006104242056608200e-03,9.827478975057601929e-02,1.434811949729919434e-01,-2.111616283655166626e-01,1.895443946123123169e-01,-2.411487512290477753e-03,2.924810536205768585e-02,2.011601477861404419e-01,-9.039836376905441284e-02,-8.520077913999557495e-02,-2.014756351709365845e-01,2.100908569991588593e-02,-1.419982761144638062e-01,6.425777915865182877e-03,-2.747340686619281769e-02,-2.280774563550949097e-01,-4.105974435806274414e-01,-1.017704755067825317e-01,-4.232831895351409912e-01,2.749832272529602051e-01,-5.580965057015419006e-02,6.337562203407287598e-02,-5.728596821427345276e-02,-8.508096635341644287e-02
1.129039973020553589e-01,-3.515551686286926270e-01,2.463479936122894287e-01,-9.522344917058944702e-02,1.450863033533096313e-01,-3.532803356647491455e-01,2.610189616680145264e-01,-4.568471610546112061e-01,6.340438872575759888e-02,-5.342078804969787598e-01,-1.839181482791900635e-01,-2.980473823845386505e-02,-3.085752725601196289e-01,-5.220948159694671631e-02,4.316812008619308472e-02,1.994157284498214722e-01,6.016805022954940796e-02,-4.804129153490066528e-02,-1.587276160717010498e-01,-3.804550170898437500e-01,-3.084549009799957275e-01,-4.337061643600463867e-01,2.599132061004638672e-01,-1.419638097286224365e-01,1.926802992820739746e-01,-1.438998728990554810e-01,8.624143153429031372e-02,-3.088708966970443726e-02,-6.586234569549560547e-01,-6.405713409185409546e-02,-1.935360282659530640e-01,-9.805569052696228027e-02,-1.620839238166809082e-01,-3.589034453034400940e-02,-1.641172021627426147e-01,1.913008391857147217e-01,1.643133759498596191e-01,5.306185409426689148e-02,-3.965998068451881409e-02,-7.119081914424896240e-02,1.543055176734924316e-01,-1.872598379850387573e-01,-2.464424446225166321e-02,1.400467455387115479e-01,-4.659283757209777832e-01,-1.357803344726562500e-01,-3.808970749378204346e-02,2.091654688119888306e-01,3.839389681816101074e-01,-8.916226029396057129e-02
-2.855960465967655182e-02,1.564877182245254517e-01,-1.067287568002939224e-02,-2.654877677559852600e-02,1.588281095027923584e-01,-8.242217451333999634e-02,-2.213575541973114014e-01,-1.273909509181976318e-01,-1.535327434539794922e-01,6.826264411211013794e-02,5.803031101822853088e-02,1.170169785618782043e-01,-2.426584810018539429e-01,-1.409989744424819946e-01,-1.040491908788681030e-01,8.925505727529525757e-02,-2.001789808273315430e-01,-1.576746404170989990e-01,-6.430278718471527100e-02,8.204992860555648804e-02,-1.032457575201988220e-01,-9.470870345830917358e-02,1.781718134880065918e-01,-7.525594439357519150e-03,-1.542735099792480469e-01,-8.910762518644332886e-02,-1.099354773759841919e-01,1.244124993681907654e-01,-1.430462747812271118e-01,2.248581498861312866e-01,-1.063829809427261353e-01,1.251459470950067043e-03,-7.373093068599700928e-02,-6.548442691564559937e-02,5.720590800046920776e-02,-2.465184628963470459e-01,1.069808304309844971e-01,-3.167863488197326660e-01,-3.200078755617141724e-02,-1.030794680118560791e-01,-3.668466582894325256e-02,-3.296105265617370605e-01,-5.505238100886344910e-02,-3.182839453220367432e-01,2.468976676464080811e-01,-1.448478698730468750e-01,3.102903664112091064e-01,7.700182497501373291e-03,-3.130756318569183350e-02,-4.596620425581932068e-02
3.445027768611907959e-02,-4.874209687113761902e-02,1.536180032417178154e-03,-1.344942003488540649e-01,1.160859838128089905e-01,-2.798973917961120605e-01,4.236767068505287170e-03,-1.801257282495498657e-01,9.661182761192321777e-03,-2.334894239902496338e-01,1.300751119852066040e-01,3.143393993377685547e-01,4.511089250445365906e-02,-3.159053921699523926e-01,-1.601028740406036377e-01,2.253576368093490601e-01,-3.044864535331726074e-01,-1.165873855352401733e-01,-7.577173411846160889e-02,-2.666046321392059326e-01,7.707886397838592529e-02,-1.131226941943168640e-01,-1.212571337819099426e-01,-4.810662865638732910e-01,6.334910541772842407e-02,-7.814084738492965698e-02,1.367505490779876709e-01,-3.721584975719451904e-01,-2.830067574977874756e-01,-3.157642483711242676e-01,-6.277626752853393555e-02,1.495830900967121124e-02,-2.686103582382202148e-01,-3.170304000377655029e-01,-4.643268510699272156e-02,-8.376234024763107300e-02,2.386008948087692261e-01,-8.153289556503295898e-03,-1.943715512752532959e-01,-1.067847162485122681e-01,-4.314931929111480713e-01,1.290090009570121765e-02,1.255539655685424805e-01,2.115052491426467896e-01,-1.370289474725723267e-01,1.339671760797500610e-01,3.765231966972351074e-01,-3.859021887183189392e-02,-1.886572688817977905e-01,-1.309030409902334213e-02
2.550272047519683838e-01,-1.106933802366256714e-01,2.721495032310485840e-01,-1.645296216011047363e-01,-1.920349895954132080e-01,1.312190145254135132e-01,-1.853803247213363647e-01,-2.951812148094177246e-01,-2.559797465801239014e-01,2.022495716810226440e-01,2.613584883511066437e-02,2.686960622668266296e-03,2.024450600147247314e-01,-2.525501847267150879e-01,2.993974983692169189e-01,-2.087931334972381592e-01,1.341585367918014526e-01,-2.097701579332351685e-01,-1.596165299415588379e-01,-1.253548711538314819e-01,-2.289094924926757812e-01,-1.117725744843482971e-01,-1.198221668601036072e-01,8.031434565782546997e-02,-7.269655913114547729e-02,-1.711712926626205444e-01,-2.426262646913528442e-01,-5.418136119842529297e-01,1.677799075841903687e-01,-9.256852208636701107e-04,3.131555616855621338e-01,5.165062546730041504e-01,-5.516322329640388489e-02,4.471594840288162231e-02,8.348584175109863281e-02,9.438206255435943604e-02,-1.358687281608581543e-01,2.245122492313385010e-01,-1.637367904186248779e-01,4.384659230709075928e-02,9.949032962322235107e-02,-1.868878751993179321e-01,8.412727713584899902e-02,2.268665656447410583e-02,1.080360785126686096e-01,-1.229298263788223267e-01,-3.901698887348175049e-01,2.169889360666275024e-01,-2.377314865589141846e-01,2.268922030925750732e-01
1.260789483785629272e-01,-4.202524423599243164e-01,1.933071017265319824e-01,-1.026957631111145020e-01,-1.332669407129287720e-01,-3.442478179931640625e-01,2.611974775791168213e-01,-1.995754987001419067e-01,7.041205465793609619e-02,-6.468855738639831543e-01,-2.461799532175064087e-01,-4.305000975728034973e-02,-4.986073076725006104e-02,-1.639635115861892700e-01,-8.383746445178985596e-02,2.897278033196926117e-02,9.790168702602386475e-02,-1.651146560907363892e-01,1.276708841323852539e-01,-6.885419487953186035e-01,-7.003191113471984863e-01,-2.081996798515319824e-01,6.990361213684082031e-02,-5.792663618922233582e-02,1.952233463525772095e-01,2.182489633560180664e-01,1.132929846644401550e-01,-5.469568446278572083e-02,-1.502277553081512451e-01,2.839943766593933105e-01,-2.431328147649765015e-01,3.575136885046958923e-02,2.447627186775207520e-01,-1.753177195787429810e-01,-3.536108434200286865e-01,1.507756020873785019e-02,-2.619320526719093323e-02,-1.055305004119873047e-01,1.271521002054214478e-01,-8.429858833551406860e-02,5.487192422151565552e-02,-1.778164207935333252e-01,2.444483637809753418e-01,-2.380272932350635529e-02,-1.024883314967155457e-01,6.493050605058670044e-02,2.001253813505172729e-01,1.879280656576156616e-01,3.894948661327362061e-01,-1.856709644198417664e-02
2.168622016906738281e-01,-2.980453372001647949e-01,-1.847948506474494934e-02,-1.078022047877311707e-01,-9.921457618474960327e-02,-6.428549438714981079e-02,1.810914874076843262e-01,2.211442962288856506e-02,1.939004659652709961e-02,-4.811432659626007080e-01,-3.002637624740600586e-01,-1.126484498381614685e-01,3.233304917812347412e-01,-8.048803359270095825e-02,2.019506096839904785e-01,-1.292577981948852539e-01,-8.305078744888305664e-02,-2.932029366493225098e-01,3.711824491620063782e-02,-3.423517197370529175e-02,-1.632928550243377686e-01,1.512339413166046143e-01,1.247144490480422974e-01,5.662087351083755493e-02,-1.210233122110366821e-01,2.149518430233001709e-01,2.133747190237045288e-02,1.002879068255424500e-01,-2.129834741353988647e-01,6.069052591919898987e-02,6.160429120063781738e-02,2.476193308830261230e-01,7.747549563646316528e-02,-1.184888463467359543e-02,-1.537090241909027100e-01,-1.171943172812461853e-01,-1.148806288838386536e-01,-1.744884848594665527e-01,-3.743754625320434570e-01,2.694595158100128174e-01,-2.191788703203201294e-01,-2.731469273567199707e-01,-4.558252915740013123e-02,1.156392227858304977e-02,-3.296715319156646729e-01,-2.408428639173507690e-01,-3.312699263915419579e-03,2.020277827978134155e-01,1.656879931688308716e-01,-1.517980992794036865e-01
-2.159113530069589615e-03,-1.473761796951293945e-01,-1.053179278969764709e-01,2.005128264427185059e-01,3.381956517696380615e-01,-3.725372254848480225e-01,2.151362001895904541e-01,-2.321249693632125854e-01,5.221468806266784668e-01,-2.634161710739135742e-01,-1.850574910640716553e-01,-2.430971115827560425e-01,-6.909163296222686768e-02,5.589377880096435547e-02,1.182156875729560852e-01,1.528749465942382812e-01,1.298622936010360718e-01,1.855907887220382690e-01,-4.886187016963958740e-01,-1.375303715467453003e-01,-1.472547203302383423e-01,2.016554027795791626e-01,-2.004592716693878174e-01,3.069724142551422119e-01,5.833845585584640503e-02,-3.778810426592826843e-02,-1.990529000759124756e-01,-1.581897437572479248e-01,-1.385799348354339600e-01,6.494238972663879395e-02,1.390016376972198486e-01,-4.219058528542518616e-02,7.642887532711029053e-02,3.721683323383331299e-01,7.479818910360336304e-02,3.485138341784477234e-02,-6.339278817176818848e-02,-2.657875418663024902e-01,3.950522541999816895e-01,-3.303939402103424072e-01,-2.699815034866333008e-01,6.143121048808097839e-02,4.712338745594024658e-02,-1.684753447771072388e-01,5.310272797942161560e-02,1.302184164524078369e-01,8.176977187395095825e-02,2.048075050115585327e-01,1.425363719463348389e-01,-2.312631905078887939e-01
1.503334641456604004e-01,9.267782419919967651e-02,-1.582035720348358154e-01,-1.925981640815734863e-01,3.576392531394958496e-01,2.952103912830352783e-01,-4.721504449844360352e-01,2.885806262493133545e-01,-2.211789190769195557e-01,3.519966006278991699e-01,-1.493133008480072021e-01,8.630140125751495361e-02,-1.241281628608703613e-01,-3.012628853321075439e-01,4.007892683148384094e-02,3.207564055919647217e-01,2.606815695762634277e-01,-2.205875664949417114e-01,5.626240372657775879e-02,-1.348987966775894165e-01,1.706804782152175903e-01,4.855320230126380920e-02,-2.971348762512207031e-01,-1.199626699090003967e-01,-2.390932589769363403e-01,-3.282369375228881836e-01,-1.004845425486564636e-01,5.492152273654937744e-02,-3.508821502327919006e-02,-1.526346206665039062e-01,5.106536671519279480e-02,-2.901253998279571533e-01,5.483018159866333008e-01,-6.832253932952880859e-01,-4.324145987629890442e-02,6.037762761116027832e-01,-3.166380822658538818e-01,-1.131273806095123291e-01,1.120787188410758972e-01,2.785704731941223145e-01,5.558363795280456543e-01,-3.430651128292083740e-01,4.362430423498153687e-02,1.806148737668991089e-01,-4.863671362400054932e-01,1.275866925716400146e-01,-3.462607860565185547e-01,-8.245902508497238159e-02,1.453668624162673950e-01,1.873209923505783081e-01
-3.965390622615814209e-01,-1.326368898153305054e-01,1.523513197898864746e-01,-4.316248297691345215e-01,1.149591580033302307e-01,1.204801201820373535e-01,-2.714051902294158936e-01,-4.845914617180824280e-02,-1.972825229167938232e-01,2.692300593480467796e-03,3.456165790557861328e-01,1.184543520212173462e-01,-2.839210331439971924e-01,-2.693624608218669891e-02,-2.217558026313781738e-01,-1.621199250221252441e-01,5.420966818928718567e-02,-5.692384839057922363e-01,4.007414281368255615e-01,7.312713563442230225e-02,-4.993639513850212097e-02,-9.893916547298431396e-02,4.970868676900863647e-02,-6.351948380470275879e-01,-5.032163858413696289e-01,-2.789399921894073486e-01,-1.770020872354507446e-01,-3.432151377201080322e-01,1.468725353479385376e-01,7.351745665073394775e-02,7.733981311321258545e-02,-2.164804339408874512e-01,1.349034905433654785e-01,1.160522997379302979e-01,1.216661632061004639e-01,-3.962044417858123779e-02,-4.342406988143920898e-01,4.118442237377166748e-01,1.848737448453903198e-01,-1.791452318429946899e-01,1.918250694870948792e-02,3.875293582677841187e-02,2.492643594741821289e-01,-1.625014841556549072e-01,-2.150952965021133423e-01,-2.149086892604827881e-01,-1.103828549385070801e-01,1.075070649385452271e-01,1.673897802829742432e-01,2.094060480594635010e-01
3.621390163898468018e-01,-3.375282883644104004e-01,1.864620298147201538e-01,2.357771247625350952e-01,-9.709725528955459595e-02,-1.143684238195419312e-01,4.056210815906524658e-01,-4.434925690293312073e-02,-2.017529159784317017e-01,-2.058257609605789185e-01,-3.112282752990722656e-01,1.710215210914611816e-01,-3.151973783969879150e-01,-6.432281434535980225e-02,1.266101449728012085e-01,-1.600078642368316650e-01,-1.204046010971069336e-01,-7.835987210273742676e-02,-5.005865097045898438e-01,-1.678771823644638062e-01,-2.645451128482818604e-01,-1.855989992618560791e-01,-4.450514167547225952e-02,3.776655197143554688e-01,-1.055758818984031677e-01,2.796152532100677490e-01,2.375030964612960815e-01,1.882049888372421265e-01,-2.108396291732788086e-01,1.573525369167327881e-01,-1.519187539815902710e-01,-1.443620398640632629e-02,-6.948575377464294434e-02,2.300547435879707336e-02,-2.993898391723632812e-01,1.415919363498687744e-01,3.353481590747833252e-01,-1.232337877154350281e-01,1.524730324745178223e-01,-3.924458622932434082e-01,-1.615293473005294800e-01,1.307342648506164551e-01,-2.334022521972656250e-01,3.479147702455520630e-02,-7.169052213430404663e-02,-1.324250698089599609e-01,1.582301706075668335e-01,-5.805961787700653076e-02,6.062616109848022461e-01,-4.231775552034378052e-02
-7.149762660264968872e-02,-1.055236458778381348e-01,-6.510193459689617157e-03,2.756258547306060791e-01,7.820439338684082031e-02,8.595525473356246948e-02,-1.146812215447425842e-01,3.219850361347198486e-01,3.551056087017059326e-01,-3.723851144313812256e-01,1.111818999052047729e-01,1.752237826585769653e-01,2.359642982482910156e-01,-1.959525048732757568e-01,-5.607581511139869690e-02,-1.409852057695388794e-01,-1.971170902252197266e-01,1.493761837482452393e-01,5.053594335913658142e-02,-3.666285052895545959e-02,2.699483335018157959e-01,-1.152286082506179810e-01,1.232187449932098389e-01,-6.861302256584167480e-02,-3.314514458179473877e-01,-1.043770238757133484e-01,-3.103149533271789551e-01,1.407026080414652824e-03,-1.747241057455539703e-02,3.069817721843719482e-01,2.642545402050018311e-01,3.562222048640251160e-02,3.705506026744842529e-02,3.063991665840148926e-01,-2.733546197414398193e-01,6.295189261436462402e-02,-7.614806294441223145e-02,-3.898039758205413818e-01,-2.716933190822601318e-01,6.820225715637207031e-02,-1.120550855994224548e-01,7.420931756496429443e-02,-9.726599603891372681e-02,-3.705310449004173279e-02,8.051293902099132538e-03,1.809854656457901001e-01,-9.175207465887069702e-02,6.387578696012496948e-02,-4.799750167876482010e-03,-4.365774989128112793e-01
1.547832489013671875e-01,-2.801844775676727295e-01,1.358105540275573730e-01,1.299738585948944092e-01,1.370440870523452759e-01,-5.727653205394744873e-02,6.937219947576522827e-02,3.412050604820251465e-01,-5.151800066232681274e-02,-5.784384906291961670e-02,1.296111196279525757e-01,-1.246344372630119324e-01,-5.059442296624183655e-02,-1.418319046497344971e-01,9.336216375231742859e-03,-1.348153799772262573e-01,-4.791697487235069275e-02,5.752887129783630371e-01,2.253150939941406250e-01,-3.968610242009162903e-02,1.152277290821075439e-01,3.871437162160873413e-02,2.508238255977630615e-01,1.787961833178997040e-02,2.056205645203590393e-03,-1.735648959875106812e-01,2.234836481511592865e-02,-1.586391925811767578e-01,-1.999492198228836060e-01,3.167482912540435791e-01,-1.794676631689071655e-01,4.016161262989044189e-01,-3.236225545406341553e-01,-2.346984669566154480e-02,3.357682824134826660e-01,2.519788034260272980e-02,1.674235914833843708e-03,1.037407368421554565e-01,-6.329623460769653320e-01,-5.229799151420593262e-01,-7.284689694643020630e-02,-2.915392220020294189e-01,1.564435064792633057e-01,-1.420244574546813965e-01,-1.035736575722694397e-01,-1.120262891054153442e-01,-2.759630084037780762e-01,-1.954469531774520874e-01,-3.863758593797683716e-02,-2.204447612166404724e-02
-1.697806417942047119e-01,-2.239090651273727417e-01,-3.532519340515136719e-01,-7.927563786506652832e-02,-1.952488273382186890e-01,-1.700681596994400024e-01,9.368370473384857178e-02,-3.350207805633544922e-01,-2.095817588269710541e-02,-2.851844131946563721e-01,-1.442655771970748901e-01,-1.934093236923217773e-01,-1.615765094757080078e-01,7.702457159757614136e-02,-1.413336992263793945e-01,1.854211837053298950e-01,-9.956971555948257446e-02,4.564122557640075684e-01,1.998014748096466064e-01,-1.307257562875747681e-01,-2.428534924983978271e-01,-2.663859128952026367e-01,-1.755306124687194824e-01,1.402639895677566528e-01,1.683647632598876953e-01,4.220877885818481445e-01,2.238799631595611572e-01,1.767985373735427856e-01,-2.244913876056671143e-01,3.354726135730743408e-01,-3.569413721561431885e-01,1.346787810325622559e-01,-4.430852830410003662e-02,-1.633159965276718140e-01,1.011995784938335419e-02,-3.939127177000045776e-02,1.805575340986251831e-01,-3.067462444305419922e-01,-4.261381030082702637e-01,-8.525986969470977783e-02,-1.710748374462127686e-01,-5.496843904256820679e-02,-2.286947667598724365e-01,-2.061996757984161377e-01,-1.660226732492446899e-01,-1.942142993211746216e-01,3.702281117439270020e-01,1.641528010368347168e-01,1.354530155658721924e-01,-1.554145812988281250e-01
-2.102864719927310944e-02,2.011992037296295166e-01,3.915023803710937500e-02,-1.682623624801635742e-01,2.453072071075439453e-01,-3.550258278846740723e-01,-2.192648053169250488e-01,-2.005641460418701172e-01,3.886272897943854332e-04,-1.632208377122879028e-01,-3.746106028556823730e-01,-3.979841619729995728e-02,-2.124828845262527466e-01,-6.054594740271568298e-02,1.197956502437591553e-01,3.168666064739227295e-01,1.018823385238647461e-01,-4.070849120616912842e-01,-1.362081021070480347e-01,2.278914302587509155e-01,-2.170569449663162231e-02,2.234290987253189087e-01,2.483570389449596405e-02,-1.170762330293655396e-01,2.092036157846450806e-01,-1.249002814292907715e-01,-1.664889752864837646e-01,1.514949253760278225e-03,1.233004629611968994e-01,3.378360997885465622e-03,2.106086462736129761e-01,1.120602265000343323e-01,-4.706963524222373962e-02,-9.043193608522415161e-02,-2.914023995399475098e-01,-1.528241336345672607e-01,9.882627055048942566e-03,-8.029779419302940369e-03,-1.737422645092010498e-01,1.107426360249519348e-02,-4.067772254347801208e-02,1.147690862417221069e-01,-2.765819430351257324e-03,-1.488113403320312500e-01,2.371877804398536682e-02,-1.257754564285278320e-01,-1.937480717897415161e-01,1.604480110108852386e-02,-4.141497015953063965e-01,-7.185588777065277100e-02
1.308035999536514282e-01,1.251150965690612793e-01,-2.012797594070434570e-01,-4.135207831859588623e-02,1.069967225193977356e-01,7.612058520317077637e-02,-1.899150162935256958e-01,-9.970033168792724609e-02,-1.672411113977432251e-01,-2.867111265659332275e-01,7.496070861816406250e-02,-1.499369889497756958e-01,-1.977240899577736855e-03,1.772167682647705078e-01,6.253550201654434204e-02,-1.411969661712646484e-01,-1.199051588773727417e-01,-1.794650107622146606e-01,2.709886431694030762e-01,-2.351325377821922302e-02,2.233951389789581299e-01,-2.407839000225067139e-01,1.549047678709030151e-01,1.442424356937408447e-01,-7.113584782928228378e-03,-2.038098573684692383e-01,-2.176195085048675537e-01,8.207273483276367188e-02,1.514962017536163330e-01,2.053677886724472046e-01,3.129643201828002930e-01,4.854000359773635864e-02,3.747394680976867676e-01,-1.630380749702453613e-01,2.325015962123870850e-01,4.277487695217132568e-01,6.830313056707382202e-02,-2.136202715337276459e-02,2.344892621040344238e-01,8.146478235721588135e-02,3.200022876262664795e-01,1.479430822655558586e-03,2.817065417766571045e-01,2.717825211584568024e-02,-9.420432895421981812e-02,-3.771899938583374023e-01,1.330835223197937012e-01,1.908302865922451019e-02,6.662239786237478256e-03,-1.081026941537857056e-01
-1.255631744861602783e-01,6.892144680023193359e-02,1.746579632163047791e-02,-1.645499467849731445e-01,6.945148855447769165e-02,1.341016292572021484e-01,-1.161013320088386536e-01,1.731386035680770874e-01,-7.212590426206588745e-02,-9.444365650415420532e-02,-4.296205341815948486e-01,-1.142586842179298401e-01,9.799568355083465576e-02,-2.070045620203018188e-01,-2.020093351602554321e-01,4.571924507617950439e-01,6.373113393783569336e-02,-1.347089260816574097e-01,-3.451926708221435547e-01,-3.272188603878021240e-01,-2.433429211378097534e-01,-1.893831193447113037e-01,-6.025396287441253662e-02,1.101155653595924377e-01,-8.746856823563575745e-03,-2.958944439888000488e-01,3.586101233959197998e-01,9.686402976512908936e-03,-3.488384485244750977e-01,2.781788632273674011e-02,-8.410029858350753784e-02,1.573886573314666748e-01,-5.906212329864501953e-02,-1.004785299301147461e-01,-2.385091632604598999e-01,-4.638709425926208496e-01,1.677002608776092529e-01,-3.238485455513000488e-01,-1.819371879100799561e-01,1.394591331481933594e-01,-1.595883071422576904e-01,-5.196999907493591309e-01,-2.714593410491943359e-01,-7.665034383535385132e-02,-1.356530934572219849e-01,1.581436544656753540e-01,-3.108851909637451172e-01,-1.601599007844924927e-01,1.169989034533500671e-01,2.358191758394241333e-01
-6.237157061696052551e-02,1.104760542511940002e-02,-2.527382411062717438e-02,-5.983182191848754883e-01,-6.064909696578979492e-02,-1.201461702585220337e-01,-1.039824411273002625e-01,-1.962593346834182739e-01,-2.324126511812210083e-01,-3.166781663894653320e-01,1.520717591047286987e-01,6.655746698379516602e-02,2.783121466636657715e-01,-3.205443620681762695e-01,-2.421038299798965454e-01,7.140340656042098999e-02,-1.903739571571350098e-01,6.467718165367841721e-03,-1.248821523040533066e-02,-1.403583884239196777e-01,1.029210984706878662e-01,2.552609704434871674e-02,-3.907966315746307373e-01,-2.077242136001586914e-01,2.051418870687484741e-01,-1.175307184457778931e-01,-2.973921895027160645e-01,-2.927412688732147217e-01,-3.292930722236633301e-01,-8.065030723810195923e-02,-3.008626401424407959e-01,-1.796126216650009155e-01,6.510403007268905640e-02,-7.109079509973526001e-02,-1.544280052185058594e-01,-8.129153400659561157e-02,-3.928298056125640869e-01,1.283744126558303833e-01,-4.597009420394897461e-01,-8.307645097374916077e-03,-1.306498944759368896e-01,1.498719602823257446e-01,4.948445037007331848e-02,1.017783209681510925e-01,-3.735571354627609253e-02,-2.907414920628070831e-02,3.048051595687866211e-01,-4.378794729709625244e-01,-7.011383771896362305e-02,-4.288894236087799072e-01
2.547365128993988037e-01,2.773418426513671875e-01,-2.570496201515197754e-01,1.029637530446052551e-01,1.483825296163558960e-01,1.831139326095581055e-01,9.269253909587860107e-02,1.010535880923271179e-01,4.792881309986114502e-01,-3.240887820720672607e-01,-4.038325548171997070e-01,-1.809764057397842407e-01,4.434387683868408203e-01,-2.405298352241516113e-01,2.780299074947834015e-02,2.708017528057098389e-01,-1.325474232435226440e-01,-1.873436011373996735e-02,-1.646187603473663330e-01,2.037182264029979706e-02,2.960927486419677734e-01,2.165796458721160889e-01,1.391873657703399658e-01,2.685531973838806152e-01,2.137206792831420898e-01,-3.353625303134322166e-03,-1.519601419568061829e-02,-6.455762684345245361e-02,3.874891623854637146e-02,1.717341095209121704e-01,3.133986517786979675e-02,3.804098963737487793e-01,-1.740719825029373169e-01,-4.161863625049591064e-01,-2.577997446060180664e-01,-4.203346073627471924e-01,1.642251908779144287e-01,-4.222985804080963135e-01,-3.745172917842864990e-01,-1.728219911456108093e-02,-1.744236350059509277e-01,-5.121070146560668945e-01,-3.461575210094451904e-01,-2.102482765913009644e-01,1.500441879034042358e-01,-3.159751882776618004e-03,-4.458376765251159668e-01,1.236735656857490540e-01,-2.673263475298881531e-02,-1.838735193014144897e-01
3.973143547773361206e-02,1.270488649606704712e-01,-2.204520851373672485e-01,-1.770792901515960693e-01,2.629141509532928467e-01,2.550715804100036621e-01,-5.232224985957145691e-02,2.633434236049652100e-01,-2.581800520420074463e-02,-1.739437878131866455e-01,1.601347774267196655e-01,-2.286596298217773438e-01,7.256550341844558716e-02,1.461388617753982544e-01,2.212474644184112549e-01,3.710335493087768555e-01,2.987145632505416870e-02,-2.139756381511688232e-01,6.670100986957550049e-02,2.986431419849395752e-01,-4.285067319869995117e-02,4.553261101245880127e-01,1.992290914058685303e-01,-1.856035441160202026e-01,-1.361175328493118286e-01,1.764130890369415283e-01,-1.642503440380096436e-01,1.257756054401397705e-01,2.430128008127212524e-01,1.889992505311965942e-01,2.723576128482818604e-02,2.404569834470748901e-02,-1.337291002273559570e-01,-4.449273645877838135e-01,9.724789112806320190e-02,-9.999031573534011841e-02,-1.969763785600662231e-01,4.481038544327020645e-03,-3.338166475296020508e-01,-2.045158892869949341e-01,7.332424074411392212e-02,1.488875895738601685e-01,2.341873198747634888e-01,-2.543670237064361572e-01,2.529552876949310303e-01,6.122133880853652954e-02,9.805297106504440308e-02,1.373196840286254883e-01,-4.279752969741821289e-01,9.098435938358306885e-02
-1.137408539652824402e-01,-4.081489890813827515e-02,-2.822546064853668213e-01,2.726393565535545349e-02,3.737599253654479980e-01,7.923333346843719482e-02,-2.669678628444671631e-01,-4.758316499646753073e-04,2.275258749723434448e-01,2.156835049390792847e-01,-7.222431153059005737e-02,1.251336769200861454e-03,-9.558259695768356323e-02,-4.594256356358528137e-02,-2.028811573982238770e-01,2.674864530563354492e-01,-2.970654666423797607e-01,-2.316368073225021362e-01,2.360568940639495850e-02,-2.916888892650604248e-02,-1.347262561321258545e-01,1.500718295574188232e-01,2.359336465597152710e-01,-7.040483504533767700e-02,3.276050090789794922e-02,-1.297841668128967285e-01,1.749434471130371094e-01,-2.259529978036880493e-01,9.920112788677215576e-03,-2.819319022819399834e-03,-1.246536895632743835e-01,3.389691710472106934e-01,1.904912889003753662e-01,8.630383759737014771e-02,-2.023816406726837158e-01,-3.442828357219696045e-01,-2.349666953086853027e-01,-1.340733468532562256e-01,-3.964332342147827148e-01,-1.790405064821243286e-02,5.361664295196533203e-02,-4.184308946132659912e-01,-1.789719760417938232e-01,8.833057433366775513e-02,-5.863267779350280762e-01,3.336544036865234375e-01,-2.496381103992462158e-01,3.184967637062072754e-01,-1.473075300455093384e-01,1.512738019227981567e-01
-9.346286207437515259e-02,-1.560417003929615021e-02,3.051140308380126953e-01,-5.750958994030952454e-02,7.650856673717498779e-02,-3.587878346443176270e-01,7.034934125840663910e-03,-1.686618328094482422e-01,-2.965984344482421875e-01,-2.644104361534118652e-01,3.787009045481681824e-02,1.480773687362670898e-01,-2.946742475032806396e-01,1.547844558954238892e-01,-5.256949365139007568e-02,-2.886709272861480713e-01,-2.630287706851959229e-01,9.849333763122558594e-02,1.361276954412460327e-01,2.570422291755676270e-01,-4.455048739910125732e-01,-1.104597002267837524e-02,-3.454183638095855713e-01,-3.390468284487724304e-02,-1.588040441274642944e-01,-3.394028544425964355e-02,6.428302824497222900e-02,-4.730218648910522461e-01,-2.932594157755374908e-02,-2.322938442230224609e-01,-5.757446885108947754e-01,-5.798403918743133545e-02,-3.686945885419845581e-02,3.973367810249328613e-01,7.084586657583713531e-03,1.955586671829223633e-02,2.470080181956291199e-02,2.403045445680618286e-01,-4.407641291618347168e-01,1.403119713068008423e-01,-3.115749657154083252e-01,-1.659817099571228027e-01,2.530077695846557617e-01,2.958632260560989380e-02,-6.360997259616851807e-02,5.234683156013488770e-01,-1.904658675193786621e-01,-5.470657255500555038e-03,5.919095128774642944e-02,-1.955590695142745972e-01
3.417074913159012794e-03,1.134402155876159668e-01,2.451595105230808258e-02,-2.451693117618560791e-01,6.384954601526260376e-02,-2.519734501838684082e-01,-3.404394909739494324e-02,5.516483634710311890e-02,-1.812475472688674927e-01,-1.927653998136520386e-01,7.742508500814437866e-02,3.003996312618255615e-01,-2.167838662862777710e-01,-2.173996120691299438e-01,-3.203440010547637939e-01,-3.981341049075126648e-02,-1.560227870941162109e-01,-1.669744104146957397e-01,-1.193613782525062561e-01,5.031365156173706055e-02,1.826906204223632812e-01,1.080487966537475586e-01,-2.720738993957638741e-03,-4.032477438449859619e-01,-7.984396815299987793e-02,-2.521978020668029785e-01,1.345370858907699585e-01,-4.203180670738220215e-01,2.061868757009506226e-01,-3.541171848773956299e-01,1.504994630813598633e-01,-2.089332044124603271e-01,-3.384090662002563477e-01,1.902987957000732422e-01,-8.245292305946350098e-02,-1.737259030342102051e-01,-5.061848089098930359e-02,-5.045123398303985596e-03,5.087798833847045898e-02,-1.055003553628921509e-01,-7.751930505037307739e-02,2.732732295989990234e-01,9.530619531869888306e-02,2.284439951181411743e-01,-1.036007851362228394e-01,-2.761179506778717041e-01,9.275978431105613708e-03,9.291334450244903564e-02,-8.507859706878662109e-02,7.134620845317840576e-02
-1.037358418107032776e-01,1.508262753486633301e-01,-7.059524953365325928e-02,-1.667616814374923706e-01,9.700564295053482056e-02,-5.064173787832260132e-02,1.692714244127273560e-01,2.592391967773437500e-01,-1.302858889102935791e-01,1.490453481674194336e-01,-1.903284154832363129e-02,-2.734432816505432129e-01,-3.462713062763214111e-01,-2.776860296726226807e-01,-1.430958360433578491e-01,-2.631370723247528076e-01,-1.399916708469390869e-01,1.469024866819381714e-01,4.748347029089927673e-02,8.006266504526138306e-02,8.813280612230300903e-02,2.677296400070190430e-01,2.664902806282043457e-01,-2.108000367879867554e-01,-3.993603587150573730e-02,-9.577317535877227783e-02,-1.897389143705368042e-01,-8.763071894645690918e-02,-1.306775808334350586e-01,-4.000584185123443604e-01,-9.522069990634918213e-02,3.384725190699100494e-03,-1.259080320596694946e-01,-1.129305958747863770e-01,-1.884967088699340820e-01,7.255497574806213379e-02,-3.015865683555603027e-01,1.370924413204193115e-01,1.433397643268108368e-03,-2.429612427949905396e-01,-1.675497740507125854e-01,-1.192815527319908142e-01,-7.154736667871475220e-02,-3.382449448108673096e-01,-6.004167720675468445e-02,-1.463242471218109131e-01,2.552677989006042480e-01,2.389436215162277222e-01,2.020933777093887329e-01,6.286020576953887939e-02
-1.128594651818275452e-01,1.749537438154220581e-01,-1.842915415763854980e-01,-3.270529955625534058e-02,1.517976820468902588e-01,-6.510902196168899536e-02,1.481071114540100098e-01,1.121864020824432373e-01,-3.609364926815032959e-01,4.748539626598358154e-02,-1.826678067445755005e-01,2.083982527256011963e-01,2.158897072076797485e-01,-2.928324937820434570e-01,3.130341172218322754e-01,-3.251099493354558945e-03,-2.480633109807968140e-01,-3.388695418834686279e-01,3.033355772495269775e-01,-3.365051373839378357e-02,2.551580369472503662e-01,6.269139051437377930e-02,-4.674980416893959045e-02,-3.045485019683837891e-01,-8.902774006128311157e-02,-3.941657394170761108e-02,-5.998653545975685120e-02,-2.130148261785507202e-01,2.429675459861755371e-01,4.076856076717376709e-01,-1.465160697698593140e-01,2.707467973232269287e-01,1.537960767745971680e-01,-7.822614163160324097e-02,-2.321776561439037323e-02,-3.841886222362518311e-01,-1.603120118379592896e-01,1.345551013946533203e-01,-5.853794515132904053e-02,2.796902954578399658e-01,4.020434617996215820e-01,-7.024089992046356201e-02,5.021666884422302246e-01,1.924643069505691528e-01,5.524094030261039734e-02,1.471176445484161377e-01,-5.810241103172302246e-01,-3.369575142860412598e-01,9.114492684602737427e-02,1.129345744848251343e-01
-1.230226177722215652e-02,7.330029457807540894e-02,-2.124981284141540527e-01,-1.610643267631530762e-01,1.775918155908584595e-01,1.795536428689956665e-01,-2.313885278999805450e-02,9.560725092887878418e-02,6.451614201068878174e-02,-9.188959747552871704e-02,-3.030311763286590576e-01,1.471736580133438110e-01,-1.183158233761787415e-01,-1.249759495258331299e-01,5.365603417158126831e-02,-4.727967455983161926e-02,-7.587840408086776733e-02,-1.718327701091766357e-01,6.318847835063934326e-02,-1.600570082664489746e-01,-7.904013246297836304e-02,2.557921409606933594e-01,1.733415722846984863e-01,-1.006580069661140442e-01,-2.740462422370910645e-01,1.127192843705415726e-02,4.217145591974258423e-02,-6.845541298389434814e-02,-2.001238167285919189e-01,2.491888552904129028e-01,6.309703923761844635e-03,-2.144106179475784302e-01,-1.458231061697006226e-01,-5.331492424011230469e-02,-2.818106710910797119e-01,-1.641740649938583374e-01,9.061471559107303619e-03,6.332741677761077881e-02,-4.502528905868530273e-02,1.379387639462947845e-02,-1.884664446115493774e-01,1.131197661161422729e-01,-1.626646518707275391e-01,-1.042329519987106323e-01,7.954892516136169434e-02,-1.188103631138801575e-01,1.677595824003219604e-01,-1.340652406215667725e-01,-4.136390984058380127e-01,-2.525650262832641602e-01
-1.515857130289077759e-01,5.957189574837684631e-02,-3.751731663942337036e-02,3.073707409203052521e-02,1.036628112196922302e-01,-4.125372469425201416e-01,-1.980391740798950195e-01,-1.716478765010833740e-01,1.632437258958816528e-01,-4.769926145672798157e-02,1.151485834270715714e-02,-3.253132998943328857e-01,-3.764723613858222961e-02,4.972315132617950439e-01,5.928453803062438965e-02,-2.040355838835239410e-02,2.999553084373474121e-02,-1.366631984710693359e-01,6.182312965393066406e-02,-1.098416559398174286e-02,1.468252092599868774e-01,-1.021060645580291748e-01,3.922392427921295166e-01,-1.546875536441802979e-01,-9.766449779272079468e-02,1.230015605688095093e-01,-3.219085335731506348e-01,-2.160653620958328247e-01,-1.695164144039154053e-01,6.314916536211967468e-03,2.195222526788711548e-01,1.233670413494110107e-01,-3.445916771888732910e-01,-1.136671006679534912e-01,4.461383447051048279e-02,7.855032384395599365e-02,6.774233281612396240e-02,-1.794787496328353882e-01,7.017490267753601074e-02,-1.309537887573242188e-01,-4.882748723030090332e-01,-2.182420045137405396e-01,2.329776436090469360e-01,-2.284274697303771973e-01,-1.021840795874595642e-01,-9.796011447906494141e-02,-2.492531687021255493e-01,-2.663366198539733887e-01,-1.852323263883590698e-01,2.057250440120697021e-01
-3.667569756507873535e-01,1.865911781787872314e-01,1.486738175153732300e-01,2.112985104322433472e-01,-1.244557648897171021e-01,-3.640943467617034912e-01,-1.588246226310729980e-02,3.557607233524322510e-01,-1.978300362825393677e-01,-1.847022324800491333e-01,-1.433566510677337646e-01,1.732544749975204468e-01,-2.166223526000976562e-01,1.949024647474288940e-01,-3.006069064140319824e-01,-8.325580507516860962e-03,1.539905965328216553e-01,-1.296470593661069870e-02,1.583368033170700073e-01,3.758670091629028320e-01,3.572200238704681396e-01,6.746936589479446411e-02,9.257565438747406006e-02,-1.764365285634994507e-02,-1.050216108560562134e-01,-2.906706929206848145e-01,-1.310347113758325577e-03,2.165685445070266724e-01,3.363002091646194458e-02,1.219465136528015137e-01,-1.673385649919509888e-01,3.490344062447547913e-02,-1.230661869049072266e-01,1.546201854944229126e-01,2.792164385318756104e-01,4.223770499229431152e-01,-5.869863927364349365e-02,-1.653171032667160034e-01,-3.487490117549896240e-02,-6.104508042335510254e-01,-1.839890033006668091e-01,1.265455782413482666e-01,-5.439386237412691116e-03,2.734326124191284180e-01,2.013097703456878662e-01,2.647029794752597809e-02,1.679422110319137573e-01,1.737461984157562256e-01,-4.714269042015075684e-01,-1.596490740776062012e-01
-1.719864457845687866e-02,2.433996200561523438e-01,-2.365966141223907471e-01,-7.601749897003173828e-02,3.571455180644989014e-02,2.288240641355514526e-01,-3.084745109081268311e-01,2.999191284179687500e-01,-5.214707180857658386e-02,-6.415917873382568359e-01,-3.247416019439697266e-01,-2.081818878650665283e-01,6.303318589925765991e-02,1.275835931301116943e-01,1.899039745330810547e-01,-5.347451195120811462e-02,4.584905132651329041e-02,-1.662243753671646118e-01,2.829106748104095459e-01,-1.344238519668579102e-01,-8.471903949975967407e-02,2.879389822483062744e-01,-4.251477122306823730e-02,-8.099279552698135376e-02,8.966261148452758789e-02,-3.290706276893615723e-01,3.918661549687385559e-02,-1.644089818000793457e-01,7.482642680406570435e-02,9.528061747550964355e-02,2.295573204755783081e-01,-1.884942203760147095e-01,4.282222315669059753e-02,1.072360202670097351e-01,2.310600876808166504e-02,5.765248090028762817e-02,-5.709979217499494553e-03,-7.397873699665069580e-02,3.883137926459312439e-02,-1.466631293296813965e-01,-1.204987317323684692e-01,-3.406799435615539551e-01,4.373849034309387207e-01,-7.392524182796478271e-02,1.568118855357170105e-02,-1.779419332742691040e-01,2.785101830959320068e-01,8.447450399398803711e-02,-8.527702093124389648e-01,-6.868932396173477173e-02
-2.435204386711120605e-02,-5.923211947083473206e-02,9.508571773767471313e-02,3.229251131415367126e-03,-1.621190831065177917e-02,-2.199151366949081421e-01,2.082651704549789429e-01,1.123734265565872192e-01,1.249140873551368713e-01,-4.270408675074577332e-02,-1.125251725316047668e-01,-3.373591005802154541e-01,-1.210607290267944336e-01,3.565824627876281738e-01,2.433688789606094360e-01,-5.440997891128063202e-03,6.992635130882263184e-02,3.051566481590270996e-01,1.488721072673797607e-01,-2.963064014911651611e-01,3.243321776390075684e-01,1.185563430190086365e-01,3.538854420185089111e-01,-4.803796112537384033e-02,-1.099042221903800964e-01,5.583274643868207932e-03,3.230228647589683533e-02,-3.161348998546600342e-01,-2.669310271739959717e-01,3.676283061504364014e-01,-1.359936315566301346e-03,1.601466685533523560e-01,-2.955579161643981934e-01,5.554761737585067749e-02,1.496617048978805542e-01,-7.936123013496398926e-02,-1.006724834442138672e-01,-3.868647292256355286e-02,-1.213974654674530029e-01,4.890447016805410385e-03,-2.140566557645797729e-01,-2.500726580619812012e-01,1.640747040510177612e-01,-3.769728541374206543e-01,-1.567044854164123535e-02,-1.637525260448455811e-01,-1.220098659396171570e-01,-1.216466724872589111e-01,-2.445315569639205933e-01,1.777603328227996826e-01
-9.108290076255798340e-02,-2.908397614955902100e-01,2.858608663082122803e-01,-1.259799897670745850e-01,7.796994596719741821e-02,5.976625531911849976e-02,-2.907207906246185303e-01,3.167140483856201172e-01,-1.859598159790039062e-01,-5.230920016765594482e-02,-3.512739017605781555e-02,-7.732661068439483643e-02,-1.487577259540557861e-01,-1.479570567607879639e-01,-1.629099100828170776e-01,1.036269515752792358e-01,7.322666049003601074e-02,1.694235801696777344e-01,1.898702234029769897e-01,8.618510514497756958e-02,-2.604549378156661987e-02,1.466526240110397339e-01,-2.791321836411952972e-02,4.384840652346611023e-02,1.007344424724578857e-01,3.958188593387603760e-01,2.124156057834625244e-01,4.614630714058876038e-02,-1.233044117689132690e-01,3.409493267536163330e-01,2.190784662961959839e-01,1.801369488239288330e-01,2.305298298597335815e-01,-2.598195374011993408e-01,-6.436238437891006470e-02,5.372433806769549847e-04,-1.635973304510116577e-01,-2.997499704360961914e-01,4.174332693219184875e-02,-3.665253520011901855e-01,2.254204824566841125e-02,-8.234540373086929321e-02,1.381488740444183350e-01,-2.606352865695953369e-01,3.584218621253967285e-01,-1.780759543180465698e-01,-7.203732430934906006e-02,5.708937719464302063e-02,-9.050951153039932251e-02,-7.066783308982849121e-02
-5.109284520149230957e-01,-7.851025462150573730e-02,-1.645582020282745361e-01,1.031033918261528015e-01,2.806583046913146973e-01,-1.305368840694427490e-01,-2.344666421413421631e-01,4.213744699954986572e-01,-1.217691004276275635e-01,2.778099179267883301e-01,2.947875857353210449e-01,-2.663851976394653320e-01,-7.641302049160003662e-02,2.183633893728256226e-01,3.531329631805419922e-01,-2.719909846782684326e-01,-3.522158563137054443e-01,-1.384812593460083008e-02,3.821062296628952026e-02,-6.098772957921028137e-02,2.481410056352615356e-01,-1.482944637537002563e-01,5.828883126378059387e-02,-1.050783544778823853e-01,-1.282781809568405151e-01,-2.979413866996765137e-01,1.651481837034225464e-01,-1.826251596212387085e-01,1.333769708871841431e-01,2.792634963989257812e-01,5.097378790378570557e-02,-1.192323956638574600e-02,-1.432581245899200439e-01,1.332643628120422363e-01,1.879759430885314941e-01,-2.888206578791141510e-02,-2.254065573215484619e-01,-2.772836387157440186e-01,-2.180556207895278931e-01,1.038522198796272278e-01,-2.440656572580337524e-01,1.606342196464538574e-01,2.303247004747390747e-01,-3.644548952579498291e-01,2.478664219379425049e-01,-2.093272507190704346e-01,-1.761485934257507324e-01,-4.172106385231018066e-01,-4.421774148941040039e-01,-1.590938568115234375e-01
-5.364822223782539368e-02,-2.619537897408008575e-02,2.275550514459609985e-01,-9.222007542848587036e-02,2.515293955802917480e-01,-9.610424190759658813e-02,1.969886273145675659e-01,7.410652190446853638e-02,-8.810403943061828613e-02,-4.579208418726921082e-02,2.597610652446746826e-02,-1.758612990379333496e-01,-3.942118212580680847e-02,3.468029201030731201e-01,2.601724565029144287e-01,-1.092266514897346497e-01,2.757891314104199409e-03,9.065358899533748627e-03,-3.947962075471878052e-02,-2.466290444135665894e-02,-4.082482159137725830e-01,-3.212636709213256836e-01,-4.067283272743225098e-01,-3.435233533382415771e-01,-1.502513512969017029e-02,8.999805152416229248e-02,-4.116895794868469238e-01,-4.871541261672973633e-01,-8.804952353239059448e-02,-1.459753066301345825e-01,-1.429514884948730469e-01,4.114568829536437988e-01,1.394502669572830200e-01,-1.176865678280591965e-02,-9.115890413522720337e-02,-3.172872662544250488e-01,-3.199577033519744873e-01,1.474649459123611450e-01,-3.197346925735473633e-01,-1.652716100215911865e-01,-3.834690153598785400e-01,6.713174283504486084e-02,-4.014687612652778625e-02,-3.119397163391113281e-01,-2.730246484279632568e-01,1.904683262109756470e-01,-3.645225465297698975e-01,7.547460496425628662e-02,1.259364783763885498e-01,4.667787253856658936e-02
1.226018741726875305e-01,4.000741615891456604e-02,7.836049050092697144e-02,2.715451270341873169e-02,-1.643859297037124634e-01,-1.363744139671325684e-01,4.852043837308883667e-02,7.541361730545759201e-03,-4.245384633541107178e-01,-2.639219164848327637e-03,-2.166037410497665405e-01,-4.278846085071563721e-02,1.132349744439125061e-01,-1.382360141724348068e-02,2.009651660919189453e-01,-3.003469705581665039e-01,6.034196168184280396e-02,3.841573894023895264e-01,-3.058735467493534088e-02,-1.692061722278594971e-01,-1.004858128726482391e-02,1.383630372583866119e-02,-1.066332906484603882e-01,-2.772215008735656738e-01,-3.190524876117706299e-01,1.403865367174148560e-01,2.035842835903167725e-01,2.964381277561187744e-01,-6.675782799720764160e-02,-3.299645334482192993e-02,2.844773419201374054e-02,5.375227928161621094e-01,-1.104207243770360947e-02,5.649664625525474548e-02,-2.315878272056579590e-01,9.102591127157211304e-02,2.805296778678894043e-01,-2.109114378690719604e-01,-2.662403881549835205e-02,1.880637556314468384e-01,-8.145091123878955841e-03,4.143399894237518311e-01,-3.270192742347717285e-01,1.988998055458068848e-01,1.277900785207748413e-01,-3.291399776935577393e-01,-4.887169301509857178e-01,-3.782927691936492920e-01,-1.598346680402755737e-01,1.994031965732574463e-01
1.554521732032299042e-03,-2.576780915260314941e-01,-3.105187714099884033e-01,2.480030506849288940e-01,8.511049300432205200e-02,-3.312106728553771973e-01,6.608489155769348145e-02,-2.660318315029144287e-01,4.017030000686645508e-01,-1.836112290620803833e-01,-1.741274893283843994e-01,2.218075469136238098e-02,6.772188097238540649e-02,5.630980804562568665e-02,1.335267629474401474e-02,1.051864847540855408e-01,-1.484716534614562988e-01,-1.015745103359222412e-01,-8.231393247842788696e-02,1.369609981775283813e-01,-8.352640271186828613e-02,-1.706529110670089722e-01,1.139986738562583923e-01,2.485870271921157837e-01,1.484656333923339844e-01,2.482922514900565147e-03,-3.362971171736717224e-02,-6.122136116027832031e-02,-2.901174426078796387e-01,-1.303508132696151733e-01,-3.131960704922676086e-02,-1.497135614044964314e-03,2.007746398448944092e-01,-3.107445836067199707e-01,-8.969803899526596069e-02,-8.642878383398056030e-02,-1.500528119504451752e-02,-2.585295140743255615e-01,-1.589139252901077271e-01,-3.606202304363250732e-01,-2.592959403991699219e-01,-1.827851310372352600e-02,-1.516906321048736572e-01,-2.802813649177551270e-01,-1.679645776748657227e-01,2.293533086776733398e-01,-2.952250838279724121e-01,1.788607388734817505e-01,9.424141049385070801e-02,-3.078684508800506592e-01
6.939320266246795654e-02,2.078031748533248901e-01,2.528174519538879395e-01,-1.647963821887969971e-01,1.794330030679702759e-01,2.978823184967041016e-01,-2.655690908432006836e-01,1.434217691421508789e-01,-2.328327158465981483e-03,2.230345904827117920e-01,-4.678709432482719421e-02,-2.775702476501464844e-01,-1.469891667366027832e-01,-6.292632222175598145e-02,-4.546422138810157776e-02,2.053053379058837891e-01,-1.322032213211059570e-01,-1.728580296039581299e-01,2.147499471902847290e-01,4.675436019897460938e-02,1.966817677021026611e-01,1.992830485105514526e-01,2.757281064987182617e-01,-3.479700982570648193e-01,-1.729446500539779663e-01,-7.895555347204208374e-02,-2.594749033451080322e-01,-4.847512021660804749e-02,2.696550488471984863e-01,-4.981494694948196411e-02,-1.145901810377836227e-02,-3.120115492492914200e-03,-7.623746991157531738e-02,-1.265638917684555054e-01,3.307796716690063477e-01,-2.688893973827362061e-01,6.617538165301084518e-03,4.433857202529907227e-01,-5.167693495750427246e-01,1.171212941408157349e-01,-1.453912109136581421e-01,1.537269204854965210e-01,3.099520504474639893e-01,-3.461005389690399170e-01,1.405573636293411255e-01,-1.319275647401809692e-01,-2.694656848907470703e-01,2.749760746955871582e-01,4.737762734293937683e-02,5.565686523914337158e-02
-1.148116216063499451e-02,-1.745461113750934601e-02,-6.519038975238800049e-02,-2.293987944722175598e-02,-1.473712623119354248e-01,1.157804504036903381e-01,-2.102018445730209351e-01,-3.639174625277519226e-02,1.688871532678604126e-01,2.571642585098743439e-02,-3.204865157604217529e-01,5.467674136161804199e-02,6.578021496534347534e-02,5.767914280295372009e-02,4.402699321508407593e-02,-2.419220656156539917e-01,-2.378064543008804321e-01,-2.353755682706832886e-01,5.437169596552848816e-02,-2.112308442592620850e-01,-7.436046749353408813e-02,-1.451863497495651245e-01,1.018408685922622681e-01,-4.110632464289665222e-02,-3.510476052761077881e-01,-1.943466961383819580e-01,-4.284977540373802185e-02,5.410464480519294739e-02,4.778922593686729670e-04,-2.085722088813781738e-01,3.041760623455047607e-01,-8.098685741424560547e-02,-4.839300736784934998e-02,5.347780138254165649e-02,-1.381867080926895142e-01,-6.147660315036773682e-02,-6.039972975850105286e-02,-2.458207458257675171e-01,-6.027868948876857758e-03,-2.976715005934238434e-02,-4.129439294338226318e-01,-1.102756410837173462e-01,6.305743753910064697e-02,1.705673336982727051e-01,6.452712416648864746e-02,-1.065426617860794067e-01,2.242119312286376953e-01,9.515038132667541504e-02,-8.377287536859512329e-02,-2.071502655744552612e-01
1.861492842435836792e-01,-5.110412240028381348e-01,-8.659204095602035522e-02,-7.376788556575775146e-02,1.353757977485656738e-01,-3.424360454082489014e-01,4.118918478488922119e-01,-4.043190181255340576e-01,4.599653650075197220e-03,-4.501436054706573486e-01,1.950309127569198608e-01,-8.640776574611663818e-02,1.701492071151733398e-01,-1.644388288259506226e-01,1.360334157943725586e-01,-2.338098362088203430e-02,6.125339120626449585e-02,1.485055685043334961e-01,-4.567160457372665405e-02,-2.824728488922119141e-01,-7.704812884330749512e-01,-6.117841601371765137e-01,-2.645820677280426025e-01,1.986464858055114746e-02,-1.370158195495605469e-01,1.698020547628402710e-01,5.161270871758460999e-02,-6.591914594173431396e-02,-2.805598974227905273e-01,1.251899152994155884e-01,-1.840365529060363770e-01,7.570415735244750977e-02,1.861629635095596313e-01,1.094456017017364502e-01,-1.374142020940780640e-01,1.798546314239501953e-01,-2.112044245004653931e-01,-1.524748802185058594e-01,-1.780506409704685211e-02,-3.629832714796066284e-02,7.075744122266769409e-02,1.436655521392822266e-01,1.115341633558273315e-01,-1.256333589553833008e-01,-2.542605102062225342e-01,1.953888237476348877e-01,-3.042550943791866302e-02,3.305320739746093750e-01,2.689417004585266113e-01,1.419400125741958618e-01
1.019272282719612122e-01,2.333941906690597534e-01,-2.529407739639282227e-01,1.209650486707687378e-01,-1.202516350895166397e-02,9.454727172851562500e-02,-2.474144101142883301e-01,-2.834536731243133545e-01,-1.171626225113868713e-01,-1.410658508539199829e-01,1.216230913996696472e-01,7.446297910064458847e-03,-1.453237682580947876e-01,-4.845350235700607300e-02,-1.386861056089401245e-01,1.991152763366699219e-01,-5.794681143015623093e-03,6.550699472427368164e-02,3.583140075206756592e-01,-1.068292260169982910e-01,1.137367356568574905e-02,2.282212674617767334e-01,1.097450684756040573e-02,5.330957844853401184e-02,4.453740715980529785e-01,-2.656232751905918121e-02,2.277440279722213745e-01,-3.167154267430305481e-03,2.026387006044387817e-01,-1.251400858163833618e-01,-1.572323590517044067e-01,4.912435077130794525e-03,-2.310267463326454163e-02,-2.062170058488845825e-01,1.953155919909477234e-02,-3.221793770790100098e-01,2.994996607303619385e-01,-1.820006668567657471e-01,-2.478921413421630859e-01,-6.373839378356933594e-01,-2.364098876714706421e-01,8.391056954860687256e-02,-1.428672522306442261e-01,-9.948734194040298462e-02,2.299542278051376343e-01,-1.375898867845535278e-01,6.980625540018081665e-02,1.521834731101989746e-01,-4.484468996524810791e-01,9.019770473241806030e-02
9.853611700236797333e-03,1.641041040420532227e-01,1.908776611089706421e-01,-2.550768665969371796e-02,4.762991145253181458e-02,-4.218609631061553955e-01,3.976504877209663391e-02,-3.414794802665710449e-01,-3.924860060214996338e-01,-6.964602321386337280e-02,-2.062177360057830811e-01,-6.225487589836120605e-02,-2.715964913368225098e-01,1.059335768222808838e-01,3.948557749390602112e-02,-7.301867008209228516e-02,-1.466031074523925781e-01,1.880018115043640137e-01,1.149403825402259827e-01,2.805997617542743683e-02,-3.026334345340728760e-01,-3.755861520767211914e-01,-2.905024588108062744e-01,-1.489290893077850342e-01,-6.242168545722961426e-01,-3.630805313587188721e-01,-1.563832908868789673e-01,-3.661777079105377197e-01,1.678552776575088501e-01,8.541435003280639648e-02,-1.083209514617919922e-01,8.974689990282058716e-02,1.226240321993827820e-01,9.329381585121154785e-02,3.255978599190711975e-02,-8.885768800973892212e-02,-1.542114019393920898e-01,5.235264077782630920e-03,-3.799829185009002686e-01,-3.087108768522739410e-02,-1.899882704019546509e-01,-1.288017332553863525e-01,-3.413283228874206543e-01,-5.757419764995574951e-02,-3.103370666503906250e-01,3.564671277999877930e-01,-2.361672073602676392e-01,9.857202321290969849e-02,-1.314660906791687012e-01,-1.230895072221755981e-01
-1.598334610462188721e-01,-2.804081141948699951e-01,2.682598233222961426e-01,-1.396966874599456787e-01,-1.145602911710739136e-01,-3.274526819586753845e-02,1.269658058881759644e-01,-7.114412263035774231e-03,1.276302337646484375e-01,1.697243005037307739e-01,-1.694988906383514404e-01,-4.460123479366302490e-01,-2.097999602556228638e-01,2.399424165487289429e-01,-4.206983745098114014e-02,-1.794923692941665649e-01,4.236368834972381592e-01,-1.385354250669479370e-01,-2.434882568195462227e-03,2.437821477651596069e-01,-2.683917284011840820e-01,-1.902649849653244019e-01,-3.835161328315734863e-01,-8.410599082708358765e-02,-3.230290487408638000e-02,2.908022403717041016e-01,-8.891718834638595581e-02,-9.512829780578613281e-02,-9.994127787649631500e-03,-2.333712019026279449e-02,3.505936563014984131e-01,5.560947656631469727e-01,2.794251143932342529e-01,2.402379031991586089e-04,-2.122568935155868530e-01,5.031912028789520264e-02,-3.930774703621864319e-02,-2.489337883889675140e-02,1.434210687875747681e-01,9.180381894111633301e-03,4.128809645771980286e-02,3.017509877681732178e-01,-5.593674778938293457e-01,-1.564969122409820557e-01,-6.534530967473983765e-02,2.652740105986595154e-03,-1.175568699836730957e-01,-7.913758046925067902e-03,-2.221733331680297852e-01,-3.198983669281005859e-01
-2.667616307735443115e-01,8.683550357818603516e-02,1.154446378350257874e-01,-6.221446767449378967e-02,-3.057717978954315186e-01,1.563783437013626099e-01,1.820821315050125122e-01,-1.632470190525054932e-01,-6.674332171678543091e-02,-1.268262416124343872e-01,1.900702863931655884e-01,-1.001965552568435669e-01,-6.894393265247344971e-02,-9.192747063934803009e-03,-1.905318200588226318e-01,3.850185871124267578e-02,-4.879708588123321533e-01,-4.601964056491851807e-01,1.613276004791259766e-01,7.399632781744003296e-02,-2.000367194414138794e-01,9.029117971658706665e-02,1.769410818815231323e-01,-7.093362808227539062e-01,-6.829169988632202148e-01,-1.456990540027618408e-01,-2.414771467447280884e-01,-1.679335534572601318e-01,1.257604807615280151e-01,-9.579159319400787354e-02,1.732571423053741455e-01,-2.949807643890380859e-01,-1.593171954154968262e-01,-1.080150231719017029e-01,2.636254131793975830e-01,-6.325838714838027954e-02,-3.232170045375823975e-01,3.395885527133941650e-01,-1.592719182372093201e-02,-2.250569760799407959e-01,-2.513351142406463623e-01,-3.044386208057403564e-02,3.948343694210052490e-01,-1.004299223423004150e-01,-1.663388311862945557e-01,-1.261702179908752441e-01,1.782378554344177246e-01,8.957983553409576416e-02,2.646583616733551025e-01,1.222497895359992981e-01
8.922775834798812866e-02,2.749538049101829529e-02,-6.313616782426834106e-02,-3.032373264431953430e-02,1.792438626289367676e-01,-1.586006879806518555e-01,-1.458962410688400269e-01,1.486749351024627686e-01,-1.053839027881622314e-01,-2.722363471984863281e-01,-1.612886935472488403e-01,-3.023148775100708008e-01,7.296853512525558472e-02,-1.034501492977142334e-01,2.161810696125030518e-01,-1.780069172382354736e-01,2.760009467601776123e-01,-7.594348490238189697e-02,-1.541099548339843750e-01,-3.565178513526916504e-01,7.749756425619125366e-02,-8.361383527517318726e-02,-3.030026257038116455e-01,-1.744565367698669434e-01,-1.393972933292388916e-01,-9.993292391300201416e-02,2.050922065973281860e-01,3.504107519984245300e-02,1.827398538589477539e-01,-1.379782557487487793e-01,-2.214893102645874023e-01,3.343302905559539795e-01,2.319229990243911743e-01,-2.539015747606754303e-02,-1.118696760386228561e-02,-3.809426426887512207e-01,-9.768592566251754761e-02,-3.508988618850708008e-01,-3.026779741048812866e-02,-1.947807222604751587e-01,-2.035269141197204590e-01,-2.092111855745315552e-01,-1.392420232295989990e-01,-1.901576519012451172e-01,-1.116133034229278564e-01,-1.959692873060703278e-02,-3.796697258949279785e-01,1.936506852507591248e-02,3.578564152121543884e-02,1.918162703514099121e-01
-1.164006739854812622e-01,1.631693243980407715e-01,1.837334409356117249e-02,-4.919408261775970459e-01,8.151820302009582520e-02,-8.109989017248153687e-02,3.064463138580322266e-01,5.754081904888153076e-02,-2.655560895800590515e-02,1.251453906297683716e-01,5.094821751117706299e-02,-1.957207620143890381e-01,-2.629044353961944580e-01,-1.942741125822067261e-01,-2.409021556377410889e-01,8.169467747211456299e-02,-2.036648690700531006e-01,-3.877012431621551514e-01,2.853493392467498779e-01,-1.131417378783226013e-01,2.455113381147384644e-01,2.038308382034301758e-01,1.628448963165283203e-01,-5.047386288642883301e-01,-4.674915671348571777e-01,-2.319860160350799561e-01,3.141389489173889160e-01,-1.537161022424697876e-01,7.487010955810546875e-02,-3.735598325729370117e-01,-9.692814201116561890e-02,-3.023260533809661865e-01,1.534040123224258423e-01,-2.202864289283752441e-01,8.133092895150184631e-03,8.164815604686737061e-02,1.224244479089975357e-03,2.027934938669204712e-01,1.505284905433654785e-01,-1.797245293855667114e-01,-6.421375088393688202e-03,1.300674527883529663e-01,3.919497430324554443e-01,2.738703973591327667e-02,-1.842091977596282959e-01,2.677656710147857666e-02,-1.600034683942794800e-01,-1.634389460086822510e-01,-6.666573882102966309e-02,9.492933005094528198e-02
1.147503331303596497e-01,1.951158791780471802e-01,-2.106747627258300781e-01,2.181832641363143921e-01,-7.456193864345550537e-02,-2.685823142528533936e-01,-5.800972133874893188e-02,-1.585012301802635193e-02,-1.247875839471817017e-01,-1.784624997526407242e-03,3.164354339241981506e-02,-2.804527282714843750e-01,-5.262400954961776733e-02,1.870974600315093994e-01,-1.402948647737503052e-01,3.444522023200988770e-01,-1.075695529580116272e-01,4.265246093273162842e-01,2.060974836349487305e-01,-7.040996849536895752e-02,5.917010083794593811e-02,1.824868470430374146e-01,-4.268087074160575867e-02,-1.281643956899642944e-01,1.461454331874847412e-01,-2.523908019065856934e-01,1.894694417715072632e-01,-4.666933044791221619e-02,-1.847648471593856812e-01,2.287225574254989624e-01,-3.888350725173950195e-01,-1.448108404874801636e-01,4.806627705693244934e-02,-4.842358827590942383e-01,1.642453223466873169e-01,-6.468513011932373047e-01,-9.599937498569488525e-02,-2.460878044366836548e-01,-3.422589898109436035e-01,-5.015285015106201172e-01,-1.207787021994590759e-01,-4.235126972198486328e-01,-5.548884347081184387e-02,-5.821083784103393555e-01,2.242185175418853760e-01,1.270834505558013916e-01,-3.978283703327178955e-01,-4.127108752727508545e-01,-1.139719560742378235e-01,1.938992887735366821e-01
