-1.900762021541595459e-01
-1.456591039896011353e-01
1.924952678382396698e-02
-1.199473142623901367e-01
-4.818952083587646484e-02
1.279425770044326782e-01
-1.289348155260086060e-01
-1.414761841297149658e-01
-7.299582660198211670e-02
1.628812849521636963e-01
1.009589657187461853e-01
-6.909053027629852295e-02
-1.443219780921936035e-01
-1.699161678552627563e-01
9.502793103456497192e-02
-1.488930918276309967e-02
-2.217095941305160522e-01
1.801215484738349915e-02
-3.089075684547424316e-01
-2.724357247352600098e-01
-1.664277762174606323e-01
-1.626570820808410645e-01
-1.032738313078880310e-01
1.439657807350158691e-01
-5.922796204686164856e-02
-3.187121748924255371e-01
2.199409008026123047e-01
6.693215668201446533e-02
-2.550341784954071045e-01
-1.759051680564880371e-01
-2.336938828229904175e-01
1.373775750398635864e-01
-4.094047099351882935e-02
-3.199125230312347412e-01
-1.621450483798980713e-01
-2.153217196464538574e-01
-2.961158379912376404e-02
2.344462275505065918e-01
1.798249781131744385e-02
2.361371517181396484e-01
-2.620666325092315674e-01
-1.021721959114074707e-01
4.763289541006088257e-02
1.741472780704498291e-01
-7.436737418174743652e-02
8.651740849018096924e-02
-2.469182312488555908e-01
-1.368413567543029785e-01
-3.148639202117919922e-01
-1.732378304004669189e-01
