-3.838837444782257080e-01
-1.892955452203750610e-01
1.463070064783096313e-01
1.265513449907302856e-01
1.242303475737571716e-01
1.399954110383987427e-01
-2.353344112634658813e-01
-1.458036899566650391e-01
-1.887915581464767456e-01
6.260499358177185059e-02
-4.134664684534072876e-02
1.276570111513137817e-01
-8.413042873144149780e-02
-8.462209254503250122e-02
4.581198841333389282e-02
3.024991974234580994e-02
8.730406314134597778e-02
4.562168195843696594e-02
3.663297295570373535e-01
-8.167429268360137939e-02
-1.038957238197326660e-01
-2.552229166030883789e-01
-1.341135054826736450e-01
-1.290266513824462891e-01
-1.498225629329681396e-01
1.641420461237430573e-02
1.376618295907974243e-01
5.862912535667419434e-02
4.009982645511627197e-01
-4.559401050209999084e-02
-1.049109697341918945e-01
-1.452850401401519775e-01
2.642587721347808838e-01
-1.938126049935817719e-02
1.442033499479293823e-01
-2.257109880447387695e-01
-2.919023036956787109e-01
1.203019618988037109e-01
-6.468078494071960449e-02
-1.331787407398223877e-01
-2.447472419589757919e-03
-6.964855641126632690e-02
1.610861271619796753e-01
-2.172672003507614136e-01
3.668370842933654785e-01
5.105633288621902466e-02
3.477645516395568848e-01
-5.317882895469665527e-01
1.218610703945159912e-01
-1.470210991101339459e-04
