2.947150766849517822e-01,-4.967724159359931946e-02,2.005332857370376587e-01,2.398345619440078735e-02,5.186826586723327637e-01,-2.473959475755691528e-01,6.831936538219451904e-02,8.229225873947143555e-02,-1.847793161869049072e-01,-7.107127457857131958e-02,-8.844488114118576050e-02,-1.221728604286909103e-02,1.537478417158126831e-01,-3.484975695610046387e-01,2.599819004535675049e-02,-1.131391990929841995e-02,2.840557396411895752e-01,-1.349055916070938110e-01,-1.905040889978408813e-01,-3.058546483516693115e-01,1.929364204406738281e-01,-2.168368995189666748e-01,-4.231758788228034973e-02,-1.207057163119316101e-01,1.914702504873275757e-01,5.292492732405662537e-02,4.115952253341674805e-01,-2.031763792037963867e-01,-3.956520557403564453e-01,-8.654238283634185791e-02,6.429950147867202759e-02,6.030529737472534180e-02,-3.901430591940879822e-02,-2.298020422458648682e-01,-1.855414360761642456e-01,-3.530319035053253174e-02,-1.778182536363601685e-01,-3.312763869762420654e-01,-2.815985493361949921e-02,8.460979908704757690e-02,1.554915904998779297e-01,1.399979442358016968e-01,8.692715317010879517e-02,-3.538789227604866028e-03,-1.651415377855300903e-01,2.555550634860992432e-01,1.976163126528263092e-02,-3.029696941375732422e-01,1.321902275085449219e-01,-7.296312600374221802e-02
-2.678919732570648193e-01,2.072709649801254272e-01,3.766037523746490479e-02,1.568008959293365479e-01,-1.448269933462142944e-01,-5.695833265781402588e-02,-4.430128335952758789e-01,2.906086444854736328e-01,-2.378921955823898315e-02,-2.255531772971153259e-02,7.307273149490356445e-02,1.852146387100219727e-01,5.616777390241622925e-02,-8.256339468061923981e-03,2.597102336585521698e-02,2.984766662120819092e-01,1.483244746923446655e-01,2.944658398628234863e-01,-3.629908710718154907e-02,-2.052116841077804565e-01,9.808164834976196289e-02,-3.176894485950469971e-01,1.794847398996353149e-01,-4.709180817008018494e-02,1.780940443277359009e-01,1.563880145549774170e-01,-2.051440030336380005e-01,8.042664080858230591e-02,2.528341859579086304e-02,4.002831876277923584e-02,1.035630926489830017e-01,-4.688099026679992676e-02,3.879393339157104492e-01,-5.196512937545776367e-01,-1.036625355482101440e-01,-5.524421110749244690e-02,-2.005010098218917847e-01,2.646962180733680725e-02,-1.873307526111602783e-01,1.178548298776149750e-02,-4.762246310710906982e-01,2.114097326993942261e-01,-9.753010421991348267e-02,-3.830786049365997314e-01,1.349596213549375534e-02,-2.819349765777587891e-01,-1.519975811243057251e-01,-2.916164994239807129e-01,-1.587915420532226562e-01,-3.331997394561767578e-01
9.738051891326904297e-02,-7.866312563419342041e-02,-1.064534485340118408e-01,1.506182551383972168e-01,-1.010618582367897034e-01,3.062631189823150635e-01,4.067720472812652588e-01,1.467802524566650391e-01,-5.462855100631713867e-02,3.079488687217235565e-02,1.199652925133705139e-01,-3.114320039749145508e-01,-2.351759932935237885e-02,-2.074490636587142944e-01,3.443547189235687256e-01,-1.294102072715759277e-01,-3.235040232539176941e-02,3.264644145965576172e-01,-8.517000824213027954e-02,-3.526447340846061707e-02,-3.083111345767974854e-01,1.185987517237663269e-01,-5.604915693402290344e-02,-4.529494047164916992e-01,-5.961121618747711182e-02,-2.346645891666412354e-01,-3.682923852466046810e-04,-5.207829475402832031e-01,-6.378629058599472046e-02,3.366291821002960205e-01,7.125003635883331299e-02,5.630421638488769531e-01,-1.667607128620147705e-01,1.063258871436119080e-01,1.080411076545715332e-01,-2.982606738805770874e-02,1.868714094161987305e-01,7.181328535079956055e-02,-2.266268990933895111e-02,1.432626396417617798e-01,1.387746632099151611e-01,-4.560181200504302979e-01,-1.723810732364654541e-01,-1.642524152994155884e-01,-1.751441508531570435e-01,-1.606902480125427246e-01,8.646002411842346191e-02,-3.723260760307312012e-02,-3.285861015319824219e-02,-2.325841784477233887e-01
1.552477329969406128e-01,1.730898320674896240e-01,-2.435398660600185394e-02,-2.057407200336456299e-01,-1.418864428997039795e-01,1.434783339500427246e-01,1.537791788578033447e-01,-3.318375945091247559e-01,1.022609397768974304e-01,-1.347271651029586792e-01,-2.337445467710494995e-01,1.174709051847457886e-01,5.843205377459526062e-02,-3.020396083593368530e-02,-1.865384876728057861e-01,-1.827000379562377930e-01,-1.309267804026603699e-02,-5.465723574161529541e-02,2.302931807935237885e-02,1.024472787976264954e-01,8.705279976129531860e-02,-5.070132017135620117e-02,-2.508028149604797363e-01,-2.206627652049064636e-02,-8.467686176300048828e-02,-1.478471308946609497e-01,-1.365544199943542480e-01,-3.316881060600280762e-01,-3.078195452690124512e-02,9.873682633042335510e-03,2.145178169012069702e-01,-2.622142732143402100e-01,4.696051403880119324e-02,-2.532182633876800537e-01,-1.186693161725997925e-01,-1.831941455602645874e-01,2.607852816581726074e-01,-2.498131692409515381e-01,-1.503919363021850586e-01,1.772471368312835693e-01,2.850382328033447266e-01,-2.539198100566864014e-01,5.242228880524635315e-02,-3.812755346298217773e-01,-6.553340703248977661e-02,-1.295523941516876221e-01,-3.282492160797119141e-01,2.581113874912261963e-01,-1.387518178671598434e-02,-1.564640402793884277e-01
-4.223663806915283203e-01,2.674131691455841064e-01,-2.630489468574523926e-01,1.595692522823810577e-02,-1.441414505243301392e-01,6.631469819694757462e-03,3.055128157138824463e-01,-2.153772711753845215e-01,5.674243345856666565e-02,2.644117474555969238e-01,7.830716669559478760e-02,-1.943151950836181641e-01,-1.671658605337142944e-01,-1.047032028436660767e-01,1.897071748971939087e-01,-1.347204815829172730e-04,6.412857025861740112e-02,-1.542336940765380859e-01,3.234585225582122803e-01,-2.924702875316143036e-02,-4.668393433094024658e-01,-6.977604702115058899e-03,-2.200783193111419678e-01,-1.029113531112670898e-01,1.566692069172859192e-02,5.804756283760070801e-01,-1.059140861034393311e-01,-3.373114466667175293e-01,6.621810793876647949e-02,3.877741098403930664e-02,7.086528092622756958e-02,-3.112522661685943604e-01,3.782269954681396484e-01,1.422064900398254395e-01,-1.879395544528961182e-01,-9.760224819183349609e-02,2.655372321605682373e-01,2.537333667278289795e-01,-1.533026900142431259e-02,-1.989952055737376213e-03,-2.690630257129669189e-01,1.860125213861465454e-01,-2.914145588874816895e-01,-2.001456916332244873e-01,2.295183539390563965e-01,-1.962506324052810669e-01,1.210854798555374146e-01,1.721695065498352051e-01,-1.925743371248245239e-02,3.256376683712005615e-01
-4.134972393512725830e-01,-4.100983962416648865e-02,-1.163704767823219299e-01,4.004504978656768799e-01,4.459664225578308105e-01,-2.999827265739440918e-02,7.721490412950515747e-02,-1.193663030862808228e-01,1.300353407859802246e-01,1.774794310331344604e-01,-1.227414757013320923e-01,-2.839868701994419098e-02,3.416352570056915283e-01,1.117267385125160217e-01,2.319192439317703247e-01,-1.128277108073234558e-01,-2.267347574234008789e-01,-1.370860189199447632e-01,-3.189264535903930664e-01,-3.228925168514251709e-03,-2.206864506006240845e-01,7.608827203512191772e-02,2.251371592283248901e-01,2.275365144014358521e-01,3.295508325099945068e-01,1.696353107690811157e-01,-8.456607908010482788e-02,9.465959668159484863e-02,1.933362036943435669e-01,-5.313140805810689926e-03,6.205840781331062317e-02,7.928622514009475708e-02,3.829988464713096619e-02,1.224539950489997864e-01,-2.040403336286544800e-01,1.217290610074996948e-01,-1.929225474596023560e-01,1.903635710477828979e-01,-1.993674486875534058e-01,3.152566850185394287e-01,-9.468845278024673462e-02,-3.862248063087463379e-01,-1.485467255115509033e-01,-2.278907299041748047e-01,-2.812775075435638428e-01,1.665591001510620117e-01,-3.395657241344451904e-01,-6.658570468425750732e-02,-4.450548440217971802e-02,1.791763305664062500e-01
-2.932002544403076172e-01,1.442949324846267700e-01,6.536198407411575317e-02,-1.010192558169364929e-01,6.468041986227035522e-02,-2.279096990823745728e-01,-1.523628979921340942e-01,-1.495156250894069672e-02,8.979491889476776123e-02,-2.118227332830429077e-01,-3.452141582965850830e-02,2.152329683303833008e-01,-2.606251239776611328e-01,-2.137022167444229126e-01,5.375542491674423218e-02,3.215454816818237305e-01,5.144907534122467041e-02,-1.393678933382034302e-01,6.712242960929870605e-02,3.188040107488632202e-02,-1.000667363405227661e-02,-6.604303419589996338e-02,3.017467558383941650e-01,-2.850553691387176514e-01,3.547845780849456787e-01,-1.153509989380836487e-01,-1.201704293489456177e-01,6.911887973546981812e-02,-2.162611484527587891e-01,-2.116474211215972900e-01,-1.953380703926086426e-01,-3.477325439453125000e-01,-2.607426047325134277e-01,-2.854159176349639893e-01,2.650660872459411621e-01,1.618999093770980835e-01,1.501890420913696289e-01,-4.230256006121635437e-02,3.080402873456478119e-02,-2.806783318519592285e-01,-7.607516646385192871e-02,-5.128340050578117371e-02,-3.396020233631134033e-01,-2.115688472986221313e-02,-8.916114270687103271e-02,-3.143351376056671143e-01,-9.780664928257465363e-03,-1.493643224239349365e-01,-3.070257976651191711e-02,-1.465888619422912598e-01
-1.377967745065689087e-01,-2.087274789810180664e-01,2.090867012739181519e-01,8.073100447654724121e-02,1.781465709209442139e-01,-3.242158144712448120e-02,-7.890253514051437378e-02,-1.437624543905258179e-01,-1.085736602544784546e-01,5.025124549865722656e-02,1.074339449405670166e-01,1.992791444063186646e-01,-2.704994566738605499e-02,-1.261695176362991333e-01,-2.043497115373611450e-01,4.535847157239913940e-02,-1.452914029359817505e-01,-2.676950693130493164e-01,-2.462671883404254913e-02,1.925171315670013428e-01,-2.354582101106643677e-01,-5.512318015098571777e-02,1.214620247483253479e-01,1.794014126062393188e-01,3.401901572942733765e-02,-1.821208447217941284e-01,-9.006346017122268677e-02,1.182909980416297913e-01,-1.658857613801956177e-01,2.068319767713546753e-01,-1.325023174285888672e-01,2.191490866243839264e-02,-1.536360681056976318e-01,3.814866393804550171e-02,1.436279267072677612e-01,-2.569690942764282227e-01,1.488962471485137939e-01,-9.738525003194808960e-02,9.178635478019714355e-02,1.779819838702678680e-02,-2.576825581490993500e-02,-2.020383477210998535e-01,6.707158684730529785e-02,-4.890786111354827881e-01,2.374476641416549683e-01,-1.654465794563293457e-01,1.921671926975250244e-01,-6.674019247293472290e-02,7.602752745151519775e-02,-1.307182572782039642e-02
-6.654065847396850586e-02,-1.394221931695938110e-01,2.060637250542640686e-02,2.476780116558074951e-02,7.077659666538238525e-02,-1.135129481554031372e-01,-1.831619143486022949e-01,2.502373158931732178e-01,2.578407227993011475e-01,-6.966109573841094971e-02,2.801720201969146729e-01,2.256828248500823975e-01,5.250037088990211487e-02,1.652310369536280632e-03,2.383299022912979126e-01,1.986001133918762207e-01,-2.999208867549896240e-01,2.252490967512130737e-01,5.430162325501441956e-02,4.871083423495292664e-02,1.969914287328720093e-01,3.509049420244991779e-04,-8.094677329063415527e-02,-2.556373775005340576e-01,9.910500608384609222e-03,-1.398892998695373535e-01,2.446072101593017578e-01,-2.765109539031982422e-01,-1.157739236950874329e-01,3.739135339856147766e-02,8.706341683864593506e-02,3.509160876274108887e-01,-3.659168481826782227e-01,-2.970134615898132324e-01,3.924768418073654175e-02,-1.135980783146806061e-04,2.169648557901382446e-01,2.820605039596557617e-01,4.667926952242851257e-02,-2.525040209293365479e-01,-6.749300658702850342e-02,-8.782855421304702759e-02,1.197284534573554993e-01,3.277564188465476036e-03,-3.266405314207077026e-02,4.913485944271087646e-01,3.436408638954162598e-01,-2.084106802940368652e-01,-1.988646388053894043e-01,1.746277809143066406e-01
6.491862982511520386e-02,-2.422032654285430908e-01,1.210709363222122192e-01,-2.275673002004623413e-01,-2.641450166702270508e-01,1.997240483760833740e-01,-1.042033582925796509e-01,-6.171301379799842834e-02,-7.684292644262313843e-02,1.625596135854721069e-01,2.157128900289535522e-01,8.051279187202453613e-02,1.720902174711227417e-01,-3.021645843982696533e-01,2.793797850608825684e-01,1.296897530555725098e-01,6.689982861280441284e-02,1.859128326177597046e-01,4.693125956691801548e-04,-1.394399106502532959e-01,-1.864989697933197021e-01,1.017863377928733826e-01,-6.359811872243881226e-02,1.153748948127031326e-02,-9.357476234436035156e-02,2.197626084089279175e-01,-2.084238678216934204e-01,-4.762060642242431641e-01,6.953213363885879517e-02,1.986057758331298828e-01,1.863522827625274658e-02,8.147069066762924194e-02,1.136500015854835510e-01,5.143055692315101624e-02,4.399516433477401733e-02,-2.162839323282241821e-01,1.587237864732742310e-01,2.726292312145233154e-01,-3.375175297260284424e-01,-3.207704424858093262e-02,-1.404200494289398193e-01,-2.437352538108825684e-01,4.529049992561340332e-02,-1.361886411905288696e-02,1.412682980298995972e-01,1.584279388189315796e-01,-1.450722813606262207e-01,1.227037385106086731e-01,-2.781818211078643799e-01,1.390957534313201904e-01
-6.457202881574630737e-02,-1.083053871989250183e-01,7.908371090888977051e-02,3.725838288664817810e-02,-8.386472612619400024e-02,-1.776421368122100830e-01,1.321615576744079590e-01,-1.500116884708404541e-01,4.306666553020477295e-02,-5.622642636299133301e-01,-9.117972804233431816e-04,-1.947061419486999512e-01,1.293951570987701416e-01,9.415311366319656372e-02,5.637373775243759155e-02,-1.736257374286651611e-01,-1.675135456025600433e-02,-3.401679098606109619e-01,1.856045573949813843e-01,-7.011096179485321045e-02,-4.106050431728363037e-01,-3.208732604980468750e-02,1.585305482149124146e-01,9.206824749708175659e-02,3.904744982719421387e-01,-2.095205895602703094e-02,4.664519801735877991e-02,2.119062244892120361e-01,2.074445635080337524e-01,2.374779731035232544e-01,-2.235986441373825073e-01,5.773923397064208984e-01,1.964896768331527710e-01,-4.632392898201942444e-02,-4.209151491522789001e-02,1.637746691703796387e-01,4.956179857254028320e-02,1.930736899375915527e-01,2.373256832361221313e-01,-4.305622279644012451e-01,7.524719089269638062e-02,-9.456449747085571289e-02,5.094723310321569443e-03,-9.765760600566864014e-02,1.550754606723785400e-01,1.627171039581298828e-01,9.720403701066970825e-02,3.224479556083679199e-01,1.785733103752136230e-01,-1.779840886592864990e-01
1.138438358902931213e-01,-1.649443209171295166e-01,1.788833886384963989e-01,-2.426896616816520691e-02,-2.381715551018714905e-02,3.561795689165592194e-03,1.511594802141189575e-01,-3.849857449531555176e-01,-7.848131656646728516e-02,-5.108889341354370117e-01,-1.897756159305572510e-01,-1.123887524008750916e-01,1.446478813886642456e-01,9.413599967956542969e-02,1.231991946697235107e-01,-3.324913084506988525e-01,-7.439932227134704590e-02,-2.203568816184997559e-01,-1.003932133316993713e-01,2.210932821035385132e-01,-2.764077782630920410e-01,1.508551985025405884e-01,-1.165234595537185669e-01,1.572993397712707520e-01,-7.827863097190856934e-02,-8.526898175477981567e-02,-8.386781811714172363e-02,1.443505436182022095e-01,4.302218556404113770e-02,2.574142217636108398e-01,5.821270123124122620e-02,2.779721319675445557e-01,1.840456426143646240e-01,9.872086346149444580e-02,-1.338313370943069458e-01,8.815684914588928223e-02,-1.487241405993700027e-02,1.058227717876434326e-01,-2.282339334487915039e-01,2.037904262542724609e-01,-5.332172289490699768e-02,-1.671503782272338867e-01,3.121239505708217621e-02,3.796340525150299072e-02,-3.245361149311065674e-01,-2.960678189992904663e-02,1.829364448785781860e-01,2.541276812553405762e-01,-3.958831354975700378e-02,-2.770118229091167450e-02
1.476878076791763306e-01,1.401480287313461304e-01,-1.237495392560958862e-01,8.058022707700729370e-02,3.226762413978576660e-01,-4.835180193185806274e-02,-8.601862937211990356e-02,-8.085279911756515503e-02,3.058834671974182129e-01,-2.656622231006622314e-01,-1.969152241945266724e-01,-2.594661712646484375e-01,5.078216549009084702e-03,6.786159425973892212e-02,-1.462103053927421570e-02,6.630886346101760864e-02,6.189239397644996643e-02,-8.988607674837112427e-03,-5.111879482865333557e-02,-2.370246201753616333e-01,-1.865382939577102661e-01,1.349046826362609863e-01,-6.179261580109596252e-02,7.162343710660934448e-02,1.490997970104217529e-01,-2.337071113288402557e-02,-2.039480060338973999e-01,-3.114689886569976807e-01,1.383402645587921143e-01,2.664248943328857422e-01,2.886796742677688599e-02,-1.033258587121963501e-01,2.042021155357360840e-01,2.714428305625915527e-01,1.470637321472167969e-01,9.772111475467681885e-02,1.328773647546768188e-01,-2.489752136170864105e-02,2.951229810714721680e-01,-2.492656856775283813e-01,-2.150437831878662109e-01,8.936301618814468384e-02,2.865010686218738556e-02,-8.729701489210128784e-02,3.175137341022491455e-01,2.625793032348155975e-02,1.347659081220626831e-01,1.106064096093177795e-01,-1.544770598411560059e-01,3.262800350785255432e-02
1.737263500690460205e-01,-4.119772091507911682e-02,-8.332965523004531860e-02,-1.875723451375961304e-01,4.832385480403900146e-02,1.103535741567611694e-01,-2.564499340951442719e-02,-7.052401546388864517e-03,-1.821583360433578491e-01,1.390630602836608887e-01,4.737565293908119202e-02,-1.230843216180801392e-01,8.130885660648345947e-02,-2.814953029155731201e-01,-1.305367201566696167e-01,-2.881497144699096680e-02,2.650443017482757568e-01,-1.587384194135665894e-01,3.927439153194427490e-01,-7.337841391563415527e-02,9.705740027129650116e-03,-1.096344962716102600e-01,-3.447560667991638184e-01,-3.492054343223571777e-01,-3.438545167446136475e-01,-2.111650705337524414e-01,-3.836775198578834534e-02,-9.840375930070877075e-02,-1.071537733078002930e-01,-5.498888492584228516e-01,4.703463613986968994e-02,-2.413251996040344238e-01,3.185893297195434570e-01,-2.984873652458190918e-01,-1.610258370637893677e-01,1.442771553993225098e-01,-1.524320393800735474e-01,6.382954865694046021e-02,-1.694511771202087402e-01,2.797357439994812012e-01,2.605870664119720459e-01,-3.482547700405120850e-01,-2.348955161869525909e-02,-5.189506337046623230e-02,-3.255817592144012451e-01,3.213510513305664062e-01,-1.513164788484573364e-01,1.735174469649791718e-02,4.539299309253692627e-01,-7.610058784484863281e-02
-4.652190208435058594e-02,-7.511954009532928467e-02,3.738332167267799377e-02,-2.018873393535614014e-01,1.655460745096206665e-01,8.768071979284286499e-02,-3.154812753200531006e-01,-6.407710164785385132e-02,-5.943723395466804504e-02,-3.761174902319908142e-02,1.617504358291625977e-01,3.711553215980529785e-01,-1.540161967277526855e-01,-5.909281782805919647e-03,-3.884740769863128662e-01,-7.022872567176818848e-02,-2.179043292999267578e-01,-2.330728322267532349e-01,2.512683868408203125e-01,-1.119576990604400635e-01,3.098905682563781738e-01,-2.091231942176818848e-01,8.965007215738296509e-02,-3.914548456668853760e-01,-3.454900383949279785e-01,-8.302550017833709717e-02,-2.474592626094818115e-01,-9.248960763216018677e-02,9.072615951299667358e-02,-3.562503680586814880e-02,-1.041959524154663086e-01,-3.636237978935241699e-01,-4.840058088302612305e-02,1.783653944730758667e-01,-5.181413888931274414e-02,-8.673881739377975464e-02,-1.822425723075866699e-01,6.769887357950210571e-02,2.458032965660095215e-01,-3.446612507104873657e-02,3.734422102570533752e-02,9.248854964971542358e-02,3.142488598823547363e-01,-1.278301030397415161e-01,-3.125524818897247314e-01,-2.192969322204589844e-01,2.733401060104370117e-01,1.319346600212156773e-03,1.357249915599822998e-02,2.609512209892272949e-01
9.459339082241058350e-02,-4.970766603946685791e-02,-1.700087450444698334e-02,2.269051820039749146e-01,-1.776927262544631958e-01,8.999323099851608276e-02,1.538746356964111328e-01,3.036818504333496094e-01,-1.700983792543411255e-01,5.599207431077957153e-02,-3.454132750630378723e-02,1.572176367044448853e-01,-3.138738274574279785e-01,-6.183974817395210266e-02,1.555631607770919800e-01,1.145784258842468262e-01,-1.688275486230850220e-01,-1.099313348531723022e-01,2.872114814817905426e-02,2.218047231435775757e-01,-3.185470998287200928e-01,6.879672408103942871e-02,3.477957844734191895e-02,3.297262191772460938e-01,4.314218834042549133e-02,2.646882236003875732e-01,3.281085193157196045e-01,2.921809554100036621e-01,6.453200243413448334e-03,4.151725769042968750e-02,-1.151808723807334900e-02,-1.055252403020858765e-01,-2.046636790037155151e-01,-5.202080309391021729e-02,1.714099794626235962e-01,2.127649188041687012e-01,1.310080587863922119e-01,6.129811704158782959e-02,2.041636556386947632e-01,-5.794952511787414551e-01,-2.759136557579040527e-01,3.940196335315704346e-01,-2.964620590209960938e-01,-3.228629529476165771e-01,1.779732406139373779e-01,-3.923574090003967285e-01,1.410495489835739136e-01,-7.930176705121994019e-02,-9.101866185665130615e-02,-1.094431057572364807e-01
2.623748481273651123e-01,-1.015452966094017029e-01,1.942752003669738770e-01,2.529196739196777344e-01,1.959812492132186890e-01,1.253736466169357300e-01,9.129904955625534058e-02,-9.164655953645706177e-02,1.179515421390533447e-01,-3.170177638530731201e-01,1.497309356927871704e-01,2.138392478227615356e-01,1.355680972337722778e-01,-1.108969794586300850e-03,-1.023089662194252014e-01,-1.859409660100936890e-01,-7.466854900121688843e-02,1.597951799631118774e-01,-1.120727434754371643e-01,2.153459489345550537e-01,-2.237897068262100220e-01,1.024711690843105316e-02,1.145827397704124451e-01,-1.343567222356796265e-01,-3.748348653316497803e-01,-2.407812476158142090e-01,-9.333537518978118896e-02,9.378391504287719727e-02,9.036662429571151733e-02,2.694444954395294189e-01,1.754549145698547363e-01,2.182378768920898438e-01,-7.749767601490020752e-02,1.771176308393478394e-01,-2.491762191057205200e-01,1.159831434488296509e-01,8.338195830583572388e-02,-3.212720453739166260e-01,1.010710895061492920e-01,1.353965401649475098e-01,-6.495472043752670288e-02,6.369993835687637329e-02,1.427238732576370239e-01,-1.903115361928939819e-01,1.613870710134506226e-01,1.072190105915069580e-01,-6.550046801567077637e-02,9.371910244226455688e-02,7.695255428552627563e-02,-3.758043348789215088e-01
1.686576306819915771e-01,-2.584049701690673828e-01,-9.013264440000057220e-03,-4.290049076080322266e-01,6.667401641607284546e-02,2.789420634508132935e-02,9.444144368171691895e-02,8.673027902841567993e-02,1.931582242250442505e-01,2.516026496887207031e-01,2.724197208881378174e-01,9.805940091609954834e-02,-2.484721988439559937e-01,-3.034101128578186035e-01,4.944520443677902222e-02,-1.018083170056343079e-01,-3.644438683986663818e-01,2.799978256225585938e-01,1.769028455018997192e-01,-7.279302924871444702e-02,6.619995832443237305e-02,2.406741976737976074e-01,9.048984199762344360e-02,-1.491215825080871582e-01,-3.453494310379028320e-01,-1.724296957254409790e-01,-1.434646993875503540e-01,-1.613578945398330688e-01,-2.654889523983001709e-01,-2.455762028694152832e-01,-1.155566275119781494e-01,2.986572980880737305e-01,-2.387862354516983032e-01,2.195756286382675171e-01,2.140333354473114014e-01,-6.581781804561614990e-02,1.243292167782783508e-01,2.358208149671554565e-01,-2.605979144573211670e-01,-2.135019600391387939e-01,2.760462462902069092e-01,-1.618941277265548706e-01,2.809025049209594727e-01,-3.356777131557464600e-02,-2.764647603034973145e-01,-6.181169301271438599e-02,3.574300706386566162e-01,-2.866108901798725128e-02,1.577848047018051147e-01,-2.170540094375610352e-01
-1.928060650825500488e-01,-1.752481460571289062e-01,-1.574033051729202271e-01,-4.609730094671249390e-03,-2.389786690473556519e-01,-9.705279767513275146e-02,2.668391168117523193e-01,-5.161042213439941406e-01,-1.513186097145080566e-01,-3.920671641826629639e-01,-1.010468602180480957e-01,1.956088095903396606e-02,-2.408267557621002197e-02,-8.116264827549457550e-03,-2.525379359722137451e-01,4.000709950923919678e-02,-1.399685144424438477e-01,1.553653329610824585e-01,1.458445340394973755e-01,1.554322540760040283e-01,-2.318381369113922119e-01,2.073747962713241577e-01,-1.163365840911865234e-01,-1.518150120973587036e-01,-1.236711163073778152e-02,-1.361656934022903442e-02,1.951518654823303223e-01,3.356761764734983444e-03,-4.372891038656234741e-02,2.108630090951919556e-01,-2.417255043983459473e-01,4.949625134468078613e-01,-4.496861100196838379e-01,-5.495302006602287292e-02,6.794117391109466553e-02,5.799087509512901306e-02,1.837340295314788818e-01,5.378864705562591553e-02,-2.363455742597579956e-01,2.506794035434722900e-01,1.937459036707878113e-02,-4.569227695465087891e-01,-7.673232257366180420e-02,-2.196759432554244995e-01,-2.914553284645080566e-01,-1.055516898632049561e-01,2.045378983020782471e-01,1.699868142604827881e-01,2.052039802074432373e-01,-4.387768357992172241e-02
-4.057100415229797363e-02,-1.988931298255920410e-01,2.013873867690563202e-02,-1.216067299246788025e-01,1.631575077772140503e-01,-1.848149299621582031e-01,5.161315947771072388e-02,-1.673367172479629517e-01,2.044735997915267944e-01,-1.584334075450897217e-01,-2.530281245708465576e-01,5.350438505411148071e-02,1.703664101660251617e-02,8.321621455252170563e-03,-8.821567147970199585e-02,-1.423395425081253052e-01,1.370393633842468262e-01,3.730812296271324158e-02,-3.386311233043670654e-01,2.930965423583984375e-01,-1.952769607305526733e-01,1.002090871334075928e-01,-1.192433610558509827e-01,8.075263351202011108e-02,2.005898356437683105e-01,-4.482162594795227051e-01,1.292901933193206787e-01,2.158567160367965698e-01,9.560062736272811890e-02,3.233552351593971252e-02,1.532064825296401978e-01,3.487954735755920410e-01,-3.448557257652282715e-01,1.706961393356323242e-01,-3.628576099872589111e-01,-1.299177110195159912e-01,1.368208676576614380e-01,1.065041795372962952e-01,-5.130226910114288330e-02,2.202680259943008423e-01,-2.249981462955474854e-01,1.672418415546417236e-01,1.584037393331527710e-02,-2.495871335268020630e-01,2.489376626908779144e-02,-2.419362962245941162e-01,-8.324475586414337158e-02,1.311565339565277100e-01,1.374461594969034195e-02,-7.330295443534851074e-02
1.536388099193572998e-01,-4.823054652661085129e-03,-1.971368342638015747e-01,3.351200604811310768e-03,1.381851434707641602e-01,4.200038313865661621e-02,-1.325320452451705933e-01,-5.236142277717590332e-01,-1.622938811779022217e-01,-3.865395486354827881e-01,8.974938839673995972e-02,-6.726284325122833252e-02,1.976143270730972290e-01,2.265772521495819092e-01,-1.767667382955551147e-02,-3.384406268596649170e-01,5.890287458896636963e-03,-3.262923061847686768e-01,9.921804070472717285e-03,2.715804278850555420e-01,2.118502557277679443e-01,-3.564185798168182373e-01,1.029627323150634766e-01,2.374720126390457153e-01,1.483743935823440552e-01,-3.570645749568939209e-01,6.986649823375046253e-04,2.788250148296356201e-01,2.283712476491928101e-01,2.385388761758804321e-01,2.877395451068878174e-01,2.789492011070251465e-01,2.981718480587005615e-01,-8.761768788099288940e-02,7.633926719427108765e-02,5.755118560045957565e-03,9.422222524881362915e-02,1.384673640131950378e-02,1.973135620355606079e-01,1.036730930209159851e-01,1.762245595455169678e-01,1.253490000963211060e-01,1.617484688758850098e-01,3.785149455070495605e-01,1.639475929550826550e-03,-3.542372584342956543e-01,-1.436543315649032593e-01,1.536960601806640625e-01,3.105390369892120361e-01,-2.374299615621566772e-01
-1.870134025812149048e-01,1.413210034370422363e-01,1.096548810601234436e-01,1.804324984550476074e-02,2.600011229515075684e-01,6.714744865894317627e-02,-2.104967236518859863e-01,2.628543078899383545e-01,-4.622523859143257141e-02,3.105888329446315765e-02,-4.705434739589691162e-01,-1.948412209749221802e-01,4.334524869918823242e-01,-7.261794060468673706e-02,-2.070636004209518433e-01,2.610386610031127930e-01,7.243923842906951904e-02,-1.857931613922119141e-01,-2.899728119373321533e-01,-3.118502497673034668e-01,-5.833974108099937439e-02,-4.250007271766662598e-01,-6.833145767450332642e-02,3.104241490364074707e-01,5.265059322118759155e-02,1.633450686931610107e-01,2.714499533176422119e-01,2.039076238870620728e-01,-1.883699148893356323e-01,1.279609650373458862e-01,-2.204193547368049622e-02,-3.489284813404083252e-01,-1.951325335539877415e-03,-1.358862668275833130e-01,-3.053721189498901367e-01,1.004117354750633240e-01,3.469447791576385498e-01,-3.550543487071990967e-01,-1.276668310165405273e-01,2.229854464530944824e-01,-2.357482761144638062e-01,-2.007503062486648560e-01,-2.814424335956573486e-01,-2.826901972293853760e-01,2.118826806545257568e-01,2.107678055763244629e-01,-2.395087033510208130e-01,-2.760288119316101074e-01,-2.508381605148315430e-01,2.489772886037826538e-01
-8.395087718963623047e-02,-3.569483160972595215e-01,4.123015105724334717e-01,-2.266623228788375854e-01,1.082163304090499878e-01,-1.486330032348632812e-01,-2.284977212548255920e-02,-1.255659908056259155e-01,4.436541721224784851e-02,-1.709746941924095154e-02,1.044141799211502075e-01,2.564511895179748535e-01,1.282820552587509155e-01,9.979665279388427734e-03,-2.526709251105785370e-02,2.363258898258209229e-01,-2.317680865526199341e-01,4.447798058390617371e-02,-3.873445838689804077e-02,2.211047261953353882e-01,3.490687310695648193e-01,-3.511693179607391357e-01,-7.619103044271469116e-02,1.740247160196304321e-01,2.413513213396072388e-01,-2.221461944282054901e-02,-2.542197108268737793e-01,3.926925063133239746e-01,-3.745945170521736145e-02,3.098216354846954346e-01,2.292285859584808350e-02,-1.987478137016296387e-01,5.798435211181640625e-01,-1.159090027213096619e-01,-2.875286340713500977e-01,-2.766064405441284180e-01,-1.447305232286453247e-01,-1.851712614297866821e-01,-2.340075522661209106e-01,-4.347994625568389893e-01,1.524814814329147339e-01,3.298880755901336670e-01,-1.056186184287071228e-01,1.857686489820480347e-01,1.737475767731666565e-02,-9.743043780326843262e-02,1.424725651741027832e-01,-1.543485075235366821e-01,1.374608576297760010e-01,-3.459620475769042969e-02
1.446366310119628906e-01,4.095061421394348145e-01,-1.973165422677993774e-01,6.897888332605361938e-02,3.070142269134521484e-01,8.353805541992187500e-02,-1.578017771244049072e-01,-7.754698395729064941e-02,1.649297773838043213e-01,-1.145590618252754211e-01,-2.247318774461746216e-01,-9.939586371183395386e-02,2.367289811372756958e-01,-1.804291456937789917e-01,-2.472747815772891045e-03,2.853788137435913086e-01,-2.621389925479888916e-01,6.360774487257003784e-02,-1.056030094623565674e-01,-2.026469111442565918e-01,1.259564608335494995e-01,-2.112457752227783203e-01,1.151044070720672607e-01,3.413980007171630859e-01,2.157244235277175903e-01,1.167069822549819946e-01,-1.143140643835067749e-01,-6.243913993239402771e-02,8.324960619211196899e-02,2.685409486293792725e-01,-1.518907863646745682e-02,2.205969989299774170e-01,4.111384972929954529e-02,-2.049047946929931641e-01,-3.225452601909637451e-01,6.612917780876159668e-02,-1.209795624017715454e-01,-2.552784681320190430e-01,-1.790845394134521484e-01,-1.746557354927062988e-01,-2.230612486600875854e-01,-2.398489266633987427e-01,-1.993767768144607544e-01,-1.193564385175704956e-01,9.859321266412734985e-02,-4.990038275718688965e-02,6.762633472681045532e-02,1.301811039447784424e-01,-1.326510459184646606e-01,-9.034964442253112793e-02
-2.030335366725921631e-01,3.224849700927734375e-02,-2.608864009380340576e-02,-2.786937057971954346e-01,2.672032117843627930e-01,7.321260869503021240e-02,-2.771379351615905762e-01,1.507493853569030762e-01,-3.506862521171569824e-01,-8.746918290853500366e-02,2.446402236819267273e-02,-3.200971186161041260e-01,3.022769466042518616e-02,2.641585469245910645e-02,2.605990767478942871e-01,2.784788012504577637e-01,1.309061348438262939e-01,1.680301688611507416e-02,-2.531331777572631836e-01,1.701525449752807617e-01,-4.519666135311126709e-01,-1.266397833824157715e-01,7.435549795627593994e-02,1.750351488590240479e-02,-9.860843420028686523e-03,1.513535082340240479e-01,-7.065662741661071777e-02,2.631030380725860596e-01,5.852386355400085449e-02,1.766120195388793945e-01,-3.478409349918365479e-02,-1.611088812351226807e-01,1.085739955306053162e-01,-3.929087519645690918e-01,-9.941103309392929077e-02,-5.474886298179626465e-02,-3.462182283401489258e-01,-1.619110554456710815e-01,-3.197783231735229492e-01,-2.649349570274353027e-01,-1.431528031826019287e-01,1.875175684690475464e-01,1.245796084403991699e-01,1.136728897690773010e-01,2.196263670921325684e-01,-1.486726999282836914e-01,-1.188356243073940277e-02,-1.591019928455352783e-01,-1.150799319148063660e-01,2.576376795768737793e-01
-4.863658547401428223e-02,-2.010336667299270630e-01,-5.293992161750793457e-01,-1.335443276911973953e-02,-2.590398676693439484e-02,1.074237152934074402e-01,7.658544927835464478e-02,1.271710693836212158e-01,1.744136959314346313e-01,2.620351910591125488e-01,1.589230149984359741e-01,-1.265139579772949219e-01,-2.204211354255676270e-01,-1.595030128955841064e-01,-3.355527520179748535e-01,8.238743990659713745e-02,-2.097982317209243774e-01,-1.124514564871788025e-01,2.525651752948760986e-01,-9.633537381887435913e-02,1.398958265781402588e-01,6.483424454927444458e-02,-4.212075844407081604e-02,-9.804618358612060547e-02,-1.059538200497627258e-01,-1.442933231592178345e-01,2.756116092205047607e-01,-9.875803440809249878e-02,-1.682567745447158813e-01,1.061162352561950684e-01,-1.535975784063339233e-01,2.274105697870254517e-01,2.492669373750686646e-01,2.662307620048522949e-01,-9.483760595321655273e-02,1.428987383842468262e-01,-2.216403931379318237e-01,-1.807788312435150146e-01,-4.217089414596557617e-01,-2.608019709587097168e-01,1.092712879180908203e-01,-2.155515700578689575e-01,9.533009678125381470e-02,6.509485095739364624e-02,-2.308883070945739746e-01,1.608881354331970215e-01,1.416835337877273560e-01,1.877444535493850708e-01,-2.044339179992675781e-01,3.021395578980445862e-02
-1.689987480640411377e-01,-1.340319123119115829e-02,2.328842580318450928e-01,7.235888391733169556e-02,1.274656355381011963e-01,-1.910732388496398926e-01,4.075907468795776367e-01,-1.952167898416519165e-01,-1.432996094226837158e-01,-3.979656100273132324e-01,-8.552372455596923828e-02,1.280017048120498657e-01,-3.334633260965347290e-02,3.836995735764503479e-02,4.261360689997673035e-02,-3.716773390769958496e-01,-1.276225149631500244e-01,1.215285733342170715e-01,2.476572841405868530e-01,4.453744590282440186e-01,-4.728770852088928223e-01,3.345934152603149414e-01,-1.981239318847656250e-01,-6.713843904435634613e-03,-1.518349647521972656e-01,-2.061111479997634888e-01,-7.358980178833007812e-02,-2.557106912136077881e-01,2.112700492143630981e-01,-3.027839362621307373e-01,-3.287738263607025146e-01,1.262214630842208862e-01,-3.200380131602287292e-02,2.149446904659271240e-01,1.010388880968093872e-01,1.730600744485855103e-02,1.749966740608215332e-01,3.429447412490844727e-01,-2.265543937683105469e-01,1.073377355933189392e-01,-4.662096500396728516e-02,-7.550121843814849854e-02,5.941288173198699951e-02,-3.214434981346130371e-01,-1.611256152391433716e-01,2.608544528484344482e-01,-8.804919570684432983e-02,-3.465365618467330933e-02,1.205481961369514465e-01,-7.615726441144943237e-02
3.258540853857994080e-02,-7.994305342435836792e-02,1.265452653169631958e-01,9.079810976982116699e-02,3.675884306430816650e-01,-3.114984631538391113e-01,1.318699121475219727e-01,-4.701728820800781250e-01,9.459024295210838318e-03,-6.011899113655090332e-01,-2.101527750492095947e-01,3.091139495372772217e-01,2.613160014152526855e-02,-1.244088867679238319e-03,-1.260341107845306396e-01,-2.676686346530914307e-01,1.036683022975921631e-01,1.103600189089775085e-01,-3.123119771480560303e-01,2.167272716760635376e-01,-3.401748090982437134e-02,-7.909210398793220520e-03,-2.744857966899871826e-01,6.829153746366500854e-02,1.162589937448501587e-01,-1.775522679090499878e-01,2.631268799304962158e-01,-1.174420416355133057e-01,1.063680574297904968e-01,-1.662415824830532074e-02,2.383976280689239502e-01,3.027242720127105713e-01,-9.982009977102279663e-02,1.200562641024589539e-01,-4.173494577407836914e-01,-2.359370589256286621e-01,6.813935935497283936e-02,-2.030043900012969971e-01,1.462951749563217163e-01,5.891272425651550293e-02,2.886693477630615234e-01,1.102928631007671356e-02,2.230841666460037231e-01,2.251370251178741455e-01,-5.821640416979789734e-02,-1.825181096792221069e-01,-1.974867284297943115e-02,2.015615105628967285e-01,1.287295520305633545e-01,3.372462000697851181e-03
-1.875933855772018433e-01,-2.407979667186737061e-01,-1.109805405139923096e-01,-2.623442411422729492e-01,1.840362846851348877e-01,-2.314156889915466309e-01,3.091379404067993164e-01,9.262998402118682861e-02,-3.472376167774200439e-01,2.219335287809371948e-01,-2.275234013795852661e-01,-4.162850379943847656e-01,-2.087579369544982910e-01,-3.037363588809967041e-01,-1.719994544982910156e-01,-1.493912786245346069e-01,-1.767058819532394409e-01,2.286127209663391113e-01,-3.031482398509979248e-01,-2.150840461254119873e-01,1.012896001338958740e-02,9.063485264778137207e-02,1.649038493633270264e-01,-1.477779746055603027e-01,4.049594700336456299e-02,2.312464080750942230e-02,-4.424104988574981689e-01,-1.328854709863662720e-01,-2.667845487594604492e-01,-4.550065994262695312e-01,-2.633779346942901611e-01,-2.098525762557983398e-01,-1.083936169743537903e-01,-2.289457321166992188e-01,-3.224624395370483398e-01,-1.395765319466590881e-02,-3.194388449192047119e-01,-3.362162113189697266e-01,-3.202361166477203369e-01,-7.342953979969024658e-02,-1.737242937088012695e-01,-9.774158149957656860e-02,-3.229604959487915039e-01,-2.791596055030822754e-01,-1.677714735269546509e-01,-1.199947670102119446e-01,-8.881814032793045044e-02,-7.121596485376358032e-02,3.382871448993682861e-01,-2.663415372371673584e-01
-3.064285963773727417e-02,6.873968522995710373e-03,-1.915455311536788940e-01,-3.333140015602111816e-01,-1.786242239177227020e-02,-3.224365040659904480e-02,-6.557112187147140503e-02,-1.030175909399986267e-01,1.632166057825088501e-01,1.721340715885162354e-01,1.416324526071548462e-01,2.642427980899810791e-01,-3.861702084541320801e-01,-2.590842843055725098e-01,1.054703816771507263e-01,-4.403176531195640564e-02,-3.246254622936248779e-01,-2.132050842046737671e-01,3.568288087844848633e-01,-7.701939344406127930e-02,4.643542170524597168e-01,1.115809157490730286e-01,-2.298763580620288849e-02,-3.300113976001739502e-01,-6.959832273423671722e-03,6.559491902589797974e-02,-2.843169569969177246e-01,-2.290915399789810181e-01,6.656792759895324707e-02,1.942230910062789917e-01,-7.101424038410186768e-02,1.389997452497482300e-01,4.393219649791717529e-01,1.534482836723327637e-02,8.194537460803985596e-02,-2.388720065355300903e-01,-5.387438461184501648e-02,2.467851489782333374e-01,-1.938748955726623535e-01,7.805409282445907593e-02,1.651586741209030151e-01,6.387373059988021851e-02,1.903684437274932861e-01,1.485974639654159546e-01,-3.238956034183502197e-01,5.241141915321350098e-01,-1.206260025501251221e-01,-5.784889683127403259e-03,7.157613337039947510e-02,1.015806868672370911e-01
-2.368512302637100220e-01,2.013285085558891296e-02,-1.396392285823822021e-01,-6.484405696392059326e-02,2.165562361478805542e-01,2.275279760360717773e-01,3.909592051059007645e-03,1.532157789915800095e-02,-8.456705510616302490e-02,1.813296824693679810e-01,-2.547085881233215332e-01,1.359159350395202637e-01,-7.833646982908248901e-02,-2.126086056232452393e-01,2.178961187601089478e-01,-2.914838679134845734e-02,7.182902842760086060e-02,-1.098504662513732910e-01,5.849878862500190735e-02,-1.053774878382682800e-01,-3.494690060615539551e-01,2.881988137960433960e-02,1.765633374452590942e-01,3.387058898806571960e-02,-4.699010774493217468e-02,2.452833056449890137e-01,2.816899307072162628e-02,-1.430861800909042358e-01,-1.488182991743087769e-01,2.493284940719604492e-01,-9.545773267745971680e-02,-2.388993650674819946e-01,2.685677111148834229e-01,-2.243667691946029663e-01,-2.568116486072540283e-01,-1.451363116502761841e-01,-2.594899851828813553e-04,1.042065173387527466e-01,-5.326706916093826294e-02,1.441023796796798706e-01,-2.267970889806747437e-01,2.076808512210845947e-01,-1.401306986808776855e-01,-2.229066044092178345e-01,1.839209496974945068e-01,-1.389295905828475952e-01,6.395785510540008545e-02,-2.926013171672821045e-01,-4.850631952285766602e-02,-1.167816668748855591e-01
-2.800621390342712402e-01,1.170426830649375916e-01,2.089486867189407349e-01,1.883516162633895874e-01,1.769854426383972168e-01,-2.799860015511512756e-02,-3.757271170616149902e-01,-4.907624796032905579e-02,3.565006554126739502e-01,7.553246617317199707e-02,5.672956258058547974e-02,-4.100087657570838928e-02,2.935392083600163460e-03,1.809574216604232788e-01,2.964840233325958252e-01,9.946792572736740112e-02,-1.585742384195327759e-01,-6.311334371566772461e-01,-1.971882134675979614e-01,3.230654820799827576e-02,-1.747231185436248779e-01,-3.476435244083404541e-01,3.481145799160003662e-01,1.541082561016082764e-01,2.986924946308135986e-01,-1.381382346153259277e-01,-2.288058251142501831e-01,-1.979632675647735596e-01,-2.351159974932670593e-02,-1.181259006261825562e-01,-2.569389902055263519e-02,-9.755111485719680786e-02,-1.859955787658691406e-01,-1.480157375335693359e-01,-1.686669290065765381e-01,1.852338463068008423e-01,-1.631242781877517700e-02,-1.691250130534172058e-02,1.856041252613067627e-01,1.210290417075157166e-01,-2.684153020381927490e-01,-2.031825482845306396e-01,7.861158251762390137e-02,-1.549083366990089417e-02,-2.064918428659439087e-01,6.443652510643005371e-02,-2.297510392963886261e-02,-1.159568801522254944e-01,-1.666750758886337280e-01,2.231832891702651978e-01
-2.743218541145324707e-01,1.072282791137695312e-01,-1.972063928842544556e-01,1.816459149122238159e-01,-2.930558025836944580e-01,-1.874440610408782959e-01,2.328776270151138306e-01,3.655550479888916016e-01,-1.264372561126947403e-02,1.123535633087158203e-01,-1.829868108034133911e-01,-1.036942228674888611e-01,-9.568679332733154297e-02,1.058166325092315674e-01,-2.143049091100692749e-01,1.060040146112442017e-01,-9.384100139141082764e-02,1.897363662719726562e-01,9.385789930820465088e-02,1.162017881870269775e-01,-3.947690501809120178e-02,2.789179682731628418e-01,1.357004940509796143e-01,-4.054965823888778687e-02,4.471113160252571106e-02,-2.535217404365539551e-01,-1.759415492415428162e-02,4.513093456625938416e-02,-2.475932240486145020e-01,5.853156000375747681e-02,-5.701351538300514221e-02,1.164929792284965515e-01,-3.613686859607696533e-01,-2.992378175258636475e-02,4.972048997879028320e-01,1.865945309400558472e-01,7.855337858200073242e-02,-5.203024744987487793e-01,-3.995515033602714539e-02,-3.911860287189483643e-01,-2.482769042253494263e-01,7.071491330862045288e-02,-1.587475836277008057e-01,-2.827597968280315399e-02,1.431542336940765381e-01,-2.143362164497375488e-01,-1.850250065326690674e-01,6.860197335481643677e-02,-2.461427003145217896e-01,-1.865566968917846680e-01
-1.430745124816894531e-01,-2.507523298263549805e-01,1.079765055328607559e-02,-7.049607485532760620e-02,-1.628076583147048950e-01,6.937161833047866821e-02,3.087596409022808075e-02,1.710130423307418823e-01,-2.017609328031539917e-01,-2.401985079050064087e-01,5.310594663023948669e-02,-1.271934658288955688e-01,9.316217899322509766e-02,2.394903264939785004e-02,-1.841683499515056610e-02,-3.375825881958007812e-01,4.298280179500579834e-01,3.089890778064727783e-01,1.734908372163772583e-01,3.963508009910583496e-01,-2.717663645744323730e-01,1.133177503943443298e-01,-5.076078176498413086e-01,-1.029772013425827026e-01,1.050868928432464600e-01,-1.727605164051055908e-01,1.743300259113311768e-01,-5.592942982912063599e-02,1.019697561860084534e-01,6.613018363714218140e-02,1.111221686005592346e-01,1.271357238292694092e-01,-1.114751249551773071e-01,-4.158455505967140198e-02,1.925843358039855957e-01,-4.241487979888916016e-01,2.423647940158843994e-01,-4.280630126595497131e-02,-1.375029832124710083e-01,7.023039460182189941e-02,-2.177480459213256836e-01,-1.468425691127777100e-01,1.908007264137268066e-01,-2.905946969985961914e-01,1.486491411924362183e-01,-2.023407220840454102e-01,-3.067326545715332031e-01,-9.593859314918518066e-02,-1.447290778160095215e-01,-2.167514264583587646e-01
-2.006016075611114502e-01,-2.633651793003082275e-01,1.879600882530212402e-01,9.794861078262329102e-02,-1.318947225809097290e-01,-1.697035431861877441e-01,4.749557971954345703e-01,-2.122169435024261475e-01,5.142799019813537598e-02,-1.579517573118209839e-01,-2.124836295843124390e-01,-2.177501469850540161e-01,-1.696442812681198120e-01,2.333087474107742310e-01,-1.131196599453687668e-02,-1.398015469312667847e-01,2.432709932327270508e-01,1.885803192853927612e-01,9.750233031809329987e-03,-1.771576255559921265e-01,1.365353465080261230e-01,7.846833765506744385e-02,-1.979054808616638184e-01,-1.683015972375869751e-01,-2.608017325401306152e-01,-1.341530382633209229e-01,1.102037131786346436e-01,-2.817924320697784424e-01,-7.301270216703414917e-02,1.252096295356750488e-01,-5.015024542808532715e-02,2.280836403369903564e-01,-1.685874462127685547e-01,-1.399268060922622681e-01,-1.621001511812210083e-01,9.929957240819931030e-02,-4.107740148901939392e-02,-2.370897531509399414e-01,-7.160940021276473999e-02,9.161988645792007446e-02,-5.948985740542411804e-02,-2.980833947658538818e-01,2.160344645380973816e-02,-2.580036520957946777e-01,-5.524311214685440063e-02,-4.150850176811218262e-01,-1.300521101802587509e-02,-4.331726729869842529e-01,-6.303314864635467529e-02,-3.018093481659889221e-02
-8.150921761989593506e-02,-3.113660514354705811e-01,3.845666050910949707e-01,-1.927363723516464233e-01,7.270632684230804443e-02,-2.303766906261444092e-01,1.972916163504123688e-02,2.413621842861175537e-01,-8.264866471290588379e-02,-1.218085885047912598e-01,-2.770693600177764893e-01,-1.429280340671539307e-01,-1.447672247886657715e-01,-2.777225077152252197e-01,-1.393663436174392700e-01,7.823892682790756226e-02,5.766678228974342346e-02,-9.156427532434463501e-02,4.128941148519515991e-02,-7.885018736124038696e-02,-3.815694451332092285e-01,-2.326049804687500000e-01,-1.241138055920600891e-01,-3.428466245532035828e-02,1.191657707095146179e-01,2.306415736675262451e-01,3.948971629142761230e-01,2.840934321284294128e-02,-5.680520832538604736e-02,1.128486543893814087e-01,2.982707023620605469e-01,9.791533648967742920e-02,2.136665880680084229e-01,-3.770065903663635254e-01,1.624631881713867188e-01,-2.682032249867916107e-02,-9.890436381101608276e-02,-4.867639541625976562e-01,-1.106348112225532532e-01,-1.631168127059936523e-01,-3.049249202013015747e-02,1.181511208415031433e-01,4.856240376830101013e-02,-2.692250609397888184e-01,4.287058413028717041e-01,-1.123140975832939148e-01,-3.921288549900054932e-01,-1.203380301594734192e-01,-6.321186572313308716e-02,3.682766854763031006e-02
-4.195002615451812744e-01,1.820153594017028809e-01,-3.402996361255645752e-01,1.789504140615463257e-01,2.902411818504333496e-01,1.175756216980516911e-03,-2.235507220029830933e-01,6.577535998076200485e-03,-3.016111254692077637e-01,2.584239244461059570e-01,1.319791823625564575e-01,8.304313570261001587e-02,-1.902707964181900024e-01,-1.170975267887115479e-01,4.500371515750885010e-01,-2.929949164390563965e-01,-3.314902782440185547e-01,-2.269275933504104614e-01,2.743279747664928436e-02,1.240947190672159195e-02,1.233092993497848511e-01,-7.021794468164443970e-02,6.867063045501708984e-02,1.720144152641296387e-01,-5.157566443085670471e-02,-1.625482589006423950e-01,1.485835164785385132e-01,-9.231221862137317657e-03,1.599817574024200439e-01,2.518155574798583984e-01,3.117171116173267365e-02,-3.380474150180816650e-01,3.593615815043449402e-02,-8.462051302194595337e-02,1.283749192953109741e-02,3.134364262223243713e-02,-2.432944774627685547e-01,-2.477075010538101196e-01,-6.035820022225379944e-02,-7.724687457084655762e-02,-3.546594083309173584e-01,1.568662375211715698e-01,1.260413527488708496e-01,-1.886305958032608032e-01,2.261109650135040283e-01,-1.033285483717918396e-01,-4.219014570116996765e-02,-4.088738262653350830e-01,-1.506288945674896240e-01,-6.741661578416824341e-02
-1.373383849859237671e-01,2.298396229743957520e-01,1.985486969351768494e-02,-5.466542243957519531e-01,-4.283426702022552490e-02,-2.560433186590671539e-02,3.406159281730651855e-01,6.059906631708145142e-02,1.089512184262275696e-01,-8.068189024925231934e-02,8.938489109277725220e-02,7.004314661026000977e-02,-2.079200595617294312e-01,-2.631397545337677002e-01,9.491528570652008057e-02,-3.407250344753265381e-02,-4.097368121147155762e-01,-1.194414868950843811e-02,-1.455692574381828308e-02,-4.166103526949882507e-02,-5.036209821701049805e-01,1.918303966522216797e-01,-3.083287477493286133e-01,-4.674274921417236328e-01,-4.627556540071964264e-03,1.474803239107131958e-01,-3.443307578563690186e-01,-2.372047901153564453e-01,1.491702944040298462e-01,-1.581039428710937500e-01,-2.091419398784637451e-01,3.771911561489105225e-01,-3.683127760887145996e-01,9.303533285856246948e-02,7.572023570537567139e-02,-1.010335013270378113e-01,5.671918764710426331e-02,1.709762215614318848e-01,-1.379500776529312134e-01,-3.984111547470092773e-01,-2.887875139713287354e-01,1.685602664947509766e-01,-1.003627292811870575e-02,-2.384329140186309814e-01,-3.294290900230407715e-01,-2.028638273477554321e-01,-2.883473634719848633e-01,1.977952122688293457e-01,-2.877791225910186768e-01,-6.465916335582733154e-02
3.395368158817291260e-01,-1.815208941698074341e-01,2.131783068180084229e-01,8.752642571926116943e-02,-2.298904359340667725e-01,-1.625199913978576660e-01,-3.218921273946762085e-02,-1.662189513444900513e-01,-4.099865853786468506e-01,-5.099132284522056580e-02,-1.115313023328781128e-01,-2.744345366954803467e-01,8.592884056270122528e-03,-2.721161767840385437e-02,5.935443565249443054e-02,9.526060521602630615e-02,2.788180708885192871e-01,4.425250589847564697e-01,-1.921625286340713501e-01,1.948008239269256592e-01,-5.856346338987350464e-02,-1.826693713665008545e-01,-2.120894938707351685e-01,-3.907134234905242920e-01,-2.639896273612976074e-01,-1.364228427410125732e-01,4.677330553531646729e-01,3.228870034217834473e-01,4.121610894799232483e-03,-5.392349883913993835e-02,6.850799918174743652e-02,2.821334600448608398e-01,4.006714746356010437e-02,-4.011109098792076111e-02,-1.611195206642150879e-01,2.834678888320922852e-01,1.371878236532211304e-01,-2.630804777145385742e-01,-1.076542139053344727e-01,2.698450982570648193e-01,8.013948798179626465e-02,1.716934889554977417e-01,-9.565071016550064087e-02,1.559799909591674805e-01,-8.256414532661437988e-02,-2.233969867229461670e-01,-3.972110748291015625e-01,-2.066226154565811157e-01,-8.069515973329544067e-02,-3.278399258852005005e-02
-1.948470324277877808e-01,-1.699632704257965088e-01,-1.901450008153915405e-01,1.468420475721359253e-01,9.881088882684707642e-02,-3.631945550441741943e-01,5.886376369744539261e-03,-1.499665379524230957e-01,1.834742128849029541e-01,-1.790939271450042725e-01,-2.910876274108886719e-01,1.364743411540985107e-01,8.487376384437084198e-03,-1.343252807855606079e-01,-7.377985119819641113e-02,-1.019672751426696777e-01,-1.152027249336242676e-01,-1.429483443498611450e-01,1.018088459968566895e-01,-2.474793344736099243e-01,-1.846953481435775757e-01,-8.198898285627365112e-02,3.545830771327018738e-02,1.408928930759429932e-01,5.193222314119338989e-02,6.424715369939804077e-02,-6.962507218122482300e-02,-1.830848753452301025e-01,-9.725473821163177490e-02,1.302857510745525360e-02,-3.324187174439430237e-02,2.368895895779132843e-02,3.401176035404205322e-01,-3.315856754779815674e-01,-1.404142826795578003e-01,-5.855832993984222412e-02,1.269245892763137817e-01,1.106353849172592163e-01,-2.717191576957702637e-01,-1.730052232742309570e-01,-3.490909039974212646e-01,1.006093099713325500e-01,-1.545540839433670044e-01,-1.708151958882808685e-02,-7.288293540477752686e-02,1.017651781439781189e-01,-4.165450632572174072e-01,1.389974206686019897e-01,-1.935015320777893066e-01,-1.908953040838241577e-01
2.858266234397888184e-01,1.736855208873748779e-01,-1.627231240272521973e-01,-1.042033731937408447e-01,-6.478662043809890747e-02,4.201459288597106934e-01,-2.241048812866210938e-01,3.135437369346618652e-01,1.615392714738845825e-01,4.181734025478363037e-01,-4.458882659673690796e-02,-1.308833360671997070e-01,-2.478143423795700073e-01,-3.681674897670745850e-01,-2.722370997071266174e-02,3.041364550590515137e-01,-1.577066332101821899e-01,2.558094449341297150e-02,2.909992337226867676e-01,-2.286036908626556396e-01,3.271954655647277832e-01,1.730521917343139648e-01,2.719427943229675293e-01,-1.982069462537765503e-01,-9.676978737115859985e-02,7.008449733257293701e-02,-3.675105273723602295e-01,-8.846262097358703613e-02,1.725877523422241211e-01,-9.926317632198333740e-02,7.090047001838684082e-02,-9.263963997364044189e-02,2.184994816780090332e-01,-1.373521983623504639e-02,2.746612727642059326e-01,-2.406077831983566284e-01,-1.013557314872741699e-01,-9.395029395818710327e-03,-1.230929270386695862e-01,6.487780064344406128e-02,-4.461764916777610779e-02,2.935433387756347656e-01,4.493844509124755859e-02,-1.524856686592102051e-01,1.630887836217880249e-01,5.173833295702934265e-02,1.625572293996810913e-01,-2.611300535500049591e-02,1.871860623359680176e-01,1.886407583951950073e-01
-1.218462139368057251e-01,-1.274618208408355713e-01,-1.255632285028696060e-02,-1.312025338411331177e-01,-7.741810381412506104e-02,1.535158306360244751e-01,-2.920563519001007080e-01,-7.490993291139602661e-02,-6.134674418717622757e-03,-2.172229439020156860e-02,-9.604165703058242798e-02,8.691550046205520630e-02,2.106736451387405396e-01,-4.769331216812133789e-02,1.132201254367828369e-01,-2.122635245323181152e-01,-2.053088694810867310e-01,1.026385501027107239e-01,-1.724315732717514038e-01,9.525437653064727783e-02,-2.144952565431594849e-01,-1.212338358163833618e-01,-8.979410678148269653e-02,-1.541967839002609253e-01,-1.839657723903656006e-01,-2.469460368156433105e-01,-1.344823688268661499e-01,1.783464550971984863e-01,1.983085870742797852e-01,-1.212518960237503052e-01,2.008679062128067017e-01,1.087044179439544678e-01,-1.395187973976135254e-01,-8.632447570562362671e-02,-1.220080107450485229e-01,-2.569370567798614502e-01,-8.810433745384216309e-02,-2.126371860504150391e-01,-1.115233823657035828e-01,1.639682613313198090e-02,-4.756497740745544434e-01,-1.506485193967819214e-01,-1.311717629432678223e-01,1.477174907922744751e-01,1.315006017684936523e-01,-3.261311948299407959e-01,1.243474241346120834e-02,-4.408523440361022949e-02,-1.561810374259948730e-01,-2.534941732883453369e-01
-5.531921610236167908e-02,-1.504690349102020264e-01,-4.071266949176788330e-02,-5.125122889876365662e-02,-8.552116900682449341e-02,-1.189078837633132935e-01,4.404798448085784912e-01,-2.487408071756362915e-01,-6.226333975791931152e-02,-4.689191877841949463e-01,1.944721788167953491e-01,-2.238866388797760010e-01,2.163298279047012329e-01,-8.692883886396884918e-03,1.740201115608215332e-01,-3.486769199371337891e-01,6.084380671381950378e-03,1.079720705747604370e-01,-1.384755223989486694e-01,9.470662102103233337e-03,-6.629233956336975098e-01,1.859970390796661377e-02,-1.174522936344146729e-01,-1.419778764247894287e-01,-6.734210997819900513e-02,-1.630526185035705566e-01,-6.149524450302124023e-02,1.509143225848674774e-02,-2.739581465721130371e-01,-5.904170498251914978e-02,-1.239918023347854614e-01,5.731248855590820312e-01,-4.274426400661468506e-02,8.791278302669525146e-02,4.556623846292495728e-02,2.289707660675048828e-01,-1.140009239315986633e-01,-3.963595721870660782e-03,-1.366942375898361206e-01,5.393088981509208679e-02,1.148049160838127136e-01,8.658908307552337646e-03,-1.341247931122779846e-02,-4.914100468158721924e-01,-2.408359795808792114e-01,2.453291863203048706e-01,6.293420214205980301e-03,2.225466370582580566e-01,1.841487735509872437e-01,1.488932818174362183e-01
-2.092068195343017578e-01,3.436315953731536865e-01,-3.403345644474029541e-01,2.566772699356079102e-01,-1.900812797248363495e-02,1.999641954898834229e-01,-1.677883863449096680e-01,-1.762174516916275024e-01,-2.422536760568618774e-01,5.296840146183967590e-02,7.205421477556228638e-02,3.448128327727317810e-02,-3.884498402476310730e-02,-1.273700296878814697e-01,5.309643968939781189e-02,-1.220180988311767578e-01,-8.364829421043395996e-02,-3.175018727779388428e-02,3.078137636184692383e-01,-2.355400472879409790e-01,-3.431028500199317932e-02,-1.339295059442520142e-01,9.924551099538803101e-02,6.667585670948028564e-02,2.772291600704193115e-01,1.099076122045516968e-01,1.724624335765838623e-01,-4.657534882426261902e-02,1.520941555500030518e-01,5.060556530952453613e-02,-2.207194715738296509e-01,-3.401282057166099548e-02,2.320682629942893982e-02,-2.532537877559661865e-01,-4.098843410611152649e-02,1.375225484371185303e-01,1.505057960748672485e-01,-1.581739038228988647e-01,-2.548849284648895264e-01,-3.513870537281036377e-01,-2.898813784122467041e-01,1.305589079856872559e-01,-1.719947308301925659e-01,-3.948634862899780273e-02,2.995229959487915039e-01,-4.011602401733398438e-01,7.534689456224441528e-02,-6.285551190376281738e-02,-1.506656855344772339e-01,1.468604356050491333e-01
-3.039641082286834717e-01,4.053857028484344482e-01,7.492929697036743164e-02,1.164791956543922424e-01,-5.197049304842948914e-02,-3.492738306522369385e-01,2.138896882534027100e-01,-4.792189598083496094e-01,-1.338628977537155151e-01,-1.425231546163558960e-01,-3.066496253013610840e-01,3.440185189247131348e-01,-2.432827502489089966e-01,-7.062286883592605591e-02,-1.954225301742553711e-01,-2.038383334875106812e-01,6.075459346175193787e-02,-1.147299930453300476e-01,-2.471192777156829834e-01,6.286589056253433228e-02,-2.272692918777465820e-01,6.492345035076141357e-02,-3.311329782009124756e-01,1.418471932411193848e-01,-3.583134710788726807e-01,-2.516489326953887939e-01,-2.060654461383819580e-01,-1.037627235054969788e-01,2.060401439666748047e-01,4.582559317350387573e-02,-8.678539842367172241e-02,-1.522338390350341797e-01,2.313555330038070679e-01,2.386672943830490112e-01,-1.892056316137313843e-01,2.229429781436920166e-01,-8.183193206787109375e-02,-3.791453242301940918e-01,-7.738971710205078125e-02,4.851700738072395325e-02,-1.856980025768280029e-01,-1.550782620906829834e-01,-8.908873051404953003e-02,-6.575692445039749146e-02,-3.849142491817474365e-01,1.053821742534637451e-01,1.178099308162927628e-02,1.954764723777770996e-01,-6.910353433340787888e-03,-6.458400934934616089e-02
-2.254947572946548462e-01,-2.192219793796539307e-01,2.412227243185043335e-01,-1.681308746337890625e-01,-3.317239284515380859e-01,-1.206327080726623535e-01,1.278717815876007080e-01,3.311391770839691162e-01,2.627316117286682129e-01,4.587753489613533020e-02,1.187196299433708191e-01,-3.744262456893920898e-01,-2.080748528242111206e-01,1.868881732225418091e-01,-1.301032956689596176e-02,-2.148483544588088989e-01,2.454337328672409058e-01,-2.266008555889129639e-01,2.380234003067016602e-01,1.278519332408905029e-01,-5.908529162406921387e-01,-4.661429300904273987e-02,-3.761759698390960693e-01,-4.307561740279197693e-02,1.946450024843215942e-01,5.127570629119873047e-01,-1.263583898544311523e-01,-1.185900941491127014e-01,-6.315700709819793701e-02,4.064428061246871948e-02,2.411234080791473389e-01,1.536785215139389038e-01,2.481258958578109741e-01,-6.333120167255401611e-03,-2.821656763553619385e-01,-1.253156661987304688e-01,1.970867216587066650e-01,2.916648983955383301e-01,1.006743237376213074e-01,-2.803784422576427460e-02,-2.982946634292602539e-01,2.565722465515136719e-01,-5.589668154716491699e-01,-1.696492582559585571e-01,6.674711406230926514e-02,-2.615345716476440430e-01,-3.205694258213043213e-02,1.597073525190353394e-01,-3.078038990497589111e-01,-8.341922610998153687e-02
-2.360476404428482056e-01,-6.267196685075759888e-02,4.588760063052177429e-02,1.636698283255100250e-02,-2.836873829364776611e-01,1.798193156719207764e-01,3.837407529354095459e-01,-2.934437990188598633e-01,1.314487755298614502e-01,-1.215776279568672180e-01,4.354102537035942078e-03,-1.241657435894012451e-01,-5.120638292282819748e-03,-1.541578024625778198e-01,-1.770028471946716309e-01,-6.018145754933357239e-02,-4.689418077468872070e-01,-2.763668596744537354e-01,-3.257921338081359863e-01,7.821464538574218750e-02,-2.426359355449676514e-01,4.727336466312408447e-01,-1.394666917622089386e-02,-4.789031147956848145e-01,-2.335936725139617920e-01,-3.192543610930442810e-02,-2.749769687652587891e-01,3.635899722576141357e-02,1.427769958972930908e-01,-2.718815207481384277e-01,1.622196473181247711e-02,9.851951152086257935e-02,-2.808564901351928711e-01,-1.490681171417236328e-01,1.211750954389572144e-01,1.365285813808441162e-01,-9.818577766418457031e-02,4.947670549154281616e-02,-2.544988989830017090e-01,5.153509974479675293e-02,-5.901677161455154419e-02,5.606526881456375122e-02,1.553930193185806274e-01,-1.376554518938064575e-01,-3.320101201534271240e-01,7.002734113484621048e-03,2.257518656551837921e-02,-5.775788053870201111e-02,2.309474498033523560e-01,7.298024371266365051e-03
3.267003297805786133e-01,3.471586108207702637e-01,-5.306309089064598083e-02,-1.387492716312408447e-01,4.254675507545471191e-01,-1.541114449501037598e-01,-3.498491644859313965e-01,7.139400579035282135e-03,-1.165868639945983887e-01,-2.067996114492416382e-01,-1.031119897961616516e-01,-2.475974559783935547e-01,6.266398727893829346e-02,-2.226098328828811646e-01,5.812994241714477539e-01,-5.575038492679595947e-02,-7.999952882528305054e-02,-3.631234765052795410e-01,-2.205833047628402710e-01,2.987144701182842255e-02,2.893887460231781006e-01,-2.533079385757446289e-01,-2.222634255886077881e-01,-1.185181643813848495e-02,-1.815081834793090820e-01,-1.793363988399505615e-01,-2.474615350365638733e-02,7.279055565595626831e-02,2.666320502758026123e-01,-3.573677837848663330e-01,-2.056209594011306763e-01,-2.475581876933574677e-02,1.717215403914451599e-02,1.658199429512023926e-01,-3.535424917936325073e-02,1.679573804140090942e-01,-2.602472603321075439e-01,-1.464968472719192505e-01,1.656568050384521484e-01,-1.394520848989486694e-01,2.355946041643619537e-02,-1.736895740032196045e-02,1.553947776556015015e-01,7.676127552986145020e-02,-1.884062439203262329e-01,-7.179776579141616821e-02,2.099011391401290894e-01,3.911440372467041016e-01,-5.646523088216781616e-02,-1.727006882429122925e-01
-2.557248175144195557e-01,1.917818188667297363e-01,-2.679868042469024658e-01,-3.047679066658020020e-01,5.086756125092506409e-02,-4.466191749088466167e-04,1.907614916563034058e-01,1.670027337968349457e-02,1.952297389507293701e-01,-3.765460103750228882e-02,7.910519093275070190e-02,-1.884865611791610718e-01,-1.140372827649116516e-01,-1.717730164527893066e-01,-1.638860106468200684e-01,-2.880986034870147705e-02,-3.041641712188720703e-01,-6.651738286018371582e-02,-2.717165648937225342e-01,-1.627375632524490356e-01,-2.439736425876617432e-01,3.430410623550415039e-01,-2.082795836031436920e-02,-1.420606374740600586e-01,-8.785611391067504883e-02,-1.552681922912597656e-01,1.657040119171142578e-01,-2.400357723236083984e-01,1.200415417551994324e-01,-1.183808147907257080e-01,1.039667949080467224e-01,5.817579850554466248e-02,9.832098335027694702e-02,-8.845479041337966919e-02,-2.536869049072265625e-01,1.807598769664764404e-01,-3.537048399448394775e-02,-1.371962428092956543e-01,1.452593654394149780e-01,-2.009252458810806274e-01,3.300263732671737671e-02,7.742124050855636597e-02,1.234870031476020813e-01,-1.322134286165237427e-01,-1.782765835523605347e-01,-1.467884182929992676e-01,-5.016615614295005798e-04,-9.932821989059448242e-02,-4.156754612922668457e-01,-1.811479330062866211e-01
-7.483576238155364990e-02,-1.743639074265956879e-02,7.002653181552886963e-02,1.692289710044860840e-01,-1.587609946727752686e-01,-4.116501286625862122e-02,2.412649430334568024e-02,-2.365813218057155609e-02,-2.476225495338439941e-01,1.598611623048782349e-01,-3.632082045078277588e-01,5.436165258288383484e-02,5.881078541278839111e-02,3.384875953197479248e-01,-3.595300316810607910e-01,1.796353161334991455e-01,-4.227737337350845337e-02,3.202392160892486572e-01,-1.484110206365585327e-01,-7.691861987113952637e-01,-2.132290005683898926e-01,-1.427477877587080002e-02,-6.139359995722770691e-02,2.198383957147598267e-02,1.740325242280960083e-01,1.199268326163291931e-01,1.294732838869094849e-02,1.910471171140670776e-02,-1.654413491487503052e-01,2.888781130313873291e-01,-1.702926456928253174e-01,-6.190290451049804688e-01,6.848511099815368652e-02,-3.013364076614379883e-01,1.990486979484558105e-01,-2.154345959424972534e-01,-1.592507958412170410e-01,-4.032250940799713135e-01,-3.227923810482025146e-01,-1.521922498941421509e-01,-1.082687750458717346e-01,-1.119771078228950500e-01,-2.089390158653259277e-01,-4.432065784931182861e-01,3.677930831909179688e-01,-5.932320374995470047e-03,-3.233947753906250000e-01,-6.152741312980651855e-01,-2.135417312383651733e-01,3.526573777198791504e-01
