-6.652991473674774170e-02,1.198861300945281982e-01,-1.323237717151641846e-01,-2.502351105213165283e-01,1.294795125722885132e-01,-6.128674000501632690e-02,4.245397448539733887e-02,-1.416891813278198242e-01,-1.639917492866516113e-01,-1.434839665889739990e-01,-2.648234665393829346e-01,2.391014844179153442e-01,-1.915032416582107544e-01,1.030230298638343811e-01,-2.232645452022552490e-01,-4.739531129598617554e-02,-1.836134642362594604e-01,-2.223474085330963135e-01,3.538774847984313965e-01,-3.539181500673294067e-02,2.572877705097198486e-01,-2.218079753220081329e-02,-1.514834314584732056e-01,2.823660671710968018e-01,-4.452652484178543091e-02,-3.212863802909851074e-01,9.610494971275329590e-02,5.157468840479850769e-02,1.001823171973228455e-01,-1.307566910982131958e-01,1.326029449701309204e-01,-1.102322619408369064e-02,-1.331602931022644043e-01,2.916167676448822021e-02,3.376055359840393066e-01,2.123409956693649292e-01,2.404849529266357422e-01,-9.524181485176086426e-02,1.370118260383605957e-01,-5.526033416390419006e-02,-3.130995333194732666e-01,6.125215440988540649e-02,-2.622649073600769043e-01,3.526889532804489136e-02,-1.371800601482391357e-01,1.914197504520416260e-01,1.454584300518035889e-01,1.168088093400001526e-01,-7.850424945354461670e-02,2.714880928397178650e-02
