7.686297595500946045e-02,1.664156764745712280e-01,9.098174422979354858e-02,-1.336390972137451172e-01,3.024708479642868042e-02,-2.096900343894958496e-02,-6.322978436946868896e-02,-1.213701590895652771e-01,-5.407006740570068359e-01,-1.259790509939193726e-01,-1.185299232602119446e-01,7.958148606121540070e-03,-1.177930235862731934e-01,1.363274455070495605e-01,-5.350797772407531738e-01,-2.630456089973449707e-01,-2.466268390417098999e-01,-5.943304672837257385e-02,-1.651781052350997925e-02,5.221887305378913879e-02,-2.374626100063323975e-01,1.332338154315948486e-01,-2.110761702060699463e-01,7.269816845655441284e-02,2.712626457214355469e-01,1.448664069175720215e-01,-2.663944065570831299e-01,-2.179856449365615845e-01,3.547221422195434570e-01,-4.141935408115386963e-01,1.055900231003761292e-01,-1.815948486328125000e-01,-6.338796019554138184e-02,-1.194439008831977844e-01,2.939224243164062500e-01,-1.209441497921943665e-01,-2.226303666830062866e-01,-2.947937846183776855e-01,1.363345235586166382e-01,-2.197757363319396973e-01,7.387278974056243896e-02,4.331115484237670898e-01,-9.348259121179580688e-02,8.219872415065765381e-02,-2.862505018711090088e-01,3.410959243774414062e-01,6.372860632836818695e-03,5.011521577835083008e-01,1.166214570403099060e-01,3.125371038913726807e-01
9.502968937158584595e-02,-6.799286603927612305e-02,-2.005711197853088379e-01,-1.819757521152496338e-01,-1.892343908548355103e-01,-1.580457091331481934e-01,3.366873264312744141e-01,-8.503533899784088135e-02,1.357829868793487549e-01,-1.122155413031578064e-01,7.951553165912628174e-02,2.094070166349411011e-01,1.817864179611206055e-01,5.449100583791732788e-02,-3.234815597534179688e-01,1.381014883518218994e-01,-3.116971850395202637e-01,2.031953260302543640e-02,6.524389237165451050e-02,-2.808097302913665771e-01,2.638051100075244904e-02,-1.419412046670913696e-01,-1.544558405876159668e-01,-2.387320846319198608e-01,2.377659976482391357e-01,1.161842420697212219e-01,2.233315259218215942e-01,1.041637733578681946e-01,-1.185810491442680359e-01,-2.309740930795669556e-01,-1.474095731973648071e-01,1.608419567346572876e-01,-1.201984882354736328e-01,1.155094280838966370e-01,6.508196145296096802e-02,-2.049502432346343994e-01,-2.383563108742237091e-02,8.215113729238510132e-02,-1.630570292472839355e-01,-8.816295862197875977e-02,6.809933576732873917e-03,4.320878684520721436e-01,1.044284179806709290e-01,1.636352948844432831e-02,-5.226401239633560181e-02,1.050089374184608459e-01,1.252117753028869629e-01,3.237036168575286865e-01,-1.794723868370056152e-01,3.179754018783569336e-01
-1.098872348666191101e-01,2.278135716915130615e-01,2.085139751434326172e-01,7.805913686752319336e-02,3.413954004645347595e-02,3.251169919967651367e-01,2.414015829563140869e-01,1.507269442081451416e-01,7.708732783794403076e-02,-1.995446383953094482e-01,3.074080049991607666e-01,2.167629152536392212e-01,1.233931481838226318e-01,-1.779473423957824707e-01,-7.072296738624572754e-02,2.588349878787994385e-01,-2.707388699054718018e-01,-2.256600558757781982e-01,-5.867259576916694641e-02,7.699221372604370117e-02,1.564543545246124268e-01,-1.352234277874231339e-02,-2.011658065021038055e-02,2.999280393123626709e-02,6.426594406366348267e-02,-1.423270553350448608e-01,2.109421938657760620e-01,-2.332522869110107422e-01,1.807407587766647339e-01,-3.770514428615570068e-01,-4.853106662631034851e-02,3.176034986972808838e-01,1.115411520004272461e-01,-1.274482756853103638e-01,-1.752533018589019775e-01,1.545279622077941895e-01,-7.863152027130126953e-02,-5.542427301406860352e-02,-3.395635485649108887e-01,-9.407829493284225464e-02,-1.693091355264186859e-02,2.059026621282100677e-03,3.313312530517578125e-01,7.098894566297531128e-02,6.410760432481765747e-02,-1.820001453161239624e-01,1.825616806745529175e-01,-1.547400653362274170e-01,1.564639806747436523e-01,2.199528366327285767e-01
2.140989452600479126e-01,7.669482380151748657e-03,-2.769404947757720947e-01,-2.863674163818359375e-01,-3.703548610210418701e-01,-2.403837293386459351e-01,6.637393683195114136e-02,-2.073413282632827759e-01,2.645193971693515778e-02,-1.335107833147048950e-01,1.720640249550342560e-02,-1.237323582172393799e-01,-3.316535353660583496e-01,2.177425175905227661e-01,-1.958272457122802734e-01,-9.813009947538375854e-02,-1.575086563825607300e-01,-2.687831521034240723e-01,-1.929688751697540283e-01,1.498442441225051880e-01,-2.753475606441497803e-01,2.385778129100799561e-01,1.411929279565811157e-01,-2.644163966178894043e-01,2.871466875076293945e-01,-3.517774939537048340e-01,-2.526052296161651611e-01,-2.486139535903930664e-01,5.406176298856735229e-02,1.061724796891212463e-01,4.972016438841819763e-02,-2.808020710945129395e-01,-2.440493702888488770e-01,-8.734300732612609863e-02,3.433496132493019104e-02,3.269643187522888184e-01,-2.161491066217422485e-01,1.133563965559005737e-01,1.352030634880065918e-01,2.085694223642349243e-01,-1.138816848397254944e-01,-2.369221448898315430e-01,-6.960515677928924561e-02,-1.889869011938571930e-02,4.213063791394233704e-02,-1.788353733718395233e-02,-2.312149107456207275e-02,2.401715517044067383e-01,1.111782435327768326e-02,3.151642158627510071e-02
1.237878054380416870e-01,3.262440487742424011e-02,1.435557305812835693e-01,-1.710223406553268433e-01,1.483415961265563965e-01,-3.938443362712860107e-01,-2.504089772701263428e-01,6.003592908382415771e-02,1.677705943584442139e-01,-2.176186293363571167e-01,-3.993766009807586670e-01,-4.188151955604553223e-01,8.715479820966720581e-02,-2.686917185783386230e-01,1.254333704710006714e-01,-9.413270652294158936e-02,4.149205237627029419e-02,2.123662382364273071e-01,2.222702205181121826e-01,-1.385640054941177368e-01,-2.629222348332405090e-02,7.964947074651718140e-02,-2.919563055038452148e-01,5.323340371251106262e-02,1.677475869655609131e-01,6.930109113454818726e-02,5.673007667064666748e-02,-3.955290913581848145e-01,1.473582983016967773e-01,-2.086699604988098145e-01,-9.988266974687576294e-02,-6.564266979694366455e-02,3.084362745285034180e-01,4.087984934449195862e-02,-1.955822557210922241e-01,-5.307573080062866211e-02,1.267264485359191895e-01,8.133190125226974487e-02,-3.738504052162170410e-01,1.881796866655349731e-02,-1.834207326173782349e-01,-6.985282897949218750e-02,-2.322721630334854126e-01,-3.676824271678924561e-02,-1.364974528551101685e-01,-2.636782526969909668e-01,1.771970540285110474e-01,-1.289966404438018799e-01,1.799281537532806396e-01,-6.660462170839309692e-02
-7.570596039295196533e-02,-3.383535742759704590e-01,-1.473925560712814331e-01,3.799773156642913818e-01,1.419651359319686890e-01,3.786113485693931580e-02,-1.440920978784561157e-01,-1.219201311469078064e-01,4.943932965397834778e-02,1.355788111686706543e-01,3.026936650276184082e-01,1.909980773925781250e-01,2.876234352588653564e-01,-5.086788162589073181e-02,-3.396940529346466064e-01,1.402925997972488403e-01,-2.559876143932342529e-01,1.526513695716857910e-02,-7.279068231582641602e-02,7.182256132364273071e-02,2.333086431026458740e-01,2.091514319181442261e-01,3.254767656326293945e-01,2.570744454860687256e-01,5.154078081250190735e-02,4.801831766963005066e-02,-2.112099975347518921e-01,-4.264095425605773926e-02,8.756323158740997314e-02,-4.197517633438110352e-01,-1.121380459517240524e-02,4.864910989999771118e-02,-1.823128908872604370e-01,1.661516912281513214e-02,-2.044821679592132568e-01,-5.298917740583419800e-02,-2.310848049819469452e-02,3.506174683570861816e-02,1.896017640829086304e-01,6.688588857650756836e-02,5.503115803003311157e-02,2.290084213018417358e-01,3.808183968067169189e-02,8.965469896793365479e-02,1.299446225166320801e-01,1.042812764644622803e-01,-1.694650948047637939e-01,1.026798188686370850e-01,2.515295445919036865e-01,-1.954575330018997192e-01
-3.624744340777397156e-02,1.255762279033660889e-01,-1.069705709815025330e-01,-3.962796181440353394e-03,1.184472367167472839e-01,-2.604506015777587891e-01,4.216145277023315430e-01,2.046207338571548462e-01,1.659410893917083740e-01,2.916335500776767731e-02,7.001729309558868408e-02,-9.144010022282600403e-03,-7.209917157888412476e-02,-4.578131437301635742e-02,2.983494102954864502e-01,1.357891261577606201e-01,-1.194580048322677612e-01,2.428913302719593048e-02,5.871444568037986755e-02,-2.779428362846374512e-01,-9.385086596012115479e-02,4.109472334384918213e-01,5.705170705914497375e-02,-2.435943782329559326e-01,-1.269849091768264771e-01,-9.686187654733657837e-02,1.956216990947723389e-01,1.322185248136520386e-01,-5.115734338760375977e-01,2.228374034166336060e-02,-2.272574417293071747e-02,-4.487541019916534424e-01,2.463933266699314117e-02,-8.567910641431808472e-02,-1.144590675830841064e-01,-2.291257977485656738e-01,8.461993932723999023e-02,1.756733506917953491e-01,-1.574660986661911011e-01,2.879919409751892090e-01,6.196487322449684143e-02,2.830008566379547119e-01,1.692648790776729584e-02,3.861566185951232910e-01,-2.324992269277572632e-01,-2.396554201841354370e-01,3.084951937198638916e-01,-6.485663354396820068e-02,-8.444860577583312988e-02,5.717744305729866028e-02
-2.909065485000610352e-01,-4.213241338729858398e-01,1.824551820755004883e-01,-2.028559744358062744e-01,1.445661783218383789e-01,6.318921595811843872e-02,-3.185394704341888428e-01,-1.051904857158660889e-01,-1.971705257892608643e-01,-1.781451404094696045e-01,1.041444167494773865e-01,-8.662556111812591553e-02,1.523769199848175049e-01,-4.751894623041152954e-03,1.940674707293510437e-02,1.275033205747604370e-01,1.228238940238952637e-01,-3.707687556743621826e-02,3.304570317268371582e-01,1.568744331598281860e-01,-3.278138935565948486e-01,-2.738422751426696777e-01,-2.888040542602539062e-01,-2.853229045867919922e-01,-2.057195901870727539e-01,-6.442488171160221100e-03,2.445273660123348236e-02,-5.347147956490516663e-02,1.132946833968162537e-01,-4.779422655701637268e-02,9.158948808908462524e-02,-1.525110453367233276e-01,3.006801009178161621e-01,-2.405953705310821533e-01,7.844274491071701050e-02,-4.422868788242340088e-01,-3.513058423995971680e-01,-5.895864684134721756e-03,-2.852390706539154053e-02,5.951454490423202515e-02,-1.931705623865127563e-01,2.402074784040451050e-01,2.251880466938018799e-01,-4.095484912395477295e-01,1.858214847743511200e-02,3.380242362618446350e-02,3.691762983798980713e-01,-4.808901548385620117e-01,-5.791708454489707947e-02,-4.613976776599884033e-01
-4.013887345790863037e-01,-2.552269995212554932e-01,-1.661889106035232544e-01,-1.585801392793655396e-01,-6.809011101722717285e-02,-3.589000701904296875e-01,9.621957689523696899e-02,-2.565927207469940186e-01,-2.225621938705444336e-01,-4.941744357347488403e-02,2.592991888523101807e-01,2.352515459060668945e-01,-2.618305087089538574e-01,-2.093899995088577271e-01,-3.773759901523590088e-01,1.229466125369071960e-01,-3.052583038806915283e-01,-1.788692474365234375e-01,-8.170017600059509277e-02,2.956914305686950684e-01,-1.436937898397445679e-01,1.429978664964437485e-02,-1.906657814979553223e-01,-1.783103197813034058e-01,-1.909233331680297852e-01,1.342491805553436279e-01,2.232622653245925903e-01,-1.360398381948471069e-01,4.758169502019882202e-02,-2.078228443861007690e-02,-2.458892017602920532e-01,-3.039993345737457275e-01,7.692644745111465454e-02,-1.439347863197326660e-01,1.631329059600830078e-01,-4.807547926902770996e-01,-3.195473551750183105e-01,3.538140058517456055e-01,-1.774093061685562134e-01,7.365197688341140747e-02,-1.019035428762435913e-01,2.904992178082466125e-02,-5.909812077879905701e-02,1.775463856756687164e-02,2.190422564744949341e-01,3.486725986003875732e-01,1.836908906698226929e-01,-5.998475551605224609e-01,1.698523163795471191e-01,-2.581179440021514893e-01
-8.389602601528167725e-02,-2.404696643352508545e-01,-1.938640624284744263e-01,1.618740260601043701e-01,-6.275271177291870117e-01,5.740860104560852051e-02,-1.765852570533752441e-01,2.340573668479919434e-01,1.546904444694519043e-01,-2.733423709869384766e-01,2.670382261276245117e-01,2.794989943504333496e-01,-1.729567050933837891e-01,-1.802309155464172363e-01,1.842987686395645142e-01,-2.760857045650482178e-01,1.927712410688400269e-01,-6.812676042318344116e-02,2.538235783576965332e-01,2.429066896438598633e-01,-2.986077591776847839e-02,-3.193388879299163818e-02,3.161998689174652100e-01,5.282028391957283020e-02,-6.871309131383895874e-03,6.283754855394363403e-02,2.880057692527770996e-01,3.315273821353912354e-01,1.024686470627784729e-01,-2.539975345134735107e-01,-2.351933121681213379e-01,3.501140326261520386e-02,-4.628898501396179199e-01,2.012214213609695435e-01,2.429581582546234131e-01,-1.336021423339843750e-01,-2.707288861274719238e-01,1.419265717267990112e-01,1.228705570101737976e-01,1.187026035040616989e-02,-5.638817548751831055e-01,3.668768107891082764e-01,4.124844670295715332e-01,-4.464404657483100891e-02,3.790278136730194092e-01,-3.425084054470062256e-01,3.346041142940521240e-01,2.047116868197917938e-02,1.819606572389602661e-01,-1.890198588371276855e-01
-3.970488160848617554e-02,8.317892439663410187e-03,-3.692831844091415405e-02,9.650865942239761353e-02,-3.534460067749023438e-01,-1.711933910846710205e-01,-6.672142446041107178e-02,-9.286881983280181885e-02,-4.286968410015106201e-01,-1.648394465446472168e-01,6.470416486263275146e-02,5.029278993606567383e-02,-1.887939125299453735e-01,-2.421056926250457764e-01,-5.283458903431892395e-02,1.432717442512512207e-01,1.117056682705879211e-01,6.458798050880432129e-02,-3.460449352860450745e-02,6.638013571500778198e-02,-6.658756732940673828e-02,-2.637500166893005371e-01,2.357048541307449341e-01,3.304172158241271973e-01,-4.631201177835464478e-02,-4.205664992332458496e-02,-4.041800498962402344e-01,7.775022089481353760e-02,1.795426160097122192e-01,1.375184357166290283e-01,1.781162619590759277e-01,3.395362943410873413e-02,-6.586189568042755127e-02,-1.940200924873352051e-01,-7.327332161366939545e-03,-6.688874959945678711e-02,-1.569324731826782227e-01,-1.292992085218429565e-01,-9.480558335781097412e-03,1.850238442420959473e-01,1.054896861314773560e-01,2.341409325599670410e-01,2.539809234440326691e-02,-6.637573242187500000e-02,1.337719857692718506e-01,-1.233365312218666077e-01,1.527646631002426147e-01,-1.247117146849632263e-01,1.765092164278030396e-01,-5.206494331359863281e-01
1.719898581504821777e-01,1.089258119463920593e-01,-3.009150624275207520e-01,-1.013679578900337219e-01,-5.911525711417198181e-02,2.692674398422241211e-01,1.010684575885534286e-02,9.880947321653366089e-02,1.305984333157539368e-02,-6.772825866937637329e-02,-1.093770191073417664e-01,8.786315470933914185e-02,9.566986118443310261e-04,7.122512906789779663e-02,-8.749049156904220581e-02,-7.813061028718948364e-02,-2.590549290180206299e-01,-3.386555910110473633e-01,6.796268373727798462e-02,-1.460437029600143433e-01,-1.521850675344467163e-01,3.011459708213806152e-01,-3.367344662547111511e-02,1.672565788030624390e-01,2.472143322229385376e-01,1.163289844989776611e-01,-1.653230041265487671e-01,9.418752044439315796e-02,-1.874653398990631104e-01,-9.737058728933334351e-02,-1.619681832380592823e-03,3.044122755527496338e-01,-8.422315865755081177e-02,-6.252841651439666748e-02,-2.203091979026794434e-01,-4.371591284871101379e-02,1.683025658130645752e-01,1.129135042428970337e-01,-1.323783099651336670e-01,3.214053809642791748e-01,-2.899822592735290527e-01,-2.036503702402114868e-01,-4.299155250191688538e-02,-1.238178908824920654e-01,3.860199153423309326e-01,1.864619851112365723e-01,-6.862770766019821167e-02,2.763967514038085938e-01,2.576640248298645020e-01,-2.498841583728790283e-01
-3.373595327138900757e-02,6.741374731063842773e-02,9.409471601247787476e-02,5.107321590185165405e-02,3.751926496624946594e-02,5.443558096885681152e-02,-7.536731660366058350e-02,-3.463302180171012878e-02,-4.253409802913665771e-01,5.723963305354118347e-02,-1.358450576663017273e-02,1.006818637251853943e-01,-2.593006789684295654e-01,-1.748069524765014648e-01,-4.503289163112640381e-01,-3.614264726638793945e-02,1.706608086824417114e-01,-1.452640891075134277e-01,2.191475629806518555e-01,4.973313957452774048e-02,-2.438468299806118011e-02,-1.348289847373962402e-01,-2.612593770027160645e-01,-3.779523447155952454e-02,3.612975776195526123e-01,-3.616297543048858643e-01,-6.414972990751266479e-02,6.914016325026750565e-03,3.190257549285888672e-01,-9.285479038953781128e-02,7.178004086017608643e-02,-1.221251115202903748e-01,8.604860305786132812e-02,3.468700647354125977e-01,3.945138752460479736e-01,3.128900825977325439e-01,1.018967851996421814e-01,-4.347628355026245117e-01,9.155376255512237549e-02,-1.647505015134811401e-01,-1.007447466254234314e-01,2.886663377285003662e-01,1.455500125885009766e-01,1.113296151161193848e-01,-2.920506298542022705e-01,4.547937214374542236e-01,-7.484202831983566284e-02,-3.187826275825500488e-01,2.589304372668266296e-02,2.576702833175659180e-01
7.805161923170089722e-02,1.524736285209655762e-01,1.266792044043540955e-02,3.772551566362380981e-02,-4.674818366765975952e-03,-2.341341674327850342e-01,4.449975863099098206e-02,-1.505432873964309692e-01,2.471416592597961426e-01,1.238590106368064880e-01,-1.061127707362174988e-01,-4.724391549825668335e-02,-2.227535843849182129e-01,-5.187547206878662109e-02,3.187556564807891846e-01,-2.114303112030029297e-01,7.609234005212783813e-02,5.508917197585105896e-02,1.489780694246292114e-01,-1.519525498151779175e-01,-6.823483109474182129e-02,-7.124339789152145386e-02,3.987135365605354309e-02,1.777680963277816772e-01,1.452469676733016968e-01,1.859291493892669678e-01,1.406032294034957886e-01,-5.645357072353363037e-02,-1.331115365028381348e-01,-2.479809522628784180e-02,-5.551092699170112610e-02,3.478883206844329834e-02,3.930213861167430878e-03,-3.406969904899597168e-01,-2.689949572086334229e-01,1.004342176020145416e-02,-1.394889969378709793e-02,-2.006527408957481384e-02,-2.717722654342651367e-01,9.404727071523666382e-02,2.296729981899261475e-01,-1.461563408374786377e-01,1.777769476175308228e-01,-2.122326940298080444e-01,-4.686002433300018311e-02,4.518659040331840515e-02,2.604320645332336426e-01,-2.691291570663452148e-01,7.654558867216110229e-02,2.194743156433105469e-01
-2.167692929506301880e-01,2.708876729011535645e-01,-1.186602190136909485e-01,-2.066979408264160156e-01,5.579262226819992065e-02,2.469034940004348755e-01,-9.241119772195816040e-02,1.694146171212196350e-02,-2.502132058143615723e-01,-2.085823267698287964e-01,-7.574078440666198730e-02,1.319752782583236694e-01,-4.338979721069335938e-02,1.647937148809432983e-01,9.318224340677261353e-02,-2.331340312957763672e-01,-9.925194084644317627e-03,-2.795552015304565430e-01,-2.912755608558654785e-01,-9.130707941949367523e-03,-2.212310284376144409e-01,4.181880131363868713e-02,-6.294594705104827881e-02,1.844896227121353149e-01,-2.392303198575973511e-01,1.564040184020996094e-01,-5.289507657289505005e-02,-3.209203481674194336e-01,-2.053627073764801025e-01,-1.036180853843688965e-01,-2.379287034273147583e-01,2.097356766462326050e-01,-2.479419708251953125e-01,-2.849105000495910645e-01,-5.885330587625503540e-02,-6.542259454727172852e-02,-1.146763563156127930e-01,-2.676974982023239136e-02,-1.157753020524978638e-01,2.317573279142379761e-01,-3.376727700233459473e-01,-3.304268792271614075e-02,-5.454507470130920410e-02,-1.119920462369918823e-01,1.141124963760375977e-01,-1.156890168786048889e-01,-2.722196280956268311e-01,-5.742363631725311279e-02,-2.413953095674514771e-02,7.536502927541732788e-02
-1.647361218929290771e-01,2.200147658586502075e-01,-1.100054606795310974e-01,-6.778110563755035400e-02,3.206330239772796631e-01,-1.294114440679550171e-01,3.411481976509094238e-01,8.313804119825363159e-02,-2.749190628528594971e-01,8.161682635545730591e-02,-3.798013627529144287e-01,-3.934805691242218018e-01,-1.074636504054069519e-01,-4.135373979806900024e-02,-1.434140652418136597e-01,3.112315833568572998e-01,-3.072076141834259033e-01,-9.302793443202972412e-02,1.118372101336717606e-02,1.859981194138526917e-02,-1.487324833869934082e-01,2.924129962921142578e-01,-9.561163932085037231e-02,5.700260773301124573e-02,3.144118189811706543e-01,1.653275191783905029e-01,-1.621768176555633545e-01,-2.481365501880645752e-01,-5.236813053488731384e-02,-1.511018425226211548e-01,2.878532111644744873e-01,5.593314766883850098e-02,7.086750119924545288e-02,4.560041427612304688e-02,-4.060738682746887207e-01,1.995164155960083008e-02,2.211614884436130524e-02,2.035311013460159302e-01,-6.187340617179870605e-02,-3.750031813979148865e-02,1.646345704793930054e-01,3.132610395550727844e-02,-4.207247495651245117e-02,1.197331324219703674e-01,-3.248090445995330811e-01,1.938849687576293945e-01,-1.455111056566238403e-01,8.589750528335571289e-02,-9.532544016838073730e-02,2.319907397031784058e-01
-3.628079220652580261e-02,2.102206796407699585e-01,2.709341645240783691e-01,-2.006872892379760742e-01,2.065868079662322998e-01,-2.638866007328033447e-01,-2.768705487251281738e-01,2.138887345790863037e-01,6.252447515726089478e-02,5.757761374115943909e-02,-1.413519531488418579e-01,-2.462584711611270905e-02,1.676412671804428101e-01,-4.800216555595397949e-01,-1.026873737573623657e-01,-2.276493608951568604e-01,1.592757254838943481e-01,1.645558178424835205e-01,1.849050074815750122e-01,-4.079708456993103027e-01,-1.657102555036544800e-01,1.328202933073043823e-01,-5.057014524936676025e-02,1.976125836372375488e-01,-1.614868640899658203e-01,-3.447762876749038696e-02,-2.811444997787475586e-01,-1.901252716779708862e-01,1.345447381027042866e-04,-3.368550837039947510e-01,-7.480112463235855103e-02,-2.331682015210390091e-03,1.187578290700912476e-01,-9.091661125421524048e-02,1.146334633231163025e-01,-1.398442685604095459e-01,-2.097012251615524292e-01,1.252269297838211060e-01,-8.129373937845230103e-02,3.496114611625671387e-01,-1.269357502460479736e-01,-5.628512054681777954e-02,5.917356163263320923e-02,8.374475687742233276e-02,-2.453688383102416992e-01,-2.185590937733650208e-02,7.443317025899887085e-02,9.301935881376266479e-02,1.059897691011428833e-01,3.938713073730468750e-01
6.556620448827743530e-02,6.379936635494232178e-02,1.468864679336547852e-01,-7.766295224428176880e-02,1.712759733200073242e-01,1.238411106169223785e-02,-3.026010468602180481e-02,-1.769910156726837158e-01,-1.097634807229042053e-01,2.407932430505752563e-01,-4.631257429718971252e-02,2.446010261774063110e-01,-1.352420449256896973e-01,2.357327640056610107e-01,-5.942316651344299316e-01,1.917675323784351349e-02,-1.439143121242523193e-01,-1.321475803852081299e-01,1.683574020862579346e-01,-2.506785094738006592e-01,-6.889989972114562988e-02,-7.728936523199081421e-02,-1.219714432954788208e-01,-6.718202680349349976e-02,3.306178748607635498e-01,-1.332499980926513672e-01,-9.728301316499710083e-02,1.871882230043411255e-01,3.375522196292877197e-01,-1.774304197169840336e-03,5.602537468075752258e-02,5.192462354898452759e-02,-8.889804035425186157e-02,9.940262883901596069e-03,2.361620217561721802e-01,-2.920711040496826172e-01,1.262237727642059326e-01,-4.170174598693847656e-01,2.465117722749710083e-01,-9.559217095375061035e-02,-1.767655014991760254e-01,-1.349457651376724243e-01,3.226825594902038574e-02,2.041199952363967896e-01,-2.565369904041290283e-01,-3.415258228778839111e-02,7.696933299303054810e-02,-3.398266136646270752e-01,-2.175937294960021973e-01,1.158867627382278442e-01
9.317480772733688354e-02,-6.918112933635711670e-02,-4.189427196979522705e-02,-1.082268282771110535e-01,2.560284435749053955e-01,-1.322512179613113403e-01,1.288215667009353638e-01,1.611651182174682617e-01,-2.223536521196365356e-01,7.763607054948806763e-02,-3.595185279846191406e-01,-1.051994413137435913e-01,-1.646188646554946899e-01,-2.417338043451309204e-01,-2.104021757841110229e-01,-6.785739213228225708e-02,-1.827586442232131958e-01,-4.731595516204833984e-02,-9.894032776355743408e-02,-9.961312264204025269e-02,3.505412023514509201e-03,-2.626029849052429199e-01,-1.701607555150985718e-01,-5.571334809064865112e-02,1.074541211128234863e-01,8.932114392518997192e-02,-1.950590461492538452e-01,-2.801073789596557617e-01,5.859953165054321289e-02,-2.338022738695144653e-01,-3.914476931095123291e-02,-1.899242214858531952e-02,2.861091792583465576e-01,-3.459663391113281250e-01,-1.288185119628906250e-01,-4.739559255540370941e-03,1.691868305206298828e-01,-1.418182104825973511e-01,-8.747322112321853638e-02,-3.652833402156829834e-03,2.147713154554367065e-01,3.385058417916297913e-02,-1.946022957563400269e-01,3.040684461593627930e-01,-3.246340751647949219e-01,-3.215825557708740234e-01,-2.199822515249252319e-01,-5.392494052648544312e-02,2.335797250270843506e-01,-4.312378913164138794e-02
-8.208151161670684814e-02,-1.630300432443618774e-01,-4.676333442330360413e-02,-1.166066750884056091e-01,-3.134902566671371460e-03,-4.658010303974151611e-01,3.337061405181884766e-02,-6.116900593042373657e-02,-1.887705735862255096e-02,1.633145958185195923e-01,1.069935932755470276e-01,9.372092038393020630e-02,-3.308744132518768311e-01,-2.733846008777618408e-01,-1.737201213836669922e-02,-7.536531239748001099e-02,-1.960275471210479736e-01,1.680048853158950806e-01,-1.752830743789672852e-01,-2.679076977074146271e-02,-2.677375376224517822e-01,-2.264190092682838440e-02,-3.191537261009216309e-01,-1.946055591106414795e-01,-9.665206819772720337e-02,6.683228164911270142e-02,1.407251507043838501e-01,-2.695914544165134430e-02,-2.210427820682525635e-01,-2.031239420175552368e-01,1.109702661633491516e-01,-1.598686724901199341e-01,1.990189552307128906e-01,-1.827878504991531372e-01,1.680226027965545654e-01,-3.243405520915985107e-01,-1.426622569561004639e-01,3.615534305572509766e-01,-2.618514560163021088e-02,1.520956307649612427e-01,5.906631425023078918e-02,-7.294699549674987793e-02,-5.508961528539657593e-02,-1.646630652248859406e-02,-5.262594670057296753e-02,1.507971584796905518e-01,-3.625472262501716614e-02,-1.345514208078384399e-01,-1.270942986011505127e-01,-3.131507337093353271e-01
7.959039509296417236e-02,2.007673531770706177e-01,6.817802041769027710e-02,2.656489312648773193e-01,-2.960745692253112793e-01,2.528631389141082764e-01,-2.510080337524414062e-01,2.822155058383941650e-01,-3.521059453487396240e-01,8.024042099714279175e-02,1.089938282966613770e-01,3.023431869223713875e-03,-5.265081673860549927e-02,-1.118606626987457275e-01,-8.800526708364486694e-02,-2.457658052444458008e-01,1.905077099800109863e-01,-1.885201781988143921e-02,7.224537432193756104e-02,2.206281721591949463e-01,1.991202309727668762e-02,-1.054383739829063416e-01,-5.938050895929336548e-02,1.039567515254020691e-01,3.455296158790588379e-01,-4.019334912300109863e-01,9.076275676488876343e-02,3.140262663364410400e-01,-3.068847954273223877e-01,-3.675842285156250000e-01,2.523166239261627197e-01,2.117703435942530632e-03,-2.421911433339118958e-02,5.124844908714294434e-01,8.105962723493576050e-02,3.740571066737174988e-02,4.555568471550941467e-02,-2.461117357015609741e-01,6.311944872140884399e-02,1.752118766307830811e-01,-4.530141875147819519e-02,1.519056409597396851e-01,1.777065545320510864e-02,1.772266924381256104e-01,-9.547509253025054932e-02,1.018502265214920044e-01,-2.875986397266387939e-01,6.622762419283390045e-03,-6.701906770467758179e-02,1.069712340831756592e-01
-2.094228267669677734e-01,1.304007321596145630e-01,-8.146582543849945068e-02,-2.926303446292877197e-01,-2.656730078160762787e-02,-1.328565925359725952e-01,-2.089599668979644775e-01,-6.613976508378982544e-02,-2.366151809692382812e-01,-2.692154049873352051e-01,-9.182812273502349854e-02,2.173269540071487427e-01,2.519867755472660065e-02,-2.841319143772125244e-01,-1.347466558218002319e-01,-1.072362363338470459e-01,1.202300116419792175e-01,1.730665713548660278e-01,-2.703844383358955383e-02,6.586862355470657349e-02,-3.507508933544158936e-01,1.021960899233818054e-01,4.590166732668876648e-02,2.375224232673645020e-01,-5.294397845864295959e-02,1.080574616789817810e-01,-1.710346341133117676e-01,-2.148179262876510620e-01,-3.457058966159820557e-02,-1.800161898136138916e-01,2.719330415129661560e-02,1.967990845441818237e-01,-6.790433824062347412e-02,-1.819580793380737305e-01,2.010194212198257446e-01,-1.098593920469284058e-01,-2.408157736063003540e-01,1.534350514411926270e-01,7.922937721014022827e-02,2.187183946371078491e-01,-3.835486173629760742e-01,1.462419982999563217e-02,-3.210268914699554443e-01,7.451660931110382080e-02,9.273328632116317749e-02,1.292504817247390747e-01,-6.272440403699874878e-02,-5.315306410193443298e-02,2.106714695692062378e-01,2.852591872215270996e-01
-1.731487065553665161e-01,3.266937658190727234e-02,-4.504583310335874557e-03,1.251686066389083862e-01,-1.116732507944107056e-01,-3.238238394260406494e-02,-5.412911623716354370e-02,2.429428547620773315e-01,5.446018651127815247e-02,-8.245041593909263611e-03,-3.421701490879058838e-02,-6.273014843463897705e-02,8.005153387784957886e-02,2.920312993228435516e-02,-3.728526234626770020e-01,-1.226669624447822571e-01,1.194835454225540161e-01,-3.348838388919830322e-01,2.066803872585296631e-01,-1.206038296222686768e-01,-1.144050434231758118e-01,-3.946046158671379089e-02,-2.889995872974395752e-01,-1.440325081348419189e-01,-3.194450214505195618e-02,4.056425020098686218e-02,6.235931441187858582e-02,-8.649702370166778564e-02,9.541124454699456692e-04,-8.656397461891174316e-02,2.868233323097229004e-01,1.840659081935882568e-01,-4.086906015872955322e-01,1.613607406616210938e-01,9.323360770940780640e-02,3.525145351886749268e-02,-2.509637773036956787e-01,1.024473458528518677e-01,1.273544877767562866e-01,2.055305242538452148e-01,-1.313269436359405518e-01,3.124499917030334473e-01,7.176581770181655884e-02,1.922623962163925171e-01,1.613836884498596191e-01,-9.655643999576568604e-02,-1.744194179773330688e-01,-1.287229210138320923e-01,3.206640183925628662e-01,6.621429324150085449e-02
-3.174299597740173340e-01,-1.185669675469398499e-01,4.320379495620727539e-01,9.291321784257888794e-02,1.228937208652496338e-01,-1.719300448894500732e-01,1.110133342444896698e-02,-5.775099992752075195e-02,-4.708380624651908875e-02,1.092471648007631302e-02,-3.022417128086090088e-01,-4.192633926868438721e-02,-1.106585562229156494e-01,2.855212092399597168e-01,-1.716211140155792236e-01,-2.993398606777191162e-01,-1.190791428089141846e-01,8.212956041097640991e-02,-8.256937563419342041e-02,-9.856373071670532227e-02,1.521045900881290436e-02,-5.768913775682449341e-02,-3.032681941986083984e-01,-3.400146216154098511e-02,1.123794391751289368e-01,-1.790378428995609283e-02,-1.221322864294052124e-01,-1.491919308900833130e-01,-2.133075892925262451e-02,-1.594974547624588013e-01,9.294188581407070160e-03,-6.860949099063873291e-02,-1.509585529565811157e-01,9.582174941897392273e-03,2.016636133193969727e-01,-2.069815993309020996e-01,4.977930337190628052e-02,2.198137640953063965e-01,-1.975433230400085449e-01,-2.698715031147003174e-01,-1.044484302401542664e-01,2.114585340023040771e-01,-9.467158466577529907e-02,-2.323695719242095947e-01,2.039650231599807739e-01,-1.424953788518905640e-01,4.497791454195976257e-02,2.260652631521224976e-01,-3.891986981034278870e-02,-3.369343578815460205e-01
-3.692691326141357422e-01,-1.231024190783500671e-01,-2.584768831729888916e-01,4.190740641206502914e-03,-1.072996482253074646e-02,-1.732864081859588623e-01,1.192444190382957458e-01,2.573092281818389893e-01,1.996253728866577148e-01,3.837774321436882019e-02,4.779528453946113586e-02,-1.343322843313217163e-01,-1.183238849043846130e-01,2.391832619905471802e-01,-1.131974980235099792e-01,3.242848813533782959e-02,-1.090516429394483566e-02,1.843718737363815308e-01,-2.937221229076385498e-01,-6.628708541393280029e-02,1.431205272674560547e-01,6.632235646247863770e-02,-1.921491622924804688e-01,-1.105846911668777466e-01,1.354387253522872925e-01,-1.922319759614765644e-03,1.821277104318141937e-02,-1.473359912633895874e-01,-2.337045818567276001e-01,4.968751966953277588e-02,7.481361180543899536e-02,7.823672890663146973e-02,-2.642468810081481934e-01,-2.628082223236560822e-02,-1.549447178840637207e-01,-1.573275178670883179e-01,1.036120280623435974e-01,-1.812937408685684204e-01,-1.109321936964988708e-01,-2.917398810386657715e-01,1.401556581258773804e-01,-5.533584579825401306e-02,5.429946631193161011e-02,-1.433764547109603882e-01,-2.522484362125396729e-01,-3.014502227306365967e-01,-9.514374285936355591e-02,1.605210602283477783e-01,4.891827329993247986e-02,-6.990244984626770020e-02
8.734507858753204346e-02,2.593530118465423584e-01,2.823450267314910889e-01,-5.010010674595832825e-02,1.105023100972175598e-01,-3.024463355541229248e-01,-2.181806862354278564e-01,1.181184798479080200e-01,3.024117648601531982e-01,-1.101582422852516174e-01,-3.520379066467285156e-01,1.054022926837205887e-03,-1.535222679376602173e-01,-1.920260637998580933e-01,1.925960481166839600e-01,-7.032273709774017334e-02,-7.447218894958496094e-02,3.380292654037475586e-01,1.926992088556289673e-01,-1.086599156260490417e-01,-2.510443888604640961e-02,1.780014038085937500e-01,1.842642724514007568e-01,-8.485450595617294312e-02,1.318143308162689209e-01,5.734261497855186462e-02,8.400221168994903564e-02,-2.364566773176193237e-01,-3.786602020263671875e-01,1.434226334095001221e-01,1.358024924993515015e-01,-1.706859329715371132e-03,-2.592587172985076904e-01,1.288159340620040894e-01,-2.676551640033721924e-01,1.452963799238204956e-01,-1.610437184572219849e-01,4.978993535041809082e-02,-4.118762314319610596e-01,3.975832089781761169e-02,9.632496535778045654e-02,-2.130123227834701538e-01,1.515274867415428162e-02,-4.324030131101608276e-02,1.318118721246719360e-01,4.239266365766525269e-02,-6.269354838877916336e-03,3.121840357780456543e-01,1.347707211971282959e-02,8.494930714368820190e-02
1.287855207920074463e-01,-1.725333370268344879e-02,-1.923537701368331909e-01,-1.534945517778396606e-01,1.453963574022054672e-03,2.620037086308002472e-02,6.467060744762420654e-02,1.734167933464050293e-01,1.037949994206428528e-01,-2.429731339216232300e-01,-2.353065758943557739e-01,-2.303526736795902252e-02,-1.570866852998733521e-01,-8.500695228576660156e-02,3.521558642387390137e-01,-7.933104783296585083e-02,-2.041275985538959503e-02,-1.036939769983291626e-01,7.386004179716110229e-02,2.717464864253997803e-01,-1.519198864698410034e-01,-2.718453407287597656e-01,-6.736097484827041626e-02,1.035304442048072815e-01,-1.108028739690780640e-01,-2.653430998325347900e-01,-1.843553334474563599e-01,1.684125810861587524e-01,-3.399882018566131592e-01,2.675956785678863525e-01,-3.582164645195007324e-02,-1.286049466580152512e-02,2.651684582233428955e-01,1.865750253200531006e-01,2.730599939823150635e-01,2.585951089859008789e-01,9.040784835815429688e-02,2.340156286954879761e-01,1.049518957734107971e-01,1.467070430517196655e-01,-2.867374941706657410e-02,-1.350852753967046738e-02,4.459616169333457947e-02,2.990838885307312012e-01,-5.862022936344146729e-02,-6.814314424991607666e-02,1.380296945571899414e-01,-2.440974116325378418e-01,-1.337072253227233887e-01,3.126759827136993408e-01
4.558479413390159607e-02,-2.176074236631393433e-01,-1.081026438623666763e-02,5.915650352835655212e-02,2.595585584640502930e-01,2.859628759324550629e-02,2.527294456958770752e-01,9.889215230941772461e-03,-3.459388613700866699e-01,-1.596326939761638641e-02,-8.510900288820266724e-02,-1.127322390675544739e-01,-2.536366879940032959e-01,1.006209775805473328e-01,2.127955853939056396e-02,4.313842952251434326e-02,2.415653318166732788e-03,-3.922594785690307617e-01,-2.870596051216125488e-01,1.195471361279487610e-01,-3.600876405835151672e-02,9.807045757770538330e-02,9.441058151423931122e-03,-2.509488761425018311e-01,-5.949188023805618286e-02,-1.189462766051292419e-01,-1.198174208402633667e-01,-2.771271467208862305e-01,-9.213727712631225586e-02,-3.640241920948028564e-01,2.416932284832000732e-01,7.919292151927947998e-02,-7.764247059822082520e-02,-4.060865342617034912e-01,6.946018338203430176e-02,1.028856709599494934e-01,2.635785639286041260e-01,-8.123385161161422729e-02,-2.967349886894226074e-01,4.956911318004131317e-03,-3.126860782504081726e-02,-1.369759589433670044e-01,-1.319959908723831177e-01,3.471125364303588867e-01,-1.769884675741195679e-02,1.442909240722656250e-01,-2.566534876823425293e-01,-1.515947431325912476e-01,-1.239413172006607056e-01,4.425239562988281250e-02
-3.078200519084930420e-01,-1.290117651224136353e-01,-1.890556812286376953e-01,-1.310422569513320923e-01,-1.373452544212341309e-01,1.131991073489189148e-01,-1.698848307132720947e-01,-3.737302869558334351e-02,-1.007472574710845947e-01,7.122649997472763062e-02,-1.701716482639312744e-01,-1.971636340022087097e-02,1.486212611198425293e-01,-3.902303874492645264e-01,-8.469872921705245972e-02,-3.403449058532714844e-01,-1.203764379024505615e-01,1.692901849746704102e-01,-2.916886098682880402e-02,-1.434236913919448853e-01,1.173483431339263916e-01,2.616001665592193604e-01,-2.169136554002761841e-01,-3.514103591442108154e-01,-5.740621685981750488e-02,-4.402911663055419922e-02,7.914032787084579468e-03,5.419826880097389221e-02,9.645510464906692505e-02,1.260662525892257690e-01,1.009001508355140686e-01,-2.399587631225585938e-01,1.959218382835388184e-01,3.666134551167488098e-02,-8.230308443307876587e-02,-1.755654662847518921e-01,7.829091511666774750e-03,1.118985414505004883e-01,-1.939152479171752930e-01,-1.935962289571762085e-01,-1.024966016411781311e-01,1.031145304441452026e-01,1.326826661825180054e-01,-3.530398607254028320e-01,-3.182649910449981689e-01,1.486638654023408890e-02,-8.026449382305145264e-02,-2.432950139045715332e-01,2.796988375484943390e-02,1.412799656391143799e-01
2.064284831285476685e-01,-1.066100299358367920e-01,-4.037090837955474854e-01,-2.854695543646812439e-02,-1.078483611345291138e-01,-7.677682489156723022e-02,2.477592825889587402e-01,-1.641241163015365601e-01,-5.355296283960342407e-02,-2.661269903182983398e-01,-1.088396534323692322e-01,2.940527796745300293e-01,-2.396841645240783691e-01,1.561386287212371826e-01,-8.073128759860992432e-02,-2.692930698394775391e-01,1.228074356913566589e-01,-4.224813729524612427e-02,-4.490571022033691406e-01,3.411665260791778564e-01,-1.978994011878967285e-01,4.354408979415893555e-01,2.343983948230743408e-01,-3.222573176026344299e-02,1.775785982608795166e-01,-2.540502846240997314e-01,2.129145562648773193e-01,2.557456493377685547e-01,3.388750180602073669e-02,3.174808342009782791e-03,1.632836908102035522e-01,1.802529990673065186e-01,-2.999825775623321533e-01,-7.250149548053741455e-02,-5.422871094197034836e-03,2.256684303283691406e-01,-2.423022091388702393e-01,9.206718206405639648e-02,2.341343611478805542e-01,1.306494921445846558e-01,-7.430615276098251343e-02,-9.220289066433906555e-03,1.846389770507812500e-01,-3.365244567394256592e-01,-9.039670228958129883e-02,4.037985801696777344e-01,-2.360650748014450073e-01,3.168622255325317383e-01,1.185079142451286316e-01,1.652951911091804504e-02
-1.571954414248466492e-02,-6.607945542782545090e-03,1.359160691499710083e-01,-1.408444195985794067e-01,2.680365741252899170e-02,-1.494687795639038086e-01,-1.736102998256683350e-02,-1.301207691431045532e-01,3.006754517555236816e-01,6.334760040044784546e-02,-2.586737275123596191e-01,-2.534077763557434082e-01,1.000302806496620178e-01,-1.787738651037216187e-01,7.701521366834640503e-02,-8.653459697961807251e-02,8.083610981702804565e-02,-2.088057249784469604e-01,1.013286113739013672e-01,6.058541685342788696e-02,-4.855103492736816406e-01,4.444499015808105469e-01,-3.038293449208140373e-03,7.803043723106384277e-02,-1.601919531822204590e-02,-1.668644696474075317e-01,-1.299833208322525024e-01,-4.567642882466316223e-02,-1.736572980880737305e-01,6.765350699424743652e-02,-1.427171379327774048e-01,-4.588417336344718933e-02,3.112093545496463776e-02,-2.069364637136459351e-01,8.218736201524734497e-02,3.344014585018157959e-01,2.090657502412796021e-01,-6.505554169416427612e-02,1.544202715158462524e-01,3.554544746875762939e-01,-2.721266150474548340e-01,3.348072990775108337e-02,3.122296556830406189e-02,-1.512147039175033569e-01,-1.855964511632919312e-01,1.814596801996231079e-01,-1.236458346247673035e-01,-5.059185251593589783e-02,8.440200984477996826e-02,1.468110382556915283e-01
-2.361925877630710602e-02,1.249673292040824890e-01,1.467418074607849121e-01,-1.138502880930900574e-01,-5.952240526676177979e-02,-9.259527176618576050e-02,-6.925287842750549316e-02,-6.797052174806594849e-02,2.340199202299118042e-01,-1.492471545934677124e-01,-3.093712264671921730e-03,2.711395025253295898e-01,-4.037867486476898193e-02,-4.939815774559974670e-02,8.120541274547576904e-02,-6.138278171420097351e-02,1.063907593488693237e-01,6.439797580242156982e-02,2.816740795969963074e-02,3.989712893962860107e-02,1.070799157023429871e-01,2.644291520118713379e-01,2.102546840906143188e-01,2.200492285192012787e-02,1.699049621820449829e-01,-2.959442734718322754e-01,-1.190081015229225159e-01,1.934496313333511353e-02,7.249516248703002930e-02,-5.893835425376892090e-02,-1.601396650075912476e-01,-9.354372322559356689e-02,-1.828770935535430908e-01,3.109557330608367920e-01,5.884427949786186218e-02,-1.530939489603042603e-01,6.859616935253143311e-02,-1.480331271886825562e-01,-1.273524314165115356e-01,-9.761036932468414307e-02,3.367376327514648438e-02,-2.567417621612548828e-01,1.988409608602523804e-01,9.054479748010635376e-02,1.526614427566528320e-01,1.350433975458145142e-01,1.600861996412277222e-01,4.582835733890533447e-02,1.612608730792999268e-01,-2.249153554439544678e-01
-3.050439655780792236e-01,4.625202715396881104e-02,-1.270940303802490234e-01,1.689154356718063354e-01,1.268597543239593506e-01,-6.107524633407592773e-01,1.442225184291601181e-02,1.403231173753738403e-01,2.328578196465969086e-02,-4.216464608907699585e-02,-4.400390014052391052e-02,2.376677691936492920e-01,-5.712057650089263916e-02,-3.921409323811531067e-02,-1.721372902393341064e-01,-1.945575624704360962e-01,-5.857593938708305359e-02,1.636286228895187378e-01,3.312032520771026611e-01,1.649114675819873810e-02,-7.739305496215820312e-02,-4.599873721599578857e-01,2.290843576192855835e-01,-3.255680575966835022e-02,8.687534183263778687e-02,-3.290361911058425903e-02,1.674227118492126465e-01,-1.670176386833190918e-01,3.735890388488769531e-01,1.847559362649917603e-01,1.517301052808761597e-01,-2.143520414829254150e-01,1.662306040525436401e-01,-4.194030761718750000e-01,-8.230446279048919678e-02,-1.498826444149017334e-01,1.578867137432098389e-01,-3.959389030933380127e-02,-5.405578017234802246e-01,-1.716303974390029907e-01,-2.800591103732585907e-02,1.040526479482650757e-01,2.917028069496154785e-01,-2.256515026092529297e-01,6.868625432252883911e-02,1.156132519245147705e-01,2.271423190832138062e-01,-2.182644754648208618e-01,1.547253876924514771e-01,-2.435882538557052612e-01
2.092694491147994995e-01,9.409360587596893311e-02,-1.741949841380119324e-02,-3.454861044883728027e-01,-4.683492705225944519e-02,9.194039553403854370e-02,-2.889251708984375000e-01,-6.102895364165306091e-02,-4.250641763210296631e-01,-7.215636223554611206e-02,-2.060422599315643311e-01,-8.015874028205871582e-02,5.433027073740959167e-02,-1.157466694712638855e-02,1.347998827695846558e-01,3.004521876573562622e-02,1.545618101954460144e-02,-2.647663056850433350e-01,1.782966405153274536e-02,-3.573491424322128296e-02,-1.012112423777580261e-01,2.566893994808197021e-01,-1.177506521344184875e-02,1.326968520879745483e-01,1.226467862725257874e-01,-2.316389977931976318e-01,-4.974980652332305908e-01,-1.740131080150604248e-01,-1.257347613573074341e-01,-3.337126672267913818e-01,-1.179693043231964111e-01,2.483934760093688965e-01,-2.271603494882583618e-01,-1.146551519632339478e-01,1.690513193607330322e-01,2.375574260950088501e-01,1.958271265029907227e-01,1.404272615909576416e-01,1.199776455760002136e-01,-1.343138068914413452e-01,-1.572491675615310669e-01,1.185935810208320618e-01,-1.592674851417541504e-01,-8.973059244453907013e-03,2.750979661941528320e-01,-1.633739173412322998e-01,-3.905640244483947754e-01,1.094684675335884094e-01,8.798047155141830444e-02,2.774008810520172119e-01
-6.984792649745941162e-02,7.625009398907423019e-03,1.923471242189407349e-01,2.164589427411556244e-02,-5.797379091382026672e-02,1.317151188850402832e-01,1.836285889148712158e-01,9.211598336696624756e-02,2.833491563796997070e-01,-1.082225143909454346e-01,-4.939673468470573425e-02,1.210131645202636719e-01,-1.278233714401721954e-02,9.163474291563034058e-02,4.181233048439025879e-01,-2.552360296249389648e-01,-1.019174084067344666e-01,9.736043214797973633e-02,-1.920246779918670654e-01,-1.220836639404296875e-01,-1.159578189253807068e-01,2.306130975484848022e-01,4.211847484111785889e-02,-3.684288635849952698e-02,-1.007110700011253357e-01,-1.312049627304077148e-01,-1.682378351688385010e-01,-1.353109180927276611e-01,-3.785142898559570312e-01,1.927886456251144409e-01,-1.472360044717788696e-01,-2.384479194879531860e-01,-3.375590443611145020e-01,-1.246607303619384766e-01,1.892567276954650879e-01,1.056975200772285461e-01,2.394561171531677246e-01,7.721240818500518799e-02,-8.748519420623779297e-02,-1.775043904781341553e-01,5.452867131680250168e-03,-1.923858770169317722e-03,-3.411145880818367004e-03,2.144176959991455078e-01,-2.643578052520751953e-01,-5.154771357774734497e-02,-7.699717301875352859e-03,-1.996699124574661255e-01,-6.281711161136627197e-02,5.405868291854858398e-01
7.501389831304550171e-02,-3.596942499279975891e-02,-3.232053294777870178e-02,-1.381617933511734009e-01,-5.563576892018318176e-02,2.348274737596511841e-01,-5.596796050667762756e-02,1.412249803543090820e-01,-4.229412972927093506e-01,-4.256120920181274414e-01,-1.779225319623947144e-01,-2.031672000885009766e-01,-7.488818466663360596e-02,1.351107805967330933e-01,-4.511218369007110596e-01,-4.578383266925811768e-01,-1.927628070116043091e-01,-4.922022819519042969e-01,1.567835658788681030e-01,-8.196847140789031982e-02,-3.774103224277496338e-01,3.420449495315551758e-01,-2.888179421424865723e-01,-5.907903239130973816e-02,-2.632249295711517334e-01,1.791008114814758301e-01,-2.493201941251754761e-02,-1.030240133404731750e-01,-2.238366752862930298e-01,-2.600836157798767090e-01,-1.702272593975067139e-01,3.897428214550018311e-01,5.937990546226501465e-02,-2.430416457355022430e-02,2.292344719171524048e-01,2.475716918706893921e-01,-2.530197501182556152e-01,-2.112105637788772583e-01,1.103783994913101196e-01,7.368171215057373047e-02,-2.037666141986846924e-01,-8.186186105012893677e-02,-1.949275881052017212e-01,-2.115316540002822876e-01,1.253201514482498169e-01,-4.924010112881660461e-02,-7.205645740032196045e-02,-9.429150819778442383e-02,2.385126650333404541e-01,1.744838058948516846e-01
-1.046269237995147705e-01,2.414055615663528442e-01,-2.939457595348358154e-01,1.060162708163261414e-01,-2.297575920820236206e-01,2.219989001750946045e-01,2.894943952560424805e-01,-2.130934596061706543e-01,2.301026135683059692e-01,-2.634073495864868164e-01,-7.235241681337356567e-02,-4.024779051542282104e-02,1.267933547496795654e-01,1.743458211421966553e-01,-6.912960112094879150e-02,1.569868177175521851e-01,-1.288092881441116333e-01,-2.337060272693634033e-01,-1.855034977197647095e-01,-4.021156579256057739e-02,-3.152783513069152832e-01,2.148459702730178833e-01,1.781764626502990723e-02,-1.538879517465829849e-02,-1.007526293396949768e-01,2.714906036853790283e-01,-3.468062961474061012e-03,-4.126350581645965576e-01,1.088077574968338013e-01,2.231174856424331665e-01,-1.951375752687454224e-01,2.366040199995040894e-01,1.605174392461776733e-01,-3.449562191963195801e-02,-1.844404041767120361e-01,-1.920809596776962280e-01,-2.557260170578956604e-02,-8.775062859058380127e-02,1.233298480510711670e-01,-2.193450182676315308e-01,-2.712161652743816376e-02,-8.517898619174957275e-02,-9.777257591485977173e-02,2.173128128051757812e-01,-4.482601881027221680e-01,-1.258866041898727417e-01,2.006210535764694214e-01,9.602730162441730499e-03,7.198626548051834106e-02,1.911677122116088867e-01
-1.079897433519363403e-01,-1.487230062484741211e-01,-1.567012518644332886e-01,-2.731744647026062012e-01,-6.650315225124359131e-02,-7.098592072725296021e-02,5.653837323188781738e-01,-7.949704676866531372e-02,-8.063125610351562500e-02,-1.026925444602966309e-01,1.498874425888061523e-01,7.757795602083206177e-02,-7.342604547739028931e-02,3.258476033806800842e-03,1.272329390048980713e-01,2.287814468145370483e-01,-3.082492649555206299e-01,-2.733739614486694336e-01,-5.215106531977653503e-02,-1.785348504781723022e-01,-1.385345589369535446e-02,1.415439546108245850e-01,-6.695760041475296021e-02,1.696733534336090088e-01,-1.504997611045837402e-01,5.590775050222873688e-03,-9.475389868021011353e-02,-2.603996992111206055e-01,1.771111488342285156e-01,-2.515234351158142090e-01,8.208452910184860229e-02,-4.465409815311431885e-01,-5.651043727993965149e-02,-2.582325041294097900e-02,-2.068555168807506561e-02,-5.665403325110673904e-03,2.741553187370300293e-01,-1.009055785834789276e-02,-2.309648990631103516e-01,-1.184084936976432800e-01,2.298509776592254639e-01,-1.759281754493713379e-01,8.393997699022293091e-02,2.213562256656587124e-04,1.275782883167266846e-01,2.046229392290115356e-01,3.038724362850189209e-01,-1.267080605030059814e-01,9.787990897893905640e-02,1.932487636804580688e-01
2.438040971755981445e-01,8.546730875968933105e-02,5.944661423563957214e-02,-7.201974838972091675e-02,2.270433306694030762e-01,1.570702344179153442e-01,-6.865957379341125488e-02,-1.039260774850845337e-01,1.979734003543853760e-01,3.910204768180847168e-02,-1.322977542877197266e-01,-1.726255863904953003e-01,2.310314625501632690e-01,-5.067012086510658264e-02,-3.335973918437957764e-01,4.725567996501922607e-02,2.902474403381347656e-01,-2.556647360324859619e-01,-1.858546733856201172e-01,-2.471201121807098389e-02,-1.156323030591011047e-02,2.980205118656158447e-01,-1.675433218479156494e-01,2.860904932022094727e-01,2.049637585878372192e-01,-2.123533189296722412e-01,-2.809753417968750000e-01,-1.770053356885910034e-01,-1.758328080177307129e-01,-3.300929069519042969e-01,-1.074184663593769073e-02,1.153519824147224426e-01,1.915193498134613037e-01,2.465999275445938110e-01,4.528881981968879700e-02,1.671991497278213501e-01,-2.523226737976074219e-01,-3.393844962120056152e-01,2.056198753416538239e-02,6.193646229803562164e-03,-4.593207836151123047e-01,1.461357623338699341e-01,-1.410766690969467163e-01,1.953106969594955444e-01,2.216241508722305298e-01,1.337776482105255127e-01,-2.439870238304138184e-01,2.156963199377059937e-01,-2.376872003078460693e-01,1.512503772974014282e-01
7.573491334915161133e-02,6.181577965617179871e-02,-3.366514146327972412e-01,-3.123512268066406250e-01,3.772765630856156349e-03,-2.981203496456146240e-01,4.601729214191436768e-01,2.942204773426055908e-01,1.352937817573547363e-01,-6.122551485896110535e-02,-1.414123624563217163e-01,3.157242015004158020e-02,-2.690366934984922409e-03,-1.897550933063030243e-02,-3.313312232494354248e-01,3.107563555240631104e-01,-1.861239224672317505e-01,-7.943549752235412598e-02,-8.206889778375625610e-02,-9.584932774305343628e-02,2.007410228252410889e-01,3.490485250949859619e-01,2.976010739803314209e-02,9.749770909547805786e-02,4.200028181076049805e-01,1.980905979871749878e-01,-3.416659832000732422e-01,8.165393024682998657e-02,3.217141330242156982e-01,-3.171616196632385254e-01,-4.041190072894096375e-02,4.920158535242080688e-02,1.695345528423786163e-02,1.501387264579534531e-02,-3.042659349739551544e-02,5.115368366241455078e-01,4.822185263037681580e-03,3.410885855555534363e-02,-4.395904764533042908e-02,-1.083335056900978088e-01,1.172681571915745735e-03,1.091805659234523773e-02,-3.143171668052673340e-01,1.928960531949996948e-01,-1.524165179580450058e-02,-2.143468260765075684e-01,9.742172062397003174e-02,2.073101550340652466e-01,1.067207381129264832e-02,3.413534760475158691e-01
-2.296964973211288452e-01,-5.628493428230285645e-02,-5.977097898721694946e-02,1.205112487077713013e-01,-2.781098783016204834e-01,7.982523739337921143e-02,-4.676263034343719482e-02,1.521886885166168213e-01,-2.618719823658466339e-02,-1.910055577754974365e-01,1.242001652717590332e-01,4.955056309700012207e-02,1.469543129205703735e-01,-1.671151220798492432e-01,-1.779037117958068848e-01,2.903022170066833496e-01,1.542165130376815796e-02,-7.717774063348770142e-02,1.486380118876695633e-02,2.407134622335433960e-01,2.754101529717445374e-02,1.626468002796173096e-01,-1.392184197902679443e-02,1.397946178913116455e-01,1.787403374910354614e-01,2.270999550819396973e-01,1.414377242326736450e-01,-6.357823312282562256e-02,-4.890322685241699219e-01,-3.032979667186737061e-01,-1.426332145929336548e-01,4.122093617916107178e-01,6.792641431093215942e-02,2.642004787921905518e-01,-1.670090109109878540e-02,-9.605230391025543213e-02,5.778966844081878662e-02,1.561737805604934692e-01,1.609097421169281006e-01,-2.492477297782897949e-01,-1.620573401451110840e-01,7.371288537979125977e-02,2.002466320991516113e-01,-2.618034183979034424e-01,2.350495895370841026e-03,-1.916953027248382568e-01,-4.001565650105476379e-02,1.105927005410194397e-01,1.291724145412445068e-01,-3.117066323757171631e-01
-1.624206304550170898e-01,-5.001324787735939026e-02,2.286160737276077271e-01,-2.567829191684722900e-01,-2.280179858207702637e-01,-1.241235360503196716e-01,-3.062507212162017822e-01,7.189054042100906372e-02,1.501919776201248169e-01,9.923091530799865723e-02,3.701331466436386108e-02,-3.096074797213077545e-02,-1.300713121891021729e-01,-1.951264292001724243e-01,2.916233427822589874e-02,-3.385882377624511719e-01,1.971518695354461670e-01,-1.603948026895523071e-01,-1.696193367242813110e-01,4.481832496821880341e-03,-1.997778713703155518e-01,-2.459807880222797394e-02,3.994340002536773682e-01,1.115341708064079285e-01,-1.883731782436370850e-02,7.272668182849884033e-02,2.094142735004425049e-01,1.501838713884353638e-01,1.794210374355316162e-01,-9.485384076833724976e-02,7.815119810402393341e-03,2.209664881229400635e-01,2.286990173161029816e-02,-5.621642619371414185e-02,-7.948041707277297974e-02,-2.640693634748458862e-02,5.497336760163307190e-02,-3.327457904815673828e-01,-1.088286042213439941e-01,1.025405600666999817e-01,2.544485032558441162e-01,-2.152957469224929810e-01,4.473962634801864624e-02,1.028434559702873230e-01,-1.618285328149795532e-01,-2.290392667055130005e-01,-1.685547381639480591e-01,5.058329179883003235e-02,4.725099727511405945e-02,2.562910877168178558e-02
-2.859179675579071045e-01,8.463598042726516724e-02,-2.196985669434070587e-02,1.636124961078166962e-02,4.961539432406425476e-02,-1.441986020654439926e-02,1.214782819151878357e-01,-4.733948409557342529e-02,1.680745333433151245e-01,-2.908583283424377441e-01,-1.122429035604000092e-02,-2.309690862894058228e-01,-1.728461980819702148e-01,1.933870613574981689e-01,-9.086855500936508179e-02,-2.123689651489257812e-02,1.680372655391693115e-01,-4.929787293076515198e-02,-9.534650295972824097e-02,-3.684533387422561646e-02,-4.617446660995483398e-01,2.508993148803710938e-01,-9.561704844236373901e-02,1.481842100620269775e-01,-1.479968130588531494e-01,-4.770418629050254822e-02,-2.001903504133224487e-01,-3.562454581260681152e-01,-2.873685657978057861e-01,3.124226629734039307e-01,-7.853922247886657715e-02,-5.994236096739768982e-02,-6.353203952312469482e-02,-9.011698514223098755e-02,-1.929817534983158112e-02,-2.960803508758544922e-01,-1.168180480599403381e-01,-1.858451813459396362e-01,1.117360312491655350e-02,2.151135504245758057e-01,-2.184595614671707153e-01,-2.710488736629486084e-01,-3.641567230224609375e-01,-6.483713537454605103e-02,2.623019814491271973e-01,1.111558377742767334e-01,8.150794357061386108e-02,3.523341715335845947e-01,-2.126852422952651978e-01,1.177911758422851562e-01
-2.723810672760009766e-01,3.675383701920509338e-02,-1.448018252849578857e-01,-4.618874285370111465e-03,-2.743333578109741211e-01,3.359931334853172302e-02,-2.251175045967102051e-01,1.948590129613876343e-01,-2.196263521909713745e-01,6.410431116819381714e-02,-3.389400243759155273e-02,1.415017992258071899e-01,1.356833130121231079e-01,-3.351566493511199951e-01,7.819879800081253052e-02,-2.755454778671264648e-01,-9.550721943378448486e-02,-1.731853038072586060e-01,-1.169282495975494385e-01,8.725117892026901245e-02,-3.141834735870361328e-01,-2.027485668659210205e-01,-1.678091287612915039e-01,-1.475911736488342285e-01,-6.199735775589942932e-02,-1.293577700853347778e-01,1.628971546888351440e-01,1.217306479811668396e-01,-2.964071035385131836e-01,-3.399318158626556396e-01,1.430152803659439087e-01,4.193307086825370789e-02,-1.809118837118148804e-01,7.282347232103347778e-02,-4.117120057344436646e-02,-2.577857375144958496e-01,-2.886481583118438721e-01,1.450556367635726929e-01,-2.938753962516784668e-01,2.523565432056784630e-03,-2.226796597242355347e-01,2.874767780303955078e-01,-1.358662992715835571e-01,7.142277806997299194e-02,1.399625837802886963e-01,3.385170176625251770e-02,-1.147253587841987610e-01,-2.090170532464981079e-01,-7.799518853425979614e-02,2.142076939344406128e-01
2.275554835796356201e-01,2.002338171005249023e-01,7.523655891418457031e-02,2.289058081805706024e-02,-1.653229445219039917e-01,-1.891545206308364868e-01,-6.331172771751880646e-03,-7.438277453184127808e-02,5.527422204613685608e-02,1.066515818238258362e-01,-2.830908000469207764e-01,2.010316550731658936e-01,-1.626817882061004639e-01,1.271044611930847168e-01,-2.087677828967571259e-02,-1.127388626337051392e-01,2.831783145666122437e-02,1.601413339376449585e-01,2.600054144859313965e-01,-4.040835052728652954e-02,-2.094506025314331055e-01,-1.568674743175506592e-01,-8.000892400741577148e-02,-4.999172687530517578e-02,9.503666311502456665e-03,-2.074715197086334229e-01,-9.563018567860126495e-03,-1.297910213470458984e-01,1.338815242052078247e-01,-3.695295155048370361e-01,-1.076603829860687256e-01,-1.049155369400978088e-01,-8.479354530572891235e-02,-3.967805206775665283e-02,8.590845018625259399e-02,-2.514865994453430176e-01,3.504195064306259155e-02,2.889993786811828613e-01,-2.444151043891906738e-01,-9.049956500530242920e-02,1.146594509482383728e-01,1.902047544717788696e-03,2.675144374370574951e-01,-2.467931061983108521e-01,2.157853990793228149e-01,-3.506878316402435303e-01,3.790715634822845459e-01,2.919467724859714508e-02,3.721503913402557373e-01,-1.021790653467178345e-01
3.600648045539855957e-01,-2.298382520675659180e-01,-4.356323480606079102e-01,2.742093801498413086e-01,2.019037902355194092e-01,9.875962883234024048e-02,1.227670088410377502e-01,-2.615985274314880371e-02,4.596960730850696564e-03,3.583835661411285400e-01,-2.727252542972564697e-01,1.090379357337951660e-01,9.085787087678909302e-02,-1.113199219107627869e-01,-1.530205458402633667e-01,-3.707461059093475342e-01,-7.419820874929428101e-02,-1.586733311414718628e-01,-1.605754047632217407e-01,-7.420660555362701416e-02,-2.549058496952056885e-01,1.980046480894088745e-01,1.117460653185844421e-01,1.049278900027275085e-01,-1.174048632383346558e-01,-1.852006018161773682e-01,-1.317256689071655273e-02,1.066976934671401978e-01,2.080630064010620117e-01,1.571592316031455994e-02,2.116965875029563904e-02,-1.629792004823684692e-01,1.325546950101852417e-01,-1.506904810667037964e-01,-8.721580356359481812e-02,5.831595882773399353e-02,-2.801177501678466797e-01,-1.204481273889541626e-01,2.496425956487655640e-01,-3.137954697012901306e-02,1.127284839749336243e-01,2.202739268541336060e-01,-1.755600869655609131e-01,1.199190691113471985e-02,1.727612167596817017e-01,2.483306080102920532e-01,-3.047672212123870850e-01,2.884354889392852783e-01,-2.638896182179450989e-02,6.588024646043777466e-02
-3.578554093837738037e-02,-3.194981217384338379e-01,-1.069922447204589844e-01,-3.896627575159072876e-03,-2.546062767505645752e-01,-2.783730030059814453e-01,-5.635474622249603271e-02,2.218962907791137695e-01,-3.773717284202575684e-01,-4.339650645852088928e-02,1.938206106424331665e-01,-4.687152802944183350e-02,1.405157595872879028e-01,-1.773543283343315125e-02,1.819874942302703857e-01,2.862268686294555664e-01,1.917362809181213379e-01,-1.199253201484680176e-01,1.423942893743515015e-01,8.647828549146652222e-02,-1.505773514509201050e-01,-2.232536673545837402e-01,-2.011505961418151855e-01,8.814806118607521057e-03,1.048119589686393738e-01,-1.314866989850997925e-01,2.420395314693450928e-01,-3.820583969354629517e-02,1.247542947530746460e-01,-4.386736080050468445e-02,-9.607972949743270874e-02,-1.748310774564743042e-01,-1.823979169130325317e-01,-2.642052173614501953e-01,-4.732662811875343323e-02,-1.779326200485229492e-01,-1.188405826687812805e-01,3.276140093803405762e-01,1.742205321788787842e-01,1.160822436213493347e-01,-9.088367968797683716e-02,1.955822557210922241e-01,-1.499875336885452271e-01,-2.424555458128452301e-02,2.590011656284332275e-01,-1.838583499193191528e-01,2.854361534118652344e-01,-3.656844794750213623e-01,9.655395150184631348e-02,2.037513069808483124e-02
1.984596848487854004e-01,-2.325223088264465332e-01,2.020569890737533569e-01,-8.655761182308197021e-02,-2.836685180664062500e-01,-2.909433282911777496e-02,1.631509363651275635e-01,8.451755158603191376e-03,-7.549541443586349487e-02,-7.976715452969074249e-03,7.829164713621139526e-02,-5.065620690584182739e-02,1.442612409591674805e-01,2.711533010005950928e-01,5.164759233593940735e-02,-2.171094417572021484e-01,6.571349501609802246e-02,-1.236917451024055481e-01,3.039737939834594727e-01,-6.302852649241685867e-03,2.401493638753890991e-01,-3.749615550041198730e-01,5.168657004833221436e-02,-2.304790318012237549e-01,-3.650464117527008057e-01,2.191188186407089233e-01,1.535514444112777710e-01,2.744062840938568115e-01,5.436586588621139526e-02,-6.911300122737884521e-02,-1.863474994897842407e-01,3.018813133239746094e-01,-5.589917302131652832e-01,-1.715833544731140137e-01,-1.173987705260515213e-02,-9.465237706899642944e-02,-1.716672182083129883e-01,-1.325877904891967773e-01,-2.632425166666507721e-02,-8.893021382391452789e-03,-5.565479770302772522e-02,4.779613763093948364e-02,2.974034845829010010e-01,-3.819396346807479858e-02,-9.303170442581176758e-02,-4.189881086349487305e-01,1.583147943019866943e-01,-2.092253416776657104e-01,-8.782681822776794434e-02,-3.055401705205440521e-02
-2.238162457942962646e-01,-4.261632636189460754e-02,1.030212119221687317e-01,-3.130003809928894043e-03,1.441961973905563354e-01,-3.921960592269897461e-01,4.380651935935020447e-02,-2.005153596401214600e-01,-7.538601011037826538e-02,6.955826282501220703e-02,9.012199006974697113e-03,2.333052754402160645e-01,-2.273580133914947510e-01,-1.858582943677902222e-01,1.884895265102386475e-01,5.023442581295967102e-02,1.124152634292840958e-02,1.953446567058563232e-01,7.955340296030044556e-02,-1.114996499381959438e-03,9.968441724777221680e-02,-9.851819276809692383e-02,-2.744001150131225586e-01,3.956422582268714905e-02,-1.006147041916847229e-01,1.510307490825653076e-01,1.009205915033817291e-02,5.342318490147590637e-02,2.675241827964782715e-01,7.072196900844573975e-02,1.359302401542663574e-01,-4.761505424976348877e-01,1.970722079277038574e-01,-1.264602690935134888e-01,-1.293206363916397095e-01,7.678615301847457886e-02,-2.733821272850036621e-01,2.208742797374725342e-01,-2.401924580335617065e-01,-1.770112514495849609e-01,-1.596513837575912476e-01,4.342959076166152954e-02,-4.773673415184020996e-02,1.080815345048904419e-01,-1.001126617193222046e-01,-1.979419589042663574e-02,4.458637535572052002e-02,-1.738075613975524902e-01,1.364233195781707764e-01,-6.889730691909790039e-02
-1.980156749486923218e-01,7.151623070240020752e-02,1.600930243730545044e-01,-1.727278232574462891e-01,2.887086272239685059e-01,-4.338259100914001465e-01,4.694294035434722900e-01,3.110102377831935883e-02,-9.536007791757583618e-02,-1.797255277633666992e-01,-1.710702776908874512e-01,-9.622775763273239136e-02,9.260441362857818604e-02,-4.182160794734954834e-01,-1.054072305560112000e-01,1.193509995937347412e-01,-1.686845421791076660e-01,2.885167002677917480e-01,3.497458249330520630e-02,-3.325482830405235291e-02,-1.823065429925918579e-01,1.564943604171276093e-02,-4.149024486541748047e-01,-1.281655728816986084e-01,1.556504797190427780e-02,1.045000702142715454e-01,8.791326731443405151e-02,-2.647082805633544922e-01,1.672499924898147583e-01,-1.447466313838958740e-01,1.310254931449890137e-01,-3.956863284111022949e-01,2.855217158794403076e-01,-3.398770987987518311e-01,-2.094807326793670654e-01,-7.222628593444824219e-02,2.581062614917755127e-01,1.885060966014862061e-01,-2.226365655660629272e-01,-2.887083590030670166e-01,-8.177749812602996826e-02,-1.962654478847980499e-02,6.484393030405044556e-02,1.302654594182968140e-01,-1.648398488759994507e-01,-1.063998043537139893e-01,-8.953897282481193542e-03,1.625003665685653687e-01,-3.342808410525321960e-02,4.222134500741958618e-02
